~o
<STREAMINFO> 1 25
<VECSIZE> 25<NULLD><MFCC_D_N_Z_0><DIAGC>
~s "silst"
<MEAN> 25
 -1.570875e+000 4.172816e-001 -5.152602e+000 3.157766e+000 3.179518e-001 -1.427639e+000 9.062857e-001 -5.464188e-001 2.959691e+000 -6.135377e-001 -3.534503e-001 6.163601e-001 -1.912330e-001 -2.555096e-001 -3.626886e-001 3.432736e-001 1.026218e-001 -1.968590e-001 -5.983645e-002 1.704787e-002 2.478547e-001 -1.437867e-001 3.496767e-002 1.133846e-001 -2.191957e-001
<VARIANCE> 25
 1.081960e+002 1.007559e+002 6.810608e+001 1.223070e+002 1.385484e+002 5.559542e+001 6.846348e+001 5.068344e+001 4.460332e+001 5.160508e+001 2.855795e+001 4.448185e+001 2.984626e+000 3.664384e+000 1.953400e+000 3.558224e+000 3.925323e+000 4.454800e+000 3.183856e+000 3.451879e+000 3.193840e+000 2.440448e+000 2.253438e+000 2.009995e+000 3.895441e+000
<GCONST> 1.107740e+002
~h "a"
<BEGINHMM>
<NUMSTATES> 5
<STATE> 2
<MEAN> 25
 1.043688e+001 -1.064604e+001 -2.034006e+000 -7.030559e+000 -8.685715e-001 4.543430e+000 2.658396e+000 1.372822e-001 2.537371e+000 2.112809e+000 -1.028964e+000 -3.486997e+000 2.249717e-001 -2.274650e+000 2.454178e-001 -9.499643e-001 8.435644e-001 3.395051e-001 3.623565e-001 8.180785e-001 2.296728e-001 -2.776398e-001 -7.361290e-001 -6.976623e-001 1.758452e+000
<VARIANCE> 25
 4.953279e+001 1.008328e+002 1.400254e+002 1.160426e+002 7.620250e+001 9.486871e+001 7.373022e+001 8.325540e+001 5.907547e+001 7.281660e+001 5.125409e+001 4.870105e+001 2.291091e+000 3.965621e+000 5.074986e+000 6.776000e+000 5.206033e+000 5.734238e+000 5.276906e+000 5.528579e+000 4.743275e+000 5.311491e+000 3.199422e+000 3.567190e+000 3.132484e+000
<GCONST> 1.172734e+002
<STATE> 3
<MEAN> 25
 1.087145e+001 -1.917708e+001 -1.301009e+000 -1.003387e+001 4.853349e+000 2.616015e+000 2.786434e+000 5.119711e+000 1.457419e+000 1.242397e+000 -4.908825e+000 -5.781683e+000 -1.588492e-001 -1.124948e-001 1.255568e-001 -8.460894e-002 2.603025e-001 -2.829581e-001 2.102454e-001 3.912357e-001 -3.672828e-001 -2.708401e-001 -1.233431e-001 1.253918e-001 4.208926e-002
<VARIANCE> 25
 1.959115e+001 2.200047e+001 5.508810e+001 5.229144e+001 5.331975e+001 5.991041e+001 6.342782e+001 6.374648e+001 2.940668e+001 3.721535e+001 2.799894e+001 2.370095e+001 2.762880e-001 7.672053e-001 1.088554e+000 1.238813e+000 1.564611e+000 2.072820e+000 1.618321e+000 2.240324e+000 1.607491e+000 1.703599e+000 1.409795e+000 1.504533e+000 3.237895e-001
<GCONST> 9.169237e+001
<STATE> 4
<MEAN> 25
 6.299272e+000 -1.092213e+001 -1.400657e+000 -3.932146e+000 3.473288e+000 7.545898e-001 3.214328e+000 4.241492e+000 1.204519e+000 4.548645e-001 -3.707472e+000 -2.514755e+000 -6.640162e-001 1.530505e+000 4.189722e-001 1.393962e+000 -1.758780e-001 -1.327118e-001 -4.255965e-001 -4.870682e-001 -3.326353e-001 -1.738891e-002 1.923696e-001 6.830241e-001 -1.691740e+000
<VARIANCE> 25
 3.411435e+001 4.558227e+001 5.915978e+001 6.430391e+001 4.318277e+001 6.896572e+001 4.578739e+001 5.772769e+001 3.808329e+001 2.949269e+001 3.676286e+001 2.642070e+001 8.969500e-001 1.587392e+000 1.795020e+000 2.569103e+000 2.534110e+000 2.239498e+000 2.429169e+000 2.406498e+000 2.580827e+000 2.011104e+000 2.004628e+000 1.691619e+000 1.130998e+000
<GCONST> 9.969614e+001
<TRANSP> 5
 0.000000e+000 1.000000e+000 0.000000e+000 0.000000e+000 0.000000e+000
 0.000000e+000 6.787347e-001 3.212653e-001 0.000000e+000 0.000000e+000
 0.000000e+000 0.000000e+000 8.316211e-001 1.683789e-001 0.000000e+000
 0.000000e+000 0.000000e+000 0.000000e+000 7.910279e-001 2.089721e-001
 0.000000e+000 0.000000e+000 0.000000e+000 0.000000e+000 0.000000e+000
<ENDHMM>
~h "b"
<BEGINHMM>
<NUMSTATES> 5
<STATE> 2
<MEAN> 25
 -8.146885e+000 6.725685e+000 -5.294896e+000 8.119532e+000 1.381692e-001 -2.333992e+000 1.875888e-002 7.587100e-001 2.527741e+000 -2.960432e+000 -8.598419e-003 1.792075e+000 -4.316905e-001 4.305293e-001 6.294966e-002 -3.402150e-002 -9.183096e-002 8.772667e-002 -4.556150e-002 -2.580762e-001 -7.952476e-003 1.243766e-001 1.846464e-001 -9.743499e-002 -5.940332e-001
<VARIANCE> 25
 7.598083e+001 3.049355e+001 4.666456e+001 2.866147e+001 3.900357e+001 3.243793e+001 3.027060e+001 3.470004e+001 3.109893e+001 3.627474e+001 2.269201e+001 2.310552e+001 3.166742e-001 5.971729e-001 6.383186e-001 6.925879e-001 9.165614e-001 1.108525e+000 1.111790e+000 1.183538e+000 1.008800e+000 1.719515e+000 1.125994e+000 1.319605e+000 1.217722e-001
<GCONST> 8.493365e+001
<STATE> 3
<MEAN> 25
 -1.286623e+001 8.253066e+000 -4.043646e+000 8.402661e+000 -1.305810e+000 3.453887e-001 1.861143e+000 -4.212148e-001 3.101577e+000 -8.480496e-001 1.984593e+000 3.363813e-002 1.862750e+000 2.017912e+000 2.073377e+000 1.642723e+000 1.683258e+000 1.076961e+000 8.520074e-001 4.181252e-001 6.047864e-002 -1.473641e-002 -3.074645e-001 -5.250881e-001 1.000671e+000
<VARIANCE> 25
 1.309012e+002 2.715810e+001 5.814305e+001 2.456549e+001 2.590688e+001 2.380625e+001 2.439218e+001 3.872762e+001 4.056525e+001 2.159348e+001 2.232514e+001 1.573652e+001 5.522369e+000 2.843149e+000 3.186084e+000 2.181435e+000 2.607364e+000 2.707442e+000 2.747347e+000 1.946730e+000 2.372873e+000 1.466835e+000 1.372394e+000 1.664555e+000 3.205900e+000
<GCONST> 9.886151e+001
<STATE> 4
<MEAN> 25
 5.452470e+000 2.172484e+001 5.549096e+000 1.514563e+001 4.140994e+000 1.809604e+000 2.637435e+000 -3.637518e+000 -2.505983e+000 -3.296823e+000 4.424450e-001 -4.800919e-001 2.616375e+000 1.906694e-001 -1.013918e-001 -1.145122e-001 -6.468786e-002 -2.167268e-001 -4.436715e-001 -6.070169e-001 -8.206482e-001 -2.191569e-001 8.523975e-002 1.449276e-001 1.936074e+000
<VARIANCE> 25
 5.534151e+001 6.721376e+001 2.958801e+001 2.290454e+001 2.760847e+001 2.049678e+001 3.217054e+001 2.887379e+001 2.692502e+001 2.326462e+001 2.491552e+001 1.782562e+001 5.654030e+000 1.519098e+001 9.056582e+000 5.935651e+000 3.821299e+000 2.622904e+000 4.053991e+000 3.735372e+000 3.733800e+000 2.565932e+000 2.726887e+000 2.120412e+000 3.092212e+000
<GCONST> 1.049989e+002
<TRANSP> 5
 0.000000e+000 1.000000e+000 0.000000e+000 0.000000e+000 0.000000e+000
 0.000000e+000 9.053782e-001 9.462177e-002 0.000000e+000 0.000000e+000
 0.000000e+000 0.000000e+000 4.546230e-001 5.453770e-001 0.000000e+000
 0.000000e+000 0.000000e+000 0.000000e+000 8.347216e-001 1.652784e-001
 0.000000e+000 0.000000e+000 0.000000e+000 0.000000e+000 0.000000e+000
<ENDHMM>
~h "c"
<BEGINHMM>
<NUMSTATES> 5
<STATE> 2
<MEAN> 25
 -1.345888e+001 5.258951e+000 -6.467101e+000 3.831103e+000 -2.326098e+000 -2.156963e+000 2.302988e+000 4.901886e-001 3.502543e+000 3.145575e-001 2.347034e+000 8.723630e-001 -4.197664e-001 -1.261011e-001 -4.306938e-001 1.587238e-001 5.771764e-002 -1.998785e-001 1.766142e-001 2.301308e-001 1.398772e-002 -9.884989e-002 -6.418175e-002 -5.362498e-003 -3.808252e-001
<VARIANCE> 25
 2.928354e+001 1.286665e+001 1.588662e+001 9.028219e+000 7.429353e+000 6.228591e+000 1.409817e+001 1.473943e+001 9.945658e+000 9.215931e+000 8.385912e+000 8.486401e+000 1.892843e-001 2.793469e-001 4.409322e-001 5.677046e-001 6.151090e-001 6.530405e-001 9.002239e-001 8.820787e-001 8.106773e-001 6.876996e-001 8.227050e-001 1.011520e+000 1.431028e-001
<GCONST> 6.661900e+001
<STATE> 3
<MEAN> 25
 -1.216034e+001 8.612971e-001 -8.277012e+000 8.231153e+000 2.886232e-001 -2.254824e+000 3.025712e+000 2.900521e+000 3.525631e+000 7.272168e-001 1.412414e+000 -3.211909e-001 2.341311e-002 -7.834255e-001 2.184954e+000 1.766557e-001 1.057883e+000 -8.566318e-001 5.260684e-001 1.655715e+000 7.435773e-002 -1.740821e-001 -7.015917e-001 7.175721e-001 1.508336e+000
<VARIANCE> 25
 8.039180e+001 5.162503e+000 1.513383e+001 1.301409e+001 9.785401e+000 2.636100e+001 1.712560e+001 1.490772e+001 2.894309e+001 2.020388e+001 1.146489e+001 6.398129e+000 2.372023e+000 8.553499e+000 6.001099e+000 7.437870e+000 3.408152e+000 6.857299e+000 1.872439e+000 9.278748e+000 5.387683e+000 2.343554e+000 3.001511e+000 3.236025e+000 5.512480e+000
<GCONST> 9.835128e+001
<STATE> 4
<MEAN> 25
 -7.185545e+000 -4.424479e+000 7.004545e+000 -1.494725e+000 9.770470e+000 -8.753780e+000 2.530305e+000 -4.305832e+000 1.886832e+000 1.163475e+000 8.604581e-001 -8.602985e-001 5.425863e-001 -2.357858e-001 9.066746e-001 -7.495080e-001 8.765891e-002 -2.845627e-001 1.238741e-001 -8.128914e-001 -3.136007e-001 -7.813184e-002 2.327179e-001 -1.120191e-001 1.858168e+000
<VARIANCE> 25
 2.223371e+002 9.568237e+001 3.983630e+001 1.355096e+002 1.135293e+002 7.707001e+001 5.096544e+001 7.822046e+001 9.310362e+001 5.434002e+001 2.420898e+001 3.661829e+001 1.295078e+001 5.630907e+000 6.789463e+000 1.171175e+001 1.012737e+001 7.845830e+000 6.587181e+000 5.579232e+000 7.057939e+000 4.097626e+000 2.629846e+000 2.683625e+000 8.168500e+000
<GCONST> 1.212534e+002
<TRANSP> 5
 0.000000e+000 1.000000e+000 0.000000e+000 0.000000e+000 0.000000e+000
 0.000000e+000 9.179429e-001 8.205709e-002 0.000000e+000 0.000000e+000
 0.000000e+000 0.000000e+000 5.838508e-001 4.161492e-001 0.000000e+000
 0.000000e+000 0.000000e+000 0.000000e+000 9.365500e-001 6.345002e-002
 0.000000e+000 0.000000e+000 0.000000e+000 0.000000e+000 0.000000e+000
<ENDHMM>
~h "d"
<BEGINHMM>
<NUMSTATES> 5
<STATE> 2
<MEAN> 25
 -5.029379e+000 1.160526e+001 2.596066e+000 8.657020e+000 2.044239e+000 8.605646e-001 2.086133e+000 9.899746e-001 1.861073e-001 -2.517544e+000 -2.703560e-001 -1.016034e+000 1.152775e+000 1.300019e+000 1.053834e+000 1.300259e+000 6.837330e-001 2.742321e-001 -1.940059e-002 -3.441179e-001 -6.546476e-002 -5.389748e-002 -2.475288e-001 -1.818135e-001 3.668276e-001
<VARIANCE> 25
 7.773361e+001 5.567028e+001 1.063972e+002 3.029530e+001 3.900072e+001 2.327756e+001 2.241371e+001 2.527090e+001 3.653428e+001 2.388127e+001 2.553284e+001 1.567747e+001 4.460146e+000 4.285650e+000 4.002584e+000 2.552565e+000 2.717830e+000 1.686489e+000 1.560361e+000 1.650731e+000 2.428786e+000 1.585815e+000 1.864221e+000 1.362641e+000 1.705729e+000
<GCONST> 9.886963e+001
<STATE> 3
<MEAN> 25
 5.913994e+000 2.125545e+001 9.317139e+000 1.566056e+001 4.029670e+000 -2.555419e+000 -2.902758e+000 -4.317703e+000 -2.499104e+000 -2.253243e+000 5.517024e-001 6.466497e-001 1.097401e+000 -1.429284e+000 4.541040e-001 3.279745e-001 -1.491768e+000 -6.961538e-001 -5.276207e-001 -4.741662e-001 2.867279e-001 -1.186634e-001 1.749700e-002 8.345241e-001 1.453367e+000
<VARIANCE> 25
 1.170071e+001 1.304208e+002 2.136976e+001 2.787596e+001 2.624208e+001 2.893810e+001 3.248714e+001 3.865569e+001 2.239918e+001 2.008394e+001 2.466586e+001 1.561508e+001 2.750431e+000 1.052915e+001 2.447938e+000 2.188028e+000 3.631162e+000 4.328403e+000 5.453346e+000 5.516946e+000 4.025642e+000 2.253721e+000 3.053885e+000 2.232567e+000 1.654952e+000
<GCONST> 1.013293e+002
<STATE> 4
<MEAN> 25
 9.257785e+000 -4.394038e+000 1.468651e+001 7.479023e+000 -1.212772e+001 -3.644692e+000 -3.801881e+000 1.471444e+000 1.788568e+000 -5.217623e+000 1.840616e+000 4.222228e+000 9.473838e-001 -3.507895e+000 8.903211e-001 -3.500677e+000 -2.495636e+000 -4.728343e-001 -9.821959e-001 8.737339e-001 -2.301284e-001 4.556850e-001 1.309122e+000 -3.578757e-001 3.242523e+000
<VARIANCE> 25
 1.878082e+001 1.351044e+002 3.943957e+001 1.035520e+002 7.528514e+001 5.209764e+001 4.568217e+001 7.624329e+001 5.923711e+001 4.167387e+001 6.349957e+001 3.686651e+001 1.434867e+000 1.971363e+001 5.975750e+000 5.839084e+000 1.661874e+001 8.524196e+000 5.427064e+000 7.698136e+000 7.247139e+000 6.098666e+000 6.101889e+000 5.878109e+000 5.746492e+000
<GCONST> 1.187980e+002
<TRANSP> 5
 0.000000e+000 1.000000e+000 0.000000e+000 0.000000e+000 0.000000e+000
 0.000000e+000 7.860256e-001 2.139744e-001 0.000000e+000 0.000000e+000
 0.000000e+000 0.000000e+000 7.072319e-001 2.927681e-001 0.000000e+000
 0.000000e+000 0.000000e+000 0.000000e+000 6.759197e-001 3.240804e-001
 0.000000e+000 0.000000e+000 0.000000e+000 0.000000e+000 0.000000e+000
<ENDHMM>
~h "e"
<BEGINHMM>
<NUMSTATES> 5
<STATE> 2
<MEAN> 25
 -6.065764e-001 6.762240e+000 -2.387370e+000 2.124165e+000 7.583245e-002 3.260836e+000 -6.680634e-001 -1.930071e+000 1.202252e+000 8.183282e-001 4.422314e+000 1.227490e+000 3.849497e-002 5.747958e-001 -9.851038e-002 6.243307e-001 3.805562e-001 2.685693e-001 -1.772769e-002 -4.845098e-001 -5.608186e-001 2.336923e-002 4.966754e-003 -1.418979e-001 -3.764721e-001
<VARIANCE> 25
 2.181534e+002 1.665009e+002 1.289757e+002 1.078066e+002 6.827833e+001 6.892751e+001 3.698835e+001 4.101444e+001 4.040285e+001 3.046713e+001 2.765779e+001 2.624793e+001 8.670602e+000 3.628682e+000 3.671098e+000 3.882511e+000 3.450687e+000 3.506512e+000 2.499697e+000 2.493309e+000 4.309695e+000 1.605891e+000 1.763738e+000 1.431987e+000 8.461127e+000
<GCONST> 1.108966e+002
<STATE> 3
<MEAN> 25
 5.734291e+000 6.182710e+000 3.569078e+000 4.088062e+000 1.960845e+000 -1.457528e+000 -2.110615e+000 -2.333558e+000 -1.635757e+000 5.403153e-001 1.790926e+000 8.266483e-002 7.255017e-001 -1.796053e-001 -6.669628e-002 8.165615e-001 -3.467763e-001 -4.685401e-001 -3.863149e-001 -6.953009e-001 -2.363021e-001 1.044275e-001 -1.021782e-001 -2.519361e-002 3.776828e-001
<VARIANCE> 25
 3.627404e+001 2.045456e+002 9.951780e+001 1.159683e+002 7.478351e+001 5.100975e+001 3.819109e+001 4.061311e+001 4.338083e+001 3.783268e+001 3.044503e+001 2.328635e+001 8.710773e+000 1.198221e+001 6.370706e+000 8.482710e+000 6.284718e+000 4.112729e+000 5.943467e+000 5.339732e+000 6.349632e+000 3.269282e+000 2.384075e+000 1.780939e+000 1.123889e+001
<GCONST> 1.160185e+002
<STATE> 4
<MEAN> 25
 9.963794e+000 1.236485e+000 2.601643e+000 4.221205e+000 -1.666211e+000 -1.874162e+000 -6.302011e+000 -5.609604e+000 -7.278511e-001 3.064737e+000 3.001558e+000 -5.373039e-001 3.810498e-001 -3.122269e+000 1.307340e+000 -2.186727e+000 -1.522171e+000 -3.163881e-001 -7.826150e-001 6.381317e-001 7.910979e-001 8.210437e-001 -5.691944e-001 2.427798e-001 2.428447e+000
<VARIANCE> 25
 3.209573e+001 1.153144e+002 1.094945e+002 1.009425e+002 1.269624e+002 6.571053e+001 8.810463e+001 1.103648e+002 7.423679e+001 4.161436e+001 4.038214e+001 2.695028e+001 3.262219e+000 1.558261e+001 8.392776e+000 1.215255e+001 9.874170e+000 4.498332e+000 7.667296e+000 1.108404e+001 8.638531e+000 6.177994e+000 4.181576e+000 2.569025e+000 1.039179e+001
<GCONST> 1.221953e+002
<TRANSP> 5
 0.000000e+000 1.000000e+000 0.000000e+000 0.000000e+000 0.000000e+000
 0.000000e+000 5.441022e-001 4.558978e-001 0.000000e+000 0.000000e+000
 0.000000e+000 0.000000e+000 2.010551e-001 7.989449e-001 0.000000e+000
 0.000000e+000 0.000000e+000 0.000000e+000 5.672024e-001 4.327976e-001
 0.000000e+000 0.000000e+000 0.000000e+000 0.000000e+000 0.000000e+000
<ENDHMM>
~h "f"
<BEGINHMM>
<NUMSTATES> 5
<STATE> 2
<MEAN> 25
 -3.613853e+000 2.018443e+000 4.059030e+000 4.786711e+000 3.174762e+000 7.566974e-001 -3.717492e+000 -1.995556e+000 -3.546493e+000 2.747309e-001 -1.405682e+000 2.154527e+000 -3.807456e-001 1.184229e-001 1.483674e-002 1.716906e-001 1.655857e-001 -1.333879e-001 1.332667e-001 4.282050e-002 -1.556307e-001 -1.190177e-003 1.456710e-002 -4.802020e-003 1.402225e-001
<VARIANCE> 25
 3.141453e+001 2.772077e+001 3.637825e+001 1.143337e+001 1.833625e+001 2.991183e+001 2.349936e+001 2.923684e+001 1.819074e+001 1.477312e+001 1.228946e+001 1.416023e+001 1.100232e+000 1.255149e+000 1.257252e+000 9.971041e-001 1.555610e+000 2.059279e+000 1.998258e+000 2.282648e+000 1.950209e+000 1.359139e+000 1.145738e+000 1.084806e+000 2.502937e-001
<GCONST> 8.537708e+001
<STATE> 3
<MEAN> 25
 -1.249675e+001 1.013387e+001 6.279547e+000 4.490360e+000 -7.799942e-001 -5.480523e+000 1.568005e+000 -2.088718e+000 -6.907416e+000 2.407035e+000 2.808928e+000 2.568487e+000 -2.746442e-001 1.889572e-001 -7.128222e-002 -2.455903e-001 -2.608938e-001 -4.217495e-001 1.255543e-001 -3.378331e-001 4.014884e-002 1.164393e-002 -9.878185e-003 -1.440515e-001 2.398620e-001
<VARIANCE> 25
 4.267545e+001 5.489580e+001 2.467719e+001 1.349216e+001 3.900019e+001 2.079571e+001 2.370181e+001 3.117117e+001 1.997419e+001 1.926837e+001 1.519964e+001 1.481717e+001 3.225216e+000 9.963107e-001 2.368834e+000 1.147895e+000 3.347457e+000 1.709756e+000 1.748817e+000 2.223754e+000 2.141831e+000 1.376790e+000 1.980905e+000 1.340559e+000 2.157028e-001
<GCONST> 8.998182e+001
<STATE> 4
<MEAN> 25
 -1.035347e+001 -1.210446e+001 7.483309e+000 -1.319230e+000 2.652269e+000 -1.330932e+001 6.145164e+000 -2.934524e+000 1.823691e+000 -1.534743e+000 3.724410e-001 4.251043e-001 5.647271e-002 -8.489535e-002 -2.792137e-001 -3.166001e-002 -2.388722e-001 -3.171935e-002 -1.686047e-001 -5.371099e-002 6.203592e-001 -1.000142e-001 2.410233e-001 -3.851978e-001 2.653452e-002
<VARIANCE> 25
 1.689310e+001 1.363152e+002 2.866677e+001 1.329990e+001 6.773598e+001 3.184283e+001 4.440997e+001 2.853204e+001 4.165792e+001 2.389975e+001 1.527009e+001 2.113249e+001 2.220489e+000 1.440454e+000 2.966333e+000 1.747232e+000 3.234366e+000 1.517742e+000 1.461150e+000 1.256887e+000 2.676683e+000 2.591300e+000 1.711013e+000 1.927429e+000 2.986665e-001
<GCONST> 9.406183e+001
<TRANSP> 5
 0.000000e+000 1.000000e+000 0.000000e+000 0.000000e+000 0.000000e+000
 0.000000e+000 9.044321e-001 9.556789e-002 0.000000e+000 0.000000e+000
 0.000000e+000 0.000000e+000 8.860305e-001 1.139695e-001 0.000000e+000
 0.000000e+000 0.000000e+000 0.000000e+000 8.173559e-001 1.826440e-001
 0.000000e+000 0.000000e+000 0.000000e+000 0.000000e+000 0.000000e+000
<ENDHMM>
~h "g"
<BEGINHMM>
<NUMSTATES> 5
<STATE> 2
<MEAN> 25
 5.238130e+000 1.358070e+000 1.191551e+001 1.110079e+001 -3.421808e+000 -6.217765e+000 -4.849994e+000 2.449036e+000 -2.896608e+000 -1.753772e+000 2.837472e+000 3.217997e+000 7.286031e-001 -1.960277e+000 1.754792e+000 -2.390516e+000 -1.578300e+000 -1.294459e+000 -1.245446e+000 8.733938e-001 -8.118963e-001 4.345051e-001 8.201796e-001 6.180010e-001 2.341474e+000
<VARIANCE> 25
 1.120018e+001 1.156181e+002 6.150330e+001 9.331619e+001 6.406261e+001 3.712003e+001 4.596669e+001 4.600491e+001 3.971757e+001 3.089134e+001 3.699422e+001 2.268625e+001 1.264113e+000 6.869095e+000 5.071555e+000 1.023189e+001 4.994626e+000 2.572826e+000 2.817061e+000 3.364380e+000 4.040031e+000 4.219787e+000 4.959299e+000 1.901659e+000 2.162977e+000
<GCONST> 1.078081e+002
<STATE> 3
<MEAN> 25
 7.012519e+000 -9.605455e+000 1.608504e+001 -1.138094e+001 -3.726044e+000 -1.006597e+001 -4.966883e+000 1.102765e+001 -2.212624e+000 6.330115e+000 -2.655119e-001 2.046268e+000 -1.668694e-001 -7.070656e-001 -1.114337e+000 -1.411318e+000 1.384657e+000 -2.722817e-002 1.286066e+000 7.526908e-001 8.965880e-001 7.708545e-001 -1.795317e+000 -4.931669e-001 5.398258e-001
<VARIANCE> 25
 6.053900e+000 3.437001e+001 2.067960e+001 2.532665e+001 2.687150e+001 1.809082e+001 3.173073e+001 2.384386e+001 3.215095e+001 1.857918e+001 2.874653e+001 2.034111e+001 2.234425e-001 1.534427e+000 1.296418e+000 3.622302e+000 1.627824e+000 1.336451e+000 1.833657e+000 1.525225e+000 2.502538e+000 2.877024e+000 1.248837e+000 1.421187e+000 1.219832e+000
<GCONST> 8.815321e+001
<STATE> 4
<MEAN> 25
 3.836194e+000 -1.199126e+001 7.158080e+000 -1.243670e+001 2.972130e+000 -7.000821e+000 1.649060e+000 9.943635e+000 1.799996e+000 4.968287e+000 -1.072228e+001 -1.571107e+000 -4.355047e-001 3.052032e-001 -6.650040e-001 7.232661e-001 3.480459e-002 6.031568e-001 2.348033e-001 -6.432428e-001 1.913317e-001 -2.732821e-001 -1.660572e-001 -1.964908e-001 -8.854131e-001
<VARIANCE> 25
 1.827871e+001 3.114590e+001 1.888913e+001 5.154454e+001 2.256444e+001 3.342746e+001 2.230786e+001 3.528001e+001 1.752362e+001 1.878209e+001 2.426791e+001 1.968046e+001 3.954377e-001 1.031559e+000 5.748911e-001 2.084822e+000 1.640929e+000 1.543660e+000 1.359373e+000 1.662965e+000 1.236115e+000 1.318728e+000 1.981167e+000 1.518968e+000 9.609104e-001
<GCONST> 8.701157e+001
<TRANSP> 5
 0.000000e+000 1.000000e+000 0.000000e+000 0.000000e+000 0.000000e+000
 0.000000e+000 8.411482e-001 1.588518e-001 0.000000e+000 0.000000e+000
 0.000000e+000 0.000000e+000 8.301421e-001 1.698579e-001 0.000000e+000
 0.000000e+000 0.000000e+000 0.000000e+000 9.044086e-001 9.559140e-002
 0.000000e+000 0.000000e+000 0.000000e+000 0.000000e+000 0.000000e+000
<ENDHMM>
~h "h"
<BEGINHMM>
<NUMSTATES> 5
<STATE> 2
<MEAN> 25
 -1.016118e+000 -4.724521e+000 -4.123844e+000 1.482878e+000 3.348077e+000 3.820839e+000 4.117095e+000 2.025064e+000 -8.958609e-001 -2.975383e+000 -4.467480e+000 -3.189042e-002 -3.655647e-001 5.651521e-001 -3.756844e-001 5.011585e-001 -7.365080e-002 1.025860e-001 -6.989337e-001 -1.213159e-001 -3.644819e-002 6.749420e-002 3.475440e-001 3.197726e-001 -9.566021e-001
<VARIANCE> 25
 2.614232e+001 7.736538e+001 4.296221e+001 2.013496e+001 1.212997e+001 1.533021e+001 2.336955e+001 2.090368e+001 2.161225e+001 2.559408e+001 1.666653e+001 1.350323e+001 2.077313e-001 5.688780e-001 1.116443e+000 1.408044e+000 1.059711e+000 1.432160e+000 1.697917e+000 1.100341e+000 1.434091e+000 1.567283e+000 1.011621e+000 1.662560e+000 1.691855e-001
<GCONST> 8.238260e+001
<STATE> 3
<MEAN> 25
 -8.216006e+000 4.189409e+000 -9.366980e-001 3.646809e+000 1.161552e+000 8.382184e-001 -3.841637e+000 -2.510631e+000 -7.249264e-001 -1.091833e+000 3.698029e-003 1.378145e+000 -4.142682e-001 2.916089e-001 1.248333e-001 -2.329678e-002 -1.770198e-001 -6.910414e-002 -1.561309e-001 -2.397362e-001 -1.068657e-001 2.642694e-002 1.690569e-001 1.718979e-002 -2.000561e-001
<VARIANCE> 25
 4.558467e+001 1.741302e+001 7.165240e+001 1.461574e+001 2.887398e+001 1.553630e+001 2.463120e+001 2.384893e+001 2.466200e+001 1.770895e+001 2.278897e+001 1.429730e+001 2.893456e-001 4.673500e-001 5.128778e-001 7.271201e-001 1.078567e+000 1.285940e+000 1.520856e+000 1.438163e+000 1.853377e+000 1.462025e+000 1.550668e+000 8.899427e-001 2.854954e-001
<GCONST> 8.211316e+001
<STATE> 4
<MEAN> 25
 -7.978237e+000 -6.269590e+000 -3.284563e+000 4.092669e+000 7.639459e-001 6.291798e+000 1.435018e+000 3.460596e+000 -2.267582e+000 -1.377962e+000 3.176471e+000 -1.154411e+000 -4.024777e-001 1.446651e-001 -1.685736e-001 7.597978e-002 -5.002798e-001 1.715029e-001 2.454135e-001 1.370744e-001 2.912620e-002 -1.671452e-001 2.716858e-001 3.169313e-002 -4.132928e-001
<VARIANCE> 25
 1.268673e+002 2.266810e+002 1.129256e+002 7.103836e+000 3.145788e+001 3.629811e+001 3.234128e+001 3.908355e+001 4.094311e+001 2.509939e+001 2.517326e+001 1.466247e+001 2.461642e+000 1.321059e+000 1.948463e+000 7.636990e-001 2.110765e+000 1.951555e+000 1.614212e+000 1.738989e+000 2.522050e+000 1.619222e+000 2.202175e+000 1.640684e+000 1.541698e+000
<GCONST> 9.707854e+001
<TRANSP> 5
 0.000000e+000 1.000000e+000 0.000000e+000 0.000000e+000 0.000000e+000
 0.000000e+000 7.933711e-001 2.066289e-001 0.000000e+000 0.000000e+000
 0.000000e+000 0.000000e+000 9.385294e-001 6.147057e-002 0.000000e+000
 0.000000e+000 0.000000e+000 0.000000e+000 8.215708e-001 1.784292e-001
 0.000000e+000 0.000000e+000 0.000000e+000 0.000000e+000 0.000000e+000
<ENDHMM>
~h "i"
<BEGINHMM>
<NUMSTATES> 5
<STATE> 2
<MEAN> 25
 -4.677583e+000 -9.857196e-001 9.126057e+000 4.989364e+000 -6.001586e+000 -5.421348e+000 3.212686e+000 -3.534047e-002 -1.586495e+000 -2.478174e+000 3.668964e+000 2.705977e+000 2.369914e+000 -1.011703e+000 5.061116e+000 -9.366492e-001 -3.378206e+000 3.173535e-001 -5.417038e-001 -1.189797e+000 -2.513561e+000 -1.378394e-001 9.160945e-001 -3.722602e-001 3.214709e+000
<VARIANCE> 25
 9.436803e+001 7.126627e+001 1.176546e+002 1.260988e+002 1.236830e+002 1.142938e+002 1.160772e+002 9.345315e+001 6.511758e+001 6.235005e+001 3.526534e+001 4.103559e+001 6.974708e+000 1.220734e+001 1.639477e+001 1.072426e+001 1.017274e+001 8.232330e+000 7.379804e+000 6.605409e+000 7.800457e+000 5.234815e+000 3.660641e+000 3.047668e+000 1.034614e+001
<GCONST> 1.251862e+002
<STATE> 3
<MEAN> 25
 3.082001e+000 -1.594533e+000 2.844294e+001 -2.028760e+000 -1.515768e+001 1.193528e+000 -2.723642e+000 -4.145382e+000 -1.059602e+001 -1.934219e+000 5.816057e+000 -1.597876e+000 5.086271e-001 -5.674166e-001 5.445134e+000 -3.877084e+000 -1.942692e+000 1.861174e+000 -1.763571e+000 2.114732e-002 -2.092599e+000 -2.676891e-001 2.497475e-002 -1.240571e+000 2.418187e+000
<VARIANCE> 25
 2.410933e+001 4.275887e+001 1.063429e+002 1.014698e+002 8.367370e+001 8.137463e+001 6.812676e+001 6.747947e+001 8.339053e+001 4.737059e+001 3.348733e+001 3.097386e+001 1.818057e+000 4.487219e+000 1.146366e+001 9.549316e+000 9.166576e+000 6.909639e+000 6.852888e+000 4.912934e+000 5.508674e+000 4.307445e+000 3.177183e+000 3.100127e+000 3.270338e+000
<GCONST> 1.157552e+002
<STATE> 4
<MEAN> 25
 1.923547e+000 4.310201e-002 3.046653e+001 -7.960936e+000 -1.256395e+001 1.594180e+000 -3.675057e+000 -1.073399e+000 -1.296766e+001 -1.877342e+000 2.997759e+000 -2.339098e+000 -1.546437e-001 2.429404e-001 -1.179100e+000 4.959548e-001 6.277639e-001 -3.602018e-001 2.410231e-001 3.093118e-001 3.749826e-001 1.188617e-001 -3.062890e-001 2.706334e-001 -7.042739e-001
<VARIANCE> 25
 1.856584e+001 2.704581e+001 1.113887e+002 6.956221e+001 4.851107e+001 4.873007e+001 4.095177e+001 4.547030e+001 4.999642e+001 3.516845e+001 2.400122e+001 2.500567e+001 4.828560e-001 1.234402e+000 3.974462e+000 3.965670e+000 3.290228e+000 2.708744e+000 2.304324e+000 2.423682e+000 2.408708e+000 2.054956e+000 1.777546e+000 1.494003e+000 1.136693e+000
<GCONST> 9.913967e+001
<TRANSP> 5
 0.000000e+000 1.000000e+000 0.000000e+000 0.000000e+000 0.000000e+000
 0.000000e+000 4.732931e-001 5.267069e-001 0.000000e+000 0.000000e+000
 0.000000e+000 0.000000e+000 5.570135e-001 4.429866e-001 0.000000e+000
 0.000000e+000 0.000000e+000 0.000000e+000 9.099860e-001 9.001400e-002
 0.000000e+000 0.000000e+000 0.000000e+000 0.000000e+000 0.000000e+000
<ENDHMM>
~h "j"
<BEGINHMM>
<NUMSTATES> 5
<STATE> 2
<MEAN> 25
 -2.214754e+000 1.357388e+001 -1.324545e+000 1.245383e+001 3.050797e+000 -4.402679e+000 -4.149400e+000 1.083993e+000 4.488961e+000 -2.615810e+000 -9.001386e-001 6.386356e-001 6.381654e-001 7.400374e-001 2.384967e-001 6.423553e-001 9.553478e-001 -1.087815e-002 -3.455995e-003 -2.179813e-001 3.674315e-003 1.380401e-001 -1.144224e-001 2.935972e-001 2.236245e-001
<VARIANCE> 25
 7.778053e+001 8.482993e+001 4.135800e+001 2.944846e+001 4.335936e+001 2.877168e+001 2.696593e+001 3.801568e+001 5.398147e+001 8.512463e+000 1.211026e+001 1.011455e+001 4.113395e+000 2.135404e+000 1.871563e+000 3.536480e+000 2.482733e+000 3.990622e+000 2.858993e+000 2.365746e+000 2.878126e+000 1.716465e+000 1.527418e+000 1.234461e+000 1.732302e+000
<GCONST> 9.789481e+001
<STATE> 3
<MEAN> 25
 1.428036e+000 1.042835e+001 1.238736e+001 -6.376579e-001 1.886176e+001 -8.582973e+000 -1.286458e+000 -4.623201e-002 -4.790236e-001 5.225038e+000 -2.288174e+000 5.942256e+000 -8.697544e-001 -2.965039e+000 2.466559e+000 -4.223349e+000 9.300463e-001 -2.820575e+000 8.284898e-001 -3.985300e-001 -1.584951e+000 1.900218e-001 -1.078390e+000 1.143949e+000 3.309904e+000
<VARIANCE> 25
 3.352180e+001 1.127080e+002 4.300308e+001 1.197669e+002 1.386721e+002 6.718485e+001 8.746270e+001 3.078798e+001 4.022166e+001 3.043241e+001 1.973220e+001 1.834745e+001 5.425455e+000 5.430133e+000 3.617352e+000 7.003179e+000 2.684696e+001 7.012201e+000 6.426689e+000 5.507137e+000 2.857210e+000 7.821884e+000 1.273167e+000 1.724997e+000 2.987194e+000
<GCONST> 1.131776e+002
<STATE> 4
<MEAN> 25
 3.607561e+000 -6.758096e+000 1.722088e+001 -1.043258e+001 8.379712e-001 -1.532462e+001 6.621194e+000 6.119201e+000 -2.832223e+000 2.413789e+000 -4.547865e+000 6.092579e+000 1.419354e-001 -1.987193e-001 -1.318156e-001 1.961991e-002 -3.851730e-001 6.411596e-002 2.037822e-001 5.294725e-002 1.309044e-002 -3.634342e-002 6.574412e-002 1.828521e-002 9.899224e-002
<VARIANCE> 25
 2.093909e+001 5.341732e+001 3.656067e+001 5.055978e+001 5.033401e+001 3.343869e+001 5.657705e+001 6.379978e+001 6.802307e+001 2.344614e+001 6.425484e+001 1.128593e+001 1.180320e+000 2.026219e+000 3.429315e+000 3.819080e+000 7.360252e+000 2.743590e+000 3.483008e+000 4.615743e+000 5.243426e+000 1.942015e+000 4.496246e+000 1.184565e+000 2.274581e+000
<GCONST> 1.041117e+002
<TRANSP> 5
 0.000000e+000 1.000000e+000 0.000000e+000 0.000000e+000 0.000000e+000
 0.000000e+000 9.098514e-001 9.014859e-002 0.000000e+000 0.000000e+000
 0.000000e+000 0.000000e+000 7.352057e-001 2.647943e-001 0.000000e+000
 0.000000e+000 0.000000e+000 0.000000e+000 9.493070e-001 5.069303e-002
 0.000000e+000 0.000000e+000 0.000000e+000 0.000000e+000 0.000000e+000
<ENDHMM>
~h "k"
<BEGINHMM>
<NUMSTATES> 5
<STATE> 2
<MEAN> 25
 -5.451568e+000 4.550653e+000 -4.869824e+000 2.319686e+000 -1.918619e-001 1.015105e+000 -1.316894e+000 -1.835156e+000 7.682341e-001 5.682602e-003 2.688258e-001 -7.165534e-001 -3.874702e-001 2.301007e-001 -1.930753e-001 3.656009e-001 7.466516e-002 -3.353361e-002 1.101644e-002 1.156725e-002 1.070716e-001 -3.006223e-002 1.188329e-001 1.688686e-001 -5.493184e-001
<VARIANCE> 25
 4.713567e+001 5.177954e+001 4.903198e+001 3.051715e+001 2.721159e+001 2.888879e+001 2.011489e+001 2.112889e+001 2.176016e+001 1.817014e+001 2.033601e+001 1.568187e+001 2.395640e-001 6.098649e-001 8.716703e-001 8.001353e-001 1.043770e+000 1.132939e+000 1.184764e+000 1.409894e+000 1.248066e+000 1.181711e+000 1.137911e+000 1.205978e+000 2.069201e-001
<GCONST> 8.304823e+001
<STATE> 3
<MEAN> 25
 -5.845767e+000 2.573813e+000 -5.226052e+000 2.876958e+000 1.158531e+000 -5.253639e-002 -8.947728e-001 -2.771464e-003 2.289641e-001 3.504294e-001 -4.043969e-001 2.552854e-001 6.169984e-001 -1.702937e+000 -1.737584e+000 -7.624666e-002 1.153904e+000 -1.905034e-001 -4.264463e-002 7.959855e-001 9.784582e-001 3.766908e-001 -3.188958e-001 -1.986834e-001 1.701407e+000
<VARIANCE> 25
 5.167375e+001 3.930591e+001 4.306821e+001 2.580035e+001 3.322186e+001 2.075723e+001 1.880284e+001 3.243593e+001 2.784811e+001 2.392798e+001 2.069484e+001 1.752289e+001 3.916172e+000 6.132359e+000 4.544720e+000 3.299636e+000 4.823140e+000 3.932704e+000 6.985633e+000 4.795077e+000 2.524024e+000 3.366007e+000 2.346405e+000 2.654659e+000 3.290374e+000
<GCONST> 1.034215e+002
<STATE> 4
<MEAN> 25
 1.590520e+000 -9.692875e+000 -9.408714e+000 -5.977401e-001 8.883260e+000 -2.646358e+000 -4.674426e+000 3.645079e+000 5.216300e+000 2.858674e+000 -2.150858e+000 -1.835275e+000 2.499851e+000 -2.255613e+000 7.302413e-001 -1.967605e+000 1.943878e-002 9.193910e-003 7.338328e-001 6.558180e-001 3.985381e-001 7.325311e-001 -4.172948e-001 -9.904883e-001 3.922847e+000
<VARIANCE> 25
 7.584251e+001 8.310684e+001 1.056355e+002 1.070552e+002 1.412876e+002 8.575153e+001 1.015985e+002 8.283110e+001 6.239906e+001 5.134008e+001 3.822081e+001 3.601154e+001 4.678654e+000 9.836256e+000 1.087818e+001 6.760939e+000 1.954293e+001 7.292575e+000 1.360192e+001 8.216509e+000 6.641078e+000 5.504107e+000 3.408023e+000 3.479599e+000 5.043369e+000
<GCONST> 1.232611e+002
<TRANSP> 5
 0.000000e+000 1.000000e+000 0.000000e+000 0.000000e+000 0.000000e+000
 0.000000e+000 8.850637e-001 1.149363e-001 0.000000e+000 0.000000e+000
 0.000000e+000 0.000000e+000 5.792131e-001 4.207869e-001 0.000000e+000
 0.000000e+000 0.000000e+000 0.000000e+000 7.368533e-001 2.631467e-001
 0.000000e+000 0.000000e+000 0.000000e+000 0.000000e+000 0.000000e+000
<ENDHMM>
~h "l"
<BEGINHMM>
<NUMSTATES> 5
<STATE> 2
<MEAN> 25
 4.895447e+000 4.118930e+000 -3.415395e+000 -1.858563e-001 -8.393540e-002 -2.123428e+000 -3.824410e+000 2.742277e+000 6.110612e+000 1.972654e+000 2.689208e-001 1.195187e-001 3.018483e+000 -6.069330e-001 6.117625e-001 -2.060656e+000 2.823218e-002 2.356177e-001 -1.564139e+000 -1.825181e-001 5.031839e-002 8.816563e-001 -3.414588e-002 -2.581125e-001 3.092566e+000
<VARIANCE> 25
 1.300211e+002 1.837106e+002 1.418558e+002 1.371547e+002 7.279079e+001 9.674222e+001 9.393146e+001 6.965383e+001 5.776324e+001 6.170149e+001 3.629369e+001 4.786214e+001 9.949805e+000 9.117856e+000 1.082129e+001 8.478154e+000 5.264434e+000 6.848517e+000 7.380372e+000 6.963426e+000 4.390288e+000 4.775193e+000 2.901069e+000 3.584713e+000 8.083379e+000
<GCONST> 1.232140e+002
<STATE> 3
<MEAN> 25
 1.245669e+001 -4.545371e+000 2.853901e+000 -1.160960e+001 -1.485330e+000 2.522706e+000 -6.388844e+000 -2.236602e+000 3.760316e+000 6.704890e+000 -1.079795e+000 -1.254307e+000 -3.754646e-001 -2.035364e+000 9.430983e-001 -8.856200e-001 2.986614e-001 7.409845e-001 3.118045e-001 -3.025736e-001 2.622280e-001 5.433298e-001 -1.065799e+000 -1.422285e-001 1.242474e+000
<VARIANCE> 25
 3.421650e+001 7.250314e+001 1.778242e+002 6.766776e+001 8.734467e+001 1.561379e+002 9.990686e+001 1.315633e+002 5.683246e+001 5.207880e+001 5.626544e+001 4.126485e+001 4.837216e-001 6.175339e+000 4.295093e+000 4.099736e+000 5.403863e+000 5.485157e+000 7.314314e+000 7.712932e+000 4.717295e+000 5.225505e+000 3.752071e+000 3.339749e+000 1.810887e+000
<GCONST> 1.156174e+002
<STATE> 4
<MEAN> 25
 9.080043e+000 -6.393048e+000 7.611712e+000 -1.634823e+001 2.492212e+000 -2.158811e+000 -8.509397e+000 -1.641226e+000 2.838005e+000 1.115604e+001 -2.991229e+000 -2.973579e-001 -1.376886e-002 3.596864e-002 -4.276267e-001 1.954734e-001 1.396352e-001 4.745221e-001 5.340528e-001 -1.615554e-001 -3.267073e-001 -1.125710e-001 -6.173459e-002 -1.406875e-001 -2.375922e-001
<VARIANCE> 25
 1.404527e+001 3.556646e+001 6.203769e+001 5.885958e+001 5.558093e+001 9.339613e+001 9.244012e+001 1.113453e+002 5.639516e+001 4.265840e+001 4.372057e+001 3.851112e+001 2.753252e-001 1.660926e+000 1.301966e+000 2.565172e+000 2.126352e+000 1.993262e+000 2.546943e+000 3.168217e+000 2.554501e+000 2.561630e+000 2.203912e+000 1.474144e+000 6.966829e-001
<GCONST> 1.000229e+002
<TRANSP> 5
 0.000000e+000 1.000000e+000 0.000000e+000 0.000000e+000 0.000000e+000
 0.000000e+000 6.303311e-001 3.696689e-001 0.000000e+000 0.000000e+000
 0.000000e+000 0.000000e+000 4.898114e-001 5.101886e-001 0.000000e+000
 0.000000e+000 0.000000e+000 0.000000e+000 8.158669e-001 1.841330e-001
 0.000000e+000 0.000000e+000 0.000000e+000 0.000000e+000 0.000000e+000
<ENDHMM>
~h "m"
<BEGINHMM>
<NUMSTATES> 5
<STATE> 2
<MEAN> 25
 7.339953e+000 1.692376e+000 2.967012e+000 5.881005e+000 3.243717e+000 5.917360e+000 -1.533331e-001 -8.632525e+000 -8.450634e+000 -1.791358e-001 -1.651905e-001 2.812519e+000 4.363465e-003 5.122171e-001 -1.186304e-001 5.501202e-001 -1.690575e-001 8.011094e-002 7.946271e-002 -1.254564e-001 -8.264173e-002 -1.775106e-001 -3.731885e-002 2.351183e-001 -4.671390e-001
<VARIANCE> 25
 5.657980e+001 2.665633e+001 6.245766e+001 2.649610e+001 2.796079e+001 3.609073e+001 3.486566e+001 5.564267e+001 5.203123e+001 3.717775e+001 2.823961e+001 2.192743e+001 1.405772e-001 4.253804e-001 5.518355e-001 8.099003e-001 7.468377e-001 9.140185e-001 9.424395e-001 1.516846e+000 1.650851e+000 1.357394e+000 1.120069e+000 1.076577e+000 1.373882e-001
<GCONST> 8.452291e+001
<STATE> 3
<MEAN> 25
 -2.522265e+000 6.086704e+000 -2.671873e+000 7.409086e+000 1.157047e+000 3.025078e+000 1.195324e+000 -3.559346e+000 -2.092649e-001 -8.535069e-001 4.396057e-003 1.408068e+000 -2.434585e-001 -9.605663e-005 -2.812265e-001 -9.328640e-002 -1.455151e-001 -1.593453e-001 1.851239e-001 3.537169e-001 4.967632e-001 1.271481e-001 5.616392e-002 -2.966195e-001 -2.355012e-001
<VARIANCE> 25
 1.723954e+002 3.621697e+001 5.283915e+001 2.072479e+001 2.664568e+001 2.917677e+001 2.440459e+001 5.742730e+001 3.924495e+001 2.101210e+001 2.564583e+001 1.965624e+001 1.187665e+000 7.921433e-001 1.181620e+000 1.293151e+000 1.173540e+000 1.548188e+000 1.277459e+000 1.781382e+000 1.533459e+000 1.264055e+000 1.241916e+000 1.215454e+000 7.765066e-001
<GCONST> 9.112681e+001
<STATE> 4
<MEAN> 25
 6.544289e+000 6.246659e+000 -4.591773e+000 7.241570e+000 4.544110e+000 5.242086e+000 1.085628e+000 -6.521951e+000 -4.725857e+000 -1.050974e+000 2.803871e+000 1.222761e+000 2.399869e+000 -1.067020e+000 -5.039647e-001 -1.243285e+000 6.257036e-002 6.779819e-001 -4.713369e-001 1.385543e-001 3.253250e-001 -4.021319e-001 -5.244537e-002 -1.224509e-001 2.433559e+000
<VARIANCE> 25
 1.474550e+002 1.561438e+002 9.267340e+001 8.962175e+001 5.274467e+001 4.339540e+001 4.111294e+001 7.959226e+001 7.869808e+001 3.480791e+001 3.508947e+001 1.534756e+001 8.251708e+000 1.341584e+001 9.150981e+000 1.040368e+001 5.698273e+000 5.830143e+000 5.834374e+000 1.027913e+001 1.343116e+001 3.612463e+000 3.114051e+000 1.953883e+000 3.663698e+000
<GCONST> 1.188954e+002
<TRANSP> 5
 0.000000e+000 1.000000e+000 0.000000e+000 0.000000e+000 0.000000e+000
 0.000000e+000 8.800544e-001 1.199457e-001 0.000000e+000 0.000000e+000
 0.000000e+000 0.000000e+000 7.129138e-001 2.870862e-001 0.000000e+000
 0.000000e+000 0.000000e+000 0.000000e+000 7.323001e-001 2.676999e-001
 0.000000e+000 0.000000e+000 0.000000e+000 0.000000e+000 0.000000e+000
<ENDHMM>
~h "n"
<BEGINHMM>
<NUMSTATES> 5
<STATE> 2
<MEAN> 25
 7.291968e+000 -8.555909e+000 1.231477e+001 -8.883322e+000 -1.689713e+000 -5.897530e+000 1.848596e+000 5.043308e+000 -3.582130e+000 2.904677e+000 -3.734380e+000 5.502767e-001 -1.163958e-001 2.279975e+000 5.304346e-001 1.941324e+000 -4.040040e-001 -3.457506e-001 -1.114571e+000 -2.419290e+000 -4.832111e-001 6.983192e-001 2.691897e-001 3.750660e-001 -1.850921e+000
<VARIANCE> 25
 1.321063e+001 4.165987e+001 1.587281e+002 1.085844e+002 6.053833e+001 2.968083e+001 4.786623e+001 6.223256e+001 5.343352e+001 2.890914e+001 4.526446e+001 1.601996e+001 3.012420e-001 2.801927e+000 2.162747e+000 4.515863e+000 2.054086e+000 1.526424e+000 2.627478e+000 4.264358e+000 1.960344e+000 1.695576e+000 1.484245e+000 1.141074e+000 1.681841e+000
<GCONST> 9.935065e+001
<STATE> 3
<MEAN> 25
 8.525896e+000 1.694648e+000 6.216797e+000 4.430042e+000 -1.970614e+000 -5.843038e+000 -3.992553e+000 -4.462667e+000 -3.613456e+000 2.792852e+000 -4.085642e+000 1.413226e+000 -9.105954e-002 6.777196e-001 -1.726521e-001 6.475201e-001 -6.760476e-002 3.592344e-001 -5.336030e-002 -1.593587e-001 1.493371e-001 -1.381839e-001 2.090582e-001 -7.522583e-003 -6.792708e-001
<VARIANCE> 25
 1.065227e+001 2.049930e+001 2.853231e+001 3.296341e+001 3.053135e+001 2.738445e+001 2.660281e+001 4.455046e+001 2.630999e+001 2.624579e+001 2.756073e+001 1.392749e+001 1.724076e-001 3.260823e-001 5.696270e-001 6.946984e-001 1.105807e+000 1.060559e+000 1.174677e+000 1.357186e+000 1.230106e+000 1.129238e+000 1.084848e+000 1.043054e+000 1.005884e-001
<GCONST> 7.944935e+001
<STATE> 4
<MEAN> 25
 7.842044e-001 4.739265e+000 3.937131e-001 8.856853e+000 -1.008896e+000 -2.245036e+000 7.600294e-001 3.334493e-001 -3.260359e-001 -9.846599e-001 5.442836e-001 1.866163e+000 -6.836358e-001 -2.785414e-002 -6.724241e-001 4.714696e-002 8.126004e-002 8.345389e-002 2.641464e-001 3.542973e-001 2.951797e-001 -2.219373e-001 2.052133e-001 1.436538e-001 -7.159119e-001
<VARIANCE> 25
 2.947413e+001 2.805152e+001 6.491212e+001 3.982584e+001 4.644471e+001 2.946965e+001 2.894842e+001 4.678167e+001 2.731164e+001 3.646273e+001 2.192805e+001 2.381466e+001 4.663773e-001 9.388868e-001 1.236982e+000 1.316938e+000 1.469643e+000 2.140414e+000 1.813055e+000 2.136125e+000 1.539792e+000 1.549919e+000 1.394161e+000 1.488510e+000 2.921624e-001
<GCONST> 9.064799e+001
<TRANSP> 5
 0.000000e+000 1.000000e+000 0.000000e+000 0.000000e+000 0.000000e+000
 0.000000e+000 7.606063e-001 2.393938e-001 0.000000e+000 0.000000e+000
 0.000000e+000 0.000000e+000 9.119942e-001 8.800580e-002 0.000000e+000
 0.000000e+000 0.000000e+000 0.000000e+000 8.816505e-001 1.183495e-001
 0.000000e+000 0.000000e+000 0.000000e+000 0.000000e+000 0.000000e+000
<ENDHMM>
~h "o"
<BEGINHMM>
<NUMSTATES> 5
<STATE> 2
<MEAN> 25
 7.559771e+000 -4.975761e+000 1.963329e+001 -8.631511e+000 -3.813344e+000 -7.969841e+000 -7.701338e+000 6.643559e+000 -1.233843e+001 7.064190e+000 4.160540e+000 1.310786e+000 3.028676e-001 -3.642356e-001 -6.168635e-001 -2.023741e+000 2.926482e-001 2.337362e-001 3.044650e-002 -9.204045e-002 4.849348e-001 8.563972e-001 7.884786e-002 1.977557e-001 7.754539e-001
<VARIANCE> 25
 7.003043e+000 1.792689e+001 6.970168e+001 1.416173e+002 3.385474e+001 2.728225e+001 1.056541e+001 5.034302e+001 5.169682e+001 3.344420e+001 1.717019e+001 5.348292e+000 1.154057e-001 1.542506e+000 4.652341e+000 2.540079e+000 2.699999e+000 3.898220e+000 1.409775e+000 2.721029e+000 5.003294e+000 7.013924e-001 2.833473e+000 9.296355e-001 6.574115e-001
<GCONST> 9.130330e+001
<STATE> 3
<MEAN> 25
 1.163985e+001 -8.470183e+000 8.380191e+000 -1.854154e+001 -9.944517e-001 -1.193377e+000 -3.122102e+000 2.772670e+000 -3.210601e+000 9.868567e+000 -1.027335e+000 8.017824e-001 -9.333334e-002 3.457120e-002 -2.137305e-001 1.803408e-001 3.362622e-002 -2.673005e-001 4.846737e-001 6.457270e-001 7.216744e-002 -6.566978e-001 -3.982089e-001 -1.653093e-001 -7.995920e-002
<VARIANCE> 25
 8.977496e+000 1.752316e+001 9.462172e+000 3.733877e+001 2.075445e+001 1.325361e+002 5.346969e+001 1.090278e+002 6.798175e+000 2.158994e+001 1.936470e+001 1.328511e+001 2.030110e-001 1.500579e+000 9.677609e-001 2.697053e+000 1.251817e+000 5.213099e+000 5.050658e+000 4.273856e+000 1.582411e+000 2.199122e+000 2.250304e+000 1.301003e+000 8.760000e-001
<GCONST> 9.090919e+001
<STATE> 4
<MEAN> 25
 1.626082e+000 9.243877e-002 1.876139e+000 -6.800832e+000 1.075140e+000 6.801272e-001 -2.641951e+000 -3.420680e+000 -1.636866e+000 5.211170e+000 -2.337716e+000 -2.150477e+000 -9.270315e-001 1.043719e-001 -2.931761e-001 5.680122e-001 2.172856e-001 -6.807074e-002 7.522435e-002 1.410363e-002 2.735134e-001 2.032189e-002 -6.280360e-002 -2.850779e-002 -9.187844e-001
<VARIANCE> 25
 7.865032e+001 1.079613e+001 7.125974e+001 1.894156e+002 2.849020e+001 3.091784e+001 1.813231e+001 3.163793e+001 3.197956e+001 6.794510e+001 2.754863e+001 1.065369e+001 4.209352e+000 1.636799e+000 4.322022e+000 1.475777e+001 1.916413e+000 2.150421e+000 1.777975e+000 2.859196e+000 2.952841e+000 5.721882e+000 1.809770e+000 1.511105e+000 5.792741e+000
<GCONST> 1.034174e+002
<TRANSP> 5
 0.000000e+000 1.000000e+000 0.000000e+000 0.000000e+000 0.000000e+000
 0.000000e+000 8.899871e-001 1.100130e-001 0.000000e+000 0.000000e+000
 0.000000e+000 0.000000e+000 9.155844e-001 8.441556e-002 0.000000e+000
 0.000000e+000 0.000000e+000 0.000000e+000 9.403589e-001 5.964116e-002
 0.000000e+000 0.000000e+000 0.000000e+000 0.000000e+000 0.000000e+000
<ENDHMM>
~h "p"
<BEGINHMM>
<NUMSTATES> 5
<STATE> 2
<MEAN> 25
 -2.051560e+000 2.267648e+000 -1.690926e+000 3.068026e+000 -2.011114e+000 5.642877e-002 -2.348846e+000 -1.798594e+000 1.593762e-001 -1.941909e-001 9.272770e-001 7.280981e-001 -4.504842e-001 2.417172e-001 -6.071361e-001 1.893495e-001 -3.010734e-002 -1.306070e-001 1.101390e-001 -5.135814e-002 2.152785e-001 -4.691443e-002 -6.931333e-003 -4.353176e-003 -7.211682e-001
<VARIANCE> 25
 2.452221e+001 3.117801e+001 4.637361e+001 3.018480e+001 2.729276e+001 2.164405e+001 2.257893e+001 2.859516e+001 2.667083e+001 2.101542e+001 2.076059e+001 1.745121e+001 2.429289e-001 3.912189e-001 7.778771e-001 7.468850e-001 1.026696e+000 1.054064e+000 1.104924e+000 1.236800e+000 1.268063e+000 1.399757e+000 1.242088e+000 1.216510e+000 1.361096e-001
<GCONST> 8.139026e+001
<STATE> 3
<MEAN> 25
 -6.327856e+000 3.124295e+000 -3.862746e+000 5.072759e+000 1.934434e-001 7.674153e-001 -5.029406e-001 -1.557590e+000 1.104813e+000 -7.840101e-001 8.425226e-002 5.128802e-001 5.436658e-001 -5.416551e-001 -9.763482e-001 -2.368557e-001 3.981631e-002 -1.561990e-001 5.613078e-001 2.962219e-001 -1.983047e-001 8.206817e-002 2.431482e-002 -8.847222e-002 6.280330e-001
<VARIANCE> 25
 7.870083e+001 2.441719e+001 3.916586e+001 1.533804e+001 2.413836e+001 1.612325e+001 2.316209e+001 2.901899e+001 2.551253e+001 1.457235e+001 1.576758e+001 1.591825e+001 1.226289e+000 1.141193e+000 1.973124e+000 2.686540e+000 2.048499e+000 1.826577e+000 2.529474e+000 2.197903e+000 1.675332e+000 1.669448e+000 2.217279e+000 1.649649e+000 8.902979e-001
<GCONST> 9.107241e+001
<STATE> 4
<MEAN> 25
 4.664928e+000 -1.786072e+000 -8.564410e+000 3.598111e+000 -2.329901e+000 8.379786e-001 2.703663e+000 -1.395068e+000 -1.525904e+000 -5.241836e-001 1.649378e+000 -6.136771e-001 3.785569e+000 -2.008570e+000 -1.011969e+000 -2.237840e+000 -5.040452e-001 6.649752e-001 1.101869e+000 3.627968e-001 -7.825689e-001 6.181616e-001 1.709374e-001 -1.118036e+000 4.149688e+000
<VARIANCE> 25
 8.944714e+001 6.900517e+001 5.785390e+001 7.458488e+001 3.663097e+001 4.680957e+001 4.035357e+001 2.991257e+001 3.112204e+001 2.774639e+001 2.643291e+001 2.999446e+001 4.216933e+000 1.174479e+001 6.209786e+000 1.088778e+001 5.210285e+000 5.410604e+000 4.487761e+000 4.143405e+000 3.292780e+000 4.782524e+000 2.848716e+000 3.606780e+000 6.857242e+000
<GCONST> 1.124140e+002
<TRANSP> 5
 0.000000e+000 1.000000e+000 0.000000e+000 0.000000e+000 0.000000e+000
 0.000000e+000 9.010348e-001 9.896519e-002 0.000000e+000 0.000000e+000
 0.000000e+000 0.000000e+000 3.721105e-001 6.278895e-001 0.000000e+000
 0.000000e+000 0.000000e+000 0.000000e+000 6.134874e-001 3.865126e-001
 0.000000e+000 0.000000e+000 0.000000e+000 0.000000e+000 0.000000e+000
<ENDHMM>
~h "r"
<BEGINHMM>
<NUMSTATES> 5
<STATE> 2
<MEAN> 25
 1.057337e+001 -1.089031e+001 5.108473e+000 -5.689781e+000 -3.429465e+000 -3.250527e+000 -5.892450e+000 -9.643550e-001 1.721078e-001 5.824527e+000 -1.174277e+000 1.928819e+000 2.732798e-001 -3.547300e-001 -1.061012e+000 1.685664e+000 -5.953101e-002 -4.460043e-001 -1.187655e-001 -2.381241e-001 1.587298e+000 -5.134552e-001 -9.403002e-001 8.210180e-001 -3.391274e-001
<VARIANCE> 25
 1.569204e+001 3.057897e+001 8.905370e+001 7.946435e+001 4.569521e+001 6.477533e+001 9.048475e+001 8.720164e+001 7.746761e+001 4.228028e+001 4.928461e+001 3.621537e+001 9.317842e-001 1.485883e+000 1.435349e+000 5.828579e+000 2.811293e+000 3.182950e+000 2.647500e+000 2.624046e+000 2.658099e+000 3.741305e+000 1.972180e+000 2.250948e+000 1.040922e+000
<GCONST> 1.039395e+002
<STATE> 3
<MEAN> 25
 9.647240e+000 -8.169333e+000 -8.168618e-001 6.222580e+000 -9.863163e-001 4.097683e-001 -3.618670e+000 3.939210e-001 7.301447e+000 1.107432e+000 -3.474470e+000 4.492393e+000 -8.309941e-001 7.731668e-001 -1.517252e-001 1.058296e+000 7.113606e-001 7.981405e-001 6.038157e-001 3.789989e-001 1.172093e-001 -3.749838e-001 2.412474e-001 1.417662e-002 -1.275051e+000
<VARIANCE> 25
 2.143841e+001 2.483416e+001 4.040210e+001 4.377786e+001 3.934572e+001 4.424637e+001 5.827356e+001 5.497279e+001 4.098238e+001 3.266226e+001 3.763875e+001 3.603304e+001 1.097144e+000 1.191553e+000 1.315290e+000 1.808725e+000 2.407488e+000 2.275269e+000 2.707626e+000 2.647403e+000 2.352899e+000 2.005785e+000 1.721738e+000 2.214156e+000 7.674442e-001
<GCONST> 9.707850e+001
<STATE> 4
<MEAN> 25
 -2.058746e+000 1.847834e+000 -8.252957e+000 7.527341e+000 6.674111e-001 -1.068247e+000 -1.407570e+000 2.076200e-002 5.057625e+000 -9.770853e-001 -9.624311e-001 1.002330e+000 -5.155591e-001 5.929607e-001 -2.246065e-001 -1.160669e-001 -1.273776e-001 -1.907689e-001 -1.685961e-002 -1.489029e-001 -1.728246e-001 -2.957286e-002 1.523630e-001 -2.197510e-001 -7.132769e-001
<VARIANCE> 25
 2.994888e+001 4.047085e+001 4.475951e+001 2.056006e+001 2.626958e+001 2.333299e+001 1.911558e+001 2.175620e+001 2.134102e+001 1.707582e+001 1.810252e+001 1.921002e+001 2.576091e-001 3.744645e-001 8.611512e-001 7.142335e-001 8.951440e-001 1.203689e+000 1.123869e+000 1.199551e+000 1.269512e+000 1.265358e+000 1.074981e+000 1.220031e+000 1.339886e-001
<GCONST> 8.035403e+001
<TRANSP> 5
 0.000000e+000 1.000000e+000 0.000000e+000 0.000000e+000 0.000000e+000
 0.000000e+000 8.073475e-001 1.926525e-001 0.000000e+000 0.000000e+000
 0.000000e+000 0.000000e+000 8.268767e-001 1.731233e-001 0.000000e+000
 0.000000e+000 0.000000e+000 0.000000e+000 9.224673e-001 7.753276e-002
 0.000000e+000 0.000000e+000 0.000000e+000 0.000000e+000 0.000000e+000
<ENDHMM>
~h "s"
<BEGINHMM>
<NUMSTATES> 5
<STATE> 2
<MEAN> 25
 4.588531e+000 -4.114310e+000 5.340754e+000 -4.244855e+000 1.094415e+001 -5.997509e+000 4.895007e+000 6.053534e-001 -6.025912e-001 -1.771518e-001 -4.483433e+000 6.062634e+000 -1.753605e+000 2.787343e-001 1.320736e+000 -1.997970e+000 3.451046e+000 -3.058656e+000 1.873743e+000 -1.896558e+000 -2.046694e-002 -2.417978e-001 3.618784e-001 -1.070015e-001 1.812323e+000
<VARIANCE> 25
 7.649806e+001 8.717802e+001 1.090629e+002 7.942232e+001 9.845420e+001 1.075286e+002 6.847523e+001 9.529731e+001 4.099191e+001 4.643027e+001 3.740613e+001 2.387010e+001 8.294485e+000 8.412915e+000 8.103203e+000 7.167185e+000 5.893579e+000 7.332926e+000 5.825521e+000 9.157999e+000 6.041985e+000 5.150035e+000 3.975709e+000 3.141482e+000 7.436434e+000
<GCONST> 1.202347e+002
<STATE> 3
<MEAN> 25
 -9.953708e+000 -1.000351e+000 9.457923e+000 -1.181553e+001 2.047865e+001 -1.608937e+001 1.358737e+001 -5.924932e+000 3.895619e+000 -1.737437e+000 9.629998e-001 1.762195e+000 -6.171216e-001 7.200463e-002 -1.228672e-001 7.743575e-002 -1.873073e-001 2.506310e-001 -2.533902e-001 1.294595e-001 3.279883e-001 7.980232e-002 2.747455e-001 -2.235069e-001 -5.026006e-001
<VARIANCE> 25
 8.962426e+001 3.941812e+001 4.773190e+001 4.157253e+001 4.537396e+001 3.392270e+001 2.974565e+001 2.507082e+001 2.412546e+001 1.914342e+001 2.314605e+001 1.800014e+001 6.486629e+000 2.967819e+000 2.945707e+000 3.208400e+000 2.308536e+000 2.470165e+000 2.451232e+000 2.271089e+000 2.358658e+000 1.882769e+000 2.131054e+000 1.560765e+000 2.770870e+000
<GCONST> 1.002039e+002
<STATE> 4
<MEAN> 25
 -9.014321e+000 2.758190e+000 2.690271e+000 -3.932529e+000 1.029200e+001 -6.930474e+000 3.335286e+000 -1.009269e+000 1.002249e+000 1.076657e+000 -1.938643e+000 1.017771e+000 2.310628e-001 3.471789e-001 -8.826473e-001 6.263312e-001 -9.801115e-001 6.177279e-001 -5.788289e-001 3.207803e-001 -3.311357e-001 -9.535900e-003 -8.813135e-002 7.489983e-003 -1.115962e+000
<VARIANCE> 25
 2.522866e+001 2.649595e+001 6.505045e+001 3.658022e+001 4.882449e+001 2.786763e+001 2.870006e+001 2.268892e+001 2.109920e+001 1.561135e+001 1.821106e+001 1.231525e+001 7.384262e-001 7.527233e-001 8.865228e-001 1.110509e+000 9.340437e-001 1.213088e+000 1.133846e+000 1.426306e+000 1.376010e+000 9.828693e-001 1.370225e+000 1.010894e+000 1.719468e-001
<GCONST> 8.400101e+001
<TRANSP> 5
 0.000000e+000 1.000000e+000 0.000000e+000 0.000000e+000 0.000000e+000
 0.000000e+000 7.638181e-001 2.361819e-001 0.000000e+000 0.000000e+000
 0.000000e+000 0.000000e+000 8.982632e-001 1.017368e-001 0.000000e+000
 0.000000e+000 0.000000e+000 0.000000e+000 8.787899e-001 1.212101e-001
 0.000000e+000 0.000000e+000 0.000000e+000 0.000000e+000 0.000000e+000
<ENDHMM>
~h "t"
<BEGINHMM>
<NUMSTATES> 5
<STATE> 2
<MEAN> 25
 -8.874210e+000 6.841647e+000 -6.469748e+000 4.332566e+000 -1.090462e+000 -1.118418e+000 -1.427348e-001 -1.576492e-001 1.609862e+000 -1.573356e+000 8.375553e-001 -4.026501e-001 -5.142265e-001 1.564532e-001 -9.290355e-002 1.880448e-001 -1.181462e-001 -3.543271e-002 1.681118e-002 -7.831982e-002 4.822548e-002 -6.030217e-002 9.886742e-002 -1.116691e-002 -5.486990e-001
<VARIANCE> 25
 5.337609e+001 3.394490e+001 3.087561e+001 2.395743e+001 2.180035e+001 2.252974e+001 2.056761e+001 2.531005e+001 2.370380e+001 1.461309e+001 1.631503e+001 1.428084e+001 2.173117e-001 3.876855e-001 7.018773e-001 6.552062e-001 7.795804e-001 9.075663e-001 1.070307e+000 1.164714e+000 1.325135e+000 9.766071e-001 1.009999e+000 1.106215e+000 1.313403e-001
<GCONST> 7.876794e+001
<STATE> 3
<MEAN> 25
 -1.152477e+001 6.014308e+000 -5.040254e+000 5.011653e+000 -5.153714e-001 1.280724e-001 1.158912e+000 5.576265e-001 2.169548e+000 -8.155755e-001 1.642391e+000 1.732818e-001 6.906334e-001 -8.776162e-001 1.634149e-001 2.541955e-002 -4.160932e-001 -3.876822e-001 6.931115e-001 7.168361e-001 -1.348853e-002 1.665671e-002 3.449934e-001 9.668547e-002 1.206616e+000
<VARIANCE> 25
 9.982398e+001 3.628874e+001 2.877594e+001 1.991412e+001 1.677454e+001 2.646538e+001 2.623663e+001 1.896819e+001 2.512438e+001 1.636671e+001 1.619724e+001 1.549327e+001 5.676707e+000 4.366053e+000 2.581059e+000 2.266870e+000 3.403073e+000 3.325325e+000 4.206715e+000 3.218855e+000 3.219261e+000 2.215655e+000 1.659432e+000 1.960695e+000 3.742164e+000
<GCONST> 9.881569e+001
<STATE> 4
<MEAN> 25
 -1.211298e+000 -4.161916e+000 -4.496708e-001 1.396815e+000 -9.676319e-001 -2.170127e+000 -3.134498e+000 3.045798e+000 8.590468e-002 -5.518521e-001 2.311643e+000 -1.682059e-001 4.003603e+000 -2.847278e+000 2.444630e+000 -2.799261e+000 -5.361000e-001 -4.687532e-001 -8.045756e-001 8.509142e-001 -1.659691e+000 5.824990e-001 4.260921e-001 -2.377704e-002 5.758671e+000
<VARIANCE> 25
 8.870263e+001 9.777094e+001 8.546388e+001 7.254036e+001 6.903330e+001 7.811299e+001 1.018103e+002 4.431158e+001 8.249078e+001 4.241456e+001 3.774843e+001 2.620382e+001 7.348480e+000 1.322116e+001 9.104209e+000 1.033169e+001 1.032422e+001 8.520532e+000 1.257869e+001 7.318501e+000 1.164852e+001 5.010561e+000 4.908636e+000 4.888399e+000 7.930381e+000
<GCONST> 1.232461e+002
<TRANSP> 5
 0.000000e+000 1.000000e+000 0.000000e+000 0.000000e+000 0.000000e+000
 0.000000e+000 8.894877e-001 1.105122e-001 0.000000e+000 0.000000e+000
 0.000000e+000 0.000000e+000 5.208098e-001 4.791902e-001 0.000000e+000
 0.000000e+000 0.000000e+000 0.000000e+000 6.301653e-001 3.698348e-001
 0.000000e+000 0.000000e+000 0.000000e+000 0.000000e+000 0.000000e+000
<ENDHMM>
~h "u"
<BEGINHMM>
<NUMSTATES> 5
<STATE> 2
<MEAN> 25
 1.399470e+001 6.911386e+000 -2.368965e+000 -5.994713e+000 -4.201493e+000 1.791123e+000 -5.851372e-001 -1.961644e+000 -6.350224e+000 -2.610406e+000 1.964558e+000 6.239706e-001 7.153597e-001 6.552605e-001 1.070547e-001 -3.065328e+000 -3.514553e-001 8.325107e-001 -4.189691e-001 3.046379e-002 -9.930391e-001 9.404309e-002 5.442718e-001 -8.466780e-002 8.303879e-001
<VARIANCE> 25
 4.824209e+001 7.611093e+001 7.904841e+001 1.296803e+002 4.426971e+001 4.390544e+001 5.575492e+001 5.798278e+001 7.386918e+001 4.954206e+001 3.658875e+001 2.980906e+001 2.148092e+000 4.491927e+000 3.622984e+000 6.061349e+000 3.937019e+000 3.797925e+000 4.292320e+000 5.313383e+000 4.650077e+000 4.433010e+000 3.533612e+000 2.398364e+000 1.122256e+000
<GCONST> 1.107100e+002
<STATE> 3
<MEAN> 25
 1.204062e+001 6.115107e+000 4.384390e+000 -2.080161e+001 -3.935201e+000 2.814206e+000 -7.230466e+000 1.722310e-001 -1.163195e+001 -1.303055e+000 1.034576e+000 -9.099884e-001 -1.956438e-001 3.141499e-001 -1.523487e-001 -5.072133e-001 -1.412430e-001 2.360070e-002 -2.132932e-001 1.178129e-003 4.161532e-001 1.522010e-001 -2.413117e-001 -1.324283e-001 -2.432012e-001
<VARIANCE> 25
 2.050096e+001 4.380459e+001 5.822775e+001 1.424902e+002 3.948408e+001 5.432001e+001 5.438420e+001 6.725797e+001 5.736039e+001 7.213203e+001 4.210253e+001 3.363209e+001 2.226222e-001 1.037019e+000 1.291193e+000 3.713376e+000 1.298236e+000 2.099461e+000 2.136820e+000 2.583624e+000 2.443042e+000 3.346395e+000 1.941085e+000 1.803333e+000 5.186422e-001
<GCONST> 9.873986e+001
<STATE> 4
<MEAN> 25
 3.982063e+000 1.068598e+001 -5.509184e+000 -6.192849e+000 -4.040273e+000 2.068817e-001 -1.426976e+000 -1.045920e+000 -1.712829e+000 -1.965283e+000 8.829280e-001 1.145527e-001 -7.996222e-001 -4.802629e-002 -3.112432e-001 8.706871e-001 2.233370e-001 -8.429467e-002 1.918302e-001 -2.024371e-001 3.859887e-001 1.589169e-001 8.412641e-003 -2.413518e-002 -8.272601e-001
<VARIANCE> 25
 9.286659e+001 3.347705e+001 4.723522e+001 8.247758e+001 4.460676e+001 3.797982e+001 4.022376e+001 3.553221e+001 3.575072e+001 4.036646e+001 2.389287e+001 1.932985e+001 5.827071e-001 5.480130e-001 1.045016e+000 2.376954e+000 1.408518e+000 1.679346e+000 1.496902e+000 1.783411e+000 1.751453e+000 1.685617e+000 1.503952e+000 1.246596e+000 5.975066e-001
<GCONST> 9.317355e+001
<TRANSP> 5
 0.000000e+000 1.000000e+000 0.000000e+000 0.000000e+000 0.000000e+000
 0.000000e+000 7.296830e-001 2.703170e-001 0.000000e+000 0.000000e+000
 0.000000e+000 0.000000e+000 8.051662e-001 1.948338e-001 0.000000e+000
 0.000000e+000 0.000000e+000 0.000000e+000 8.865551e-001 1.134449e-001
 0.000000e+000 0.000000e+000 0.000000e+000 0.000000e+000 0.000000e+000
<ENDHMM>
~h "w"
<BEGINHMM>
<NUMSTATES> 5
<STATE> 2
<MEAN> 25
 -1.026359e+001 9.090874e-001 -4.774987e+000 1.181048e+001 -2.640489e+000 -5.604836e+000 7.982367e-001 1.239408e+000 1.124398e+000 -4.568371e+000 2.355725e+000 1.801697e+000 7.554665e-001 1.051991e+000 2.033149e-001 -3.451052e-002 -1.883575e-001 -2.492699e-001 -6.129896e-002 2.256062e-003 -5.897022e-002 -3.410329e-001 -1.307514e-001 -5.492061e-002 1.642366e-001
<VARIANCE> 25
 9.658656e+001 9.735287e+001 8.582027e+001 1.122148e+002 6.058255e+001 4.095207e+001 2.995457e+001 4.855817e+001 2.235969e+001 3.397832e+001 2.912289e+001 3.256005e+001 5.026325e+000 4.124298e+000 4.122880e+000 2.528701e+000 2.902992e+000 2.084126e+000 1.847194e+000 2.179826e+000 2.396606e+000 2.529435e+000 1.727089e+000 1.215103e+000 2.491677e+000
<GCONST> 1.048799e+002
<STATE> 3
<MEAN> 25
 1.464694e+001 1.708528e+001 -5.175877e+000 -9.974239e+000 -1.174098e+001 2.063194e+000 3.449842e+000 -1.741428e+000 -1.930157e+000 -7.522591e+000 3.643486e-001 4.696119e+000 9.152957e-001 -1.814486e+000 -4.906438e-001 -2.896074e+000 -9.125405e-002 2.993041e+000 -7.030117e-002 -1.015297e+000 4.105171e-001 7.636164e-001 1.064192e+000 9.871430e-001 1.859314e+000
<VARIANCE> 25
 1.187090e+001 4.868800e+001 2.774753e+001 6.756232e+001 2.553442e+001 8.698985e+001 2.235621e+001 2.562549e+001 4.189983e+001 2.476950e+001 2.566277e+001 2.708782e+001 3.004878e+000 5.038929e+000 3.389623e+000 2.720993e+000 5.385488e+000 8.056981e+000 4.165585e+000 2.255338e+000 3.226666e+000 5.462449e+000 2.615095e+000 3.073375e+000 9.309802e-001
<GCONST> 1.032196e+002
<STATE> 4
<MEAN> 25
 1.336818e+001 -4.285420e+000 5.156527e-001 -2.166580e+001 -2.500644e+000 1.780583e+001 -6.807104e+000 -7.265553e+000 3.206016e+000 8.211606e+000 4.771772e+000 -2.536595e+000 -9.938385e-001 -4.245280e+000 1.679396e+000 4.287774e-001 2.242886e+000 -1.127723e+000 -1.010062e+000 1.945293e+000 9.502243e-001 2.116384e+000 -1.827305e+000 -2.768022e+000 2.090445e+000
<VARIANCE> 25
 5.131258e+000 5.450017e+001 4.478212e+001 2.109140e+001 3.088947e+001 5.104941e+001 5.086537e+001 5.412994e+001 5.127034e+001 3.103401e+001 4.117205e+001 3.592852e+001 2.484583e-001 1.213654e+000 2.077943e+000 3.560598e+000 4.159041e+000 1.125360e+001 4.675972e+000 7.974871e+000 5.626566e+000 6.487301e+000 4.828854e+000 2.831094e+000 2.953327e-001
<GCONST> 1.016466e+002
<TRANSP> 5
 0.000000e+000 1.000000e+000 0.000000e+000 0.000000e+000 0.000000e+000
 0.000000e+000 9.013068e-001 9.869317e-002 0.000000e+000 0.000000e+000
 0.000000e+000 0.000000e+000 8.375379e-001 1.624621e-001 0.000000e+000
 0.000000e+000 0.000000e+000 0.000000e+000 7.861528e-001 2.138472e-001
 0.000000e+000 0.000000e+000 0.000000e+000 0.000000e+000 0.000000e+000
<ENDHMM>
~h "y"
<BEGINHMM>
<NUMSTATES> 5
<STATE> 2
<MEAN> 25
 1.565769e-007 -6.290797e-008 -2.937665e-007 -4.371385e-008 5.392831e-009 -1.134847e-007 1.048326e-008 1.461609e-009 6.497437e-008 2.474654e-008 2.793856e-008 3.496100e-008 6.361995e-003 4.308552e-003 2.542655e-003 -9.878381e-004 4.629357e-004 7.091404e-004 -2.578934e-003 -6.028318e-003 -4.543920e-003 -2.417521e-003 -2.678531e-003 -6.849539e-003 3.474661e-003
<VARIANCE> 25
 1.482363e+002 1.186289e+002 1.358767e+002 1.150533e+002 6.856859e+001 5.959438e+001 5.340210e+001 5.644455e+001 5.966214e+001 3.805057e+001 3.493165e+001 2.775295e+001 2.220379e+000 3.354012e+000 3.076584e+000 3.783211e+000 3.009660e+000 2.603472e+000 2.703241e+000 2.901384e+000 2.795699e+000 2.264799e+000 1.906537e+000 1.789198e+000 2.980222e+000
<GCONST> 1.090549e+002
<STATE> 3
<MEAN> 25
 1.565769e-007 -6.290797e-008 -2.937665e-007 -4.371385e-008 5.392831e-009 -1.134847e-007 1.048326e-008 1.461609e-009 6.497437e-008 2.474654e-008 2.793856e-008 3.496100e-008 6.361995e-003 4.308552e-003 2.542655e-003 -9.878381e-004 4.629357e-004 7.091404e-004 -2.578934e-003 -6.028318e-003 -4.543920e-003 -2.417521e-003 -2.678531e-003 -6.849539e-003 3.474661e-003
<VARIANCE> 25
 1.482363e+002 1.186289e+002 1.358767e+002 1.150533e+002 6.856859e+001 5.959438e+001 5.340210e+001 5.644455e+001 5.966214e+001 3.805057e+001 3.493165e+001 2.775295e+001 2.220379e+000 3.354012e+000 3.076584e+000 3.783211e+000 3.009660e+000 2.603472e+000 2.703241e+000 2.901384e+000 2.795699e+000 2.264799e+000 1.906537e+000 1.789198e+000 2.980222e+000
<GCONST> 1.090549e+002
<STATE> 4
<MEAN> 25
 1.565769e-007 -6.290797e-008 -2.937665e-007 -4.371385e-008 5.392831e-009 -1.134847e-007 1.048326e-008 1.461609e-009 6.497437e-008 2.474654e-008 2.793856e-008 3.496100e-008 6.361995e-003 4.308552e-003 2.542655e-003 -9.878381e-004 4.629357e-004 7.091404e-004 -2.578934e-003 -6.028318e-003 -4.543920e-003 -2.417521e-003 -2.678531e-003 -6.849539e-003 3.474661e-003
<VARIANCE> 25
 1.482363e+002 1.186289e+002 1.358767e+002 1.150533e+002 6.856859e+001 5.959438e+001 5.340210e+001 5.644455e+001 5.966214e+001 3.805057e+001 3.493165e+001 2.775295e+001 2.220379e+000 3.354012e+000 3.076584e+000 3.783211e+000 3.009660e+000 2.603472e+000 2.703241e+000 2.901384e+000 2.795699e+000 2.264799e+000 1.906537e+000 1.789198e+000 2.980222e+000
<GCONST> 1.090549e+002
<TRANSP> 5
 0.000000e+000 1.000000e+000 0.000000e+000 0.000000e+000 0.000000e+000
 0.000000e+000 6.000000e-001 4.000000e-001 0.000000e+000 0.000000e+000
 0.000000e+000 0.000000e+000 6.000000e-001 4.000000e-001 0.000000e+000
 0.000000e+000 0.000000e+000 0.000000e+000 7.000000e-001 3.000000e-001
 0.000000e+000 0.000000e+000 0.000000e+000 0.000000e+000 0.000000e+000
<ENDHMM>
~h "ay"
<BEGINHMM>
<NUMSTATES> 5
<STATE> 2
<MEAN> 25
 -5.694260e+000 -5.099962e+000 -1.410634e+001 1.385788e+001 5.367483e+000 -3.402955e+000 2.130842e+000 6.957747e+000 3.549033e+000 -8.789802e+000 -1.364913e+000 6.457638e+000 -1.214586e-001 4.782127e-001 -2.351562e-001 -5.854073e-001 -2.097704e-001 6.027717e-001 3.851997e-001 -4.735596e-001 -7.750501e-002 1.621459e-001 9.161752e-002 -4.112900e-001 -3.075871e-001
<VARIANCE> 25
 7.086560e+001 1.276615e+002 4.604816e+001 4.998579e+001 1.148767e+001 9.445413e+001 4.929692e+001 5.017138e+001 5.216178e+001 2.511825e+001 1.312827e+001 2.050599e+001 7.612136e-001 4.904543e+000 2.264998e+000 2.728085e+000 1.403033e+000 3.960843e+000 2.189209e+000 2.489593e+000 2.147525e+000 2.524279e+000 1.732629e+000 1.699455e+000 1.383144e+000
<GCONST> 1.000185e+002
<STATE> 3
<MEAN> 25
 5.876396e+000 8.533726e+000 -1.075777e+001 4.203661e+000 5.409058e+000 6.403248e+000 3.286125e+000 -5.180351e+000 -3.271463e+000 -2.878762e+000 5.740187e-001 7.210781e-001 3.433831e+000 -2.232292e+000 -1.133523e+000 -1.704758e+000 -5.538055e-001 1.586500e+000 -6.234720e-001 -3.382193e-001 1.547169e+000 3.103546e-001 -1.418467e-002 -5.310856e-001 3.471954e+000
<VARIANCE> 25
 1.614202e+002 1.170618e+002 1.032523e+002 5.410374e+001 3.342609e+001 4.167768e+001 2.180191e+001 5.369692e+001 6.684620e+001 1.850818e+001 1.706366e+001 1.060421e+001 8.135459e+000 1.923601e+001 9.350204e+000 2.524645e+000 4.992987e+000 2.923835e+000 4.101357e+000 5.899209e+000 1.276332e+001 3.862607e+000 1.105462e+000 2.342423e+000 3.149730e+000
<GCONST> 1.111235e+002
<STATE> 4
<MEAN> 25
 1.259534e+001 -1.403835e+001 -1.072856e+000 -7.016961e-001 1.821076e-002 1.078044e+001 -1.327731e+000 1.952321e+000 3.375450e+000 -7.424115e+000 1.972968e-001 1.158539e+000 -4.733322e-001 -7.756770e-001 1.623636e+000 -6.182995e-001 -5.440319e-001 -7.308080e-001 4.034383e-001 8.444898e-001 -4.112563e-001 1.239941e-001 8.176279e-002 -9.977414e-002 6.833283e-001
<VARIANCE> 25
 2.672643e+001 1.519398e+002 8.093118e+001 9.481403e+001 5.864194e+001 4.751040e+001 5.176654e+001 1.077734e+002 7.386611e+001 3.665996e+001 1.959426e+001 2.003215e+001 1.631618e+000 6.407072e+000 2.363603e+000 3.762680e+000 2.967454e+000 3.376617e+000 4.948956e+000 4.109900e+000 7.384476e+000 3.498324e+000 2.062433e+000 1.282256e+000 2.059147e+000
<GCONST> 1.084332e+002
<TRANSP> 5
 0.000000e+000 1.000000e+000 0.000000e+000 0.000000e+000 0.000000e+000
 0.000000e+000 8.237461e-001 1.762539e-001 0.000000e+000 0.000000e+000
 0.000000e+000 0.000000e+000 6.678262e-001 3.321737e-001 0.000000e+000
 0.000000e+000 0.000000e+000 0.000000e+000 9.376593e-001 6.234075e-002
 0.000000e+000 0.000000e+000 0.000000e+000 0.000000e+000 0.000000e+000
<ENDHMM>
~h "eh"
<BEGINHMM>
<NUMSTATES> 5
<STATE> 2
<MEAN> 25
 8.207533e+000 -1.075303e+001 7.711246e+000 -6.361969e+000 -1.201376e+001 -1.007886e+001 6.826562e+000 1.189663e+001 -3.645808e+000 7.154726e-001 4.496789e+000 -2.910128e-001 -4.574250e-001 -1.016196e+000 1.215972e+000 -2.376432e+000 -2.646735e-001 -3.204952e-001 1.306728e+000 9.629515e-002 -8.287250e-001 8.496193e-001 4.168690e-001 -4.007871e-001 1.218547e+000
<VARIANCE> 25
 1.605499e+001 5.128757e+001 1.326404e+002 2.482418e+001 5.609516e+001 4.022439e+001 5.719347e+001 3.295165e+001 6.835804e+001 2.816914e+001 2.884018e+001 2.214691e+001 5.764756e-001 1.828963e+000 4.698029e+000 2.874728e+000 3.146015e+000 3.193910e+000 3.152785e+000 3.325513e+000 1.878363e+000 2.727693e+000 2.595947e+000 9.529965e-001 1.257626e+000
<GCONST> 1.001275e+002
<STATE> 3
<MEAN> 25
 6.314797e+000 -1.123265e+001 7.617381e+000 -8.666069e+000 -8.778626e+000 -1.292447e+001 8.034644e+000 8.123860e+000 -1.576239e+000 8.766934e-001 3.840833e+000 1.959164e+000 -1.866854e-002 -1.431776e-001 -3.895832e-001 -2.588260e-001 6.840567e-001 -3.870650e-002 -9.508341e-002 -2.211700e-002 7.193946e-001 1.659718e-001 -4.342999e-001 -4.013217e-002 7.744430e-002
<VARIANCE> 25
 1.267397e+001 2.195084e+001 1.395643e+002 2.872203e+001 3.854098e+001 2.431590e+001 5.881469e+001 3.029961e+001 6.134309e+001 2.001418e+001 2.789625e+001 3.311864e+001 1.369924e-001 6.081986e-001 1.231389e+000 9.202326e-001 1.863383e+000 1.736940e+000 2.005153e+000 1.208659e+000 2.044574e+000 2.375885e+000 9.120147e-001 1.310736e+000 9.664734e-002
<GCONST> 8.726340e+001
<STATE> 4
<MEAN> 25
 1.084329e+001 -1.650900e+001 1.140233e+001 -9.527659e+000 -1.064880e+001 -5.324373e+000 1.991271e+000 1.433820e+001 -4.169287e+000 2.726347e+000 3.567110e+000 -2.296752e+000 1.544836e-001 1.226238e-001 -9.309253e-001 2.771348e-001 9.690652e-001 6.041723e-001 -6.312942e-001 -2.199246e-001 8.010206e-001 8.102426e-002 -9.020332e-001 -2.722716e-001 -2.565493e-001
<VARIANCE> 25
 1.048062e+001 1.876899e+001 5.271905e+001 1.700073e+001 4.294169e+001 3.813543e+001 2.929201e+001 1.866195e+001 3.236158e+001 1.988130e+001 2.794925e+001 1.017825e+001 2.062192e-001 4.725749e-001 1.067272e+000 8.292053e-001 1.408087e+000 8.738738e-001 1.648274e+000 2.020836e+000 1.088822e+000 1.514818e+000 1.293717e+000 1.008606e+000 3.489537e-001
<GCONST> 8.252283e+001
<TRANSP> 5
 0.000000e+000 1.000000e+000 0.000000e+000 0.000000e+000 0.000000e+000
 0.000000e+000 6.138247e-001 3.861753e-001 0.000000e+000 0.000000e+000
 0.000000e+000 0.000000e+000 7.850498e-001 2.149501e-001 0.000000e+000
 0.000000e+000 0.000000e+000 0.000000e+000 7.894208e-001 2.105792e-001
 0.000000e+000 0.000000e+000 0.000000e+000 0.000000e+000 0.000000e+000
<ENDHMM>
~h "ng"
<BEGINHMM>
<NUMSTATES> 5
<STATE> 2
<MEAN> 25
 1.178438e+001 -1.102848e+001 -3.540236e+000 -8.227402e+000 4.121043e+000 1.227508e+001 -3.911648e+000 -1.091526e-001 2.356441e-001 -4.054457e+000 -6.499602e-001 -1.261509e+000 1.352396e-002 1.384386e+000 -1.637332e-001 7.110727e-001 -6.638384e-001 -1.128541e-001 2.193035e-001 -5.470577e-001 -6.635919e-001 -3.318214e-001 3.985732e-001 6.704178e-001 -1.052678e+000
<VARIANCE> 25
 6.253970e+000 4.625299e+001 2.049304e+001 4.766241e+001 3.138234e+001 2.811552e+001 2.435268e+001 2.554729e+001 3.149444e+001 2.442734e+001 1.087202e+001 1.661061e+001 1.210243e-001 5.752767e-001 6.254943e-001 1.066159e+000 1.297881e+000 1.093345e+000 1.854821e+000 1.225492e+000 1.553290e+000 1.177316e+000 7.506576e-001 7.648870e-001 2.715146e-001
<GCONST> 8.040231e+001
<STATE> 3
<MEAN> 25
 9.467765e+000 1.540422e+000 -3.833196e+000 1.301650e+000 2.479706e+000 8.469532e+000 -4.660468e-001 -5.365406e+000 -4.868299e+000 -3.510300e+000 2.218722e+000 5.399728e-001 -5.119896e-001 7.157388e-001 7.937229e-002 1.253846e+000 5.061077e-001 4.962404e-002 5.136527e-001 7.194464e-002 3.236065e-001 1.465798e-001 -9.752150e-002 -1.703048e-001 -8.822837e-001
<VARIANCE> 25
 6.931707e+000 2.940487e+001 1.643978e+001 6.185958e+001 3.832891e+001 3.063901e+001 3.398578e+001 2.495445e+001 3.445006e+001 2.622626e+001 1.402747e+001 1.389285e+001 3.383305e-001 3.771071e-001 6.965982e-001 9.624240e-001 9.033195e-001 1.201468e+000 1.733446e+000 1.775302e+000 1.389944e+000 1.125520e+000 9.629548e-001 9.692846e-001 1.643087e-001
<GCONST> 8.139860e+001
<STATE> 4
<MEAN> 25
 -3.923826e+000 8.685483e+000 -8.742884e+000 7.072353e+000 3.053276e+000 3.478031e+000 2.331531e+000 -3.499953e+000 1.899437e+000 -6.932764e-001 8.785140e-001 -1.036460e+000 -7.108297e-001 1.241696e-001 -2.720893e-001 -1.923606e-001 -2.511109e-001 -4.159000e-001 -1.031015e-001 6.004157e-002 7.384632e-002 -4.788505e-002 -7.892069e-002 -5.953004e-002 -6.425913e-001
<VARIANCE> 25
 3.951658e+001 1.807123e+001 2.270194e+001 1.648426e+001 2.948280e+001 2.844766e+001 1.952017e+001 1.864126e+001 1.847387e+001 1.668109e+001 1.539579e+001 1.541325e+001 2.239045e-001 4.518128e-001 9.786031e-001 7.105961e-001 9.117253e-001 1.029600e+000 1.131451e+000 1.151657e+000 1.389003e+000 1.398688e+000 1.160111e+000 1.047666e+000 9.632093e-002
<GCONST> 7.833776e+001
<TRANSP> 5
 0.000000e+000 1.000000e+000 0.000000e+000 0.000000e+000 0.000000e+000
 0.000000e+000 8.689420e-001 1.310580e-001 0.000000e+000 0.000000e+000
 0.000000e+000 0.000000e+000 9.026664e-001 9.733364e-002 0.000000e+000
 0.000000e+000 0.000000e+000 0.000000e+000 9.456831e-001 5.431696e-002
 0.000000e+000 0.000000e+000 0.000000e+000 0.000000e+000 0.000000e+000
<ENDHMM>
~h "ny"
<BEGINHMM>
<NUMSTATES> 5
<STATE> 2
<MEAN> 25
 1.207132e+000 1.823973e+000 4.007849e+000 3.174170e+000 7.044128e-001 2.013137e+000 -3.825869e+000 -1.506651e+000 -4.019506e+000 -3.207755e-001 1.838332e-002 4.315917e+000 -1.326981e-002 1.483973e-001 -1.885079e-002 -1.394123e-001 -2.186314e-001 -1.138753e-002 7.394775e-002 2.340881e-001 -8.247838e-003 2.537229e-001 1.826732e-001 1.896250e-002 8.013523e-002
<VARIANCE> 25
 2.358020e+001 1.331692e+001 1.766789e+001 2.386310e+001 2.763173e+001 1.986180e+001 2.351784e+001 2.909132e+001 2.230660e+001 1.388463e+001 1.781589e+001 1.764604e+001 4.003153e-001 5.737075e-001 6.152697e-001 1.036297e+000 1.218557e+000 1.464521e+000 1.887223e+000 2.495849e+000 1.076568e+000 1.195742e+000 1.250319e+000 1.339037e+000 5.228230e-001
<GCONST> 8.238982e+001
<STATE> 3
<MEAN> 25
 -6.233552e+000 1.029897e+001 -4.857213e+000 3.234094e+000 -4.103942e+000 -3.132592e+000 4.100332e-002 -5.156972e-001 2.314256e-001 -9.123568e-001 2.940331e+000 2.652175e-002 -4.970225e-001 4.224563e-001 2.526924e-001 -3.923669e-002 2.355246e-002 1.246732e-001 -8.868054e-002 -1.861518e-001 3.190342e-001 9.032849e-002 1.404304e-001 -2.598200e-001 -3.524993e-001
<VARIANCE> 25
 5.109010e+001 1.750008e+001 4.780494e+001 2.111566e+001 2.679165e+001 1.145942e+001 1.518920e+001 2.296150e+001 1.521546e+001 1.557745e+001 1.678730e+001 1.411740e+001 4.046676e-001 8.077383e-001 1.226713e+000 1.464984e+000 1.081442e+000 6.063380e-001 8.588634e-001 8.286608e-001 9.281406e-001 7.003338e-001 1.216671e+000 1.013494e+000 5.819464e-001
<GCONST> 8.012057e+001
<STATE> 4
<MEAN> 25
 1.356994e-001 1.001588e+001 3.395031e+000 2.494470e+000 -4.556685e+000 -1.471596e+000 2.073233e+000 2.097883e+000 1.730382e+000 -9.835703e-001 3.739726e+000 8.459911e-001 2.141576e+000 -9.634053e-002 6.081455e-001 4.241654e-002 -8.234534e-001 -8.251770e-001 2.864061e-001 -3.078766e-001 -3.267741e-002 -8.402996e-002 1.741433e-001 -2.572142e-001 1.819488e+000
<VARIANCE> 25
 7.888179e+001 1.600080e+002 3.266510e+001 1.368817e+002 8.138936e+001 4.171662e+001 2.828157e+001 4.234140e+001 2.190276e+001 3.503292e+001 2.820321e+001 1.883704e+001 7.795964e+000 8.963007e+000 4.516898e+000 5.623449e+000 7.403984e+000 4.774597e+000 4.600266e+000 3.799541e+000 3.265345e+000 5.064942e+000 3.424906e+000 1.916564e+000 2.750798e+000
<GCONST> 1.115388e+002
<TRANSP> 5
 0.000000e+000 1.000000e+000 0.000000e+000 0.000000e+000 0.000000e+000
 0.000000e+000 9.047635e-001 9.523646e-002 0.000000e+000 0.000000e+000
 0.000000e+000 0.000000e+000 8.409241e-001 1.590759e-001 0.000000e+000
 0.000000e+000 0.000000e+000 0.000000e+000 8.343023e-001 1.656976e-001
 0.000000e+000 0.000000e+000 0.000000e+000 0.000000e+000 0.000000e+000
<ENDHMM>
~h "sp"
<BEGINHMM>
<NUMSTATES> 5
<STATE> 2
~s "silst"
<STATE> 3
<MEAN> 25
 -5.542549e+000 4.064685e+000 -4.531744e+000 4.637268e+000 1.918443e-001 -9.562396e-001 -8.099048e-002 1.124005e+000 2.034285e+000 -1.569797e+000 9.391422e-002 9.609432e-001 -3.995041e-001 1.066601e-001 -3.899203e-001 3.311453e-001 7.821042e-002 -7.122630e-003 2.382636e-002 2.583792e-002 1.763944e-001 -1.434374e-001 3.859181e-002 5.947374e-002 -5.657764e-001
<VARIANCE> 25
 5.863114e+001 4.676344e+001 8.462090e+001 5.544243e+001 4.524707e+001 4.191414e+001 3.613068e+001 3.585977e+001 3.833309e+001 3.597648e+001 3.269558e+001 2.727567e+001 1.605713e+000 1.987880e+000 2.267670e+000 2.222954e+000 2.193356e+000 2.319726e+000 2.077202e+000 2.359582e+000 2.290314e+000 2.098969e+000 2.030483e+000 1.703460e+000 1.079640e+000
<GCONST> 9.993607e+001
<STATE> 4
<MEAN> 25
 -7.125488e+000 4.620924e+000 -6.360301e+000 5.678083e+000 3.300093e-001 -1.124145e+000 -8.410003e-001 8.155025e-001 2.697976e+000 -1.863487e+000 4.012758e-002 1.118198e+000 -3.528405e-002 2.928642e-001 -1.110063e-001 3.211060e-001 8.195910e-002 3.596430e-002 4.435830e-002 -3.074314e-002 -1.996463e-002 -9.968090e-002 5.170043e-002 -2.216088e-002 -2.807003e-001
<VARIANCE> 25
 6.266405e+001 4.932763e+001 7.218352e+001 5.111025e+001 4.062959e+001 3.882706e+001 3.954336e+001 3.303624e+001 3.594758e+001 3.534966e+001 3.087118e+001 2.516932e+001 2.325185e+000 2.498092e+000 2.609779e+000 2.115257e+000 2.285820e+000 1.959217e+000 2.010621e+000 2.221351e+000 2.266569e+000 1.949121e+000 1.765408e+000 1.667715e+000 1.486693e+000
<GCONST> 9.996345e+001
<TRANSP> 5
 0.000000e+000 1.777019e-001 8.222980e-001 0.000000e+000 0.000000e+000
 0.000000e+000 6.337271e-001 3.662729e-001 0.000000e+000 0.000000e+000
 0.000000e+000 0.000000e+000 2.966154e-001 7.033846e-001 0.000000e+000
 0.000000e+000 0.000000e+000 0.000000e+000 4.741709e-001 5.258291e-001
 0.000000e+000 0.000000e+000 0.000000e+000 0.000000e+000 0.000000e+000
<ENDHMM>
~h "sil"
<BEGINHMM>
<NUMSTATES> 5
<STATE> 2
<MEAN> 25
 -1.186292e+001 8.626554e+000 -5.064008e+000 6.480416e+000 -1.291335e+000 -9.359884e-001 8.184965e-001 -7.144985e-001 2.263170e+000 -2.487216e+000 5.638603e-001 1.672213e-001 -4.077278e-001 3.382834e-002 -3.867473e-002 2.548271e-002 6.127800e-002 6.790300e-002 -8.344638e-002 -1.674457e-001 6.294072e-003 5.386078e-002 1.185149e-001 -1.314020e-001 -3.634852e-001
<VARIANCE> 25
 5.881321e+001 3.018469e+001 2.849075e+001 1.833750e+001 2.730582e+001 1.920178e+001 1.954410e+001 2.024431e+001 2.005956e+001 1.821507e+001 1.595531e+001 1.787412e+001 2.843821e-001 5.147731e-001 5.584876e-001 6.725937e-001 1.043161e+000 1.008451e+000 1.111577e+000 1.214382e+000 1.352933e+000 1.434106e+000 1.132558e+000 1.153343e+000 1.393810e-001
<GCONST> 7.989341e+001
<STATE> 3
~s "silst"
<STATE> 4
<MEAN> 25
 -2.393564e+001 3.115737e+000 -8.786057e+000 6.437333e+000 -1.298222e-001 2.331583e+000 4.068781e+000 2.282669e+000 6.187297e+000 1.259975e+000 4.928656e+000 1.743156e+000 -1.422641e-002 1.912303e-003 1.237909e-003 -1.755224e-002 4.556328e-003 2.727129e-002 2.462558e-002 -5.443409e-003 -6.055068e-003 -1.751146e-003 -8.006632e-003 1.425460e-003 -1.220975e-002
<VARIANCE> 25
 1.095485e+001 7.728318e+000 1.107484e+001 7.864454e+000 9.435825e+000 1.099118e+001 1.276870e+001 1.499368e+001 1.581585e+001 1.041030e+001 8.922753e+000 7.603639e+000 4.593373e-002 1.437790e-001 2.189253e-001 3.612250e-001 5.187342e-001 4.605548e-001 8.094181e-001 1.126890e+000 1.296478e+000 1.023144e+000 8.361139e-001 9.049323e-001 2.980222e-002
<GCONST> 6.147940e+001
<TRANSP> 5
 0.000000e+000 1.000000e+000 0.000000e+000 0.000000e+000 0.000000e+000
 0.000000e+000 8.508964e-001 5.380196e-003 1.437234e-001 0.000000e+000
 0.000000e+000 0.000000e+000 9.633495e-001 3.665058e-002 0.000000e+000
 0.000000e+000 1.693521e-002 0.000000e+000 9.499004e-001 3.316434e-002
 0.000000e+000 0.000000e+000 0.000000e+000 0.000000e+000 0.000000e+000
<ENDHMM>
