~o
<STREAMINFO> 1 25
<VECSIZE> 25<NULLD><MFCC_D_N_Z_0><DIAGC>
~s "silst"
<MEAN> 25
 -1.422945e+001 8.377329e+000 -6.507626e+000 5.577899e+000 -1.073324e+000 -6.242794e-001 6.257219e-001 -8.681281e-001 2.530031e+000 -1.288516e+000 1.766947e+000 -5.307691e-001 -4.573455e-001 -5.777619e-002 2.287983e-002 9.718993e-002 5.338261e-004 4.493159e-002 4.022796e-002 1.302201e-003 1.760100e-002 -1.880695e-002 7.765140e-002 -5.291105e-003 -3.408752e-001
<VARIANCE> 25
 4.120901e+001 1.669484e+001 1.895783e+001 1.589070e+001 1.825124e+001 1.647039e+001 1.845670e+001 1.803179e+001 1.804299e+001 1.667636e+001 1.529684e+001 1.321915e+001 2.221721e-001 3.580600e-001 5.460508e-001 6.284155e-001 7.714613e-001 8.250549e-001 1.046951e+000 1.137484e+000 1.294744e+000 1.219725e+000 1.047277e+000 9.518418e-001 1.011319e-001
<GCONST> 7.500247e+001
~h "a"
<BEGINHMM>
<NUMSTATES> 5
<STATE> 2
<MEAN> 25
 1.021012e+001 -1.091063e+001 -2.719602e+000 -6.204136e+000 -8.348673e-001 3.959864e+000 2.152184e+000 8.818614e-001 2.954360e+000 2.062370e+000 -1.521009e+000 -3.083063e+000 2.405191e-001 -2.181248e+000 2.704515e-001 -8.817118e-001 8.547322e-001 3.103152e-001 3.361650e-001 8.163847e-001 9.522641e-002 -2.698404e-001 -7.554114e-001 -7.124690e-001 1.704881e+000
<VARIANCE> 25
 6.077769e+001 1.075326e+002 1.168447e+002 1.248476e+002 7.571460e+001 9.548763e+001 7.187344e+001 8.243398e+001 5.240923e+001 7.571524e+001 4.903492e+001 5.052263e+001 2.330471e+000 4.054994e+000 4.888878e+000 6.080966e+000 5.058526e+000 5.635440e+000 5.183739e+000 5.677600e+000 4.595582e+000 5.205896e+000 3.143733e+000 3.540924e+000 2.868737e+000
<GCONST> 1.170027e+002
<STATE> 3
<MEAN> 25
 1.064912e+001 -1.891608e+001 -1.864187e+000 -9.814458e+000 5.102062e+000 2.487166e+000 3.263536e+000 4.681476e+000 1.641550e+000 1.174742e+000 -4.677700e+000 -5.826026e+000 -1.410952e-001 -6.413689e-002 1.171693e-001 -4.458660e-002 2.220456e-001 -2.649377e-001 2.087705e-001 3.505009e-001 -3.272642e-001 -2.478228e-001 -1.145193e-001 1.377865e-001 2.060525e-003
<VARIANCE> 25
 2.135666e+001 2.578832e+001 5.483712e+001 5.360357e+001 5.307003e+001 6.070694e+001 6.718681e+001 6.684081e+001 3.009127e+001 3.816195e+001 2.931096e+001 2.419018e+001 2.955193e-001 8.429343e-001 1.087249e+000 1.285848e+000 1.563939e+000 2.049985e+000 1.666549e+000 2.221228e+000 1.573890e+000 1.726809e+000 1.400249e+000 1.497750e+000 3.758485e-001
<GCONST> 9.252254e+001
<STATE> 4
<MEAN> 25
 5.974259e+000 -1.071191e+001 -1.268853e+000 -3.197969e+000 3.322662e+000 5.770431e-001 3.011945e+000 4.308921e+000 1.291919e+000 4.396129e-001 -3.959944e+000 -2.204226e+000 -6.581465e-001 1.510463e+000 3.935957e-001 1.386084e+000 -1.713707e-001 -1.507085e-001 -3.952387e-001 -4.931528e-001 -3.379355e-001 -4.501791e-002 2.092468e-001 6.325184e-001 -1.650392e+000
<VARIANCE> 25
 3.691819e+001 4.797124e+001 5.735315e+001 6.797370e+001 4.429721e+001 6.615890e+001 4.270251e+001 5.635941e+001 3.513867e+001 3.115536e+001 3.523246e+001 2.652550e+001 9.268752e-001 1.671565e+000 1.843475e+000 2.584557e+000 2.494878e+000 2.171564e+000 2.300983e+000 2.401758e+000 2.555606e+000 2.065834e+000 1.961378e+000 1.692332e+000 1.247737e+000
<GCONST> 9.978510e+001
<TRANSP> 5
 0.000000e+000 1.000000e+000 0.000000e+000 0.000000e+000 0.000000e+000
 0.000000e+000 6.613081e-001 3.386920e-001 0.000000e+000 0.000000e+000
 0.000000e+000 0.000000e+000 8.343194e-001 1.656806e-001 0.000000e+000
 0.000000e+000 0.000000e+000 0.000000e+000 7.919610e-001 2.080390e-001
 0.000000e+000 0.000000e+000 0.000000e+000 0.000000e+000 0.000000e+000
<ENDHMM>
~h "b"
<BEGINHMM>
<NUMSTATES> 5
<STATE> 2
<MEAN> 25
 -6.077237e+000 6.638539e+000 -4.977951e+000 8.350054e+000 2.860333e-001 -2.904629e+000 -1.393218e-001 1.020869e+000 1.790693e+000 -4.148344e+000 -8.497534e-001 2.313064e+000 -4.115238e-001 4.514387e-001 -3.698713e-002 6.249061e-002 -4.107932e-002 4.919488e-002 -8.531900e-002 -2.189986e-001 3.127110e-002 5.036169e-002 1.486868e-001 -6.446648e-002 -6.368678e-001
<VARIANCE> 25
 5.861049e+001 3.535480e+001 4.638833e+001 3.425873e+001 4.199170e+001 3.497709e+001 3.021319e+001 3.569618e+001 3.134444e+001 3.860669e+001 2.102469e+001 3.003360e+001 3.272206e-001 7.500166e-001 7.420219e-001 9.046792e-001 1.008246e+000 1.214437e+000 1.122820e+000 1.311283e+000 9.856212e-001 1.907300e+000 1.260313e+000 1.564471e+000 1.224967e-001
<GCONST> 8.677268e+001
<STATE> 3
<MEAN> 25
 -1.110735e+001 8.169397e+000 -4.150445e+000 8.145999e+000 -1.388152e+000 -5.777118e-002 1.246474e+000 -4.232192e-001 2.532033e+000 -1.466772e+000 1.328112e+000 9.197115e-002 1.066334e+000 1.486381e+000 1.574053e+000 1.313916e+000 1.332011e+000 9.625041e-001 7.157511e-001 4.034133e-001 2.682501e-001 1.767379e-001 -1.838509e-001 -5.259659e-001 5.038024e-001
<VARIANCE> 25
 1.431407e+002 2.523334e+001 6.702887e+001 2.652130e+001 2.866239e+001 2.724778e+001 2.507483e+001 4.324162e+001 4.102949e+001 2.157940e+001 2.312455e+001 1.873347e+001 3.814565e+000 2.038465e+000 2.597673e+000 1.846588e+000 2.293537e+000 2.578381e+000 2.985373e+000 2.315881e+000 2.104573e+000 1.602067e+000 1.140613e+000 1.584054e+000 2.375879e+000
<GCONST> 9.813053e+001
<STATE> 4
<MEAN> 25
 4.984015e+000 2.075948e+001 4.759560e+000 1.461165e+001 3.834926e+000 1.868063e+000 2.676463e+000 -3.474257e+000 -2.143110e+000 -3.065660e+000 7.332782e-001 -4.790290e-001 2.641768e+000 1.853276e-001 6.338659e-003 -1.199331e-001 3.811077e-002 -1.020920e-001 -3.536159e-001 -5.487577e-001 -8.304484e-001 -2.311363e-001 1.048926e-001 1.316236e-001 1.999383e+000
<VARIANCE> 25
 7.654894e+001 7.580347e+001 3.841879e+001 2.573665e+001 2.909754e+001 2.059555e+001 3.447852e+001 2.955349e+001 3.117116e+001 2.492514e+001 2.506091e+001 1.716140e+001 5.421335e+000 1.619506e+001 9.508635e+000 7.134488e+000 4.364957e+000 2.686283e+000 4.019115e+000 3.703071e+000 3.690973e+000 2.813435e+000 2.684196e+000 2.382442e+000 3.209959e+000
<GCONST> 1.067673e+002
<TRANSP> 5
 0.000000e+000 1.000000e+000 0.000000e+000 0.000000e+000 0.000000e+000
 0.000000e+000 8.928846e-001 1.071155e-001 0.000000e+000 0.000000e+000
 0.000000e+000 0.000000e+000 3.824701e-001 6.175299e-001 0.000000e+000
 0.000000e+000 0.000000e+000 0.000000e+000 8.473094e-001 1.526907e-001
 0.000000e+000 0.000000e+000 0.000000e+000 0.000000e+000 0.000000e+000
<ENDHMM>
~h "c"
<BEGINHMM>
<NUMSTATES> 5
<STATE> 2
<MEAN> 25
 -6.057107e+000 -7.407973e-001 -4.240607e+000 5.694053e+000 1.116543e+000 -8.573816e-001 -9.204810e-002 -6.123894e-001 2.425572e+000 2.706534e+000 9.972345e-001 -6.175775e-001 -2.508823e-001 4.726496e-001 -5.460596e-001 1.787678e-001 -2.890579e-001 -7.623406e-002 5.889030e-001 4.606448e-001 1.135601e-001 1.601716e-001 -2.579549e-001 -1.221987e-001 -6.263710e-001
<VARIANCE> 25
 1.051223e+002 6.156612e+000 1.777581e+001 1.176064e+001 8.149789e+000 7.298348e+000 2.044806e+001 1.915733e+001 2.071411e+001 6.776639e+000 1.349399e+001 7.444578e+000 4.320259e-002 2.818747e-001 2.348130e-001 1.542207e-001 6.186528e-001 9.693560e-001 3.362089e-001 1.861268e+000 2.037614e+000 6.183856e-001 8.802082e-001 3.826343e-001 1.637866e-001
<GCONST> 6.599950e+001
<STATE> 3
<MEAN> 25
 -1.092243e+001 1.643548e-001 -6.447748e+000 8.174635e+000 6.407855e-001 -3.397211e-001 3.498687e+000 1.854687e+000 3.982001e+000 2.756493e+000 7.375914e-001 -3.030823e-002 5.157146e-001 -4.310288e-002 1.987878e+000 -2.317121e+000 1.026686e+000 -1.045752e-001 4.392352e-001 2.439415e-001 -1.549598e+000 4.729209e-001 -1.024525e+000 2.395568e-001 1.980134e+000
<VARIANCE> 25
 1.122195e+002 3.838141e+000 1.717415e+001 1.319947e+001 1.329990e+001 2.130079e+001 1.202125e+001 1.739629e+001 4.274129e+001 9.032431e+000 1.296690e+001 4.305803e+000 7.227911e+000 3.604931e+000 5.475636e+000 4.666964e+000 3.927718e+000 3.775745e+000 2.451358e+000 2.264346e+000 8.265416e+000 1.423081e+000 2.211515e+000 5.325267e-001 7.430238e+000
<GCONST> 9.394941e+001
<STATE> 4
<MEAN> 25
 -1.185836e+001 -5.671625e+000 1.067698e+001 -4.619586e+000 6.812913e+000 -6.790623e+000 4.645749e+000 -1.488572e+000 4.252259e-001 1.043372e+000 1.101566e+000 5.626459e-002 7.448062e-001 -8.598118e-001 1.608277e+000 -1.047170e+000 3.341521e-001 -1.148195e+000 3.413664e-001 -5.459483e-001 -2.741631e-001 -7.608666e-001 5.414424e-001 -1.487935e-001 3.545451e+000
<VARIANCE> 25
 1.521652e+002 1.082858e+002 6.512680e+001 1.068357e+002 9.625806e+001 1.040414e+002 6.485535e+001 4.845470e+001 7.975143e+001 4.154968e+001 3.244785e+001 1.187757e+001 2.046642e+001 1.061776e+001 1.613015e+001 1.323562e+001 1.343855e+001 1.030206e+001 8.352025e+000 4.562335e+000 8.299088e+000 4.351717e+000 2.666411e+000 2.142640e+000 7.131581e+000
<GCONST> 1.224387e+002
<TRANSP> 5
 0.000000e+000 1.000000e+000 0.000000e+000 0.000000e+000 0.000000e+000
 0.000000e+000 6.387178e-001 3.612823e-001 0.000000e+000 0.000000e+000
 0.000000e+000 0.000000e+000 5.663463e-001 4.336537e-001 0.000000e+000
 0.000000e+000 0.000000e+000 0.000000e+000 8.693980e-001 1.306020e-001
 0.000000e+000 0.000000e+000 0.000000e+000 0.000000e+000 0.000000e+000
<ENDHMM>
~h "d"
<BEGINHMM>
<NUMSTATES> 5
<STATE> 2
<MEAN> 25
 -3.582107e+000 1.243361e+001 3.739902e+000 8.661349e+000 2.193267e+000 6.352121e-001 1.735580e+000 1.297472e+000 -4.457736e-001 -2.562214e+000 -2.804538e-001 -6.759141e-001 1.544263e+000 1.431643e+000 1.217717e+000 1.522705e+000 7.492490e-001 2.580332e-001 -9.113970e-002 -4.056056e-001 -2.877955e-002 -1.405061e-001 -4.238558e-001 -1.115722e-001 5.332966e-001
<VARIANCE> 25
 6.297093e+001 5.862631e+001 1.169252e+002 3.743325e+001 4.259629e+001 2.717898e+001 2.799323e+001 3.043531e+001 4.249879e+001 2.850443e+001 2.772070e+001 1.970542e+001 4.368377e+000 5.157979e+000 4.770237e+000 2.640478e+000 3.041525e+000 2.099625e+000 1.912827e+000 2.157493e+000 2.934221e+000 1.664105e+000 2.009990e+000 1.568038e+000 1.793924e+000
<GCONST> 1.019873e+002
<STATE> 3
<MEAN> 25
 5.902202e+000 2.056611e+001 9.377400e+000 1.553898e+001 3.675105e+000 -2.521667e+000 -2.832955e+000 -4.172490e+000 -2.324690e+000 -2.254098e+000 4.441029e-001 7.210643e-001 1.061799e+000 -1.486847e+000 3.940647e-001 2.587866e-001 -1.527517e+000 -7.026053e-001 -5.314564e-001 -5.059845e-001 2.714041e-001 -1.012828e-001 7.044507e-002 8.332093e-001 1.444390e+000
<VARIANCE> 25
 1.216002e+001 1.443090e+002 2.118382e+001 3.117414e+001 2.918037e+001 2.949039e+001 3.305809e+001 3.847005e+001 2.273237e+001 2.010507e+001 2.635050e+001 1.620151e+001 2.522390e+000 9.795280e+000 2.408037e+000 2.171168e+000 3.623816e+000 4.271950e+000 5.362845e+000 5.605451e+000 3.928862e+000 2.214443e+000 3.099260e+000 2.282417e+000 1.699172e+000
<GCONST> 1.016508e+002
<STATE> 4
<MEAN> 25
 9.339140e+000 -4.456084e+000 1.512222e+001 6.234285e+000 -1.217674e+001 -3.671339e+000 -4.122066e+000 1.734214e+000 9.211845e-001 -4.623770e+000 2.441105e+000 3.773935e+000 8.123115e-001 -3.183282e+000 8.356555e-001 -3.432806e+000 -2.135235e+000 -3.506742e-001 -8.480359e-001 9.115878e-001 -3.651999e-001 5.060480e-001 1.200535e+000 -4.430608e-001 2.987025e+000
<VARIANCE> 25
 1.825413e+001 1.335962e+002 4.438737e+001 1.113910e+002 7.246094e+001 5.150577e+001 4.542262e+001 7.977648e+001 6.508625e+001 4.323923e+001 6.327869e+001 3.723664e+001 1.441010e+000 1.934303e+001 6.041869e+000 6.286170e+000 1.658333e+001 8.499256e+000 5.429650e+000 7.452725e+000 7.100172e+000 5.813311e+000 6.376139e+000 5.533295e+000 6.069865e+000
<GCONST> 1.190799e+002
<TRANSP> 5
 0.000000e+000 1.000000e+000 0.000000e+000 0.000000e+000 0.000000e+000
 0.000000e+000 7.559987e-001 2.440013e-001 0.000000e+000 0.000000e+000
 0.000000e+000 0.000000e+000 7.012078e-001 2.987922e-001 0.000000e+000
 0.000000e+000 0.000000e+000 0.000000e+000 6.969132e-001 3.030868e-001
 0.000000e+000 0.000000e+000 0.000000e+000 0.000000e+000 0.000000e+000
<ENDHMM>
~h "e"
<BEGINHMM>
<NUMSTATES> 5
<STATE> 2
<MEAN> 25
 1.502806e+000 6.973256e+000 -1.465573e+000 1.475545e+000 5.034728e-001 2.506533e+000 3.849690e-001 -1.940518e+000 -3.043122e-002 6.317251e-001 4.183228e+000 2.032575e+000 3.448635e-001 6.241845e-001 -1.556587e-001 8.354842e-001 4.317584e-001 1.216043e-001 -2.435565e-002 -5.534953e-001 -3.587909e-001 1.412883e-002 1.814984e-004 -1.505221e-001 -2.045324e-001
<VARIANCE> 25
 1.477442e+002 1.844799e+002 1.267691e+002 1.079683e+002 6.285685e+001 6.914929e+001 4.374907e+001 4.769743e+001 4.317400e+001 2.884093e+001 2.996396e+001 2.934642e+001 8.818442e+000 4.733494e+000 3.789831e+000 4.203765e+000 3.324100e+000 2.730098e+000 2.583037e+000 2.570508e+000 4.532023e+000 1.986302e+000 2.126734e+000 1.808835e+000 6.737516e+000
<GCONST> 1.116617e+002
<STATE> 3
<MEAN> 25
 5.964130e+000 7.881948e+000 3.260897e+000 5.113894e+000 2.324867e+000 -1.390105e+000 -2.088588e+000 -2.438737e+000 -2.016460e+000 -2.428685e-001 1.778804e+000 4.693687e-002 6.631073e-001 -2.439880e-002 -5.629902e-002 9.408261e-001 -2.450787e-001 -4.095806e-001 -5.450392e-001 -7.215911e-001 -9.870222e-002 2.132373e-001 -7.134609e-002 -2.164033e-001 2.709250e-001
<VARIANCE> 25
 3.520197e+001 2.316982e+002 1.025852e+002 1.163009e+002 6.045689e+001 4.975296e+001 3.640273e+001 4.154256e+001 4.228745e+001 3.991494e+001 2.992905e+001 2.303155e+001 8.704794e+000 1.175383e+001 5.691824e+000 7.527413e+000 6.883772e+000 3.796446e+000 6.116199e+000 5.152617e+000 5.842283e+000 3.544212e+000 2.560770e+000 1.995535e+000 9.991462e+000
<GCONST> 1.157003e+002
<STATE> 4
<MEAN> 25
 9.626528e+000 1.010139e+000 3.327065e+000 4.334855e+000 -2.972609e+000 -1.652479e+000 -5.745451e+000 -5.356725e+000 -1.424018e-002 3.123435e+000 2.994832e+000 -8.454425e-002 5.177604e-001 -3.118404e+000 1.358617e+000 -2.125370e+000 -1.488359e+000 -2.524511e-001 -7.506277e-001 5.790939e-001 7.084484e-001 7.755255e-001 -4.810304e-001 1.752507e-001 2.528566e+000
<VARIANCE> 25
 4.019253e+001 1.236701e+002 1.182964e+002 1.058967e+002 1.537907e+002 6.355335e+001 8.259766e+001 9.940289e+001 8.032524e+001 4.836783e+001 4.691425e+001 3.057205e+001 3.746097e+000 1.621679e+001 8.628121e+000 1.188818e+001 1.207246e+001 4.781986e+000 7.385944e+000 1.092000e+001 9.512304e+000 6.197499e+000 4.391600e+000 2.915785e+000 1.045525e+001
<GCONST> 1.237848e+002
<TRANSP> 5
 0.000000e+000 1.000000e+000 0.000000e+000 0.000000e+000 0.000000e+000
 0.000000e+000 4.531404e-001 5.468596e-001 0.000000e+000 0.000000e+000
 0.000000e+000 0.000000e+000 1.794276e-001 8.205724e-001 0.000000e+000
 0.000000e+000 0.000000e+000 0.000000e+000 6.220638e-001 3.779363e-001
 0.000000e+000 0.000000e+000 0.000000e+000 0.000000e+000 0.000000e+000
<ENDHMM>
~h "f"
<BEGINHMM>
<NUMSTATES> 5
<STATE> 2
<MEAN> 25
 -3.619011e+000 1.906146e+000 4.140477e+000 4.522927e+000 3.061016e+000 8.293648e-001 -3.909626e+000 -2.207160e+000 -3.473275e+000 2.405123e-001 -1.272204e+000 2.178793e+000 -3.420701e-001 1.189104e-001 4.500562e-002 1.821122e-001 1.563297e-001 -1.413106e-001 1.009757e-001 2.937421e-002 -1.581481e-001 -3.748026e-002 3.729325e-002 -1.283735e-002 1.050169e-001
<VARIANCE> 25
 3.017105e+001 3.160205e+001 3.458648e+001 1.316678e+001 1.830737e+001 3.032734e+001 2.317383e+001 3.084410e+001 1.769663e+001 1.482927e+001 1.318725e+001 1.351288e+001 1.082623e+000 1.008374e+000 1.195881e+000 1.032964e+000 1.536103e+000 1.893390e+000 2.052670e+000 2.276326e+000 2.077991e+000 1.388188e+000 1.042366e+000 1.039807e+000 2.612474e-001
<GCONST> 8.527839e+001
<STATE> 3
<MEAN> 25
 -1.261359e+001 1.011646e+001 6.212393e+000 4.436714e+000 -7.449690e-001 -5.556925e+000 1.622921e+000 -2.173996e+000 -6.881381e+000 2.240247e+000 2.742239e+000 2.561221e+000 -2.686790e-001 2.339151e-001 -5.903901e-002 -2.316522e-001 -2.559711e-001 -3.743537e-001 1.360596e-001 -3.079901e-001 4.812662e-002 9.349046e-003 1.325137e-002 -1.147851e-001 2.364649e-001
<VARIANCE> 25
 4.181267e+001 5.918100e+001 2.361696e+001 1.411124e+001 3.905627e+001 2.142213e+001 2.299028e+001 3.132993e+001 1.955239e+001 1.956270e+001 1.635746e+001 1.488660e+001 3.144126e+000 7.739030e-001 2.250517e+000 1.118046e+000 3.328222e+000 1.591982e+000 1.758891e+000 2.228320e+000 2.100932e+000 1.415384e+000 1.899951e+000 1.347167e+000 2.194270e-001
<GCONST> 8.967880e+001
<STATE> 4
<MEAN> 25
 -7.812070e+000 -4.437763e+000 1.419575e+001 -3.534761e+000 -3.676416e+000 -9.245607e+000 2.316944e+000 -1.924082e+000 -3.096030e+000 -1.594631e+000 1.554078e+000 -5.579216e-001 6.530403e-002 2.345294e-001 -2.607597e-001 4.532255e-002 -2.312505e-001 1.114348e-001 -2.818024e-001 -7.487059e-002 2.750673e-001 2.038060e-002 1.766418e-001 -2.305171e-001 -2.497852e-001
<VARIANCE> 25
 2.574207e+001 1.645897e+002 1.784967e+002 5.706752e+001 1.017850e+002 5.146642e+001 6.970988e+001 2.999686e+001 8.602901e+001 2.218483e+001 1.378596e+001 1.900250e+001 1.494560e+000 1.474000e+000 3.443206e+000 2.256492e+000 2.706366e+000 1.845993e+000 2.243351e+000 1.554121e+000 2.872409e+000 2.266106e+000 1.563478e+000 1.671425e+000 3.883160e-001
<GCONST> 1.004443e+002
<TRANSP> 5
 0.000000e+000 1.000000e+000 0.000000e+000 0.000000e+000 0.000000e+000
 0.000000e+000 9.094233e-001 9.057670e-002 0.000000e+000 0.000000e+000
 0.000000e+000 0.000000e+000 8.850501e-001 1.149499e-001 0.000000e+000
 0.000000e+000 0.000000e+000 0.000000e+000 8.940513e-001 1.059487e-001
 0.000000e+000 0.000000e+000 0.000000e+000 0.000000e+000 0.000000e+000
<ENDHMM>
~h "g"
<BEGINHMM>
<NUMSTATES> 5
<STATE> 2
<MEAN> 25
 4.326656e+000 2.031829e+000 1.161012e+001 1.089700e+001 -3.373711e+000 -5.638444e+000 -4.692165e+000 2.896886e+000 -3.093885e+000 -1.821925e+000 2.899160e+000 2.754465e+000 8.263637e-001 -1.726880e+000 1.808234e+000 -2.232489e+000 -1.256125e+000 -1.283511e+000 -1.019813e+000 8.170013e-001 -7.766266e-001 4.495440e-001 6.968501e-001 5.875961e-001 2.358412e+000
<VARIANCE> 25
 3.015343e+001 1.176497e+002 7.282994e+001 9.406110e+001 6.095150e+001 3.904558e+001 4.859568e+001 4.855650e+001 4.201126e+001 2.848052e+001 3.608559e+001 2.255052e+001 1.691579e+000 7.079377e+000 5.055923e+000 9.829484e+000 5.378538e+000 2.847083e+000 3.009750e+000 3.679177e+000 4.017020e+000 3.859171e+000 4.869136e+000 1.616765e+000 2.280785e+000
<GCONST> 1.094338e+002
<STATE> 3
<MEAN> 25
 6.229671e+000 -7.954184e+000 1.507887e+001 -9.859632e+000 -3.525340e+000 -9.645648e+000 -3.670049e+000 1.028140e+001 -3.198746e+000 5.195199e+000 5.497872e-001 6.922558e-001 -7.249220e-002 -5.193732e-001 -8.491394e-001 -1.004952e+000 1.051910e+000 -4.399351e-002 8.947950e-001 4.125887e-001 6.667178e-001 6.669837e-001 -1.351511e+000 -3.526326e-001 4.029695e-001
<VARIANCE> 25
 7.806383e+000 4.268818e+001 2.447443e+001 4.229867e+001 2.684712e+001 1.858128e+001 3.290639e+001 2.820773e+001 3.727034e+001 1.987058e+001 2.804939e+001 2.328158e+001 3.729708e-001 1.551737e+000 1.788860e+000 4.217718e+000 2.223452e+000 1.559404e+000 2.338041e+000 2.072781e+000 2.709965e+000 2.167596e+000 2.195574e+000 1.742817e+000 1.671802e+000
<GCONST> 9.275478e+001
<STATE> 4
<MEAN> 25
 3.608990e+000 -1.161761e+001 7.076026e+000 -1.260784e+001 2.868285e+000 -6.430017e+000 1.601309e+000 9.503496e+000 1.454716e+000 5.184009e+000 -1.078812e+001 -1.479711e+000 -4.119650e-001 3.372624e-001 -6.346300e-001 6.891527e-001 3.391239e-003 5.821256e-001 1.914245e-001 -6.270252e-001 2.026080e-001 -2.774895e-001 -1.107592e-001 -1.171634e-001 -8.841146e-001
<VARIANCE> 25
 1.884013e+001 3.331006e+001 1.979419e+001 5.330225e+001 2.176883e+001 3.056721e+001 2.403212e+001 3.306891e+001 1.769185e+001 2.269550e+001 2.345286e+001 1.934286e+001 3.988169e-001 1.109238e+000 5.918731e-001 1.988366e+000 1.693038e+000 1.512216e+000 1.319340e+000 1.806399e+000 1.280109e+000 1.268458e+000 1.938732e+000 1.668550e+000 9.409938e-001
<GCONST> 8.739487e+001
<TRANSP> 5
 0.000000e+000 1.000000e+000 0.000000e+000 0.000000e+000 0.000000e+000
 0.000000e+000 8.592536e-001 1.407464e-001 0.000000e+000 0.000000e+000
 0.000000e+000 0.000000e+000 8.767579e-001 1.232420e-001 0.000000e+000
 0.000000e+000 0.000000e+000 0.000000e+000 9.175575e-001 8.244249e-002
 0.000000e+000 0.000000e+000 0.000000e+000 0.000000e+000 0.000000e+000
<ENDHMM>
~h "h"
<BEGINHMM>
<NUMSTATES> 5
<STATE> 2
<MEAN> 25
 4.946356e-001 -5.010157e+000 -3.442614e+000 2.020877e+000 4.339253e+000 3.729702e+000 4.386443e+000 2.217424e+000 2.519031e-001 -2.430207e+000 -3.730306e+000 -4.765024e-001 -3.126188e-001 5.912378e-001 -1.944098e-001 4.609154e-001 -5.633559e-002 2.772085e-001 -5.590464e-001 5.909999e-002 -1.084920e-002 1.014711e-001 1.629363e-001 3.172453e-001 -9.596355e-001
<VARIANCE> 25
 3.655192e+001 7.453079e+001 4.419627e+001 2.229808e+001 1.063253e+001 1.908582e+001 3.208786e+001 2.497108e+001 2.584988e+001 2.828918e+001 2.072595e+001 1.335276e+001 2.471629e-001 5.936406e-001 1.336378e+000 1.447169e+000 9.794140e-001 1.658271e+000 1.929596e+000 1.307111e+000 1.335216e+000 1.438835e+000 1.080716e+000 1.718460e+000 2.325083e-001
<GCONST> 8.493060e+001
<STATE> 3
<MEAN> 25
 -4.521028e+000 2.984510e+000 1.259242e+000 3.963536e+000 3.129053e+000 1.967806e+000 -4.480640e+000 -2.229854e+000 -9.197422e-001 -1.139288e+000 -1.267081e+000 2.116328e+000 -4.586814e-001 3.503698e-001 1.004799e-001 -1.097354e-001 -2.936801e-001 -1.345356e-001 -2.014859e-001 -2.876220e-001 -1.189025e-001 5.778652e-002 1.614637e-001 -1.508105e-002 -1.566451e-001
<VARIANCE> 25
 2.540458e+001 2.051113e+001 7.499735e+001 1.729243e+001 2.099559e+001 1.263619e+001 3.275616e+001 2.076881e+001 2.716231e+001 1.799460e+001 2.481754e+001 1.266424e+001 3.671138e-001 4.932054e-001 5.756650e-001 7.398819e-001 1.226511e+000 1.555462e+000 1.712028e+000 1.500078e+000 1.879266e+000 1.670212e+000 1.746336e+000 7.989798e-001 3.475800e-001
<GCONST> 8.286311e+001
<STATE> 4
<MEAN> 25
 -7.438866e+000 -6.274385e+000 -3.905789e+000 4.185400e+000 7.026801e-001 6.284018e+000 1.853038e+000 3.161213e+000 -1.889817e+000 -1.481844e+000 3.414446e+000 -1.115363e+000 -4.267325e-001 2.042451e-001 -1.829806e-001 8.335298e-003 -5.249404e-001 1.732439e-001 2.272287e-001 1.147801e-001 6.826922e-002 -1.747082e-001 3.262071e-001 5.775123e-002 -4.356438e-001
<VARIANCE> 25
 1.191565e+002 2.246040e+002 1.190176e+002 7.217041e+000 3.271734e+001 3.743818e+001 3.954706e+001 4.154613e+001 4.312223e+001 2.493086e+001 2.828158e+001 1.553372e+001 2.334752e+000 1.305651e+000 1.784124e+000 7.269744e-001 2.061746e+000 1.849139e+000 1.511064e+000 1.726678e+000 2.367214e+000 1.569990e+000 2.187735e+000 1.674515e+000 1.453806e+000
<GCONST> 9.713499e+001
<TRANSP> 5
 0.000000e+000 1.000000e+000 0.000000e+000 0.000000e+000 0.000000e+000
 0.000000e+000 7.755460e-001 2.244540e-001 0.000000e+000 0.000000e+000
 0.000000e+000 0.000000e+000 9.139316e-001 8.606834e-002 0.000000e+000
 0.000000e+000 0.000000e+000 0.000000e+000 8.255421e-001 1.744579e-001
 0.000000e+000 0.000000e+000 0.000000e+000 0.000000e+000 0.000000e+000
<ENDHMM>
~h "i"
<BEGINHMM>
<NUMSTATES> 5
<STATE> 2
<MEAN> 25
 -4.848217e+000 -1.708071e-001 7.815258e+000 5.777582e+000 -5.800737e+000 -5.769391e+000 2.613646e+000 4.662493e-001 -8.625076e-001 -2.345962e+000 3.678269e+000 2.224625e+000 2.280679e+000 -1.136512e+000 4.958517e+000 -9.566012e-001 -3.206549e+000 4.366305e-001 -6.682765e-001 -1.142002e+000 -2.462728e+000 -1.681822e-001 9.957174e-001 -4.726057e-001 3.217243e+000
<VARIANCE> 25
 9.699733e+001 7.139678e+001 1.302595e+002 9.160873e+001 1.102315e+002 1.102176e+002 1.164958e+002 8.726215e+001 7.383508e+001 6.167203e+001 3.810804e+001 3.731535e+001 7.134060e+000 1.138400e+001 1.735908e+001 1.059850e+001 1.038418e+001 7.117834e+000 6.845063e+000 6.276483e+000 7.871745e+000 5.446916e+000 3.778177e+000 2.992111e+000 1.082677e+001
<GCONST> 1.247329e+002
<STATE> 3
<MEAN> 25
 2.121226e+000 -1.354720e+000 2.458701e+001 -6.442750e-001 -1.354642e+001 5.482548e-001 -2.898121e+000 -4.085111e+000 -8.287154e+000 -1.913875e+000 5.511178e+000 -8.563108e-001 7.979634e-001 -6.422094e-001 5.750630e+000 -3.551597e+000 -2.179082e+000 1.732440e+000 -1.665051e+000 -3.377858e-001 -2.333130e+000 -1.608188e-001 1.530199e-001 -1.302407e+000 2.678559e+000
<VARIANCE> 25
 4.002579e+001 4.635776e+001 1.656370e+002 1.367924e+002 1.323712e+002 8.561778e+001 8.752706e+001 7.758491e+001 1.041824e+002 5.900256e+001 3.770172e+001 4.119897e+001 2.397901e+000 5.844001e+000 1.322266e+001 1.178782e+001 1.103139e+001 8.091365e+000 8.463838e+000 5.594791e+000 5.961137e+000 4.759303e+000 3.178315e+000 3.265936e+000 3.872789e+000
<GCONST> 1.208092e+002
<STATE> 4
<MEAN> 25
 1.984923e+000 -2.261887e-001 3.039811e+001 -7.809832e+000 -1.248035e+001 1.414439e+000 -3.426368e+000 -9.349788e-001 -1.303951e+001 -1.901723e+000 3.078409e+000 -2.354337e+000 -1.570981e-001 2.143498e-001 -1.081171e+000 3.921389e-001 6.705042e-001 -2.896680e-001 1.809851e-001 2.933821e-001 3.616992e-001 1.305317e-001 -3.427809e-001 2.508321e-001 -6.428107e-001
<VARIANCE> 25
 1.911398e+001 2.824247e+001 1.149993e+002 6.656592e+001 4.964626e+001 5.283597e+001 4.194073e+001 4.527403e+001 4.963566e+001 3.538323e+001 2.465175e+001 2.534132e+001 5.163383e-001 1.307929e+000 4.588229e+000 4.548618e+000 3.462012e+000 2.964034e+000 2.423145e+000 2.544023e+000 2.654882e+000 2.139874e+000 1.904255e+000 1.584623e+000 1.272436e+000
<GCONST> 1.003861e+002
<TRANSP> 5
 0.000000e+000 1.000000e+000 0.000000e+000 0.000000e+000 0.000000e+000
 0.000000e+000 4.143256e-001 5.856745e-001 0.000000e+000 0.000000e+000
 0.000000e+000 0.000000e+000 5.404919e-001 4.595080e-001 0.000000e+000
 0.000000e+000 0.000000e+000 0.000000e+000 9.131066e-001 8.689344e-002
 0.000000e+000 0.000000e+000 0.000000e+000 0.000000e+000 0.000000e+000
<ENDHMM>
~h "j"
<BEGINHMM>
<NUMSTATES> 5
<STATE> 2
<MEAN> 25
 -2.184276e+000 1.360312e+001 -1.353593e+000 1.260253e+001 3.170018e+000 -4.457871e+000 -4.208802e+000 1.022023e+000 4.553598e+000 -2.647349e+000 -9.121604e-001 7.102318e-001 6.437643e-001 7.351325e-001 2.423117e-001 6.445192e-001 9.553884e-001 -1.543497e-002 6.429102e-003 -2.092921e-001 -9.843651e-003 1.485639e-001 -1.152264e-001 2.935756e-001 2.338600e-001
<VARIANCE> 25
 7.835547e+001 8.472255e+001 4.135074e+001 2.760903e+001 4.204317e+001 2.886013e+001 2.626989e+001 3.795815e+001 5.433929e+001 8.467076e+000 1.232325e+001 9.966260e+000 4.147901e+000 2.161083e+000 1.877825e+000 3.576028e+000 2.511976e+000 4.047772e+000 2.891642e+000 2.379888e+000 2.906144e+000 1.712532e+000 1.552911e+000 1.256327e+000 1.738863e+000
<GCONST> 9.790804e+001
<STATE> 3
<MEAN> 25
 3.104640e+000 1.123147e+001 1.170049e+001 -2.473628e-001 1.646057e+001 -5.931865e+000 -3.360384e+000 1.196010e+000 -1.664576e+000 4.502801e+000 -8.740487e-001 5.922271e+000 -1.158052e+000 -3.430024e+000 2.367176e+000 -4.223477e+000 1.578061e+000 -2.257111e+000 1.352788e+000 1.622161e-001 -1.980049e+000 4.415689e-001 -1.148544e+000 9.785939e-001 3.312774e+000
<VARIANCE> 25
 2.600934e+001 1.344191e+002 4.914394e+001 1.431302e+002 1.322910e+002 4.265077e+001 8.520317e+001 2.770204e+001 4.087057e+001 3.237875e+001 1.211456e+001 2.184534e+001 5.683725e+000 5.456706e+000 4.444700e+000 8.031575e+000 2.778640e+001 6.304646e+000 6.116995e+000 4.337336e+000 2.537163e+000 8.464665e+000 1.389355e+000 2.059799e+000 3.663353e+000
<GCONST> 1.130062e+002
<STATE> 4
<MEAN> 25
 3.319584e+000 -6.267071e+000 1.718956e+001 -1.017598e+001 1.833065e+000 -1.548081e+001 6.608800e+000 5.716453e+000 -2.709565e+000 2.607169e+000 -4.623916e+000 6.107639e+000 1.570567e-001 -2.089981e-001 -5.089937e-002 -9.573124e-002 -4.476888e-001 -9.293309e-002 1.438544e-001 -6.408268e-002 2.328546e-002 -5.856343e-002 5.158505e-002 8.409265e-002 1.844726e-001
<VARIANCE> 25
 2.324555e+001 5.701483e+001 3.525674e+001 5.063807e+001 7.538483e+001 3.381876e+001 5.426224e+001 6.617583e+001 6.770419e+001 2.401665e+001 6.259806e+001 1.096289e+001 1.202561e+000 1.969690e+000 3.610987e+000 4.352817e+000 7.512123e+000 3.695432e+000 3.461784e+000 4.843016e+000 5.045386e+000 2.010211e+000 4.375825e+000 1.260792e+000 2.537147e+000
<GCONST> 1.052943e+002
<TRANSP> 5
 0.000000e+000 1.000000e+000 0.000000e+000 0.000000e+000 0.000000e+000
 0.000000e+000 9.089389e-001 9.106109e-002 0.000000e+000 0.000000e+000
 0.000000e+000 0.000000e+000 6.766236e-001 3.233764e-001 0.000000e+000
 0.000000e+000 0.000000e+000 0.000000e+000 9.514912e-001 4.850887e-002
 0.000000e+000 0.000000e+000 0.000000e+000 0.000000e+000 0.000000e+000
<ENDHMM>
~h "k"
<BEGINHMM>
<NUMSTATES> 5
<STATE> 2
<MEAN> 25
 -2.835399e+000 2.559723e+000 -3.748471e+000 1.291851e+000 6.026483e-002 7.793981e-001 -1.600674e+000 -1.626978e+000 3.473043e-001 -1.301631e-001 -5.974064e-001 -3.397759e-001 -3.778917e-001 3.176953e-001 -2.805483e-001 4.020470e-001 5.065602e-002 -4.912977e-002 3.343037e-002 3.663360e-002 1.074933e-001 3.604097e-002 1.040299e-001 1.731387e-001 -5.979036e-001
<VARIANCE> 25
 2.202656e+001 4.935361e+001 6.403561e+001 2.677278e+001 3.155336e+001 3.107497e+001 2.088133e+001 2.304045e+001 2.440421e+001 2.015386e+001 1.914310e+001 1.673878e+001 3.020788e-001 6.673113e-001 1.072013e+000 8.050348e-001 1.180054e+000 1.203068e+000 1.267099e+000 1.504026e+000 1.356163e+000 1.120854e+000 1.153871e+000 1.253053e+000 3.136455e-001
<GCONST> 8.429140e+001
<STATE> 3
<MEAN> 25
 -5.627342e+000 2.819623e+000 -5.215131e+000 3.097595e+000 9.213482e-001 9.334847e-002 -7.877097e-001 -3.439456e-001 3.325357e-001 2.420275e-001 -2.317697e-001 2.685038e-001 3.032825e-001 -1.632510e+000 -1.662462e+000 -3.018128e-002 1.140685e+000 -1.860212e-001 8.786454e-002 7.923644e-001 9.037819e-001 3.574045e-001 -2.234306e-001 -1.171504e-001 1.521661e+000
<VARIANCE> 25
 5.037443e+001 3.606121e+001 4.635258e+001 2.468931e+001 3.510994e+001 2.121875e+001 1.986709e+001 3.104236e+001 3.011006e+001 2.482879e+001 2.146245e+001 1.740573e+001 3.348826e+000 5.867404e+000 4.598177e+000 3.760732e+000 4.068210e+000 3.795559e+000 6.476933e+000 4.618235e+000 2.357880e+000 3.294423e+000 2.310980e+000 2.643689e+000 3.275139e+000
<GCONST> 1.030818e+002
<STATE> 4
<MEAN> 25
 1.190311e+000 -8.722235e+000 -9.021714e+000 -6.797550e-001 8.384142e+000 -2.733618e+000 -4.009554e+000 3.322157e+000 4.772611e+000 2.445966e+000 -1.743506e+000 -1.770351e+000 2.449374e+000 -2.324399e+000 5.591338e-001 -1.815544e+000 1.845818e-001 -8.077462e-002 6.622676e-001 6.165992e-001 4.707021e-001 6.717792e-001 -4.172278e-001 -9.318912e-001 3.897664e+000
<VARIANCE> 25
 8.028622e+001 9.199177e+001 9.128101e+001 1.035799e+002 1.300334e+002 8.781474e+001 1.020130e+002 8.122060e+001 6.531567e+001 4.528079e+001 3.652039e+001 3.452910e+001 4.961610e+000 9.736530e+000 1.106779e+001 6.877265e+000 1.856796e+001 7.710045e+000 1.378726e+001 8.227529e+000 6.625502e+000 5.043003e+000 3.257172e+000 3.321846e+000 5.033144e+000
<GCONST> 1.229170e+002
<TRANSP> 5
 0.000000e+000 1.000000e+000 0.000000e+000 0.000000e+000 0.000000e+000
 0.000000e+000 8.572335e-001 1.427665e-001 0.000000e+000 0.000000e+000
 0.000000e+000 0.000000e+000 4.912021e-001 5.087978e-001 0.000000e+000
 0.000000e+000 0.000000e+000 0.000000e+000 7.482346e-001 2.517654e-001
 0.000000e+000 0.000000e+000 0.000000e+000 0.000000e+000 0.000000e+000
<ENDHMM>
~h "l"
<BEGINHMM>
<NUMSTATES> 5
<STATE> 2
<MEAN> 25
 3.838386e+000 5.501761e+000 -5.003586e+000 1.331180e+000 1.071096e-001 -1.387571e+000 -2.431351e+000 1.855776e+000 4.528598e+000 1.295883e+000 7.000950e-001 -4.938102e-002 2.679972e+000 -4.972998e-001 7.216024e-001 -1.898636e+000 -1.032543e-001 4.165041e-001 -9.514681e-001 -1.265423e-001 -5.635653e-002 7.541654e-001 -4.689620e-002 -1.908254e-001 2.821804e+000
<VARIANCE> 25
 1.457164e+002 1.657565e+002 1.524120e+002 1.488316e+002 7.630718e+001 9.855012e+001 7.524514e+001 6.856100e+001 6.155928e+001 7.084940e+001 3.548712e+001 4.355042e+001 9.870642e+000 9.577493e+000 8.848163e+000 9.288846e+000 5.372497e+000 7.629701e+000 7.621565e+000 6.258035e+000 4.239776e+000 4.784458e+000 2.942603e+000 3.288333e+000 6.937994e+000
<GCONST> 1.230187e+002
<STATE> 3
<MEAN> 25
 1.090047e+001 -5.136650e+000 4.852808e+000 -1.240227e+001 -7.322747e-001 7.340627e-001 -5.913915e+000 -6.204424e-001 3.407913e+000 6.345853e+000 -9.840776e-001 -1.283527e+000 -3.246051e-001 -1.813160e+000 4.838960e-001 -8.224407e-001 8.036467e-001 3.978811e-001 1.722340e-001 -1.687188e-001 5.174040e-001 3.209854e-001 -1.133065e+000 1.468923e-002 1.141230e+000
<VARIANCE> 25
 3.843969e+001 6.489736e+001 1.575486e+002 7.508845e+001 8.174020e+001 1.673231e+002 1.242095e+002 1.278988e+002 6.173872e+001 5.683860e+001 5.649385e+001 3.883950e+001 5.089768e-001 5.722384e+000 4.399498e+000 3.797910e+000 5.599195e+000 5.609679e+000 6.703273e+000 6.873687e+000 4.565807e+000 5.891957e+000 3.380456e+000 3.517827e+000 1.920291e+000
<GCONST> 1.157835e+002
<STATE> 4
<MEAN> 25
 8.836418e+000 -5.863783e+000 7.228911e+000 -1.568314e+001 2.500184e+000 -1.599932e+000 -7.975988e+000 -1.963045e+000 2.813826e+000 1.085539e+001 -2.902987e+000 -4.112650e-001 -9.824538e-002 -5.538537e-002 -4.438249e-001 2.438800e-001 9.848885e-002 3.917288e-001 5.433577e-001 -1.084749e-001 -2.394684e-001 -1.849222e-001 -7.990372e-002 -1.493047e-001 -2.467460e-001
<VARIANCE> 25
 1.813598e+001 3.810282e+001 5.432167e+001 6.277455e+001 5.954253e+001 9.925951e+001 9.094912e+001 1.157971e+002 5.452343e+001 4.269773e+001 4.648997e+001 4.060610e+001 3.841484e-001 1.861580e+000 1.377567e+000 2.581992e+000 2.247518e+000 2.141932e+000 2.578598e+000 3.284184e+000 2.706128e+000 2.577198e+000 2.417673e+000 1.513435e+000 8.383753e-001
<GCONST> 1.015667e+002
<TRANSP> 5
 0.000000e+000 1.000000e+000 0.000000e+000 0.000000e+000 0.000000e+000
 0.000000e+000 7.330364e-001 2.669637e-001 0.000000e+000 0.000000e+000
 0.000000e+000 0.000000e+000 4.354515e-001 5.645485e-001 0.000000e+000
 0.000000e+000 0.000000e+000 0.000000e+000 8.249730e-001 1.750270e-001
 0.000000e+000 0.000000e+000 0.000000e+000 0.000000e+000 0.000000e+000
<ENDHMM>
~h "m"
<BEGINHMM>
<NUMSTATES> 5
<STATE> 2
<MEAN> 25
 6.571084e+000 1.854870e+000 1.898412e+000 5.882998e+000 3.855667e+000 5.548271e+000 -2.930721e-001 -8.443648e+000 -7.587559e+000 -4.230298e-001 -3.349115e-001 2.645214e+000 -4.620317e-002 5.228214e-001 -7.271161e-002 5.074276e-001 -1.816450e-001 1.096671e-001 8.739898e-002 -1.255365e-001 -1.285042e-001 -1.785636e-001 -4.362712e-002 2.342701e-001 -4.950441e-001
<VARIANCE> 25
 6.179770e+001 2.592509e+001 7.155083e+001 2.400934e+001 2.656178e+001 3.708087e+001 3.726686e+001 5.380055e+001 6.132193e+001 3.589231e+001 2.601057e+001 2.142894e+001 1.900425e-001 4.177799e-001 6.014656e-001 8.780565e-001 8.257532e-001 9.174686e-001 1.027224e+000 1.553891e+000 1.726960e+000 1.349115e+000 1.095066e+000 1.092623e+000 1.360689e-001
<GCONST> 8.533962e+001
<STATE> 3
<MEAN> 25
 4.301352e-001 5.673286e+000 -2.098027e+000 7.051108e+000 4.217087e-001 4.150710e+000 1.842494e+000 -4.519813e+000 -1.391574e+000 -9.195221e-001 -5.573483e-001 1.633904e+000 -1.719680e-001 5.115812e-002 -2.196592e-001 1.983054e-002 -1.404006e-001 -1.472798e-001 2.559076e-001 3.970199e-001 5.585420e-001 1.422318e-001 6.646732e-002 -3.134329e-001 -2.069984e-001
<VARIANCE> 25
 1.607530e+002 4.091479e+001 6.723976e+001 2.101833e+001 3.326114e+001 2.952291e+001 3.018886e+001 6.615331e+001 4.667823e+001 2.492588e+001 3.041804e+001 1.957673e+001 1.716720e+000 8.931346e-001 1.244590e+000 1.352193e+000 1.384028e+000 1.771937e+000 1.374063e+000 1.777922e+000 1.487615e+000 1.260216e+000 1.405552e+000 1.144335e+000 1.069257e+000
<GCONST> 9.383841e+001
<STATE> 4
<MEAN> 25
 7.399297e+000 6.344286e+000 -5.582023e+000 7.633648e+000 5.056253e+000 5.869893e+000 7.512978e-001 -6.779044e+000 -4.250330e+000 -1.397554e+000 2.517492e+000 8.315260e-001 2.199577e+000 -1.146982e+000 -5.154200e-001 -1.274206e+000 -7.424472e-002 6.054792e-001 -4.332804e-001 2.885777e-001 6.024501e-001 -3.504920e-001 -2.065704e-002 -1.471952e-001 2.307420e+000
<VARIANCE> 25
 1.368436e+002 1.570503e+002 8.339674e+001 7.337523e+001 5.473833e+001 5.097631e+001 4.006631e+001 7.097041e+001 7.945412e+001 3.717211e+001 3.539916e+001 1.775537e+001 7.922215e+000 1.275315e+001 7.945560e+000 9.550674e+000 5.960392e+000 5.611475e+000 5.834048e+000 9.992132e+000 1.279156e+001 3.586671e+000 3.165800e+000 1.912053e+000 3.682445e+000
<GCONST> 1.184127e+002
<TRANSP> 5
 0.000000e+000 1.000000e+000 0.000000e+000 0.000000e+000 0.000000e+000
 0.000000e+000 8.853971e-001 1.146029e-001 0.000000e+000 0.000000e+000
 0.000000e+000 0.000000e+000 6.692432e-001 3.307568e-001 0.000000e+000
 0.000000e+000 0.000000e+000 0.000000e+000 7.520637e-001 2.479362e-001
 0.000000e+000 0.000000e+000 0.000000e+000 0.000000e+000 0.000000e+000
<ENDHMM>
~h "n"
<BEGINHMM>
<NUMSTATES> 5
<STATE> 2
<MEAN> 25
 8.176640e+000 -9.098686e+000 7.708373e+000 -5.802463e+000 5.698373e-001 -6.655007e+000 1.296365e+000 5.491809e+000 -1.707759e+000 1.803298e+000 -5.299357e+000 6.045408e-002 -1.631097e-001 2.517276e+000 7.751288e-001 1.957376e+000 -5.409250e-001 -3.337974e-001 -1.090183e+000 -2.554615e+000 -5.200728e-001 7.734355e-001 3.286941e-001 4.168162e-001 -1.968094e+000
<VARIANCE> 25
 9.242959e+000 4.317732e+001 8.393215e+001 7.986055e+001 3.673476e+001 2.814892e+001 5.089719e+001 7.336099e+001 3.634278e+001 2.361250e+001 3.841219e+001 1.482171e+001 2.922775e-001 1.955805e+000 1.268464e+000 4.089047e+000 1.657232e+000 1.505308e+000 2.867086e+000 3.544664e+000 2.051022e+000 1.613490e+000 1.396106e+000 1.049713e+000 1.269427e+000
<GCONST> 9.514933e+001
<STATE> 3
<MEAN> 25
 8.203576e+000 1.735597e+000 5.618512e+000 5.081923e+000 -1.188536e+000 -4.896956e+000 -3.678214e+000 -3.767612e+000 -2.954236e+000 2.325415e+000 -3.903367e+000 1.361258e+000 -1.530847e-001 6.357337e-001 -1.553352e-001 6.161786e-001 -2.647140e-002 4.211895e-001 3.790501e-003 -1.126871e-001 1.601362e-001 -1.325879e-001 2.388950e-001 1.988431e-002 -6.886317e-001
<VARIANCE> 25
 1.292798e+001 2.028605e+001 3.134928e+001 3.318188e+001 2.901161e+001 3.124243e+001 2.874532e+001 4.489044e+001 2.549730e+001 2.656234e+001 2.574392e+001 1.418988e+001 2.152509e-001 3.555817e-001 6.300665e-001 7.350194e-001 1.150319e+000 1.178951e+000 1.278081e+000 1.397566e+000 1.234275e+000 1.127428e+000 1.030215e+000 1.093596e+000 1.060512e-001
<GCONST> 8.060526e+001
<STATE> 4
<MEAN> 25
 1.875403e+000 3.225304e+000 3.453751e+000 6.490924e+000 -2.795287e+000 -3.150401e+000 4.893389e-001 -1.881761e-002 -1.647299e+000 1.916908e-001 6.757441e-001 2.092704e+000 -5.481960e-001 1.381994e-002 -7.938775e-001 1.483530e-001 6.636722e-002 -1.059951e-001 5.337603e-002 2.002664e-001 2.161978e-001 -2.331126e-001 1.224741e-001 1.188172e-001 -6.857919e-001
<VARIANCE> 25
 2.637823e+001 3.482769e+001 1.306196e+002 1.178932e+002 5.352460e+001 4.042720e+001 3.555748e+001 5.800499e+001 4.702514e+001 4.576052e+001 2.490112e+001 2.419423e+001 5.356839e-001 1.426241e+000 1.411926e+000 2.100276e+000 1.871204e+000 2.501637e+000 2.037951e+000 2.675881e+000 1.761864e+000 1.700496e+000 1.689131e+000 1.550666e+000 4.171964e-001
<GCONST> 9.704200e+001
<TRANSP> 5
 0.000000e+000 1.000000e+000 0.000000e+000 0.000000e+000 0.000000e+000
 0.000000e+000 7.333262e-001 2.666738e-001 0.000000e+000 0.000000e+000
 0.000000e+000 0.000000e+000 9.145347e-001 8.546525e-002 0.000000e+000
 0.000000e+000 0.000000e+000 0.000000e+000 8.969418e-001 1.030582e-001
 0.000000e+000 0.000000e+000 0.000000e+000 0.000000e+000 0.000000e+000
<ENDHMM>
~h "o"
<BEGINHMM>
<NUMSTATES> 5
<STATE> 2
<MEAN> 25
 7.424696e+000 -6.662111e+000 1.755012e+001 -1.564496e+001 -3.036204e+000 -5.682013e+000 -4.860990e+000 3.782932e+000 -1.182531e+001 1.036160e+001 2.792111e+000 1.327460e+000 3.975081e-001 1.389120e-001 -1.890777e+000 -1.379556e+000 8.527367e-001 7.061240e-001 4.472784e-001 -6.035035e-001 7.198780e-001 6.496519e-001 2.438779e-001 6.063347e-001 1.617652e-001
<VARIANCE> 25
 5.754750e+001 4.058228e+001 1.486880e+002 8.527254e+001 3.867002e+001 3.489053e+001 1.153469e+001 1.866692e+001 6.930544e+001 3.422421e+001 1.250326e+001 6.036215e+000 2.265051e-001 3.292926e-001 1.256685e+000 1.563722e+000 1.735266e+000 5.005099e+000 2.054841e+000 2.443473e+000 4.338468e+000 1.602652e+000 2.729215e+000 1.448397e+000 1.906838e-001
<GCONST> 9.133669e+001
<STATE> 3
<MEAN> 25
 1.154261e+001 -9.865019e+000 5.160241e+000 -1.858377e+001 -9.160247e-002 1.533861e-001 -2.066285e+000 3.600750e+000 -2.551801e+000 8.473751e+000 -4.987800e-001 1.739756e+000 -1.076172e-001 -1.891604e-002 7.954368e-002 5.687062e-001 -3.049861e-001 -7.359996e-001 4.809074e-001 6.696811e-001 2.547213e-001 -5.519049e-001 -2.002755e-001 -1.979637e-001 -9.298275e-002
<VARIANCE> 25
 4.585569e+001 4.244661e+001 3.022609e+001 6.026118e+001 1.562069e+001 1.328635e+002 8.855304e+001 8.780647e+001 6.870610e+000 2.388431e+001 1.729308e+001 1.189292e+001 3.232837e-001 2.021613e+000 6.550448e-001 1.765024e+000 1.246603e+000 6.028681e+000 6.543483e+000 3.380803e+000 1.499225e+000 1.043758e+000 2.468704e+000 1.488300e+000 8.095247e-001
<GCONST> 9.442256e+001
<STATE> 4
<MEAN> 25
 6.600280e+000 -4.089880e+000 1.018442e+000 -2.581275e+000 -3.621374e+000 -4.021496e-001 2.667646e+000 3.742772e-001 -4.531634e-001 -1.571913e+000 8.022712e-001 -1.155135e-001 -4.627891e-001 1.820163e+000 2.629162e-001 3.302419e+000 2.122652e+000 1.566127e+000 -1.093550e+000 -2.068317e+000 -1.260952e+000 -1.032413e+000 -5.730681e-001 -6.541731e-001 -1.882201e+000
<VARIANCE> 25
 1.773979e+002 7.649325e+001 2.978117e+001 6.771259e+001 2.101399e+001 1.174213e+002 7.809349e+000 9.876267e+001 1.623010e+001 2.324431e+001 1.450158e+001 1.076467e+001 1.509541e+000 6.622608e-001 2.401004e+000 6.029184e+000 1.139760e+000 2.242947e+000 9.854389e-001 2.494723e+000 4.680288e+000 1.279513e+000 1.203108e+000 3.217415e-001 2.091971e+000
<GCONST> 9.460330e+001
<TRANSP> 5
 0.000000e+000 1.000000e+000 0.000000e+000 0.000000e+000 0.000000e+000
 0.000000e+000 8.105659e-001 1.894341e-001 0.000000e+000 0.000000e+000
 0.000000e+000 0.000000e+000 8.854901e-001 1.145099e-001 0.000000e+000
 0.000000e+000 0.000000e+000 0.000000e+000 4.888158e-001 5.111842e-001
 0.000000e+000 0.000000e+000 0.000000e+000 0.000000e+000 0.000000e+000
<ENDHMM>
~h "p"
<BEGINHMM>
<NUMSTATES> 5
<STATE> 2
<MEAN> 25
 -1.344544e+000 2.049848e+000 -1.304678e+000 2.988447e+000 -1.594959e+000 4.664651e-001 -2.467565e+000 -2.019250e+000 -1.264101e-001 -3.377769e-001 6.485668e-001 8.578920e-001 -4.374346e-001 2.408140e-001 -6.795084e-001 1.719159e-001 -6.655267e-002 -1.664566e-001 1.012689e-001 -2.877864e-002 2.007989e-001 -5.918645e-002 -1.872016e-002 3.592027e-003 -7.476297e-001
<VARIANCE> 25
 2.177820e+001 2.975591e+001 4.343506e+001 3.232452e+001 2.753444e+001 2.039788e+001 2.151648e+001 3.016525e+001 2.675919e+001 2.093073e+001 2.238437e+001 1.768862e+001 3.250800e-001 4.346414e-001 8.335899e-001 7.827738e-001 1.089087e+000 1.115252e+000 1.077897e+000 1.252910e+000 1.307957e+000 1.441691e+000 1.252291e+000 1.184441e+000 1.732718e-001
<GCONST> 8.217041e+001
<STATE> 3
<MEAN> 25
 -3.426495e+000 3.405297e+000 -3.954677e+000 4.671332e+000 -4.444735e-001 4.441601e-001 -1.401495e+000 -2.511387e+000 2.220706e-001 -8.370768e-001 1.802216e-001 7.211092e-001 7.799382e-001 -6.261048e-001 -1.263827e+000 -2.012133e-001 -5.044066e-002 -3.648494e-001 5.695361e-001 3.541326e-001 -9.885793e-002 1.501303e-001 8.103986e-002 -5.991969e-002 8.311742e-001
<VARIANCE> 25
 3.821589e+001 2.841833e+001 4.393941e+001 2.014670e+001 2.611571e+001 1.749965e+001 2.178384e+001 2.885463e+001 2.240213e+001 1.823930e+001 1.736520e+001 1.466606e+001 1.605406e+000 1.253663e+000 2.046793e+000 3.306421e+000 2.304202e+000 1.832681e+000 2.634830e+000 2.279302e+000 1.750251e+000 1.913506e+000 2.437197e+000 1.673756e+000 1.102923e+000
<GCONST> 9.240133e+001
<STATE> 4
<MEAN> 25
 5.412205e+000 -1.570755e+000 -9.048226e+000 3.418875e+000 -2.476947e+000 3.708184e-001 2.558364e+000 -1.196563e+000 -1.220236e+000 -4.787572e-001 1.417950e+000 -7.124361e-001 3.663446e+000 -1.777645e+000 -8.422234e-001 -2.385515e+000 -5.244461e-001 5.608472e-001 9.205934e-001 4.907368e-001 -6.876858e-001 5.287512e-001 7.811779e-002 -1.122252e+000 4.046782e+000
<VARIANCE> 25
 8.631265e+001 6.946939e+001 5.767636e+001 7.567578e+001 3.640217e+001 4.863139e+001 4.537011e+001 3.130213e+001 3.449153e+001 3.015535e+001 2.601291e+001 2.999697e+001 4.502009e+000 1.246944e+001 6.771126e+000 1.175642e+001 5.274125e+000 5.670486e+000 5.118226e+000 4.328790e+000 3.860305e+000 4.819863e+000 2.900932e+000 3.513169e+000 6.810679e+000
<GCONST> 1.134359e+002
<TRANSP> 5
 0.000000e+000 1.000000e+000 0.000000e+000 0.000000e+000 0.000000e+000
 0.000000e+000 9.032133e-001 9.678669e-002 0.000000e+000 0.000000e+000
 0.000000e+000 0.000000e+000 2.831514e-001 7.168486e-001 0.000000e+000
 0.000000e+000 0.000000e+000 0.000000e+000 6.399392e-001 3.600608e-001
 0.000000e+000 0.000000e+000 0.000000e+000 0.000000e+000 0.000000e+000
<ENDHMM>
~h "r"
<BEGINHMM>
<NUMSTATES> 5
<STATE> 2
<MEAN> 25
 1.043532e+001 -1.068632e+001 4.714262e+000 -4.953886e+000 -3.196595e+000 -2.888347e+000 -6.081956e+000 -1.527318e+000 1.062176e+000 5.644281e+000 -1.946340e+000 2.244071e+000 2.229458e-001 -2.913380e-001 -1.067628e+000 1.693462e+000 8.643962e-003 -2.790102e-001 -1.116073e-001 -2.342764e-001 1.546651e+000 -6.037382e-001 -9.029573e-001 8.203228e-001 -4.121314e-001
<VARIANCE> 25
 1.935430e+001 2.975755e+001 7.795775e+001 7.437772e+001 4.408696e+001 6.187955e+001 9.046442e+001 8.653458e+001 7.550723e+001 4.386281e+001 5.026417e+001 3.627095e+001 9.958672e-001 1.574511e+000 1.495753e+000 5.673038e+000 2.933434e+000 3.329316e+000 2.613964e+000 2.709784e+000 2.820855e+000 3.586991e+000 1.903944e+000 2.279271e+000 1.095409e+000
<GCONST> 1.041568e+002
<STATE> 3
<MEAN> 25
 9.432121e+000 -8.205500e+000 -6.164351e-001 6.117448e+000 -1.200560e+000 6.832559e-001 -3.745932e+000 2.871118e-001 7.484612e+000 6.853702e-001 -3.399214e+000 4.726991e+000 -8.400370e-001 7.940446e-001 -1.044100e-001 1.116909e+000 7.276993e-001 8.461773e-001 7.442699e-001 4.585002e-001 1.384178e-001 -3.831840e-001 2.462553e-001 -5.215707e-003 -1.277842e+000
<VARIANCE> 25
 2.810782e+001 2.737820e+001 3.597971e+001 4.189746e+001 3.848001e+001 4.226386e+001 5.659991e+001 5.422284e+001 3.779312e+001 3.163347e+001 3.586320e+001 3.359264e+001 1.477857e+000 1.175483e+000 1.187565e+000 1.588926e+000 2.369065e+000 2.119956e+000 2.717406e+000 2.621493e+000 2.208779e+000 1.995103e+000 1.724956e+000 2.231070e+000 9.985224e-001
<GCONST> 9.710833e+001
<STATE> 4
<MEAN> 25
 -1.364333e+000 8.041363e-001 -8.340327e+000 7.780641e+000 1.045014e+000 -7.570629e-001 -1.434279e+000 3.247385e-001 5.377049e+000 -1.181352e+000 -1.473122e+000 1.249758e+000 -5.112098e-001 6.044472e-001 -3.217307e-001 -1.270519e-001 -1.159767e-001 -2.136365e-001 -1.989452e-002 -1.476181e-001 -1.805788e-001 -5.065124e-002 1.554568e-001 -2.205556e-001 -7.389622e-001
<VARIANCE> 25
 2.685946e+001 3.481167e+001 4.950243e+001 2.133718e+001 2.710869e+001 2.505026e+001 2.161371e+001 2.267895e+001 2.288455e+001 1.921503e+001 1.866140e+001 2.107557e+001 4.040420e-001 4.458588e-001 9.514104e-001 7.844460e-001 1.019259e+000 1.296502e+000 1.302868e+000 1.302817e+000 1.376508e+000 1.374456e+000 1.115037e+000 1.346605e+000 2.175139e-001
<GCONST> 8.284605e+001
<TRANSP> 5
 0.000000e+000 1.000000e+000 0.000000e+000 0.000000e+000 0.000000e+000
 0.000000e+000 8.109252e-001 1.890748e-001 0.000000e+000 0.000000e+000
 0.000000e+000 0.000000e+000 8.070637e-001 1.929363e-001 0.000000e+000
 0.000000e+000 0.000000e+000 0.000000e+000 9.193268e-001 8.067318e-002
 0.000000e+000 0.000000e+000 0.000000e+000 0.000000e+000 0.000000e+000
<ENDHMM>
~h "s"
<BEGINHMM>
<NUMSTATES> 5
<STATE> 2
<MEAN> 25
 3.153094e+000 -3.503237e+000 4.412984e+000 -3.504131e+000 1.064316e+001 -6.230366e+000 4.764870e+000 1.338199e+000 -9.006714e-003 -6.849610e-001 -4.128444e+000 6.094165e+000 -1.527622e+000 2.026441e-001 1.395533e+000 -1.947053e+000 3.373942e+000 -2.888855e+000 1.839783e+000 -1.625237e+000 -1.849836e-002 -2.459189e-001 3.410225e-001 -2.914390e-002 1.916623e+000
<VARIANCE> 25
 9.651239e+001 9.445807e+001 1.199594e+002 8.775342e+001 1.005811e+002 1.069031e+002 6.534715e+001 9.772762e+001 4.281897e+001 4.660438e+001 3.744621e+001 2.611967e+001 8.842662e+000 8.442132e+000 8.035304e+000 7.812222e+000 5.903557e+000 7.543583e+000 5.603898e+000 1.089318e+001 5.886449e+000 5.220729e+000 3.916979e+000 3.838569e+000 7.257308e+000
<GCONST> 1.213334e+002
<STATE> 3
<MEAN> 25
 -9.477535e+000 -1.460113e+000 9.585566e+000 -1.186619e+001 2.048784e+001 -1.597034e+001 1.309922e+001 -6.083830e+000 3.952259e+000 -1.857603e+000 9.455326e-001 1.957208e+000 -6.684440e-001 1.397460e-001 -1.762032e-001 8.186174e-002 -2.222652e-001 2.312389e-001 -1.988443e-001 6.217575e-002 2.903660e-001 5.501676e-002 3.778572e-001 -2.825931e-001 -4.972517e-001
<VARIANCE> 25
 9.654633e+001 5.302870e+001 4.693360e+001 4.232594e+001 4.823326e+001 3.561427e+001 3.745122e+001 2.632497e+001 2.710132e+001 1.985707e+001 2.270590e+001 1.804523e+001 7.540530e+000 3.334864e+000 3.199424e+000 3.319614e+000 2.466591e+000 2.632894e+000 2.347987e+000 2.467829e+000 2.520848e+000 2.027097e+000 2.108125e+000 1.543166e+000 3.290304e+000
<GCONST> 1.019451e+002
<STATE> 4
<MEAN> 25
 -9.896942e+000 2.032800e+000 3.701506e+000 -4.738143e+000 1.192639e+001 -8.408396e+000 4.825446e+000 -1.462112e+000 1.902714e+000 7.387097e-001 -1.486325e+000 8.862917e-001 2.982260e-001 3.416327e-001 -7.638581e-001 6.795619e-001 -9.595343e-001 6.889213e-001 -6.972537e-001 2.878471e-001 -2.901421e-001 6.045978e-002 -1.723567e-001 -3.132728e-002 -1.112216e+000
<VARIANCE> 25
 3.617067e+001 3.060167e+001 6.730632e+001 4.108163e+001 5.266744e+001 3.530225e+001 3.286090e+001 2.426680e+001 2.342186e+001 1.642296e+001 2.133483e+001 1.252727e+001 9.772983e-001 8.793575e-001 1.105534e+000 1.306657e+000 1.048936e+000 1.394226e+000 1.159122e+000 1.557069e+000 1.520046e+000 1.066403e+000 1.482123e+000 1.051361e+000 3.446428e-001
<GCONST> 8.767918e+001
<TRANSP> 5
 0.000000e+000 1.000000e+000 0.000000e+000 0.000000e+000 0.000000e+000
 0.000000e+000 7.827193e-001 2.172807e-001 0.000000e+000 0.000000e+000
 0.000000e+000 0.000000e+000 8.925003e-001 1.074997e-001 0.000000e+000
 0.000000e+000 0.000000e+000 0.000000e+000 8.828713e-001 1.171287e-001
 0.000000e+000 0.000000e+000 0.000000e+000 0.000000e+000 0.000000e+000
<ENDHMM>
~h "t"
<BEGINHMM>
<NUMSTATES> 5
<STATE> 2
<MEAN> 25
 -7.290576e+000 6.525121e+000 -6.121625e+000 3.516711e+000 -1.079453e+000 -1.544235e+000 -9.165039e-001 -4.020542e-001 1.348323e+000 -1.209315e+000 8.218688e-001 -2.047760e-001 -4.772201e-001 2.397465e-001 -1.753076e-001 2.283459e-001 -9.586886e-002 6.150825e-003 7.480466e-002 -6.752355e-002 6.005582e-002 -8.915230e-002 1.028402e-001 -4.414528e-002 -5.934094e-001
<VARIANCE> 25
 4.326684e+001 3.427017e+001 3.627234e+001 3.045990e+001 2.508737e+001 2.495425e+001 2.305890e+001 2.705363e+001 2.508628e+001 1.520823e+001 1.668737e+001 1.489374e+001 1.943746e-001 3.751583e-001 7.108619e-001 7.611995e-001 8.168007e-001 9.455251e-001 1.095137e+000 1.185733e+000 1.251645e+000 9.146323e-001 1.034014e+000 1.128066e+000 1.198778e-001
<GCONST> 7.952934e+001
<STATE> 3
<MEAN> 25
 -1.161952e+001 5.870810e+000 -4.944513e+000 5.285300e+000 -3.794804e-001 2.022841e-001 1.192289e+000 5.085335e-001 2.332393e+000 -6.623785e-001 1.560609e+000 2.929381e-001 4.245876e-001 -9.409660e-001 1.192767e-001 1.683067e-001 -3.369023e-001 -3.804394e-001 5.307348e-001 6.588924e-001 9.285792e-002 1.084143e-001 3.847434e-001 6.690668e-002 9.979991e-001
<VARIANCE> 25
 1.043243e+002 3.575092e+001 2.723156e+001 1.941019e+001 1.796651e+001 2.608259e+001 2.461158e+001 1.875884e+001 2.649598e+001 1.602456e+001 1.638006e+001 1.563570e+001 6.275958e+000 4.063712e+000 2.663274e+000 2.498157e+000 3.441491e+000 3.043684e+000 3.999346e+000 3.430475e+000 3.222806e+000 2.388653e+000 1.589160e+000 1.833508e+000 4.547621e+000
<GCONST> 9.904934e+001
<STATE> 4
<MEAN> 25
 -1.236016e+000 -4.438066e+000 -9.252197e-001 1.335020e+000 -6.175421e-001 -2.227905e+000 -3.288705e+000 3.226227e+000 4.218942e-002 2.146244e-001 2.280061e+000 -3.190429e-001 3.973485e+000 -2.806563e+000 2.208566e+000 -2.756691e+000 -4.539388e-001 -4.226639e-001 -6.372006e-001 8.731977e-001 -1.698323e+000 5.827123e-001 4.221670e-001 2.867633e-002 5.637718e+000
<VARIANCE> 25
 9.652208e+001 1.015208e+002 8.550217e+001 8.265405e+001 7.728514e+001 7.511752e+001 1.093283e+002 4.854559e+001 8.535945e+001 3.817720e+001 3.465752e+001 2.696420e+001 7.220455e+000 1.423942e+001 9.184431e+000 1.082290e+001 1.116357e+001 8.658197e+000 1.326818e+001 7.814532e+000 1.155110e+001 5.124468e+000 4.906107e+000 5.028227e+000 8.453307e+000
<GCONST> 1.240383e+002
<TRANSP> 5
 0.000000e+000 1.000000e+000 0.000000e+000 0.000000e+000 0.000000e+000
 0.000000e+000 8.812782e-001 1.187218e-001 0.000000e+000 0.000000e+000
 0.000000e+000 0.000000e+000 5.106392e-001 4.893608e-001 0.000000e+000
 0.000000e+000 0.000000e+000 0.000000e+000 6.662099e-001 3.337901e-001
 0.000000e+000 0.000000e+000 0.000000e+000 0.000000e+000 0.000000e+000
<ENDHMM>
~h "u"
<BEGINHMM>
<NUMSTATES> 5
<STATE> 2
<MEAN> 25
 1.267968e+001 5.009119e+000 -2.396730e+000 -5.483209e+000 -4.704961e+000 1.550778e+000 -5.553516e-001 -1.786895e+000 -6.147592e+000 -2.491477e+000 2.155044e+000 1.252734e+000 7.166160e-001 5.090260e-001 1.171538e-001 -2.932422e+000 -2.439398e-001 7.790415e-001 -4.632435e-001 2.384930e-002 -9.906058e-001 7.318452e-002 4.932068e-001 -1.192362e-002 8.884693e-001
<VARIANCE> 25
 7.569625e+001 8.615257e+001 8.438729e+001 1.577584e+002 4.906134e+001 4.238343e+001 5.436540e+001 5.908895e+001 8.108081e+001 5.363102e+001 3.865454e+001 3.439124e+001 2.431915e+000 4.680577e+000 3.337582e+000 6.082121e+000 4.036501e+000 4.204878e+000 4.411402e+000 5.483545e+000 4.372108e+000 4.895240e+000 3.736070e+000 2.386402e+000 1.454395e+000
<GCONST> 1.125971e+002
<STATE> 3
<MEAN> 25
 1.262474e+001 6.682823e+000 3.556410e+000 -2.024080e+001 -4.753066e+000 2.067099e+000 -6.539485e+000 5.066125e-001 -1.040280e+001 -1.494466e+000 7.168345e-001 -1.129818e+000 -1.909633e-001 2.805204e-001 -1.389391e-001 -5.754896e-001 -1.220709e-001 -5.696549e-003 -2.802775e-001 3.443360e-002 4.393168e-001 2.098142e-001 -2.433003e-001 -1.748588e-001 -2.085760e-001
<VARIANCE> 25
 1.877361e+001 4.389241e+001 5.866179e+001 1.440704e+002 4.795217e+001 5.957066e+001 5.692738e+001 5.900940e+001 6.926199e+001 6.862728e+001 4.161697e+001 3.417895e+001 2.281976e-001 1.015001e+000 1.264121e+000 3.055762e+000 1.238810e+000 2.079451e+000 2.058249e+000 2.451145e+000 2.269329e+000 3.268532e+000 1.856083e+000 1.762109e+000 4.699571e-001
<GCONST> 9.839387e+001
<STATE> 4
<MEAN> 25
 5.571333e+000 1.006906e+001 -5.097744e+000 -8.192855e+000 -3.557878e+000 1.313779e+000 -2.127303e+000 -1.219221e+000 -2.614540e+000 -1.225187e+000 8.983655e-001 -5.972709e-002 -8.480069e-001 -7.697292e-002 -3.974688e-001 1.088602e+000 2.633773e-001 -5.801840e-002 2.552795e-001 -2.710437e-001 4.388114e-001 1.709253e-001 2.850324e-002 3.073445e-002 -9.399292e-001
<VARIANCE> 25
 6.101041e+001 4.112794e+001 6.195669e+001 8.572540e+001 4.833486e+001 4.120783e+001 4.429126e+001 4.146804e+001 3.716028e+001 5.257089e+001 2.692466e+001 2.206256e+001 9.066957e-001 7.933366e-001 1.479025e+000 3.313056e+000 1.688739e+000 2.021747e+000 1.701389e+000 2.007319e+000 1.985727e+000 2.050290e+000 1.800437e+000 1.388767e+000 7.969987e-001
<GCONST> 9.723856e+001
<TRANSP> 5
 0.000000e+000 1.000000e+000 0.000000e+000 0.000000e+000 0.000000e+000
 0.000000e+000 7.212918e-001 2.787083e-001 0.000000e+000 0.000000e+000
 0.000000e+000 0.000000e+000 8.167812e-001 1.832188e-001 0.000000e+000
 0.000000e+000 0.000000e+000 0.000000e+000 8.720785e-001 1.279215e-001
 0.000000e+000 0.000000e+000 0.000000e+000 0.000000e+000 0.000000e+000
<ENDHMM>
~h "w"
<BEGINHMM>
<NUMSTATES> 5
<STATE> 2
<MEAN> 25
 -8.906600e+000 1.504479e+000 -4.362171e+000 1.014232e+001 -4.016347e+000 -5.253349e+000 3.206671e-001 1.785753e+000 7.289494e-001 -4.941360e+000 2.761194e+000 2.473148e+000 8.893574e-001 1.167560e+000 3.710412e-001 1.672048e-001 -3.048366e-001 -4.369149e-001 -1.030892e-001 8.227402e-003 2.779453e-002 -2.900037e-001 -2.179027e-001 -2.222200e-001 2.156849e-001
<VARIANCE> 25
 1.179980e+002 1.240280e+002 1.035395e+002 1.808203e+002 7.144926e+001 5.166878e+001 3.412049e+001 5.046560e+001 2.683506e+001 3.708248e+001 3.246587e+001 3.730820e+001 5.282060e+000 4.880031e+000 4.721794e+000 3.029531e+000 3.076385e+000 2.472482e+000 1.995164e+000 2.079689e+000 2.572031e+000 2.694707e+000 1.806134e+000 1.332769e+000 2.701658e+000
<GCONST> 1.082131e+002
<STATE> 3
<MEAN> 25
 1.426438e+001 1.715100e+001 -4.907300e+000 -9.872472e+000 -1.171133e+001 1.931284e+000 3.303329e+000 -1.613990e+000 -1.578726e+000 -7.324063e+000 3.146049e-001 4.420989e+000 1.026521e+000 -1.696609e+000 -4.847005e-001 -2.803081e+000 -9.376906e-002 2.864024e+000 -4.084725e-002 -9.554724e-001 4.068056e-001 7.343355e-001 9.684880e-001 8.771072e-001 1.878326e+000
<VARIANCE> 25
 1.370127e+001 5.185913e+001 2.858575e+001 7.422971e+001 2.555741e+001 9.014227e+001 2.325573e+001 2.535650e+001 3.992748e+001 2.540493e+001 2.632124e+001 2.941311e+001 3.648310e+000 5.565689e+000 3.297166e+000 3.068007e+000 5.649616e+000 8.372800e+000 4.205219e+000 2.341679e+000 3.213889e+000 5.762743e+000 2.901898e+000 3.294384e+000 1.096365e+000
<GCONST> 1.046060e+002
<STATE> 4
<MEAN> 25
 1.314473e+001 -5.208733e+000 8.973297e-001 -2.139300e+001 -2.097076e+000 1.703466e+001 -6.744154e+000 -6.624023e+000 3.413082e+000 8.566375e+000 4.057083e+000 -3.087786e+000 -9.869195e-001 -4.087490e+000 1.633462e+000 5.702935e-001 2.148961e+000 -1.449886e+000 -7.797739e-001 2.134209e+000 8.696694e-001 1.839605e+000 -1.979794e+000 -2.580570e+000 2.011558e+000
<VARIANCE> 25
 5.319754e+000 5.508135e+001 4.367920e+001 2.305383e+001 2.991771e+001 5.744510e+001 5.195893e+001 6.039566e+001 4.850734e+001 2.847392e+001 4.674880e+001 3.443148e+001 2.397770e-001 1.501576e+000 2.044851e+000 3.431947e+000 3.987429e+000 1.076348e+001 4.883474e+000 7.517878e+000 5.507311e+000 6.657650e+000 4.536585e+000 3.217897e+000 3.539218e-001
<GCONST> 1.021904e+002
<TRANSP> 5
 0.000000e+000 1.000000e+000 0.000000e+000 0.000000e+000 0.000000e+000
 0.000000e+000 8.832515e-001 1.167485e-001 0.000000e+000 0.000000e+000
 0.000000e+000 0.000000e+000 8.453659e-001 1.546341e-001 0.000000e+000
 0.000000e+000 0.000000e+000 0.000000e+000 7.969579e-001 2.030422e-001
 0.000000e+000 0.000000e+000 0.000000e+000 0.000000e+000 0.000000e+000
<ENDHMM>
~h "y"
<BEGINHMM>
<NUMSTATES> 5
<STATE> 2
<MEAN> 25
 -1.513887e-008 8.685321e-009 6.289883e-008 7.186313e-008 3.131923e-008 4.571417e-008 5.014053e-008 1.333485e-008 -7.134006e-008 8.713219e-009 1.011273e-009 4.209684e-008 -6.534437e-003 7.731597e-003 -5.306157e-003 4.609803e-003 -4.191151e-003 8.242088e-003 -6.219152e-003 5.951754e-003 -5.249157e-003 1.868283e-003 2.200403e-003 -1.269434e-003 2.744509e-003
<VARIANCE> 25
 6.716856e+001 2.941401e+001 5.663681e+001 4.741492e+001 4.696264e+001 4.914315e+001 4.999928e+001 4.303569e+001 5.672998e+001 3.222253e+001 2.850756e+001 4.103967e+001 2.100924e+000 1.434693e+000 1.891293e+000 2.194988e+000 2.363979e+000 2.636887e+000 2.464799e+000 2.732278e+000 2.851009e+000 2.222413e+000 2.036798e+000 2.011688e+000 1.909456e+000
<GCONST> 1.015924e+002
<STATE> 3
<MEAN> 25
 -1.513887e-008 8.685321e-009 6.289883e-008 7.186313e-008 3.131923e-008 4.571417e-008 5.014053e-008 1.333485e-008 -7.134006e-008 8.713219e-009 1.011273e-009 4.209684e-008 -6.534437e-003 7.731597e-003 -5.306157e-003 4.609803e-003 -4.191151e-003 8.242088e-003 -6.219152e-003 5.951754e-003 -5.249157e-003 1.868283e-003 2.200403e-003 -1.269434e-003 2.744509e-003
<VARIANCE> 25
 6.716856e+001 2.941401e+001 5.663681e+001 4.741492e+001 4.696264e+001 4.914315e+001 4.999928e+001 4.303569e+001 5.672998e+001 3.222253e+001 2.850756e+001 4.103967e+001 2.100924e+000 1.434693e+000 1.891293e+000 2.194988e+000 2.363979e+000 2.636887e+000 2.464799e+000 2.732278e+000 2.851009e+000 2.222413e+000 2.036798e+000 2.011688e+000 1.909456e+000
<GCONST> 1.015924e+002
<STATE> 4
<MEAN> 25
 -1.513887e-008 8.685321e-009 6.289883e-008 7.186313e-008 3.131923e-008 4.571417e-008 5.014053e-008 1.333485e-008 -7.134006e-008 8.713219e-009 1.011273e-009 4.209684e-008 -6.534437e-003 7.731597e-003 -5.306157e-003 4.609803e-003 -4.191151e-003 8.242088e-003 -6.219152e-003 5.951754e-003 -5.249157e-003 1.868283e-003 2.200403e-003 -1.269434e-003 2.744509e-003
<VARIANCE> 25
 6.716856e+001 2.941401e+001 5.663681e+001 4.741492e+001 4.696264e+001 4.914315e+001 4.999928e+001 4.303569e+001 5.672998e+001 3.222253e+001 2.850756e+001 4.103967e+001 2.100924e+000 1.434693e+000 1.891293e+000 2.194988e+000 2.363979e+000 2.636887e+000 2.464799e+000 2.732278e+000 2.851009e+000 2.222413e+000 2.036798e+000 2.011688e+000 1.909456e+000
<GCONST> 1.015924e+002
<TRANSP> 5
 0.000000e+000 1.000000e+000 0.000000e+000 0.000000e+000 0.000000e+000
 0.000000e+000 6.000000e-001 4.000000e-001 0.000000e+000 0.000000e+000
 0.000000e+000 0.000000e+000 6.000000e-001 4.000000e-001 0.000000e+000
 0.000000e+000 0.000000e+000 0.000000e+000 7.000000e-001 3.000000e-001
 0.000000e+000 0.000000e+000 0.000000e+000 0.000000e+000 0.000000e+000
<ENDHMM>
~h "ay"
<BEGINHMM>
<NUMSTATES> 5
<STATE> 2
<MEAN> 25
 -5.399450e+000 -5.546450e+000 -1.441683e+001 1.377958e+001 5.377895e+000 -3.400162e+000 2.136867e+000 7.011559e+000 3.531830e+000 -8.742582e+000 -1.446865e+000 6.460101e+000 -1.437515e-001 4.396548e-001 -2.445743e-001 -5.198398e-001 -1.785921e-001 5.470157e-001 3.459666e-001 -4.394308e-001 9.648670e-003 8.374307e-002 4.597613e-002 -3.972290e-001 -3.076961e-001
<VARIANCE> 25
 7.050916e+001 1.234148e+002 4.053250e+001 5.459497e+001 1.290026e+001 9.652335e+001 5.025415e+001 5.245735e+001 5.195151e+001 2.516076e+001 1.315388e+001 2.156731e+001 7.221534e-001 5.123518e+000 2.123447e+000 2.672630e+000 1.336887e+000 4.003035e+000 2.193438e+000 2.516076e+000 2.184467e+000 2.902966e+000 1.709155e+000 1.889271e+000 1.415876e+000
<GCONST> 1.003449e+002
<STATE> 3
<MEAN> 25
 2.042825e-001 4.460552e+000 -9.815920e+000 4.260303e+000 3.669211e+000 5.381055e+000 4.171057e+000 -2.681499e+000 -7.955133e-001 -4.653024e+000 -1.106925e+000 9.506279e-001 1.821446e+000 -1.461800e+000 8.980031e-002 -9.770578e-001 -1.074179e+000 1.230690e+000 -4.581437e-002 -1.479916e-001 1.143140e+000 3.786071e-001 -2.828076e-001 -3.962541e-002 2.121736e+000
<VARIANCE> 25
 2.100252e+002 9.069616e+001 5.949236e+001 4.739864e+001 2.009438e+001 5.006929e+001 2.183210e+001 6.730270e+001 1.036512e+002 2.365670e+001 1.847313e+001 1.232331e+001 4.509273e+000 1.326042e+001 6.851347e+000 2.710780e+000 4.608574e+000 4.102279e+000 4.405647e+000 3.623392e+000 1.007252e+001 3.763732e+000 1.080294e+000 9.218646e-001 1.985194e+000
<GCONST> 1.082242e+002
<STATE> 4
<MEAN> 25
 1.251988e+001 -1.161375e+001 -2.271458e+000 5.896845e-002 6.896774e-001 1.069796e+001 -1.273214e+000 8.288323e-001 2.732716e+000 -7.019117e+000 4.408989e-001 1.173335e+000 1.347389e-002 -9.872573e-001 1.306611e+000 -7.628263e-001 -4.673853e-001 -4.225754e-001 1.932268e-001 7.333646e-001 -2.264181e-001 1.411645e-001 8.243450e-002 -1.843580e-001 1.049501e+000
<VARIANCE> 25
 3.309697e+001 2.066225e+002 9.336392e+001 9.477545e+001 6.174043e+001 4.596055e+001 4.916192e+001 1.052145e+002 7.518620e+001 3.737466e+001 1.878750e+001 1.873549e+001 4.530509e+000 8.365521e+000 4.080720e+000 3.867760e+000 3.175430e+000 3.707600e+000 4.819620e+000 4.722217e+000 8.637384e+000 3.491141e+000 1.975324e+000 1.459807e+000 3.349958e+000
<GCONST> 1.118307e+002
<TRANSP> 5
 0.000000e+000 1.000000e+000 0.000000e+000 0.000000e+000 0.000000e+000
 0.000000e+000 8.203804e-001 1.796195e-001 0.000000e+000 0.000000e+000
 0.000000e+000 0.000000e+000 3.682128e-001 6.317872e-001 0.000000e+000
 0.000000e+000 0.000000e+000 0.000000e+000 9.411766e-001 5.882339e-002
 0.000000e+000 0.000000e+000 0.000000e+000 0.000000e+000 0.000000e+000
<ENDHMM>
~h "eh"
<BEGINHMM>
<NUMSTATES> 5
<STATE> 2
<MEAN> 25
 7.534985e+000 -1.070400e+001 8.462582e+000 -7.303387e+000 -1.093210e+001 -1.005334e+001 7.407498e+000 1.121975e+001 -3.738341e+000 7.957703e-001 4.067857e+000 1.784224e-002 -4.419510e-001 -8.377268e-001 6.612396e-001 -1.939463e+000 6.895800e-003 -5.290115e-001 1.249516e+000 -8.801355e-002 -4.700738e-001 5.521881e-001 3.583392e-001 -2.063741e-001 9.556456e-001
<VARIANCE> 25
 1.292434e+001 4.792428e+001 1.425909e+002 2.838644e+001 5.654931e+001 3.864153e+001 5.623520e+001 3.285617e+001 7.177580e+001 2.532560e+001 2.915262e+001 2.309222e+001 5.239609e-001 1.653535e+000 3.945682e+000 2.606235e+000 3.297971e+000 3.117841e+000 2.945735e+000 2.795593e+000 2.136288e+000 2.935023e+000 2.296649e+000 1.105297e+000 9.587004e-001
<GCONST> 9.926121e+001
<STATE> 3
<MEAN> 25
 6.517140e+000 -1.170495e+001 7.733018e+000 -8.358079e+000 -9.317539e+000 -1.289924e+001 7.103841e+000 8.911719e+000 -1.747121e+000 8.039591e-001 4.635839e+000 1.528408e+000 2.508768e-002 -1.006936e-001 -3.484757e-001 -1.669484e-001 5.753040e-001 1.274335e-001 -2.036080e-001 2.715282e-002 6.712652e-001 1.681402e-001 -4.778716e-001 -7.517103e-002 1.376543e-002
<VARIANCE> 25
 1.299912e+001 2.809251e+001 1.391466e+002 2.592194e+001 3.820577e+001 2.365561e+001 6.235068e+001 3.330864e+001 6.237684e+001 1.863125e+001 2.979178e+001 3.277019e+001 1.485569e-001 5.868116e-001 1.150286e+000 8.807830e-001 1.567196e+000 1.357044e+000 1.909178e+000 1.181176e+000 1.876018e+000 2.285523e+000 8.855243e-001 1.121551e+000 1.146136e-001
<GCONST> 8.684859e+001
<STATE> 4
<MEAN> 25
 1.102900e+001 -1.631199e+001 1.045275e+001 -9.583964e+000 -1.018454e+001 -4.811414e+000 2.146475e+000 1.424487e+001 -3.409720e+000 2.857706e+000 2.688032e+000 -2.279209e+000 1.228649e-001 1.421176e-001 -9.526228e-001 3.091039e-001 1.077206e+000 6.794946e-001 -7.092556e-001 -2.628382e-001 8.021205e-001 1.355959e-001 -9.439014e-001 -3.136808e-001 -3.102528e-001
<VARIANCE> 25
 1.143143e+001 1.865165e+001 5.128648e+001 1.791464e+001 4.580232e+001 3.701377e+001 2.760971e+001 2.106990e+001 3.173189e+001 2.125973e+001 2.410047e+001 1.024242e+001 2.475390e-001 5.658570e-001 1.249183e+000 9.644914e-001 1.422625e+000 9.530811e-001 1.801537e+000 2.158617e+000 1.289016e+000 1.488548e+000 1.274687e+000 1.148171e+000 4.615568e-001
<GCONST> 8.409951e+001
<TRANSP> 5
 0.000000e+000 1.000000e+000 0.000000e+000 0.000000e+000 0.000000e+000
 0.000000e+000 6.616174e-001 3.383826e-001 0.000000e+000 0.000000e+000
 0.000000e+000 0.000000e+000 7.904651e-001 2.095349e-001 0.000000e+000
 0.000000e+000 0.000000e+000 0.000000e+000 7.708057e-001 2.291943e-001
 0.000000e+000 0.000000e+000 0.000000e+000 0.000000e+000 0.000000e+000
<ENDHMM>
~h "ng"
<BEGINHMM>
<NUMSTATES> 5
<STATE> 2
<MEAN> 25
 1.166108e+001 -1.216924e+001 -3.330987e+000 -8.873634e+000 4.547913e+000 1.214723e+001 -3.935418e+000 1.341887e-001 3.990891e-001 -3.442266e+000 -8.094698e-001 -1.821488e+000 2.869261e-002 1.275624e+000 -1.843798e-001 6.317343e-001 -5.981658e-001 -2.909057e-002 1.436276e-001 -4.820872e-001 -5.563297e-001 -4.062833e-001 3.732225e-001 6.417914e-001 -9.959827e-001
<VARIANCE> 25
 6.532410e+000 4.390064e+001 2.120655e+001 4.689054e+001 3.175925e+001 2.782629e+001 2.462765e+001 2.595931e+001 3.073340e+001 2.642946e+001 1.192578e+001 1.866035e+001 1.230872e-001 7.127978e-001 5.944508e-001 1.072398e+000 1.275950e+000 1.112471e+000 1.919863e+000 1.243081e+000 1.621287e+000 1.190252e+000 7.517568e-001 8.024642e-001 3.128466e-001
<GCONST> 8.118367e+001
<STATE> 3
<MEAN> 25
 9.598248e+000 1.862174e+000 -3.911527e+000 5.447053e-001 2.143608e+000 8.437403e+000 -2.961743e-001 -4.898608e+000 -4.453067e+000 -3.382197e+000 2.293056e+000 5.827460e-001 -4.725760e-001 7.232220e-001 6.708787e-002 1.249735e+000 4.481141e-001 2.058691e-002 4.731221e-001 4.754557e-002 2.560713e-001 1.040474e-001 -1.166872e-001 -1.453458e-001 -8.584717e-001
<VARIANCE> 25
 8.149693e+000 3.995003e+001 1.434261e+001 6.251395e+001 3.963980e+001 3.016101e+001 3.338422e+001 2.664760e+001 3.466791e+001 2.564113e+001 1.433862e+001 1.368594e+001 3.223562e-001 3.952528e-001 6.729761e-001 9.165356e-001 9.715986e-001 1.186634e+000 1.707182e+000 1.766937e+000 1.418300e+000 1.109759e+000 1.003654e+000 1.038072e+000 1.633037e-001
<GCONST> 8.186301e+001
<STATE> 4
<MEAN> 25
 -3.101099e+000 8.188859e+000 -9.669267e+000 6.884576e+000 3.719977e+000 3.654336e+000 2.226156e+000 -3.002881e+000 2.011363e+000 -9.853398e-001 7.681955e-001 -8.305675e-001 -7.242788e-001 1.886494e-001 -2.186310e-001 -1.943869e-001 -2.959308e-001 -4.571996e-001 -1.064070e-001 1.965399e-002 7.098509e-002 2.975168e-003 3.144941e-002 1.053265e-002 -6.788793e-001
<VARIANCE> 25
 3.170106e+001 1.976533e+001 2.693785e+001 1.777751e+001 2.906290e+001 2.830113e+001 2.020925e+001 2.255412e+001 2.001900e+001 2.208645e+001 1.550312e+001 1.908675e+001 2.733335e-001 4.906137e-001 1.096392e+000 7.847446e-001 9.910713e-001 1.162184e+000 1.215426e+000 1.301051e+000 1.595725e+000 1.636036e+000 1.201164e+000 1.157063e+000 1.062904e-001
<GCONST> 8.066204e+001
<TRANSP> 5
 0.000000e+000 1.000000e+000 0.000000e+000 0.000000e+000 0.000000e+000
 0.000000e+000 8.785506e-001 1.214494e-001 0.000000e+000 0.000000e+000
 0.000000e+000 0.000000e+000 9.098224e-001 9.017760e-002 0.000000e+000
 0.000000e+000 0.000000e+000 0.000000e+000 9.451625e-001 5.483753e-002
 0.000000e+000 0.000000e+000 0.000000e+000 0.000000e+000 0.000000e+000
<ENDHMM>
~h "ny"
<BEGINHMM>
<NUMSTATES> 5
<STATE> 2
<MEAN> 25
 1.027054e+000 1.915622e+000 4.153300e+000 3.051121e+000 6.488190e-001 1.881673e+000 -3.640742e+000 -1.679431e+000 -4.309194e+000 -3.357964e-001 -3.037267e-002 4.245184e+000 -2.467140e-002 1.404394e-001 -5.718002e-002 -8.328164e-002 -2.048660e-001 5.077624e-003 6.877877e-002 1.851355e-001 3.849958e-002 2.537499e-001 1.867625e-001 2.007863e-002 2.762181e-002
<VARIANCE> 25
 2.379074e+001 1.372280e+001 2.129325e+001 2.532608e+001 2.808197e+001 1.992872e+001 2.409356e+001 2.720065e+001 2.246157e+001 1.391915e+001 1.769023e+001 1.741386e+001 3.979350e-001 5.325072e-001 6.600405e-001 1.074245e+000 1.165303e+000 1.481788e+000 1.911770e+000 2.414102e+000 1.068274e+000 1.173505e+000 1.253994e+000 1.434435e+000 5.008256e-001
<GCONST> 8.261510e+001
<STATE> 3
<MEAN> 25
 -5.788827e+000 1.036796e+001 -3.892902e+000 2.838644e+000 -4.702193e+000 -3.224262e+000 -2.870404e-002 -2.693728e-001 -1.287052e-001 -1.055002e+000 2.878619e+000 2.477953e-001 -4.612977e-001 4.331193e-001 2.555505e-001 -7.944397e-002 -3.154047e-002 4.712926e-002 -5.427418e-002 -1.088211e-001 3.038881e-001 6.482012e-002 9.868866e-002 -2.934116e-001 -2.389573e-001
<VARIANCE> 25
 4.777779e+001 1.920772e+001 4.768025e+001 2.102425e+001 2.539953e+001 1.213081e+001 1.633424e+001 2.492939e+001 1.468993e+001 1.595225e+001 1.800582e+001 1.505503e+001 6.200925e-001 7.925928e-001 1.258865e+000 1.573339e+000 1.176203e+000 6.553560e-001 8.326389e-001 8.694631e-001 1.043211e+000 6.645890e-001 1.227282e+000 1.055588e+000 9.499228e-001
<GCONST> 8.170895e+001
<STATE> 4
<MEAN> 25
 -4.550754e-001 6.825081e+000 3.414936e+000 -6.554441e-001 -5.892606e+000 -1.617801e-001 2.164007e+000 2.414471e+000 2.141240e+000 -9.784966e-001 3.463412e+000 6.428046e-001 1.707912e+000 -4.125700e-001 4.055755e-001 1.445205e-001 -5.630496e-001 -5.934553e-001 4.390469e-001 -2.421515e-001 3.134215e-001 -4.358841e-001 -9.573379e-002 -3.701659e-001 1.561339e+000
<VARIANCE> 25
 6.196756e+001 1.591934e+002 3.782108e+001 1.192382e+002 8.430621e+001 2.785397e+001 1.961819e+001 3.213439e+001 2.222918e+001 3.305254e+001 2.719651e+001 2.100495e+001 7.914639e+000 8.556645e+000 4.668127e+000 4.483413e+000 7.802963e+000 4.148922e+000 3.483433e+000 2.909013e+000 2.965138e+000 3.846852e+000 3.163407e+000 1.600615e+000 3.037851e+000
<GCONST> 1.089299e+002
<TRANSP> 5
 0.000000e+000 1.000000e+000 0.000000e+000 0.000000e+000 0.000000e+000
 0.000000e+000 9.054875e-001 9.451243e-002 0.000000e+000 0.000000e+000
 0.000000e+000 0.000000e+000 8.283421e-001 1.716579e-001 0.000000e+000
 0.000000e+000 0.000000e+000 0.000000e+000 7.981489e-001 2.018511e-001
 0.000000e+000 0.000000e+000 0.000000e+000 0.000000e+000 0.000000e+000
<ENDHMM>
~h "sp"
<BEGINHMM>
<NUMSTATES> 3
<STATE> 2
~s "silst"
<TRANSP> 3
 0.000000e+000 3.390170e-001 6.609830e-001
 0.000000e+000 9.341187e-001 6.588127e-002
 0.000000e+000 0.000000e+000 0.000000e+000
<ENDHMM>
~h "sil"
<BEGINHMM>
<NUMSTATES> 5
<STATE> 2
<MEAN> 25
 -6.489460e+000 6.647290e+000 -3.489424e+000 7.088954e+000 -1.069253e+000 -8.081297e-001 1.155439e+000 -3.138805e-001 2.266759e+000 -1.701763e+000 1.343731e-001 1.578914e+000 -3.840817e-001 3.217498e-001 -5.227648e-002 4.601451e-002 5.444250e-002 6.858451e-002 -1.744397e-001 -2.758715e-001 2.698738e-002 1.969225e-002 1.173744e-001 -2.463899e-001 -5.434685e-001
<VARIANCE> 25
 7.628931e+001 4.783864e+001 4.477717e+001 2.263420e+001 4.092593e+001 2.440518e+001 2.540806e+001 2.627622e+001 2.563238e+001 2.017478e+001 1.676842e+001 1.955907e+001 3.887388e-001 7.428099e-001 7.764951e-001 8.938341e-001 1.545325e+000 1.173453e+000 1.412266e+000 1.314845e+000 1.423853e+000 1.363066e+000 1.142260e+000 1.524957e+000 1.961092e-001
<GCONST> 8.571770e+001
<STATE> 3
~s "silst"
<STATE> 4
<MEAN> 25
 -2.417888e+001 2.891330e+000 -8.985219e+000 6.388828e+000 -6.149711e-002 2.467313e+000 4.226702e+000 2.486424e+000 6.469569e+000 1.480362e+000 5.095273e+000 1.900764e+000 -1.557051e-003 8.964860e-003 1.069527e-003 -2.426578e-002 -3.299056e-003 2.500248e-002 2.720545e-002 -6.546505e-003 -3.760083e-003 -7.377580e-003 -1.082744e-002 -5.405261e-003 -4.514125e-003
<VARIANCE> 25
 1.022356e+001 7.271301e+000 1.064571e+001 7.648216e+000 9.270252e+000 1.070329e+001 1.249153e+001 1.464547e+001 1.470378e+001 9.745809e+000 8.600564e+000 7.146373e+000 4.164765e-002 1.392084e-001 2.121537e-001 3.539655e-001 5.029626e-001 4.492301e-001 8.004221e-001 1.137543e+000 1.299747e+000 1.014963e+000 8.395351e-001 9.147962e-001 2.980222e-002
<GCONST> 6.072449e+001
<TRANSP> 5
 0.000000e+000 1.000000e+000 0.000000e+000 0.000000e+000 0.000000e+000
 0.000000e+000 8.083844e-001 6.305222e-002 1.285634e-001 0.000000e+000
 0.000000e+000 0.000000e+000 9.549508e-001 4.504913e-002 0.000000e+000
 0.000000e+000 1.599517e-003 0.000000e+000 9.625921e-001 3.580832e-002
 0.000000e+000 0.000000e+000 0.000000e+000 0.000000e+000 0.000000e+000
<ENDHMM>
