~o
<STREAMINFO> 1 25
<VECSIZE> 25<NULLD><MFCC_D_N_Z_0><DIAGC>
~h "a"
<BEGINHMM>
<NUMSTATES> 5
<STATE> 2
<MEAN> 25
 1.989567e+000 -1.505919e+000 -1.007201e-001 -4.321241e-001 5.015254e-001 -1.674333e-001 3.871903e-001 4.808967e-001 2.863318e-001 2.721417e-002 -8.320627e-001 -2.719240e-001 1.898740e-002 -1.476073e-002 -2.455107e-002 7.747092e-003 1.845671e-002 -3.942349e-003 1.314209e-002 6.304932e-003 9.244246e-003 -3.828012e-003 -9.891187e-003 -3.269320e-003 1.599313e-002
<VARIANCE> 25
 1.173497e+002 1.316956e+002 1.187154e+002 1.132568e+002 6.806052e+001 6.427048e+001 5.307639e+001 5.974146e+001 5.191750e+001 3.995948e+001 3.628542e+001 2.944149e+001 2.187247e+000 3.784730e+000 2.882311e+000 3.684083e+000 3.031158e+000 2.721527e+000 2.810649e+000 3.038770e+000 2.712344e+000 2.352525e+000 1.956814e+000 1.857694e+000 3.080348e+000
<GCONST> 1.091558e+002
<STATE> 3
<MEAN> 25
 2.055989e+000 -1.556594e+000 -1.940369e-001 -3.915110e-001 5.803827e-001 -1.800801e-001 4.258213e-001 4.964833e-001 3.191751e-001 4.454729e-003 -8.678966e-001 -2.822507e-001 1.137012e-002 -8.291168e-003 -2.061675e-002 1.249203e-002 1.859046e-002 -2.913528e-003 7.279186e-003 3.084327e-003 6.702040e-003 -4.720476e-003 -7.331759e-003 -2.446869e-003 5.022995e-003
<VARIANCE> 25
 1.158051e+002 1.317507e+002 1.169643e+002 1.130179e+002 6.789853e+001 6.454610e+001 5.294645e+001 5.938624e+001 5.149412e+001 3.981988e+001 3.599991e+001 2.936422e+001 2.174021e+000 3.755135e+000 2.840091e+000 3.660401e+000 3.013140e+000 2.714292e+000 2.803587e+000 3.023243e+000 2.700977e+000 2.342913e+000 1.948296e+000 1.854052e+000 3.062767e+000
<GCONST> 1.090255e+002
<STATE> 4
<MEAN> 25
 2.246072e+000 -1.610292e+000 -1.472629e-001 -3.220328e-001 7.095506e-001 -2.222943e-001 3.430403e-001 4.714773e-001 2.956985e-001 -3.718167e-002 -9.327617e-001 -2.674718e-001 4.047116e-004 1.122972e-003 -1.422863e-002 1.578552e-002 1.486634e-002 -1.299963e-003 1.039480e-003 -1.024379e-003 2.052543e-003 -5.619438e-003 -3.398516e-003 -1.387412e-003 -7.884795e-003
<VARIANCE> 25
 1.164964e+002 1.364204e+002 1.167939e+002 1.165509e+002 6.970025e+001 6.621461e+001 5.205260e+001 5.975910e+001 5.220437e+001 4.045774e+001 3.618312e+001 2.934691e+001 2.256673e+000 3.826242e+000 2.818410e+000 3.748194e+000 3.041429e+000 2.741701e+000 2.754066e+000 3.020498e+000 2.741676e+000 2.336821e+000 1.948345e+000 1.850149e+000 3.187601e+000
<GCONST> 1.092937e+002
<TRANSP> 5
 0.000000e+000 1.000000e+000 0.000000e+000 0.000000e+000 0.000000e+000
 0.000000e+000 7.657115e-001 2.342885e-001 0.000000e+000 0.000000e+000
 0.000000e+000 0.000000e+000 7.657111e-001 2.342890e-001 0.000000e+000
 0.000000e+000 0.000000e+000 0.000000e+000 8.998016e-001 1.001984e-001
 0.000000e+000 0.000000e+000 0.000000e+000 0.000000e+000 0.000000e+000
<ENDHMM>
~h "b"
<BEGINHMM>
<NUMSTATES> 5
<STATE> 2
<MEAN> 25
 -1.029810e+000 4.507206e-001 -8.772014e-002 1.632565e-001 7.592324e-001 -1.718589e-001 2.154080e-001 4.588871e-002 1.143608e-001 5.722288e-002 1.732485e-001 5.380275e-001 2.243001e-002 1.567424e-002 5.990356e-004 3.195764e-002 -5.606629e-003 -8.937415e-003 1.118903e-002 -4.223204e-003 -5.542986e-003 -5.597689e-003 -3.870797e-003 4.100664e-003 -4.983582e-003
<VARIANCE> 25
 1.804605e+002 1.299852e+002 1.127537e+002 1.290428e+002 6.150311e+001 5.468926e+001 5.474578e+001 5.718362e+001 5.669025e+001 4.458556e+001 3.515488e+001 2.826973e+001 2.023621e+000 3.844453e+000 2.468975e+000 3.893050e+000 3.224244e+000 2.375750e+000 2.564090e+000 3.008058e+000 2.532273e+000 2.283082e+000 1.875855e+000 1.811513e+000 3.134871e+000
<GCONST> 1.090154e+002
<STATE> 3
<MEAN> 25
 -9.013993e-001 5.427380e-001 -6.721578e-002 3.102663e-001 7.413397e-001 -2.231641e-001 2.546149e-001 3.107136e-002 1.087557e-001 5.557505e-002 1.607337e-001 5.383850e-001 3.015152e-002 2.208564e-002 6.665989e-003 3.270582e-002 -7.950101e-003 -9.931418e-003 5.933428e-003 -3.320612e-003 -7.857070e-004 -8.920752e-004 -4.068646e-003 -3.668400e-004 -1.798428e-003
<VARIANCE> 25
 1.770518e+002 1.309248e+002 1.137828e+002 1.290298e+002 6.133901e+001 5.420832e+001 5.489698e+001 5.808230e+001 5.649649e+001 4.474158e+001 3.529011e+001 2.825845e+001 2.066281e+000 3.919723e+000 2.520174e+000 3.904460e+000 3.229175e+000 2.352763e+000 2.571541e+000 3.041276e+000 2.525894e+000 2.285389e+000 1.887358e+000 1.808292e+000 3.146045e+000
<GCONST> 1.090986e+002
<STATE> 4
<MEAN> 25
 -6.173304e-002 9.434694e-001 2.448171e-001 3.454512e-001 6.366200e-001 -2.749154e-001 1.181461e-001 -8.227897e-002 -1.176508e-001 3.194016e-002 4.078231e-002 4.263017e-001 5.436053e-002 4.164518e-002 2.316715e-002 2.415685e-002 -1.111013e-002 -6.847194e-003 -4.636682e-003 -1.146400e-002 -1.147508e-002 -6.187391e-003 -1.373914e-002 -5.991082e-003 1.601973e-002
<VARIANCE> 25
 1.634828e+002 1.368320e+002 1.178578e+002 1.330353e+002 6.165198e+001 5.399924e+001 5.535331e+001 6.068749e+001 5.741957e+001 4.677972e+001 3.528416e+001 2.813067e+001 2.259070e+000 4.149266e+000 2.725874e+000 4.027718e+000 3.251362e+000 2.338518e+000 2.624167e+000 3.131811e+000 2.548491e+000 2.342458e+000 1.904036e+000 1.823320e+000 3.251413e+000
<GCONST> 1.096278e+002
<TRANSP> 5
 0.000000e+000 1.000000e+000 0.000000e+000 0.000000e+000 0.000000e+000
 0.000000e+000 7.800571e-001 2.199429e-001 0.000000e+000 0.000000e+000
 0.000000e+000 0.000000e+000 7.800575e-001 2.199424e-001 0.000000e+000
 0.000000e+000 0.000000e+000 0.000000e+000 9.109107e-001 8.908928e-002
 0.000000e+000 0.000000e+000 0.000000e+000 0.000000e+000 0.000000e+000
<ENDHMM>
~h "c"
<BEGINHMM>
<NUMSTATES> 5
<STATE> 2
<MEAN> 25
 -8.346014e+000 -2.092671e+000 -1.535879e+000 1.116858e+000 1.423753e+000 -4.490540e-001 2.760349e+000 5.061827e-001 1.821149e+000 1.256495e+000 1.239030e+000 -3.004366e-001 1.015659e-001 -4.113510e-002 7.343384e-002 -1.819949e-003 4.662950e-002 -4.304630e-002 -1.284183e-002 -7.425065e-002 -3.708550e-002 -8.982019e-003 -8.351984e-003 8.002816e-003 1.600990e-001
<VARIANCE> 25
 1.973953e+002 5.722741e+001 1.562864e+002 9.096621e+001 6.734383e+001 4.722299e+001 2.995356e+001 5.419878e+001 5.416290e+001 2.899171e+001 2.121247e+001 2.110392e+001 3.372152e+000 2.640156e+000 3.318596e+000 4.664615e+000 2.847156e+000 3.139534e+000 2.623338e+000 2.726080e+000 2.817413e+000 2.366531e+000 1.901378e+000 1.620140e+000 4.257847e+000
<GCONST> 1.073161e+002
<STATE> 3
<MEAN> 25
 -7.853859e+000 -2.274512e+000 -1.190989e+000 1.109419e+000 1.658154e+000 -6.749804e-001 2.672754e+000 1.812096e-001 1.662083e+000 1.264415e+000 1.213445e+000 -2.901764e-001 1.056139e-001 -3.792126e-002 7.774333e-002 -2.017540e-003 5.085627e-002 -4.902712e-002 -1.985677e-002 -7.358034e-002 -3.669053e-002 2.670707e-003 -4.910644e-003 1.570635e-003 1.675457e-001
<VARIANCE> 25
 1.981824e+002 5.837260e+001 1.532044e+002 9.299809e+001 6.918214e+001 4.912330e+001 3.110787e+001 5.612238e+001 5.618078e+001 3.029387e+001 2.167951e+001 2.122686e+001 3.541834e+000 2.701976e+000 3.506102e+000 4.887282e+000 2.961483e+000 3.297859e+000 2.730892e+000 2.863338e+000 2.917890e+000 2.505523e+000 2.005039e+000 1.664925e+000 4.461517e+000
<GCONST> 1.081602e+002
<STATE> 4
<MEAN> 25
 -7.012772e+000 -2.455529e+000 -2.063942e-001 9.098921e-001 2.029259e+000 -1.193356e+000 2.427904e+000 -4.993981e-001 1.196863e+000 1.220293e+000 1.218918e+000 -3.978968e-001 1.076429e-001 -2.539542e-002 1.048626e-001 -1.819466e-002 3.940881e-002 -5.095058e-002 -2.700197e-002 -8.001413e-002 -5.021226e-002 -1.243979e-004 -4.147374e-003 -1.143644e-002 1.776288e-001
<VARIANCE> 25
 1.957260e+002 5.954839e+001 1.545560e+002 9.732496e+001 7.478075e+001 5.239340e+001 3.224971e+001 5.900027e+001 6.082378e+001 3.232343e+001 2.213481e+001 2.159625e+001 3.942425e+000 2.790389e+000 3.874130e+000 5.265868e+000 3.256327e+000 3.530541e+000 2.900929e+000 3.104364e+000 3.138316e+000 2.717152e+000 2.091847e+000 1.749350e+000 4.760257e+000
<GCONST> 1.095612e+002
<TRANSP> 5
 0.000000e+000 1.000000e+000 0.000000e+000 0.000000e+000 0.000000e+000
 0.000000e+000 7.786752e-001 2.213249e-001 0.000000e+000 0.000000e+000
 0.000000e+000 0.000000e+000 7.786750e-001 2.213250e-001 0.000000e+000
 0.000000e+000 0.000000e+000 0.000000e+000 9.075441e-001 9.245583e-002
 0.000000e+000 0.000000e+000 0.000000e+000 0.000000e+000 0.000000e+000
<ENDHMM>
~h "d"
<BEGINHMM>
<NUMSTATES> 5
<STATE> 2
<MEAN> 25
 1.305574e+000 3.863324e-001 3.086055e+000 1.575122e-001 -1.377703e+000 -9.434937e-001 -6.757500e-001 4.311049e-002 -1.006297e+000 -5.555440e-001 -2.612257e-002 -1.386367e-001 3.573832e-002 -1.018792e-002 2.927886e-002 1.489785e-002 -3.023837e-002 -4.348483e-003 -1.803327e-002 4.468223e-003 -1.959068e-003 -1.892605e-002 7.280335e-003 -1.771472e-003 2.070549e-002
<VARIANCE> 25
 1.092171e+002 1.158723e+002 1.794836e+002 1.102063e+002 8.473286e+001 5.328481e+001 5.646525e+001 5.842558e+001 7.276711e+001 3.808936e+001 3.781215e+001 2.899469e+001 2.223845e+000 3.781196e+000 3.965729e+000 4.535963e+000 4.215104e+000 2.952001e+000 2.973043e+000 3.072101e+000 3.191324e+000 2.435572e+000 2.331489e+000 1.980953e+000 3.256419e+000
<GCONST> 1.112421e+002
<STATE> 3
<MEAN> 25
 1.454335e+000 3.535578e-001 3.221345e+000 2.249351e-001 -1.481640e+000 -9.618498e-001 -7.596668e-001 5.943448e-002 -1.020869e+000 -6.083115e-001 -5.479137e-003 -1.344288e-001 3.573354e-002 -1.078832e-002 1.764744e-002 1.693932e-002 -2.352116e-002 -2.634495e-003 -1.512303e-002 4.306218e-003 7.645114e-004 -1.770562e-002 4.158027e-003 2.691211e-004 1.500531e-002
<VARIANCE> 25
 1.049107e+002 1.161346e+002 1.806961e+002 1.108683e+002 8.492641e+001 5.292258e+001 5.645433e+001 5.864577e+001 7.280589e+001 3.816044e+001 3.811376e+001 2.942898e+001 2.191203e+000 3.811978e+000 3.947941e+000 4.537477e+000 4.247708e+000 2.959199e+000 2.974747e+000 3.065691e+000 3.181678e+000 2.451364e+000 2.354178e+000 1.989408e+000 3.238688e+000
<GCONST> 1.112508e+002
<STATE> 4
<MEAN> 25
 1.863269e+000 2.562831e-001 3.497973e+000 3.360153e-001 -1.512816e+000 -1.041040e+000 -8.944321e-001 1.668932e-001 -1.036711e+000 -6.534328e-001 -1.024596e-001 -7.063759e-002 2.601631e-002 -3.330301e-003 1.402411e-003 2.095282e-002 -8.136516e-003 -9.723622e-004 -1.494260e-002 2.268498e-003 5.129247e-003 -9.877692e-003 7.687948e-004 3.118074e-003 3.859503e-003
<VARIANCE> 25
 1.000644e+002 1.206376e+002 1.841055e+002 1.164065e+002 8.453217e+001 5.317736e+001 5.587340e+001 6.024695e+001 7.353603e+001 3.855002e+001 3.857135e+001 3.019778e+001 2.190003e+000 4.004893e+000 3.888481e+000 4.663582e+000 4.207308e+000 2.983439e+000 2.969296e+000 3.051013e+000 3.171361e+000 2.465669e+000 2.363662e+000 2.005859e+000 3.299561e+000
<GCONST> 1.114701e+002
<TRANSP> 5
 0.000000e+000 1.000000e+000 0.000000e+000 0.000000e+000 0.000000e+000
 0.000000e+000 7.634228e-001 2.365772e-001 0.000000e+000 0.000000e+000
 0.000000e+000 0.000000e+000 7.634212e-001 2.365787e-001 0.000000e+000
 0.000000e+000 0.000000e+000 0.000000e+000 8.978563e-001 1.021437e-001
 0.000000e+000 0.000000e+000 0.000000e+000 0.000000e+000 0.000000e+000
<ENDHMM>
~h "e"
<BEGINHMM>
<NUMSTATES> 5
<STATE> 2
<MEAN> 25
 1.112772e+000 1.034770e-001 -1.449040e-001 -2.497457e-001 4.547525e-001 -3.113548e-001 -2.526625e-001 -6.607784e-001 3.270037e-001 -3.695652e-002 4.030133e-003 1.203549e-001 2.547575e-002 7.422107e-003 4.005292e-003 1.753926e-002 2.000459e-002 -4.871382e-003 -1.241475e-002 -1.202056e-002 7.174143e-003 1.482392e-002 -1.877404e-002 7.291263e-003 1.928311e-002
<VARIANCE> 25
 1.245073e+002 1.285892e+002 1.214756e+002 1.103229e+002 7.653642e+001 6.404369e+001 5.637775e+001 5.432137e+001 5.573441e+001 3.784695e+001 3.546673e+001 2.864030e+001 2.628756e+000 3.896898e+000 3.020943e+000 3.751581e+000 3.600257e+000 2.566000e+000 2.927361e+000 3.004287e+000 2.827107e+000 2.456243e+000 1.877560e+000 1.881920e+000 3.541220e+000
<GCONST> 1.098495e+002
<STATE> 3
<MEAN> 25
 1.261315e+000 1.101965e-001 -1.298790e-001 -1.844672e-001 5.231253e-001 -3.336662e-001 -3.168495e-001 -7.045606e-001 3.669307e-001 2.576068e-002 -7.378804e-002 1.457073e-001 3.087644e-002 4.224797e-003 1.226884e-002 1.417457e-002 1.632319e-002 -3.879140e-003 -1.712720e-002 -1.392875e-002 5.049402e-003 1.702336e-002 -2.089551e-002 8.530032e-003 2.614163e-002
<VARIANCE> 25
 1.213901e+002 1.300431e+002 1.190850e+002 1.115349e+002 7.578744e+001 6.384332e+001 5.611693e+001 5.568082e+001 5.483083e+001 3.823163e+001 3.538384e+001 2.849779e+001 2.638204e+000 3.989051e+000 3.047237e+000 3.808054e+000 3.632582e+000 2.575064e+000 2.930860e+000 3.061786e+000 2.822676e+000 2.475403e+000 1.880507e+000 1.874878e+000 3.578289e+000
<GCONST> 1.099176e+002
<STATE> 4
<MEAN> 25
 1.764995e+000 -4.829619e-002 4.493254e-002 -2.213766e-001 6.385441e-001 -3.828929e-001 -5.453010e-001 -7.785766e-001 3.531404e-001 1.114628e-001 -2.900824e-001 1.749337e-001 3.467445e-002 -5.872923e-003 1.375739e-002 6.571349e-003 6.373968e-003 -1.753054e-003 -1.845273e-002 -1.021919e-002 7.656542e-003 1.522191e-002 -1.635070e-002 5.727180e-003 3.136517e-002
<VARIANCE> 25
 1.153717e+002 1.333793e+002 1.169635e+002 1.160095e+002 7.642399e+001 6.459270e+001 5.553450e+001 5.925671e+001 5.375936e+001 3.934810e+001 3.532668e+001 2.859661e+001 2.629417e+000 4.197738e+000 3.072319e+000 3.972810e+000 3.658095e+000 2.621753e+000 2.919556e+000 3.197219e+000 2.819703e+000 2.511987e+000 1.893901e+000 1.877351e+000 3.732838e+000
<GCONST> 1.102231e+002
<TRANSP> 5
 0.000000e+000 1.000000e+000 0.000000e+000 0.000000e+000 0.000000e+000
 0.000000e+000 7.681262e-001 2.318737e-001 0.000000e+000 0.000000e+000
 0.000000e+000 0.000000e+000 7.681264e-001 2.318736e-001 0.000000e+000
 0.000000e+000 0.000000e+000 0.000000e+000 9.011307e-001 9.886935e-002
 0.000000e+000 0.000000e+000 0.000000e+000 0.000000e+000 0.000000e+000
<ENDHMM>
~h "f"
<BEGINHMM>
<NUMSTATES> 5
<STATE> 2
<MEAN> 25
 -2.879190e+000 1.500171e+000 4.662264e+000 -1.574998e+000 -1.200293e+000 -6.000740e-001 -1.073099e+000 -1.211401e+000 -1.941404e+000 1.105461e+000 8.845097e-001 4.771620e-001 -3.990406e-002 -4.339134e-002 1.943880e-001 -2.622380e-002 -9.235395e-003 -6.918860e-002 1.066913e-002 -2.990924e-002 -5.939228e-002 1.542336e-002 -5.407787e-003 -1.443309e-002 1.722358e-001
<VARIANCE> 25
 9.592919e+001 8.679238e+001 1.838899e+002 1.002676e+002 6.684772e+001 6.339647e+001 4.901782e+001 5.042630e+001 7.704115e+001 3.688867e+001 2.301846e+001 2.406388e+001 2.529547e+000 1.966610e+000 4.512768e+000 3.546807e+000 3.258826e+000 2.931311e+000 2.776597e+000 2.718110e+000 3.373245e+000 2.263394e+000 1.900453e+000 1.754015e+000 2.667443e+000
<GCONST> 1.081032e+002
<STATE> 3
<MEAN> 25
 -2.965941e+000 1.254735e+000 5.467833e+000 -1.672115e+000 -1.238889e+000 -9.114254e-001 -1.053769e+000 -1.287188e+000 -2.179101e+000 1.109339e+000 8.384628e-001 4.516067e-001 -3.259750e-002 -4.186410e-002 1.984450e-001 -1.989157e-002 -1.084501e-002 -7.169020e-002 5.158525e-003 -3.274390e-002 -6.442822e-002 3.057539e-003 -1.544681e-002 -8.196212e-003 1.677816e-001
<VARIANCE> 25
 9.317570e+001 8.819154e+001 1.865487e+002 9.951427e+001 6.830645e+001 6.444147e+001 4.981128e+001 5.019301e+001 7.739619e+001 3.650160e+001 2.296179e+001 2.374398e+001 2.536400e+000 1.976974e+000 4.557047e+000 3.558882e+000 3.349873e+000 3.001702e+000 2.794819e+000 2.741802e+000 3.368770e+000 2.252114e+000 1.916982e+000 1.775959e+000 2.565867e+000
<GCONST> 1.081880e+002
<STATE> 4
<MEAN> 25
 -2.656845e+000 1.754609e-001 7.063594e+000 -2.129338e+000 -1.331903e+000 -1.653832e+000 -9.205114e-001 -1.312588e+000 -2.596506e+000 9.587893e-001 7.320877e-001 3.769491e-001 -1.065052e-002 -3.697843e-002 1.780428e-001 -2.274026e-002 -7.154679e-003 -7.761710e-002 -8.260804e-004 -2.680680e-002 -5.832507e-002 -4.784716e-003 -1.068829e-002 -4.084092e-003 1.392913e-001
<VARIANCE> 25
 9.186747e+001 9.414282e+001 2.013041e+002 1.046613e+002 7.253522e+001 6.844069e+001 5.503757e+001 5.033612e+001 8.083446e+001 3.793471e+001 2.280104e+001 2.443810e+001 2.589433e+000 2.134777e+000 4.802633e+000 3.791712e+000 3.537468e+000 3.152761e+000 2.942724e+000 2.872335e+000 3.460828e+000 2.279854e+000 1.926345e+000 1.887727e+000 2.498763e+000
<GCONST> 1.091860e+002
<TRANSP> 5
 0.000000e+000 1.000000e+000 0.000000e+000 0.000000e+000 0.000000e+000
 0.000000e+000 7.408673e-001 2.591328e-001 0.000000e+000 0.000000e+000
 0.000000e+000 0.000000e+000 7.408680e-001 2.591320e-001 0.000000e+000
 0.000000e+000 0.000000e+000 0.000000e+000 8.719792e-001 1.280207e-001
 0.000000e+000 0.000000e+000 0.000000e+000 0.000000e+000 0.000000e+000
<ENDHMM>
~h "g"
<BEGINHMM>
<NUMSTATES> 5
<STATE> 2
<MEAN> 25
 2.386926e+000 -2.958866e+000 2.779238e+000 -1.810374e+000 -3.436979e-001 -2.619486e+000 -2.542616e-001 3.259807e+000 2.927320e-001 5.134748e-001 -1.459015e+000 -8.812226e-002 -5.882980e-002 8.407940e-003 -1.299443e-002 1.091389e-002 -2.246024e-003 -1.970681e-002 3.399735e-003 5.541974e-002 9.693799e-003 -1.470309e-002 -3.986209e-002 2.088467e-003 -7.307214e-002
<VARIANCE> 25
 7.138701e+001 1.170069e+002 1.138564e+002 1.264856e+002 5.271962e+001 6.894453e+001 4.960172e+001 7.400288e+001 3.823882e+001 4.544085e+001 4.792343e+001 3.187534e+001 1.619720e+000 3.550072e+000 2.932117e+000 4.265860e+000 2.761950e+000 3.161136e+000 2.451533e+000 2.866686e+000 2.606569e+000 2.632387e+000 2.556633e+000 2.060047e+000 2.934224e+000
<GCONST> 1.088066e+002
<STATE> 3
<MEAN> 25
 2.111976e+000 -2.891913e+000 2.660535e+000 -1.740324e+000 -3.564196e-001 -2.655500e+000 -2.346268e-001 3.433037e+000 3.563292e-001 4.394321e-001 -1.630687e+000 -6.707072e-002 -6.770884e-002 2.786604e-002 -3.820184e-002 2.633094e-002 -1.351507e-003 1.946461e-004 6.755961e-004 2.101659e-002 1.471257e-002 -2.282654e-002 -3.602954e-002 6.947584e-003 -1.006179e-001
<VARIANCE> 25
 7.181214e+001 1.158548e+002 1.127624e+002 1.264097e+002 5.119405e+001 6.771688e+001 4.917066e+001 7.272528e+001 3.719830e+001 4.529735e+001 4.780597e+001 3.138441e+001 1.576173e+000 3.483565e+000 2.865771e+000 4.161654e+000 2.685217e+000 3.066275e+000 2.425586e+000 2.827094e+000 2.539279e+000 2.574492e+000 2.533361e+000 2.026882e+000 2.878842e+000
<GCONST> 1.084004e+002
<STATE> 4
<MEAN> 25
 1.696436e+000 -2.773860e+000 2.392128e+000 -1.442514e+000 -3.283318e-001 -2.598795e+000 -2.195842e-001 3.492522e+000 4.883258e-001 2.642946e-001 -1.897535e+000 6.279840e-002 -8.144454e-002 5.534869e-002 -6.842028e-002 4.766750e-002 -3.703902e-003 2.621075e-002 9.401329e-005 -1.808283e-002 1.954778e-002 -3.049333e-002 -2.398690e-002 1.168762e-002 -1.369835e-001
<VARIANCE> 25
 7.374179e+001 1.151752e+002 1.130266e+002 1.271618e+002 4.904738e+001 6.510591e+001 4.838158e+001 6.697840e+001 3.599519e+001 4.521935e+001 4.763398e+001 2.986221e+001 1.521971e+000 3.416456e+000 2.796166e+000 4.031509e+000 2.575488e+000 2.900610e+000 2.364505e+000 2.703101e+000 2.445150e+000 2.480875e+000 2.444386e+000 1.963807e+000 2.808714e+000
<GCONST> 1.077154e+002
<TRANSP> 5
 0.000000e+000 1.000000e+000 0.000000e+000 0.000000e+000 0.000000e+000
 0.000000e+000 7.697589e-001 2.302411e-001 0.000000e+000 0.000000e+000
 0.000000e+000 0.000000e+000 7.697587e-001 2.302413e-001 0.000000e+000
 0.000000e+000 0.000000e+000 0.000000e+000 8.991532e-001 1.008467e-001
 0.000000e+000 0.000000e+000 0.000000e+000 0.000000e+000 0.000000e+000
<ENDHMM>
~h "h"
<BEGINHMM>
<NUMSTATES> 5
<STATE> 2
<MEAN> 25
 -2.855041e+000 -1.727091e+000 -1.881895e+000 1.236238e+000 3.336965e-001 1.673503e+000 9.236065e-001 -4.725742e-001 7.464358e-001 2.329083e-001 5.314271e-001 -4.527927e-001 -9.317733e-002 1.089944e-002 6.821349e-002 4.856662e-002 3.367051e-002 4.326928e-002 -7.973679e-002 -1.410478e-002 -3.040829e-002 -3.164442e-003 4.889325e-002 -5.855426e-003 -2.959102e-002
<VARIANCE> 25
 1.419267e+002 9.931967e+001 8.622436e+001 6.444032e+001 4.044076e+001 4.555147e+001 5.678811e+001 4.818279e+001 4.400628e+001 3.161814e+001 3.729121e+001 2.508326e+001 1.312354e+000 2.274253e+000 2.327178e+000 2.711268e+000 2.108925e+000 2.631180e+000 2.369265e+000 2.489377e+000 2.382247e+000 2.327286e+000 1.899209e+000 1.533840e+000 1.826658e+000
<GCONST> 1.034435e+002
<STATE> 3
<MEAN> 25
 -3.221512e+000 -1.732558e+000 -1.670968e+000 1.400901e+000 4.392851e-001 1.824417e+000 6.748484e-001 -4.583128e-001 6.144897e-001 2.065753e-001 7.552228e-001 -4.852567e-001 -1.031430e-001 3.163840e-002 6.087063e-002 3.222531e-002 1.804341e-002 3.071988e-002 -8.029200e-002 -5.260902e-003 -3.204189e-002 -1.234203e-002 4.646594e-002 -1.030216e-002 -2.484960e-002
<VARIANCE> 25
 1.428803e+002 1.027382e+002 8.796664e+001 6.228485e+001 4.181608e+001 4.602917e+001 5.662239e+001 4.838428e+001 4.428369e+001 3.106716e+001 3.725638e+001 2.559953e+001 1.296507e+000 2.229225e+000 2.342739e+000 2.717094e+000 2.159801e+000 2.667259e+000 2.303946e+000 2.417296e+000 2.338640e+000 2.311980e+000 1.913919e+000 1.573877e+000 1.823869e+000
<GCONST> 1.034870e+002
<STATE> 4
<MEAN> 25
 -4.098353e+000 -1.904696e+000 -1.818711e+000 1.737451e+000 1.372765e-002 1.875626e+000 7.788154e-001 -3.305196e-001 5.600790e-001 -4.710478e-002 1.303059e+000 -6.617354e-001 -6.891435e-002 2.930380e-002 5.294495e-002 2.650760e-002 -2.294935e-002 7.595180e-003 -4.637579e-002 1.967757e-002 -2.748979e-002 -3.010802e-002 3.991388e-002 -7.885147e-003 -1.285330e-002
<VARIANCE> 25
 1.549087e+002 1.102646e+002 9.635127e+001 6.227446e+001 4.607813e+001 5.257669e+001 5.398758e+001 5.071125e+001 4.604425e+001 3.270947e+001 3.777827e+001 2.742904e+001 1.344228e+000 2.335027e+000 2.742556e+000 2.808328e+000 2.320795e+000 3.019877e+000 2.245526e+000 2.434273e+000 2.363692e+000 2.521880e+000 1.948079e+000 1.652109e+000 2.047557e+000
<GCONST> 1.048621e+002
<TRANSP> 5
 0.000000e+000 1.000000e+000 0.000000e+000 0.000000e+000 0.000000e+000
 0.000000e+000 7.462674e-001 2.537326e-001 0.000000e+000 0.000000e+000
 0.000000e+000 0.000000e+000 7.462675e-001 2.537325e-001 0.000000e+000
 0.000000e+000 0.000000e+000 0.000000e+000 8.824666e-001 1.175334e-001
 0.000000e+000 0.000000e+000 0.000000e+000 0.000000e+000 0.000000e+000
<ENDHMM>
~h "i"
<BEGINHMM>
<NUMSTATES> 5
<STATE> 2
<MEAN> 25
 -1.052512e+000 7.283591e-001 3.778685e+000 -4.252786e-001 -1.001436e+000 -2.419896e-001 -4.169076e-001 -6.384439e-001 -1.561738e+000 -4.045197e-002 5.992202e-001 -3.250061e-001 1.063432e-002 4.957714e-003 1.182282e-001 -1.181118e-002 -5.291542e-002 -1.334559e-002 -2.579599e-002 -9.651733e-003 -4.106067e-002 -1.322119e-002 1.185242e-002 -1.043093e-002 3.977176e-002
<VARIANCE> 25
 1.296049e+002 1.015879e+002 2.075291e+002 1.071244e+002 8.615955e+001 6.044920e+001 6.000214e+001 5.507357e+001 7.525243e+001 3.615093e+001 3.295936e+001 2.644069e+001 2.278019e+000 3.014746e+000 4.944862e+000 4.093961e+000 3.677552e+000 3.037544e+000 3.087945e+000 3.084983e+000 3.253515e+000 2.205698e+000 2.057466e+000 1.805942e+000 3.086555e+000
<GCONST> 1.107938e+002
<STATE> 3
<MEAN> 25
 -9.774302e-001 7.374188e-001 4.292140e+000 -4.848045e-001 -1.227310e+000 -3.171674e-001 -5.094655e-001 -6.594377e-001 -1.751654e+000 -8.293565e-002 6.399409e-001 -3.583214e-001 1.958781e-002 -1.035208e-003 1.071075e-001 -1.536348e-002 -4.995932e-002 -1.693150e-002 -2.131637e-002 -2.777769e-003 -4.039976e-002 -1.309046e-002 1.067643e-002 -8.554483e-003 4.328170e-002
<VARIANCE> 25
 1.255203e+002 1.011691e+002 2.115715e+002 1.071261e+002 8.765581e+001 6.063370e+001 6.054563e+001 5.531653e+001 7.588640e+001 3.637724e+001 3.311653e+001 2.675306e+001 2.272900e+000 3.021015e+000 5.105758e+000 4.156775e+000 3.760231e+000 3.084814e+000 3.109612e+000 3.111869e+000 3.286082e+000 2.222051e+000 2.088500e+000 1.827580e+000 3.115758e+000
<GCONST> 1.109958e+002
<STATE> 4
<MEAN> 25
 -4.946887e-001 5.650008e-001 5.197371e+000 -6.997994e-001 -1.574016e+000 -5.028316e-001 -5.983075e-001 -5.864610e-001 -2.152061e+000 -1.403606e-001 6.432657e-001 -4.063509e-001 3.182518e-002 -8.285510e-003 9.004173e-002 -1.709427e-002 -4.031832e-002 -2.262156e-002 -1.643779e-002 2.738768e-003 -3.662072e-002 -5.841726e-003 2.912181e-003 -4.630120e-003 5.118737e-002
<VARIANCE> 25
 1.225447e+002 1.038778e+002 2.262229e+002 1.127885e+002 9.118015e+001 6.310852e+001 6.194648e+001 5.656628e+001 7.926022e+001 3.788572e+001 3.395569e+001 2.784003e+001 2.357243e+000 3.137093e+000 5.452570e+000 4.385345e+000 3.830522e+000 3.200677e+000 3.143519e+000 3.156145e+000 3.346071e+000 2.266091e+000 2.130028e+000 1.872841e+000 3.319773e+000
<GCONST> 1.118094e+002
<TRANSP> 5
 0.000000e+000 1.000000e+000 0.000000e+000 0.000000e+000 0.000000e+000
 0.000000e+000 7.590560e-001 2.409441e-001 0.000000e+000 0.000000e+000
 0.000000e+000 0.000000e+000 7.590556e-001 2.409444e-001 0.000000e+000
 0.000000e+000 0.000000e+000 0.000000e+000 8.944744e-001 1.055255e-001
 0.000000e+000 0.000000e+000 0.000000e+000 0.000000e+000 0.000000e+000
<ENDHMM>
~h "j"
<BEGINHMM>
<NUMSTATES> 5
<STATE> 2
<MEAN> 25
 4.862491e-001 2.700321e+000 4.745143e+000 -2.164856e+000 8.967414e-001 -4.073517e+000 1.864608e-001 -5.230867e-001 -2.113530e+000 -6.823967e-001 5.925320e-001 1.256898e+000 2.296940e-001 -1.279898e-001 1.277585e-001 -1.566688e-001 -2.288807e-002 -9.725878e-002 -7.672060e-002 1.252780e-001 -4.531631e-002 6.926029e-002 -1.124002e-001 -8.258779e-003 2.769299e-001
<VARIANCE> 25
 1.480125e+002 1.652939e+002 2.034590e+002 1.233619e+002 1.086481e+002 6.300518e+001 8.901072e+001 7.760778e+001 6.914256e+001 2.944776e+001 4.564122e+001 2.135071e+001 3.406999e+000 4.849962e+000 4.689342e+000 3.535725e+000 6.554945e+000 2.724729e+000 4.470888e+000 3.080706e+000 3.936151e+000 1.760568e+000 2.236949e+000 1.718771e+000 2.696533e+000
<GCONST> 1.137479e+002
<STATE> 3
<MEAN> 25
 1.262345e+000 2.078589e+000 5.268566e+000 -2.808545e+000 8.247235e-001 -4.517033e+000 -7.559694e-002 7.018385e-002 -2.255108e+000 -3.177675e-001 1.223657e-001 1.242007e+000 1.716684e-001 -1.497473e-001 1.213279e-001 -1.465415e-001 -1.148941e-002 -1.064994e-001 -5.190289e-002 1.366015e-001 -3.023886e-002 8.626158e-002 -1.086605e-001 8.011194e-005 2.420732e-001
<VARIANCE> 25
 1.250357e+002 1.670206e+002 2.030159e+002 1.222545e+002 1.111976e+002 6.576493e+001 9.028365e+001 8.036849e+001 6.888593e+001 3.051128e+001 4.794181e+001 2.301297e+001 3.095263e+000 4.642443e+000 4.571501e+000 3.625288e+000 7.019773e+000 2.769435e+000 4.565823e+000 3.092686e+000 3.973517e+000 1.767336e+000 2.306657e+000 1.770232e+000 2.726236e+000
<GCONST> 1.139035e+002
<STATE> 4
<MEAN> 25
 1.926135e+000 8.879351e-001 6.226992e+000 -3.768465e+000 8.904877e-001 -5.361949e+000 -2.535801e-001 1.087045e+000 -2.408145e+000 4.934936e-001 -5.605228e-001 1.282113e+000 8.008461e-002 -1.361898e-001 1.048910e-001 -8.506339e-002 4.888800e-003 -1.058410e-001 -8.953668e-003 1.240848e-001 -6.326168e-003 9.518073e-002 -8.198298e-002 1.859720e-002 1.538143e-001
<VARIANCE> 25
 9.092796e+001 1.640143e+002 1.953531e+002 1.193676e+002 1.139842e+002 7.094656e+001 8.811741e+001 8.222390e+001 6.858002e+001 3.201527e+001 4.974040e+001 2.606152e+001 2.545925e+000 4.062468e+000 4.283662e+000 3.792821e+000 7.663867e+000 2.918580e+000 4.504635e+000 3.133597e+000 3.909477e+000 1.803563e+000 2.364883e+000 1.823890e+000 2.718773e+000
<GCONST> 1.136557e+002
<TRANSP> 5
 0.000000e+000 1.000000e+000 0.000000e+000 0.000000e+000 0.000000e+000
 0.000000e+000 7.719993e-001 2.280007e-001 0.000000e+000 0.000000e+000
 0.000000e+000 0.000000e+000 7.719994e-001 2.280006e-001 0.000000e+000
 0.000000e+000 0.000000e+000 0.000000e+000 8.998652e-001 1.001348e-001
 0.000000e+000 0.000000e+000 0.000000e+000 0.000000e+000 0.000000e+000
<ENDHMM>
~h "k"
<BEGINHMM>
<NUMSTATES> 5
<STATE> 2
<MEAN> 25
 1.036976e+000 -9.895749e-001 -9.025537e-001 5.347336e-003 5.362392e-001 4.173772e-001 2.987625e-001 6.525794e-002 2.714560e-001 -1.747241e-001 -4.447429e-001 -4.488769e-001 5.213448e-002 -3.015782e-003 -3.366680e-002 1.960909e-002 1.985147e-002 -1.371244e-002 2.083561e-002 1.090676e-002 -1.856707e-002 -4.721742e-004 -8.601100e-003 -1.198568e-002 3.788974e-002
<VARIANCE> 25
 1.276351e+002 1.282993e+002 1.189509e+002 1.076407e+002 6.727982e+001 6.012385e+001 5.599032e+001 5.240371e+001 5.132585e+001 3.619601e+001 3.440574e+001 2.704264e+001 2.246715e+000 3.718847e+000 3.354727e+000 3.629479e+000 3.240714e+000 2.656987e+000 3.074423e+000 3.093806e+000 2.824689e+000 2.235166e+000 1.952562e+000 1.759502e+000 3.175377e+000
<GCONST> 1.090203e+002
<STATE> 3
<MEAN> 25
 1.274335e+000 -9.956065e-001 -1.051317e+000 8.187793e-002 6.153186e-001 3.763208e-001 3.589418e-001 8.922675e-002 2.060315e-001 -1.815326e-001 -4.796412e-001 -5.016645e-001 5.562211e-002 9.083050e-004 -4.116019e-002 2.352892e-002 2.090449e-002 -1.421410e-002 2.302300e-002 1.146388e-002 -1.434979e-002 -6.341322e-004 -5.503706e-003 -1.071634e-002 3.394969e-002
<VARIANCE> 25
 1.238434e+002 1.294730e+002 1.174734e+002 1.075002e+002 6.665116e+001 6.107574e+001 5.606897e+001 5.305447e+001 5.087943e+001 3.636715e+001 3.401917e+001 2.700078e+001 2.262125e+000 3.722129e+000 3.335624e+000 3.604722e+000 3.228164e+000 2.649294e+000 3.113878e+000 3.095095e+000 2.778985e+000 2.228353e+000 1.933943e+000 1.752936e+000 3.184745e+000
<GCONST> 1.089605e+002
<STATE> 4
<MEAN> 25
 1.718223e+000 -9.381292e-001 -1.267032e+000 2.060004e-001 7.608706e-001 3.552431e-001 3.229066e-001 -3.497172e-002 1.138041e-001 -2.226772e-001 -5.231841e-001 -5.453758e-001 5.776408e-002 1.014542e-003 -4.073623e-002 1.760757e-002 2.166598e-002 -8.458468e-003 1.120883e-002 1.677995e-003 -9.563535e-003 -1.603941e-003 -5.454558e-003 -9.427832e-003 3.262064e-002
<VARIANCE> 25
 1.235791e+002 1.381846e+002 1.189643e+002 1.115656e+002 6.813256e+001 6.395630e+001 5.393355e+001 5.442929e+001 5.223489e+001 3.755527e+001 3.382051e+001 2.731182e+001 2.379220e+000 3.881202e+000 3.350746e+000 3.714313e+000 3.279971e+000 2.714541e+000 3.089303e+000 3.125191e+000 2.767776e+000 2.212665e+000 1.900106e+000 1.729879e+000 3.368638e+000
<GCONST> 1.093750e+002
<TRANSP> 5
 0.000000e+000 1.000000e+000 0.000000e+000 0.000000e+000 0.000000e+000
 0.000000e+000 7.580502e-001 2.419498e-001 0.000000e+000 0.000000e+000
 0.000000e+000 0.000000e+000 7.580490e-001 2.419510e-001 0.000000e+000
 0.000000e+000 0.000000e+000 0.000000e+000 8.921787e-001 1.078214e-001
 0.000000e+000 0.000000e+000 0.000000e+000 0.000000e+000 0.000000e+000
<ENDHMM>
~h "l"
<BEGINHMM>
<NUMSTATES> 5
<STATE> 2
<MEAN> 25
 1.821210e+000 -6.216702e-001 7.987353e-001 -1.690345e+000 3.545439e-001 -7.879946e-002 -1.003074e+000 5.998241e-002 -1.705776e-001 1.098387e+000 -4.771884e-001 -2.657289e-001 3.931633e-002 -2.037604e-002 -4.549279e-003 -4.523701e-002 -9.720175e-004 2.498975e-002 -6.829184e-003 -1.754419e-002 1.693389e-002 5.564361e-003 -1.954990e-002 -9.739820e-003 4.536412e-002
<VARIANCE> 25
 1.250331e+002 1.183256e+002 1.413321e+002 1.417297e+002 6.515357e+001 6.191955e+001 5.900690e+001 6.205338e+001 6.668783e+001 4.496169e+001 4.003676e+001 3.073421e+001 2.133724e+000 3.549154e+000 3.161613e+000 3.940700e+000 2.934715e+000 2.570890e+000 3.031357e+000 3.099439e+000 2.846406e+000 2.406816e+000 1.976195e+000 1.837416e+000 2.931257e+000
<GCONST> 1.101807e+002
<STATE> 3
<MEAN> 25
 1.994927e+000 -7.273227e-001 7.759959e-001 -1.852390e+000 3.559155e-001 2.085226e-002 -1.029908e+000 6.142404e-003 -7.978623e-002 1.117161e+000 -5.584002e-001 -2.888024e-001 3.474890e-002 -2.367913e-002 -8.980871e-003 -3.740745e-002 8.223252e-004 2.848207e-002 -5.873026e-003 -1.883487e-002 1.880545e-002 3.267550e-003 -1.814187e-002 -6.610519e-003 4.233982e-002
<VARIANCE> 25
 1.208585e+002 1.186459e+002 1.398278e+002 1.418007e+002 6.558592e+001 6.202742e+001 5.897239e+001 6.225483e+001 6.624642e+001 4.556193e+001 3.982753e+001 3.098969e+001 2.125508e+000 3.569661e+000 3.143586e+000 3.945922e+000 2.933708e+000 2.598181e+000 3.032790e+000 3.105544e+000 2.853220e+000 2.426473e+000 1.972666e+000 1.846235e+000 2.945747e+000
<GCONST> 1.101885e+002
<STATE> 4
<MEAN> 25
 2.549763e+000 -9.368122e-001 9.377907e-001 -2.115460e+000 4.759808e-001 1.769506e-001 -1.231508e+000 -9.712203e-002 -1.080267e-001 1.109045e+000 -8.150363e-001 -2.602896e-001 2.606762e-002 -2.333628e-002 -1.364265e-002 -1.614151e-002 4.470746e-003 2.425902e-002 6.423218e-004 -1.351342e-002 2.017007e-002 -4.795403e-003 -1.413632e-002 -1.632970e-003 3.285105e-002
<VARIANCE> 25
 1.148774e+002 1.223296e+002 1.411257e+002 1.450004e+002 6.700710e+001 6.331288e+001 5.891182e+001 6.322707e+001 6.721407e+001 4.757941e+001 3.943628e+001 3.141270e+001 2.193455e+000 3.618038e+000 3.135653e+000 4.062770e+000 2.931137e+000 2.661993e+000 3.036762e+000 3.101083e+000 2.880478e+000 2.438468e+000 1.968606e+000 1.861594e+000 3.107962e+000
<GCONST> 1.104869e+002
<TRANSP> 5
 0.000000e+000 1.000000e+000 0.000000e+000 0.000000e+000 0.000000e+000
 0.000000e+000 7.690691e-001 2.309309e-001 0.000000e+000 0.000000e+000
 0.000000e+000 0.000000e+000 7.690698e-001 2.309302e-001 0.000000e+000
 0.000000e+000 0.000000e+000 0.000000e+000 9.033386e-001 9.666145e-002
 0.000000e+000 0.000000e+000 0.000000e+000 0.000000e+000 0.000000e+000
<ENDHMM>
~h "m"
<BEGINHMM>
<NUMSTATES> 5
<STATE> 2
<MEAN> 25
 2.402282e-001 2.746990e-001 -1.628964e+000 3.205495e-001 2.570557e-001 1.280414e+000 4.751042e-001 -7.670221e-001 2.845745e-001 -1.206684e-002 7.320283e-002 2.451466e-001 4.668082e-002 -2.819024e-003 -1.207098e-002 -1.496256e-002 8.641194e-003 -7.758227e-003 6.293780e-003 1.086144e-003 -8.367865e-003 -8.137800e-003 -1.116867e-002 4.990426e-003 3.861183e-002
<VARIANCE> 25
 1.858491e+002 1.170100e+002 1.202021e+002 1.087547e+002 6.514537e+001 6.015034e+001 5.263046e+001 5.985924e+001 6.702135e+001 3.615492e+001 3.385870e+001 2.700700e+001 2.357990e+000 3.183265e+000 2.692754e+000 3.679397e+000 2.429991e+000 2.419928e+000 2.432084e+000 2.888359e+000 2.950827e+000 2.110824e+000 1.780119e+000 1.613457e+000 2.775206e+000
<GCONST> 1.082873e+002
<STATE> 3
<MEAN> 25
 4.691905e-001 2.499091e-001 -1.690390e+000 2.744757e-001 3.032872e-001 1.231503e+000 5.134915e-001 -7.694826e-001 2.680698e-001 -3.968364e-002 3.634960e-002 2.561236e-001 4.690483e-002 -5.156838e-003 -1.493297e-002 -1.093742e-002 5.637352e-003 -1.603958e-002 8.335105e-003 3.637521e-003 -4.099788e-004 -5.063808e-003 -6.505672e-003 2.180602e-004 4.153579e-002
<VARIANCE> 25
 1.819476e+002 1.188707e+002 1.188902e+002 1.094336e+002 6.600818e+001 6.102829e+001 5.289248e+001 6.077840e+001 6.683683e+001 3.667093e+001 3.386255e+001 2.700383e+001 2.407952e+000 3.196869e+000 2.714943e+000 3.717425e+000 2.447816e+000 2.458341e+000 2.449764e+000 2.933158e+000 2.974092e+000 2.127780e+000 1.787616e+000 1.625001e+000 2.799876e+000
<GCONST> 1.084618e+002
<STATE> 4
<MEAN> 25
 1.078197e+000 1.571963e-001 -1.682142e+000 8.719756e-002 3.428955e-001 1.144882e+000 5.770627e-001 -8.833920e-001 1.031993e-001 -9.362599e-002 -1.473519e-002 1.998153e-001 5.143654e-002 -4.422134e-003 -6.723259e-003 -4.784877e-003 2.677957e-003 -1.529647e-002 1.429930e-003 4.361209e-004 -7.369837e-003 -1.023861e-002 -6.909836e-003 -2.722742e-003 4.465220e-002
<VARIANCE> 25
 1.770637e+002 1.269740e+002 1.215841e+002 1.167471e+002 6.924982e+001 6.300925e+001 5.359774e+001 6.333747e+001 6.983714e+001 3.880186e+001 3.377399e+001 2.721445e+001 2.589800e+000 3.334795e+000 2.813861e+000 3.903840e+000 2.519163e+000 2.535837e+000 2.500884e+000 3.029173e+000 3.100051e+000 2.167067e+000 1.788910e+000 1.635946e+000 2.994506e+000
<GCONST> 1.092744e+002
<TRANSP> 5
 0.000000e+000 1.000000e+000 0.000000e+000 0.000000e+000 0.000000e+000
 0.000000e+000 7.721894e-001 2.278106e-001 0.000000e+000 0.000000e+000
 0.000000e+000 0.000000e+000 7.721894e-001 2.278106e-001 0.000000e+000
 0.000000e+000 0.000000e+000 0.000000e+000 9.073295e-001 9.267052e-002
 0.000000e+000 0.000000e+000 0.000000e+000 0.000000e+000 0.000000e+000
<ENDHMM>
~h "n"
<BEGINHMM>
<NUMSTATES> 5
<STATE> 2
<MEAN> 25
 1.908347e+000 -9.571377e-001 2.026471e-001 1.175285e+000 1.203249e-001 -8.465265e-001 2.734573e-001 9.627973e-001 -4.581377e-002 1.025227e-001 -6.889258e-001 -3.094086e-001 1.153146e-002 2.128653e-002 2.056894e-002 2.238265e-002 -1.706106e-003 1.084931e-002 -9.610965e-003 -2.062348e-002 -1.316370e-002 -7.230245e-003 3.225731e-003 -2.237178e-003 -1.874358e-002
<VARIANCE> 25
 1.035351e+002 1.239331e+002 1.208202e+002 1.055030e+002 5.667700e+001 5.823870e+001 5.654529e+001 6.307992e+001 4.880413e+001 3.921116e+001 3.342756e+001 2.833077e+001 1.941278e+000 3.849367e+000 2.828538e+000 3.585338e+000 3.017792e+000 2.588603e+000 3.077467e+000 3.345048e+000 2.696189e+000 2.293985e+000 1.868705e+000 1.857095e+000 3.051374e+000
<GCONST> 1.084482e+002
<STATE> 3
<MEAN> 25
 1.938609e+000 -8.538041e-001 2.873537e-001 1.250470e+000 1.054447e-001 -7.983562e-001 2.303055e-001 8.518238e-001 -1.109079e-001 7.858497e-002 -6.812525e-001 -3.142254e-001 4.854728e-003 2.464091e-002 2.324811e-002 1.769138e-002 -4.937137e-003 1.466913e-002 -1.421496e-002 -2.814493e-002 -1.569252e-002 -5.668229e-003 4.569790e-003 1.418894e-003 -2.444166e-002
<VARIANCE> 25
 1.031533e+002 1.236995e+002 1.207292e+002 1.054596e+002 5.640368e+001 5.857981e+001 5.594727e+001 6.301785e+001 4.900681e+001 3.914122e+001 3.324342e+001 2.843973e+001 1.932104e+000 3.812467e+000 2.796546e+000 3.586693e+000 3.003681e+000 2.567052e+000 3.030871e+000 3.324585e+000 2.704932e+000 2.283911e+000 1.860134e+000 1.855251e+000 3.023091e+000
<GCONST> 1.083556e+002
<STATE> 4
<MEAN> 25
 2.051216e+000 -6.224414e-001 6.404246e-001 1.248778e+000 -3.296380e-002 -7.245687e-001 -1.417557e-002 5.635799e-001 -3.003176e-001 1.317708e-002 -6.891847e-001 -2.340793e-001 -4.132695e-003 2.818723e-002 1.778957e-002 1.008460e-002 -8.094120e-003 8.152401e-003 -1.371863e-002 -3.225262e-002 -1.955417e-002 -1.923741e-003 5.890442e-003 6.906922e-003 -2.598299e-002
<VARIANCE> 25
 1.070392e+002 1.293582e+002 1.267867e+002 1.120095e+002 5.693168e+001 5.960705e+001 5.272665e+001 6.335361e+001 5.073785e+001 4.033818e+001 3.334650e+001 2.884532e+001 2.009585e+000 3.920600e+000 2.814858e+000 3.748899e+000 3.027511e+000 2.567815e+000 2.899321e+000 3.325922e+000 2.766264e+000 2.287905e+000 1.860101e+000 1.869501e+000 3.174556e+000
<GCONST> 1.087643e+002
<TRANSP> 5
 0.000000e+000 1.000000e+000 0.000000e+000 0.000000e+000 0.000000e+000
 0.000000e+000 7.615498e-001 2.384502e-001 0.000000e+000 0.000000e+000
 0.000000e+000 0.000000e+000 7.615499e-001 2.384501e-001 0.000000e+000
 0.000000e+000 0.000000e+000 0.000000e+000 8.975437e-001 1.024563e-001
 0.000000e+000 0.000000e+000 0.000000e+000 0.000000e+000 0.000000e+000
<ENDHMM>
~h "o"
<BEGINHMM>
<NUMSTATES> 5
<STATE> 2
<MEAN> 25
 2.650626e+000 -3.322097e+000 4.462755e+000 -5.235631e+000 -1.090132e+000 -1.308208e+000 -1.968228e+000 1.909611e+000 -2.365354e+000 4.006458e+000 -7.013926e-001 -8.473434e-001 -6.255922e-002 5.064349e-002 -6.097275e-002 -3.540012e-002 2.582098e-002 -3.759881e-002 3.522290e-002 1.695015e-002 2.696370e-002 8.561880e-003 -1.275441e-002 5.131554e-004 -6.967833e-002
<VARIANCE> 25
 1.084190e+002 7.043559e+001 1.121922e+002 1.728496e+002 2.948155e+001 6.531695e+001 3.796190e+001 6.450018e+001 4.926417e+001 5.471516e+001 3.717797e+001 2.090852e+001 2.524386e+000 2.633333e+000 3.293163e+000 6.418570e+000 2.215458e+000 3.523446e+000 2.781752e+000 2.960253e+000 2.947480e+000 2.848921e+000 2.053321e+000 1.540092e+000 3.363519e+000
<GCONST> 1.082825e+002
<STATE> 3
<MEAN> 25
 2.342242e+000 -3.083382e+000 4.141408e+000 -5.338828e+000 -9.755253e-001 -1.454471e+000 -1.789761e+000 1.965877e+000 -2.221195e+000 4.013229e+000 -7.440006e-001 -8.455263e-001 -8.584480e-002 6.274290e-002 -8.868153e-002 9.751700e-003 2.284748e-002 -3.160606e-002 4.868429e-002 1.281958e-002 4.155954e-002 -1.382687e-002 -6.583130e-003 -3.339484e-004 -1.113334e-001
<VARIANCE> 25
 1.097142e+002 6.973599e+001 1.066625e+002 1.712237e+002 2.824899e+001 6.841998e+001 3.864706e+001 6.666444e+001 4.595482e+001 5.365119e+001 3.784399e+001 2.056470e+001 2.604907e+000 2.642731e+000 3.260854e+000 6.434415e+000 2.132447e+000 3.554904e+000 2.790141e+000 2.934858e+000 2.818794e+000 2.829169e+000 2.039268e+000 1.550320e+000 3.490579e+000
<GCONST> 1.081689e+002
<STATE> 4
<MEAN> 25
 1.712178e+000 -2.648043e+000 3.472389e+000 -5.223453e+000 -8.538576e-001 -1.475904e+000 -1.428562e+000 1.856051e+000 -1.939690e+000 3.863001e+000 -6.875358e-001 -8.802379e-001 -1.073791e-001 7.441404e-002 -1.200287e-001 6.592735e-002 1.724763e-002 -1.397150e-002 6.415062e-002 -2.106553e-003 5.838089e-002 -4.095180e-002 9.279551e-003 -3.530360e-003 -1.543173e-001
<VARIANCE> 25
 1.127493e+002 7.051851e+001 1.004492e+002 1.679283e+002 2.675801e+001 7.227235e+001 3.954445e+001 6.936420e+001 4.178777e+001 5.264986e+001 3.925637e+001 2.084746e+001 2.762869e+000 2.672950e+000 3.245933e+000 6.416409e+000 2.024066e+000 3.575140e+000 2.745513e+000 2.862014e+000 2.635079e+000 2.799758e+000 2.006530e+000 1.583456e+000 3.694264e+000
<GCONST> 1.080864e+002
<TRANSP> 5
 0.000000e+000 1.000000e+000 0.000000e+000 0.000000e+000 0.000000e+000
 0.000000e+000 7.745066e-001 2.254934e-001 0.000000e+000 0.000000e+000
 0.000000e+000 0.000000e+000 7.745068e-001 2.254932e-001 0.000000e+000
 0.000000e+000 0.000000e+000 0.000000e+000 9.024234e-001 9.757652e-002
 0.000000e+000 0.000000e+000 0.000000e+000 0.000000e+000 0.000000e+000
<ENDHMM>
~h "p"
<BEGINHMM>
<NUMSTATES> 5
<STATE> 2
<MEAN> 25
 9.241433e-001 1.755705e-001 4.501935e-001 -8.446389e-001 -1.782928e-002 1.128293e-001 -9.726446e-001 -5.317526e-001 -7.845142e-001 -1.812200e-001 1.662602e-001 6.408383e-002 2.837776e-002 1.828795e-002 -8.800981e-003 -9.010364e-003 -1.376345e-002 3.780890e-003 -1.004234e-002 -4.089358e-003 -1.427076e-002 1.041752e-002 2.177249e-003 8.361210e-003 7.395075e-003
<VARIANCE> 25
 1.168070e+002 1.002810e+002 1.234773e+002 1.137998e+002 6.774186e+001 5.524391e+001 5.164635e+001 5.265399e+001 5.987725e+001 3.497008e+001 3.227748e+001 2.851824e+001 2.639614e+000 3.713538e+000 3.405712e+000 4.680684e+000 3.216780e+000 2.661139e+000 2.800086e+000 2.870777e+000 2.897281e+000 2.301168e+000 1.885117e+000 1.849251e+000 3.681124e+000
<GCONST> 1.092053e+002
<STATE> 3
<MEAN> 25
 1.036407e+000 2.536731e-001 4.159543e-001 -8.582217e-001 -1.009826e-001 1.252826e-001 -9.997901e-001 -5.434577e-001 -8.391136e-001 -1.600564e-001 1.839191e-001 7.543056e-002 2.274813e-002 1.834284e-002 -1.409122e-002 -5.290665e-003 -1.401766e-002 2.557510e-004 -2.211644e-003 -2.400217e-003 -9.643830e-003 1.126879e-002 4.358324e-003 2.966162e-003 4.430521e-003
<VARIANCE> 25
 1.138783e+002 1.004594e+002 1.243413e+002 1.139041e+002 6.730521e+001 5.515841e+001 5.154800e+001 5.239314e+001 5.943826e+001 3.472233e+001 3.188647e+001 2.854941e+001 2.623693e+000 3.734528e+000 3.403959e+000 4.698372e+000 3.198228e+000 2.646314e+000 2.792422e+000 2.870938e+000 2.871687e+000 2.301263e+000 1.876992e+000 1.856439e+000 3.658996e+000
<GCONST> 1.091226e+002
<STATE> 4
<MEAN> 25
 1.303127e+000 3.494556e-001 3.745070e-001 -8.027460e-001 -1.700482e-001 8.523455e-002 -9.665748e-001 -5.433564e-001 -9.581203e-001 -2.283964e-001 1.780167e-001 2.582280e-002 1.057400e-002 1.908063e-002 -1.646833e-002 3.138895e-003 -1.864514e-002 -2.311321e-003 6.484765e-003 1.828898e-003 -2.491195e-003 4.021978e-003 5.834382e-003 -5.212652e-003 -6.216775e-003
<VARIANCE> 25
 1.155432e+002 1.067155e+002 1.311787e+002 1.184179e+002 6.816644e+001 5.535962e+001 5.008187e+001 5.275053e+001 5.989822e+001 3.439199e+001 3.195621e+001 2.866437e+001 2.695729e+000 3.899423e+000 3.444749e+000 4.747190e+000 3.146458e+000 2.618806e+000 2.770258e+000 2.855961e+000 2.852462e+000 2.285106e+000 1.859035e+000 1.860152e+000 3.766091e+000
<GCONST> 1.093486e+002
<TRANSP> 5
 0.000000e+000 1.000000e+000 0.000000e+000 0.000000e+000 0.000000e+000
 0.000000e+000 7.633908e-001 2.366091e-001 0.000000e+000 0.000000e+000
 0.000000e+000 0.000000e+000 7.633895e-001 2.366106e-001 0.000000e+000
 0.000000e+000 0.000000e+000 0.000000e+000 8.999133e-001 1.000867e-001
 0.000000e+000 0.000000e+000 0.000000e+000 0.000000e+000 0.000000e+000
<ENDHMM>
~h "r"
<BEGINHMM>
<NUMSTATES> 5
<STATE> 2
<MEAN> 25
 2.016008e+000 -7.170344e-001 -2.123950e-001 -2.828691e-003 -8.925768e-001 -1.750739e-001 -7.517378e-001 2.215694e-001 5.282781e-001 -1.717907e-001 -1.426274e-001 1.672269e-001 -3.496090e-002 1.468890e-002 -2.653760e-003 1.278926e-002 2.237514e-003 -1.924739e-002 5.534259e-003 -4.379011e-003 1.141299e-002 -4.863631e-003 -2.363278e-003 3.377803e-003 -2.624154e-002
<VARIANCE> 25
 1.215565e+002 1.272542e+002 1.361500e+002 1.187104e+002 6.849772e+001 6.318317e+001 5.283376e+001 6.000403e+001 6.157415e+001 3.968700e+001 3.668219e+001 3.033072e+001 2.302292e+000 3.214890e+000 2.961078e+000 4.066154e+000 2.973183e+000 2.818624e+000 2.604082e+000 2.956597e+000 2.879314e+000 2.510016e+000 2.102581e+000 1.875816e+000 2.862636e+000
<GCONST> 1.095928e+002
<STATE> 3
<MEAN> 25
 1.856026e+000 -6.573359e-001 -2.262351e-001 4.201291e-002 -8.775730e-001 -2.494032e-001 -7.133017e-001 2.027151e-001 5.855073e-001 -1.937010e-001 -1.604126e-001 1.735556e-001 -4.219577e-002 1.071677e-002 3.507333e-003 7.024043e-003 5.753165e-003 -1.677151e-002 1.013917e-002 -4.825724e-003 5.967827e-003 -5.037578e-003 -4.182475e-003 1.505144e-003 -2.708746e-002
<VARIANCE> 25
 1.243257e+002 1.272222e+002 1.359271e+002 1.166684e+002 6.912617e+001 6.340016e+001 5.285648e+001 6.001249e+001 6.079806e+001 3.958777e+001 3.681276e+001 3.006079e+001 2.274032e+000 3.167267e+000 2.949138e+000 4.024685e+000 2.967563e+000 2.807173e+000 2.580672e+000 2.931660e+000 2.864178e+000 2.512513e+000 2.108047e+000 1.864291e+000 2.821555e+000
<GCONST> 1.095013e+002
<STATE> 4
<MEAN> 25
 1.664297e+000 -6.858738e-001 -1.550173e-001 1.321334e-001 -8.052799e-001 -3.517624e-001 -6.425217e-001 1.733429e-001 6.771703e-001 -2.456807e-001 -2.459295e-001 1.686443e-001 -5.206558e-002 7.414020e-003 5.637543e-003 1.122807e-003 1.142604e-002 -9.422598e-003 1.687657e-002 -5.887676e-003 5.046261e-003 -5.032093e-003 -5.669870e-003 -1.169407e-003 -3.236990e-002
<VARIANCE> 25
 1.310007e+002 1.284399e+002 1.379663e+002 1.158820e+002 7.160938e+001 6.398105e+001 5.331346e+001 5.962365e+001 6.070330e+001 3.961571e+001 3.692857e+001 2.956169e+001 2.286219e+000 3.137240e+000 2.978337e+000 4.018961e+000 2.983789e+000 2.808508e+000 2.576258e+000 2.881218e+000 2.847039e+000 2.524841e+000 2.091392e+000 1.846831e+000 2.814591e+000
<GCONST> 1.095735e+002
<TRANSP> 5
 0.000000e+000 1.000000e+000 0.000000e+000 0.000000e+000 0.000000e+000
 0.000000e+000 7.699724e-001 2.300277e-001 0.000000e+000 0.000000e+000
 0.000000e+000 0.000000e+000 7.699722e-001 2.300278e-001 0.000000e+000
 0.000000e+000 0.000000e+000 0.000000e+000 9.025537e-001 9.744636e-002
 0.000000e+000 0.000000e+000 0.000000e+000 0.000000e+000 0.000000e+000
<ENDHMM>
~h "s"
<BEGINHMM>
<NUMSTATES> 5
<STATE> 2
<MEAN> 25
 -9.240667e-001 -4.678547e-001 2.919120e+000 -2.089319e+000 2.407645e+000 -2.834054e+000 1.447507e+000 -1.291495e+000 -3.950003e-001 2.289162e-001 -6.709451e-001 3.955247e-001 -3.689656e-002 3.905464e-002 -2.342176e-002 -9.795993e-004 1.453360e-002 -6.254975e-003 -7.114868e-003 -1.870519e-002 7.247027e-003 -1.146447e-003 -7.825288e-003 -8.983436e-003 -5.903343e-002
<VARIANCE> 25
 1.387340e+002 1.236261e+002 1.366633e+002 8.838425e+001 1.244092e+002 7.683627e+001 6.388197e+001 5.718123e+001 5.072430e+001 3.153353e+001 3.505442e+001 2.655291e+001 3.074718e+000 2.941489e+000 3.429892e+000 3.396530e+000 3.476118e+000 2.916753e+000 2.591195e+000 3.055152e+000 2.612389e+000 2.256060e+000 1.923481e+000 1.814386e+000 3.140048e+000
<GCONST> 1.098887e+002
<STATE> 3
<MEAN> 25
 -1.112277e+000 -2.857811e-001 2.804939e+000 -2.088676e+000 2.470684e+000 -2.853531e+000 1.415376e+000 -1.356845e+000 -3.640586e-001 2.218260e-001 -6.896281e-001 3.617351e-001 -3.094019e-002 3.850846e-002 -2.429861e-002 6.830030e-003 -3.338462e-003 -1.003870e-003 -1.759085e-002 -1.226084e-002 5.753472e-003 -1.602648e-003 -1.911681e-003 -1.324721e-002 -7.520745e-002
<VARIANCE> 25
 1.385680e+002 1.221715e+002 1.358221e+002 8.741596e+001 1.242903e+002 7.647561e+001 6.309255e+001 5.631144e+001 5.021538e+001 3.129058e+001 3.504195e+001 2.634417e+001 3.049284e+000 2.918928e+000 3.400470e+000 3.339159e+000 3.470299e+000 2.892354e+000 2.572322e+000 3.040649e+000 2.612763e+000 2.247719e+000 1.919276e+000 1.802166e+000 3.095675e+000
<GCONST> 1.097085e+002
<STATE> 4
<MEAN> 25
 -8.872473e-001 -4.348947e-001 2.523014e+000 -2.208759e+000 2.519305e+000 -2.818630e+000 1.400084e+000 -1.229483e+000 -1.784717e-001 1.892484e-001 -7.152267e-001 2.676652e-001 -2.845497e-002 3.849097e-002 -2.050768e-002 1.803611e-002 -1.834414e-002 1.303126e-002 -2.355553e-002 -3.077866e-003 1.495065e-003 -2.647949e-003 7.331206e-003 -1.386286e-002 -8.589062e-002
<VARIANCE> 25
 1.408844e+002 1.199902e+002 1.373184e+002 8.792181e+001 1.272437e+002 7.939219e+001 6.383994e+001 5.610883e+001 4.986602e+001 3.145637e+001 3.560658e+001 2.609940e+001 3.094513e+000 3.010788e+000 3.433839e+000 3.333109e+000 3.528097e+000 2.933585e+000 2.597309e+000 3.038051e+000 2.629639e+000 2.273292e+000 1.914729e+000 1.794990e+000 3.198867e+000
<GCONST> 1.099351e+002
<TRANSP> 5
 0.000000e+000 1.000000e+000 0.000000e+000 0.000000e+000 0.000000e+000
 0.000000e+000 7.654019e-001 2.345981e-001 0.000000e+000 0.000000e+000
 0.000000e+000 0.000000e+000 7.654023e-001 2.345978e-001 0.000000e+000
 0.000000e+000 0.000000e+000 0.000000e+000 9.004573e-001 9.954277e-002
 0.000000e+000 0.000000e+000 0.000000e+000 0.000000e+000 0.000000e+000
<ENDHMM>
~h "t"
<BEGINHMM>
<NUMSTATES> 5
<STATE> 2
<MEAN> 25
 -1.575185e+000 4.328085e-001 -6.122733e-001 8.078378e-002 -4.456118e-001 2.137430e-001 3.563121e-001 6.243027e-001 -3.148711e-001 -1.172690e-001 6.241603e-001 8.546843e-002 1.549793e-002 1.234362e-002 4.765729e-002 -4.167851e-002 -1.388304e-002 -1.880181e-003 -1.917607e-002 3.567590e-003 -3.680597e-002 1.297052e-003 -1.353951e-003 -4.077360e-003 3.590464e-002
<VARIANCE> 25
 1.705697e+002 9.990312e+001 1.566398e+002 1.182984e+002 6.454894e+001 5.825760e+001 5.685488e+001 5.270401e+001 6.886377e+001 3.535339e+001 3.314978e+001 2.515814e+001 2.345366e+000 3.056070e+000 3.600719e+000 4.041646e+000 2.860928e+000 2.646414e+000 2.702296e+000 2.771446e+000 3.090260e+000 2.118344e+000 1.830314e+000 1.735195e+000 3.193902e+000
<GCONST> 1.091596e+002
<STATE> 3
<MEAN> 25
 -1.484084e+000 4.691232e-001 -4.040551e-001 -1.204790e-001 -5.091657e-001 2.099257e-001 2.655797e-001 6.461227e-001 -4.649089e-001 -8.828876e-002 6.233928e-001 6.737151e-002 1.592268e-002 1.467426e-002 5.560997e-002 -4.680458e-002 -1.618515e-002 -5.534663e-004 -2.632335e-002 2.345726e-003 -3.380051e-002 7.488284e-003 -1.617104e-003 -2.507978e-003 4.149540e-002
<VARIANCE> 25
 1.673194e+002 1.000422e+002 1.584999e+002 1.198064e+002 6.532868e+001 5.752735e+001 5.761922e+001 5.238365e+001 6.976786e+001 3.537587e+001 3.316279e+001 2.521337e+001 2.399769e+000 3.086845e+000 3.706028e+000 4.136392e+000 2.898711e+000 2.674998e+000 2.759291e+000 2.782377e+000 3.159295e+000 2.123021e+000 1.849616e+000 1.748342e+000 3.304010e+000
<GCONST> 1.093990e+002
<STATE> 4
<MEAN> 25
 -1.184516e+000 5.665569e-001 8.672283e-002 -6.434182e-001 -7.265831e-001 2.436347e-001 5.254510e-002 6.025198e-001 -8.627092e-001 -1.449194e-003 6.375844e-001 -2.108884e-004 2.990772e-002 3.729586e-003 5.911554e-002 -5.486429e-002 -1.769621e-002 -8.816859e-004 -2.794158e-002 1.127791e-003 -3.539127e-002 9.405534e-003 -3.601335e-003 -3.445238e-003 5.743290e-002
<VARIANCE> 25
 1.646365e+002 1.038516e+002 1.664900e+002 1.251666e+002 6.800598e+001 5.681134e+001 5.779675e+001 5.204541e+001 7.240652e+001 3.575686e+001 3.361234e+001 2.547283e+001 2.566941e+000 3.173125e+000 3.991829e+000 4.382251e+000 2.943836e+000 2.744183e+000 2.808796e+000 2.785043e+000 3.291791e+000 2.148916e+000 1.893633e+000 1.770578e+000 3.687524e+000
<GCONST> 1.100947e+002
<TRANSP> 5
 0.000000e+000 1.000000e+000 0.000000e+000 0.000000e+000 0.000000e+000
 0.000000e+000 7.633290e-001 2.366710e-001 0.000000e+000 0.000000e+000
 0.000000e+000 0.000000e+000 7.633297e-001 2.366703e-001 0.000000e+000
 0.000000e+000 0.000000e+000 0.000000e+000 8.965492e-001 1.034508e-001
 0.000000e+000 0.000000e+000 0.000000e+000 0.000000e+000 0.000000e+000
<ENDHMM>
~h "u"
<BEGINHMM>
<NUMSTATES> 5
<STATE> 2
<MEAN> 25
 4.566241e-001 1.817111e+000 -4.458914e-001 -7.664983e-001 -9.396233e-001 6.446580e-001 -9.191821e-001 -6.374126e-001 -6.206784e-001 -1.234381e-001 6.745402e-001 4.278510e-001 4.505461e-002 2.272692e-002 -1.406613e-002 -2.344667e-002 -4.904161e-003 5.427774e-003 -1.373906e-002 -1.634283e-002 -1.364042e-002 -1.006084e-003 -4.002584e-003 -6.946800e-003 1.997753e-002
<VARIANCE> 25
 1.519516e+002 1.030182e+002 1.360264e+002 1.367175e+002 6.401096e+001 5.238770e+001 5.380600e+001 5.415219e+001 6.848940e+001 3.919925e+001 3.313110e+001 2.853570e+001 2.417552e+000 3.069831e+000 3.021432e+000 4.428808e+000 3.037781e+000 2.553086e+000 2.677906e+000 2.800947e+000 2.989655e+000 2.301030e+000 2.009760e+000 1.830674e+000 2.890148e+000
<GCONST> 1.092322e+002
<STATE> 3
<MEAN> 25
 6.522527e-001 1.929898e+000 -5.066322e-001 -8.629557e-001 -9.535433e-001 6.728575e-001 -9.810349e-001 -7.094679e-001 -6.780210e-001 -1.316320e-001 6.502196e-001 3.907802e-001 4.275570e-002 2.189005e-002 -1.887234e-002 -2.339838e-002 -5.500905e-004 5.884793e-003 -9.183802e-003 -1.467134e-002 -1.240480e-002 -1.339223e-003 -6.980715e-003 -1.133764e-002 1.869098e-002
<VARIANCE> 25
 1.479589e+002 1.035954e+002 1.346753e+002 1.375578e+002 6.346413e+001 5.222098e+001 5.356130e+001 5.368675e+001 6.815576e+001 3.929718e+001 3.301693e+001 2.870616e+001 2.434896e+000 3.094673e+000 2.983968e+000 4.430792e+000 3.017718e+000 2.553847e+000 2.685876e+000 2.778196e+000 2.988209e+000 2.311503e+000 2.008839e+000 1.842124e+000 2.893215e+000
<GCONST> 1.091850e+002
<STATE> 4
<MEAN> 25
 1.194057e+000 2.175180e+000 -6.700778e-001 -1.068251e+000 -9.575408e-001 6.809654e-001 -1.002545e+000 -8.631101e-001 -8.023294e-001 -1.675554e-001 5.130118e-001 2.372178e-001 3.207489e-002 1.769621e-002 -2.094604e-002 -2.123184e-002 3.701127e-003 4.261228e-003 -8.489171e-003 -1.210651e-002 -7.764916e-003 -2.041648e-003 -7.971096e-003 -1.370603e-002 1.295938e-002
<VARIANCE> 25
 1.439632e+002 1.092526e+002 1.353351e+002 1.423878e+002 6.368775e+001 5.202367e+001 5.340054e+001 5.405079e+001 6.923821e+001 4.059754e+001 3.287569e+001 2.892439e+001 2.512161e+000 3.206319e+000 3.013558e+000 4.528252e+000 2.964809e+000 2.579928e+000 2.739778e+000 2.757085e+000 3.007790e+000 2.346977e+000 2.009230e+000 1.853494e+000 3.004262e+000
<GCONST> 1.094741e+002
<TRANSP> 5
 0.000000e+000 1.000000e+000 0.000000e+000 0.000000e+000 0.000000e+000
 0.000000e+000 7.686243e-001 2.313757e-001 0.000000e+000 0.000000e+000
 0.000000e+000 0.000000e+000 7.686234e-001 2.313766e-001 0.000000e+000
 0.000000e+000 0.000000e+000 0.000000e+000 9.024088e-001 9.759120e-002
 0.000000e+000 0.000000e+000 0.000000e+000 0.000000e+000 0.000000e+000
<ENDHMM>
~h "w"
<BEGINHMM>
<NUMSTATES> 5
<STATE> 2
<MEAN> 25
 -9.796393e-002 7.648900e-001 -8.380552e-001 -1.254837e+000 -2.002988e-001 -2.231251e-001 -9.736128e-001 -1.960390e-001 2.934436e-001 2.127976e-001 -4.418797e-002 -2.972246e-001 3.932594e-002 -2.737108e-002 4.417429e-002 -5.658689e-002 4.672395e-003 3.428473e-002 4.877291e-003 1.464779e-002 -1.040143e-002 3.304283e-002 -1.462353e-002 -1.342645e-002 6.074621e-002
<VARIANCE> 25
 1.554028e+002 1.649511e+002 8.184483e+001 1.680114e+002 5.591268e+001 7.150036e+001 4.609847e+001 4.830610e+001 3.659179e+001 4.444224e+001 3.494403e+001 3.068901e+001 2.494494e+000 4.265162e+000 2.421745e+000 3.773253e+000 3.394135e+000 3.769464e+000 2.895032e+000 2.647197e+000 2.365010e+000 2.567136e+000 1.859988e+000 2.127396e+000 2.781519e+000
<GCONST> 1.093655e+002
<STATE> 3
<MEAN> 25
 6.277864e-002 6.125795e-001 -6.150950e-001 -1.500534e+000 -1.884060e-001 -1.072344e-001 -9.566787e-001 -1.010363e-001 2.625683e-001 3.816906e-001 -1.048962e-001 -3.512972e-001 3.549459e-002 -3.510140e-002 5.214761e-002 -5.258286e-002 4.084437e-003 2.219370e-002 3.195571e-003 2.207287e-002 -7.872936e-003 3.735524e-002 -1.340363e-002 -1.077884e-002 6.438886e-002
<VARIANCE> 25
 1.543092e+002 1.648826e+002 8.227386e+001 1.671886e+002 5.528569e+001 7.138446e+001 4.588549e+001 4.889407e+001 3.682096e+001 4.484011e+001 3.580657e+001 3.060557e+001 2.446891e+000 4.287160e+000 2.468290e+000 3.793073e+000 3.335196e+000 3.802249e+000 2.862638e+000 2.680137e+000 2.390895e+000 2.595997e+000 1.900413e+000 2.147270e+000 2.771836e+000
<GCONST> 1.094415e+002
<STATE> 4
<MEAN> 25
 6.172341e-001 3.651692e-001 -1.677810e-001 -1.926573e+000 -1.526133e-001 -2.313018e-001 -9.949840e-001 1.375432e-001 1.756019e-001 7.354471e-001 -3.089586e-001 -4.993424e-001 3.803179e-002 -4.977119e-002 7.381622e-002 -5.010416e-002 -6.981439e-003 9.420670e-004 -2.256834e-003 3.577609e-002 -1.324628e-002 3.260876e-002 -1.846777e-002 -4.618092e-003 7.912304e-002
<VARIANCE> 25
 1.472868e+002 1.695598e+002 8.300616e+001 1.682867e+002 5.468237e+001 7.045963e+001 4.599273e+001 5.194171e+001 3.797375e+001 4.738345e+001 3.843087e+001 3.116157e+001 2.369948e+000 4.343111e+000 2.616871e+000 3.750809e+000 3.238331e+000 3.724331e+000 2.854898e+000 2.800866e+000 2.434171e+000 2.666720e+000 1.972437e+000 2.139317e+000 2.748239e+000
<GCONST> 1.097410e+002
<TRANSP> 5
 0.000000e+000 1.000000e+000 0.000000e+000 0.000000e+000 0.000000e+000
 0.000000e+000 7.696692e-001 2.303309e-001 0.000000e+000 0.000000e+000
 0.000000e+000 0.000000e+000 7.696684e-001 2.303316e-001 0.000000e+000
 0.000000e+000 0.000000e+000 0.000000e+000 8.988456e-001 1.011544e-001
 0.000000e+000 0.000000e+000 0.000000e+000 0.000000e+000 0.000000e+000
<ENDHMM>
~h "y"
<BEGINHMM>
<NUMSTATES> 5
<STATE> 2
<MEAN> 25
 1.565769e-007 -6.290797e-008 -2.937665e-007 -4.371385e-008 5.392831e-009 -1.134847e-007 1.048326e-008 1.461609e-009 6.497437e-008 2.474654e-008 2.793856e-008 3.496100e-008 6.361995e-003 4.308552e-003 2.542655e-003 -9.878381e-004 4.629357e-004 7.091404e-004 -2.578934e-003 -6.028318e-003 -4.543920e-003 -2.417521e-003 -2.678531e-003 -6.849539e-003 3.474661e-003
<VARIANCE> 25
 1.482363e+002 1.186289e+002 1.358767e+002 1.150533e+002 6.856859e+001 5.959438e+001 5.340210e+001 5.644455e+001 5.966214e+001 3.805057e+001 3.493165e+001 2.775295e+001 2.220379e+000 3.354012e+000 3.076584e+000 3.783211e+000 3.009660e+000 2.603472e+000 2.703241e+000 2.901384e+000 2.795699e+000 2.264799e+000 1.906537e+000 1.789198e+000 2.980222e+000
<GCONST> 1.090549e+002
<STATE> 3
<MEAN> 25
 1.565769e-007 -6.290797e-008 -2.937665e-007 -4.371385e-008 5.392831e-009 -1.134847e-007 1.048326e-008 1.461609e-009 6.497437e-008 2.474654e-008 2.793856e-008 3.496100e-008 6.361995e-003 4.308552e-003 2.542655e-003 -9.878381e-004 4.629357e-004 7.091404e-004 -2.578934e-003 -6.028318e-003 -4.543920e-003 -2.417521e-003 -2.678531e-003 -6.849539e-003 3.474661e-003
<VARIANCE> 25
 1.482363e+002 1.186289e+002 1.358767e+002 1.150533e+002 6.856859e+001 5.959438e+001 5.340210e+001 5.644455e+001 5.966214e+001 3.805057e+001 3.493165e+001 2.775295e+001 2.220379e+000 3.354012e+000 3.076584e+000 3.783211e+000 3.009660e+000 2.603472e+000 2.703241e+000 2.901384e+000 2.795699e+000 2.264799e+000 1.906537e+000 1.789198e+000 2.980222e+000
<GCONST> 1.090549e+002
<STATE> 4
<MEAN> 25
 1.565769e-007 -6.290797e-008 -2.937665e-007 -4.371385e-008 5.392831e-009 -1.134847e-007 1.048326e-008 1.461609e-009 6.497437e-008 2.474654e-008 2.793856e-008 3.496100e-008 6.361995e-003 4.308552e-003 2.542655e-003 -9.878381e-004 4.629357e-004 7.091404e-004 -2.578934e-003 -6.028318e-003 -4.543920e-003 -2.417521e-003 -2.678531e-003 -6.849539e-003 3.474661e-003
<VARIANCE> 25
 1.482363e+002 1.186289e+002 1.358767e+002 1.150533e+002 6.856859e+001 5.959438e+001 5.340210e+001 5.644455e+001 5.966214e+001 3.805057e+001 3.493165e+001 2.775295e+001 2.220379e+000 3.354012e+000 3.076584e+000 3.783211e+000 3.009660e+000 2.603472e+000 2.703241e+000 2.901384e+000 2.795699e+000 2.264799e+000 1.906537e+000 1.789198e+000 2.980222e+000
<GCONST> 1.090549e+002
<TRANSP> 5
 0.000000e+000 1.000000e+000 0.000000e+000 0.000000e+000 0.000000e+000
 0.000000e+000 6.000000e-001 4.000000e-001 0.000000e+000 0.000000e+000
 0.000000e+000 0.000000e+000 6.000000e-001 4.000000e-001 0.000000e+000
 0.000000e+000 0.000000e+000 0.000000e+000 7.000000e-001 3.000000e-001
 0.000000e+000 0.000000e+000 0.000000e+000 0.000000e+000 0.000000e+000
<ENDHMM>
~h "ay"
<BEGINHMM>
<NUMSTATES> 5
<STATE> 2
<MEAN> 25
 -8.597439e+000 -8.594923e-001 -6.015945e+000 2.780915e+000 1.331936e+000 2.440850e+000 3.925991e+000 2.053440e+000 3.280002e+000 -1.451629e-001 1.485746e+000 1.382195e+000 1.993852e-001 -7.802340e-002 5.567398e-002 -3.281064e-002 -3.566413e-002 2.747812e-002 -2.584757e-002 -1.638017e-002 -5.230523e-002 -6.989651e-002 -8.641436e-003 6.969097e-004 1.926780e-001
<VARIANCE> 25
 2.140928e+002 8.675474e+001 8.394448e+001 6.480942e+001 5.041401e+001 4.272795e+001 3.376840e+001 3.906960e+001 4.390218e+001 3.861797e+001 2.770222e+001 1.982557e+001 2.178988e+000 3.634260e+000 1.967337e+000 2.029926e+000 1.761210e+000 2.066974e+000 2.184658e+000 2.682140e+000 2.943059e+000 2.263937e+000 1.524005e+000 1.584673e+000 2.022038e+000
<GCONST> 1.029787e+002
<STATE> 3
<MEAN> 25
 -7.567370e+000 -1.216050e+000 -5.703512e+000 2.617481e+000 1.194766e+000 2.599029e+000 3.770666e+000 1.964851e+000 2.989570e+000 -4.637226e-001 1.423177e+000 1.391329e+000 2.281472e-001 -8.417428e-002 7.761613e-002 -5.280209e-002 -4.398835e-002 2.939333e-002 -3.507974e-002 -2.191776e-002 -7.128733e-002 -7.129861e-002 -8.303172e-003 -2.529839e-004 2.315592e-001
<VARIANCE> 25
 2.129309e+002 9.367158e+001 9.369411e+001 7.133363e+001 5.408887e+001 4.666958e+001 3.575285e+001 4.271473e+001 4.785844e+001 4.088126e+001 2.735487e+001 1.999378e+001 2.404614e+000 3.995799e+000 2.179969e+000 2.178505e+000 1.880109e+000 2.224865e+000 2.298075e+000 2.846251e+000 3.245840e+000 2.349535e+000 1.523929e+000 1.591724e+000 2.184128e+000
<GCONST> 1.045318e+002
<STATE> 4
<MEAN> 25
 -5.983079e+000 -2.144272e+000 -5.008125e+000 2.023509e+000 1.193944e+000 3.174216e+000 3.415685e+000 1.681040e+000 2.309836e+000 -8.174575e-001 1.442475e+000 1.608237e+000 2.457949e-001 -8.128851e-002 1.438904e-001 -9.640811e-002 -5.366680e-002 2.103645e-002 -5.069825e-002 -2.310763e-002 -9.056381e-002 -3.986692e-002 -4.540993e-003 -4.442133e-003 2.790963e-001
<VARIANCE> 25
 2.208266e+002 1.074933e+002 1.238216e+002 8.921886e+001 5.374154e+001 5.521965e+001 3.929222e+001 5.251355e+001 5.725537e+001 4.485046e+001 2.631532e+001 1.955119e+001 2.717735e+000 4.413069e+000 2.486828e+000 2.439733e+000 1.998766e+000 2.430013e+000 2.512346e+000 3.182440e+000 3.763457e+000 2.402189e+000 1.469622e+000 1.562351e+000 2.408363e+000
<GCONST> 1.069117e+002
<TRANSP> 5
 0.000000e+000 1.000000e+000 0.000000e+000 0.000000e+000 0.000000e+000
 0.000000e+000 7.636263e-001 2.363736e-001 0.000000e+000 0.000000e+000
 0.000000e+000 0.000000e+000 7.636262e-001 2.363738e-001 0.000000e+000
 0.000000e+000 0.000000e+000 0.000000e+000 8.994098e-001 1.005902e-001
 0.000000e+000 0.000000e+000 0.000000e+000 0.000000e+000 0.000000e+000
<ENDHMM>
~h "eh"
<BEGINHMM>
<NUMSTATES> 5
<STATE> 2
<MEAN> 25
 2.343729e-001 5.006700e-001 1.970863e+000 -7.636800e-001 -1.374681e+000 -2.172915e+000 1.569016e-001 2.090028e+000 -1.029009e+000 2.906329e-001 6.335499e-001 -1.794058e-001 -6.391473e-002 3.314971e-002 5.968811e-003 2.651105e-002 -1.471900e-002 6.672292e-003 1.286674e-002 9.819924e-003 3.835408e-003 -7.474195e-003 -1.577979e-002 1.254110e-002 7.586729e-003
<VARIANCE> 25
 1.248085e+002 1.319112e+002 1.480254e+002 8.905839e+001 8.284496e+001 6.297190e+001 6.309215e+001 7.001594e+001 5.955407e+001 3.198627e+001 3.665462e+001 2.547579e+001 2.415812e+000 3.022467e+000 2.932725e+000 3.184001e+000 2.859383e+000 2.504353e+000 2.687042e+000 3.274605e+000 2.535160e+000 2.074310e+000 1.721073e+000 1.621542e+000 2.833030e+000
<GCONST> 1.085800e+002
<STATE> 3
<MEAN> 25
 1.095754e-001 4.714071e-001 1.943475e+000 -6.849639e-001 -1.441903e+000 -2.138601e+000 2.425079e-001 2.189691e+000 -9.760325e-001 2.809243e-001 5.590127e-001 -1.584741e-001 -6.447363e-002 1.703828e-002 1.038722e-002 1.639280e-002 -1.090307e-002 8.140771e-003 1.234134e-002 1.550887e-003 3.163751e-003 -1.744031e-003 -1.628176e-002 1.546306e-002 3.266688e-002
<VARIANCE> 25
 1.284989e+002 1.377622e+002 1.440943e+002 8.828321e+001 8.354198e+001 6.133191e+001 6.215016e+001 6.848772e+001 5.952959e+001 3.208043e+001 3.740388e+001 2.519667e+001 2.507403e+000 3.072982e+000 2.967901e+000 3.163319e+000 2.811526e+000 2.482453e+000 2.653127e+000 3.325197e+000 2.568228e+000 2.097255e+000 1.734311e+000 1.601181e+000 2.954770e+000
<GCONST> 1.086707e+002
<STATE> 4
<MEAN> 25
 4.134049e-001 -2.617017e-001 2.334275e+000 -9.376265e-001 -1.719395e+000 -2.118413e+000 2.487682e-001 2.362015e+000 -9.577222e-001 4.541366e-001 4.296688e-001 -2.678919e-001 -1.795436e-002 -4.895036e-002 -8.993150e-003 -1.347440e-005 6.080128e-003 9.634171e-003 2.863877e-002 4.213147e-003 2.164597e-002 7.952862e-003 -3.016232e-002 9.602510e-003 7.663854e-002
<VARIANCE> 25
 1.367195e+002 1.543481e+002 1.409559e+002 8.952311e+001 8.749013e+001 6.135419e+001 5.971618e+001 6.950394e+001 5.931847e+001 3.246667e+001 4.033563e+001 2.492702e+001 2.759444e+000 3.208742e+000 3.098056e+000 3.219859e+000 2.829849e+000 2.492675e+000 2.573142e+000 3.441670e+000 2.611308e+000 2.162866e+000 1.818882e+000 1.585683e+000 3.416046e+000
<GCONST> 1.093772e+002
<TRANSP> 5
 0.000000e+000 1.000000e+000 0.000000e+000 0.000000e+000 0.000000e+000
 0.000000e+000 7.517503e-001 2.482497e-001 0.000000e+000 0.000000e+000
 0.000000e+000 0.000000e+000 7.517506e-001 2.482493e-001 0.000000e+000
 0.000000e+000 0.000000e+000 0.000000e+000 8.872682e-001 1.127318e-001
 0.000000e+000 0.000000e+000 0.000000e+000 0.000000e+000 0.000000e+000
<ENDHMM>
~h "ng"
<BEGINHMM>
<NUMSTATES> 5
<STATE> 2
<MEAN> 25
 3.306426e+000 5.169979e-001 -3.052937e+000 1.258843e-001 1.120910e+000 3.787186e+000 4.641395e-002 -2.232177e+000 1.856095e-001 -4.123131e-001 5.840226e-001 -5.473721e-001 -1.382048e-001 7.281169e-002 -5.586041e-002 5.006761e-002 2.901096e-002 -4.603468e-002 3.880638e-003 1.255650e-002 2.214837e-003 -2.631934e-002 3.879294e-003 -1.965608e-002 -1.577767e-001
<VARIANCE> 25
 9.614844e+001 1.226396e+002 8.532928e+001 1.101154e+002 6.272182e+001 5.754144e+001 4.308288e+001 4.183708e+001 4.188330e+001 4.171046e+001 2.504792e+001 2.638333e+001 1.703807e+000 2.961891e+000 2.232972e+000 2.976417e+000 2.560297e+000 2.208143e+000 2.415878e+000 2.623198e+000 2.460842e+000 2.280801e+000 1.600372e+000 1.838915e+000 2.552049e+000
<GCONST> 1.049502e+002
<STATE> 3
<MEAN> 25
 2.668438e+000 8.394848e-001 -3.275173e+000 3.397911e-001 1.226996e+000 3.567817e+000 6.410176e-002 -2.164234e+000 1.986086e-001 -5.190974e-001 6.013211e-001 -6.331217e-001 -1.538219e-001 5.833552e-002 -3.909107e-002 4.318829e-002 2.801530e-002 -5.118958e-002 1.358394e-003 2.867362e-002 6.396821e-003 -2.564805e-002 -4.049956e-003 -2.664244e-002 -1.565691e-001
<VARIANCE> 25
 1.032313e+002 1.215014e+002 8.388316e+001 1.077305e+002 6.098897e+001 5.652029e+001 4.250258e+001 4.067123e+001 4.165399e+001 4.118465e+001 2.434698e+001 2.610215e+001 1.699739e+000 2.911720e+000 2.249351e+000 2.929909e+000 2.562696e+000 2.177109e+000 2.409940e+000 2.591202e+000 2.435702e+000 2.273056e+000 1.592384e+000 1.835417e+000 2.532347e+000
<GCONST> 1.047438e+002
<STATE> 4
<MEAN> 25
 1.659454e+000 1.275307e+000 -3.381891e+000 7.066227e-001 1.420050e+000 3.267964e+000 3.778428e-002 -2.063951e+000 2.574106e-001 -6.383817e-001 5.615851e-001 -7.340293e-001 -1.648786e-001 3.444798e-002 -1.842281e-002 3.248433e-002 1.725472e-002 -5.409568e-002 6.916329e-003 4.440432e-002 1.021127e-002 -1.957338e-002 -8.879055e-003 -2.775077e-002 -1.457589e-001
<VARIANCE> 25
 1.162079e+002 1.206949e+002 8.505792e+001 1.043059e+002 6.004751e+001 5.576657e+001 4.122169e+001 3.965255e+001 4.218584e+001 4.073058e+001 2.346988e+001 2.606243e+001 1.769233e+000 2.912741e+000 2.347395e+000 2.920802e+000 2.606320e+000 2.165086e+000 2.394329e+000 2.568095e+000 2.422892e+000 2.277408e+000 1.600288e+000 1.860543e+000 2.614141e+000
<GCONST> 1.048384e+002
<TRANSP> 5
 0.000000e+000 1.000000e+000 0.000000e+000 0.000000e+000 0.000000e+000
 0.000000e+000 7.654876e-001 2.345125e-001 0.000000e+000 0.000000e+000
 0.000000e+000 0.000000e+000 7.654877e-001 2.345123e-001 0.000000e+000
 0.000000e+000 0.000000e+000 0.000000e+000 8.963770e-001 1.036230e-001
 0.000000e+000 0.000000e+000 0.000000e+000 0.000000e+000 0.000000e+000
<ENDHMM>
~h "ny"
<BEGINHMM>
<NUMSTATES> 5
<STATE> 2
<MEAN> 25
 -2.063169e+000 8.571543e-001 7.310563e-001 1.907479e-001 -1.099325e+000 2.939464e-001 2.182140e-001 7.378661e-001 -4.579641e-001 -4.712334e-002 9.762800e-001 9.876467e-001 1.181093e-002 -3.198821e-002 -2.460239e-002 -4.671391e-002 -6.522680e-002 3.616099e-003 9.337597e-002 8.458004e-002 7.953276e-002 -1.874591e-002 5.110261e-003 -2.603250e-003 5.614246e-002
<VARIANCE> 25
 1.542979e+002 8.534201e+001 1.337191e+002 8.521201e+001 5.997341e+001 3.704744e+001 4.064249e+001 4.172328e+001 5.482692e+001 2.807322e+001 3.307094e+001 2.643248e+001 1.500306e+000 2.525956e+000 2.622163e+000 2.895721e+000 2.710839e+000 1.897355e+000 2.383237e+000 2.518127e+000 2.376342e+000 1.914513e+000 1.757944e+000 1.643143e+000 1.836288e+000
<GCONST> 1.040003e+002
<STATE> 3
<MEAN> 25
 -2.007349e+000 7.131261e-001 6.229274e-001 4.043902e-002 -1.313803e+000 2.525918e-001 5.271713e-001 9.591646e-001 -1.698931e-001 -9.924030e-002 9.397523e-001 9.821912e-001 1.367640e-002 -5.454854e-002 -4.363701e-002 -4.182679e-002 -4.915776e-002 -2.262417e-002 9.317837e-002 5.976526e-002 9.690944e-002 -1.523620e-002 -2.660532e-002 -1.806099e-003 5.744643e-002
<VARIANCE> 25
 1.539316e+002 8.702180e+001 1.327091e+002 8.415443e+001 6.105772e+001 3.650620e+001 3.963298e+001 4.135859e+001 5.453234e+001 2.933412e+001 3.411897e+001 2.631373e+001 1.477628e+000 2.566541e+000 2.609040e+000 2.953522e+000 2.756585e+000 1.868800e+000 2.438316e+000 2.510336e+000 2.403129e+000 1.965473e+000 1.785462e+000 1.651664e+000 1.835023e+000
<GCONST> 1.041262e+002
<STATE> 4
<MEAN> 25
 -1.931595e+000 6.644403e-001 3.088876e-001 -1.621993e-001 -1.197969e+000 3.416551e-002 9.500089e-001 8.976866e-001 5.153243e-002 -1.303897e-002 6.880553e-001 6.874471e-001 3.753402e-002 -5.679428e-002 -4.293619e-002 -2.240339e-002 5.958935e-003 -1.400762e-002 6.867934e-002 1.366834e-002 5.890311e-002 -1.182752e-002 -4.712869e-002 -1.196510e-002 4.972430e-002
<VARIANCE> 25
 1.678920e+002 9.862335e+001 1.400209e+002 8.936936e+001 6.302462e+001 3.828173e+001 3.643472e+001 4.111212e+001 5.771623e+001 3.162176e+001 3.618924e+001 2.490781e+001 1.691038e+000 2.857149e+000 2.786807e+000 3.347581e+000 2.896992e+000 2.017903e+000 2.430880e+000 2.463988e+000 2.517446e+000 2.056914e+000 1.770878e+000 1.666627e+000 2.045147e+000
<GCONST> 1.053160e+002
<TRANSP> 5
 0.000000e+000 1.000000e+000 0.000000e+000 0.000000e+000 0.000000e+000
 0.000000e+000 7.516550e-001 2.483450e-001 0.000000e+000 0.000000e+000
 0.000000e+000 0.000000e+000 7.516557e-001 2.483443e-001 0.000000e+000
 0.000000e+000 0.000000e+000 0.000000e+000 8.860858e-001 1.139142e-001
 0.000000e+000 0.000000e+000 0.000000e+000 0.000000e+000 0.000000e+000
<ENDHMM>
~h "sp"
<BEGINHMM>
<NUMSTATES> 5
<STATE> 2
<MEAN> 25
 1.565769e-007 -6.290797e-008 -2.937665e-007 -4.371385e-008 5.392831e-009 -1.134847e-007 1.048326e-008 1.461609e-009 6.497437e-008 2.474654e-008 2.793856e-008 3.496100e-008 6.361995e-003 4.308552e-003 2.542655e-003 -9.878381e-004 4.629357e-004 7.091404e-004 -2.578934e-003 -6.028318e-003 -4.543920e-003 -2.417521e-003 -2.678531e-003 -6.849539e-003 3.474661e-003
<VARIANCE> 25
 1.482363e+002 1.186289e+002 1.358767e+002 1.150533e+002 6.856859e+001 5.959438e+001 5.340210e+001 5.644455e+001 5.966214e+001 3.805057e+001 3.493165e+001 2.775295e+001 2.220379e+000 3.354012e+000 3.076584e+000 3.783211e+000 3.009660e+000 2.603472e+000 2.703241e+000 2.901384e+000 2.795699e+000 2.264799e+000 1.906537e+000 1.789198e+000 2.980222e+000
<GCONST> 1.090549e+002
<STATE> 3
<MEAN> 25
 1.565769e-007 -6.290797e-008 -2.937665e-007 -4.371385e-008 5.392831e-009 -1.134847e-007 1.048326e-008 1.461609e-009 6.497437e-008 2.474654e-008 2.793856e-008 3.496100e-008 6.361995e-003 4.308552e-003 2.542655e-003 -9.878381e-004 4.629357e-004 7.091404e-004 -2.578934e-003 -6.028318e-003 -4.543920e-003 -2.417521e-003 -2.678531e-003 -6.849539e-003 3.474661e-003
<VARIANCE> 25
 1.482363e+002 1.186289e+002 1.358767e+002 1.150533e+002 6.856859e+001 5.959438e+001 5.340210e+001 5.644455e+001 5.966214e+001 3.805057e+001 3.493165e+001 2.775295e+001 2.220379e+000 3.354012e+000 3.076584e+000 3.783211e+000 3.009660e+000 2.603472e+000 2.703241e+000 2.901384e+000 2.795699e+000 2.264799e+000 1.906537e+000 1.789198e+000 2.980222e+000
<GCONST> 1.090549e+002
<STATE> 4
<MEAN> 25
 1.565769e-007 -6.290797e-008 -2.937665e-007 -4.371385e-008 5.392831e-009 -1.134847e-007 1.048326e-008 1.461609e-009 6.497437e-008 2.474654e-008 2.793856e-008 3.496100e-008 6.361995e-003 4.308552e-003 2.542655e-003 -9.878381e-004 4.629357e-004 7.091404e-004 -2.578934e-003 -6.028318e-003 -4.543920e-003 -2.417521e-003 -2.678531e-003 -6.849539e-003 3.474661e-003
<VARIANCE> 25
 1.482363e+002 1.186289e+002 1.358767e+002 1.150533e+002 6.856859e+001 5.959438e+001 5.340210e+001 5.644455e+001 5.966214e+001 3.805057e+001 3.493165e+001 2.775295e+001 2.220379e+000 3.354012e+000 3.076584e+000 3.783211e+000 3.009660e+000 2.603472e+000 2.703241e+000 2.901384e+000 2.795699e+000 2.264799e+000 1.906537e+000 1.789198e+000 2.980222e+000
<GCONST> 1.090549e+002
<TRANSP> 5
 0.000000e+000 1.000000e+000 0.000000e+000 0.000000e+000 0.000000e+000
 0.000000e+000 6.000000e-001 4.000000e-001 0.000000e+000 0.000000e+000
 0.000000e+000 0.000000e+000 6.000000e-001 4.000000e-001 0.000000e+000
 0.000000e+000 0.000000e+000 0.000000e+000 7.000000e-001 3.000000e-001
 0.000000e+000 0.000000e+000 0.000000e+000 0.000000e+000 0.000000e+000
<ENDHMM>
~h "sil"
<BEGINHMM>
<NUMSTATES> 5
<STATE> 2
<MEAN> 25
 -1.683380e+001 3.950612e+000 -6.085157e+000 6.640835e+000 1.336031e-001 1.177591e+000 1.793402e+000 5.193704e-001 3.870846e+000 3.123981e-001 3.103448e+000 1.478446e+000 -1.457856e-001 4.632555e-002 -4.999408e-002 -1.776330e-002 5.087855e-002 1.613263e-001 -8.217659e-002 -1.856278e-001 9.038152e-002 2.213382e-001 1.453883e-001 -3.426557e-001 -1.675779e-001
<VARIANCE> 25
 1.091967e+002 3.270748e+001 4.439903e+001 1.698387e+001 2.015339e+001 2.145672e+001 2.398487e+001 2.383255e+001 3.118801e+001 1.945740e+001 2.098458e+001 1.682741e+001 2.269762e-001 3.829032e-001 4.470627e-001 6.026870e-001 7.781572e-001 8.409435e-001 9.306699e-001 1.392821e+000 1.229391e+000 1.476116e+000 9.859390e-001 1.511382e+000 2.005240e-001
<GCONST> 8.091521e+001
<STATE> 3
<MEAN> 25
 -1.752666e+001 4.247751e+000 -6.248719e+000 6.633953e+000 2.114824e-001 1.440275e+000 1.759944e+000 3.731381e-001 3.981548e+000 2.611627e-001 3.064954e+000 1.101493e+000 -1.415407e-001 4.172384e-002 -1.482873e-002 -1.903579e-003 1.814820e-002 6.152312e-002 1.351217e-002 -2.168518e-002 1.807241e-002 -5.311528e-002 -2.305515e-002 -1.751285e-002 -1.510433e-001
<VARIANCE> 25
 9.774242e+001 2.815477e+001 4.065246e+001 1.496888e+001 1.844462e+001 1.887586e+001 2.339404e+001 2.421682e+001 3.237025e+001 1.801187e+001 2.005309e+001 1.433282e+001 2.110611e-001 3.664171e-001 4.085366e-001 5.510264e-001 7.673011e-001 7.399268e-001 9.226482e-001 1.227831e+000 1.349790e+000 1.297179e+000 9.361036e-001 9.789813e-001 1.588794e-001
<GCONST> 7.864059e+001
<STATE> 4
<MEAN> 25
 -1.888296e+001 4.331184e+000 -6.862498e+000 6.552649e+000 -3.419822e-002 1.557666e+000 2.359477e+000 5.813068e-001 3.868692e+000 -1.367633e-001 3.126036e+000 1.106609e+000 -1.311638e-001 -1.702453e-002 1.037884e-004 -1.356786e-002 -9.920415e-003 4.723794e-002 2.940061e-002 -2.598612e-002 -3.045960e-002 -4.448228e-002 1.890979e-002 2.756811e-002 -1.022955e-001
<VARIANCE> 25
 8.159583e+001 2.524254e+001 3.407542e+001 1.554260e+001 1.720185e+001 1.844007e+001 2.166608e+001 2.316313e+001 2.712908e+001 1.538118e+001 1.592034e+001 1.312619e+001 2.975370e-001 4.178487e-001 4.785654e-001 6.298841e-001 8.448095e-001 7.633808e-001 1.101459e+000 1.239688e+000 1.464117e+000 1.125446e+000 9.646916e-001 9.302418e-001 2.427913e-001
<GCONST> 7.876765e+001
<TRANSP> 5
 0.000000e+000 1.000000e+000 0.000000e+000 0.000000e+000 0.000000e+000
 0.000000e+000 7.664296e-001 2.335704e-001 0.000000e+000 0.000000e+000
 0.000000e+000 0.000000e+000 7.664299e-001 2.335702e-001 0.000000e+000
 0.000000e+000 0.000000e+000 0.000000e+000 9.006118e-001 9.938818e-002
 0.000000e+000 0.000000e+000 0.000000e+000 0.000000e+000 0.000000e+000
<ENDHMM>
