~o
<STREAMINFO> 1 25
<VECSIZE> 25<NULLD><MFCC_D_N_Z_0><DIAGC>
~h "a"
<BEGINHMM>
<NUMSTATES> 5
<STATE> 2
<MEAN> 25
 1.989567e+000 -1.505919e+000 -1.007201e-001 -4.321241e-001 5.015254e-001 -1.674333e-001 3.871903e-001 4.808966e-001 2.863319e-001 2.721418e-002 -8.320627e-001 -2.719240e-001 1.898738e-002 -1.476086e-002 -2.455104e-002 7.747105e-003 1.845694e-002 -3.942302e-003 1.314207e-002 6.304883e-003 9.244312e-003 -3.828040e-003 -9.891198e-003 -3.269334e-003 1.599312e-002
<VARIANCE> 25
 1.173497e+002 1.316956e+002 1.187154e+002 1.132568e+002 6.806052e+001 6.427047e+001 5.307639e+001 5.974146e+001 5.191750e+001 3.995949e+001 3.628542e+001 2.944149e+001 2.187257e+000 3.784734e+000 2.882289e+000 3.684089e+000 3.031154e+000 2.721509e+000 2.810632e+000 3.038804e+000 2.712344e+000 2.352517e+000 1.956815e+000 1.857701e+000 3.080346e+000
<GCONST> 1.091558e+002
<STATE> 3
<MEAN> 25
 2.055989e+000 -1.556594e+000 -1.940371e-001 -3.915110e-001 5.803826e-001 -1.800802e-001 4.258213e-001 4.964833e-001 3.191751e-001 4.454738e-003 -8.678966e-001 -2.822507e-001 1.137006e-002 -8.291195e-003 -2.061667e-002 1.249209e-002 1.859024e-002 -2.913537e-003 7.279156e-003 3.084439e-003 6.701980e-003 -4.720459e-003 -7.331711e-003 -2.446848e-003 5.023004e-003
<VARIANCE> 25
 1.158051e+002 1.317507e+002 1.169643e+002 1.130179e+002 6.789853e+001 6.454610e+001 5.294645e+001 5.938624e+001 5.149412e+001 3.981988e+001 3.599991e+001 2.936422e+001 2.174016e+000 3.755129e+000 2.840095e+000 3.660400e+000 3.013155e+000 2.714288e+000 2.803605e+000 3.023225e+000 2.700984e+000 2.342912e+000 1.948290e+000 1.854060e+000 3.062764e+000
<GCONST> 1.090255e+002
<STATE> 4
<MEAN> 25
 2.246072e+000 -1.610292e+000 -1.472629e-001 -3.220328e-001 7.095506e-001 -2.222944e-001 3.430404e-001 4.714773e-001 2.956985e-001 -3.718168e-002 -9.327617e-001 -2.674718e-001 4.046927e-004 1.122850e-003 -1.422868e-002 1.578543e-002 1.486641e-002 -1.299964e-003 1.039511e-003 -1.024404e-003 2.052529e-003 -5.619478e-003 -3.398524e-003 -1.387437e-003 -7.884807e-003
<VARIANCE> 25
 1.164964e+002 1.364204e+002 1.167939e+002 1.165509e+002 6.970025e+001 6.621461e+001 5.205260e+001 5.975910e+001 5.220437e+001 4.045775e+001 3.618312e+001 2.934691e+001 2.256668e+000 3.826280e+000 2.818408e+000 3.748207e+000 3.041447e+000 2.741693e+000 2.754039e+000 3.020508e+000 2.741686e+000 2.336825e+000 1.948347e+000 1.850135e+000 3.187593e+000
<GCONST> 1.092937e+002
<TRANSP> 5
 0.000000e+000 1.000000e+000 0.000000e+000 0.000000e+000 0.000000e+000
 0.000000e+000 7.657115e-001 2.342885e-001 0.000000e+000 0.000000e+000
 0.000000e+000 0.000000e+000 7.657111e-001 2.342890e-001 0.000000e+000
 0.000000e+000 0.000000e+000 0.000000e+000 8.998016e-001 1.001984e-001
 0.000000e+000 0.000000e+000 0.000000e+000 0.000000e+000 0.000000e+000
<ENDHMM>
~h "b"
<BEGINHMM>
<NUMSTATES> 5
<STATE> 2
<MEAN> 25
 -1.029810e+000 4.507207e-001 -8.772022e-002 1.632565e-001 7.592324e-001 -1.718589e-001 2.154081e-001 4.588870e-002 1.143608e-001 5.722289e-002 1.732485e-001 5.380275e-001 2.243013e-002 1.567425e-002 5.990517e-004 3.195767e-002 -5.606636e-003 -8.937431e-003 1.118898e-002 -4.223180e-003 -5.542993e-003 -5.597703e-003 -3.870797e-003 4.100643e-003 -4.983639e-003
<VARIANCE> 25
 1.804605e+002 1.299852e+002 1.127537e+002 1.290428e+002 6.150311e+001 5.468926e+001 5.474578e+001 5.718362e+001 5.669025e+001 4.458556e+001 3.515488e+001 2.826973e+001 2.023629e+000 3.844454e+000 2.468978e+000 3.893041e+000 3.224241e+000 2.375750e+000 2.564096e+000 3.008060e+000 2.532265e+000 2.283090e+000 1.875857e+000 1.811510e+000 3.134870e+000
<GCONST> 1.090154e+002
<STATE> 3
<MEAN> 25
 -9.013993e-001 5.427380e-001 -6.721564e-002 3.102663e-001 7.413396e-001 -2.231641e-001 2.546149e-001 3.107137e-002 1.087556e-001 5.557505e-002 1.607337e-001 5.383850e-001 3.015149e-002 2.208569e-002 6.665966e-003 3.270577e-002 -7.950108e-003 -9.931380e-003 5.933386e-003 -3.320612e-003 -7.857158e-004 -8.920574e-004 -4.068652e-003 -3.667950e-004 -1.798477e-003
<VARIANCE> 25
 1.770518e+002 1.309248e+002 1.137827e+002 1.290298e+002 6.133901e+001 5.420832e+001 5.489698e+001 5.808230e+001 5.649649e+001 4.474158e+001 3.529011e+001 2.825845e+001 2.066277e+000 3.919720e+000 2.520181e+000 3.904461e+000 3.229171e+000 2.352762e+000 2.571541e+000 3.041272e+000 2.525891e+000 2.285394e+000 1.887361e+000 1.808289e+000 3.146053e+000
<GCONST> 1.090986e+002
<STATE> 4
<MEAN> 25
 -6.173308e-002 9.434695e-001 2.448169e-001 3.454512e-001 6.366199e-001 -2.749155e-001 1.181461e-001 -8.227896e-002 -1.176508e-001 3.194014e-002 4.078229e-002 4.263017e-001 5.436052e-002 4.164521e-002 2.316720e-002 2.415686e-002 -1.111017e-002 -6.847201e-003 -4.636692e-003 -1.146401e-002 -1.147507e-002 -6.187385e-003 -1.373913e-002 -5.991078e-003 1.601967e-002
<VARIANCE> 25
 1.634828e+002 1.368320e+002 1.178578e+002 1.330353e+002 6.165198e+001 5.399925e+001 5.535331e+001 6.068749e+001 5.741957e+001 4.677972e+001 3.528416e+001 2.813067e+001 2.259075e+000 4.149267e+000 2.725873e+000 4.027709e+000 3.251373e+000 2.338516e+000 2.624166e+000 3.131816e+000 2.548486e+000 2.342460e+000 1.904041e+000 1.823319e+000 3.251415e+000
<GCONST> 1.096278e+002
<TRANSP> 5
 0.000000e+000 1.000000e+000 0.000000e+000 0.000000e+000 0.000000e+000
 0.000000e+000 7.800571e-001 2.199429e-001 0.000000e+000 0.000000e+000
 0.000000e+000 0.000000e+000 7.800575e-001 2.199424e-001 0.000000e+000
 0.000000e+000 0.000000e+000 0.000000e+000 9.109107e-001 8.908928e-002
 0.000000e+000 0.000000e+000 0.000000e+000 0.000000e+000 0.000000e+000
<ENDHMM>
~h "c"
<BEGINHMM>
<NUMSTATES> 5
<STATE> 2
<MEAN> 25
 -8.346014e+000 -2.092671e+000 -1.535880e+000 1.116858e+000 1.423753e+000 -4.490541e-001 2.760349e+000 5.061827e-001 1.821149e+000 1.256495e+000 1.239030e+000 -3.004366e-001 1.015660e-001 -4.113507e-002 7.343385e-002 -1.819957e-003 4.662950e-002 -4.304633e-002 -1.284183e-002 -7.425055e-002 -3.708548e-002 -8.982022e-003 -8.351982e-003 8.002806e-003 1.600991e-001
<VARIANCE> 25
 1.973953e+002 5.722741e+001 1.562864e+002 9.096621e+001 6.734383e+001 4.722299e+001 2.995356e+001 5.419878e+001 5.416290e+001 2.899171e+001 2.121247e+001 2.110392e+001 3.372150e+000 2.640155e+000 3.318598e+000 4.664615e+000 2.847158e+000 3.139534e+000 2.623339e+000 2.726082e+000 2.817415e+000 2.366528e+000 1.901379e+000 1.620140e+000 4.257850e+000
<GCONST> 1.073161e+002
<STATE> 3
<MEAN> 25
 -7.853859e+000 -2.274512e+000 -1.190989e+000 1.109419e+000 1.658154e+000 -6.749803e-001 2.672754e+000 1.812097e-001 1.662083e+000 1.264415e+000 1.213445e+000 -2.901764e-001 1.056140e-001 -3.792126e-002 7.774338e-002 -2.017518e-003 5.085633e-002 -4.902712e-002 -1.985676e-002 -7.358035e-002 -3.669051e-002 2.670711e-003 -4.910643e-003 1.570627e-003 1.675456e-001
<VARIANCE> 25
 1.981824e+002 5.837260e+001 1.532044e+002 9.299810e+001 6.918214e+001 4.912330e+001 3.110787e+001 5.612238e+001 5.618077e+001 3.029387e+001 2.167951e+001 2.122686e+001 3.541835e+000 2.701976e+000 3.506104e+000 4.887281e+000 2.961483e+000 3.297864e+000 2.730893e+000 2.863333e+000 2.917888e+000 2.505521e+000 2.005040e+000 1.664926e+000 4.461521e+000
<GCONST> 1.081602e+002
<STATE> 4
<MEAN> 25
 -7.012772e+000 -2.455529e+000 -2.063940e-001 9.098921e-001 2.029259e+000 -1.193356e+000 2.427904e+000 -4.993980e-001 1.196863e+000 1.220293e+000 1.218918e+000 -3.978968e-001 1.076429e-001 -2.539540e-002 1.048626e-001 -1.819463e-002 3.940877e-002 -5.095054e-002 -2.700195e-002 -8.001424e-002 -5.021221e-002 -1.243916e-004 -4.147401e-003 -1.143642e-002 1.776290e-001
<VARIANCE> 25
 1.957260e+002 5.954839e+001 1.545560e+002 9.732496e+001 7.478075e+001 5.239340e+001 3.224971e+001 5.900027e+001 6.082378e+001 3.232343e+001 2.213481e+001 2.159625e+001 3.942424e+000 2.790391e+000 3.874128e+000 5.265866e+000 3.256325e+000 3.530538e+000 2.900929e+000 3.104364e+000 3.138313e+000 2.717151e+000 2.091846e+000 1.749349e+000 4.760253e+000
<GCONST> 1.095612e+002
<TRANSP> 5
 0.000000e+000 1.000000e+000 0.000000e+000 0.000000e+000 0.000000e+000
 0.000000e+000 7.786752e-001 2.213249e-001 0.000000e+000 0.000000e+000
 0.000000e+000 0.000000e+000 7.786750e-001 2.213250e-001 0.000000e+000
 0.000000e+000 0.000000e+000 0.000000e+000 9.075441e-001 9.245583e-002
 0.000000e+000 0.000000e+000 0.000000e+000 0.000000e+000 0.000000e+000
<ENDHMM>
~h "d"
<BEGINHMM>
<NUMSTATES> 5
<STATE> 2
<MEAN> 25
 1.305574e+000 3.863324e-001 3.086054e+000 1.575122e-001 -1.377703e+000 -9.434935e-001 -6.757501e-001 4.311050e-002 -1.006297e+000 -5.555441e-001 -2.612257e-002 -1.386367e-001 3.573826e-002 -1.018793e-002 2.927887e-002 1.489787e-002 -3.023839e-002 -4.348521e-003 -1.803322e-002 4.468227e-003 -1.959068e-003 -1.892604e-002 7.280270e-003 -1.771461e-003 2.070544e-002
<VARIANCE> 25
 1.092171e+002 1.158723e+002 1.794836e+002 1.102063e+002 8.473286e+001 5.328481e+001 5.646525e+001 5.842558e+001 7.276711e+001 3.808936e+001 3.781215e+001 2.899469e+001 2.223850e+000 3.781199e+000 3.965730e+000 4.535969e+000 4.215113e+000 2.951997e+000 2.973049e+000 3.072100e+000 3.191324e+000 2.435560e+000 2.331490e+000 1.980951e+000 3.256420e+000
<GCONST> 1.112421e+002
<STATE> 3
<MEAN> 25
 1.454335e+000 3.535578e-001 3.221345e+000 2.249351e-001 -1.481640e+000 -9.618499e-001 -7.596667e-001 5.943449e-002 -1.020869e+000 -6.083115e-001 -5.479164e-003 -1.344288e-001 3.573351e-002 -1.078839e-002 1.764740e-002 1.693936e-002 -2.352111e-002 -2.634485e-003 -1.512304e-002 4.306203e-003 7.645172e-004 -1.770557e-002 4.158041e-003 2.691187e-004 1.500534e-002
<VARIANCE> 25
 1.049107e+002 1.161346e+002 1.806961e+002 1.108683e+002 8.492641e+001 5.292258e+001 5.645433e+001 5.864577e+001 7.280589e+001 3.816044e+001 3.811376e+001 2.942898e+001 2.191192e+000 3.811974e+000 3.947952e+000 4.537478e+000 4.247711e+000 2.959208e+000 2.974746e+000 3.065705e+000 3.181674e+000 2.451372e+000 2.354176e+000 1.989405e+000 3.238683e+000
<GCONST> 1.112508e+002
<STATE> 4
<MEAN> 25
 1.863269e+000 2.562832e-001 3.497972e+000 3.360153e-001 -1.512816e+000 -1.041040e+000 -8.944322e-001 1.668932e-001 -1.036711e+000 -6.534328e-001 -1.024596e-001 -7.063758e-002 2.601630e-002 -3.330326e-003 1.402376e-003 2.095280e-002 -8.136502e-003 -9.723232e-004 -1.494259e-002 2.268501e-003 5.129263e-003 -9.877674e-003 7.687979e-004 3.118080e-003 3.859507e-003
<VARIANCE> 25
 1.000644e+002 1.206376e+002 1.841055e+002 1.164065e+002 8.453218e+001 5.317736e+001 5.587340e+001 6.024695e+001 7.353604e+001 3.855002e+001 3.857135e+001 3.019778e+001 2.190004e+000 4.004898e+000 3.888481e+000 4.663579e+000 4.207298e+000 2.983436e+000 2.969297e+000 3.051014e+000 3.171365e+000 2.465669e+000 2.363657e+000 2.005853e+000 3.299558e+000
<GCONST> 1.114701e+002
<TRANSP> 5
 0.000000e+000 1.000000e+000 0.000000e+000 0.000000e+000 0.000000e+000
 0.000000e+000 7.634228e-001 2.365772e-001 0.000000e+000 0.000000e+000
 0.000000e+000 0.000000e+000 7.634212e-001 2.365787e-001 0.000000e+000
 0.000000e+000 0.000000e+000 0.000000e+000 8.978563e-001 1.021437e-001
 0.000000e+000 0.000000e+000 0.000000e+000 0.000000e+000 0.000000e+000
<ENDHMM>
~h "e"
<BEGINHMM>
<NUMSTATES> 5
<STATE> 2
<MEAN> 25
 1.112772e+000 1.034770e-001 -1.449040e-001 -2.497456e-001 4.547525e-001 -3.113548e-001 -2.526625e-001 -6.607784e-001 3.270037e-001 -3.695653e-002 4.030141e-003 1.203549e-001 2.547576e-002 7.422124e-003 4.005289e-003 1.753934e-002 2.000467e-002 -4.871406e-003 -1.241476e-002 -1.202052e-002 7.174118e-003 1.482392e-002 -1.877398e-002 7.291285e-003 1.928318e-002
<VARIANCE> 25
 1.245073e+002 1.285892e+002 1.214756e+002 1.103229e+002 7.653642e+001 6.404370e+001 5.637775e+001 5.432137e+001 5.573441e+001 3.784695e+001 3.546673e+001 2.864030e+001 2.628756e+000 3.896899e+000 3.020945e+000 3.751597e+000 3.600263e+000 2.566002e+000 2.927346e+000 3.004282e+000 2.827101e+000 2.456241e+000 1.877559e+000 1.881920e+000 3.541224e+000
<GCONST> 1.098495e+002
<STATE> 3
<MEAN> 25
 1.261315e+000 1.101965e-001 -1.298790e-001 -1.844674e-001 5.231254e-001 -3.336662e-001 -3.168494e-001 -7.045606e-001 3.669308e-001 2.576066e-002 -7.378802e-002 1.457073e-001 3.087640e-002 4.224824e-003 1.226879e-002 1.417462e-002 1.632316e-002 -3.879162e-003 -1.712721e-002 -1.392878e-002 5.049418e-003 1.702332e-002 -2.089552e-002 8.530036e-003 2.614168e-002
<VARIANCE> 25
 1.213901e+002 1.300431e+002 1.190850e+002 1.115349e+002 7.578744e+001 6.384332e+001 5.611693e+001 5.568082e+001 5.483083e+001 3.823163e+001 3.538384e+001 2.849779e+001 2.638203e+000 3.989065e+000 3.047225e+000 3.808057e+000 3.632583e+000 2.575067e+000 2.930858e+000 3.061796e+000 2.822678e+000 2.475404e+000 1.880509e+000 1.874879e+000 3.578294e+000
<GCONST> 1.099176e+002
<STATE> 4
<MEAN> 25
 1.764995e+000 -4.829618e-002 4.493261e-002 -2.213766e-001 6.385440e-001 -3.828930e-001 -5.453011e-001 -7.785766e-001 3.531404e-001 1.114628e-001 -2.900824e-001 1.749337e-001 3.467444e-002 -5.872942e-003 1.375735e-002 6.571360e-003 6.373981e-003 -1.753027e-003 -1.845270e-002 -1.021921e-002 7.656555e-003 1.522193e-002 -1.635060e-002 5.727177e-003 3.136511e-002
<VARIANCE> 25
 1.153717e+002 1.333793e+002 1.169635e+002 1.160095e+002 7.642399e+001 6.459270e+001 5.553450e+001 5.925671e+001 5.375935e+001 3.934810e+001 3.532668e+001 2.859661e+001 2.629424e+000 4.197747e+000 3.072323e+000 3.972807e+000 3.658096e+000 2.621743e+000 2.919557e+000 3.197217e+000 2.819700e+000 2.511991e+000 1.893898e+000 1.877357e+000 3.732840e+000
<GCONST> 1.102231e+002
<TRANSP> 5
 0.000000e+000 1.000000e+000 0.000000e+000 0.000000e+000 0.000000e+000
 0.000000e+000 7.681262e-001 2.318737e-001 0.000000e+000 0.000000e+000
 0.000000e+000 0.000000e+000 7.681264e-001 2.318736e-001 0.000000e+000
 0.000000e+000 0.000000e+000 0.000000e+000 9.011307e-001 9.886935e-002
 0.000000e+000 0.000000e+000 0.000000e+000 0.000000e+000 0.000000e+000
<ENDHMM>
~h "f"
<BEGINHMM>
<NUMSTATES> 5
<STATE> 2
<MEAN> 25
 -2.879190e+000 1.500171e+000 4.662265e+000 -1.574998e+000 -1.200293e+000 -6.000740e-001 -1.073099e+000 -1.211401e+000 -1.941404e+000 1.105461e+000 8.845097e-001 4.771620e-001 -3.990392e-002 -4.339132e-002 1.943877e-001 -2.622379e-002 -9.235385e-003 -6.918853e-002 1.066912e-002 -2.990917e-002 -5.939225e-002 1.542337e-002 -5.407790e-003 -1.443311e-002 1.722357e-001
<VARIANCE> 25
 9.592919e+001 8.679238e+001 1.838899e+002 1.002676e+002 6.684772e+001 6.339647e+001 4.901782e+001 5.042630e+001 7.704115e+001 3.688867e+001 2.301846e+001 2.406388e+001 2.529551e+000 1.966610e+000 4.512778e+000 3.546808e+000 3.258826e+000 2.931310e+000 2.776591e+000 2.718108e+000 3.373241e+000 2.263397e+000 1.900452e+000 1.754014e+000 2.667444e+000
<GCONST> 1.081032e+002
<STATE> 3
<MEAN> 25
 -2.965941e+000 1.254735e+000 5.467834e+000 -1.672114e+000 -1.238889e+000 -9.114254e-001 -1.053769e+000 -1.287188e+000 -2.179101e+000 1.109339e+000 8.384627e-001 4.516067e-001 -3.259750e-002 -4.186412e-002 1.984452e-001 -1.989155e-002 -1.084500e-002 -7.169020e-002 5.158523e-003 -3.274390e-002 -6.442819e-002 3.057520e-003 -1.544683e-002 -8.196188e-003 1.677818e-001
<VARIANCE> 25
 9.317570e+001 8.819154e+001 1.865487e+002 9.951427e+001 6.830645e+001 6.444146e+001 4.981128e+001 5.019301e+001 7.739619e+001 3.650160e+001 2.296179e+001 2.374398e+001 2.536397e+000 1.976974e+000 4.557043e+000 3.558887e+000 3.349872e+000 3.001702e+000 2.794818e+000 2.741800e+000 3.368766e+000 2.252113e+000 1.916985e+000 1.775958e+000 2.565867e+000
<GCONST> 1.081880e+002
<STATE> 4
<MEAN> 25
 -2.656845e+000 1.754609e-001 7.063594e+000 -2.129338e+000 -1.331903e+000 -1.653832e+000 -9.205114e-001 -1.312588e+000 -2.596506e+000 9.587893e-001 7.320877e-001 3.769491e-001 -1.065053e-002 -3.697839e-002 1.780425e-001 -2.274023e-002 -7.154670e-003 -7.761705e-002 -8.260937e-004 -2.680678e-002 -5.832507e-002 -4.784724e-003 -1.068829e-002 -4.084096e-003 1.392911e-001
<VARIANCE> 25
 9.186747e+001 9.414282e+001 2.013041e+002 1.046613e+002 7.253522e+001 6.844069e+001 5.503757e+001 5.033612e+001 8.083446e+001 3.793471e+001 2.280104e+001 2.443810e+001 2.589433e+000 2.134775e+000 4.802631e+000 3.791711e+000 3.537465e+000 3.152764e+000 2.942725e+000 2.872335e+000 3.460824e+000 2.279852e+000 1.926345e+000 1.887730e+000 2.498764e+000
<GCONST> 1.091860e+002
<TRANSP> 5
 0.000000e+000 1.000000e+000 0.000000e+000 0.000000e+000 0.000000e+000
 0.000000e+000 7.408673e-001 2.591328e-001 0.000000e+000 0.000000e+000
 0.000000e+000 0.000000e+000 7.408680e-001 2.591320e-001 0.000000e+000
 0.000000e+000 0.000000e+000 0.000000e+000 8.719792e-001 1.280207e-001
 0.000000e+000 0.000000e+000 0.000000e+000 0.000000e+000 0.000000e+000
<ENDHMM>
~h "g"
<BEGINHMM>
<NUMSTATES> 5
<STATE> 2
<MEAN> 25
 2.386926e+000 -2.958866e+000 2.779238e+000 -1.810374e+000 -3.436979e-001 -2.619486e+000 -2.542616e-001 3.259807e+000 2.927320e-001 5.134748e-001 -1.459015e+000 -8.812225e-002 -5.883000e-002 8.407973e-003 -1.299444e-002 1.091389e-002 -2.246040e-003 -1.970679e-002 3.399723e-003 5.541973e-002 9.693798e-003 -1.470308e-002 -3.986203e-002 2.088477e-003 -7.307238e-002
<VARIANCE> 25
 7.138702e+001 1.170069e+002 1.138564e+002 1.264856e+002 5.271962e+001 6.894453e+001 4.960172e+001 7.400288e+001 3.823882e+001 4.544085e+001 4.792343e+001 3.187534e+001 1.619722e+000 3.550071e+000 2.932115e+000 4.265862e+000 2.761949e+000 3.161139e+000 2.451533e+000 2.866686e+000 2.606572e+000 2.632390e+000 2.556634e+000 2.060050e+000 2.934221e+000
<GCONST> 1.088066e+002
<STATE> 3
<MEAN> 25
 2.111975e+000 -2.891913e+000 2.660535e+000 -1.740324e+000 -3.564196e-001 -2.655500e+000 -2.346268e-001 3.433037e+000 3.563293e-001 4.394321e-001 -1.630687e+000 -6.707072e-002 -6.770898e-002 2.786603e-002 -3.820176e-002 2.633093e-002 -1.351505e-003 1.946728e-004 6.756129e-004 2.101658e-002 1.471258e-002 -2.282650e-002 -3.602948e-002 6.947583e-003 -1.006180e-001
<VARIANCE> 25
 7.181214e+001 1.158548e+002 1.127624e+002 1.264097e+002 5.119405e+001 6.771688e+001 4.917066e+001 7.272528e+001 3.719830e+001 4.529735e+001 4.780597e+001 3.138441e+001 1.576173e+000 3.483564e+000 2.865766e+000 4.161651e+000 2.685216e+000 3.066284e+000 2.425584e+000 2.827092e+000 2.539274e+000 2.574490e+000 2.533362e+000 2.026883e+000 2.878840e+000
<GCONST> 1.084004e+002
<STATE> 4
<MEAN> 25
 1.696436e+000 -2.773860e+000 2.392128e+000 -1.442513e+000 -3.283318e-001 -2.598795e+000 -2.195842e-001 3.492522e+000 4.883259e-001 2.642946e-001 -1.897535e+000 6.279840e-002 -8.144455e-002 5.534875e-002 -6.842026e-002 4.766741e-002 -3.703905e-003 2.621076e-002 9.397280e-005 -1.808281e-002 1.954780e-002 -3.049328e-002 -2.398692e-002 1.168759e-002 -1.369835e-001
<VARIANCE> 25
 7.374179e+001 1.151752e+002 1.130266e+002 1.271618e+002 4.904738e+001 6.510591e+001 4.838158e+001 6.697840e+001 3.599518e+001 4.521935e+001 4.763399e+001 2.986221e+001 1.521970e+000 3.416457e+000 2.796163e+000 4.031524e+000 2.575492e+000 2.900604e+000 2.364504e+000 2.703108e+000 2.445152e+000 2.480873e+000 2.444391e+000 1.963807e+000 2.808720e+000
<GCONST> 1.077154e+002
<TRANSP> 5
 0.000000e+000 1.000000e+000 0.000000e+000 0.000000e+000 0.000000e+000
 0.000000e+000 7.697589e-001 2.302411e-001 0.000000e+000 0.000000e+000
 0.000000e+000 0.000000e+000 7.697587e-001 2.302413e-001 0.000000e+000
 0.000000e+000 0.000000e+000 0.000000e+000 8.991532e-001 1.008467e-001
 0.000000e+000 0.000000e+000 0.000000e+000 0.000000e+000 0.000000e+000
<ENDHMM>
~h "h"
<BEGINHMM>
<NUMSTATES> 5
<STATE> 2
<MEAN> 25
 -2.855041e+000 -1.727091e+000 -1.881895e+000 1.236238e+000 3.336965e-001 1.673503e+000 9.236066e-001 -4.725742e-001 7.464356e-001 2.329083e-001 5.314271e-001 -4.527927e-001 -9.317714e-002 1.089944e-002 6.821357e-002 4.856663e-002 3.367050e-002 4.326933e-002 -7.973659e-002 -1.410476e-002 -3.040830e-002 -3.164432e-003 4.889321e-002 -5.855412e-003 -2.959103e-002
<VARIANCE> 25
 1.419267e+002 9.931967e+001 8.622435e+001 6.444032e+001 4.044076e+001 4.555148e+001 5.678811e+001 4.818279e+001 4.400628e+001 3.161814e+001 3.729121e+001 2.508326e+001 1.312354e+000 2.274252e+000 2.327179e+000 2.711268e+000 2.108922e+000 2.631179e+000 2.369264e+000 2.489378e+000 2.382246e+000 2.327286e+000 1.899214e+000 1.533841e+000 1.826655e+000
<GCONST> 1.034435e+002
<STATE> 3
<MEAN> 25
 -3.221512e+000 -1.732557e+000 -1.670968e+000 1.400901e+000 4.392850e-001 1.824417e+000 6.748484e-001 -4.583128e-001 6.144895e-001 2.065753e-001 7.552229e-001 -4.852567e-001 -1.031430e-001 3.163845e-002 6.087065e-002 3.222536e-002 1.804342e-002 3.071987e-002 -8.029201e-002 -5.260907e-003 -3.204189e-002 -1.234202e-002 4.646596e-002 -1.030216e-002 -2.484958e-002
<VARIANCE> 25
 1.428803e+002 1.027382e+002 8.796665e+001 6.228485e+001 4.181608e+001 4.602917e+001 5.662239e+001 4.838428e+001 4.428369e+001 3.106716e+001 3.725638e+001 2.559953e+001 1.296505e+000 2.229223e+000 2.342737e+000 2.717089e+000 2.159802e+000 2.667256e+000 2.303945e+000 2.417295e+000 2.338643e+000 2.311980e+000 1.913918e+000 1.573878e+000 1.823868e+000
<GCONST> 1.034870e+002
<STATE> 4
<MEAN> 25
 -4.098353e+000 -1.904696e+000 -1.818710e+000 1.737451e+000 1.372762e-002 1.875626e+000 7.788154e-001 -3.305196e-001 5.600790e-001 -4.710479e-002 1.303059e+000 -6.617355e-001 -6.891429e-002 2.930387e-002 5.294502e-002 2.650762e-002 -2.294934e-002 7.595155e-003 -4.637578e-002 1.967753e-002 -2.748979e-002 -3.010799e-002 3.991392e-002 -7.885126e-003 -1.285328e-002
<VARIANCE> 25
 1.549087e+002 1.102646e+002 9.635126e+001 6.227444e+001 4.607813e+001 5.257669e+001 5.398758e+001 5.071125e+001 4.604425e+001 3.270948e+001 3.777827e+001 2.742904e+001 1.344227e+000 2.335028e+000 2.742557e+000 2.808326e+000 2.320795e+000 3.019877e+000 2.245524e+000 2.434272e+000 2.363693e+000 2.521881e+000 1.948075e+000 1.652112e+000 2.047556e+000
<GCONST> 1.048621e+002
<TRANSP> 5
 0.000000e+000 1.000000e+000 0.000000e+000 0.000000e+000 0.000000e+000
 0.000000e+000 7.462674e-001 2.537326e-001 0.000000e+000 0.000000e+000
 0.000000e+000 0.000000e+000 7.462675e-001 2.537325e-001 0.000000e+000
 0.000000e+000 0.000000e+000 0.000000e+000 8.824666e-001 1.175334e-001
 0.000000e+000 0.000000e+000 0.000000e+000 0.000000e+000 0.000000e+000
<ENDHMM>
~h "i"
<BEGINHMM>
<NUMSTATES> 5
<STATE> 2
<MEAN> 25
 -1.052512e+000 7.283588e-001 3.778685e+000 -4.252786e-001 -1.001436e+000 -2.419896e-001 -4.169075e-001 -6.384439e-001 -1.561738e+000 -4.045198e-002 5.992202e-001 -3.250061e-001 1.063431e-002 4.957711e-003 1.182274e-001 -1.181117e-002 -5.291542e-002 -1.334552e-002 -2.579605e-002 -9.651740e-003 -4.106069e-002 -1.322128e-002 1.185239e-002 -1.043087e-002 3.977177e-002
<VARIANCE> 25
 1.296049e+002 1.015880e+002 2.075291e+002 1.071244e+002 8.615956e+001 6.044921e+001 6.000214e+001 5.507357e+001 7.525243e+001 3.615093e+001 3.295936e+001 2.644069e+001 2.278017e+000 3.014743e+000 4.944847e+000 4.093955e+000 3.677555e+000 3.037556e+000 3.087957e+000 3.084975e+000 3.253513e+000 2.205695e+000 2.057468e+000 1.805944e+000 3.086551e+000
<GCONST> 1.107938e+002
<STATE> 3
<MEAN> 25
 -9.774302e-001 7.374188e-001 4.292140e+000 -4.848045e-001 -1.227310e+000 -3.171674e-001 -5.094656e-001 -6.594377e-001 -1.751654e+000 -8.293566e-002 6.399409e-001 -3.583214e-001 1.958792e-002 -1.035190e-003 1.071073e-001 -1.536345e-002 -4.995913e-002 -1.693149e-002 -2.131638e-002 -2.777755e-003 -4.039969e-002 -1.309048e-002 1.067645e-002 -8.554478e-003 4.328177e-002
<VARIANCE> 25
 1.255203e+002 1.011691e+002 2.115715e+002 1.071261e+002 8.765581e+001 6.063370e+001 6.054563e+001 5.531653e+001 7.588641e+001 3.637724e+001 3.311653e+001 2.675306e+001 2.272902e+000 3.021024e+000 5.105762e+000 4.156776e+000 3.760242e+000 3.084819e+000 3.109618e+000 3.111865e+000 3.286083e+000 2.222047e+000 2.088504e+000 1.827579e+000 3.115756e+000
<GCONST> 1.109959e+002
<STATE> 4
<MEAN> 25
 -4.946887e-001 5.650008e-001 5.197371e+000 -6.997994e-001 -1.574016e+000 -5.028316e-001 -5.983075e-001 -5.864609e-001 -2.152061e+000 -1.403605e-001 6.432657e-001 -4.063509e-001 3.182521e-002 -8.285475e-003 9.004217e-002 -1.709422e-002 -4.031824e-002 -2.262148e-002 -1.643780e-002 2.738813e-003 -3.662079e-002 -5.841707e-003 2.912176e-003 -4.630104e-003 5.118744e-002
<VARIANCE> 25
 1.225447e+002 1.038778e+002 2.262229e+002 1.127885e+002 9.118015e+001 6.310852e+001 6.194648e+001 5.656628e+001 7.926022e+001 3.788572e+001 3.395569e+001 2.784003e+001 2.357243e+000 3.137098e+000 5.452579e+000 4.385349e+000 3.830509e+000 3.200679e+000 3.143517e+000 3.156145e+000 3.346064e+000 2.266092e+000 2.130033e+000 1.872846e+000 3.319772e+000
<GCONST> 1.118094e+002
<TRANSP> 5
 0.000000e+000 1.000000e+000 0.000000e+000 0.000000e+000 0.000000e+000
 0.000000e+000 7.590560e-001 2.409441e-001 0.000000e+000 0.000000e+000
 0.000000e+000 0.000000e+000 7.590556e-001 2.409444e-001 0.000000e+000
 0.000000e+000 0.000000e+000 0.000000e+000 8.944744e-001 1.055255e-001
 0.000000e+000 0.000000e+000 0.000000e+000 0.000000e+000 0.000000e+000
<ENDHMM>
~h "j"
<BEGINHMM>
<NUMSTATES> 5
<STATE> 2
<MEAN> 25
 4.862491e-001 2.700321e+000 4.745143e+000 -2.164856e+000 8.967414e-001 -4.073517e+000 1.864609e-001 -5.230867e-001 -2.113530e+000 -6.823967e-001 5.925320e-001 1.256898e+000 2.296941e-001 -1.279898e-001 1.277584e-001 -1.566688e-001 -2.288809e-002 -9.725878e-002 -7.672061e-002 1.252780e-001 -4.531627e-002 6.926031e-002 -1.124002e-001 -8.258798e-003 2.769298e-001
<VARIANCE> 25
 1.480125e+002 1.652939e+002 2.034590e+002 1.233619e+002 1.086481e+002 6.300518e+001 8.901072e+001 7.760778e+001 6.914256e+001 2.944776e+001 4.564122e+001 2.135071e+001 3.407001e+000 4.849962e+000 4.689339e+000 3.535724e+000 6.554935e+000 2.724729e+000 4.470884e+000 3.080708e+000 3.936150e+000 1.760569e+000 2.236949e+000 1.718773e+000 2.696531e+000
<GCONST> 1.137478e+002
<STATE> 3
<MEAN> 25
 1.262345e+000 2.078589e+000 5.268566e+000 -2.808545e+000 8.247235e-001 -4.517033e+000 -7.559690e-002 7.018387e-002 -2.255107e+000 -3.177675e-001 1.223657e-001 1.242007e+000 1.716685e-001 -1.497472e-001 1.213280e-001 -1.465414e-001 -1.148940e-002 -1.064994e-001 -5.190295e-002 1.366014e-001 -3.023886e-002 8.626153e-002 -1.086606e-001 8.011195e-005 2.420732e-001
<VARIANCE> 25
 1.250357e+002 1.670206e+002 2.030159e+002 1.222545e+002 1.111976e+002 6.576493e+001 9.028365e+001 8.036849e+001 6.888593e+001 3.051128e+001 4.794181e+001 2.301297e+001 3.095261e+000 4.642444e+000 4.571499e+000 3.625290e+000 7.019780e+000 2.769435e+000 4.565824e+000 3.092685e+000 3.973516e+000 1.767336e+000 2.306657e+000 1.770233e+000 2.726239e+000
<GCONST> 1.139035e+002
<STATE> 4
<MEAN> 25
 1.926135e+000 8.879352e-001 6.226992e+000 -3.768465e+000 8.904877e-001 -5.361949e+000 -2.535801e-001 1.087045e+000 -2.408145e+000 4.934936e-001 -5.605227e-001 1.282113e+000 8.008463e-002 -1.361897e-001 1.048911e-001 -8.506344e-002 4.888812e-003 -1.058410e-001 -8.953700e-003 1.240849e-001 -6.326108e-003 9.518071e-002 -8.198304e-002 1.859719e-002 1.538144e-001
<VARIANCE> 25
 9.092796e+001 1.640143e+002 1.953530e+002 1.193676e+002 1.139842e+002 7.094656e+001 8.811741e+001 8.222390e+001 6.858002e+001 3.201527e+001 4.974040e+001 2.606153e+001 2.545925e+000 4.062469e+000 4.283661e+000 3.792820e+000 7.663858e+000 2.918583e+000 4.504636e+000 3.133595e+000 3.909477e+000 1.803562e+000 2.364885e+000 1.823891e+000 2.718775e+000
<GCONST> 1.136557e+002
<TRANSP> 5
 0.000000e+000 1.000000e+000 0.000000e+000 0.000000e+000 0.000000e+000
 0.000000e+000 7.719993e-001 2.280007e-001 0.000000e+000 0.000000e+000
 0.000000e+000 0.000000e+000 7.719994e-001 2.280006e-001 0.000000e+000
 0.000000e+000 0.000000e+000 0.000000e+000 8.998652e-001 1.001348e-001
 0.000000e+000 0.000000e+000 0.000000e+000 0.000000e+000 0.000000e+000
<ENDHMM>
~h "k"
<BEGINHMM>
<NUMSTATES> 5
<STATE> 2
<MEAN> 25
 1.036976e+000 -9.895748e-001 -9.025534e-001 5.347346e-003 5.362392e-001 4.173771e-001 2.987625e-001 6.525793e-002 2.714559e-001 -1.747241e-001 -4.447428e-001 -4.488769e-001 5.213441e-002 -3.015773e-003 -3.366690e-002 1.960898e-002 1.985133e-002 -1.371249e-002 2.083540e-002 1.090684e-002 -1.856708e-002 -4.721431e-004 -8.601075e-003 -1.198566e-002 3.788969e-002
<VARIANCE> 25
 1.276351e+002 1.282993e+002 1.189509e+002 1.076407e+002 6.727982e+001 6.012385e+001 5.599032e+001 5.240371e+001 5.132585e+001 3.619601e+001 3.440574e+001 2.704264e+001 2.246727e+000 3.718843e+000 3.354720e+000 3.629490e+000 3.240708e+000 2.656993e+000 3.074426e+000 3.093806e+000 2.824688e+000 2.235168e+000 1.952564e+000 1.759500e+000 3.175380e+000
<GCONST> 1.090204e+002
<STATE> 3
<MEAN> 25
 1.274335e+000 -9.956067e-001 -1.051317e+000 8.187798e-002 6.153185e-001 3.763208e-001 3.589417e-001 8.922675e-002 2.060315e-001 -1.815326e-001 -4.796411e-001 -5.016646e-001 5.562198e-002 9.083021e-004 -4.116028e-002 2.352883e-002 2.090458e-002 -1.421419e-002 2.302307e-002 1.146394e-002 -1.434979e-002 -6.341182e-004 -5.503679e-003 -1.071630e-002 3.394973e-002
<VARIANCE> 25
 1.238434e+002 1.294730e+002 1.174734e+002 1.075002e+002 6.665116e+001 6.107574e+001 5.606897e+001 5.305447e+001 5.087943e+001 3.636715e+001 3.401917e+001 2.700078e+001 2.262118e+000 3.722120e+000 3.335627e+000 3.604716e+000 3.228167e+000 2.649297e+000 3.113869e+000 3.095095e+000 2.778991e+000 2.228351e+000 1.933947e+000 1.752937e+000 3.184749e+000
<GCONST> 1.089605e+002
<STATE> 4
<MEAN> 25
 1.718223e+000 -9.381293e-001 -1.267032e+000 2.060004e-001 7.608706e-001 3.552431e-001 3.229065e-001 -3.497171e-002 1.138040e-001 -2.226772e-001 -5.231841e-001 -5.453758e-001 5.776376e-002 1.014517e-003 -4.073614e-002 1.760751e-002 2.166594e-002 -8.458483e-003 1.120883e-002 1.678044e-003 -9.563505e-003 -1.603937e-003 -5.454551e-003 -9.427852e-003 3.262049e-002
<VARIANCE> 25
 1.235791e+002 1.381846e+002 1.189643e+002 1.115656e+002 6.813256e+001 6.395630e+001 5.393355e+001 5.442929e+001 5.223489e+001 3.755527e+001 3.382051e+001 2.731182e+001 2.379221e+000 3.881192e+000 3.350738e+000 3.714305e+000 3.279972e+000 2.714538e+000 3.089314e+000 3.125191e+000 2.767776e+000 2.212664e+000 1.900107e+000 1.729875e+000 3.368632e+000
<GCONST> 1.093750e+002
<TRANSP> 5
 0.000000e+000 1.000000e+000 0.000000e+000 0.000000e+000 0.000000e+000
 0.000000e+000 7.580502e-001 2.419498e-001 0.000000e+000 0.000000e+000
 0.000000e+000 0.000000e+000 7.580490e-001 2.419510e-001 0.000000e+000
 0.000000e+000 0.000000e+000 0.000000e+000 8.921787e-001 1.078214e-001
 0.000000e+000 0.000000e+000 0.000000e+000 0.000000e+000 0.000000e+000
<ENDHMM>
~h "l"
<BEGINHMM>
<NUMSTATES> 5
<STATE> 2
<MEAN> 25
 1.821210e+000 -6.216703e-001 7.987351e-001 -1.690345e+000 3.545439e-001 -7.879946e-002 -1.003074e+000 5.998240e-002 -1.705776e-001 1.098387e+000 -4.771884e-001 -2.657289e-001 3.931625e-002 -2.037596e-002 -4.549277e-003 -4.523696e-002 -9.720175e-004 2.498977e-002 -6.829216e-003 -1.754423e-002 1.693386e-002 5.564378e-003 -1.954989e-002 -9.739818e-003 4.536411e-002
<VARIANCE> 25
 1.250331e+002 1.183256e+002 1.413321e+002 1.417297e+002 6.515357e+001 6.191955e+001 5.900690e+001 6.205338e+001 6.668783e+001 4.496169e+001 4.003676e+001 3.073421e+001 2.133724e+000 3.549154e+000 3.161624e+000 3.940709e+000 2.934714e+000 2.570889e+000 3.031356e+000 3.099425e+000 2.846404e+000 2.406813e+000 1.976199e+000 1.837423e+000 2.931261e+000
<GCONST> 1.101807e+002
<STATE> 3
<MEAN> 25
 1.994927e+000 -7.273226e-001 7.759958e-001 -1.852390e+000 3.559155e-001 2.085222e-002 -1.029908e+000 6.142403e-003 -7.978623e-002 1.117161e+000 -5.584002e-001 -2.888024e-001 3.474890e-002 -2.367915e-002 -8.980901e-003 -3.740758e-002 8.223144e-004 2.848212e-002 -5.873031e-003 -1.883482e-002 1.880544e-002 3.267579e-003 -1.814185e-002 -6.610502e-003 4.233989e-002
<VARIANCE> 25
 1.208585e+002 1.186459e+002 1.398278e+002 1.418007e+002 6.558592e+001 6.202742e+001 5.897239e+001 6.225483e+001 6.624643e+001 4.556193e+001 3.982753e+001 3.098969e+001 2.125512e+000 3.569682e+000 3.143584e+000 3.945946e+000 2.933709e+000 2.598194e+000 3.032788e+000 3.105542e+000 2.853219e+000 2.426472e+000 1.972668e+000 1.846245e+000 2.945749e+000
<GCONST> 1.101885e+002
<STATE> 4
<MEAN> 25
 2.549763e+000 -9.368122e-001 9.377908e-001 -2.115460e+000 4.759808e-001 1.769506e-001 -1.231509e+000 -9.712202e-002 -1.080267e-001 1.109045e+000 -8.150363e-001 -2.602897e-001 2.606770e-002 -2.333631e-002 -1.364266e-002 -1.614141e-002 4.470751e-003 2.425892e-002 6.423032e-004 -1.351343e-002 2.017006e-002 -4.795389e-003 -1.413628e-002 -1.632955e-003 3.285100e-002
<VARIANCE> 25
 1.148774e+002 1.223296e+002 1.411257e+002 1.450004e+002 6.700710e+001 6.331287e+001 5.891182e+001 6.322707e+001 6.721407e+001 4.757941e+001 3.943628e+001 3.141270e+001 2.193457e+000 3.618032e+000 3.135647e+000 4.062768e+000 2.931139e+000 2.661997e+000 3.036757e+000 3.101071e+000 2.880474e+000 2.438458e+000 1.968618e+000 1.861592e+000 3.107963e+000
<GCONST> 1.104869e+002
<TRANSP> 5
 0.000000e+000 1.000000e+000 0.000000e+000 0.000000e+000 0.000000e+000
 0.000000e+000 7.690691e-001 2.309309e-001 0.000000e+000 0.000000e+000
 0.000000e+000 0.000000e+000 7.690698e-001 2.309302e-001 0.000000e+000
 0.000000e+000 0.000000e+000 0.000000e+000 9.033386e-001 9.666145e-002
 0.000000e+000 0.000000e+000 0.000000e+000 0.000000e+000 0.000000e+000
<ENDHMM>
~h "m"
<BEGINHMM>
<NUMSTATES> 5
<STATE> 2
<MEAN> 25
 2.402283e-001 2.746990e-001 -1.628964e+000 3.205495e-001 2.570557e-001 1.280414e+000 4.751042e-001 -7.670221e-001 2.845745e-001 -1.206683e-002 7.320280e-002 2.451466e-001 4.668099e-002 -2.818999e-003 -1.207097e-002 -1.496251e-002 8.641210e-003 -7.758227e-003 6.293785e-003 1.086201e-003 -8.367812e-003 -8.137796e-003 -1.116863e-002 4.990389e-003 3.861176e-002
<VARIANCE> 25
 1.858491e+002 1.170100e+002 1.202021e+002 1.087547e+002 6.514537e+001 6.015034e+001 5.263046e+001 5.985924e+001 6.702135e+001 3.615492e+001 3.385870e+001 2.700700e+001 2.357999e+000 3.183287e+000 2.692764e+000 3.679393e+000 2.429977e+000 2.419922e+000 2.432081e+000 2.888357e+000 2.950814e+000 2.110823e+000 1.780131e+000 1.613457e+000 2.775202e+000
<GCONST> 1.082873e+002
<STATE> 3
<MEAN> 25
 4.691905e-001 2.499092e-001 -1.690390e+000 2.744758e-001 3.032872e-001 1.231503e+000 5.134915e-001 -7.694826e-001 2.680698e-001 -3.968364e-002 3.634959e-002 2.561236e-001 4.690515e-002 -5.156800e-003 -1.493297e-002 -1.093755e-002 5.637387e-003 -1.603955e-002 8.335100e-003 3.637516e-003 -4.099818e-004 -5.063834e-003 -6.505639e-003 2.180380e-004 4.153565e-002
<VARIANCE> 25
 1.819476e+002 1.188707e+002 1.188902e+002 1.094336e+002 6.600818e+001 6.102829e+001 5.289248e+001 6.077840e+001 6.683683e+001 3.667093e+001 3.386255e+001 2.700383e+001 2.407946e+000 3.196867e+000 2.714936e+000 3.717420e+000 2.447803e+000 2.458337e+000 2.449767e+000 2.933146e+000 2.974097e+000 2.127776e+000 1.787617e+000 1.624999e+000 2.799878e+000
<GCONST> 1.084618e+002
<STATE> 4
<MEAN> 25
 1.078197e+000 1.571963e-001 -1.682142e+000 8.719757e-002 3.428955e-001 1.144882e+000 5.770627e-001 -8.833920e-001 1.031993e-001 -9.362599e-002 -1.473519e-002 1.998153e-001 5.143650e-002 -4.422087e-003 -6.723229e-003 -4.784943e-003 2.677969e-003 -1.529661e-002 1.429937e-003 4.360834e-004 -7.369860e-003 -1.023861e-002 -6.909819e-003 -2.722735e-003 4.465240e-002
<VARIANCE> 25
 1.770637e+002 1.269740e+002 1.215841e+002 1.167471e+002 6.924982e+001 6.300925e+001 5.359774e+001 6.333747e+001 6.983714e+001 3.880186e+001 3.377399e+001 2.721445e+001 2.589792e+000 3.334811e+000 2.813872e+000 3.903826e+000 2.519183e+000 2.535839e+000 2.500885e+000 3.029174e+000 3.100062e+000 2.167070e+000 1.788906e+000 1.635949e+000 2.994504e+000
<GCONST> 1.092744e+002
<TRANSP> 5
 0.000000e+000 1.000000e+000 0.000000e+000 0.000000e+000 0.000000e+000
 0.000000e+000 7.721894e-001 2.278106e-001 0.000000e+000 0.000000e+000
 0.000000e+000 0.000000e+000 7.721894e-001 2.278106e-001 0.000000e+000
 0.000000e+000 0.000000e+000 0.000000e+000 9.073295e-001 9.267052e-002
 0.000000e+000 0.000000e+000 0.000000e+000 0.000000e+000 0.000000e+000
<ENDHMM>
~h "n"
<BEGINHMM>
<NUMSTATES> 5
<STATE> 2
<MEAN> 25
 1.908347e+000 -9.571376e-001 2.026470e-001 1.175285e+000 1.203249e-001 -8.465265e-001 2.734573e-001 9.627974e-001 -4.581380e-002 1.025227e-001 -6.889259e-001 -3.094086e-001 1.153146e-002 2.128648e-002 2.056888e-002 2.238265e-002 -1.706109e-003 1.084930e-002 -9.610979e-003 -2.062353e-002 -1.316372e-002 -7.230226e-003 3.225742e-003 -2.237204e-003 -1.874355e-002
<VARIANCE> 25
 1.035351e+002 1.239331e+002 1.208202e+002 1.055030e+002 5.667700e+001 5.823870e+001 5.654529e+001 6.307992e+001 4.880413e+001 3.921116e+001 3.342756e+001 2.833077e+001 1.941277e+000 3.849372e+000 2.828539e+000 3.585338e+000 3.017789e+000 2.588601e+000 3.077464e+000 3.345045e+000 2.696198e+000 2.293991e+000 1.868700e+000 1.857092e+000 3.051387e+000
<GCONST> 1.084482e+002
<STATE> 3
<MEAN> 25
 1.938609e+000 -8.538041e-001 2.873538e-001 1.250470e+000 1.054447e-001 -7.983564e-001 2.303055e-001 8.518238e-001 -1.109079e-001 7.858497e-002 -6.812525e-001 -3.142255e-001 4.854667e-003 2.464086e-002 2.324811e-002 1.769138e-002 -4.937130e-003 1.466911e-002 -1.421494e-002 -2.814489e-002 -1.569254e-002 -5.668208e-003 4.569816e-003 1.418940e-003 -2.444179e-002
<VARIANCE> 25
 1.031533e+002 1.236995e+002 1.207292e+002 1.054596e+002 5.640368e+001 5.857981e+001 5.594727e+001 6.301785e+001 4.900681e+001 3.914122e+001 3.324342e+001 2.843973e+001 1.932106e+000 3.812473e+000 2.796550e+000 3.586684e+000 3.003688e+000 2.567059e+000 3.030866e+000 3.324570e+000 2.704927e+000 2.283914e+000 1.860136e+000 1.855251e+000 3.023095e+000
<GCONST> 1.083556e+002
<STATE> 4
<MEAN> 25
 2.051216e+000 -6.224415e-001 6.404247e-001 1.248778e+000 -3.296377e-002 -7.245686e-001 -1.417558e-002 5.635799e-001 -3.003176e-001 1.317708e-002 -6.891847e-001 -2.340793e-001 -4.132709e-003 2.818715e-002 1.778951e-002 1.008465e-002 -8.094165e-003 8.152415e-003 -1.371859e-002 -3.225246e-002 -1.955418e-002 -1.923757e-003 5.890450e-003 6.906985e-003 -2.598302e-002
<VARIANCE> 25
 1.070392e+002 1.293582e+002 1.267867e+002 1.120095e+002 5.693168e+001 5.960706e+001 5.272665e+001 6.335361e+001 5.073785e+001 4.033818e+001 3.334650e+001 2.884532e+001 2.009586e+000 3.920614e+000 2.814856e+000 3.748885e+000 3.027503e+000 2.567818e+000 2.899323e+000 3.325923e+000 2.766261e+000 2.287902e+000 1.860106e+000 1.869507e+000 3.174561e+000
<GCONST> 1.087643e+002
<TRANSP> 5
 0.000000e+000 1.000000e+000 0.000000e+000 0.000000e+000 0.000000e+000
 0.000000e+000 7.615498e-001 2.384502e-001 0.000000e+000 0.000000e+000
 0.000000e+000 0.000000e+000 7.615499e-001 2.384501e-001 0.000000e+000
 0.000000e+000 0.000000e+000 0.000000e+000 8.975437e-001 1.024563e-001
 0.000000e+000 0.000000e+000 0.000000e+000 0.000000e+000 0.000000e+000
<ENDHMM>
~h "o"
<BEGINHMM>
<NUMSTATES> 5
<STATE> 2
<MEAN> 25
 2.650626e+000 -3.322097e+000 4.462755e+000 -5.235631e+000 -1.090132e+000 -1.308208e+000 -1.968228e+000 1.909611e+000 -2.365354e+000 4.006458e+000 -7.013927e-001 -8.473434e-001 -6.255926e-002 5.064349e-002 -6.097273e-002 -3.540011e-002 2.582096e-002 -3.759880e-002 3.522288e-002 1.695015e-002 2.696373e-002 8.561862e-003 -1.275440e-002 5.131444e-004 -6.967832e-002
<VARIANCE> 25
 1.084190e+002 7.043559e+001 1.121922e+002 1.728496e+002 2.948155e+001 6.531695e+001 3.796190e+001 6.450018e+001 4.926417e+001 5.471516e+001 3.717797e+001 2.090852e+001 2.524384e+000 2.633333e+000 3.293165e+000 6.418570e+000 2.215457e+000 3.523445e+000 2.781748e+000 2.960251e+000 2.947478e+000 2.848922e+000 2.053321e+000 1.540093e+000 3.363518e+000
<GCONST> 1.082825e+002
<STATE> 3
<MEAN> 25
 2.342242e+000 -3.083382e+000 4.141408e+000 -5.338828e+000 -9.755253e-001 -1.454471e+000 -1.789761e+000 1.965877e+000 -2.221195e+000 4.013229e+000 -7.440006e-001 -8.455263e-001 -8.584478e-002 6.274288e-002 -8.868156e-002 9.751712e-003 2.284745e-002 -3.160603e-002 4.868428e-002 1.281958e-002 4.155951e-002 -1.382688e-002 -6.583122e-003 -3.339423e-004 -1.113334e-001
<VARIANCE> 25
 1.097142e+002 6.973599e+001 1.066625e+002 1.712237e+002 2.824899e+001 6.841998e+001 3.864706e+001 6.666444e+001 4.595482e+001 5.365119e+001 3.784399e+001 2.056470e+001 2.604909e+000 2.642731e+000 3.260856e+000 6.434412e+000 2.132446e+000 3.554902e+000 2.790140e+000 2.934858e+000 2.818792e+000 2.829172e+000 2.039270e+000 1.550319e+000 3.490582e+000
<GCONST> 1.081689e+002
<STATE> 4
<MEAN> 25
 1.712178e+000 -2.648043e+000 3.472389e+000 -5.223453e+000 -8.538576e-001 -1.475904e+000 -1.428562e+000 1.856051e+000 -1.939690e+000 3.863001e+000 -6.875358e-001 -8.802379e-001 -1.073791e-001 7.441407e-002 -1.200287e-001 6.592733e-002 1.724765e-002 -1.397148e-002 6.415063e-002 -2.106584e-003 5.838091e-002 -4.095180e-002 9.279538e-003 -3.530362e-003 -1.543171e-001
<VARIANCE> 25
 1.127493e+002 7.051851e+001 1.004492e+002 1.679283e+002 2.675801e+001 7.227235e+001 3.954445e+001 6.936420e+001 4.178777e+001 5.264986e+001 3.925637e+001 2.084746e+001 2.762868e+000 2.672953e+000 3.245934e+000 6.416409e+000 2.024068e+000 3.575139e+000 2.745514e+000 2.862016e+000 2.635079e+000 2.799758e+000 2.006530e+000 1.583457e+000 3.694265e+000
<GCONST> 1.080864e+002
<TRANSP> 5
 0.000000e+000 1.000000e+000 0.000000e+000 0.000000e+000 0.000000e+000
 0.000000e+000 7.745066e-001 2.254934e-001 0.000000e+000 0.000000e+000
 0.000000e+000 0.000000e+000 7.745068e-001 2.254932e-001 0.000000e+000
 0.000000e+000 0.000000e+000 0.000000e+000 9.024234e-001 9.757652e-002
 0.000000e+000 0.000000e+000 0.000000e+000 0.000000e+000 0.000000e+000
<ENDHMM>
~h "p"
<BEGINHMM>
<NUMSTATES> 5
<STATE> 2
<MEAN> 25
 9.241434e-001 1.755705e-001 4.501937e-001 -8.446389e-001 -1.782925e-002 1.128292e-001 -9.726446e-001 -5.317526e-001 -7.845143e-001 -1.812200e-001 1.662602e-001 6.408381e-002 2.837773e-002 1.828799e-002 -8.800992e-003 -9.010340e-003 -1.376347e-002 3.780900e-003 -1.004233e-002 -4.089327e-003 -1.427073e-002 1.041750e-002 2.177263e-003 8.361208e-003 7.395055e-003
<VARIANCE> 25
 1.168070e+002 1.002810e+002 1.234773e+002 1.137998e+002 6.774186e+001 5.524391e+001 5.164635e+001 5.265399e+001 5.987725e+001 3.497008e+001 3.227748e+001 2.851824e+001 2.639613e+000 3.713527e+000 3.405703e+000 4.680675e+000 3.216778e+000 2.661132e+000 2.800100e+000 2.870773e+000 2.897281e+000 2.301168e+000 1.885115e+000 1.849253e+000 3.681122e+000
<GCONST> 1.092053e+002
<STATE> 3
<MEAN> 25
 1.036407e+000 2.536731e-001 4.159543e-001 -8.582216e-001 -1.009826e-001 1.252825e-001 -9.997901e-001 -5.434577e-001 -8.391137e-001 -1.600564e-001 1.839191e-001 7.543056e-002 2.274820e-002 1.834283e-002 -1.409114e-002 -5.290665e-003 -1.401767e-002 2.556950e-004 -2.211635e-003 -2.400238e-003 -9.643840e-003 1.126871e-002 4.358322e-003 2.966180e-003 4.430529e-003
<VARIANCE> 25
 1.138783e+002 1.004594e+002 1.243413e+002 1.139041e+002 6.730521e+001 5.515841e+001 5.154800e+001 5.239314e+001 5.943826e+001 3.472233e+001 3.188647e+001 2.854941e+001 2.623681e+000 3.734529e+000 3.403966e+000 4.698371e+000 3.198223e+000 2.646307e+000 2.792423e+000 2.870940e+000 2.871688e+000 2.301256e+000 1.876987e+000 1.856442e+000 3.659010e+000
<GCONST> 1.091226e+002
<STATE> 4
<MEAN> 25
 1.303127e+000 3.494556e-001 3.745070e-001 -8.027459e-001 -1.700483e-001 8.523455e-002 -9.665749e-001 -5.433564e-001 -9.581203e-001 -2.283964e-001 1.780167e-001 2.582279e-002 1.057407e-002 1.908059e-002 -1.646830e-002 3.138859e-003 -1.864514e-002 -2.311338e-003 6.484720e-003 1.828845e-003 -2.491195e-003 4.021980e-003 5.834378e-003 -5.212675e-003 -6.216769e-003
<VARIANCE> 25
 1.155432e+002 1.067155e+002 1.311787e+002 1.184179e+002 6.816644e+001 5.535962e+001 5.008187e+001 5.275053e+001 5.989822e+001 3.439199e+001 3.195621e+001 2.866437e+001 2.695729e+000 3.899413e+000 3.444763e+000 4.747186e+000 3.146467e+000 2.618798e+000 2.770264e+000 2.855962e+000 2.852460e+000 2.285106e+000 1.859030e+000 1.860152e+000 3.766091e+000
<GCONST> 1.093486e+002
<TRANSP> 5
 0.000000e+000 1.000000e+000 0.000000e+000 0.000000e+000 0.000000e+000
 0.000000e+000 7.633908e-001 2.366091e-001 0.000000e+000 0.000000e+000
 0.000000e+000 0.000000e+000 7.633895e-001 2.366106e-001 0.000000e+000
 0.000000e+000 0.000000e+000 0.000000e+000 8.999133e-001 1.000867e-001
 0.000000e+000 0.000000e+000 0.000000e+000 0.000000e+000 0.000000e+000
<ENDHMM>
~h "r"
<BEGINHMM>
<NUMSTATES> 5
<STATE> 2
<MEAN> 25
 2.016008e+000 -7.170345e-001 -2.123950e-001 -2.828723e-003 -8.925768e-001 -1.750739e-001 -7.517379e-001 2.215694e-001 5.282781e-001 -1.717907e-001 -1.426274e-001 1.672269e-001 -3.496091e-002 1.468890e-002 -2.653754e-003 1.278931e-002 2.237469e-003 -1.924736e-002 5.534217e-003 -4.378995e-003 1.141295e-002 -4.863601e-003 -2.363259e-003 3.377791e-003 -2.624160e-002
<VARIANCE> 25
 1.215565e+002 1.272542e+002 1.361500e+002 1.187104e+002 6.849772e+001 6.318317e+001 5.283376e+001 6.000403e+001 6.157415e+001 3.968700e+001 3.668219e+001 3.033072e+001 2.302299e+000 3.214887e+000 2.961091e+000 4.066141e+000 2.973185e+000 2.818618e+000 2.604082e+000 2.956583e+000 2.879325e+000 2.510010e+000 2.102584e+000 1.875827e+000 2.862637e+000
<GCONST> 1.095928e+002
<STATE> 3
<MEAN> 25
 1.856026e+000 -6.573359e-001 -2.262350e-001 4.201288e-002 -8.775730e-001 -2.494031e-001 -7.133017e-001 2.027150e-001 5.855073e-001 -1.937010e-001 -1.604126e-001 1.735556e-001 -4.219581e-002 1.071675e-002 3.507333e-003 7.024074e-003 5.753155e-003 -1.677142e-002 1.013927e-002 -4.825729e-003 5.967801e-003 -5.037592e-003 -4.182511e-003 1.505135e-003 -2.708753e-002
<VARIANCE> 25
 1.243257e+002 1.272222e+002 1.359272e+002 1.166684e+002 6.912617e+001 6.340015e+001 5.285648e+001 6.001249e+001 6.079806e+001 3.958777e+001 3.681276e+001 3.006079e+001 2.274021e+000 3.167257e+000 2.949136e+000 4.024683e+000 2.967566e+000 2.807169e+000 2.580670e+000 2.931648e+000 2.864170e+000 2.512517e+000 2.108050e+000 1.864286e+000 2.821559e+000
<GCONST> 1.095013e+002
<STATE> 4
<MEAN> 25
 1.664297e+000 -6.858738e-001 -1.550173e-001 1.321334e-001 -8.052798e-001 -3.517623e-001 -6.425216e-001 1.733429e-001 6.771704e-001 -2.456807e-001 -2.459295e-001 1.686443e-001 -5.206548e-002 7.413972e-003 5.637518e-003 1.122801e-003 1.142599e-002 -9.422621e-003 1.687663e-002 -5.887683e-003 5.046292e-003 -5.032162e-003 -5.669913e-003 -1.169394e-003 -3.236995e-002
<VARIANCE> 25
 1.310007e+002 1.284399e+002 1.379663e+002 1.158820e+002 7.160938e+001 6.398105e+001 5.331346e+001 5.962365e+001 6.070330e+001 3.961571e+001 3.692857e+001 2.956169e+001 2.286218e+000 3.137233e+000 2.978345e+000 4.018951e+000 2.983786e+000 2.808504e+000 2.576268e+000 2.881215e+000 2.847038e+000 2.524833e+000 2.091393e+000 1.846837e+000 2.814595e+000
<GCONST> 1.095735e+002
<TRANSP> 5
 0.000000e+000 1.000000e+000 0.000000e+000 0.000000e+000 0.000000e+000
 0.000000e+000 7.699724e-001 2.300277e-001 0.000000e+000 0.000000e+000
 0.000000e+000 0.000000e+000 7.699722e-001 2.300278e-001 0.000000e+000
 0.000000e+000 0.000000e+000 0.000000e+000 9.025537e-001 9.744636e-002
 0.000000e+000 0.000000e+000 0.000000e+000 0.000000e+000 0.000000e+000
<ENDHMM>
~h "s"
<BEGINHMM>
<NUMSTATES> 5
<STATE> 2
<MEAN> 25
 -9.240667e-001 -4.678547e-001 2.919119e+000 -2.089319e+000 2.407645e+000 -2.834054e+000 1.447508e+000 -1.291495e+000 -3.950002e-001 2.289162e-001 -6.709450e-001 3.955247e-001 -3.689660e-002 3.905467e-002 -2.342176e-002 -9.795979e-004 1.453358e-002 -6.254969e-003 -7.114852e-003 -1.870521e-002 7.247021e-003 -1.146451e-003 -7.825297e-003 -8.983430e-003 -5.903338e-002
<VARIANCE> 25
 1.387340e+002 1.236261e+002 1.366633e+002 8.838425e+001 1.244092e+002 7.683627e+001 6.388197e+001 5.718123e+001 5.072430e+001 3.153353e+001 3.505442e+001 2.655291e+001 3.074728e+000 2.941499e+000 3.429895e+000 3.396531e+000 3.476117e+000 2.916757e+000 2.591195e+000 3.055157e+000 2.612382e+000 2.256060e+000 1.923482e+000 1.814384e+000 3.140049e+000
<GCONST> 1.098887e+002
<STATE> 3
<MEAN> 25
 -1.112277e+000 -2.857811e-001 2.804939e+000 -2.088676e+000 2.470684e+000 -2.853531e+000 1.415376e+000 -1.356845e+000 -3.640586e-001 2.218260e-001 -6.896280e-001 3.617351e-001 -3.094023e-002 3.850842e-002 -2.429860e-002 6.830013e-003 -3.338468e-003 -1.003872e-003 -1.759086e-002 -1.226078e-002 5.753456e-003 -1.602656e-003 -1.911673e-003 -1.324716e-002 -7.520737e-002
<VARIANCE> 25
 1.385680e+002 1.221715e+002 1.358221e+002 8.741596e+001 1.242903e+002 7.647561e+001 6.309256e+001 5.631144e+001 5.021538e+001 3.129058e+001 3.504195e+001 2.634417e+001 3.049293e+000 2.918927e+000 3.400468e+000 3.339158e+000 3.470289e+000 2.892356e+000 2.572326e+000 3.040643e+000 2.612759e+000 2.247716e+000 1.919276e+000 1.802165e+000 3.095668e+000
<GCONST> 1.097085e+002
<STATE> 4
<MEAN> 25
 -8.872472e-001 -4.348948e-001 2.523013e+000 -2.208759e+000 2.519305e+000 -2.818630e+000 1.400084e+000 -1.229483e+000 -1.784717e-001 1.892484e-001 -7.152268e-001 2.676652e-001 -2.845496e-002 3.849079e-002 -2.050775e-002 1.803609e-002 -1.834425e-002 1.303128e-002 -2.355545e-002 -3.077857e-003 1.495088e-003 -2.647959e-003 7.331217e-003 -1.386285e-002 -8.589041e-002
<VARIANCE> 25
 1.408844e+002 1.199902e+002 1.373184e+002 8.792181e+001 1.272437e+002 7.939219e+001 6.383994e+001 5.610883e+001 4.986602e+001 3.145637e+001 3.560658e+001 2.609940e+001 3.094510e+000 3.010784e+000 3.433843e+000 3.333107e+000 3.528107e+000 2.933585e+000 2.597308e+000 3.038050e+000 2.629642e+000 2.273290e+000 1.914733e+000 1.794990e+000 3.198867e+000
<GCONST> 1.099351e+002
<TRANSP> 5
 0.000000e+000 1.000000e+000 0.000000e+000 0.000000e+000 0.000000e+000
 0.000000e+000 7.654019e-001 2.345981e-001 0.000000e+000 0.000000e+000
 0.000000e+000 0.000000e+000 7.654023e-001 2.345978e-001 0.000000e+000
 0.000000e+000 0.000000e+000 0.000000e+000 9.004573e-001 9.954277e-002
 0.000000e+000 0.000000e+000 0.000000e+000 0.000000e+000 0.000000e+000
<ENDHMM>
~h "t"
<BEGINHMM>
<NUMSTATES> 5
<STATE> 2
<MEAN> 25
 -1.575185e+000 4.328085e-001 -6.122732e-001 8.078369e-002 -4.456119e-001 2.137430e-001 3.563121e-001 6.243027e-001 -3.148711e-001 -1.172690e-001 6.241603e-001 8.546844e-002 1.549794e-002 1.234361e-002 4.765723e-002 -4.167847e-002 -1.388305e-002 -1.880180e-003 -1.917615e-002 3.567581e-003 -3.680590e-002 1.297066e-003 -1.353969e-003 -4.077334e-003 3.590476e-002
<VARIANCE> 25
 1.705697e+002 9.990312e+001 1.566397e+002 1.182984e+002 6.454894e+001 5.825760e+001 5.685488e+001 5.270401e+001 6.886377e+001 3.535339e+001 3.314978e+001 2.515814e+001 2.345372e+000 3.056063e+000 3.600712e+000 4.041646e+000 2.860925e+000 2.646418e+000 2.702305e+000 2.771446e+000 3.090268e+000 2.118340e+000 1.830314e+000 1.735198e+000 3.193895e+000
<GCONST> 1.091596e+002
<STATE> 3
<MEAN> 25
 -1.484084e+000 4.691232e-001 -4.040551e-001 -1.204791e-001 -5.091657e-001 2.099256e-001 2.655797e-001 6.461227e-001 -4.649089e-001 -8.828877e-002 6.233927e-001 6.737150e-002 1.592272e-002 1.467430e-002 5.560981e-002 -4.680455e-002 -1.618515e-002 -5.534582e-004 -2.632335e-002 2.345721e-003 -3.380040e-002 7.488342e-003 -1.617102e-003 -2.507960e-003 4.149530e-002
<VARIANCE> 25
 1.673194e+002 1.000422e+002 1.584999e+002 1.198064e+002 6.532868e+001 5.752735e+001 5.761922e+001 5.238365e+001 6.976786e+001 3.537587e+001 3.316279e+001 2.521337e+001 2.399760e+000 3.086853e+000 3.706031e+000 4.136391e+000 2.898717e+000 2.675007e+000 2.759291e+000 2.782382e+000 3.159296e+000 2.123019e+000 1.849609e+000 1.748342e+000 3.304006e+000
<GCONST> 1.093990e+002
<STATE> 4
<MEAN> 25
 -1.184516e+000 5.665569e-001 8.672284e-002 -6.434182e-001 -7.265831e-001 2.436347e-001 5.254508e-002 6.025198e-001 -8.627090e-001 -1.449200e-003 6.375843e-001 -2.108813e-004 2.990785e-002 3.729573e-003 5.911541e-002 -5.486425e-002 -1.769624e-002 -8.816913e-004 -2.794161e-002 1.127745e-003 -3.539121e-002 9.405504e-003 -3.601342e-003 -3.445251e-003 5.743293e-002
<VARIANCE> 25
 1.646365e+002 1.038516e+002 1.664900e+002 1.251666e+002 6.800598e+001 5.681134e+001 5.779676e+001 5.204541e+001 7.240652e+001 3.575686e+001 3.361234e+001 2.547283e+001 2.566939e+000 3.173131e+000 3.991839e+000 4.382261e+000 2.943830e+000 2.744187e+000 2.808791e+000 2.785039e+000 3.291793e+000 2.148910e+000 1.893635e+000 1.770577e+000 3.687516e+000
<GCONST> 1.100947e+002
<TRANSP> 5
 0.000000e+000 1.000000e+000 0.000000e+000 0.000000e+000 0.000000e+000
 0.000000e+000 7.633290e-001 2.366710e-001 0.000000e+000 0.000000e+000
 0.000000e+000 0.000000e+000 7.633297e-001 2.366703e-001 0.000000e+000
 0.000000e+000 0.000000e+000 0.000000e+000 8.965492e-001 1.034508e-001
 0.000000e+000 0.000000e+000 0.000000e+000 0.000000e+000 0.000000e+000
<ENDHMM>
~h "u"
<BEGINHMM>
<NUMSTATES> 5
<STATE> 2
<MEAN> 25
 4.566241e-001 1.817111e+000 -4.458914e-001 -7.664983e-001 -9.396234e-001 6.446580e-001 -9.191822e-001 -6.374126e-001 -6.206784e-001 -1.234381e-001 6.745402e-001 4.278510e-001 4.505453e-002 2.272694e-002 -1.406618e-002 -2.344668e-002 -4.904192e-003 5.427801e-003 -1.373905e-002 -1.634289e-002 -1.364039e-002 -1.006073e-003 -4.002582e-003 -6.946790e-003 1.997754e-002
<VARIANCE> 25
 1.519516e+002 1.030182e+002 1.360264e+002 1.367175e+002 6.401096e+001 5.238770e+001 5.380599e+001 5.415219e+001 6.848940e+001 3.919925e+001 3.313110e+001 2.853570e+001 2.417558e+000 3.069823e+000 3.021430e+000 4.428797e+000 3.037789e+000 2.553094e+000 2.677902e+000 2.800954e+000 2.989668e+000 2.301036e+000 2.009759e+000 1.830677e+000 2.890140e+000
<GCONST> 1.092322e+002
<STATE> 3
<MEAN> 25
 6.522527e-001 1.929898e+000 -5.066321e-001 -8.629556e-001 -9.535434e-001 6.728576e-001 -9.810348e-001 -7.094679e-001 -6.780209e-001 -1.316320e-001 6.502196e-001 3.907802e-001 4.275584e-002 2.189001e-002 -1.887235e-002 -2.339840e-002 -5.500542e-004 5.884798e-003 -9.183819e-003 -1.467136e-002 -1.240480e-002 -1.339206e-003 -6.980744e-003 -1.133763e-002 1.869095e-002
<VARIANCE> 25
 1.479589e+002 1.035954e+002 1.346753e+002 1.375578e+002 6.346413e+001 5.222097e+001 5.356130e+001 5.368675e+001 6.815576e+001 3.929718e+001 3.301693e+001 2.870616e+001 2.434896e+000 3.094683e+000 2.983973e+000 4.430787e+000 3.017721e+000 2.553857e+000 2.685878e+000 2.778187e+000 2.988210e+000 2.311497e+000 2.008840e+000 1.842116e+000 2.893219e+000
<GCONST> 1.091850e+002
<STATE> 4
<MEAN> 25
 1.194057e+000 2.175179e+000 -6.700780e-001 -1.068251e+000 -9.575408e-001 6.809655e-001 -1.002545e+000 -8.631101e-001 -8.023292e-001 -1.675554e-001 5.130118e-001 2.372178e-001 3.207475e-002 1.769617e-002 -2.094608e-002 -2.123182e-002 3.701105e-003 4.261253e-003 -8.489138e-003 -1.210647e-002 -7.764913e-003 -2.041632e-003 -7.971096e-003 -1.370596e-002 1.295942e-002
<VARIANCE> 25
 1.439632e+002 1.092526e+002 1.353351e+002 1.423878e+002 6.368775e+001 5.202368e+001 5.340054e+001 5.405079e+001 6.923821e+001 4.059754e+001 3.287569e+001 2.892439e+001 2.512160e+000 3.206325e+000 3.013551e+000 4.528257e+000 2.964805e+000 2.579921e+000 2.739766e+000 2.757094e+000 3.007799e+000 2.346975e+000 2.009224e+000 1.853495e+000 3.004258e+000
<GCONST> 1.094741e+002
<TRANSP> 5
 0.000000e+000 1.000000e+000 0.000000e+000 0.000000e+000 0.000000e+000
 0.000000e+000 7.686243e-001 2.313757e-001 0.000000e+000 0.000000e+000
 0.000000e+000 0.000000e+000 7.686234e-001 2.313766e-001 0.000000e+000
 0.000000e+000 0.000000e+000 0.000000e+000 9.024088e-001 9.759120e-002
 0.000000e+000 0.000000e+000 0.000000e+000 0.000000e+000 0.000000e+000
<ENDHMM>
~h "w"
<BEGINHMM>
<NUMSTATES> 5
<STATE> 2
<MEAN> 25
 -9.796388e-002 7.648901e-001 -8.380551e-001 -1.254837e+000 -2.002989e-001 -2.231250e-001 -9.736128e-001 -1.960390e-001 2.934437e-001 2.127976e-001 -4.418796e-002 -2.972246e-001 3.932592e-002 -2.737107e-002 4.417434e-002 -5.658690e-002 4.672384e-003 3.428470e-002 4.877294e-003 1.464778e-002 -1.040142e-002 3.304280e-002 -1.462352e-002 -1.342649e-002 6.074616e-002
<VARIANCE> 25
 1.554028e+002 1.649511e+002 8.184483e+001 1.680114e+002 5.591268e+001 7.150036e+001 4.609847e+001 4.830610e+001 3.659179e+001 4.444224e+001 3.494403e+001 3.068901e+001 2.494495e+000 4.265167e+000 2.421738e+000 3.773257e+000 3.394133e+000 3.769459e+000 2.895029e+000 2.647196e+000 2.365010e+000 2.567135e+000 1.859985e+000 2.127398e+000 2.781521e+000
<GCONST> 1.093655e+002
<STATE> 3
<MEAN> 25
 6.277869e-002 6.125793e-001 -6.150948e-001 -1.500534e+000 -1.884060e-001 -1.072344e-001 -9.566786e-001 -1.010363e-001 2.625682e-001 3.816906e-001 -1.048962e-001 -3.512972e-001 3.549460e-002 -3.510145e-002 5.214766e-002 -5.258291e-002 4.084487e-003 2.219366e-002 3.195565e-003 2.207288e-002 -7.872939e-003 3.735519e-002 -1.340363e-002 -1.077882e-002 6.438881e-002
<VARIANCE> 25
 1.543092e+002 1.648826e+002 8.227386e+001 1.671886e+002 5.528569e+001 7.138445e+001 4.588549e+001 4.889407e+001 3.682096e+001 4.484011e+001 3.580657e+001 3.060557e+001 2.446893e+000 4.287168e+000 2.468290e+000 3.793071e+000 3.335194e+000 3.802252e+000 2.862641e+000 2.680135e+000 2.390892e+000 2.595996e+000 1.900411e+000 2.147271e+000 2.771838e+000
<GCONST> 1.094415e+002
<STATE> 4
<MEAN> 25
 6.172341e-001 3.651693e-001 -1.677810e-001 -1.926573e+000 -1.526133e-001 -2.313017e-001 -9.949839e-001 1.375432e-001 1.756018e-001 7.354472e-001 -3.089586e-001 -4.993424e-001 3.803185e-002 -4.977129e-002 7.381618e-002 -5.010417e-002 -6.981431e-003 9.420702e-004 -2.256834e-003 3.577615e-002 -1.324628e-002 3.260877e-002 -1.846783e-002 -4.618103e-003 7.912304e-002
<VARIANCE> 25
 1.472868e+002 1.695598e+002 8.300616e+001 1.682867e+002 5.468237e+001 7.045963e+001 4.599273e+001 5.194171e+001 3.797375e+001 4.738345e+001 3.843087e+001 3.116157e+001 2.369945e+000 4.343109e+000 2.616872e+000 3.750813e+000 3.238330e+000 3.724335e+000 2.854897e+000 2.800864e+000 2.434174e+000 2.666720e+000 1.972437e+000 2.139316e+000 2.748238e+000
<GCONST> 1.097410e+002
<TRANSP> 5
 0.000000e+000 1.000000e+000 0.000000e+000 0.000000e+000 0.000000e+000
 0.000000e+000 7.696692e-001 2.303309e-001 0.000000e+000 0.000000e+000
 0.000000e+000 0.000000e+000 7.696684e-001 2.303316e-001 0.000000e+000
 0.000000e+000 0.000000e+000 0.000000e+000 8.988456e-001 1.011544e-001
 0.000000e+000 0.000000e+000 0.000000e+000 0.000000e+000 0.000000e+000
<ENDHMM>
~h "y"
<BEGINHMM>
<NUMSTATES> 5
<STATE> 2
<MEAN> 25
 -1.513887e-008 8.685321e-009 6.289883e-008 7.186313e-008 3.131923e-008 4.571417e-008 5.014053e-008 1.333485e-008 -7.134006e-008 8.713219e-009 1.011273e-009 4.209684e-008 -6.534437e-003 7.731597e-003 -5.306157e-003 4.609803e-003 -4.191151e-003 8.242088e-003 -6.219152e-003 5.951754e-003 -5.249157e-003 1.868283e-003 2.200403e-003 -1.269434e-003 2.744509e-003
<VARIANCE> 25
 6.716856e+001 2.941401e+001 5.663681e+001 4.741492e+001 4.696264e+001 4.914315e+001 4.999928e+001 4.303569e+001 5.672998e+001 3.222253e+001 2.850756e+001 4.103967e+001 2.100924e+000 1.434693e+000 1.891293e+000 2.194988e+000 2.363979e+000 2.636887e+000 2.464799e+000 2.732278e+000 2.851009e+000 2.222413e+000 2.036798e+000 2.011688e+000 1.909456e+000
<GCONST> 1.015924e+002
<STATE> 3
<MEAN> 25
 -1.513887e-008 8.685321e-009 6.289883e-008 7.186313e-008 3.131923e-008 4.571417e-008 5.014053e-008 1.333485e-008 -7.134006e-008 8.713219e-009 1.011273e-009 4.209684e-008 -6.534437e-003 7.731597e-003 -5.306157e-003 4.609803e-003 -4.191151e-003 8.242088e-003 -6.219152e-003 5.951754e-003 -5.249157e-003 1.868283e-003 2.200403e-003 -1.269434e-003 2.744509e-003
<VARIANCE> 25
 6.716856e+001 2.941401e+001 5.663681e+001 4.741492e+001 4.696264e+001 4.914315e+001 4.999928e+001 4.303569e+001 5.672998e+001 3.222253e+001 2.850756e+001 4.103967e+001 2.100924e+000 1.434693e+000 1.891293e+000 2.194988e+000 2.363979e+000 2.636887e+000 2.464799e+000 2.732278e+000 2.851009e+000 2.222413e+000 2.036798e+000 2.011688e+000 1.909456e+000
<GCONST> 1.015924e+002
<STATE> 4
<MEAN> 25
 -1.513887e-008 8.685321e-009 6.289883e-008 7.186313e-008 3.131923e-008 4.571417e-008 5.014053e-008 1.333485e-008 -7.134006e-008 8.713219e-009 1.011273e-009 4.209684e-008 -6.534437e-003 7.731597e-003 -5.306157e-003 4.609803e-003 -4.191151e-003 8.242088e-003 -6.219152e-003 5.951754e-003 -5.249157e-003 1.868283e-003 2.200403e-003 -1.269434e-003 2.744509e-003
<VARIANCE> 25
 6.716856e+001 2.941401e+001 5.663681e+001 4.741492e+001 4.696264e+001 4.914315e+001 4.999928e+001 4.303569e+001 5.672998e+001 3.222253e+001 2.850756e+001 4.103967e+001 2.100924e+000 1.434693e+000 1.891293e+000 2.194988e+000 2.363979e+000 2.636887e+000 2.464799e+000 2.732278e+000 2.851009e+000 2.222413e+000 2.036798e+000 2.011688e+000 1.909456e+000
<GCONST> 1.015924e+002
<TRANSP> 5
 0.000000e+000 1.000000e+000 0.000000e+000 0.000000e+000 0.000000e+000
 0.000000e+000 6.000000e-001 4.000000e-001 0.000000e+000 0.000000e+000
 0.000000e+000 0.000000e+000 6.000000e-001 4.000000e-001 0.000000e+000
 0.000000e+000 0.000000e+000 0.000000e+000 7.000000e-001 3.000000e-001
 0.000000e+000 0.000000e+000 0.000000e+000 0.000000e+000 0.000000e+000
<ENDHMM>
~h "ay"
<BEGINHMM>
<NUMSTATES> 5
<STATE> 2
<MEAN> 25
 -8.597439e+000 -8.594922e-001 -6.015945e+000 2.780915e+000 1.331936e+000 2.440850e+000 3.925991e+000 2.053440e+000 3.280002e+000 -1.451629e-001 1.485746e+000 1.382195e+000 1.993850e-001 -7.802336e-002 5.567397e-002 -3.281070e-002 -3.566410e-002 2.747813e-002 -2.584757e-002 -1.638019e-002 -5.230523e-002 -6.989658e-002 -8.641439e-003 6.969128e-004 1.926780e-001
<VARIANCE> 25
 2.140928e+002 8.675474e+001 8.394448e+001 6.480942e+001 5.041401e+001 4.272795e+001 3.376840e+001 3.906960e+001 4.390218e+001 3.861798e+001 2.770222e+001 1.982557e+001 2.178987e+000 3.634261e+000 1.967336e+000 2.029925e+000 1.761209e+000 2.066975e+000 2.184655e+000 2.682137e+000 2.943060e+000 2.263935e+000 1.524006e+000 1.584674e+000 2.022039e+000
<GCONST> 1.029787e+002
<STATE> 3
<MEAN> 25
 -7.567370e+000 -1.216050e+000 -5.703512e+000 2.617481e+000 1.194766e+000 2.599029e+000 3.770666e+000 1.964851e+000 2.989569e+000 -4.637227e-001 1.423177e+000 1.391329e+000 2.281473e-001 -8.417416e-002 7.761605e-002 -5.280210e-002 -4.398834e-002 2.939331e-002 -3.507971e-002 -2.191778e-002 -7.128727e-002 -7.129857e-002 -8.303157e-003 -2.529877e-004 2.315592e-001
<VARIANCE> 25
 2.129309e+002 9.367158e+001 9.369411e+001 7.133363e+001 5.408887e+001 4.666958e+001 3.575285e+001 4.271473e+001 4.785844e+001 4.088126e+001 2.735487e+001 1.999378e+001 2.404613e+000 3.995795e+000 2.179969e+000 2.178504e+000 1.880110e+000 2.224866e+000 2.298076e+000 2.846253e+000 3.245839e+000 2.349537e+000 1.523930e+000 1.591724e+000 2.184127e+000
<GCONST> 1.045318e+002
<STATE> 4
<MEAN> 25
 -5.983079e+000 -2.144272e+000 -5.008125e+000 2.023509e+000 1.193944e+000 3.174216e+000 3.415686e+000 1.681040e+000 2.309836e+000 -8.174576e-001 1.442475e+000 1.608237e+000 2.457949e-001 -8.128857e-002 1.438902e-001 -9.640812e-002 -5.366681e-002 2.103644e-002 -5.069825e-002 -2.310763e-002 -9.056363e-002 -3.986689e-002 -4.540985e-003 -4.442128e-003 2.790962e-001
<VARIANCE> 25
 2.208266e+002 1.074933e+002 1.238216e+002 8.921886e+001 5.374154e+001 5.521965e+001 3.929222e+001 5.251355e+001 5.725537e+001 4.485046e+001 2.631532e+001 1.955119e+001 2.717736e+000 4.413070e+000 2.486827e+000 2.439737e+000 1.998763e+000 2.430011e+000 2.512346e+000 3.182441e+000 3.763457e+000 2.402189e+000 1.469622e+000 1.562352e+000 2.408359e+000
<GCONST> 1.069117e+002
<TRANSP> 5
 0.000000e+000 1.000000e+000 0.000000e+000 0.000000e+000 0.000000e+000
 0.000000e+000 7.636263e-001 2.363736e-001 0.000000e+000 0.000000e+000
 0.000000e+000 0.000000e+000 7.636262e-001 2.363738e-001 0.000000e+000
 0.000000e+000 0.000000e+000 0.000000e+000 8.994098e-001 1.005902e-001
 0.000000e+000 0.000000e+000 0.000000e+000 0.000000e+000 0.000000e+000
<ENDHMM>
~h "eh"
<BEGINHMM>
<NUMSTATES> 5
<STATE> 2
<MEAN> 25
 2.343729e-001 5.006700e-001 1.970863e+000 -7.636800e-001 -1.374681e+000 -2.172915e+000 1.569014e-001 2.090028e+000 -1.029009e+000 2.906329e-001 6.335499e-001 -1.794058e-001 -6.391473e-002 3.314987e-002 5.968776e-003 2.651103e-002 -1.471898e-002 6.672277e-003 1.286675e-002 9.819892e-003 3.835435e-003 -7.474180e-003 -1.577979e-002 1.254111e-002 7.586717e-003
<VARIANCE> 25
 1.248085e+002 1.319112e+002 1.480254e+002 8.905839e+001 8.284496e+001 6.297190e+001 6.309216e+001 7.001594e+001 5.955407e+001 3.198627e+001 3.665462e+001 2.547579e+001 2.415806e+000 3.022466e+000 2.932722e+000 3.184002e+000 2.859384e+000 2.504348e+000 2.687041e+000 3.274602e+000 2.535161e+000 2.074312e+000 1.721071e+000 1.621543e+000 2.833027e+000
<GCONST> 1.085800e+002
<STATE> 3
<MEAN> 25
 1.095754e-001 4.714072e-001 1.943475e+000 -6.849639e-001 -1.441903e+000 -2.138601e+000 2.425080e-001 2.189691e+000 -9.760324e-001 2.809243e-001 5.590127e-001 -1.584741e-001 -6.447385e-002 1.703843e-002 1.038723e-002 1.639280e-002 -1.090308e-002 8.140783e-003 1.234138e-002 1.550871e-003 3.163748e-003 -1.744041e-003 -1.628176e-002 1.546303e-002 3.266682e-002
<VARIANCE> 25
 1.284989e+002 1.377622e+002 1.440943e+002 8.828321e+001 8.354198e+001 6.133191e+001 6.215016e+001 6.848772e+001 5.952960e+001 3.208043e+001 3.740389e+001 2.519667e+001 2.507400e+000 3.072980e+000 2.967902e+000 3.163317e+000 2.811525e+000 2.482450e+000 2.653127e+000 3.325197e+000 2.568227e+000 2.097249e+000 1.734310e+000 1.601182e+000 2.954772e+000
<GCONST> 1.086707e+002
<STATE> 4
<MEAN> 25
 4.134048e-001 -2.617017e-001 2.334275e+000 -9.376265e-001 -1.719395e+000 -2.118413e+000 2.487682e-001 2.362015e+000 -9.577221e-001 4.541366e-001 4.296688e-001 -2.678919e-001 -1.795427e-002 -4.895046e-002 -8.993149e-003 -1.347506e-005 6.080119e-003 9.634138e-003 2.863886e-002 4.213132e-003 2.164598e-002 7.952859e-003 -3.016228e-002 9.602515e-003 7.663858e-002
<VARIANCE> 25
 1.367195e+002 1.543481e+002 1.409559e+002 8.952311e+001 8.749013e+001 6.135419e+001 5.971618e+001 6.950394e+001 5.931847e+001 3.246667e+001 4.033563e+001 2.492702e+001 2.759438e+000 3.208742e+000 3.098058e+000 3.219858e+000 2.829844e+000 2.492669e+000 2.573140e+000 3.441669e+000 2.611308e+000 2.162864e+000 1.818882e+000 1.585684e+000 3.416046e+000
<GCONST> 1.093772e+002
<TRANSP> 5
 0.000000e+000 1.000000e+000 0.000000e+000 0.000000e+000 0.000000e+000
 0.000000e+000 7.517503e-001 2.482497e-001 0.000000e+000 0.000000e+000
 0.000000e+000 0.000000e+000 7.517506e-001 2.482493e-001 0.000000e+000
 0.000000e+000 0.000000e+000 0.000000e+000 8.872682e-001 1.127318e-001
 0.000000e+000 0.000000e+000 0.000000e+000 0.000000e+000 0.000000e+000
<ENDHMM>
~h "ng"
<BEGINHMM>
<NUMSTATES> 5
<STATE> 2
<MEAN> 25
 3.306426e+000 5.169979e-001 -3.052937e+000 1.258844e-001 1.120910e+000 3.787186e+000 4.641399e-002 -2.232177e+000 1.856095e-001 -4.123130e-001 5.840226e-001 -5.473721e-001 -1.382047e-001 7.281175e-002 -5.586043e-002 5.006759e-002 2.901101e-002 -4.603473e-002 3.880644e-003 1.255648e-002 2.214837e-003 -2.631926e-002 3.879289e-003 -1.965613e-002 -1.577767e-001
<VARIANCE> 25
 9.614844e+001 1.226396e+002 8.532928e+001 1.101154e+002 6.272182e+001 5.754144e+001 4.308288e+001 4.183708e+001 4.188330e+001 4.171046e+001 2.504792e+001 2.638334e+001 1.703805e+000 2.961894e+000 2.232977e+000 2.976418e+000 2.560294e+000 2.208139e+000 2.415878e+000 2.623201e+000 2.460841e+000 2.280797e+000 1.600373e+000 1.838915e+000 2.552052e+000
<GCONST> 1.049502e+002
<STATE> 3
<MEAN> 25
 2.668438e+000 8.394849e-001 -3.275173e+000 3.397911e-001 1.226996e+000 3.567817e+000 6.410176e-002 -2.164234e+000 1.986086e-001 -5.190974e-001 6.013210e-001 -6.331217e-001 -1.538224e-001 5.833562e-002 -3.909102e-002 4.318819e-002 2.801534e-002 -5.118969e-002 1.358373e-003 2.867355e-002 6.396818e-003 -2.564801e-002 -4.049958e-003 -2.664250e-002 -1.565689e-001
<VARIANCE> 25
 1.032313e+002 1.215014e+002 8.388316e+001 1.077305e+002 6.098897e+001 5.652029e+001 4.250258e+001 4.067123e+001 4.165399e+001 4.118465e+001 2.434698e+001 2.610215e+001 1.699742e+000 2.911714e+000 2.249355e+000 2.929912e+000 2.562693e+000 2.177109e+000 2.409931e+000 2.591201e+000 2.435708e+000 2.273057e+000 1.592387e+000 1.835417e+000 2.532348e+000
<GCONST> 1.047438e+002
<STATE> 4
<MEAN> 25
 1.659454e+000 1.275307e+000 -3.381891e+000 7.066228e-001 1.420050e+000 3.267965e+000 3.778430e-002 -2.063951e+000 2.574107e-001 -6.383817e-001 5.615850e-001 -7.340293e-001 -1.648785e-001 3.444806e-002 -1.842281e-002 3.248436e-002 1.725473e-002 -5.409552e-002 6.916321e-003 4.440421e-002 1.021130e-002 -1.957340e-002 -8.879044e-003 -2.775077e-002 -1.457595e-001
<VARIANCE> 25
 1.162079e+002 1.206949e+002 8.505792e+001 1.043059e+002 6.004751e+001 5.576657e+001 4.122169e+001 3.965255e+001 4.218584e+001 4.073058e+001 2.346988e+001 2.606243e+001 1.769235e+000 2.912743e+000 2.347394e+000 2.920800e+000 2.606319e+000 2.165079e+000 2.394320e+000 2.568090e+000 2.422893e+000 2.277404e+000 1.600290e+000 1.860541e+000 2.614145e+000
<GCONST> 1.048384e+002
<TRANSP> 5
 0.000000e+000 1.000000e+000 0.000000e+000 0.000000e+000 0.000000e+000
 0.000000e+000 7.654876e-001 2.345125e-001 0.000000e+000 0.000000e+000
 0.000000e+000 0.000000e+000 7.654877e-001 2.345123e-001 0.000000e+000
 0.000000e+000 0.000000e+000 0.000000e+000 8.963770e-001 1.036230e-001
 0.000000e+000 0.000000e+000 0.000000e+000 0.000000e+000 0.000000e+000
<ENDHMM>
~h "ny"
<BEGINHMM>
<NUMSTATES> 5
<STATE> 2
<MEAN> 25
 -2.063168e+000 8.571544e-001 7.310565e-001 1.907479e-001 -1.099325e+000 2.939464e-001 2.182140e-001 7.378661e-001 -4.579640e-001 -4.712333e-002 9.762800e-001 9.876467e-001 1.181093e-002 -3.198815e-002 -2.460240e-002 -4.671399e-002 -6.522686e-002 3.616110e-003 9.337585e-002 8.458017e-002 7.953301e-002 -1.874587e-002 5.110265e-003 -2.603241e-003 5.614253e-002
<VARIANCE> 25
 1.542979e+002 8.534201e+001 1.337191e+002 8.521201e+001 5.997341e+001 3.704744e+001 4.064249e+001 4.172328e+001 5.482692e+001 2.807322e+001 3.307094e+001 2.643248e+001 1.500306e+000 2.525955e+000 2.622164e+000 2.895718e+000 2.710839e+000 1.897356e+000 2.383238e+000 2.518129e+000 2.376346e+000 1.914510e+000 1.757942e+000 1.643144e+000 1.836289e+000
<GCONST> 1.040003e+002
<STATE> 3
<MEAN> 25
 -2.007349e+000 7.131260e-001 6.229273e-001 4.043904e-002 -1.313803e+000 2.525918e-001 5.271713e-001 9.591647e-001 -1.698930e-001 -9.924031e-002 9.397523e-001 9.821912e-001 1.367640e-002 -5.454856e-002 -4.363699e-002 -4.182680e-002 -4.915770e-002 -2.262416e-002 9.317814e-002 5.976537e-002 9.690958e-002 -1.523622e-002 -2.660530e-002 -1.806081e-003 5.744640e-002
<VARIANCE> 25
 1.539316e+002 8.702180e+001 1.327091e+002 8.415443e+001 6.105772e+001 3.650620e+001 3.963298e+001 4.135859e+001 5.453234e+001 2.933412e+001 3.411897e+001 2.631373e+001 1.477626e+000 2.566540e+000 2.609042e+000 2.953526e+000 2.756589e+000 1.868798e+000 2.438317e+000 2.510336e+000 2.403129e+000 1.965473e+000 1.785464e+000 1.651667e+000 1.835023e+000
<GCONST> 1.041262e+002
<STATE> 4
<MEAN> 25
 -1.931596e+000 6.644401e-001 3.088877e-001 -1.621994e-001 -1.197969e+000 3.416554e-002 9.500089e-001 8.976865e-001 5.153233e-002 -1.303899e-002 6.880553e-001 6.874471e-001 3.753408e-002 -5.679436e-002 -4.293618e-002 -2.240342e-002 5.958918e-003 -1.400760e-002 6.867919e-002 1.366833e-002 5.890317e-002 -1.182754e-002 -4.712873e-002 -1.196511e-002 4.972434e-002
<VARIANCE> 25
 1.678920e+002 9.862335e+001 1.400209e+002 8.936936e+001 6.302461e+001 3.828173e+001 3.643472e+001 4.111212e+001 5.771623e+001 3.162176e+001 3.618924e+001 2.490781e+001 1.691038e+000 2.857152e+000 2.786810e+000 3.347581e+000 2.896988e+000 2.017906e+000 2.430874e+000 2.463990e+000 2.517446e+000 2.056915e+000 1.770876e+000 1.666628e+000 2.045146e+000
<GCONST> 1.053160e+002
<TRANSP> 5
 0.000000e+000 1.000000e+000 0.000000e+000 0.000000e+000 0.000000e+000
 0.000000e+000 7.516550e-001 2.483450e-001 0.000000e+000 0.000000e+000
 0.000000e+000 0.000000e+000 7.516557e-001 2.483443e-001 0.000000e+000
 0.000000e+000 0.000000e+000 0.000000e+000 8.860858e-001 1.139142e-001
 0.000000e+000 0.000000e+000 0.000000e+000 0.000000e+000 0.000000e+000
<ENDHMM>
~h "sil"
<BEGINHMM>
<NUMSTATES> 5
<STATE> 2
<MEAN> 25
 -1.683380e+001 3.950612e+000 -6.085157e+000 6.640834e+000 1.336031e-001 1.177591e+000 1.793402e+000 5.193704e-001 3.870846e+000 3.123981e-001 3.103448e+000 1.478446e+000 -1.457855e-001 4.632559e-002 -4.999401e-002 -1.776330e-002 5.087855e-002 1.613265e-001 -8.217662e-002 -1.856279e-001 9.038155e-002 2.213381e-001 1.453883e-001 -3.426558e-001 -1.675779e-001
<VARIANCE> 25
 1.091967e+002 3.270748e+001 4.439903e+001 1.698388e+001 2.015339e+001 2.145672e+001 2.398487e+001 2.383255e+001 3.118801e+001 1.945740e+001 2.098458e+001 1.682741e+001 2.269761e-001 3.829038e-001 4.470624e-001 6.026883e-001 7.781569e-001 8.409394e-001 9.306702e-001 1.392821e+000 1.229392e+000 1.476118e+000 9.859410e-001 1.511380e+000 2.005241e-001
<GCONST> 8.091521e+001
<STATE> 3
<MEAN> 25
 -1.752666e+001 4.247751e+000 -6.248719e+000 6.633952e+000 2.114824e-001 1.440275e+000 1.759944e+000 3.731381e-001 3.981549e+000 2.611627e-001 3.064954e+000 1.101493e+000 -1.415410e-001 4.172365e-002 -1.482869e-002 -1.903565e-003 1.814817e-002 6.152308e-002 1.351219e-002 -2.168532e-002 1.807237e-002 -5.311519e-002 -2.305513e-002 -1.751284e-002 -1.510429e-001
<VARIANCE> 25
 9.774242e+001 2.815477e+001 4.065247e+001 1.496889e+001 1.844462e+001 1.887586e+001 2.339404e+001 2.421682e+001 3.237025e+001 1.801187e+001 2.005309e+001 1.433282e+001 2.110618e-001 3.664176e-001 4.085371e-001 5.510237e-001 7.672997e-001 7.399276e-001 9.226494e-001 1.227832e+000 1.349791e+000 1.297182e+000 9.361024e-001 9.789832e-001 1.588796e-001
<GCONST> 7.864059e+001
<STATE> 4
<MEAN> 25
 -1.888296e+001 4.331184e+000 -6.862498e+000 6.552649e+000 -3.419823e-002 1.557665e+000 2.359477e+000 5.813068e-001 3.868692e+000 -1.367633e-001 3.126036e+000 1.106609e+000 -1.311634e-001 -1.702453e-002 1.037751e-004 -1.356787e-002 -9.920459e-003 4.723812e-002 2.940066e-002 -2.598611e-002 -3.045956e-002 -4.448210e-002 1.890977e-002 2.756814e-002 -1.022956e-001
<VARIANCE> 25
 8.159579e+001 2.524255e+001 3.407542e+001 1.554260e+001 1.720185e+001 1.844007e+001 2.166608e+001 2.316313e+001 2.712907e+001 1.538118e+001 1.592034e+001 1.312619e+001 2.975372e-001 4.178479e-001 4.785659e-001 6.298836e-001 8.448090e-001 7.633810e-001 1.101462e+000 1.239688e+000 1.464119e+000 1.125447e+000 9.646907e-001 9.302438e-001 2.427910e-001
<GCONST> 7.876765e+001
<TRANSP> 5
 0.000000e+000 1.000000e+000 0.000000e+000 0.000000e+000 0.000000e+000
 0.000000e+000 7.664296e-001 2.335704e-001 0.000000e+000 0.000000e+000
 0.000000e+000 0.000000e+000 7.664299e-001 2.335702e-001 0.000000e+000
 0.000000e+000 0.000000e+000 0.000000e+000 9.006118e-001 9.938818e-002
 0.000000e+000 0.000000e+000 0.000000e+000 0.000000e+000 0.000000e+000
<ENDHMM>
