~o
<STREAMINFO> 1 25
<VECSIZE> 25<NULLD><MFCC_D_N_Z_0><DIAGC>
~s "silst"
<MEAN> 25
 -1.618567e+001 8.070779e+000 -5.970230e+000 6.501359e+000 -9.241099e-001 -3.514490e-002 2.835635e-001 -1.596687e+000 2.629113e+000 -9.195967e-001 2.337318e+000 -5.524551e-001 -2.813685e-001 -7.996541e-002 -2.618632e-003 -3.473790e-002 1.628844e-002 8.518250e-002 2.902383e-002 -2.634212e-002 3.452744e-002 3.610931e-002 4.262085e-002 -1.410857e-001 -1.890257e-001
<VARIANCE> 25
 5.276628e+001 1.581946e+001 2.861290e+001 1.330316e+001 1.672149e+001 1.857091e+001 1.745607e+001 1.770151e+001 2.128219e+001 1.957852e+001 1.720643e+001 1.301983e+001 1.764920e-001 2.631938e-001 3.995921e-001 5.333152e-001 7.395360e-001 7.802426e-001 9.129377e-001 1.073830e+000 1.359303e+000 1.337805e+000 1.003400e+000 9.333669e-001 6.563748e-002
<GCONST> 7.415538e+001
~h "a"
<BEGINHMM>
<NUMSTATES> 5
<STATE> 2
<MEAN> 25
 9.725458e+000 -1.176643e+001 -1.802468e+000 -6.699687e+000 4.990336e-001 3.800159e+000 2.014354e+000 1.425389e+000 1.996770e+000 2.308415e+000 -1.829724e+000 -3.922883e+000 1.990485e-001 -1.656938e+000 4.209998e-001 -6.072641e-001 8.816383e-001 9.310192e-002 2.685862e-001 7.066063e-001 -1.391913e-001 -2.531943e-001 -6.260808e-001 -6.264383e-001 1.451870e+000
<VARIANCE> 25
 5.398372e+001 1.082200e+002 1.280721e+002 1.277665e+002 7.084283e+001 9.520258e+001 7.094922e+001 9.090297e+001 5.896040e+001 7.084076e+001 4.766747e+001 4.591684e+001 2.485433e+000 4.274175e+000 4.413105e+000 5.505468e+000 3.910439e+000 4.785840e+000 4.236181e+000 5.311166e+000 3.869340e+000 4.324380e+000 2.934777e+000 3.121056e+000 2.928807e+000
<GCONST> 1.156421e+002
<STATE> 3
<MEAN> 25
 1.048264e+001 -1.829967e+001 -2.177496e+000 -9.170640e+000 5.176960e+000 2.550939e+000 3.459674e+000 4.360814e+000 1.363905e+000 1.028672e+000 -4.185023e+000 -5.790899e+000 -1.358205e-001 2.732262e-002 1.392521e-001 4.856344e-002 1.575456e-001 -2.821100e-001 1.536233e-001 2.854469e-001 -2.768236e-001 -2.283684e-001 -1.033674e-001 2.142387e-001 -8.134606e-002
<VARIANCE> 25
 2.396302e+001 4.195143e+001 5.410965e+001 6.150269e+001 4.801100e+001 6.190170e+001 6.579016e+001 6.902286e+001 3.219856e+001 3.837970e+001 3.121140e+001 2.545866e+001 4.244787e-001 1.159995e+000 1.226470e+000 1.547045e+000 1.614426e+000 2.090828e+000 1.883746e+000 2.380953e+000 1.716765e+000 1.897500e+000 1.504532e+000 1.624023e+000 6.199971e-001
<GCONST> 9.543085e+001
<STATE> 4
<MEAN> 25
 6.023142e+000 -1.086528e+001 -1.095758e+000 -3.694144e+000 3.405272e+000 2.569425e-001 2.860853e+000 4.534831e+000 1.289419e+000 4.724796e-001 -4.962426e+000 -1.941686e+000 -5.755508e-001 1.340325e+000 2.667885e-001 1.221190e+000 -1.867656e-001 -1.885737e-001 -2.938307e-001 -4.985597e-001 -2.103045e-001 -3.339882e-002 1.895128e-001 5.474406e-001 -1.455715e+000
<VARIANCE> 25
 4.093239e+001 6.432292e+001 5.512444e+001 7.658845e+001 4.303695e+001 6.185872e+001 3.968671e+001 5.493044e+001 3.254250e+001 3.319535e+001 3.328559e+001 2.596045e+001 9.522554e-001 1.859128e+000 1.714521e+000 2.707982e+000 2.396754e+000 2.087582e+000 2.114108e+000 2.569709e+000 2.423019e+000 1.938692e+000 1.834212e+000 1.663048e+000 1.494778e+000
<GCONST> 9.996480e+001
<TRANSP> 5
 0.000000e+000 1.000000e+000 0.000000e+000 0.000000e+000 0.000000e+000
 0.000000e+000 6.698740e-001 3.301260e-001 0.000000e+000 0.000000e+000
 0.000000e+000 0.000000e+000 8.031274e-001 1.968726e-001 0.000000e+000
 0.000000e+000 0.000000e+000 0.000000e+000 8.028640e-001 1.971360e-001
 0.000000e+000 0.000000e+000 0.000000e+000 0.000000e+000 0.000000e+000
<ENDHMM>
~h "b"
<BEGINHMM>
<NUMSTATES> 5
<STATE> 2
<MEAN> 25
 -8.447886e+000 6.295438e+000 -5.550037e+000 7.171139e+000 -5.873887e-001 -2.052966e+000 8.814325e-001 1.058219e+000 1.814142e+000 -3.535764e+000 3.020714e-001 2.281906e+000 -4.174637e-001 2.797881e-001 -2.501978e-002 1.339408e-001 -7.774795e-002 -1.945295e-002 -5.536386e-002 -1.336671e-001 5.934333e-003 -2.647858e-002 1.205726e-001 -2.866419e-002 -5.582640e-001
<VARIANCE> 25
 6.505392e+001 3.542125e+001 3.717727e+001 3.138168e+001 3.574532e+001 3.087899e+001 2.922928e+001 3.427749e+001 3.040278e+001 3.759385e+001 2.084793e+001 2.838709e+001 3.490324e-001 7.174063e-001 7.162613e-001 8.350345e-001 8.805020e-001 1.175900e+000 1.101979e+000 1.206240e+000 1.144012e+000 1.743168e+000 1.174539e+000 1.465310e+000 1.585397e-001
<GCONST> 8.590422e+001
<STATE> 3
<MEAN> 25
 -1.225513e+001 7.383000e+000 -5.159271e+000 8.886739e+000 -7.800704e-001 -1.522185e+000 4.585760e-001 6.476253e-001 2.253179e+000 -3.861629e+000 8.323855e-001 9.154961e-001 3.915630e-001 1.009192e+000 1.006197e+000 7.190567e-001 7.683895e-001 6.041365e-001 2.304403e-001 -9.824298e-002 1.123065e-001 2.004944e-001 -5.598785e-002 -4.704636e-001 8.847395e-002
<VARIANCE> 25
 1.031534e+002 2.333075e+001 4.784484e+001 2.747970e+001 2.360065e+001 3.874644e+001 2.708249e+001 5.275932e+001 3.056617e+001 5.318090e+001 2.198586e+001 2.232404e+001 3.565114e+000 1.335506e+000 1.564926e+000 1.810153e+000 1.765705e+000 2.035309e+000 2.355923e+000 1.877403e+000 1.701938e+000 1.887233e+000 1.260415e+000 1.502865e+000 2.293487e+000
<GCONST> 9.659047e+001
<STATE> 4
<MEAN> 25
 3.887354e+000 1.909018e+001 3.431908e+000 1.337328e+001 3.003678e+000 1.438828e+000 2.317305e+000 -3.142447e+000 -1.561319e+000 -3.065806e+000 8.894171e-001 -2.906224e-001 2.733505e+000 2.372496e-001 1.812282e-001 -3.170761e-001 -3.586788e-002 2.177506e-002 -2.070150e-001 -3.050358e-001 -6.181464e-001 -1.720122e-001 -2.960592e-002 -1.763562e-002 2.124291e+000
<VARIANCE> 25
 1.018640e+002 9.838642e+001 4.848401e+001 4.238359e+001 3.146120e+001 2.222777e+001 3.490916e+001 2.875432e+001 3.525238e+001 2.956799e+001 2.586938e+001 1.683037e+001 5.663382e+000 1.650739e+001 8.710033e+000 8.467195e+000 4.834487e+000 2.893880e+000 4.187057e+000 3.821516e+000 4.049349e+000 3.102414e+000 2.545406e+000 2.282969e+000 3.670282e+000
<GCONST> 1.091149e+002
<TRANSP> 5
 0.000000e+000 1.000000e+000 0.000000e+000 0.000000e+000 0.000000e+000
 0.000000e+000 9.193479e-001 8.065209e-002 0.000000e+000 0.000000e+000
 0.000000e+000 0.000000e+000 4.677905e-001 5.322095e-001 0.000000e+000
 0.000000e+000 0.000000e+000 0.000000e+000 8.602123e-001 1.397877e-001
 0.000000e+000 0.000000e+000 0.000000e+000 0.000000e+000 0.000000e+000
<ENDHMM>
~h "c"
<BEGINHMM>
<NUMSTATES> 5
<STATE> 2
<MEAN> 25
 -1.353971e+001 5.004473e+000 -6.760123e+000 4.017399e+000 -2.248518e+000 -2.251071e+000 2.263394e+000 5.825526e-001 3.406839e+000 2.527617e-001 2.347358e+000 8.157854e-001 -4.165728e-001 -1.491553e-001 -4.217209e-001 1.395777e-001 7.814488e-002 -1.720705e-001 1.809932e-001 2.588603e-001 3.281603e-002 -5.442782e-002 -7.598914e-002 -1.639235e-002 -3.633296e-001
<VARIANCE> 25
 3.068501e+001 1.324078e+001 1.314478e+001 9.308887e+000 7.895978e+000 6.114471e+000 1.459160e+001 1.454627e+001 1.066090e+001 9.956240e+000 8.523348e+000 8.610182e+000 1.964996e-001 2.817200e-001 4.440576e-001 5.507450e-001 6.234841e-001 6.061006e-001 8.988705e-001 1.037794e+000 8.749334e-001 7.019635e-001 7.954050e-001 1.018322e+000 1.522370e-001
<GCONST> 6.703090e+001
<STATE> 3
<MEAN> 25
 -1.199007e+001 7.230735e-001 -8.275342e+000 7.658796e+000 7.421841e-002 -1.269947e+000 3.684492e+000 2.324386e+000 3.894623e+000 1.500827e+000 1.273986e+000 -8.172303e-001 1.075705e-001 -3.060229e-001 2.342773e+000 1.140242e-001 9.248256e-001 -4.013107e-001 5.299187e-001 9.037458e-001 -2.337362e-001 -3.982703e-002 -7.821814e-001 3.256336e-001 1.391742e+000
<VARIANCE> 25
 9.058169e+001 5.231198e+000 1.687893e+001 1.318715e+001 1.098200e+001 2.261959e+001 1.690180e+001 1.019851e+001 3.014277e+001 1.909729e+001 1.250099e+001 4.042676e+000 2.618747e+000 7.203267e+000 6.525294e+000 8.326595e+000 3.592515e+000 5.864545e+000 2.055134e+000 6.310046e+000 5.332595e+000 2.150056e+000 3.338668e+000 2.081232e+000 5.886916e+000
<GCONST> 9.714930e+001
<STATE> 4
<MEAN> 25
 -7.654034e+000 -4.262582e+000 7.043495e+000 -1.531883e+000 9.870279e+000 -9.019696e+000 2.784065e+000 -3.846207e+000 1.809183e+000 7.247925e-001 8.985518e-001 -6.970755e-001 6.731846e-001 -3.096949e-001 9.268686e-001 -5.698641e-001 7.382715e-002 -3.723567e-001 1.923680e-001 -6.794977e-001 -4.219398e-001 -1.504012e-001 1.851471e-001 -1.072506e-001 1.841890e+000
<VARIANCE> 25
 2.148898e+002 9.437212e+001 4.978807e+001 1.322446e+002 1.033074e+002 7.335223e+001 5.032626e+001 7.784315e+001 9.379906e+001 5.237623e+001 2.556250e+001 3.595097e+001 1.315825e+001 6.039748e+000 7.267389e+000 1.106122e+001 1.003995e+001 7.823216e+000 6.480869e+000 6.351441e+000 7.035541e+000 4.397889e+000 2.679320e+000 2.826703e+000 7.997768e+000
<GCONST> 1.215652e+002
<TRANSP> 5
 0.000000e+000 1.000000e+000 0.000000e+000 0.000000e+000 0.000000e+000
 0.000000e+000 9.171780e-001 8.282207e-002 0.000000e+000 0.000000e+000
 0.000000e+000 0.000000e+000 4.976712e-001 5.023288e-001 0.000000e+000
 0.000000e+000 0.000000e+000 0.000000e+000 9.389453e-001 6.105465e-002
 0.000000e+000 0.000000e+000 0.000000e+000 0.000000e+000 0.000000e+000
<ENDHMM>
~h "d"
<BEGINHMM>
<NUMSTATES> 5
<STATE> 2
<MEAN> 25
 -3.474467e+000 1.268233e+001 3.915107e+000 8.804967e+000 2.408131e+000 4.618185e-001 9.113876e-001 4.413384e-001 -8.851715e-001 -2.184503e+000 2.669542e-001 -8.923767e-001 1.383665e+000 1.108308e+000 9.647948e-001 1.349380e+000 5.757723e-001 1.091757e-001 -2.017801e-001 -3.997452e-001 5.777036e-002 -9.944741e-002 -3.384758e-001 1.890713e-002 5.438626e-001
<VARIANCE> 25
 6.041021e+001 7.079195e+001 1.384741e+002 3.689082e+001 5.124707e+001 2.603498e+001 3.068656e+001 3.514929e+001 4.666895e+001 3.370432e+001 2.719901e+001 1.913830e+001 4.293855e+000 6.012266e+000 4.986277e+000 2.787501e+000 3.878157e+000 2.439476e+000 2.450891e+000 2.527781e+000 2.936326e+000 2.253260e+000 2.323951e+000 1.773061e+000 1.810384e+000
<GCONST> 1.044944e+002
<STATE> 3
<MEAN> 25
 5.468659e+000 1.890749e+001 9.530906e+000 1.488372e+001 2.710633e+000 -2.097249e+000 -2.530295e+000 -3.710736e+000 -2.410921e+000 -2.556633e+000 2.637958e-001 8.463280e-001 1.137280e+000 -1.290784e+000 3.958523e-001 2.766909e-001 -1.504786e+000 -7.991811e-001 -7.286029e-001 -6.299456e-001 2.679305e-001 -5.022959e-002 1.616234e-001 7.840481e-001 1.436397e+000
<VARIANCE> 25
 1.500807e+001 1.696567e+002 2.978558e+001 4.022266e+001 4.611736e+001 3.161167e+001 3.700046e+001 4.644191e+001 2.721017e+001 2.322915e+001 3.180348e+001 1.931155e+001 2.295433e+000 9.334872e+000 2.982341e+000 2.659999e+000 4.388669e+000 4.120422e+000 4.495245e+000 5.746451e+000 4.305948e+000 2.263969e+000 3.683290e+000 2.436114e+000 1.826263e+000
<GCONST> 1.048368e+002
<STATE> 4
<MEAN> 25
 9.395192e+000 -2.359359e+000 1.455452e+001 5.790032e+000 -1.045474e+001 -3.072912e+000 -4.471613e+000 1.090841e+000 -2.904746e-001 -3.052746e+000 3.402504e+000 2.793199e+000 5.427604e-001 -2.729958e+000 6.386717e-001 -2.749410e+000 -1.509163e+000 7.829702e-003 -3.865885e-001 8.300870e-001 -3.926587e-001 3.761033e-001 8.285760e-001 -3.675559e-001 2.358373e+000
<VARIANCE> 25
 1.785959e+001 1.822234e+002 5.258780e+001 1.174870e+002 8.655962e+001 5.065342e+001 3.920348e+001 8.938778e+001 7.571362e+001 4.742046e+001 5.629891e+001 3.493317e+001 1.319464e+000 1.718978e+001 5.992001e+000 7.939189e+000 1.487112e+001 7.297134e+000 5.328204e+000 6.680494e+000 7.236514e+000 4.952346e+000 6.109693e+000 4.450508e+000 6.248680e+000
<GCONST> 1.190384e+002
<TRANSP> 5
 0.000000e+000 1.000000e+000 0.000000e+000 0.000000e+000 0.000000e+000
 0.000000e+000 7.652147e-001 2.347853e-001 0.000000e+000 0.000000e+000
 0.000000e+000 0.000000e+000 6.368868e-001 3.631132e-001 0.000000e+000
 0.000000e+000 0.000000e+000 0.000000e+000 7.899288e-001 2.100712e-001
 0.000000e+000 0.000000e+000 0.000000e+000 0.000000e+000 0.000000e+000
<ENDHMM>
~h "e"
<BEGINHMM>
<NUMSTATES> 5
<STATE> 2
<MEAN> 25
 -6.555399e+000 7.954650e+000 -4.257906e+000 4.342044e+000 -1.075133e-001 2.345687e+000 6.354429e-001 -1.045006e+000 1.497054e+000 1.536983e-002 4.154712e+000 1.823862e+000 2.109375e-001 4.064511e-001 -3.407980e-001 4.708728e-001 3.390495e-001 1.766254e-001 -1.808208e-001 -3.026646e-001 -2.197389e-002 1.812489e-001 -8.460962e-003 -1.994336e-001 -2.171212e-001
<VARIANCE> 25
 1.823952e+002 1.305015e+002 9.470939e+001 6.482601e+001 4.434271e+001 5.362310e+001 3.730843e+001 4.030510e+001 3.956865e+001 2.112090e+001 2.467101e+001 2.360631e+001 7.381274e+000 3.317522e+000 3.956778e+000 2.590218e+000 2.935700e+000 2.613174e+000 1.921943e+000 2.463481e+000 3.340759e+000 1.985001e+000 1.814210e+000 1.622894e+000 5.396750e+000
<GCONST> 1.067073e+002
<STATE> 3
<MEAN> 25
 2.783988e+000 8.862463e+000 1.306987e+000 5.160582e+000 2.291094e+000 -1.038359e+000 -2.201152e+000 -2.353701e+000 -8.612555e-001 -1.369962e-001 1.957334e+000 2.558756e-001 1.361880e+000 3.321723e-001 -1.219248e-001 7.837502e-001 5.772426e-001 -5.002860e-001 -7.662852e-001 -5.009370e-001 1.505474e-001 5.655985e-001 -2.134932e-001 -3.606705e-001 7.901259e-001
<VARIANCE> 25
 7.401140e+001 2.087925e+002 9.126295e+001 1.059840e+002 5.857181e+001 4.657172e+001 3.719589e+001 3.641610e+001 3.880405e+001 3.616147e+001 2.395480e+001 2.572232e+001 9.704370e+000 1.037264e+001 5.657363e+000 5.748669e+000 5.777380e+000 4.665935e+000 5.311161e+000 4.728298e+000 4.202375e+000 2.807916e+000 2.707359e+000 2.188174e+000 9.806946e+000
<GCONST> 1.147035e+002
<STATE> 4
<MEAN> 25
 1.000124e+001 1.370528e+000 8.367310e-001 3.257218e+000 -1.040185e+000 -1.446426e+000 -6.898960e+000 -4.510974e+000 1.907663e+000 3.902432e+000 1.739332e+000 -6.870046e-002 9.336451e-001 -2.873328e+000 1.331823e+000 -2.098468e+000 -1.214237e+000 -2.630864e-001 -6.336138e-001 5.851443e-001 4.506212e-001 7.189666e-001 -4.947722e-001 1.103912e-001 2.750247e+000
<VARIANCE> 25
 4.952735e+001 1.350041e+002 1.465630e+002 1.166524e+002 1.704232e+002 6.161489e+001 7.615753e+001 1.005034e+002 8.109808e+001 5.946730e+001 5.371175e+001 3.410070e+001 5.298280e+000 1.499485e+001 1.035483e+001 1.087619e+001 1.491522e+001 4.865854e+000 7.567257e+000 1.143218e+001 8.995781e+000 6.159900e+000 4.575111e+000 3.286309e+000 9.576810e+000
<GCONST> 1.255262e+002
<TRANSP> 5
 0.000000e+000 1.000000e+000 0.000000e+000 0.000000e+000 0.000000e+000
 0.000000e+000 6.006551e-001 3.993449e-001 0.000000e+000 0.000000e+000
 0.000000e+000 0.000000e+000 2.486466e-001 7.513534e-001 0.000000e+000
 0.000000e+000 0.000000e+000 0.000000e+000 7.261454e-001 2.738546e-001
 0.000000e+000 0.000000e+000 0.000000e+000 0.000000e+000 0.000000e+000
<ENDHMM>
~h "f"
<BEGINHMM>
<NUMSTATES> 5
<STATE> 2
<MEAN> 25
 -3.753426e+000 1.938816e+000 4.619645e+000 4.166155e+000 2.367379e+000 5.983068e-001 -4.145463e+000 -1.849638e+000 -3.785601e+000 -4.109364e-002 -1.277906e+000 2.102709e+000 -2.269448e-001 1.755756e-001 1.080965e-001 1.437830e-001 1.164443e-001 -1.728897e-001 1.628221e-001 1.680948e-002 -2.016146e-001 -4.459318e-002 4.680148e-002 -1.189264e-002 6.114434e-002
<VARIANCE> 25
 2.880299e+001 3.801681e+001 3.655579e+001 1.679968e+001 2.381533e+001 3.521141e+001 2.408839e+001 2.948139e+001 1.694137e+001 1.612052e+001 1.433137e+001 1.384775e+001 1.128543e+000 9.673994e-001 1.446185e+000 1.068495e+000 1.577804e+000 1.822976e+000 2.121153e+000 2.067174e+000 2.102865e+000 1.402792e+000 1.003128e+000 1.238431e+000 2.068192e-001
<GCONST> 8.634368e+001
<STATE> 3
<MEAN> 25
 -1.266945e+001 9.992775e+000 6.121400e+000 4.046111e+000 -5.227966e-001 -5.630275e+000 1.786256e+000 -2.388868e+000 -6.521855e+000 1.946357e+000 2.484803e+000 2.235262e+000 -2.296464e-001 2.413374e-001 3.258781e-003 -1.967268e-001 -2.782632e-001 -2.804810e-001 1.315247e-001 -2.189692e-001 3.172634e-002 3.765545e-002 4.885412e-002 -1.268130e-001 2.318580e-001
<VARIANCE> 25
 4.265871e+001 7.138864e+001 2.452876e+001 1.877995e+001 4.364190e+001 2.257651e+001 2.385712e+001 3.332834e+001 2.045449e+001 1.958562e+001 1.700069e+001 1.469930e+001 2.955982e+000 6.358731e-001 2.145230e+000 1.121310e+000 3.210968e+000 1.513271e+000 1.846717e+000 2.075027e+000 2.029019e+000 1.482541e+000 1.844932e+000 1.335754e+000 2.254156e-001
<GCONST> 9.013289e+001
<STATE> 4
<MEAN> 25
 -5.422461e+000 -3.010632e+000 1.767372e+001 -4.492000e+000 -5.353341e+000 -7.961865e+000 1.287231e+000 -2.325699e+000 -5.574374e+000 2.584218e-001 1.524732e+000 -3.548016e-001 4.790686e-002 2.723559e-001 -1.525030e-001 1.667743e-001 -1.737652e-001 2.053025e-001 -3.140347e-001 -9.637753e-002 7.568114e-002 7.480571e-002 6.673969e-002 -1.422338e-001 -3.993902e-001
<VARIANCE> 25
 3.596850e+001 1.274167e+002 2.012658e+002 5.880266e+001 7.963773e+001 5.808486e+001 7.235747e+001 2.603233e+001 8.934708e+001 2.794124e+001 1.398887e+001 1.981046e+001 1.372297e+000 1.278066e+000 4.069070e+000 2.545898e+000 2.470958e+000 1.833759e+000 2.202336e+000 1.492180e+000 2.842588e+000 1.990198e+000 1.514671e+000 1.387549e+000 6.041837e-001
<GCONST> 1.007556e+002
<TRANSP> 5
 0.000000e+000 1.000000e+000 0.000000e+000 0.000000e+000 0.000000e+000
 0.000000e+000 8.942606e-001 1.057394e-001 0.000000e+000 0.000000e+000
 0.000000e+000 0.000000e+000 8.851418e-001 1.148582e-001 0.000000e+000
 0.000000e+000 0.000000e+000 0.000000e+000 9.259447e-001 7.405530e-002
 0.000000e+000 0.000000e+000 0.000000e+000 0.000000e+000 0.000000e+000
<ENDHMM>
~h "g"
<BEGINHMM>
<NUMSTATES> 5
<STATE> 2
<MEAN> 25
 5.849161e+000 -2.939001e+000 1.253491e+001 8.406536e+000 -4.747649e+000 -8.136846e+000 -1.859690e+000 4.760216e+000 -3.921364e+000 1.186466e+000 2.575605e+000 1.317290e+000 2.415255e-001 -1.007046e+000 1.214087e+000 -1.715781e+000 -8.451411e-001 -7.237382e-001 -7.290426e-001 6.771075e-001 -4.605464e-001 6.896122e-001 4.574974e-001 2.706143e-001 1.275179e+000
<VARIANCE> 25
 1.107368e+001 7.535835e+001 5.633434e+001 1.165165e+002 5.396845e+001 4.770540e+001 5.343549e+001 4.749152e+001 3.853691e+001 4.167759e+001 3.393107e+001 3.419974e+001 1.064540e+000 7.565824e+000 4.660544e+000 9.045024e+000 6.141443e+000 3.941233e+000 2.821874e+000 3.480377e+000 4.464796e+000 4.631867e+000 4.609854e+000 1.376477e+000 4.167927e+000
<GCONST> 1.091966e+002
<STATE> 3
<MEAN> 25
 6.320231e+000 -7.655842e+000 1.367607e+001 -6.268800e+000 -2.734754e+000 -8.903446e+000 -3.390611e+000 1.023202e+001 -2.695423e+000 4.149958e+000 7.318045e-001 -8.986690e-002 -1.212411e-001 -1.686541e-001 -5.430733e-001 -6.906681e-001 8.271801e-001 1.953756e-001 5.287848e-001 1.632824e-001 4.132733e-001 3.213192e-001 -1.068539e+000 -2.350861e-001 1.182632e-001
<VARIANCE> 25
 8.539292e+000 4.652301e+001 2.426940e+001 1.010662e+002 2.952846e+001 2.649985e+001 3.335815e+001 2.921620e+001 3.692362e+001 2.404179e+001 3.107263e+001 3.106189e+001 5.179313e-001 2.259615e+000 2.280680e+000 5.563410e+000 2.815350e+000 2.282978e+000 2.805896e+000 2.171738e+000 3.121230e+000 2.270374e+000 2.426871e+000 1.881203e+000 2.431547e+000
<GCONST> 9.767301e+001
<STATE> 4
<MEAN> 25
 3.064074e+000 -1.007224e+001 6.533379e+000 -1.028751e+001 2.620937e+000 -6.248834e+000 1.206156e+000 8.034134e+000 1.808593e+000 4.858925e+000 -1.011771e+001 -1.216096e+000 -3.755313e-001 4.113363e-001 -6.030548e-001 7.236689e-001 -1.880809e-002 5.003289e-001 1.892467e-001 -5.712515e-001 2.147064e-001 -2.405368e-001 -3.497280e-002 -9.543696e-002 -8.706138e-001
<VARIANCE> 25
 2.760413e+001 5.462429e+001 2.526240e+001 8.192259e+001 2.355320e+001 2.950101e+001 2.407887e+001 3.780096e+001 2.064289e+001 3.023451e+001 2.473376e+001 1.696832e+001 4.459873e-001 1.109585e+000 6.355166e-001 1.871317e+000 1.554407e+000 1.296147e+000 1.218616e+000 1.761305e+000 1.310818e+000 1.343342e+000 1.659773e+000 1.587816e+000 8.711231e-001
<GCONST> 8.906467e+001
<TRANSP> 5
 0.000000e+000 1.000000e+000 0.000000e+000 0.000000e+000 0.000000e+000
 0.000000e+000 8.627016e-001 1.372984e-001 0.000000e+000 0.000000e+000
 0.000000e+000 0.000000e+000 8.937626e-001 1.062374e-001 0.000000e+000
 0.000000e+000 0.000000e+000 0.000000e+000 9.239548e-001 7.604515e-002
 0.000000e+000 0.000000e+000 0.000000e+000 0.000000e+000 0.000000e+000
<ENDHMM>
~h "h"
<BEGINHMM>
<NUMSTATES> 5
<STATE> 2
<MEAN> 25
 1.719046e+000 -1.989771e+000 -1.354743e+000 2.423525e+000 4.207399e+000 2.669187e+000 4.185507e+000 3.354007e+000 1.933231e+000 -1.664408e+000 -3.885250e+000 2.435870e-002 -3.214229e-001 4.177987e-001 -1.945014e-001 4.878859e-001 7.688939e-002 6.000786e-001 -6.127794e-001 -1.110010e-001 -9.019404e-002 9.528022e-002 1.126386e-001 3.188032e-001 -1.032795e+000
<VARIANCE> 25
 3.963113e+001 4.921907e+001 3.388866e+001 2.443473e+001 1.296599e+001 2.697779e+001 4.003517e+001 2.387697e+001 2.337487e+001 2.200200e+001 1.369003e+001 1.440064e+001 3.280586e-001 6.682656e-001 1.679989e+000 1.521388e+000 9.476023e-001 1.887607e+000 2.108786e+000 1.413321e+000 1.458010e+000 1.189942e+000 1.058576e+000 1.672379e+000 2.518126e-001
<GCONST> 8.532606e+001
<STATE> 3
<MEAN> 25
 -5.612410e+000 2.766934e+000 -2.026892e+000 3.778616e+000 2.389210e+000 1.914615e+000 -3.002036e+000 -1.674265e+000 -1.472876e-001 -9.318601e-001 -4.824052e-001 1.590038e+000 -4.754751e-001 3.656603e-001 -3.878746e-003 1.355791e-002 -1.992822e-001 -1.478416e-001 -2.033648e-001 -2.241572e-001 -6.484412e-002 3.316802e-002 2.467079e-001 -4.765878e-003 -3.581001e-001
<VARIANCE> 25
 4.018177e+001 2.724929e+001 7.295187e+001 1.620388e+001 1.972031e+001 1.253218e+001 2.920881e+001 1.764269e+001 2.502681e+001 1.687960e+001 2.433313e+001 1.234953e+001 3.157694e-001 4.954521e-001 5.326244e-001 7.416492e-001 1.115900e+000 1.365895e+000 1.444448e+000 1.250625e+000 1.587139e+000 1.372665e+000 1.481801e+000 1.059862e+000 3.386073e-001
<GCONST> 8.190283e+001
<STATE> 4
<MEAN> 25
 -8.780809e+000 -3.291324e+000 -5.398102e+000 4.525572e+000 -1.129587e-001 5.531428e+000 9.344590e-001 1.973602e+000 -1.607633e+000 -1.787962e+000 3.678781e+000 -5.533841e-001 -4.723150e-001 2.258813e-001 -1.655269e-001 -4.277471e-002 -4.765233e-001 2.047429e-001 2.337098e-001 5.682787e-002 4.553542e-002 -7.660603e-002 2.625053e-001 1.008784e-002 -4.798288e-001
<VARIANCE> 25
 1.105296e+002 2.474704e+002 1.114803e+002 8.947550e+000 3.206167e+001 3.804955e+001 3.094205e+001 4.663228e+001 3.670769e+001 2.337029e+001 2.493900e+001 1.650009e+001 2.026134e+000 1.145371e+000 1.806594e+000 8.420494e-001 1.757197e+000 1.884529e+000 1.424639e+000 1.503146e+000 2.112459e+000 1.381064e+000 2.015177e+000 1.720726e+000 1.234353e+000
<GCONST> 9.596891e+001
<TRANSP> 5
 0.000000e+000 1.000000e+000 0.000000e+000 0.000000e+000 0.000000e+000
 0.000000e+000 6.754051e-001 3.245949e-001 0.000000e+000 0.000000e+000
 0.000000e+000 0.000000e+000 9.445221e-001 5.547794e-002 0.000000e+000
 0.000000e+000 0.000000e+000 0.000000e+000 8.478636e-001 1.521364e-001
 0.000000e+000 0.000000e+000 0.000000e+000 0.000000e+000 0.000000e+000
<ENDHMM>
~h "i"
<BEGINHMM>
<NUMSTATES> 5
<STATE> 2
<MEAN> 25
 -4.429542e+000 6.487955e-001 8.211291e+000 4.486924e+000 -5.798068e+000 -5.236399e+000 6.407788e-001 -2.311784e-001 -1.882369e+000 -1.716834e+000 3.893096e+000 1.716025e+000 1.951344e+000 -8.042163e-001 4.475274e+000 -1.090425e+000 -2.988130e+000 3.465537e-001 -9.643955e-001 -9.106491e-001 -2.116154e+000 -1.880053e-001 9.165133e-001 -5.292594e-001 2.731884e+000
<VARIANCE> 25
 9.759342e+001 7.537894e+001 1.406566e+002 7.949285e+001 9.967897e+001 1.005665e+002 1.001565e+002 8.368845e+001 7.767653e+001 5.206994e+001 3.719056e+001 3.313073e+001 6.824872e+000 9.020967e+000 1.702245e+001 1.011340e+001 8.640966e+000 6.340652e+000 5.733266e+000 5.900022e+000 7.570566e+000 5.404431e+000 3.449207e+000 2.926894e+000 9.212896e+000
<GCONST> 1.228780e+002
<STATE> 3
<MEAN> 25
 7.265362e-001 -1.005894e-001 1.889633e+001 1.619962e+000 -1.147546e+001 -6.795669e-001 -2.900030e+000 -4.079042e+000 -5.409870e+000 -1.570788e+000 4.611316e+000 -4.398363e-002 1.285511e+000 -7.734864e-001 5.257585e+000 -2.550498e+000 -2.319620e+000 1.335796e+000 -1.430562e+000 -4.736264e-001 -1.889325e+000 -2.393185e-001 2.151560e-001 -1.052097e+000 2.746094e+000
<VARIANCE> 25
 6.023769e+001 6.101290e+001 1.891124e+002 1.523702e+002 1.421654e+002 9.262243e+001 1.050334e+002 8.411782e+001 1.063371e+002 5.840245e+001 3.868277e+001 4.497982e+001 3.384357e+000 6.607705e+000 1.632660e+001 1.200227e+001 1.238731e+001 8.938577e+000 9.335217e+000 5.658208e+000 6.559635e+000 5.152548e+000 3.412370e+000 3.610938e+000 5.209913e+000
<GCONST> 1.239342e+002
<STATE> 4
<MEAN> 25
 2.391470e+000 -5.737581e-001 2.985971e+001 -7.349906e+000 -1.255684e+001 1.423659e+000 -3.649540e+000 -8.336270e-001 -1.266108e+001 -1.907908e+000 3.291250e+000 -2.191826e+000 -1.435491e-001 1.502936e-001 -8.455739e-001 1.907655e-001 6.482984e-001 -1.773179e-001 1.057942e-001 2.868999e-001 2.733243e-001 1.034035e-001 -3.444379e-001 1.644654e-001 -4.747472e-001
<VARIANCE> 25
 2.095738e+001 3.115903e+001 1.276929e+002 7.331944e+001 5.604219e+001 5.752524e+001 4.330485e+001 4.853351e+001 5.482763e+001 3.830307e+001 2.658815e+001 2.798491e+001 6.404812e-001 1.674301e+000 6.530216e+000 5.977432e+000 3.917065e+000 3.800021e+000 3.092206e+000 2.854779e+000 3.186925e+000 2.305745e+000 2.096018e+000 1.869830e+000 1.698792e+000
<GCONST> 1.040665e+002
<TRANSP> 5
 0.000000e+000 1.000000e+000 0.000000e+000 0.000000e+000 0.000000e+000
 0.000000e+000 3.583823e-001 6.416177e-001 0.000000e+000 0.000000e+000
 0.000000e+000 0.000000e+000 4.641927e-001 5.358073e-001 0.000000e+000
 0.000000e+000 0.000000e+000 0.000000e+000 9.141893e-001 8.581075e-002
 0.000000e+000 0.000000e+000 0.000000e+000 0.000000e+000 0.000000e+000
<ENDHMM>
~h "j"
<BEGINHMM>
<NUMSTATES> 5
<STATE> 2
<MEAN> 25
 -1.924981e+000 1.442198e+001 -1.856605e+000 1.308309e+001 3.686764e+000 -4.813048e+000 -4.662673e+000 3.181796e-001 4.553534e+000 -2.576641e+000 -1.123467e+000 9.698681e-001 6.441634e-001 7.396299e-001 2.615437e-001 2.683067e-001 8.572074e-001 1.782011e-001 1.316946e-001 -1.829245e-001 -1.864063e-001 3.890564e-001 6.710988e-002 2.650014e-001 2.932209e-001
<VARIANCE> 25
 8.711601e+001 9.025668e+001 4.540182e+001 2.429040e+001 3.490792e+001 2.717158e+001 2.558397e+001 3.828568e+001 5.470301e+001 8.653574e+000 1.193463e+001 9.984160e+000 4.622330e+000 2.089340e+000 1.638478e+000 3.203953e+000 2.870971e+000 3.383164e+000 2.382446e+000 2.470149e+000 2.559322e+000 1.411147e+000 1.304257e+000 1.408735e+000 1.964869e+000
<GCONST> 9.714439e+001
<STATE> 3
<MEAN> 25
 3.867347e+000 8.440200e+000 8.469294e+000 -2.287324e+000 1.638173e+001 -5.575680e+000 -7.498205e+000 1.297903e+000 -2.162862e+000 3.333210e+000 -1.206289e-001 4.935863e+000 -4.230940e-001 -3.594066e+000 2.248093e+000 -3.726889e+000 4.144189e-001 -1.255687e+000 1.212076e+000 7.066249e-001 -1.951078e+000 -6.558973e-002 -8.641911e-001 9.024906e-001 3.437690e+000
<VARIANCE> 25
 2.326866e+001 1.720244e+002 1.625936e+002 1.293223e+002 1.784155e+002 4.203345e+001 9.332960e+001 3.250166e+001 4.976648e+001 2.763123e+001 5.555855e+000 4.180107e+001 6.567552e+000 6.694367e+000 6.715931e+000 9.327493e+000 3.688214e+001 2.756683e+000 1.032520e+001 3.741847e+000 5.156766e+000 7.171165e+000 8.825323e-001 3.700752e+000 3.879206e+000
<GCONST> 1.161557e+002
<STATE> 4
<MEAN> 25
 3.377702e+000 -6.833854e+000 1.622653e+001 -1.014097e+001 2.077773e+000 -1.488003e+001 6.023364e+000 6.266515e+000 -2.630327e+000 3.129709e+000 -4.654524e+000 5.408705e+000 3.822134e-002 -1.880662e-001 -6.269218e-003 -1.236104e-001 -3.004903e-001 -2.171410e-001 2.161874e-001 -1.073383e-001 2.234131e-002 1.709947e-002 7.453066e-003 8.673975e-002 1.566200e-001
<VARIANCE> 25
 2.404225e+001 6.172648e+001 4.437230e+001 5.417656e+001 7.671720e+001 4.133140e+001 5.837851e+001 6.455490e+001 6.324710e+001 2.550709e+001 6.139990e+001 1.772823e+001 1.249186e+000 1.964581e+000 3.587154e+000 4.559188e+000 7.644178e+000 4.400121e+000 3.362978e+000 4.598696e+000 4.750309e+000 2.050529e+000 4.257118e+000 1.301170e+000 2.592306e+000
<GCONST> 1.065963e+002
<TRANSP> 5
 0.000000e+000 1.000000e+000 0.000000e+000 0.000000e+000 0.000000e+000
 0.000000e+000 8.971190e-001 1.028810e-001 0.000000e+000 0.000000e+000
 0.000000e+000 0.000000e+000 6.524852e-001 3.475148e-001 0.000000e+000
 0.000000e+000 0.000000e+000 0.000000e+000 9.547591e-001 4.524093e-002
 0.000000e+000 0.000000e+000 0.000000e+000 0.000000e+000 0.000000e+000
<ENDHMM>
~h "k"
<BEGINHMM>
<NUMSTATES> 5
<STATE> 2
<MEAN> 25
 -4.992260e+000 3.229693e+000 -4.569880e+000 1.931831e+000 3.945258e-001 1.073156e+000 -1.207996e+000 -1.567272e+000 9.177532e-001 6.800140e-002 -4.427942e-001 -1.025489e+000 -4.530022e-001 2.151940e-001 -3.071912e-001 3.560292e-001 6.854958e-002 -3.312708e-002 4.858485e-002 9.566204e-002 1.057022e-001 6.050408e-002 1.363471e-001 1.300150e-001 -5.551950e-001
<VARIANCE> 25
 4.630956e+001 5.501617e+001 5.446544e+001 2.676975e+001 3.074536e+001 3.006437e+001 2.081662e+001 2.197141e+001 2.228183e+001 1.997760e+001 2.061676e+001 1.644052e+001 4.202797e-001 8.836572e-001 1.285855e+000 8.670498e-001 1.334216e+000 1.279282e+000 1.365626e+000 1.502388e+000 1.408303e+000 1.292648e+000 1.181027e+000 1.324262e+000 5.484190e-001
<GCONST> 8.677071e+001
<STATE> 3
<MEAN> 25
 -6.285330e+000 2.643834e+000 -6.066514e+000 3.098724e+000 1.230655e+000 1.810060e-001 -3.507989e-001 -2.396410e-001 8.765185e-001 3.464329e-001 1.689340e-001 1.862008e-002 2.777505e-001 -1.265348e+000 -1.263281e+000 1.908113e-001 9.398233e-001 -1.372974e-001 7.564799e-002 6.497410e-001 8.688614e-001 2.732510e-001 -2.991547e-002 -7.231683e-002 1.122409e+000
<VARIANCE> 25
 5.928555e+001 4.738972e+001 4.396420e+001 2.733128e+001 3.432804e+001 2.554088e+001 2.416870e+001 3.077838e+001 2.656497e+001 2.373479e+001 2.156585e+001 1.748299e+001 2.557330e+000 5.060108e+000 4.215679e+000 2.840364e+000 3.742091e+000 2.944551e+000 5.128877e+000 3.996415e+000 2.215583e+000 2.935256e+000 1.973851e+000 2.306630e+000 2.903918e+000
<GCONST> 1.016632e+002
<STATE> 4
<MEAN> 25
 1.555011e+000 -8.537479e+000 -9.932570e+000 -1.435438e-001 7.447882e+000 -9.222261e-001 -2.442100e+000 2.221201e+000 5.113161e+000 1.629912e+000 -1.620982e+000 -1.748783e+000 2.162658e+000 -2.279239e+000 4.643918e-001 -1.481034e+000 2.350646e-001 -1.810112e-002 7.554248e-001 5.464247e-001 4.325437e-001 4.903784e-001 -3.948475e-001 -8.081906e-001 3.535220e+000
<VARIANCE> 25
 8.854967e+001 9.729647e+001 8.780153e+001 1.003326e+002 1.211101e+002 8.305216e+001 1.077024e+002 7.164324e+001 5.598918e+001 3.678048e+001 3.216799e+001 3.106723e+001 4.968642e+000 9.716907e+000 9.216214e+000 6.447766e+000 1.608591e+001 6.879926e+000 1.306459e+001 7.505945e+000 6.113415e+000 4.755287e+000 3.037304e+000 3.044279e+000 5.583228e+000
<GCONST> 1.213639e+002
<TRANSP> 5
 0.000000e+000 1.000000e+000 0.000000e+000 0.000000e+000 0.000000e+000
 0.000000e+000 8.664102e-001 1.335898e-001 0.000000e+000 0.000000e+000
 0.000000e+000 0.000000e+000 3.660021e-001 6.339979e-001 0.000000e+000
 0.000000e+000 0.000000e+000 0.000000e+000 7.713117e-001 2.286883e-001
 0.000000e+000 0.000000e+000 0.000000e+000 0.000000e+000 0.000000e+000
<ENDHMM>
~h "l"
<BEGINHMM>
<NUMSTATES> 5
<STATE> 2
<MEAN> 25
 5.329331e+000 4.092568e+000 -9.040355e-001 -2.231375e+000 -8.540044e-001 -2.162167e+000 -3.105418e+000 2.696904e+000 3.530803e+000 2.796926e+000 1.146544e+000 -1.777876e-002 1.850008e+000 -8.718054e-001 4.459027e-001 -2.240769e+000 3.334631e-002 4.659865e-001 -5.373697e-001 8.298592e-002 -1.571145e-001 7.154951e-001 -1.431707e-001 -2.356467e-001 2.407854e+000
<VARIANCE> 25
 1.197985e+002 1.733270e+002 1.391488e+002 1.479001e+002 6.955313e+001 9.022051e+001 9.021293e+001 6.945199e+001 7.072592e+001 5.955688e+001 3.380885e+001 4.230319e+001 9.657368e+000 8.996701e+000 7.588871e+000 8.873945e+000 5.286714e+000 8.390855e+000 7.681707e+000 6.658226e+000 4.315934e+000 5.181468e+000 2.861510e+000 3.366955e+000 6.160835e+000
<GCONST> 1.225109e+002
<STATE> 3
<MEAN> 25
 9.109692e+000 -4.255247e+000 5.158160e+000 -1.225609e+001 -2.285669e-001 -1.010920e+000 -6.441037e+000 1.464527e+000 2.980861e+000 6.191939e+000 -6.880035e-001 -1.268275e+000 -2.529562e-001 -1.234093e+000 8.970471e-002 -6.452827e-001 6.682987e-001 1.672662e-001 2.360744e-001 -3.376441e-001 4.884823e-001 2.271878e-001 -8.014814e-001 1.391627e-001 7.707129e-001
<VARIANCE> 25
 4.907338e+001 6.683098e+001 1.398671e+002 8.349180e+001 7.526766e+001 1.175862e+002 1.333541e+002 1.008816e+002 5.520331e+001 6.430518e+001 4.836360e+001 3.451999e+001 7.100321e-001 5.136682e+000 3.732292e+000 3.133105e+000 5.278693e+000 4.984550e+000 5.725752e+000 5.839832e+000 4.176497e+000 6.422400e+000 2.618850e+000 3.058853e+000 2.111308e+000
<GCONST> 1.142480e+002
<STATE> 4
<MEAN> 25
 9.037459e+000 -6.050251e+000 6.226029e+000 -1.444809e+001 2.484683e+000 -3.595262e-001 -5.513689e+000 -2.075112e+000 1.871850e+000 1.004209e+001 -3.818081e+000 -2.577777e-001 -4.797843e-002 -2.243502e-001 -4.024318e-001 2.582271e-001 1.652606e-001 4.143526e-001 4.796719e-001 -6.697616e-002 -1.730065e-001 -3.065485e-001 -2.955047e-001 -2.997953e-002 -1.105593e-001
<VARIANCE> 25
 2.299887e+001 4.673616e+001 5.741351e+001 9.183859e+001 6.208521e+001 8.802706e+001 9.983080e+001 1.199450e+002 7.466129e+001 6.062140e+001 4.736320e+001 4.191626e+001 4.130528e-001 2.383258e+000 1.589241e+000 3.062118e+000 2.328248e+000 2.108545e+000 3.156918e+000 3.431175e+000 2.982996e+000 3.006688e+000 2.685342e+000 1.660792e+000 9.788166e-001
<GCONST> 1.047127e+002
<TRANSP> 5
 0.000000e+000 1.000000e+000 0.000000e+000 0.000000e+000 0.000000e+000
 0.000000e+000 6.685672e-001 3.314328e-001 0.000000e+000 0.000000e+000
 0.000000e+000 0.000000e+000 4.353589e-001 5.646411e-001 0.000000e+000
 0.000000e+000 0.000000e+000 0.000000e+000 8.325109e-001 1.674891e-001
 0.000000e+000 0.000000e+000 0.000000e+000 0.000000e+000 0.000000e+000
<ENDHMM>
~h "m"
<BEGINHMM>
<NUMSTATES> 5
<STATE> 2
<MEAN> 25
 2.525666e+000 2.539790e+000 -1.443164e+000 5.260017e+000 3.230741e+000 3.752942e+000 -9.693593e-001 -5.668640e+000 -3.699195e+000 -5.711018e-001 -2.747823e-001 2.004383e+000 -2.299702e-001 5.231088e-001 -1.381247e-001 4.043148e-001 -1.411787e-001 7.609735e-002 1.094590e-001 -1.531845e-001 -1.552965e-001 -2.027720e-001 2.738025e-002 1.390472e-001 -6.023228e-001
<VARIANCE> 25
 9.722414e+001 3.310724e+001 7.351613e+001 2.540414e+001 2.687397e+001 4.258460e+001 3.063584e+001 5.165977e+001 7.776697e+001 2.504242e+001 2.299965e+001 2.111230e+001 2.842759e-001 4.430273e-001 7.720259e-001 1.057172e+000 8.522030e-001 8.959908e-001 1.095608e+000 1.461928e+000 1.706714e+000 1.168800e+000 1.021725e+000 1.161226e+000 1.737988e-001
<GCONST> 8.676313e+001
<STATE> 3
<MEAN> 25
 -7.460174e-001 6.134082e+000 -3.630193e+000 5.754297e+000 -4.470437e-001 3.613772e+000 1.401546e+000 -3.905428e+000 -1.767423e+000 -1.080138e+000 3.096256e-001 1.375728e+000 -1.622380e-001 1.688343e-001 -1.046763e-001 1.152673e-001 -4.488704e-002 -3.021225e-002 1.983288e-001 2.671241e-001 3.513597e-001 2.625754e-003 1.633095e-002 -1.478466e-001 -2.428951e-001
<VARIANCE> 25
 2.000074e+002 4.299548e+001 5.667889e+001 3.259404e+001 3.534482e+001 3.481853e+001 3.019005e+001 6.106151e+001 5.368697e+001 2.509745e+001 2.708266e+001 2.145533e+001 1.789701e+000 9.659002e-001 1.058255e+000 1.143021e+000 1.286643e+000 1.530681e+000 1.233941e+000 1.654516e+000 1.601223e+000 1.258596e+000 1.281151e+000 1.107469e+000 9.441751e-001
<GCONST> 9.385568e+001
<STATE> 4
<MEAN> 25
 7.852290e+000 4.983615e+000 -4.585334e+000 4.731668e+000 3.937664e+000 5.166642e+000 1.535753e+000 -5.961475e+000 -3.530359e+000 -1.674085e+000 1.960950e+000 7.233422e-001 1.897855e+000 -9.971065e-001 -3.279802e-001 -1.079997e+000 -8.447719e-002 4.838303e-001 -3.266229e-001 2.299166e-001 4.062314e-001 -2.147197e-001 -3.497698e-002 -1.803004e-001 2.026763e+000
<VARIANCE> 25
 1.229006e+002 1.717725e+002 8.510318e+001 1.035942e+002 5.579813e+001 7.154553e+001 4.036568e+001 7.270067e+001 7.881413e+001 3.294196e+001 3.413454e+001 1.848992e+001 7.667818e+000 1.152602e+001 7.942491e+000 9.144617e+000 5.177513e+000 5.501266e+000 4.972363e+000 8.548795e+000 1.098797e+001 2.985650e+000 2.919342e+000 1.829669e+000 4.711059e+000
<GCONST> 1.181566e+002
<TRANSP> 5
 0.000000e+000 1.000000e+000 0.000000e+000 0.000000e+000 0.000000e+000
 0.000000e+000 8.947670e-001 1.052330e-001 0.000000e+000 0.000000e+000
 0.000000e+000 0.000000e+000 7.216961e-001 2.783039e-001 0.000000e+000
 0.000000e+000 0.000000e+000 0.000000e+000 8.115219e-001 1.884781e-001
 0.000000e+000 0.000000e+000 0.000000e+000 0.000000e+000 0.000000e+000
<ENDHMM>
~h "n"
<BEGINHMM>
<NUMSTATES> 5
<STATE> 2
<MEAN> 25
 8.440031e+000 -8.359324e+000 6.309495e+000 -4.068405e+000 5.821357e-001 -6.543125e+000 2.961052e-001 4.243936e+000 -1.964815e+000 1.741296e+000 -5.319895e+000 -2.314267e-001 -1.186435e-001 1.857128e+000 5.892659e-001 1.402526e+000 -5.120554e-001 -2.372623e-001 -7.558113e-001 -1.736246e+000 -5.180622e-001 5.252669e-001 2.538352e-001 3.305435e-001 -1.469213e+000
<VARIANCE> 25
 9.232965e+000 4.881778e+001 6.283482e+001 6.510498e+001 3.066271e+001 3.577696e+001 5.427453e+001 8.880117e+001 3.132164e+001 2.458304e+001 3.251991e+001 1.481803e+001 3.025081e-001 2.112566e+000 1.243486e+000 3.381099e+000 1.406247e+000 1.522399e+000 3.129727e+000 4.116724e+000 1.790829e+000 1.638138e+000 1.379682e+000 9.708199e-001 1.220801e+000
<GCONST> 9.455276e+001
<STATE> 3
<MEAN> 25
 7.416882e+000 1.900230e+000 4.181688e+000 5.706943e+000 -7.960811e-001 -4.164173e+000 -2.985772e+000 -2.687139e+000 -1.961490e+000 1.662730e+000 -3.493133e+000 1.200873e+000 -2.588207e-001 5.992603e-001 -1.405170e-001 5.173268e-001 -1.152908e-002 3.763458e-001 2.076346e-002 -8.612289e-002 1.442719e-001 -1.194806e-001 2.503451e-001 2.538129e-002 -7.195284e-001
<VARIANCE> 25
 1.809966e+001 2.014764e+001 3.347939e+001 3.521401e+001 2.732181e+001 3.105281e+001 3.293608e+001 4.428207e+001 2.538420e+001 2.455177e+001 2.479594e+001 1.453874e+001 2.619014e-001 4.600310e-001 7.562889e-001 8.496342e-001 1.078702e+000 1.333285e+000 1.459108e+000 1.470466e+000 1.247937e+000 1.121726e+000 1.086613e+000 1.096663e+000 1.321144e-001
<GCONST> 8.232510e+001
<STATE> 4
<MEAN> 25
 1.040563e+000 4.479774e+000 3.458994e+000 4.754833e+000 -3.406365e+000 -3.469538e+000 -6.181046e-001 -8.044570e-001 -1.913550e+000 6.177234e-001 9.119994e-001 1.541015e+000 -4.768901e-001 1.305334e-001 -5.851464e-001 2.160962e-001 1.166578e-001 8.474300e-003 1.691998e-004 9.137335e-002 1.846031e-001 -1.758735e-001 1.134131e-001 1.000364e-001 -6.443429e-001
<VARIANCE> 25
 4.122250e+001 4.035913e+001 1.390154e+002 1.317906e+002 5.029526e+001 3.551433e+001 3.397114e+001 5.546197e+001 4.847799e+001 3.980757e+001 2.317125e+001 2.034818e+001 4.849427e-001 1.269298e+000 1.370897e+000 1.898813e+000 1.744084e+000 2.179834e+000 1.885719e+000 2.538373e+000 1.628834e+000 1.551896e+000 1.508980e+000 1.424068e+000 3.603804e-001
<GCONST> 9.597410e+001
<TRANSP> 5
 0.000000e+000 1.000000e+000 0.000000e+000 0.000000e+000 0.000000e+000
 0.000000e+000 7.804756e-001 2.195244e-001 0.000000e+000 0.000000e+000
 0.000000e+000 0.000000e+000 9.096246e-001 9.037543e-002 0.000000e+000
 0.000000e+000 0.000000e+000 0.000000e+000 9.102198e-001 8.978016e-002
 0.000000e+000 0.000000e+000 0.000000e+000 0.000000e+000 0.000000e+000
<ENDHMM>
~h "o"
<BEGINHMM>
<NUMSTATES> 5
<STATE> 2
<MEAN> 25
 8.699735e+000 -5.072918e+000 1.684720e+001 -9.281555e+000 -3.306025e+000 -6.509234e+000 -7.395130e+000 4.533891e+000 -1.062220e+001 8.252539e+000 4.447322e+000 1.493136e+000 2.716683e-001 -2.959097e-001 -5.141343e-001 -2.261981e+000 1.670153e-001 8.322139e-001 -1.451446e-001 -3.611633e-001 7.530326e-001 4.854809e-001 8.768320e-003 3.512911e-001 7.602559e-001
<VARIANCE> 25
 1.181619e+001 1.910250e+001 7.208867e+001 1.693581e+002 3.767664e+001 4.550653e+001 1.395638e+001 8.722934e+001 5.250208e+001 3.756962e+001 1.683126e+001 6.194667e+000 1.213966e-001 1.663118e+000 4.750152e+000 4.104176e+000 3.114865e+000 4.446015e+000 1.965167e+000 3.163285e+000 5.236370e+000 1.114027e+000 2.745125e+000 1.199260e+000 7.542164e-001
<GCONST> 9.606011e+001
<STATE> 3
<MEAN> 25
 1.118213e+001 -8.144458e+000 8.413515e+000 -1.835061e+001 -1.565503e+000 -2.628285e-001 -3.303933e+000 2.774845e+000 -3.062935e+000 9.059902e+000 -1.800192e+000 5.876287e-001 -1.442269e-001 -1.085837e-001 -2.017202e-001 1.556288e-001 7.666770e-002 -4.709778e-001 5.256675e-001 8.994943e-001 -3.442892e-002 -6.157401e-001 -5.592633e-001 -3.765857e-001 -2.369215e-002
<VARIANCE> 25
 1.170993e+001 1.809482e+001 1.135903e+001 2.963049e+001 2.100799e+001 1.090383e+002 4.913301e+001 8.853302e+001 7.286063e+000 2.521325e+001 2.107476e+001 1.481993e+001 2.306654e-001 1.282636e+000 8.939526e-001 2.485016e+000 8.975226e-001 4.560258e+000 4.554101e+000 3.108142e+000 1.285873e+000 2.200927e+000 2.197489e+000 1.197962e+000 6.102962e-001
<GCONST> 8.934776e+001
<STATE> 4
<MEAN> 25
 1.758700e+000 -2.714315e-001 2.061693e+000 -7.370821e+000 1.164694e+000 3.038598e-001 -2.527977e+000 -3.173074e+000 -1.823220e+000 5.296407e+000 -2.745978e+000 -2.522828e+000 -7.938845e-001 5.291658e-003 -2.368998e-001 4.982035e-001 2.591721e-001 -1.868428e-001 5.106313e-002 7.540892e-002 2.242489e-001 7.316667e-002 1.428457e-002 -4.761630e-002 -7.518209e-001
<VARIANCE> 25
 6.170327e+001 1.840349e+001 7.545886e+001 1.933824e+002 2.581797e+001 3.695204e+001 2.096406e+001 4.137595e+001 3.122839e+001 6.896381e+001 2.975231e+001 9.532768e+000 4.211266e+000 1.343685e+000 4.498642e+000 1.528802e+001 2.003064e+000 1.882983e+000 1.957615e+000 2.833607e+000 3.093339e+000 6.017598e+000 1.801078e+000 1.504772e+000 5.456219e+000
<GCONST> 1.041414e+002
<TRANSP> 5
 0.000000e+000 1.000000e+000 0.000000e+000 0.000000e+000 0.000000e+000
 0.000000e+000 8.887949e-001 1.112051e-001 0.000000e+000 0.000000e+000
 0.000000e+000 0.000000e+000 9.177784e-001 8.222160e-002 0.000000e+000
 0.000000e+000 0.000000e+000 0.000000e+000 9.371884e-001 6.281159e-002
 0.000000e+000 0.000000e+000 0.000000e+000 0.000000e+000 0.000000e+000
<ENDHMM>
~h "p"
<BEGINHMM>
<NUMSTATES> 5
<STATE> 2
<MEAN> 25
 -1.939864e+000 2.209917e+000 -1.032047e+000 3.327044e+000 -1.417526e+000 3.395931e-001 -2.399137e+000 -1.949739e+000 2.276619e-002 -2.412889e-001 6.950713e-001 8.528859e-001 -4.954898e-001 1.648292e-001 -6.790468e-001 1.917425e-001 -3.266502e-002 -1.846524e-001 1.087529e-001 7.438301e-002 2.165846e-001 -3.856263e-002 -3.065336e-002 -2.287007e-002 -7.272599e-001
<VARIANCE> 25
 3.790092e+001 2.731409e+001 5.217016e+001 3.038213e+001 2.834682e+001 2.183828e+001 2.253506e+001 2.999661e+001 2.885075e+001 1.906805e+001 2.182819e+001 1.718191e+001 4.494986e-001 5.061777e-001 9.664114e-001 9.993919e-001 1.141397e+000 1.170388e+000 1.177050e+000 1.306013e+000 1.316384e+000 1.464148e+000 1.280268e+000 1.262873e+000 3.251825e-001
<GCONST> 8.465678e+001
<STATE> 3
<MEAN> 25
 -4.076218e+000 3.533558e+000 -4.141965e+000 4.509883e+000 -1.130649e+000 7.746507e-002 -6.821291e-001 -1.430971e+000 2.234637e-001 -1.237250e+000 2.746732e-001 4.934417e-001 6.057178e-001 -3.884597e-001 -1.025265e+000 -1.848476e-001 -8.943158e-002 -2.435171e-001 5.429791e-001 2.390888e-001 -1.220943e-001 4.705053e-002 7.676493e-002 -8.992581e-002 5.783022e-001
<VARIANCE> 25
 5.080159e+001 3.026970e+001 4.029729e+001 2.474839e+001 2.854372e+001 2.060047e+001 2.003728e+001 2.898055e+001 2.380832e+001 1.899879e+001 1.927549e+001 1.635128e+001 1.786236e+000 1.487690e+000 2.081573e+000 2.978739e+000 1.932356e+000 1.684137e+000 2.264053e+000 2.055751e+000 1.824040e+000 1.912617e+000 1.943574e+000 1.482970e+000 1.498346e+000
<GCONST> 9.303078e+001
<STATE> 4
<MEAN> 25
 5.782558e+000 -1.000050e+000 -8.575272e+000 2.890226e+000 -2.710138e+000 3.890768e-001 2.743599e+000 -1.033655e+000 -1.346530e+000 -6.410351e-001 1.020416e+000 -7.173157e-001 3.462569e+000 -1.520791e+000 -9.106281e-001 -2.430634e+000 -5.471557e-001 5.161924e-001 9.003043e-001 4.323656e-001 -5.612252e-001 5.098217e-001 5.383330e-002 -1.096011e+000 3.782093e+000
<VARIANCE> 25
 9.713382e+001 7.202066e+001 6.002709e+001 7.483606e+001 3.925249e+001 5.011728e+001 4.273680e+001 3.226579e+001 3.419703e+001 3.346113e+001 2.588349e+001 2.997380e+001 4.834441e+000 1.335796e+001 6.494880e+000 1.038587e+001 5.468626e+000 5.506227e+000 4.813300e+000 4.347705e+000 3.739707e+000 4.768515e+000 2.932921e+000 3.501118e+000 7.403849e+000
<GCONST> 1.137574e+002
<TRANSP> 5
 0.000000e+000 1.000000e+000 0.000000e+000 0.000000e+000 0.000000e+000
 0.000000e+000 9.061332e-001 9.386682e-002 0.000000e+000 0.000000e+000
 0.000000e+000 0.000000e+000 4.137952e-001 5.862048e-001 0.000000e+000
 0.000000e+000 0.000000e+000 0.000000e+000 6.568944e-001 3.431056e-001
 0.000000e+000 0.000000e+000 0.000000e+000 0.000000e+000 0.000000e+000
<ENDHMM>
~h "r"
<BEGINHMM>
<NUMSTATES> 5
<STATE> 2
<MEAN> 25
 1.084174e+001 -1.064834e+001 3.049114e+000 -2.994407e+000 -3.305807e+000 -1.554984e+000 -6.708355e+000 -2.602197e+000 3.341837e+000 4.419016e+000 -3.154802e+000 2.894932e+000 8.712646e-002 -1.712880e-001 -8.851854e-001 1.646826e+000 9.079745e-002 -7.817160e-003 1.516079e-002 -1.370962e-001 1.272143e+000 -7.757073e-001 -6.567481e-001 7.361162e-001 -5.055467e-001
<VARIANCE> 25
 2.137947e+001 3.362049e+001 5.956793e+001 6.782407e+001 4.189543e+001 5.722202e+001 8.494862e+001 8.237244e+001 6.486478e+001 4.426992e+001 4.633352e+001 3.657562e+001 1.175813e+000 1.773275e+000 1.602984e+000 5.531730e+000 3.087439e+000 3.425879e+000 2.922507e+000 3.028294e+000 3.174086e+000 3.423289e+000 2.203258e+000 2.567530e+000 1.150586e+000
<GCONST> 1.045769e+002
<STATE> 3
<MEAN> 25
 9.852648e+000 -8.428716e+000 -8.989359e-001 5.146757e+000 -1.720759e+000 1.039376e+000 -3.359384e+000 1.687571e-001 7.236639e+000 1.342001e-001 -3.342260e+000 4.717545e+000 -5.596478e-001 6.524001e-001 -2.298590e-001 9.413326e-001 5.324152e-001 7.241901e-001 6.675474e-001 4.672656e-001 1.853671e-001 -3.087650e-001 2.122002e-001 -4.453165e-002 -1.017731e+000
<VARIANCE> 25
 2.852012e+001 3.768549e+001 3.485304e+001 4.429220e+001 3.812896e+001 4.477095e+001 5.409271e+001 5.770948e+001 3.853706e+001 3.327564e+001 3.294943e+001 3.380998e+001 1.315985e+000 1.321603e+000 1.202259e+000 1.681186e+000 2.199725e+000 2.324685e+000 2.628851e+000 2.607733e+000 2.047590e+000 2.148895e+000 1.757024e+000 2.229566e+000 9.507650e-001
<GCONST> 9.754022e+001
<STATE> 4
<MEAN> 25
 -8.477290e-001 2.993844e-001 -7.374461e+000 7.408535e+000 2.207598e-001 -3.035318e-001 -1.399531e+000 3.645639e-001 5.672276e+000 -1.555330e+000 -1.660306e+000 1.746985e+000 -4.821958e-001 5.109167e-001 -3.817650e-001 -6.319516e-002 -7.006620e-002 -2.141209e-001 3.779833e-002 -6.242062e-002 -1.643226e-001 -3.468041e-002 1.530274e-001 -2.279964e-001 -7.066275e-001
<VARIANCE> 25
 5.232062e+001 5.090881e+001 4.818086e+001 2.466781e+001 3.092210e+001 3.045364e+001 2.488644e+001 2.642199e+001 2.684914e+001 2.310190e+001 2.057375e+001 2.407947e+001 5.588858e-001 6.027275e-001 1.050542e+000 9.201208e-001 1.229557e+000 1.452195e+000 1.399976e+000 1.480010e+000 1.552587e+000 1.569681e+000 1.217492e+000 1.506731e+000 3.642205e-001
<GCONST> 8.756026e+001
<TRANSP> 5
 0.000000e+000 1.000000e+000 0.000000e+000 0.000000e+000 0.000000e+000
 0.000000e+000 8.103671e-001 1.896329e-001 0.000000e+000 0.000000e+000
 0.000000e+000 0.000000e+000 7.386314e-001 2.613687e-001 0.000000e+000
 0.000000e+000 0.000000e+000 0.000000e+000 9.040824e-001 9.591766e-002
 0.000000e+000 0.000000e+000 0.000000e+000 0.000000e+000 0.000000e+000
<ENDHMM>
~h "s"
<BEGINHMM>
<NUMSTATES> 5
<STATE> 2
<MEAN> 25
 3.664402e+000 -3.427139e+000 6.036647e+000 -4.441693e+000 1.198117e+001 -6.471562e+000 5.697628e+000 7.214759e-002 -2.352908e-001 -4.359234e-001 -4.653553e+000 5.838728e+000 -1.989689e+000 6.234466e-001 1.245966e+000 -1.825246e+000 3.270420e+000 -2.778798e+000 1.930209e+000 -1.713580e+000 2.700824e-002 -3.494489e-001 5.350659e-001 -2.295298e-001 1.323371e+000
<VARIANCE> 25
 7.652901e+001 8.301586e+001 1.057203e+002 8.272032e+001 1.020580e+002 1.054302e+002 7.619599e+001 8.686326e+001 4.260379e+001 4.180455e+001 3.310705e+001 2.619282e+001 8.066433e+000 7.422533e+000 7.802983e+000 7.235960e+000 5.925261e+000 7.812388e+000 5.794642e+000 8.932670e+000 6.116741e+000 4.770634e+000 3.572886e+000 3.384822e+000 6.057037e+000
<GCONST> 1.196861e+002
<STATE> 3
<MEAN> 25
 -9.531828e+000 -1.022578e+000 1.012779e+001 -1.216591e+001 2.071210e+001 -1.590937e+001 1.373825e+001 -6.410348e+000 3.456209e+000 -1.841934e+000 5.638057e-001 1.991521e+000 -9.837427e-001 8.081176e-002 -1.387896e-001 -2.084868e-001 -3.321581e-002 2.147860e-002 -1.236839e-001 1.266361e-002 3.699907e-001 -1.853188e-002 5.295047e-001 -3.080595e-001 -3.909877e-001
<VARIANCE> 25
 8.091125e+001 4.292284e+001 5.088936e+001 3.943305e+001 5.581618e+001 4.490078e+001 4.176789e+001 2.602356e+001 2.533349e+001 2.126382e+001 2.307168e+001 1.863077e+001 6.687668e+000 2.843620e+000 2.989025e+000 3.071873e+000 2.378428e+000 2.298479e+000 2.470516e+000 2.288729e+000 2.474565e+000 2.038747e+000 1.917038e+000 1.586514e+000 2.414107e+000
<GCONST> 1.010799e+002
<STATE> 4
<MEAN> 25
 -9.987161e+000 1.217970e+000 4.472944e+000 -6.388176e+000 1.362991e+001 -9.742909e+000 6.122709e+000 -2.131218e+000 2.536421e+000 1.506749e-001 -7.689821e-001 1.034888e+000 3.714224e-001 1.895750e-001 -6.592633e-001 6.700771e-001 -9.030648e-001 6.147873e-001 -6.790448e-001 3.224773e-001 -2.477117e-001 1.045398e-001 -1.740742e-001 -1.236846e-002 -9.487230e-001
<VARIANCE> 25
 5.250988e+001 3.403872e+001 6.790531e+001 5.005901e+001 6.220491e+001 4.605973e+001 4.036885e+001 2.657442e+001 2.406026e+001 1.668504e+001 2.315814e+001 1.356191e+001 1.855354e+000 1.236618e+000 1.577864e+000 1.645200e+000 1.266111e+000 1.705585e+000 1.281539e+000 1.793772e+000 1.583002e+000 1.150886e+000 1.524096e+000 1.123944e+000 7.259638e-001
<GCONST> 9.245428e+001
<TRANSP> 5
 0.000000e+000 1.000000e+000 0.000000e+000 0.000000e+000 0.000000e+000
 0.000000e+000 7.636201e-001 2.363799e-001 0.000000e+000 0.000000e+000
 0.000000e+000 0.000000e+000 8.409509e-001 1.590491e-001 0.000000e+000
 0.000000e+000 0.000000e+000 0.000000e+000 9.030440e-001 9.695598e-002
 0.000000e+000 0.000000e+000 0.000000e+000 0.000000e+000 0.000000e+000
<ENDHMM>
~h "t"
<BEGINHMM>
<NUMSTATES> 5
<STATE> 2
<MEAN> 25
 -8.378432e+000 6.779538e+000 -6.664093e+000 4.383929e+000 -9.338723e-001 -1.168872e+000 -4.561665e-001 -2.856879e-001 2.008946e+000 -1.361105e+000 9.504162e-001 -8.366560e-002 -4.927585e-001 1.922455e-001 -1.301730e-001 1.751349e-001 -8.698849e-002 -2.904102e-002 8.290252e-002 -2.597971e-002 5.263906e-002 -5.169673e-002 9.201842e-002 -4.196622e-002 -5.450441e-001
<VARIANCE> 25
 5.341881e+001 2.983135e+001 3.254854e+001 2.623753e+001 2.344144e+001 2.206218e+001 2.192073e+001 2.195895e+001 2.369602e+001 1.464072e+001 1.573808e+001 1.534359e+001 2.468636e-001 4.077271e-001 7.329625e-001 6.768250e-001 7.872234e-001 9.136487e-001 1.062282e+000 1.163014e+000 1.256989e+000 9.932778e-001 1.033980e+000 1.055798e+000 1.539234e-001
<GCONST> 7.915463e+001
<STATE> 3
<MEAN> 25
 -1.162844e+001 5.833160e+000 -5.400000e+000 5.070376e+000 -4.330990e-001 3.359719e-001 1.098701e+000 1.497271e-001 2.583968e+000 -6.205444e-001 1.592023e+000 1.330003e-001 3.178746e-001 -7.179781e-001 2.928639e-001 1.722593e-001 -1.575277e-001 -2.542474e-001 3.324065e-001 4.986605e-001 -6.282136e-002 1.277696e-001 3.258928e-001 9.146746e-002 8.119269e-001
<VARIANCE> 25
 1.054507e+002 3.823091e+001 2.748361e+001 1.884426e+001 1.763914e+001 2.351922e+001 2.367110e+001 2.013929e+001 2.645838e+001 1.572795e+001 1.587747e+001 1.576260e+001 5.206080e+000 3.297252e+000 2.295322e+000 1.609507e+000 2.841602e+000 2.776536e+000 3.557937e+000 2.838621e+000 2.906100e+000 1.934698e+000 1.414761e+000 1.489552e+000 3.681514e+000
<GCONST> 9.655035e+001
<STATE> 4
<MEAN> 25
 -1.213831e+000 -2.918225e+000 1.687038e+000 3.173549e-001 -7.932935e-001 -2.910004e+000 -1.370448e+000 2.430370e+000 -1.181843e+000 -4.593243e-001 2.302379e+000 2.945216e-001 3.540938e+000 -2.129124e+000 2.237430e+000 -2.395419e+000 -5.629868e-001 -4.353190e-001 -4.437162e-001 6.532565e-001 -1.573110e+000 5.709156e-001 3.921039e-001 8.367860e-002 4.923055e+000
<VARIANCE> 25
 9.275035e+001 9.892514e+001 1.391764e+002 9.306929e+001 7.003124e+001 7.373988e+001 1.172712e+002 4.622368e+001 8.712325e+001 4.368886e+001 3.411281e+001 2.700868e+001 8.146840e+000 1.450528e+001 1.084751e+001 1.117918e+001 9.687566e+000 7.661336e+000 1.222258e+001 7.075686e+000 1.061996e+001 4.750723e+000 4.505209e+000 4.735580e+000 1.209429e+001
<GCONST> 1.245692e+002
<TRANSP> 5
 0.000000e+000 1.000000e+000 0.000000e+000 0.000000e+000 0.000000e+000
 0.000000e+000 9.150040e-001 8.499596e-002 0.000000e+000 0.000000e+000
 0.000000e+000 0.000000e+000 4.491110e-001 5.508890e-001 0.000000e+000
 0.000000e+000 0.000000e+000 0.000000e+000 7.404571e-001 2.595429e-001
 0.000000e+000 0.000000e+000 0.000000e+000 0.000000e+000 0.000000e+000
<ENDHMM>
~h "u"
<BEGINHMM>
<NUMSTATES> 5
<STATE> 2
<MEAN> 25
 1.159560e+001 4.141339e+000 -1.333879e+000 -5.341936e+000 -4.657198e+000 1.185589e+000 -1.022653e+000 -1.699754e+000 -6.464036e+000 -1.745963e+000 1.967387e+000 1.032214e+000 4.302318e-001 5.597815e-001 9.547355e-002 -2.414727e+000 -1.404194e-001 6.455053e-001 -3.628433e-001 1.169335e-001 -8.354062e-001 -1.044484e-001 3.398854e-001 1.118086e-001 5.354615e-001
<VARIANCE> 25
 7.324871e+001 7.580991e+001 9.155553e+001 1.837894e+002 5.574025e+001 4.315216e+001 5.722029e+001 6.060162e+001 8.422666e+001 5.242056e+001 3.724202e+001 3.408243e+001 1.948851e+000 3.619294e+000 2.586614e+000 6.320737e+000 3.204501e+000 3.429532e+000 3.656365e+000 4.244053e+000 3.460534e+000 3.358933e+000 3.311849e+000 2.046529e+000 1.646106e+000
<GCONST> 1.105272e+002
<STATE> 3
<MEAN> 25
 1.217374e+001 7.225659e+000 2.727576e+000 -1.794566e+001 -4.449850e+000 1.641551e+000 -6.052996e+000 2.267360e-001 -9.430243e+000 -1.243804e+000 1.013043e+000 -6.255468e-001 -2.128272e-001 2.135275e-001 -1.047519e-001 -5.055835e-001 -4.887988e-002 1.093948e-001 -3.636208e-001 -4.556322e-002 4.100934e-001 2.233578e-001 -1.463937e-001 -1.828814e-001 -2.296178e-001
<VARIANCE> 25
 3.281037e+001 4.660562e+001 6.871583e+001 1.653359e+002 4.328862e+001 5.685674e+001 6.020283e+001 6.292888e+001 6.490540e+001 5.309306e+001 4.014927e+001 3.133072e+001 3.661502e-001 1.045773e+000 1.303458e+000 3.297363e+000 1.479780e+000 2.091483e+000 2.097342e+000 2.626337e+000 2.277572e+000 3.267795e+000 1.998392e+000 1.677904e+000 6.558106e-001
<GCONST> 1.000771e+002
<STATE> 4
<MEAN> 25
 4.752729e+000 9.880278e+000 -4.539256e+000 -8.900112e+000 -2.733133e+000 2.098987e+000 -2.452838e+000 -1.553481e+000 -3.588152e+000 -1.399424e+000 1.321140e+000 -1.414964e-001 -7.038218e-001 -1.713077e-001 -2.650189e-001 8.962992e-001 1.678843e-001 -2.035921e-002 1.560210e-001 -3.008633e-001 4.933502e-001 2.402374e-001 3.116383e-003 -3.144854e-003 -7.094322e-001
<VARIANCE> 25
 8.852501e+001 4.116873e+001 6.603498e+001 1.243795e+002 4.046425e+001 4.387308e+001 4.854298e+001 4.702759e+001 5.069445e+001 5.969223e+001 2.684597e+001 2.221362e+001 9.288930e-001 9.575853e-001 1.687096e+000 3.666182e+000 1.638782e+000 2.306308e+000 1.908841e+000 2.237903e+000 2.187819e+000 2.522639e+000 1.874974e+000 1.625549e+000 1.006731e+000
<GCONST> 1.000982e+002
<TRANSP> 5
 0.000000e+000 1.000000e+000 0.000000e+000 0.000000e+000 0.000000e+000
 0.000000e+000 7.125137e-001 2.874863e-001 0.000000e+000 0.000000e+000
 0.000000e+000 0.000000e+000 7.745889e-001 2.254111e-001 0.000000e+000
 0.000000e+000 0.000000e+000 0.000000e+000 8.843984e-001 1.156016e-001
 0.000000e+000 0.000000e+000 0.000000e+000 0.000000e+000 0.000000e+000
<ENDHMM>
~h "w"
<BEGINHMM>
<NUMSTATES> 5
<STATE> 2
<MEAN> 25
 -9.225837e+000 2.526565e+000 -5.036534e+000 9.691533e+000 -3.703338e+000 -5.214747e+000 7.975193e-001 1.127356e+000 6.992792e-001 -4.863088e+000 2.757755e+000 2.060002e+000 5.264037e-001 8.803140e-001 3.008203e-001 -4.521188e-002 -2.235697e-001 -1.825473e-001 -7.915162e-002 -1.389881e-002 7.433725e-003 -1.901918e-001 -1.032196e-001 -7.845893e-002 8.447438e-002
<VARIANCE> 25
 1.158506e+002 1.166666e+002 8.598953e+001 1.516240e+002 6.861790e+001 4.536897e+001 3.083264e+001 4.622167e+001 2.495491e+001 3.355796e+001 2.901776e+001 3.303196e+001 4.054842e+000 4.010989e+000 4.024565e+000 2.809232e+000 2.861647e+000 2.410822e+000 2.028410e+000 2.063824e+000 2.281299e+000 2.730095e+000 1.707460e+000 1.368114e+000 2.158588e+000
<GCONST> 1.058597e+002
<STATE> 3
<MEAN> 25
 1.326487e+001 1.652270e+001 -4.052819e+000 -1.041495e+001 -1.175554e+001 2.175009e+000 2.370554e+000 -1.767311e+000 -9.036095e-001 -6.418676e+000 7.713513e-001 4.314114e+000 1.190457e+000 -1.387905e+000 -4.040723e-001 -2.513248e+000 -1.794630e-001 2.519652e+000 2.346702e-002 -8.654884e-001 4.107636e-001 6.034483e-001 7.153519e-001 7.419652e-001 1.827486e+000
<VARIANCE> 25
 2.457246e+001 6.514393e+001 3.417160e+001 9.272532e+001 2.548679e+001 9.412135e+001 3.074582e+001 2.426682e+001 3.383364e+001 3.216922e+001 2.827809e+001 3.104540e+001 4.504457e+000 7.315163e+000 3.200616e+000 4.000887e+000 5.318285e+000 9.765697e+000 4.114136e+000 2.416444e+000 3.287710e+000 5.959891e+000 3.174383e+000 3.797516e+000 1.552917e+000
<GCONST> 1.077503e+002
<STATE> 4
<MEAN> 25
 1.271846e+001 -6.402693e+000 1.405585e+000 -2.093946e+001 -1.590738e+000 1.589293e+001 -6.236334e+000 -5.134252e+000 3.379207e+000 8.576742e+000 2.911779e+000 -3.538890e+000 -9.540226e-001 -3.760846e+000 1.456342e+000 6.775495e-001 2.169084e+000 -1.761036e+000 -4.407835e-001 2.140126e+000 6.385456e-001 1.543998e+000 -2.011195e+000 -2.188432e+000 1.863505e+000
<VARIANCE> 25
 6.560013e+000 6.001357e+001 4.270897e+001 2.549696e+001 3.544405e+001 6.797950e+001 5.198618e+001 7.271078e+001 4.243013e+001 3.073220e+001 5.241293e+001 3.777301e+001 2.451115e-001 2.286988e+000 2.482979e+000 3.191194e+000 3.776405e+000 1.056317e+001 4.890993e+000 7.187107e+000 5.484619e+000 6.347004e+000 4.231532e+000 4.300731e+000 5.111125e-001
<GCONST> 1.042210e+002
<TRANSP> 5
 0.000000e+000 1.000000e+000 0.000000e+000 0.000000e+000 0.000000e+000
 0.000000e+000 9.013954e-001 9.860463e-002 0.000000e+000 0.000000e+000
 0.000000e+000 0.000000e+000 8.478626e-001 1.521374e-001 0.000000e+000
 0.000000e+000 0.000000e+000 0.000000e+000 8.180939e-001 1.819061e-001
 0.000000e+000 0.000000e+000 0.000000e+000 0.000000e+000 0.000000e+000
<ENDHMM>
~h "y"
<BEGINHMM>
<NUMSTATES> 5
<STATE> 2
<MEAN> 25
 -1.513887e-008 8.685321e-009 6.289883e-008 7.186313e-008 3.131923e-008 4.571417e-008 5.014053e-008 1.333485e-008 -7.134006e-008 8.713219e-009 1.011273e-009 4.209684e-008 -6.534437e-003 7.731597e-003 -5.306157e-003 4.609803e-003 -4.191151e-003 8.242088e-003 -6.219152e-003 5.951754e-003 -5.249157e-003 1.868283e-003 2.200403e-003 -1.269434e-003 2.744509e-003
<VARIANCE> 25
 6.716856e+001 2.941401e+001 5.663681e+001 4.741492e+001 4.696264e+001 4.914315e+001 4.999928e+001 4.303569e+001 5.672998e+001 3.222253e+001 2.850756e+001 4.103967e+001 2.100924e+000 1.434693e+000 1.891293e+000 2.194988e+000 2.363979e+000 2.636887e+000 2.464799e+000 2.732278e+000 2.851009e+000 2.222413e+000 2.036798e+000 2.011688e+000 1.909456e+000
<GCONST> 1.015924e+002
<STATE> 3
<MEAN> 25
 -1.513887e-008 8.685321e-009 6.289883e-008 7.186313e-008 3.131923e-008 4.571417e-008 5.014053e-008 1.333485e-008 -7.134006e-008 8.713219e-009 1.011273e-009 4.209684e-008 -6.534437e-003 7.731597e-003 -5.306157e-003 4.609803e-003 -4.191151e-003 8.242088e-003 -6.219152e-003 5.951754e-003 -5.249157e-003 1.868283e-003 2.200403e-003 -1.269434e-003 2.744509e-003
<VARIANCE> 25
 6.716856e+001 2.941401e+001 5.663681e+001 4.741492e+001 4.696264e+001 4.914315e+001 4.999928e+001 4.303569e+001 5.672998e+001 3.222253e+001 2.850756e+001 4.103967e+001 2.100924e+000 1.434693e+000 1.891293e+000 2.194988e+000 2.363979e+000 2.636887e+000 2.464799e+000 2.732278e+000 2.851009e+000 2.222413e+000 2.036798e+000 2.011688e+000 1.909456e+000
<GCONST> 1.015924e+002
<STATE> 4
<MEAN> 25
 -1.513887e-008 8.685321e-009 6.289883e-008 7.186313e-008 3.131923e-008 4.571417e-008 5.014053e-008 1.333485e-008 -7.134006e-008 8.713219e-009 1.011273e-009 4.209684e-008 -6.534437e-003 7.731597e-003 -5.306157e-003 4.609803e-003 -4.191151e-003 8.242088e-003 -6.219152e-003 5.951754e-003 -5.249157e-003 1.868283e-003 2.200403e-003 -1.269434e-003 2.744509e-003
<VARIANCE> 25
 6.716856e+001 2.941401e+001 5.663681e+001 4.741492e+001 4.696264e+001 4.914315e+001 4.999928e+001 4.303569e+001 5.672998e+001 3.222253e+001 2.850756e+001 4.103967e+001 2.100924e+000 1.434693e+000 1.891293e+000 2.194988e+000 2.363979e+000 2.636887e+000 2.464799e+000 2.732278e+000 2.851009e+000 2.222413e+000 2.036798e+000 2.011688e+000 1.909456e+000
<GCONST> 1.015924e+002
<TRANSP> 5
 0.000000e+000 1.000000e+000 0.000000e+000 0.000000e+000 0.000000e+000
 0.000000e+000 6.000000e-001 4.000000e-001 0.000000e+000 0.000000e+000
 0.000000e+000 0.000000e+000 6.000000e-001 4.000000e-001 0.000000e+000
 0.000000e+000 0.000000e+000 0.000000e+000 7.000000e-001 3.000000e-001
 0.000000e+000 0.000000e+000 0.000000e+000 0.000000e+000 0.000000e+000
<ENDHMM>
~h "ay"
<BEGINHMM>
<NUMSTATES> 5
<STATE> 2
<MEAN> 25
 -5.228676e+000 -6.032216e+000 -1.445915e+001 1.367916e+001 5.363582e+000 -3.329376e+000 2.196674e+000 7.055983e+000 3.513520e+000 -8.729349e+000 -1.560864e+000 6.417879e+000 -1.034857e-001 3.155383e-001 -2.662041e-001 -3.627137e-001 -1.418869e-001 4.588515e-001 3.170712e-001 -3.573725e-001 8.074643e-002 -1.144973e-002 1.553707e-002 -3.513250e-001 -2.376014e-001
<VARIANCE> 25
 7.287651e+001 1.231813e+002 3.769705e+001 5.747481e+001 1.390802e+001 9.696450e+001 4.970164e+001 5.438375e+001 5.130833e+001 2.411906e+001 1.297433e+001 2.531189e+001 9.689195e-001 5.971475e+000 2.082585e+000 2.755225e+000 1.227116e+000 3.938911e+000 2.170368e+000 2.661351e+000 2.112005e+000 3.544756e+000 1.791061e+000 2.275786e+000 1.854504e+000
<GCONST> 1.016220e+002
<STATE> 3
<MEAN> 25
 -7.019150e-001 2.953523e+000 -1.022607e+001 5.168269e+000 3.542345e+000 3.795013e+000 3.306284e+000 -1.222432e+000 8.463481e-001 -5.355781e+000 -6.462375e-001 6.151991e-001 8.737155e-001 -1.233387e+000 2.401154e-001 -7.891378e-001 -1.089147e+000 1.115780e+000 2.966207e-001 -1.180674e-001 5.781836e-001 1.902471e-001 -1.013013e-001 7.027765e-002 1.346683e+000
<VARIANCE> 25
 2.118769e+002 8.641028e+001 4.921344e+001 4.654273e+001 1.735624e+001 4.938265e+001 2.350480e+001 6.316792e+001 9.718886e+001 1.929721e+001 1.410300e+001 1.387236e+001 2.312975e+000 1.108355e+001 6.337380e+000 2.594952e+000 3.096761e+000 5.111459e+000 4.230872e+000 2.450323e+000 8.491100e+000 3.059439e+000 1.674398e+000 6.298310e-001 1.660654e+000
<GCONST> 1.053301e+002
<STATE> 4
<MEAN> 25
 1.252075e+001 -9.758780e+000 -3.997668e+000 1.637860e+000 5.347797e-001 1.093140e+001 -1.145072e+000 -5.734403e-001 3.056553e+000 -7.206016e+000 6.923618e-001 1.598158e+000 2.074484e-001 -1.207516e+000 1.240939e+000 -7.862597e-001 -3.977742e-001 -1.973003e-001 -5.393242e-002 7.152953e-001 -8.009070e-002 8.750238e-002 6.884445e-002 -1.906440e-001 1.252060e+000
<VARIANCE> 25
 4.452063e+001 2.176963e+002 8.730415e+001 8.823406e+001 6.035175e+001 4.715707e+001 5.260058e+001 9.965217e+001 8.153327e+001 4.013385e+001 1.972719e+001 1.870116e+001 5.407045e+000 9.146289e+000 4.434044e+000 4.026127e+000 3.631173e+000 3.755234e+000 4.509235e+000 5.217278e+000 9.724168e+000 3.648272e+000 2.059486e+000 1.534192e+000 3.706833e+000
<GCONST> 1.131808e+002
<TRANSP> 5
 0.000000e+000 1.000000e+000 0.000000e+000 0.000000e+000 0.000000e+000
 0.000000e+000 8.172564e-001 1.827436e-001 0.000000e+000 0.000000e+000
 0.000000e+000 0.000000e+000 2.469112e-001 7.530888e-001 0.000000e+000
 0.000000e+000 0.000000e+000 0.000000e+000 9.348898e-001 6.511022e-002
 0.000000e+000 0.000000e+000 0.000000e+000 0.000000e+000 0.000000e+000
<ENDHMM>
~h "eh"
<BEGINHMM>
<NUMSTATES> 5
<STATE> 2
<MEAN> 25
 6.918884e+000 -1.053287e+001 8.678597e+000 -7.606795e+000 -9.725563e+000 -1.064149e+001 7.245153e+000 1.085747e+001 -3.635752e+000 9.549848e-001 3.959627e+000 2.987142e-001 -2.882358e-001 -5.958310e-001 2.319867e-001 -1.367923e+000 -9.586634e-003 -5.122470e-001 1.020179e+000 -5.658610e-002 -8.459248e-002 3.141333e-001 2.218872e-001 -1.254897e-001 6.434103e-001
<VARIANCE> 25
 1.318276e+001 5.051328e+001 1.400293e+002 2.944995e+001 4.730240e+001 3.437071e+001 4.825212e+001 3.370580e+001 7.039318e+001 1.787555e+001 2.851544e+001 2.342300e+001 5.774925e-001 1.424792e+000 3.288031e+000 2.552757e+000 3.070790e+000 2.781170e+000 2.969414e+000 2.571736e+000 2.177056e+000 2.725707e+000 1.841497e+000 9.923657e-001 8.534423e-001
<GCONST> 9.753751e+001
<STATE> 3
<MEAN> 25
 6.307002e+000 -1.107846e+001 6.666986e+000 -7.225009e+000 -9.215760e+000 -1.178219e+001 6.014632e+000 1.010723e+001 -1.016772e+000 5.535535e-001 3.960743e+000 6.403330e-001 7.984972e-003 -7.812033e-002 -3.602119e-001 -6.526183e-002 5.985774e-001 3.706304e-001 -3.783378e-001 5.408256e-002 6.143119e-001 6.191906e-002 -5.142066e-001 -1.252102e-001 -9.983034e-002
<VARIANCE> 25
 1.910065e+001 4.647175e+001 1.230540e+002 3.056630e+001 4.131437e+001 3.314094e+001 6.761833e+001 3.133964e+001 5.279127e+001 1.631947e+001 3.032833e+001 2.879824e+001 1.975213e-001 6.257930e-001 1.156084e+000 1.052574e+000 1.307384e+000 1.058467e+000 1.911851e+000 1.165673e+000 1.562603e+000 1.791159e+000 9.528348e-001 1.109858e+000 2.179518e-001
<GCONST> 8.817336e+001
<STATE> 4
<MEAN> 25
 1.082371e+001 -1.597043e+001 9.963409e+000 -9.532562e+000 -9.848385e+000 -4.670333e+000 2.507057e+000 1.383613e+001 -3.258542e+000 2.923383e+000 2.169959e+000 -2.066548e+000 9.331936e-002 2.196133e-001 -9.102905e-001 4.273717e-001 1.143889e+000 7.137633e-001 -7.990285e-001 -3.509137e-001 7.753660e-001 1.698446e-001 -9.180174e-001 -1.815591e-001 -4.283388e-001
<VARIANCE> 25
 1.588423e+001 2.422750e+001 5.277499e+001 2.016558e+001 4.898030e+001 4.059092e+001 2.421802e+001 2.758831e+001 3.454125e+001 2.047914e+001 2.195671e+001 1.139143e+001 3.561682e-001 8.744075e-001 1.517770e+000 1.133376e+000 1.389130e+000 1.358590e+000 1.944939e+000 2.734699e+000 1.712545e+000 1.622089e+000 1.540073e+000 1.151090e+000 7.923337e-001
<GCONST> 8.809643e+001
<TRANSP> 5
 0.000000e+000 1.000000e+000 0.000000e+000 0.000000e+000 0.000000e+000
 0.000000e+000 7.373784e-001 2.626216e-001 0.000000e+000 0.000000e+000
 0.000000e+000 0.000000e+000 8.082500e-001 1.917500e-001 0.000000e+000
 0.000000e+000 0.000000e+000 0.000000e+000 7.060205e-001 2.939795e-001
 0.000000e+000 0.000000e+000 0.000000e+000 0.000000e+000 0.000000e+000
<ENDHMM>
~h "ng"
<BEGINHMM>
<NUMSTATES> 5
<STATE> 2
<MEAN> 25
 1.137488e+001 -1.264489e+001 -3.170970e+000 -9.614036e+000 4.788120e+000 1.083957e+001 -3.057150e+000 1.211974e-001 2.882249e-001 -2.382691e+000 -4.296094e-001 -3.060322e+000 7.198914e-003 1.049472e+000 -1.756077e-001 5.941325e-001 -3.568532e-001 -3.050131e-002 6.874423e-002 -3.319480e-001 -5.135768e-001 -4.056627e-001 2.999035e-001 5.634488e-001 -8.763726e-001
<VARIANCE> 25
 7.655708e+000 5.522737e+001 2.554543e+001 4.928598e+001 3.643702e+001 3.433044e+001 3.375182e+001 2.797838e+001 3.408251e+001 3.137838e+001 1.641048e+001 2.851041e+001 1.423012e-001 9.125556e-001 6.023418e-001 1.065291e+000 1.315184e+000 1.155812e+000 1.791476e+000 1.273161e+000 1.463827e+000 1.264598e+000 7.873080e-001 9.649576e-001 4.344547e-001
<GCONST> 8.450278e+001
<STATE> 3
<MEAN> 25
 9.403609e+000 1.774978e+000 -3.928198e+000 7.758788e-001 2.221547e+000 8.466956e+000 3.220757e-001 -4.658190e+000 -4.053834e+000 -3.092303e+000 2.242148e+000 4.683945e-001 -4.398298e-001 7.106709e-001 6.772976e-002 1.216846e+000 4.071292e-001 2.320940e-002 4.373821e-001 -6.369296e-003 2.338077e-001 8.293833e-002 -1.500103e-001 -9.516085e-002 -8.451461e-001
<VARIANCE> 25
 9.187939e+000 3.928977e+001 1.673184e+001 5.918186e+001 4.013766e+001 2.820337e+001 3.237027e+001 2.832657e+001 3.385611e+001 2.670646e+001 1.480186e+001 1.411738e+001 2.990426e-001 4.376740e-001 7.126155e-001 9.483090e-001 1.053507e+000 1.148910e+000 1.699835e+000 1.799038e+000 1.429090e+000 1.100746e+000 1.069421e+000 1.088815e+000 1.599701e-001
<GCONST> 8.239154e+001
<STATE> 4
<MEAN> 25
 -4.188162e+000 8.229062e+000 -9.253983e+000 6.880874e+000 3.243211e+000 3.190430e+000 2.126154e+000 -3.024940e+000 1.924627e+000 -1.186451e+000 7.862532e-001 -8.300406e-001 -6.976742e-001 1.638615e-001 -1.840846e-001 -1.297060e-001 -2.380575e-001 -4.058999e-001 -1.003257e-001 4.296762e-002 6.342618e-002 8.909375e-003 3.905519e-002 3.296820e-002 -6.454486e-001
<VARIANCE> 25
 4.715050e+001 1.978433e+001 2.808889e+001 1.752221e+001 2.985346e+001 2.853497e+001 2.003187e+001 2.115856e+001 1.994563e+001 2.092596e+001 1.519631e+001 1.792648e+001 3.258578e-001 5.106923e-001 1.050977e+000 8.695123e-001 9.996156e-001 1.183478e+000 1.274523e+000 1.338677e+000 1.573375e+000 1.567753e+000 1.182351e+000 1.121354e+000 1.396649e-001
<GCONST> 8.145748e+001
<TRANSP> 5
 0.000000e+000 1.000000e+000 0.000000e+000 0.000000e+000 0.000000e+000
 0.000000e+000 9.090600e-001 9.094000e-002 0.000000e+000 0.000000e+000
 0.000000e+000 0.000000e+000 9.092340e-001 9.076596e-002 0.000000e+000
 0.000000e+000 0.000000e+000 0.000000e+000 9.502794e-001 4.972057e-002
 0.000000e+000 0.000000e+000 0.000000e+000 0.000000e+000 0.000000e+000
<ENDHMM>
~h "ny"
<BEGINHMM>
<NUMSTATES> 5
<STATE> 2
<MEAN> 25
 1.185431e+000 2.745052e+000 3.107306e+000 2.946745e+000 5.656155e-001 1.248816e+000 -3.254432e+000 -1.513658e+000 -3.981412e+000 -4.022875e-001 -1.587302e-002 3.570266e+000 -1.055431e-001 1.476285e-001 -1.151948e-001 -7.546722e-002 -1.716041e-001 3.163217e-002 2.715448e-002 9.833219e-002 5.477376e-002 1.730649e-001 1.745397e-001 5.325308e-002 -1.041407e-001
<VARIANCE> 25
 2.504998e+001 1.905457e+001 3.477798e+001 2.667823e+001 3.110467e+001 2.245136e+001 2.289904e+001 2.671992e+001 2.294779e+001 1.275569e+001 1.734365e+001 1.666753e+001 3.780679e-001 5.403633e-001 7.280183e-001 1.043515e+000 1.123173e+000 1.416395e+000 1.920856e+000 2.313191e+000 1.150688e+000 1.087929e+000 1.221337e+000 1.419623e+000 5.007523e-001
<GCONST> 8.343501e+001
<STATE> 3
<MEAN> 25
 -6.110530e+000 9.618799e+000 -3.711897e+000 3.151028e+000 -4.588469e+000 -2.831330e+000 -1.063896e-001 2.652295e-001 1.114205e-001 -1.119577e+000 3.081981e+000 4.384234e-001 -4.159712e-001 3.539072e-001 2.431571e-001 -2.249596e-001 -1.426569e-001 2.915101e-002 -1.605663e-002 1.596547e-002 3.382784e-001 9.339036e-002 9.145799e-002 -2.497914e-001 -9.227955e-002
<VARIANCE> 25
 5.505182e+001 2.405759e+001 4.393507e+001 2.574615e+001 2.382235e+001 1.297868e+001 1.737986e+001 2.232805e+001 1.443199e+001 1.778821e+001 1.756366e+001 1.936904e+001 7.804277e-001 8.782445e-001 1.275195e+000 1.614796e+000 1.323922e+000 6.971239e-001 9.130924e-001 1.066363e+000 1.114502e+000 7.633451e-001 1.278754e+000 1.134709e+000 1.231802e+000
<GCONST> 8.389604e+001
<STATE> 4
<MEAN> 25
 -2.693686e+000 4.154769e+000 1.822189e+000 -1.333276e+000 -6.724329e+000 2.534629e-001 2.569330e+000 2.363326e+000 3.525805e+000 -2.089222e+000 3.595542e+000 -1.910604e-002 1.502744e+000 -3.261366e-001 6.847072e-001 4.275295e-001 1.765259e-001 1.069097e-001 9.133561e-001 2.626484e-001 6.159089e-001 -6.347094e-001 -6.840246e-001 -5.585559e-001 1.453567e+000
<VARIANCE> 25
 6.597114e+001 1.229780e+002 4.768521e+001 9.570221e+001 8.254669e+001 1.759721e+001 1.654673e+001 2.926101e+001 2.391051e+001 2.894293e+001 2.674707e+001 1.989366e+001 7.016420e+000 7.782979e+000 5.191952e+000 3.766168e+000 6.734828e+000 3.134637e+000 2.166950e+000 2.667731e+000 2.356186e+000 2.323891e+000 1.983125e+000 1.361862e+000 3.305563e+000
<GCONST> 1.053212e+002
<TRANSP> 5
 0.000000e+000 1.000000e+000 0.000000e+000 0.000000e+000 0.000000e+000
 0.000000e+000 9.139872e-001 8.601286e-002 0.000000e+000 0.000000e+000
 0.000000e+000 0.000000e+000 8.182131e-001 1.817869e-001 0.000000e+000
 0.000000e+000 0.000000e+000 0.000000e+000 7.421992e-001 2.578008e-001
 0.000000e+000 0.000000e+000 0.000000e+000 0.000000e+000 0.000000e+000
<ENDHMM>
~h "sp"
<BEGINHMM>
<NUMSTATES> 3
<STATE> 2
~s "silst"
<TRANSP> 3
 0.000000e+000 7.000000e-001 3.000000e-001
 0.000000e+000 9.000000e-001 9.999999e-002
 0.000000e+000 0.000000e+000 0.000000e+000
<ENDHMM>
~h "sil"
<BEGINHMM>
<NUMSTATES> 5
<STATE> 2
<MEAN> 25
 -5.366215e+000 5.460063e+000 -4.256307e+000 6.074008e+000 2.469240e-001 -9.053925e-001 1.125068e+000 -3.189956e-001 2.417472e+000 -1.131319e+000 -4.029014e-002 1.140720e+000 -3.640982e-001 2.820023e-001 -4.005850e-002 -1.381420e-002 -2.309942e-002 1.341205e-002 -1.056286e-001 -1.750545e-001 -3.917533e-002 1.348773e-002 8.658835e-002 -1.431981e-001 -4.167653e-001
<VARIANCE> 25
 1.038163e+002 5.388548e+001 5.285049e+001 4.242172e+001 5.687096e+001 2.693346e+001 3.176620e+001 2.800364e+001 3.018501e+001 2.298387e+001 2.082968e+001 2.290031e+001 5.797797e-001 8.276449e-001 8.356766e-001 1.014246e+000 1.462726e+000 1.374873e+000 1.509901e+000 1.439681e+000 1.470714e+000 1.425469e+000 1.223083e+000 1.287703e+000 8.623452e-001
<GCONST> 9.074796e+001
<STATE> 3
~s "silst"
<STATE> 4
<MEAN> 25
 -2.374649e+001 3.241157e+000 -8.806378e+000 6.238019e+000 -2.318316e-001 2.306136e+000 4.244707e+000 2.327652e+000 6.077983e+000 1.109109e+000 4.703804e+000 1.673399e+000 -3.641737e-002 -2.045306e-002 -3.880414e-003 -1.069390e-002 3.073587e-003 2.588846e-002 3.290199e-002 2.808648e-003 -9.224960e-003 -1.089757e-002 -1.032908e-002 2.878125e-002 -2.133072e-002
<VARIANCE> 25
 1.242715e+001 8.565505e+000 1.058821e+001 8.050602e+000 1.015995e+001 1.107844e+001 1.251382e+001 1.499226e+001 1.574510e+001 1.093876e+001 9.531810e+000 8.079853e+000 7.056952e-002 1.631274e-001 2.297081e-001 3.829935e-001 5.545832e-001 4.849142e-001 8.454357e-001 1.149714e+000 1.312826e+000 9.971587e-001 8.594735e-001 8.828374e-001 2.980222e-002
<GCONST> 6.275405e+001
<TRANSP> 5
 0.000000e+000 1.000000e+000 0.000000e+000 0.000000e+000 0.000000e+000
 0.000000e+000 7.299526e-001 7.004747e-002 2.000000e-001 0.000000e+000
 0.000000e+000 0.000000e+000 8.763137e-001 1.236863e-001 0.000000e+000
 0.000000e+000 2.000000e-001 0.000000e+000 7.717294e-001 2.827063e-002
 0.000000e+000 0.000000e+000 0.000000e+000 0.000000e+000 0.000000e+000
<ENDHMM>
