~o
<STREAMINFO> 1 25
<VECSIZE> 25<NULLD><MFCC_D_N_Z_0><DIAGC>
~s "silst"
<MEAN> 25
 -6.800734e+000 -2.418285e-001 -9.319396e+000 9.620331e+000 2.392665e-001 -4.859458e+000 -1.031884e+000 4.093421e+000 4.679981e+000 -5.055043e+000 8.548381e-001 4.110243e+000 -2.776161e-001 -4.974273e-001 -5.161561e-001 8.225698e-001 4.505681e-001 -3.387505e-001 1.914471e-003 3.904420e-001 3.683211e-001 -3.578810e-001 -1.544518e-001 1.389999e-001 -2.919516e-001
<VARIANCE> 25
 6.079061e+001 8.824738e+001 8.939320e+001 9.275648e+001 1.021006e+002 8.016874e+001 6.983526e+001 7.454563e+001 5.459631e+001 8.421483e+001 3.296749e+001 5.176549e+001 5.522130e+000 5.931175e+000 5.307987e+000 4.829350e+000 5.441144e+000 6.339433e+000 4.478407e+000 4.769111e+000 4.611370e+000 5.099195e+000 3.195685e+000 2.932617e+000 4.561799e+000
<GCONST> 1.172489e+002
~h "a"
<BEGINHMM>
<NUMSTATES> 5
<STATE> 2
<MEAN> 25
 1.056038e+001 -1.164146e+001 -3.044291e+000 -6.846689e+000 -1.040572e+000 4.672571e+000 2.486503e+000 9.501010e-001 3.029008e+000 1.542199e+000 -1.497015e+000 -3.080240e+000 2.864047e-001 -2.358114e+000 7.822669e-002 -8.300855e-001 9.169090e-001 2.834655e-001 2.911991e-001 8.457347e-001 4.558831e-001 -3.902433e-001 -7.809034e-001 -7.417251e-001 1.772591e+000
<VARIANCE> 25
 5.337507e+001 7.766296e+001 1.212164e+002 1.086042e+002 7.536133e+001 9.031202e+001 7.101424e+001 7.739270e+001 4.872114e+001 6.872565e+001 4.373031e+001 4.893195e+001 2.111870e+000 3.711777e+000 4.589853e+000 5.875981e+000 4.988574e+000 5.216240e+000 5.574460e+000 5.737171e+000 5.171648e+000 5.225599e+000 3.125222e+000 3.487982e+000 2.738974e+000
<GCONST> 1.157551e+002
<STATE> 3
<MEAN> 25
 1.101785e+001 -1.950372e+001 -1.035423e+000 -1.020597e+001 4.972507e+000 2.706223e+000 2.408486e+000 5.248694e+000 1.465281e+000 1.178345e+000 -4.984220e+000 -5.768734e+000 -1.727952e-001 -1.222976e-001 1.376375e-001 -1.200773e-001 3.068945e-001 -2.794892e-001 1.967552e-001 4.052186e-001 -3.878388e-001 -3.137235e-001 -1.304771e-001 1.395011e-001 6.553442e-002
<VARIANCE> 25
 1.836058e+001 1.887306e+001 5.342632e+001 5.115678e+001 5.649331e+001 6.197692e+001 6.081894e+001 6.532182e+001 2.932085e+001 3.615268e+001 2.783400e+001 2.380584e+001 2.583627e-001 6.943654e-001 1.045270e+000 1.183122e+000 1.479101e+000 2.116510e+000 1.622137e+000 2.211610e+000 1.586747e+000 1.654371e+000 1.401630e+000 1.490027e+000 2.799096e-001
<GCONST> 9.095962e+001
<STATE> 4
<MEAN> 25
 6.864994e+000 -1.118365e+001 -1.586579e+000 -4.445344e+000 3.809500e+000 1.038991e+000 3.583944e+000 3.939800e+000 1.360903e+000 3.726469e-001 -3.519368e+000 -2.875046e+000 -6.206747e-001 1.575520e+000 4.608106e-001 1.404442e+000 -1.947231e-001 -1.279477e-001 -4.425482e-001 -4.979362e-001 -3.378859e-001 5.445358e-004 1.674822e-001 6.925412e-001 -1.713274e+000
<VARIANCE> 25
 2.983415e+001 4.693487e+001 6.069216e+001 6.217109e+001 4.398166e+001 6.963630e+001 5.439865e+001 6.161784e+001 3.861463e+001 3.119186e+001 3.757225e+001 2.691497e+001 9.319348e-001 1.667575e+000 1.845518e+000 2.616704e+000 2.553898e+000 2.233357e+000 2.603014e+000 2.553770e+000 2.578118e+000 2.079023e+000 1.989791e+000 1.707284e+000 1.128122e+000
<GCONST> 1.002575e+002
<TRANSP> 5
 0.000000e+000 1.000000e+000 0.000000e+000 0.000000e+000 0.000000e+000
 0.000000e+000 6.782592e-001 3.217407e-001 0.000000e+000 0.000000e+000
 0.000000e+000 0.000000e+000 8.253877e-001 1.746124e-001 0.000000e+000
 0.000000e+000 0.000000e+000 0.000000e+000 8.002964e-001 1.997036e-001
 0.000000e+000 0.000000e+000 0.000000e+000 0.000000e+000 0.000000e+000
<ENDHMM>
~h "b"
<BEGINHMM>
<NUMSTATES> 5
<STATE> 2
<MEAN> 25
 -8.077954e+000 8.971764e+000 -4.120309e+000 7.739962e+000 2.878906e-001 -1.938194e+000 -5.165088e-001 -5.765430e-001 1.966104e+000 -2.426710e+000 2.929159e-001 1.276491e+000 -4.506555e-001 4.115305e-001 2.521388e-001 9.291974e-003 -5.540192e-002 1.731415e-001 -1.227033e-002 -2.124256e-001 -4.340032e-002 1.462439e-001 2.091823e-001 -1.549857e-001 -5.825196e-001
<VARIANCE> 25
 6.794498e+001 2.245898e+001 5.071045e+001 2.431104e+001 4.171032e+001 2.941524e+001 2.786651e+001 2.970133e+001 3.181727e+001 2.367978e+001 2.134238e+001 2.189808e+001 3.683806e-001 6.679840e-001 4.585924e-001 6.735656e-001 9.612754e-001 1.043116e+000 1.116504e+000 1.089754e+000 1.018322e+000 1.678140e+000 1.139840e+000 1.347181e+000 1.098319e-001
<GCONST> 8.337490e+001
<STATE> 3
<MEAN> 25
 -9.955317e+000 1.158340e+001 -8.749008e-001 1.087615e+001 2.017794e+000 1.838509e+000 3.497503e+000 1.295586e-001 2.963509e+000 -1.075585e+000 1.470593e+000 -7.195207e-001 3.590242e+000 3.136877e+000 2.958527e+000 2.384456e+000 2.127176e+000 9.841419e-001 6.103653e-001 -2.173708e-001 -8.235924e-001 -4.765380e-001 -5.929608e-001 -5.584688e-001 1.998441e+000
<VARIANCE> 25
 1.078140e+002 4.874353e+001 5.200910e+001 2.994510e+001 4.303283e+001 2.693102e+001 2.613959e+001 3.039423e+001 3.090019e+001 1.836485e+001 1.901135e+001 1.572217e+001 6.965378e+000 4.995865e+000 3.826740e+000 2.103888e+000 2.162662e+000 2.719682e+000 2.591217e+000 2.362851e+000 3.360220e+000 1.722496e+000 1.527945e+000 1.523028e+000 3.346368e+000
<GCONST> 1.006664e+002
<STATE> 4
<MEAN> 25
 7.861619e+000 2.375817e+001 6.345082e+000 1.555314e+001 3.802851e+000 1.222172e+000 1.800553e+000 -4.756514e+000 -3.447529e+000 -3.662365e+000 4.157643e-001 -3.503520e-001 1.940921e+000 -6.094546e-001 -8.074902e-001 -6.450388e-001 -5.674360e-001 -4.154278e-001 -5.473688e-001 -6.043990e-001 -6.281479e-001 -2.239745e-002 3.086365e-001 2.775097e-001 1.612958e+000
<VARIANCE> 25
 1.621963e+001 4.526139e+001 2.200594e+001 2.192280e+001 2.567063e+001 1.798454e+001 3.244853e+001 2.963300e+001 2.110183e+001 2.552176e+001 2.706653e+001 1.810892e+001 3.334088e+000 1.249010e+001 6.026623e+000 4.009091e+000 2.690566e+000 2.557818e+000 4.190660e+000 4.570353e+000 3.607615e+000 2.618675e+000 2.591522e+000 2.222942e+000 2.536013e+000
<GCONST> 1.009341e+002
<TRANSP> 5
 0.000000e+000 1.000000e+000 0.000000e+000 0.000000e+000 0.000000e+000
 0.000000e+000 8.666785e-001 1.333214e-001 0.000000e+000 0.000000e+000
 0.000000e+000 0.000000e+000 6.123067e-001 3.876933e-001 0.000000e+000
 0.000000e+000 0.000000e+000 0.000000e+000 8.011516e-001 1.988484e-001
 0.000000e+000 0.000000e+000 0.000000e+000 0.000000e+000 0.000000e+000
<ENDHMM>
~h "c"
<BEGINHMM>
<NUMSTATES> 5
<STATE> 2
<MEAN> 25
 -6.099228e+000 -1.592419e+000 -3.792053e+000 6.896856e+000 9.581981e-001 -7.689580e-001 -3.240258e-001 -7.369958e-001 1.110466e+000 1.737311e+000 2.732645e+000 -6.766292e-001 -2.742478e-001 4.033274e-001 -5.965478e-001 4.367591e-002 -3.854257e-001 -5.381105e-002 4.408907e-001 3.197905e-001 5.927901e-001 3.511977e-001 -1.457232e-001 -3.761097e-002 -6.917690e-001
<VARIANCE> 25
 1.205219e+002 6.650187e+000 1.298716e+001 1.303045e+001 7.652720e+000 8.797946e+000 1.582412e+001 1.546980e+001 2.911999e+001 1.115603e+001 1.692810e+001 6.528304e+000 8.406170e-002 2.105606e-001 3.673140e-001 3.702319e-001 6.549320e-001 8.342468e-001 8.295226e-001 1.381443e+000 1.894913e+000 8.602601e-001 1.771218e+000 3.812306e-001 1.744898e-001
<GCONST> 6.981569e+001
<STATE> 3
<MEAN> 25
 -1.286511e+001 -1.010703e-001 -6.489501e+000 7.775257e+000 6.536877e-001 -3.808924e-001 3.934095e+000 2.258312e+000 5.172801e+000 2.415825e+000 -4.503012e-001 2.220276e-001 1.074385e+000 -1.296276e-001 2.321680e+000 -2.660327e+000 1.129043e+000 -1.313495e-001 5.630145e-002 -1.920872e-001 -2.201726e+000 3.782550e-001 -8.978311e-001 2.911913e-001 2.724348e+000
<VARIANCE> 25
 1.112302e+002 3.663682e+000 1.954731e+001 1.958940e+001 1.392838e+001 2.101475e+001 1.073939e+001 1.954609e+001 4.140216e+001 7.281285e+000 5.861583e+000 4.260190e+000 8.913055e+000 4.264219e+000 5.851635e+000 3.310817e+000 2.881313e+000 4.689915e+000 2.432617e+000 2.335288e+000 5.920761e+000 1.485320e+000 2.152049e+000 5.299032e-001 6.965048e+000
<GCONST> 9.304586e+001
<STATE> 4
<MEAN> 25
 -1.258186e+001 -5.487103e+000 1.138436e+001 -4.662211e+000 6.814819e+000 -6.820506e+000 4.993550e+000 -1.517016e+000 2.906233e-001 9.006202e-001 1.326606e+000 -5.154935e-002 8.044174e-001 -8.341768e-001 1.814256e+000 -9.226066e-001 2.616223e-001 -1.309557e+000 1.837700e-001 -5.446151e-001 -3.004248e-001 -8.480070e-001 5.725915e-001 -1.414254e-001 3.517088e+000
<VARIANCE> 25
 1.476541e+002 1.064591e+002 6.933447e+001 1.049456e+002 9.503963e+001 1.046318e+002 6.579346e+001 4.678848e+001 7.684536e+001 4.206961e+001 3.262273e+001 1.173502e+001 2.089602e+001 1.032021e+001 1.567165e+001 1.375424e+001 1.400775e+001 9.381741e+000 7.943733e+000 4.468699e+000 8.375852e+000 4.485068e+000 2.485234e+000 2.053221e+000 6.872495e+000
<GCONST> 1.221457e+002
<TRANSP> 5
 0.000000e+000 1.000000e+000 0.000000e+000 0.000000e+000 0.000000e+000
 0.000000e+000 8.031608e-001 1.968392e-001 0.000000e+000 0.000000e+000
 0.000000e+000 0.000000e+000 4.867041e-001 5.132959e-001 0.000000e+000
 0.000000e+000 0.000000e+000 0.000000e+000 8.709065e-001 1.290934e-001
 0.000000e+000 0.000000e+000 0.000000e+000 0.000000e+000 0.000000e+000
<ENDHMM>
~h "d"
<BEGINHMM>
<NUMSTATES> 5
<STATE> 2
<MEAN> 25
 -2.841890e+000 1.224139e+001 5.379622e+000 9.766549e+000 3.194261e+000 2.173465e+000 2.793466e+000 1.398397e+000 1.908493e-001 -1.956642e+000 1.367361e-001 -1.331166e+000 1.966361e+000 1.775458e+000 1.513486e+000 1.769391e+000 9.257409e-001 2.879190e-001 -3.738328e-002 -4.103206e-001 -2.081537e-001 -2.501257e-001 -3.811602e-001 -1.004260e-001 8.704645e-001
<VARIANCE> 25
 6.583934e+001 5.965883e+001 9.108635e+001 3.850538e+001 4.443327e+001 1.941713e+001 2.459300e+001 3.128034e+001 3.674314e+001 2.055792e+001 3.007741e+001 1.495785e+001 4.540501e+000 5.532031e+000 5.056535e+000 2.845239e+000 3.512360e+000 2.103739e+000 1.878282e+000 1.847672e+000 2.809922e+000 1.763475e+000 2.072934e+000 1.527064e+000 1.854722e+000
<GCONST> 1.010319e+002
<STATE> 3
<MEAN> 25
 5.961977e+000 2.193701e+001 9.348266e+000 1.559423e+001 3.980529e+000 -2.778107e+000 -3.205489e+000 -4.522761e+000 -2.670365e+000 -2.344352e+000 7.940471e-001 7.825003e-001 1.055203e+000 -1.386687e+000 4.496651e-001 2.957206e-001 -1.491160e+000 -6.822473e-001 -4.337833e-001 -3.741254e-001 2.914926e-001 -1.047266e-001 4.207594e-002 8.127675e-001 1.412202e+000
<VARIANCE> 25
 1.153979e+001 1.173308e+002 2.221581e+001 2.780401e+001 2.696849e+001 2.701369e+001 3.126946e+001 3.643447e+001 1.950680e+001 1.841489e+001 2.194710e+001 1.536042e+001 2.692079e+000 1.028767e+001 2.475457e+000 2.207889e+000 3.497648e+000 4.465259e+000 5.735455e+000 5.504340e+000 4.126733e+000 2.199534e+000 3.015957e+000 2.161031e+000 1.556280e+000
<GCONST> 1.006601e+002
<STATE> 4
<MEAN> 25
 8.654489e+000 -3.408604e+000 1.423470e+001 9.157907e+000 -1.158649e+001 -3.386676e+000 -3.070504e+000 1.091252e+000 2.300077e+000 -5.556124e+000 1.325113e+000 4.613633e+000 1.069489e+000 -4.152082e+000 1.136466e+000 -3.476309e+000 -3.220864e+000 -7.390696e-001 -1.034668e+000 8.988163e-001 -6.904225e-002 2.417714e-001 1.466753e+000 -1.032646e-001 3.682338e+000
<VARIANCE> 25
 1.978814e+001 1.440269e+002 3.952182e+001 9.492819e+001 8.258806e+001 5.450755e+001 4.760684e+001 7.138640e+001 5.227062e+001 4.464473e+001 6.723027e+001 3.476896e+001 1.426349e+000 1.895234e+001 6.026457e+000 5.975513e+000 1.421953e+001 8.398623e+000 5.601358e+000 7.974965e+000 7.233476e+000 6.158655e+000 5.662262e+000 5.784050e+000 4.766407e+000
<GCONST> 1.184973e+002
<TRANSP> 5
 0.000000e+000 1.000000e+000 0.000000e+000 0.000000e+000 0.000000e+000
 0.000000e+000 6.746424e-001 3.253576e-001 0.000000e+000 0.000000e+000
 0.000000e+000 0.000000e+000 6.934953e-001 3.065047e-001 0.000000e+000
 0.000000e+000 0.000000e+000 0.000000e+000 6.437226e-001 3.562774e-001
 0.000000e+000 0.000000e+000 0.000000e+000 0.000000e+000 0.000000e+000
<ENDHMM>
~h "e"
<BEGINHMM>
<NUMSTATES> 5
<STATE> 2
<MEAN> 25
 8.033113e+000 3.766025e+000 4.093897e-001 -1.060421e+000 -5.790145e-001 2.362498e+000 -2.358176e+000 -2.169507e+000 2.585934e-001 8.945301e-001 3.977635e+000 5.033715e-001 8.921337e-002 8.041451e-001 -1.847892e-001 7.545779e-001 5.696892e-001 4.655744e-001 1.437179e-001 -6.813201e-001 -7.603405e-001 4.134092e-002 1.320020e-001 -1.763408e-001 -5.943872e-001
<VARIANCE> 25
 6.250564e+001 2.130529e+002 1.467536e+002 1.281921e+002 9.225517e+001 8.030878e+001 4.797758e+001 5.244215e+001 4.451263e+001 4.205085e+001 3.449193e+001 3.214198e+001 8.572741e+000 5.962070e+000 3.211661e+000 5.689460e+000 4.685640e+000 4.197437e+000 4.107224e+000 3.379212e+000 5.007966e+000 2.958259e+000 2.017249e+000 2.235966e+000 8.980369e+000
<GCONST> 1.154183e+002
<STATE> 3
<MEAN> 25
 6.778795e+000 5.522793e+000 3.275060e+000 4.419579e+000 7.939723e-001 -1.833480e+000 -1.361387e+000 -2.808416e+000 -1.882856e+000 8.752625e-002 2.103284e+000 1.912090e-001 6.699017e-001 -8.994948e-001 -3.007116e-002 3.922837e-001 -7.947972e-001 -5.714173e-001 -7.803634e-001 -4.189305e-001 -4.922195e-002 3.343999e-001 -4.232382e-002 -8.026563e-002 6.216783e-001
<VARIANCE> 25
 2.707721e+001 2.038186e+002 1.224749e+002 1.243443e+002 8.602365e+001 5.426809e+001 4.954588e+001 4.941319e+001 6.031607e+001 4.141202e+001 4.086415e+001 2.412601e+001 7.372957e+000 1.336216e+001 6.859601e+000 1.069006e+001 6.871305e+000 3.995510e+000 5.644164e+000 5.126998e+000 6.602197e+000 4.166857e+000 2.765707e+000 1.530785e+000 1.107774e+001
<GCONST> 1.178877e+002
<STATE> 4
<MEAN> 25
 1.004611e+001 5.350218e-001 2.371743e+000 3.664279e+000 -1.675414e+000 -1.972385e+000 -6.710200e+000 -5.192451e+000 -6.258893e-001 2.903318e+000 3.214758e+000 -4.930495e-001 2.869229e-001 -3.052012e+000 1.279997e+000 -2.131721e+000 -1.424112e+000 -3.226877e-001 -9.103437e-001 6.915980e-001 8.114115e-001 9.199944e-001 -6.204267e-001 1.878897e-001 2.250800e+000
<VARIANCE> 25
 3.068729e+001 1.021313e+002 1.168896e+002 9.728749e+001 1.274159e+002 6.665907e+001 9.151012e+001 1.086976e+002 6.916428e+001 3.877981e+001 3.964906e+001 2.979482e+001 2.747175e+000 1.583903e+001 8.676955e+000 1.197935e+001 1.021642e+001 4.211227e+000 6.697275e+000 9.965262e+000 8.525091e+000 6.078349e+000 3.990613e+000 2.677660e+000 1.025036e+001
<GCONST> 1.215802e+002
<TRANSP> 5
 0.000000e+000 1.000000e+000 0.000000e+000 0.000000e+000 0.000000e+000
 0.000000e+000 4.969231e-001 5.030769e-001 0.000000e+000 0.000000e+000
 0.000000e+000 0.000000e+000 8.645353e-002 9.135465e-001 0.000000e+000
 0.000000e+000 0.000000e+000 0.000000e+000 5.280598e-001 4.719402e-001
 0.000000e+000 0.000000e+000 0.000000e+000 0.000000e+000 0.000000e+000
<ENDHMM>
~h "f"
<BEGINHMM>
<NUMSTATES> 5
<STATE> 2
<MEAN> 25
 -3.538816e+000 2.070344e+000 4.029062e+000 4.957654e+000 3.209734e+000 8.825934e-001 -3.668706e+000 -1.846802e+000 -3.623722e+000 3.146106e-001 -1.381041e+000 2.308835e+000 -3.878024e-001 1.140075e-001 2.646163e-002 2.046447e-001 1.667080e-001 -1.064230e-001 1.506400e-001 7.900332e-002 -1.205781e-001 4.067327e-002 3.369394e-002 1.235964e-003 1.357256e-001
<VARIANCE> 25
 3.239087e+001 2.453743e+001 3.818102e+001 1.059267e+001 1.890969e+001 2.723321e+001 2.294421e+001 3.102790e+001 1.929227e+001 1.529891e+001 1.241479e+001 1.562964e+001 1.112043e+000 1.261847e+000 1.286563e+000 9.191892e-001 1.616505e+000 2.032640e+000 1.992896e+000 2.160794e+000 1.988249e+000 1.313923e+000 1.035761e+000 1.111118e+000 2.452538e-001
<GCONST> 8.524657e+001
<STATE> 3
<MEAN> 25
 -1.230726e+001 1.033482e+001 6.388309e+000 4.494759e+000 -8.533853e-001 -5.395463e+000 1.496336e+000 -1.939057e+000 -6.822316e+000 2.429780e+000 2.857007e+000 2.614053e+000 -3.053718e-001 1.431246e-001 -8.347972e-002 -2.415988e-001 -2.504663e-001 -4.251022e-001 1.433648e-001 -3.424373e-001 2.510766e-002 1.734875e-003 -5.534403e-002 -1.521512e-001 2.322667e-001
<VARIANCE> 25
 4.646168e+001 4.717609e+001 2.669457e+001 1.283158e+001 3.925150e+001 1.968373e+001 2.383943e+001 3.291736e+001 2.134737e+001 1.930088e+001 1.491368e+001 1.496817e+001 3.243140e+000 1.253647e+000 2.422095e+000 1.184889e+000 3.241080e+000 1.766054e+000 1.776597e+000 2.202802e+000 2.066431e+000 1.393846e+000 2.118943e+000 1.356905e+000 2.108518e-001
<GCONST> 9.034360e+001
<STATE> 4
<MEAN> 25
 -1.040537e+001 -1.437501e+001 7.335352e+000 -9.521037e-001 4.273777e+000 -1.406279e+001 7.747159e+000 -2.219455e+000 2.218530e+000 -1.351186e+000 -6.970663e-002 1.154891e+000 4.535245e-002 -3.482578e-002 -3.124999e-001 3.663787e-002 -1.556687e-001 -2.495749e-001 -1.219272e-001 -3.242909e-001 5.832191e-001 -1.522830e-001 1.119806e-001 -4.033418e-001 6.907544e-002
<VARIANCE> 25
 1.539588e+001 8.302478e+001 2.785185e+001 1.425237e+001 3.081512e+001 2.721819e+001 3.244905e+001 2.798558e+001 4.086419e+001 2.503389e+001 1.528681e+001 1.708186e+001 3.235362e+000 2.226553e+000 3.586763e+000 1.897330e+000 3.541808e+000 1.821531e+000 1.472052e+000 1.578241e+000 3.124213e+000 2.662523e+000 1.576304e+000 1.982206e+000 2.951837e-001
<GCONST> 9.375990e+001
<TRANSP> 5
 0.000000e+000 1.000000e+000 0.000000e+000 0.000000e+000 0.000000e+000
 0.000000e+000 9.039933e-001 9.600670e-002 0.000000e+000 0.000000e+000
 0.000000e+000 0.000000e+000 8.865021e-001 1.134979e-001 0.000000e+000
 0.000000e+000 0.000000e+000 0.000000e+000 8.212121e-001 1.787879e-001
 0.000000e+000 0.000000e+000 0.000000e+000 0.000000e+000 0.000000e+000
<ENDHMM>
~h "g"
<BEGINHMM>
<NUMSTATES> 5
<STATE> 2
<MEAN> 25
 4.463577e+000 2.217710e+000 1.165034e+001 1.094002e+001 -2.981408e+000 -5.782999e+000 -4.872143e+000 2.925275e+000 -3.455093e+000 -1.621410e+000 2.908610e+000 2.819816e+000 8.225808e-001 -1.803316e+000 1.728516e+000 -2.263519e+000 -1.300783e+000 -1.238954e+000 -1.087331e+000 7.875127e-001 -8.107955e-001 4.127814e-001 7.931229e-001 5.719821e-001 2.360234e+000
<VARIANCE> 25
 2.535615e+001 1.131827e+002 6.837903e+001 8.616122e+001 6.115441e+001 3.777550e+001 4.620291e+001 4.450176e+001 4.411337e+001 2.787317e+001 3.560773e+001 2.057572e+001 1.641113e+000 6.553649e+000 5.131097e+000 9.998976e+000 5.084788e+000 2.733475e+000 2.765961e+000 3.602000e+000 4.032048e+000 3.548597e+000 4.608075e+000 1.776253e+000 2.212488e+000
<GCONST> 1.084761e+002
<STATE> 3
<MEAN> 25
 6.925011e+000 -9.621014e+000 1.635027e+001 -1.206899e+001 -4.265328e+000 -1.052031e+001 -4.771836e+000 1.097943e+001 -2.404821e+000 6.401995e+000 -1.402563e-001 2.316658e+000 -5.431864e-002 -8.969337e-001 -1.272551e+000 -1.524134e+000 1.316039e+000 -8.234400e-002 1.372406e+000 7.034194e-001 1.144742e+000 9.147205e-001 -1.914713e+000 -5.639651e-001 7.348918e-001
<VARIANCE> 25
 6.651171e+000 2.590858e+001 2.212177e+001 1.651410e+001 2.008055e+001 1.411957e+001 2.832384e+001 2.108819e+001 3.165969e+001 1.764982e+001 2.974111e+001 1.526746e+001 2.724131e-001 7.285309e-001 9.180686e-001 2.015884e+000 1.427210e+000 1.141334e+000 1.453236e+000 1.494641e+000 1.657740e+000 2.345724e+000 9.274336e-001 1.310557e+000 6.308889e-001
<GCONST> 8.283538e+001
<STATE> 4
<MEAN> 25
 4.965495e+000 -1.306024e+001 7.592166e+000 -1.458457e+001 3.273634e+000 -6.630481e+000 2.018512e+000 1.019519e+001 1.769658e+000 5.446892e+000 -1.133075e+001 -1.349404e+000 -4.397588e-001 2.031587e-001 -6.946230e-001 6.102130e-001 2.326091e-001 5.958560e-001 3.597054e-001 -3.946620e-001 1.526912e-001 -3.813811e-001 -4.033923e-001 -2.955867e-001 -8.105713e-001
<VARIANCE> 25
 1.001893e+001 2.443098e+001 1.732533e+001 3.372395e+001 2.142722e+001 3.713163e+001 2.213805e+001 3.477857e+001 1.720226e+001 1.720196e+001 1.979481e+001 1.798561e+001 3.908738e-001 1.098838e+000 5.121863e-001 2.334875e+000 1.846025e+000 1.657972e+000 1.341357e+000 1.606249e+000 1.302549e+000 1.235723e+000 1.976483e+000 1.442701e+000 1.041369e+000
<GCONST> 8.549246e+001
<TRANSP> 5
 0.000000e+000 1.000000e+000 0.000000e+000 0.000000e+000 0.000000e+000
 0.000000e+000 8.647261e-001 1.352739e-001 0.000000e+000 0.000000e+000
 0.000000e+000 0.000000e+000 8.330943e-001 1.669057e-001 0.000000e+000
 0.000000e+000 0.000000e+000 0.000000e+000 8.940618e-001 1.059382e-001
 0.000000e+000 0.000000e+000 0.000000e+000 0.000000e+000 0.000000e+000
<ENDHMM>
~h "h"
<BEGINHMM>
<NUMSTATES> 5
<STATE> 2
<MEAN> 25
 -2.048225e+000 -9.245161e+000 -7.692520e+000 1.280495e+000 2.575443e+000 3.597982e+000 4.636774e+000 -1.053426e+000 -2.053236e+000 -2.327576e+000 -2.256631e+000 -2.106661e-002 -3.268073e-001 7.062405e-001 -3.396682e-001 2.470374e-002 -1.777400e-001 -2.569135e-001 -4.795862e-001 2.854119e-002 -3.855732e-001 -2.669214e-001 4.889562e-002 2.868328e-001 -8.154026e-001
<VARIANCE> 25
 2.900039e+001 9.547250e+001 3.365361e+001 1.927773e+001 2.125569e+001 1.966465e+001 3.186288e+001 1.109175e+001 1.566974e+001 2.142600e+001 2.904619e+001 1.434457e+001 1.651182e-001 3.610424e-001 6.271176e-001 8.181578e-001 1.096133e+000 8.172225e-001 2.051666e+000 1.182856e+000 1.637246e+000 2.374233e+000 1.289332e+000 1.692181e+000 1.576167e-001
<GCONST> 8.167943e+001
<STATE> 3
<MEAN> 25
 -5.333508e+000 2.587128e+000 5.208496e+000 2.283938e+000 4.484634e+000 1.884130e+000 -5.920115e+000 -2.792941e+000 -2.469040e+000 -4.827373e-001 -1.450252e+000 2.793301e+000 -3.351425e-001 3.571177e-001 2.637127e-001 -7.095902e-002 -1.533154e-001 4.061786e-002 -1.928141e-001 -2.196379e-001 -8.832262e-002 5.234463e-002 3.033287e-001 -6.128401e-003 1.142164e-001
<VARIANCE> 25
 3.562795e+001 1.749317e+001 3.605979e+001 1.062096e+001 1.673439e+001 1.401610e+001 2.812295e+001 1.772380e+001 1.787986e+001 1.885869e+001 3.007613e+001 1.210322e+001 4.060781e-001 4.805070e-001 4.165213e-001 8.246594e-001 1.551408e+000 1.632332e+000 1.579224e+000 1.475132e+000 1.748373e+000 1.915689e+000 2.265169e+000 8.313389e-001 2.698103e-001
<GCONST> 8.132068e+001
<STATE> 4
<MEAN> 25
 -7.660431e+000 -6.936641e+000 -2.045852e+000 4.151794e+000 7.832116e-001 5.925158e+000 2.362704e+000 3.432183e+000 -1.546369e+000 -1.553851e+000 4.628720e+000 -1.632412e+000 -4.010626e-001 1.483697e-001 -1.458544e-001 8.947970e-002 -5.169653e-001 1.212106e-001 9.632035e-002 1.322913e-001 1.368256e-001 -1.213897e-001 1.834052e-001 -2.175696e-001 -4.115801e-001
<VARIANCE> 25
 1.308663e+002 2.256799e+002 1.023156e+002 6.999461e+000 3.543169e+001 4.171883e+001 4.736699e+001 4.179904e+001 4.788526e+001 2.796201e+001 2.104045e+001 1.568662e+001 2.732236e+000 1.479185e+000 1.921059e+000 8.475432e-001 2.962346e+000 2.050824e+000 1.614500e+000 1.859083e+000 2.757046e+000 1.732637e+000 2.012622e+000 1.591230e+000 1.587236e+000
<GCONST> 9.867953e+001
<TRANSP> 5
 0.000000e+000 1.000000e+000 0.000000e+000 0.000000e+000 0.000000e+000
 0.000000e+000 6.859862e-001 3.140137e-001 0.000000e+000 0.000000e+000
 0.000000e+000 0.000000e+000 8.814814e-001 1.185186e-001 0.000000e+000
 0.000000e+000 0.000000e+000 0.000000e+000 8.083237e-001 1.916763e-001
 0.000000e+000 0.000000e+000 0.000000e+000 0.000000e+000 0.000000e+000
<ENDHMM>
~h "i"
<BEGINHMM>
<NUMSTATES> 5
<STATE> 2
<MEAN> 25
 -1.996462e+000 -9.605887e-001 1.236650e+001 4.156024e+000 -7.052152e+000 -3.265132e+000 2.375065e+000 -2.173506e+000 -2.744028e+000 -2.427150e+000 3.805999e+000 2.100657e+000 2.498289e+000 -1.049950e+000 6.062979e+000 -1.524215e+000 -3.542810e+000 6.870692e-001 -7.803220e-001 -1.328294e+000 -2.823451e+000 -2.892490e-002 9.309216e-001 -6.886859e-001 3.673822e+000
<VARIANCE> 25
 6.991037e+001 7.290122e+001 1.184018e+002 1.570729e+002 1.497496e+002 1.130608e+002 1.208795e+002 9.393457e+001 7.328651e+001 6.493018e+001 3.949468e+001 4.513710e+001 6.005014e+000 1.196235e+001 1.360168e+001 1.254334e+001 1.109864e+001 8.588387e+000 8.077639e+000 6.397131e+000 7.580087e+000 4.600893e+000 3.610573e+000 3.338728e+000 8.878394e+000
<GCONST> 1.254827e+002
<STATE> 3
<MEAN> 25
 3.731966e+000 -2.182030e+000 3.222408e+001 -3.788567e+000 -1.624149e+001 2.076041e+000 -3.461707e+000 -3.580900e+000 -1.240907e+001 -2.858201e+000 6.145232e+000 -2.707552e+000 3.179783e-002 -3.819883e-001 3.989831e+000 -3.791519e+000 -1.172212e+000 1.515568e+000 -1.455596e+000 4.778475e-001 -1.574830e+000 -3.729017e-001 -3.096942e-001 -8.754979e-001 1.707872e+000
<VARIANCE> 25
 1.847130e+001 3.527583e+001 8.293858e+001 7.341726e+001 6.081261e+001 6.519971e+001 5.427901e+001 6.359591e+001 6.219802e+001 4.720808e+001 2.701551e+001 2.012688e+001 8.682049e-001 2.623277e+000 1.096526e+001 6.870506e+000 6.667436e+000 5.544838e+000 5.999728e+000 4.185675e+000 4.809146e+000 3.762541e+000 2.972391e+000 3.024642e+000 2.368676e+000
<GCONST> 1.097886e+002
<STATE> 4
<MEAN> 25
 1.588504e+000 4.670056e-001 2.966198e+001 -7.799764e+000 -1.190663e+001 1.344327e+000 -3.560945e+000 -9.235010e-001 -1.272877e+001 -1.705634e+000 2.724796e+000 -2.355418e+000 -1.382425e-001 2.560931e-001 -1.334240e+000 7.345598e-001 6.862751e-001 -3.888878e-001 2.987348e-001 2.422881e-001 4.261912e-001 1.816681e-001 -2.656398e-001 3.224170e-001 -8.027994e-001
<VARIANCE> 25
 1.877372e+001 2.813891e+001 1.216274e+002 7.188127e+001 4.842492e+001 4.700116e+001 4.064051e+001 4.230507e+001 5.141821e+001 3.351321e+001 2.380253e+001 2.462240e+001 4.673638e-001 1.147234e+000 3.424764e+000 3.099182e+000 3.203792e+000 2.514596e+000 2.143748e+000 2.362781e+000 2.234577e+000 1.972829e+000 1.727157e+000 1.422044e+000 9.849069e-001
<GCONST> 9.811236e+001
<TRANSP> 5
 0.000000e+000 1.000000e+000 0.000000e+000 0.000000e+000 0.000000e+000
 0.000000e+000 5.227299e-001 4.772702e-001 0.000000e+000 0.000000e+000
 0.000000e+000 0.000000e+000 6.133261e-001 3.866739e-001 0.000000e+000
 0.000000e+000 0.000000e+000 0.000000e+000 9.069307e-001 9.306927e-002
 0.000000e+000 0.000000e+000 0.000000e+000 0.000000e+000 0.000000e+000
<ENDHMM>
~h "j"
<BEGINHMM>
<NUMSTATES> 5
<STATE> 2
<MEAN> 25
 -2.056668e+000 1.339203e+001 -1.458065e+000 1.281034e+001 3.552919e+000 -4.659153e+000 -4.370811e+000 1.043893e+000 4.393510e+000 -2.698300e+000 -1.037096e+000 6.920125e-001 6.741537e-001 7.627774e-001 2.875766e-001 6.078672e-001 9.413162e-001 4.009753e-002 6.719666e-002 -2.352670e-001 -6.877115e-002 1.570839e-001 -9.133330e-002 3.010800e-001 2.559184e-001
<VARIANCE> 25
 7.995128e+001 8.956716e+001 4.310793e+001 2.583069e+001 3.703838e+001 2.596962e+001 2.756193e+001 3.912835e+001 5.529571e+001 8.634913e+000 1.137243e+001 1.027197e+001 4.202600e+000 2.191418e+000 1.893409e+000 3.634889e+000 2.562307e+000 4.028825e+000 2.762063e+000 2.423387e+000 2.650526e+000 1.784231e+000 1.507551e+000 1.227218e+000 1.753763e+000
<GCONST> 9.773537e+001
<STATE> 3
<MEAN> 25
 1.191596e+000 9.510320e+000 1.355273e+001 -1.316347e+000 1.809677e+001 -1.052359e+001 -6.742395e-001 -9.819041e-001 3.459879e-001 4.893853e+000 -3.131160e+000 6.724676e+000 -4.421429e-001 -2.798376e+000 2.476869e+000 -3.801251e+000 -1.409769e-002 -2.863098e+000 4.321304e-001 1.195571e-001 -1.767966e+000 -1.870102e-001 -7.251379e-001 1.165154e+000 3.194501e+000
<VARIANCE> 25
 2.929118e+001 1.040140e+002 4.631630e+001 1.078103e+002 1.328788e+002 8.397916e+001 7.566978e+001 2.606732e+001 4.229526e+001 3.068501e+001 2.236959e+001 1.777697e+001 6.074854e+000 4.918355e+000 3.065403e+000 7.315363e+000 2.937934e+001 5.991273e+000 6.998889e+000 7.409310e+000 2.743916e+000 7.669616e+000 2.115391e+000 1.455309e+000 2.630855e+000
<GCONST> 1.133105e+002
<STATE> 4
<MEAN> 25
 3.779513e+000 -7.149335e+000 1.706296e+001 -1.046441e+001 3.083582e-001 -1.511290e+001 6.532062e+000 6.529671e+000 -2.865040e+000 2.358044e+000 -4.420186e+000 5.893466e+000 6.925765e-002 -1.565094e-001 -2.010737e-001 9.287220e-003 -1.717331e-001 1.132283e-001 2.730196e-001 -6.794223e-003 6.314969e-002 4.457011e-002 9.565986e-003 -4.750453e-002 5.357653e-002
<VARIANCE> 25
 2.141590e+001 5.115467e+001 3.707203e+001 5.164812e+001 4.721550e+001 3.166031e+001 6.223663e+001 6.119847e+001 6.740022e+001 2.339048e+001 6.502356e+001 1.103907e+001 1.030589e+000 1.999049e+000 3.289029e+000 3.860145e+000 6.547212e+000 2.545784e+000 3.325023e+000 4.169292e+000 5.194395e+000 1.786832e+000 4.506392e+000 1.186127e+000 2.159376e+000
<GCONST> 1.033781e+002
<TRANSP> 5
 0.000000e+000 1.000000e+000 0.000000e+000 0.000000e+000 0.000000e+000
 0.000000e+000 9.073008e-001 9.269926e-002 0.000000e+000 0.000000e+000
 0.000000e+000 0.000000e+000 7.689551e-001 2.310449e-001 0.000000e+000
 0.000000e+000 0.000000e+000 0.000000e+000 9.481271e-001 5.187289e-002
 0.000000e+000 0.000000e+000 0.000000e+000 0.000000e+000 0.000000e+000
<ENDHMM>
~h "k"
<BEGINHMM>
<NUMSTATES> 5
<STATE> 2
<MEAN> 25
 -3.396884e+000 3.025184e+000 -4.053248e+000 1.082007e+000 -2.569422e-001 1.195410e+000 -1.487693e+000 -1.688391e+000 3.229939e-001 -2.664700e-001 1.673220e-001 -1.534433e-001 -3.088493e-001 2.431266e-001 -2.384578e-001 4.507771e-001 1.096368e-001 -6.336941e-002 -9.777986e-003 9.502070e-002 9.024538e-002 4.388741e-002 7.668844e-002 2.221481e-001 -5.469536e-001
<VARIANCE> 25
 2.669770e+001 5.297577e+001 4.803902e+001 2.542007e+001 3.107717e+001 2.755063e+001 1.950021e+001 2.251759e+001 2.221774e+001 1.657276e+001 1.932110e+001 1.518769e+001 2.373255e-001 5.293794e-001 8.598104e-001 7.991397e-001 1.077998e+000 1.082134e+000 1.113774e+000 1.490988e+000 1.304216e+000 1.063813e+000 1.186775e+000 1.183602e+000 1.963385e-001
<GCONST> 8.198740e+001
<STATE> 3
<MEAN> 25
 -5.271737e+000 2.451827e+000 -5.054564e+000 2.541784e+000 1.054266e+000 -5.917301e-002 -8.971919e-001 -1.032373e-001 2.326951e-001 3.882505e-001 -5.404905e-001 2.694501e-001 5.640391e-001 -1.914642e+000 -1.703878e+000 -1.704995e-001 1.236210e+000 -2.456496e-001 -9.348910e-002 7.753472e-001 9.660721e-001 4.028536e-001 -2.709134e-001 -1.319948e-001 1.797459e+000
<VARIANCE> 25
 4.617133e+001 3.678115e+001 5.259090e+001 2.740528e+001 3.325252e+001 2.154654e+001 2.042970e+001 3.215684e+001 2.823871e+001 2.382131e+001 2.165931e+001 1.752808e+001 3.907224e+000 6.449789e+000 4.848454e+000 3.791856e+000 5.759349e+000 4.869389e+000 7.836152e+000 5.078167e+000 2.738392e+000 3.425242e+000 2.611577e+000 2.684420e+000 3.403795e+000
<GCONST> 1.047368e+002
<STATE> 4
<MEAN> 25
 1.412183e+000 -1.078426e+001 -8.362502e+000 -7.325014e-001 9.314651e+000 -3.573778e+000 -5.150839e+000 4.205399e+000 5.288938e+000 3.015161e+000 -2.187973e+000 -1.727183e+000 2.564017e+000 -2.112120e+000 8.259498e-001 -2.087841e+000 -1.407780e-001 6.748862e-002 7.739188e-001 5.591063e-001 4.575967e-001 8.490711e-001 -3.915117e-001 -1.080021e+000 3.982404e+000
<VARIANCE> 25
 7.667812e+001 7.317776e+001 1.044671e+002 1.018695e+002 1.422555e+002 9.291452e+001 9.839444e+001 8.496553e+001 6.436905e+001 5.302623e+001 4.000453e+001 3.748362e+001 4.819788e+000 1.015978e+001 9.847166e+000 6.662470e+000 1.916444e+001 7.379541e+000 1.226251e+001 8.210609e+000 6.298636e+000 5.155550e+000 3.326443e+000 3.368884e+000 5.231982e+000
<GCONST> 1.230111e+002
<TRANSP> 5
 0.000000e+000 1.000000e+000 0.000000e+000 0.000000e+000 0.000000e+000
 0.000000e+000 8.266369e-001 1.733632e-001 0.000000e+000 0.000000e+000
 0.000000e+000 0.000000e+000 6.272435e-001 3.727565e-001 0.000000e+000
 0.000000e+000 0.000000e+000 0.000000e+000 7.148061e-001 2.851939e-001
 0.000000e+000 0.000000e+000 0.000000e+000 0.000000e+000 0.000000e+000
<ENDHMM>
~h "l"
<BEGINHMM>
<NUMSTATES> 5
<STATE> 2
<MEAN> 25
 4.228107e+000 6.231658e+000 -3.083071e+000 1.139305e+000 1.534661e+000 -1.709445e+000 -3.692491e+000 1.468239e+000 5.312956e+000 2.415796e+000 7.248226e-002 -1.263722e+000 3.495418e+000 -3.733403e-001 5.460566e-001 -1.974662e+000 1.168856e-001 2.683082e-001 -1.655773e+000 -2.341925e-001 8.578244e-002 1.115143e+000 -2.966920e-002 -4.812087e-001 3.330341e+000
<VARIANCE> 25
 1.278273e+002 1.304153e+002 1.354887e+002 1.281358e+002 5.474412e+001 9.978532e+001 9.040619e+001 6.411130e+001 4.987644e+001 5.725782e+001 4.249071e+001 3.679535e+001 9.726195e+000 8.226446e+000 1.084212e+001 9.148890e+000 4.921225e+000 6.014105e+000 7.179895e+000 6.464313e+000 4.235319e+000 4.455367e+000 2.835879e+000 3.524006e+000 7.832028e+000
<GCONST> 1.215149e+002
<STATE> 3
<MEAN> 25
 1.347766e+001 -3.968775e+000 5.367485e-001 -1.100398e+001 -1.614811e+000 3.817037e+000 -4.994215e+000 -3.352294e+000 3.847211e+000 7.422404e+000 -6.683995e-001 -1.943954e+000 -3.738076e-001 -2.410808e+000 1.226236e+000 -9.996430e-001 6.225553e-002 8.472631e-001 3.494637e-001 -2.361911e-001 2.732792e-001 2.250355e-001 -1.034996e+000 3.494483e-002 1.514557e+000
<VARIANCE> 25
 3.408990e+001 7.504111e+001 1.641974e+002 7.252926e+001 8.018291e+001 1.466424e+002 9.656578e+001 1.254077e+002 5.474067e+001 4.572088e+001 5.200523e+001 4.208576e+001 5.309150e-001 5.470885e+000 4.032264e+000 4.742449e+000 5.117313e+000 5.621635e+000 6.589859e+000 7.391178e+000 4.358243e+000 4.376106e+000 3.574274e+000 3.097000e+000 1.831763e+000
<GCONST> 1.146893e+002
<STATE> 4
<MEAN> 25
 9.043995e+000 -6.864611e+000 7.603692e+000 -1.610256e+001 2.325986e+000 -2.142851e+000 -8.069421e+000 -1.469993e+000 3.048811e+000 1.111647e+001 -3.260942e+000 -6.790805e-001 -6.975663e-004 5.676768e-002 -4.284990e-001 9.264202e-002 1.395410e-001 4.676770e-001 4.877885e-001 -1.371334e-001 -3.113202e-001 -1.874191e-002 3.486467e-002 -2.419656e-001 -1.979492e-001
<VARIANCE> 25
 1.318252e+001 3.477860e+001 5.980029e+001 5.236930e+001 5.366160e+001 9.244828e+001 9.945149e+001 1.073135e+002 4.514674e+001 3.837867e+001 4.576357e+001 3.885819e+001 2.610323e-001 1.524226e+000 1.281779e+000 2.269395e+000 2.186825e+000 2.096413e+000 2.515208e+000 3.289067e+000 2.485819e+000 2.474643e+000 2.068356e+000 1.492672e+000 5.760573e-001
<GCONST> 9.902400e+001
<TRANSP> 5
 0.000000e+000 1.000000e+000 0.000000e+000 0.000000e+000 0.000000e+000
 0.000000e+000 6.170644e-001 3.829356e-001 0.000000e+000 0.000000e+000
 0.000000e+000 0.000000e+000 5.589242e-001 4.410758e-001 0.000000e+000
 0.000000e+000 0.000000e+000 0.000000e+000 8.174148e-001 1.825851e-001
 0.000000e+000 0.000000e+000 0.000000e+000 0.000000e+000 0.000000e+000
<ENDHMM>
~h "m"
<BEGINHMM>
<NUMSTATES> 5
<STATE> 2
<MEAN> 25
 9.795414e+000 1.481134e+000 3.724399e+000 6.435119e+000 3.433506e+000 7.005032e+000 1.069468e+000 -1.127444e+001 -1.057230e+001 3.248067e-001 4.359233e-001 2.201401e+000 8.584757e-002 5.807012e-001 -1.265891e-001 6.286275e-001 -2.264455e-001 1.222609e-001 9.430744e-002 -2.261855e-001 -8.385748e-002 -1.887850e-001 -9.066988e-002 2.789549e-001 -4.691387e-001
<VARIANCE> 25
 4.378249e+001 3.028184e+001 5.875734e+001 2.334692e+001 3.642699e+001 3.330503e+001 3.137740e+001 3.112642e+001 4.064323e+001 3.993413e+001 2.996637e+001 2.033162e+001 1.093190e-001 3.670561e-001 4.632547e-001 7.307488e-001 8.294786e-001 9.181238e-001 8.093536e-001 1.310868e+000 1.616449e+000 1.339884e+000 1.062542e+000 1.001596e+000 1.013942e-001
<GCONST> 8.218430e+001
<STATE> 3
<MEAN> 25
 3.314264e+000 5.266680e+000 1.999234e-001 7.583666e+000 2.032829e+000 4.715130e+000 -4.377401e-001 -6.103526e+000 -2.226478e+000 -1.224430e+000 -8.121630e-001 2.753065e+000 -2.959541e-001 -8.097829e-002 -4.525529e-001 -8.132929e-002 -1.524895e-001 -3.523670e-001 1.918252e-001 5.899171e-001 6.875236e-001 2.680572e-001 6.875709e-002 -3.622088e-001 -2.821079e-001
<VARIANCE> 25
 7.723798e+001 3.149407e+001 4.274096e+001 2.277228e+001 2.298436e+001 2.467867e+001 2.481047e+001 4.206717e+001 3.519768e+001 2.092326e+001 3.118318e+001 2.085700e+001 1.152623e+000 9.719663e-001 1.384657e+000 1.506793e+000 1.176661e+000 1.596074e+000 1.346207e+000 2.141676e+000 1.693183e+000 1.436688e+000 1.507636e+000 1.280614e+000 7.032893e-001
<GCONST> 9.072801e+001
<STATE> 4
<MEAN> 25
 6.057382e+000 8.931053e+000 -4.486018e+000 9.720977e+000 5.115696e+000 4.480514e+000 1.163579e+000 -7.633744e+000 -5.658549e+000 -9.611917e-001 3.008124e+000 1.196624e+000 2.694852e+000 -8.051510e-001 -5.699344e-001 -1.006885e+000 -8.409823e-002 5.013521e-001 -2.670537e-001 -5.482891e-002 -2.143694e-002 -4.735334e-001 -1.428797e-002 -3.892969e-002 2.476655e+000
<VARIANCE> 25
 1.441076e+002 1.231777e+002 7.537181e+001 4.915457e+001 4.701563e+001 3.450759e+001 4.037550e+001 7.929878e+001 7.885413e+001 3.251614e+001 3.732845e+001 1.437911e+001 8.319234e+000 1.339550e+001 7.977431e+000 9.619040e+000 5.671068e+000 5.900055e+000 5.422246e+000 1.085820e+001 1.270584e+001 3.374457e+000 3.328579e+000 1.855323e+000 3.503315e+000
<GCONST> 1.170187e+002
<TRANSP> 5
 0.000000e+000 1.000000e+000 0.000000e+000 0.000000e+000 0.000000e+000
 0.000000e+000 8.512970e-001 1.487031e-001 0.000000e+000 0.000000e+000
 0.000000e+000 0.000000e+000 7.059650e-001 2.940350e-001 0.000000e+000
 0.000000e+000 0.000000e+000 0.000000e+000 6.755784e-001 3.244216e-001
 0.000000e+000 0.000000e+000 0.000000e+000 0.000000e+000 0.000000e+000
<ENDHMM>
~h "n"
<BEGINHMM>
<NUMSTATES> 5
<STATE> 2
<MEAN> 25
 6.763003e+000 -7.741573e+000 1.397380e+001 -9.326927e+000 -2.827915e+000 -5.932184e+000 1.682486e+000 4.323514e+000 -4.222255e+000 3.189189e+000 -2.961441e+000 5.839821e-001 -1.165272e-001 2.208729e+000 4.041161e-001 1.882177e+000 -2.879199e-001 -2.386018e-001 -1.084450e+000 -2.383182e+000 -4.554624e-001 6.854158e-001 2.281880e-001 2.931455e-001 -1.767071e+000
<VARIANCE> 25
 1.559712e+001 3.897865e+001 1.549504e+002 1.062220e+002 6.696622e+001 3.014664e+001 4.882824e+001 5.863589e+001 6.000940e+001 2.900746e+001 4.766903e+001 1.535122e+001 2.797859e-001 2.825516e+000 2.424942e+000 4.715538e+000 2.311366e+000 1.507457e+000 2.133821e+000 4.446687e+000 2.255243e+000 1.710684e+000 1.530941e+000 1.082277e+000 1.674609e+000
<GCONST> 9.976376e+001
<STATE> 3
<MEAN> 25
 9.194828e+000 1.593455e+000 6.945686e+000 3.894102e+000 -3.097933e+000 -6.652079e+000 -4.263276e+000 -5.474766e+000 -4.305449e+000 3.575409e+000 -4.174207e+000 1.182350e+000 1.009174e-002 7.344695e-001 -2.363776e-001 6.620499e-001 -1.695496e-001 2.355202e-001 -1.505793e-001 -2.568144e-001 1.568640e-001 -1.270589e-001 1.954031e-001 5.026089e-002 -6.524923e-001
<VARIANCE> 25
 7.679251e+000 2.355761e+001 2.953293e+001 3.478852e+001 3.085542e+001 2.307398e+001 2.961292e+001 4.882298e+001 2.580794e+001 2.818187e+001 2.828779e+001 1.459945e+001 1.182267e-001 2.991960e-001 5.256884e-001 6.379119e-001 1.073178e+000 8.970933e-001 1.013553e+000 1.270157e+000 1.156557e+000 1.125878e+000 1.042941e+000 1.024880e+000 7.323193e-002
<GCONST> 7.803362e+001
<STATE> 4
<MEAN> 25
 3.370068e+000 4.719889e+000 1.565866e+000 9.658343e+000 1.005335e+000 -3.877848e-001 3.839958e-002 -1.937909e-001 1.791778e-001 1.055220e-001 -6.978560e-001 1.475697e+000 -8.435141e-001 -1.015544e-001 -7.750914e-001 3.061356e-002 3.198856e-002 2.274807e-001 3.397254e-001 4.266533e-001 3.280610e-001 -2.594599e-001 2.109053e-001 7.193054e-002 -8.597127e-001
<VARIANCE> 25
 1.741004e+001 1.590557e+001 3.412712e+001 2.102779e+001 2.883080e+001 2.549038e+001 2.344701e+001 2.921727e+001 2.403022e+001 1.965160e+001 2.165224e+001 1.714473e+001 3.262383e-001 6.123772e-001 1.175231e+000 1.254998e+000 1.586801e+000 2.300011e+000 1.888439e+000 1.787615e+000 1.591553e+000 1.410777e+000 1.360976e+000 1.429526e+000 1.823400e-001
<GCONST> 8.441194e+001
<TRANSP> 5
 0.000000e+000 1.000000e+000 0.000000e+000 0.000000e+000 0.000000e+000
 0.000000e+000 7.521510e-001 2.478490e-001 0.000000e+000 0.000000e+000
 0.000000e+000 0.000000e+000 9.002030e-001 9.979703e-002 0.000000e+000
 0.000000e+000 0.000000e+000 0.000000e+000 8.804030e-001 1.195970e-001
 0.000000e+000 0.000000e+000 0.000000e+000 0.000000e+000 0.000000e+000
<ENDHMM>
~h "o"
<BEGINHMM>
<NUMSTATES> 5
<STATE> 2
<MEAN> 25
 7.067984e+000 -6.817312e+000 1.913408e+001 -1.435370e+001 -4.094172e+000 -6.639338e+000 -5.204689e+000 4.236166e+000 -1.265158e+001 9.211181e+000 2.563209e+000 9.743737e-001 4.184807e-001 1.189976e-001 -1.859971e+000 -1.505436e+000 1.048347e+000 4.730259e-001 3.988488e-001 -3.018599e-001 5.476167e-001 8.927850e-001 2.166080e-001 5.381129e-001 1.982427e-001
<VARIANCE> 25
 4.869419e+001 4.363424e+001 1.617647e+002 7.248221e+001 3.606905e+001 2.629591e+001 1.083505e+001 1.443749e+001 7.053699e+001 4.325889e+001 1.236395e+001 6.991426e+000 1.529149e-001 3.570110e-001 1.354464e+000 1.515748e+000 1.430011e+000 5.191519e+000 2.143859e+000 1.954331e+000 4.449485e+000 1.333598e+000 2.813408e+000 1.409627e+000 1.939916e-001
<GCONST> 9.013535e+001
<STATE> 3
<MEAN> 25
 1.156461e+001 -9.805742e+000 5.396640e+000 -1.816366e+001 4.015422e-001 -1.123449e+000 -2.155339e+000 4.421665e+000 -2.578961e+000 8.692841e+000 -8.231998e-002 1.252716e+000 -1.679640e-001 2.099999e-001 -8.219770e-002 7.160569e-001 -2.260175e-001 -3.788520e-001 3.467556e-001 1.917511e-001 3.327553e-001 -5.112422e-001 -2.244913e-001 -7.555510e-002 -3.560596e-001
<VARIANCE> 25
 3.999091e+001 3.994171e+001 2.541950e+001 6.920539e+001 1.494531e+001 1.452254e+002 7.959747e+001 9.157034e+001 7.993967e+000 2.290837e+001 1.745744e+001 1.524969e+001 4.132695e-001 2.541533e+000 8.739483e-001 1.987768e+000 1.453250e+000 6.592215e+000 6.317993e+000 4.747184e+000 1.606087e+000 1.049282e+000 2.243992e+000 1.527750e+000 1.767105e+000
<GCONST> 9.675222e+001
<STATE> 4
<MEAN> 25
 6.320098e+000 -2.275740e+000 1.703664e-001 -8.452927e-001 -3.008081e+000 2.418074e+000 3.321121e+000 -2.142737e+000 -4.276194e-001 -7.718523e-001 -3.874210e-001 -3.517058e-002 -1.260019e+000 1.488555e+000 5.447218e-001 3.236486e+000 1.658910e+000 1.501477e+000 -7.614296e-001 -2.092357e+000 -1.554106e+000 -1.495890e+000 -9.621329e-001 -2.011395e-001 -2.247645e+000
<VARIANCE> 25
 1.550418e+002 5.554633e+001 3.047577e+001 5.313164e+001 3.992726e+001 4.762684e+001 2.916012e+000 2.055688e+001 1.694290e+001 2.384504e+001 1.292291e+001 4.216505e+000 5.979092e-001 1.226331e+000 1.560037e+000 4.522479e+000 1.713859e+000 1.787957e+000 4.569375e-001 7.352775e-001 4.045454e+000 6.347448e-001 6.698123e-001 1.219552e+000 1.575709e+000
<GCONST> 8.690892e+001
<TRANSP> 5
 0.000000e+000 1.000000e+000 0.000000e+000 0.000000e+000 0.000000e+000
 0.000000e+000 8.057317e-001 1.942683e-001 0.000000e+000 0.000000e+000
 0.000000e+000 0.000000e+000 8.980708e-001 1.019292e-001 0.000000e+000
 0.000000e+000 0.000000e+000 0.000000e+000 5.010651e-001 4.989349e-001
 0.000000e+000 0.000000e+000 0.000000e+000 0.000000e+000 0.000000e+000
<ENDHMM>
~h "p"
<BEGINHMM>
<NUMSTATES> 5
<STATE> 2
<MEAN> 25
 -1.521763e+000 6.515425e-001 -1.052509e+000 2.538343e+000 -2.323779e+000 1.914819e-001 -2.618248e+000 -1.470643e+000 2.934473e-001 -2.311473e-001 5.459800e-001 5.993855e-001 -3.974625e-001 3.349554e-001 -6.559228e-001 2.577322e-001 2.474942e-002 -1.013500e-001 1.860697e-001 -6.692180e-002 1.963612e-001 -8.542439e-002 2.934486e-002 6.636085e-002 -7.396687e-001
<VARIANCE> 25
 1.456217e+001 2.111543e+001 3.830009e+001 2.869616e+001 2.632434e+001 1.938989e+001 2.144273e+001 2.900740e+001 2.690618e+001 2.035822e+001 2.204062e+001 1.572823e+001 1.649923e-001 3.266508e-001 6.042230e-001 6.836833e-001 9.428592e-001 9.801511e-001 1.013382e+000 1.079329e+000 1.323262e+000 1.269257e+000 1.156455e+000 1.131424e+000 9.363420e-002
<GCONST> 7.812490e+001
<STATE> 3
<MEAN> 25
 -2.953777e+000 2.699591e+000 -2.132185e+000 4.056448e+000 -2.596855e-002 8.647819e-001 -1.670049e+000 -2.763835e+000 -4.122356e-001 -4.393871e-001 2.284480e-001 1.796403e+000 5.035818e-001 -4.316757e-001 -1.006251e+000 -2.905158e-001 1.131637e-002 -1.333828e-001 4.370596e-001 1.268798e-001 -8.124448e-002 1.107186e-001 1.351818e-002 -4.431762e-002 5.031681e-001
<VARIANCE> 25
 3.617547e+001 2.417220e+001 4.496284e+001 1.903804e+001 2.322719e+001 1.647821e+001 2.009911e+001 2.378460e+001 2.230903e+001 1.836210e+001 1.488941e+001 1.776411e+001 7.503017e-001 9.635934e-001 1.941213e+000 2.519969e+000 2.131925e+000 1.710015e+000 2.175657e+000 2.127658e+000 1.516548e+000 1.732822e+000 2.226822e+000 1.520220e+000 5.764064e-001
<GCONST> 8.890672e+001
<STATE> 4
<MEAN> 25
 4.020580e+000 -1.725182e+000 -8.568030e+000 4.183113e+000 -2.094071e+000 7.062782e-001 2.484746e+000 -1.456959e+000 -1.192367e+000 -6.454664e-001 1.605213e+000 -6.747209e-001 3.887351e+000 -2.140071e+000 -1.066167e+000 -1.925771e+000 -4.618915e-001 6.054696e-001 1.070519e+000 3.484864e-001 -8.446053e-001 5.605699e-001 1.554586e-001 -1.025561e+000 4.180196e+000
<VARIANCE> 25
 8.053700e+001 6.796413e+001 5.626812e+001 7.026723e+001 3.498401e+001 4.481805e+001 4.013908e+001 2.977448e+001 3.246127e+001 2.689299e+001 2.624167e+001 2.974977e+001 4.001445e+000 1.042734e+001 5.977049e+000 1.094787e+001 4.911214e+000 5.361247e+000 4.316638e+000 4.131586e+000 3.069849e+000 4.856947e+000 2.819954e+000 3.557514e+000 6.684334e+000
<GCONST> 1.116842e+002
<TRANSP> 5
 0.000000e+000 1.000000e+000 0.000000e+000 0.000000e+000 0.000000e+000
 0.000000e+000 8.654540e-001 1.345460e-001 0.000000e+000 0.000000e+000
 0.000000e+000 0.000000e+000 3.892231e-001 6.107769e-001 0.000000e+000
 0.000000e+000 0.000000e+000 0.000000e+000 6.117753e-001 3.882246e-001
 0.000000e+000 0.000000e+000 0.000000e+000 0.000000e+000 0.000000e+000
<ENDHMM>
~h "r"
<BEGINHMM>
<NUMSTATES> 5
<STATE> 2
<MEAN> 25
 1.042801e+001 -1.111527e+001 6.085985e+000 -6.054698e+000 -3.855193e+000 -3.703012e+000 -5.429557e+000 -1.530977e-001 -6.754492e-001 5.755389e+000 -5.036862e-001 1.641025e+000 3.017510e-001 -4.035157e-001 -1.074772e+000 1.670370e+000 -1.071333e-001 -4.962662e-001 -1.424915e-001 -2.393606e-001 1.653994e+000 -4.383905e-001 -9.841035e-001 8.008580e-001 -2.933947e-001
<VARIANCE> 25
 1.703637e+001 3.216178e+001 9.086279e+001 7.243892e+001 4.863945e+001 6.460176e+001 9.168842e+001 8.677113e+001 7.299399e+001 4.150630e+001 5.072351e+001 3.371246e+001 9.099640e-001 1.394443e+000 1.493805e+000 5.934971e+000 2.836305e+000 3.034842e+000 2.712736e+000 2.568416e+000 2.587128e+000 3.784787e+000 1.949781e+000 2.348773e+000 1.011185e+000
<GCONST> 1.038685e+002
<STATE> 3
<MEAN> 25
 9.222323e+000 -8.063163e+000 -1.238722e+000 6.022676e+000 -6.896766e-001 2.618113e-001 -3.532277e+000 3.469431e-001 7.389854e+000 1.185242e+000 -3.468060e+000 4.417129e+000 -8.022481e-001 7.282861e-001 -2.994918e-001 9.047238e-001 5.554478e-001 5.888949e-001 4.140498e-001 2.766986e-001 9.361538e-002 -3.906397e-001 1.837028e-001 2.028105e-002 -1.256284e+000
<VARIANCE> 25
 2.374622e+001 2.370830e+001 4.249444e+001 4.779166e+001 3.776737e+001 4.409257e+001 6.010657e+001 5.960217e+001 4.092375e+001 3.173989e+001 3.653819e+001 3.625037e+001 1.084991e+000 1.165253e+000 1.444449e+000 2.036999e+000 2.533191e+000 2.550506e+000 2.781419e+000 2.673047e+000 2.333367e+000 1.989023e+000 1.652650e+000 2.175630e+000 7.528114e-001
<GCONST> 9.757242e+001
<STATE> 4
<MEAN> 25
 -1.205924e+000 8.688998e-001 -8.889726e+000 7.859612e+000 9.522795e-001 -1.106927e+000 -1.523246e+000 1.893400e-001 5.349531e+000 -9.869778e-001 -1.215163e+000 1.083103e+000 -4.393088e-001 6.897175e-001 -2.991575e-001 -9.231457e-002 -3.829989e-002 -1.309159e-001 3.082276e-002 -1.717022e-001 -1.854853e-001 -3.520975e-002 1.413198e-001 -2.466801e-001 -7.205024e-001
<VARIANCE> 25
 1.976778e+001 3.154448e+001 4.438136e+001 1.880146e+001 2.803351e+001 2.325590e+001 1.824946e+001 1.971014e+001 1.999518e+001 1.665281e+001 1.729165e+001 1.783560e+001 2.184747e-001 3.094563e-001 6.964962e-001 6.430656e-001 8.468147e-001 1.129825e+000 1.067506e+000 1.166553e+000 1.263454e+000 1.218015e+000 1.013770e+000 1.108116e+000 1.004913e-001
<GCONST> 7.794152e+001
<TRANSP> 5
 0.000000e+000 1.000000e+000 0.000000e+000 0.000000e+000 0.000000e+000
 0.000000e+000 7.873409e-001 2.126591e-001 0.000000e+000 0.000000e+000
 0.000000e+000 0.000000e+000 8.538174e-001 1.461826e-001 0.000000e+000
 0.000000e+000 0.000000e+000 0.000000e+000 8.986205e-001 1.013795e-001
 0.000000e+000 0.000000e+000 0.000000e+000 0.000000e+000 0.000000e+000
<ENDHMM>
~h "s"
<BEGINHMM>
<NUMSTATES> 5
<STATE> 2
<MEAN> 25
 3.281847e+000 -3.489481e+000 4.723314e+000 -3.872625e+000 1.108302e+001 -6.134258e+000 4.671879e+000 1.123170e+000 -1.235674e-001 -4.297566e-001 -4.224776e+000 6.257799e+000 -1.590221e+000 8.016553e-002 1.408622e+000 -2.000428e+000 3.405778e+000 -2.970577e+000 1.835666e+000 -1.720966e+000 6.250824e-002 -2.233869e-001 3.750986e-001 -2.634658e-002 1.999087e+000
<VARIANCE> 25
 1.007837e+002 9.722729e+001 1.211277e+002 8.820196e+001 1.027969e+002 1.120246e+002 6.774539e+001 9.845461e+001 4.345565e+001 4.694006e+001 3.792315e+001 2.523164e+001 8.828866e+000 8.263605e+000 8.134824e+000 7.797049e+000 5.946254e+000 7.460780e+000 5.713650e+000 1.102570e+001 6.097812e+000 5.281360e+000 4.011297e+000 3.907563e+000 6.939202e+000
<GCONST> 1.215911e+002
<STATE> 3
<MEAN> 25
 -9.940291e+000 -1.472311e+000 9.192216e+000 -1.146734e+001 2.017221e+001 -1.558268e+001 1.265784e+001 -5.826907e+000 4.257846e+000 -1.647737e+000 7.530539e-001 1.778816e+000 -3.621686e-001 1.160790e-001 -2.218178e-001 2.123562e-001 -3.477717e-001 3.959327e-001 -3.398041e-001 1.435898e-001 1.976137e-001 1.062739e-001 1.266017e-001 -2.326075e-001 -5.716283e-001
<VARIANCE> 25
 9.516163e+001 4.829277e+001 4.942122e+001 4.037640e+001 4.332934e+001 3.441278e+001 3.421817e+001 2.478148e+001 2.660073e+001 1.977568e+001 2.490189e+001 1.728516e+001 6.362023e+000 3.093402e+000 2.845551e+000 3.201946e+000 2.388333e+000 2.554249e+000 2.293386e+000 2.345720e+000 2.343585e+000 1.955656e+000 2.342085e+000 1.545070e+000 2.645359e+000
<GCONST> 1.008201e+002
<STATE> 4
<MEAN> 25
 -7.926528e+000 2.970030e+000 1.868070e+000 -2.950155e+000 8.987061e+000 -6.255759e+000 2.824655e+000 -5.269099e-001 3.515429e-001 1.292794e+000 -2.090238e+000 8.980389e-001 1.493968e-001 4.487392e-001 -9.423287e-001 5.996850e-001 -9.019738e-001 5.335796e-001 -4.779392e-001 3.478411e-001 -3.649518e-001 -6.617317e-002 4.547410e-004 -3.837648e-002 -1.107273e+000
<VARIANCE> 25
 2.362802e+001 2.723189e+001 5.111782e+001 2.843284e+001 3.450285e+001 1.995370e+001 2.563203e+001 2.114061e+001 1.978329e+001 1.439203e+001 1.557887e+001 1.217474e+001 4.941009e-001 6.545697e-001 6.491741e-001 9.815040e-001 7.879423e-001 9.963892e-001 1.056581e+000 1.246599e+000 1.443973e+000 9.529335e-001 1.189495e+000 9.067035e-001 1.380620e-001
<GCONST> 8.029043e+001
<TRANSP> 5
 0.000000e+000 1.000000e+000 0.000000e+000 0.000000e+000 0.000000e+000
 0.000000e+000 7.780088e-001 2.219912e-001 0.000000e+000 0.000000e+000
 0.000000e+000 0.000000e+000 9.130246e-001 8.697540e-002 0.000000e+000
 0.000000e+000 0.000000e+000 0.000000e+000 8.638341e-001 1.361659e-001
 0.000000e+000 0.000000e+000 0.000000e+000 0.000000e+000 0.000000e+000
<ENDHMM>
~h "t"
<BEGINHMM>
<NUMSTATES> 5
<STATE> 2
<MEAN> 25
 -1.159218e+001 7.220416e+000 -6.528451e+000 5.027767e+000 -1.018735e+000 -8.430015e-001 5.356230e-002 -3.105401e-001 1.956082e+000 -1.496861e+000 1.253656e+000 -5.121944e-001 -5.044114e-001 -8.232204e-003 1.346432e-003 1.900735e-001 -9.381665e-002 -4.252866e-002 4.251508e-002 -5.133589e-002 -5.556813e-002 -5.400348e-002 1.148722e-001 -1.783863e-002 -4.240425e-001
<VARIANCE> 25
 5.511225e+001 2.842397e+001 2.162113e+001 2.051213e+001 1.814978e+001 1.971812e+001 2.168085e+001 2.309208e+001 2.117599e+001 1.444968e+001 1.522430e+001 1.317498e+001 2.262939e-001 3.292708e-001 6.594888e-001 5.356743e-001 8.140782e-001 9.083824e-001 1.121330e+000 1.181049e+000 1.278763e+000 1.040036e+000 9.387336e-001 1.163021e+000 1.481895e-001
<GCONST> 7.732458e+001
<STATE> 3
<MEAN> 25
 -9.242535e+000 6.019780e+000 -4.197734e+000 4.773191e+000 -1.651023e-001 -1.399453e-001 6.835964e-001 1.310584e-001 1.431000e+000 -9.170506e-001 1.020884e+000 1.415973e-002 1.287963e+000 -1.215617e+000 1.299105e-001 -9.774246e-002 -5.388938e-001 -6.067469e-001 7.427279e-001 9.323157e-001 5.632981e-002 7.658721e-002 3.056562e-001 6.535426e-003 1.981857e+000
<VARIANCE> 25
 8.411010e+001 3.817516e+001 2.778233e+001 1.969139e+001 1.748055e+001 2.859635e+001 2.525706e+001 1.766795e+001 2.131162e+001 1.550836e+001 1.447258e+001 1.568069e+001 4.535796e+000 5.634293e+000 3.824295e+000 2.921733e+000 4.510677e+000 4.252205e+000 5.901047e+000 4.099315e+000 4.014159e+000 2.515167e+000 2.049131e+000 2.562139e+000 2.861583e+000
<GCONST> 1.006824e+002
<STATE> 4
<MEAN> 25
 -1.572440e+000 -4.843988e+000 -9.266626e-001 1.527849e+000 -6.724561e-001 -2.163418e+000 -3.261023e+000 3.381074e+000 8.164467e-001 2.789065e-001 1.823447e+000 -3.791509e-001 4.303516e+000 -3.199674e+000 2.421129e+000 -2.718454e+000 -4.467094e-001 -5.267209e-001 -1.009524e+000 8.587049e-001 -1.609957e+000 5.686525e-001 3.914048e-001 -5.434098e-002 6.170626e+000
<VARIANCE> 25
 8.259316e+001 1.023503e+002 7.795657e+001 6.881567e+001 7.020841e+001 7.970847e+001 1.115553e+002 4.723542e+001 8.290061e+001 3.782130e+001 3.896553e+001 2.817634e+001 6.878079e+000 1.294835e+001 8.787290e+000 1.035770e+001 1.158430e+001 8.468587e+000 1.288650e+001 7.904692e+000 1.162461e+001 5.312780e+000 4.902418e+000 4.756300e+000 7.234302e+000
<GCONST> 1.232893e+002
<TRANSP> 5
 0.000000e+000 1.000000e+000 0.000000e+000 0.000000e+000 0.000000e+000
 0.000000e+000 8.493308e-001 1.506692e-001 0.000000e+000 0.000000e+000
 0.000000e+000 0.000000e+000 4.532021e-001 5.467979e-001 0.000000e+000
 0.000000e+000 0.000000e+000 0.000000e+000 5.988606e-001 4.011394e-001
 0.000000e+000 0.000000e+000 0.000000e+000 0.000000e+000 0.000000e+000
<ENDHMM>
~h "u"
<BEGINHMM>
<NUMSTATES> 5
<STATE> 2
<MEAN> 25
 1.416735e+001 6.774329e+000 -2.609400e+000 -6.057773e+000 -5.184435e+000 1.555032e+000 -2.212282e-001 -2.007958e+000 -6.366904e+000 -2.767060e+000 1.910756e+000 8.094813e-001 9.169938e-001 6.674663e-001 1.837522e-001 -3.459094e+000 -3.125348e-001 8.818815e-001 -5.465371e-001 7.974464e-002 -1.148253e+000 8.963719e-002 5.350209e-001 -1.281892e-001 1.055248e+000
<VARIANCE> 25
 4.624065e+001 7.438601e+001 8.256318e+001 1.256223e+002 5.161979e+001 4.533165e+001 5.520734e+001 5.922407e+001 6.767760e+001 4.956885e+001 3.769384e+001 2.941694e+001 2.729261e+000 4.947703e+000 5.013709e+000 5.262804e+000 4.363573e+000 3.910881e+000 4.691688e+000 5.336474e+000 4.702574e+000 4.571799e+000 3.828601e+000 2.576321e+000 1.402057e+000
<GCONST> 1.119444e+002
<STATE> 3
<MEAN> 25
 1.126381e+001 5.110051e+000 5.806967e+000 -2.289586e+001 -2.110878e+000 4.050825e+000 -8.537580e+000 -1.253499e-001 -1.208680e+001 5.678149e-001 1.637462e+000 -1.065958e+000 -3.451996e-001 2.571103e-001 -2.169778e-001 2.608718e-003 -2.983327e-002 -2.123699e-002 -6.625147e-003 -1.166780e-002 5.903597e-001 2.025677e-001 -3.759996e-001 -1.734749e-001 -4.436999e-001
<VARIANCE> 25
 1.523717e+001 4.158746e+001 4.901127e+001 1.158831e+002 4.044511e+001 5.288304e+001 4.189700e+001 6.533117e+001 5.334079e+001 7.927366e+001 4.285102e+001 3.688969e+001 4.175553e-001 1.250366e+000 1.560420e+000 6.810867e+000 1.482298e+000 2.593868e+000 2.627652e+000 2.889430e+000 2.904469e+000 3.859955e+000 2.070473e+000 2.007490e+000 1.081487e+000
<GCONST> 1.013484e+002
<STATE> 4
<MEAN> 25
 6.690670e+000 1.105579e+001 -5.337465e+000 -7.510952e+000 -5.057661e+000 2.699518e-001 -1.374874e+000 -1.322133e+000 -2.199551e+000 -1.902918e+000 3.694851e-001 -1.503177e-001 -7.368133e-001 2.158326e-002 -3.479548e-001 6.922721e-001 1.845465e-001 -9.865110e-002 1.343560e-001 -1.814065e-001 2.975030e-001 9.755432e-002 3.947765e-002 4.466903e-002 -7.845728e-001
<VARIANCE> 25
 6.021260e+001 3.816448e+001 4.279294e+001 5.451693e+001 4.530161e+001 3.739900e+001 3.955420e+001 3.573116e+001 3.234875e+001 4.623530e+001 2.466462e+001 1.990884e+001 5.938050e-001 5.585487e-001 1.018247e+000 1.791425e+000 1.450949e+000 1.674404e+000 1.436025e+000 1.702065e+000 1.551502e+000 1.696153e+000 1.495257e+000 1.260019e+000 4.618794e-001
<GCONST> 9.174457e+001
<TRANSP> 5
 0.000000e+000 1.000000e+000 0.000000e+000 0.000000e+000 0.000000e+000
 0.000000e+000 7.486444e-001 2.513557e-001 0.000000e+000 0.000000e+000
 0.000000e+000 0.000000e+000 8.098406e-001 1.901595e-001 0.000000e+000
 0.000000e+000 0.000000e+000 0.000000e+000 8.852047e-001 1.147953e-001
 0.000000e+000 0.000000e+000 0.000000e+000 0.000000e+000 0.000000e+000
<ENDHMM>
~h "w"
<BEGINHMM>
<NUMSTATES> 5
<STATE> 2
<MEAN> 25
 -7.241435e+000 4.602153e+000 -1.185134e+000 1.221212e+001 -6.377604e+000 -6.935216e+000 1.845533e+000 3.173698e+000 7.180333e-001 -6.628464e+000 3.225640e+000 2.927787e+000 2.190068e+000 1.506865e+000 1.901540e-001 -5.434815e-001 -8.378567e-001 -5.319932e-001 2.340419e-001 3.992439e-001 -1.858906e-001 -7.685897e-001 -4.169633e-001 6.507974e-002 1.118712e+000
<VARIANCE> 25
 1.857780e+002 2.047935e+002 8.896864e+001 1.772191e+002 6.506023e+001 5.732031e+001 4.371588e+001 5.401521e+001 2.745436e+001 4.566178e+001 4.356428e+001 4.421495e+001 7.088075e+000 6.383737e+000 6.498828e+000 5.350584e+000 5.197405e+000 3.514148e+000 3.025975e+000 2.164976e+000 2.909853e+000 3.765980e+000 2.744409e+000 1.540778e+000 3.687795e+000
<GCONST> 1.141338e+002
<STATE> 3
<MEAN> 25
 1.561848e+001 1.714676e+001 -6.109704e+000 -1.119905e+001 -1.213133e+001 2.397630e+000 3.801398e+000 -2.038752e+000 -2.618652e+000 -7.684602e+000 9.313360e-001 5.657350e+000 5.374995e-001 -2.201545e+000 -4.033301e-001 -2.953000e+000 7.718088e-002 3.444692e+000 -2.514372e-001 -1.394481e+000 4.910034e-001 1.005189e+000 1.457179e+000 1.306990e+000 1.768454e+000
<VARIANCE> 25
 6.896739e+000 4.276231e+001 2.617741e+001 4.135384e+001 2.846179e+001 7.741097e+001 2.029630e+001 2.392070e+001 4.621290e+001 2.106128e+001 2.375222e+001 1.818325e+001 1.092898e+000 3.383216e+000 3.517024e+000 2.135724e+000 3.250523e+000 6.818987e+000 3.753932e+000 1.461571e+000 2.981738e+000 4.203548e+000 1.723055e+000 2.480384e+000 5.796083e-001
<GCONST> 9.701291e+001
<STATE> 4
<MEAN> 25
 1.370150e+001 -2.754309e+000 -2.403525e-001 -2.190699e+001 -3.576859e+000 1.835170e+001 -6.145619e+000 -7.959783e+000 3.135696e+000 7.034914e+000 5.308216e+000 -1.047480e+000 -9.794793e-001 -4.385675e+000 1.627507e+000 1.122258e-001 2.415236e+000 -4.328136e-001 -1.332489e+000 1.514655e+000 1.147887e+000 2.434265e+000 -1.509740e+000 -2.913810e+000 2.175066e+000
<VARIANCE> 25
 4.819226e+000 5.429453e+001 4.538648e+001 1.881759e+001 3.498996e+001 4.168445e+001 5.500923e+001 4.249281e+001 5.165039e+001 4.071109e+001 3.631773e+001 4.284265e+001 2.594845e-001 1.074269e+000 2.248168e+000 4.117107e+000 4.346689e+000 1.271880e+001 4.048423e+000 8.451233e+000 5.438989e+000 6.259202e+000 5.154563e+000 2.408570e+000 2.696883e-001
<GCONST> 1.015359e+002
<TRANSP> 5
 0.000000e+000 1.000000e+000 0.000000e+000 0.000000e+000 0.000000e+000
 0.000000e+000 8.339825e-001 1.660175e-001 0.000000e+000 0.000000e+000
 0.000000e+000 0.000000e+000 7.933462e-001 2.066538e-001 0.000000e+000
 0.000000e+000 0.000000e+000 0.000000e+000 7.887177e-001 2.112823e-001
 0.000000e+000 0.000000e+000 0.000000e+000 0.000000e+000 0.000000e+000
<ENDHMM>
~h "y"
<BEGINHMM>
<NUMSTATES> 5
<STATE> 2
<MEAN> 25
 1.565769e-007 -6.290797e-008 -2.937665e-007 -4.371385e-008 5.392831e-009 -1.134847e-007 1.048326e-008 1.461609e-009 6.497437e-008 2.474654e-008 2.793856e-008 3.496100e-008 6.361995e-003 4.308552e-003 2.542655e-003 -9.878381e-004 4.629357e-004 7.091404e-004 -2.578934e-003 -6.028318e-003 -4.543920e-003 -2.417521e-003 -2.678531e-003 -6.849539e-003 3.474661e-003
<VARIANCE> 25
 1.482363e+002 1.186289e+002 1.358767e+002 1.150533e+002 6.856859e+001 5.959438e+001 5.340210e+001 5.644455e+001 5.966214e+001 3.805057e+001 3.493165e+001 2.775295e+001 2.220379e+000 3.354012e+000 3.076584e+000 3.783211e+000 3.009660e+000 2.603472e+000 2.703241e+000 2.901384e+000 2.795699e+000 2.264799e+000 1.906537e+000 1.789198e+000 2.980222e+000
<GCONST> 1.090549e+002
<STATE> 3
<MEAN> 25
 1.565769e-007 -6.290797e-008 -2.937665e-007 -4.371385e-008 5.392831e-009 -1.134847e-007 1.048326e-008 1.461609e-009 6.497437e-008 2.474654e-008 2.793856e-008 3.496100e-008 6.361995e-003 4.308552e-003 2.542655e-003 -9.878381e-004 4.629357e-004 7.091404e-004 -2.578934e-003 -6.028318e-003 -4.543920e-003 -2.417521e-003 -2.678531e-003 -6.849539e-003 3.474661e-003
<VARIANCE> 25
 1.482363e+002 1.186289e+002 1.358767e+002 1.150533e+002 6.856859e+001 5.959438e+001 5.340210e+001 5.644455e+001 5.966214e+001 3.805057e+001 3.493165e+001 2.775295e+001 2.220379e+000 3.354012e+000 3.076584e+000 3.783211e+000 3.009660e+000 2.603472e+000 2.703241e+000 2.901384e+000 2.795699e+000 2.264799e+000 1.906537e+000 1.789198e+000 2.980222e+000
<GCONST> 1.090549e+002
<STATE> 4
<MEAN> 25
 1.565769e-007 -6.290797e-008 -2.937665e-007 -4.371385e-008 5.392831e-009 -1.134847e-007 1.048326e-008 1.461609e-009 6.497437e-008 2.474654e-008 2.793856e-008 3.496100e-008 6.361995e-003 4.308552e-003 2.542655e-003 -9.878381e-004 4.629357e-004 7.091404e-004 -2.578934e-003 -6.028318e-003 -4.543920e-003 -2.417521e-003 -2.678531e-003 -6.849539e-003 3.474661e-003
<VARIANCE> 25
 1.482363e+002 1.186289e+002 1.358767e+002 1.150533e+002 6.856859e+001 5.959438e+001 5.340210e+001 5.644455e+001 5.966214e+001 3.805057e+001 3.493165e+001 2.775295e+001 2.220379e+000 3.354012e+000 3.076584e+000 3.783211e+000 3.009660e+000 2.603472e+000 2.703241e+000 2.901384e+000 2.795699e+000 2.264799e+000 1.906537e+000 1.789198e+000 2.980222e+000
<GCONST> 1.090549e+002
<TRANSP> 5
 0.000000e+000 1.000000e+000 0.000000e+000 0.000000e+000 0.000000e+000
 0.000000e+000 6.000000e-001 4.000000e-001 0.000000e+000 0.000000e+000
 0.000000e+000 0.000000e+000 6.000000e-001 4.000000e-001 0.000000e+000
 0.000000e+000 0.000000e+000 0.000000e+000 7.000000e-001 3.000000e-001
 0.000000e+000 0.000000e+000 0.000000e+000 0.000000e+000 0.000000e+000
<ENDHMM>
~h "ay"
<BEGINHMM>
<NUMSTATES> 5
<STATE> 2
<MEAN> 25
 -6.043016e+000 -4.778998e+000 -1.403167e+001 1.368661e+001 5.280669e+000 -3.203376e+000 2.293935e+000 6.801732e+000 3.669823e+000 -8.760387e+000 -1.468508e+000 6.278207e+000 -2.555771e-002 5.419217e-001 -1.438166e-001 -5.778723e-001 -2.716392e-001 6.485473e-001 4.243098e-001 -5.431883e-001 -1.797759e-001 2.721987e-001 1.413301e-001 -4.439794e-001 -2.558697e-001
<VARIANCE> 25
 7.140749e+001 1.281867e+002 4.546688e+001 5.402126e+001 1.172151e+001 9.337556e+001 4.817096e+001 4.895833e+001 5.245563e+001 2.427303e+001 1.515279e+001 2.060486e+001 9.364356e-001 4.611505e+000 2.573172e+000 2.592754e+000 1.515123e+000 3.794218e+000 2.270806e+000 2.478869e+000 2.107641e+000 2.313771e+000 1.685816e+000 1.485018e+000 1.392758e+000
<GCONST> 1.002031e+002
<STATE> 3
<MEAN> 25
 1.084660e+001 3.347757e+000 -1.002785e+001 5.375537e+000 2.548339e+000 1.119403e+001 2.971444e+000 -8.250051e+000 -1.507542e+000 -2.720585e+000 2.728477e+000 1.713573e+000 1.292052e+000 -2.046554e+000 1.804311e-001 -1.139176e+000 -2.050803e-001 1.007118e+000 -9.302341e-001 3.421129e-001 1.320669e+000 -3.996235e-001 1.046426e-002 -2.171203e-001 2.116349e+000
<VARIANCE> 25
 7.837154e+001 1.365565e+002 6.519699e+001 8.523882e+001 6.000611e+001 4.882030e+001 3.117530e+001 7.179352e+001 9.290157e+001 2.466471e+001 1.922168e+001 1.941099e+001 8.196658e+000 1.510785e+001 6.301732e+000 4.932265e+000 4.186935e+000 3.349917e+000 4.209214e+000 7.949560e+000 1.409488e+001 3.618659e+000 2.477291e+000 2.112504e+000 5.566959e+000
<GCONST> 1.149135e+002
<STATE> 4
<MEAN> 25
 1.218807e+001 -2.058289e+001 2.884851e+000 -4.186054e+000 -6.175839e-001 8.621675e+000 -2.298858e+000 7.673677e+000 4.828639e+000 -9.473669e+000 -1.492658e+000 3.505943e-001 -7.477568e-001 -2.388764e-001 1.878631e+000 -4.777112e-001 -8.791873e-001 -1.522294e+000 1.279810e+000 9.047546e-001 -1.066969e+000 5.180193e-001 2.496325e-001 -1.504416e-001 3.849366e-001
<VARIANCE> 25
 2.220493e+001 2.494123e+001 5.104398e+001 5.245810e+001 5.099708e+001 5.492065e+001 6.104779e+001 2.937836e+001 5.196358e+001 2.346044e+001 1.016286e+001 2.046652e+001 3.320980e-001 2.656022e+000 1.837138e+000 2.557965e+000 2.471340e+000 1.806250e+000 3.683863e+000 1.896392e+000 2.281595e+000 3.115284e+000 1.620333e+000 1.029934e+000 3.199143e-001
<GCONST> 9.422490e+001
<TRANSP> 5
 0.000000e+000 1.000000e+000 0.000000e+000 0.000000e+000 0.000000e+000
 0.000000e+000 8.301523e-001 1.698478e-001 0.000000e+000 0.000000e+000
 0.000000e+000 0.000000e+000 8.755810e-001 1.244190e-001 0.000000e+000
 0.000000e+000 0.000000e+000 0.000000e+000 9.123836e-001 8.761644e-002
 0.000000e+000 0.000000e+000 0.000000e+000 0.000000e+000 0.000000e+000
<ENDHMM>
~h "eh"
<BEGINHMM>
<NUMSTATES> 5
<STATE> 2
<MEAN> 25
 9.361538e+000 -1.247766e+001 8.261051e+000 -5.933866e+000 -1.170166e+001 -1.017947e+001 5.320913e+000 1.345010e+001 -3.913888e+000 8.871162e-001 3.818172e+000 -6.166112e-001 -3.782438e-001 -1.298216e+000 2.339920e+000 -3.469092e+000 -4.747475e-001 -1.293984e-001 1.381920e+000 3.957933e-001 -1.126100e+000 1.072774e+000 8.500674e-001 -6.201704e-001 1.969395e+000
<VARIANCE> 25
 1.984466e+001 4.697562e+001 8.993715e+001 2.681986e+001 4.725495e+001 4.460609e+001 5.120284e+001 2.834461e+001 4.901272e+001 2.915444e+001 1.899826e+001 1.908519e+001 1.049002e+000 2.074306e+000 6.330976e+000 4.867059e+000 4.149945e+000 3.667140e+000 4.050115e+000 3.834304e+000 2.343197e+000 2.538828e+000 3.050480e+000 7.305830e-001 2.313871e+000
<GCONST> 1.017585e+002
<STATE> 3
<MEAN> 25
 6.445936e+000 -1.037624e+001 7.415992e+000 -8.134333e+000 -9.678340e+000 -1.234156e+001 7.745556e+000 7.799676e+000 -1.694189e+000 6.909998e-001 4.145265e+000 2.219373e+000 -7.631015e-002 -2.536743e-001 -4.184273e-001 -4.609180e-001 7.106953e-001 -2.553494e-002 -5.180524e-002 -2.790571e-002 5.211044e-001 3.701963e-001 -4.563657e-001 -1.123837e-001 1.218392e-001
<VARIANCE> 25
 1.254567e+001 2.010799e+001 1.506546e+002 2.867561e+001 4.384748e+001 2.474647e+001 6.339513e+001 2.653606e+001 6.710165e+001 2.110452e+001 3.217270e+001 3.304568e+001 1.558688e-001 8.414794e-001 1.283502e+000 9.499021e-001 2.230707e+000 1.858542e+000 2.354807e+000 1.327850e+000 2.427978e+000 2.626338e+000 1.207212e+000 1.702393e+000 1.137367e-001
<GCONST> 8.961858e+001
<STATE> 4
<MEAN> 25
 1.039341e+001 -1.673818e+001 1.237287e+001 -9.940778e+000 -1.117587e+001 -6.143470e+000 2.851425e+000 1.472734e+001 -5.246126e+000 2.493864e+000 4.471659e+000 -2.476119e+000 1.629869e-001 1.011141e-002 -7.772783e-001 1.896663e-001 8.585228e-001 3.770725e-001 -4.228283e-001 -9.512714e-002 7.590008e-001 -1.519741e-001 -7.890213e-001 -1.416421e-001 -1.070795e-001
<VARIANCE> 25
 1.030158e+001 1.892357e+001 5.301863e+001 1.662479e+001 4.247344e+001 4.175620e+001 2.983676e+001 2.040222e+001 2.748109e+001 1.927779e+001 2.442391e+001 8.591939e+000 1.848634e-001 2.642916e-001 1.111066e+000 5.614976e-001 1.131284e+000 9.933361e-001 1.414499e+000 1.795450e+000 1.118862e+000 1.245442e+000 1.290546e+000 6.480658e-001 1.045209e-001
<GCONST> 7.896489e+001
<TRANSP> 5
 0.000000e+000 1.000000e+000 0.000000e+000 0.000000e+000 0.000000e+000
 0.000000e+000 5.408751e-001 4.591250e-001 0.000000e+000 0.000000e+000
 0.000000e+000 0.000000e+000 7.959701e-001 2.040298e-001 0.000000e+000
 0.000000e+000 0.000000e+000 0.000000e+000 7.813390e-001 2.186609e-001
 0.000000e+000 0.000000e+000 0.000000e+000 0.000000e+000 0.000000e+000
<ENDHMM>
~h "ng"
<BEGINHMM>
<NUMSTATES> 5
<STATE> 2
<MEAN> 25
 1.175468e+001 -8.887857e+000 -3.804914e+000 -6.873453e+000 2.871800e+000 1.180428e+001 -3.181598e+000 -1.137565e+000 -8.122144e-001 -4.552286e+000 -2.067047e-001 -3.710601e-001 -2.020991e-002 1.350496e+000 -1.381888e-001 7.813002e-001 -6.821671e-001 -2.630958e-001 3.484564e-001 -5.873165e-001 -7.460921e-001 -1.856784e-001 4.406411e-001 5.117429e-001 -1.012772e+000
<VARIANCE> 25
 5.565570e+000 4.188486e+001 1.759824e+001 4.658058e+001 3.154171e+001 2.838562e+001 2.282368e+001 2.718883e+001 3.368907e+001 2.269253e+001 1.018423e+001 1.378981e+001 1.049139e-001 4.994789e-001 5.955026e-001 9.750743e-001 1.160475e+000 9.647465e-001 1.479428e+000 1.101026e+000 1.269327e+000 1.071183e+000 6.570609e-001 8.313962e-001 2.377202e-001
<GCONST> 7.829362e+001
<STATE> 3
<MEAN> 25
 9.027945e+000 2.249644e+000 -3.501152e+000 2.440157e+000 3.047502e+000 8.083677e+000 -4.457800e-001 -5.594117e+000 -4.892356e+000 -3.194480e+000 2.243644e+000 4.473776e-001 -6.151200e-001 6.515439e-001 9.099279e-002 1.321060e+000 5.811622e-001 7.683006e-002 5.911784e-001 1.210410e-001 4.430374e-001 2.407021e-001 -1.425368e-001 -2.044740e-001 -9.287103e-001
<VARIANCE> 25
 6.647248e+000 2.250837e+001 1.711309e+001 6.409716e+001 3.986433e+001 3.153393e+001 3.691394e+001 2.451697e+001 3.582026e+001 2.672425e+001 1.407855e+001 1.437171e+001 3.719315e-001 3.700843e-001 7.386290e-001 9.871515e-001 8.852658e-001 1.222809e+000 1.805730e+000 1.929339e+000 1.442610e+000 1.176602e+000 1.026427e+000 9.863065e-001 1.785074e-001
<GCONST> 8.192048e+001
<STATE> 4
<MEAN> 25
 -1.834930e+000 8.052340e+000 -9.124291e+000 6.976167e+000 3.916567e+000 4.306470e+000 2.330584e+000 -3.696540e+000 2.024913e+000 -2.501034e-001 7.733282e-001 -1.140482e+000 -6.770570e-001 2.414962e-001 -3.450229e-001 -2.093346e-001 -2.519594e-001 -4.980902e-001 -2.216527e-001 -7.591453e-002 1.226294e-002 -1.403137e-002 -1.026400e-002 -3.416722e-002 -6.849612e-001
<VARIANCE> 25
 1.875574e+001 1.953142e+001 2.309343e+001 1.725187e+001 2.945267e+001 2.784053e+001 2.077838e+001 1.937772e+001 1.836584e+001 1.603403e+001 1.559632e+001 1.506399e+001 2.001303e-001 4.379166e-001 1.023776e+000 6.908945e-001 9.792687e-001 1.060234e+000 1.063406e+000 1.161952e+000 1.340788e+000 1.367793e+000 1.113158e+000 1.004646e+000 7.748277e-002
<GCONST> 7.731871e+001
<TRANSP> 5
 0.000000e+000 1.000000e+000 0.000000e+000 0.000000e+000 0.000000e+000
 0.000000e+000 8.773897e-001 1.226103e-001 0.000000e+000 0.000000e+000
 0.000000e+000 0.000000e+000 8.865284e-001 1.134716e-001 0.000000e+000
 0.000000e+000 0.000000e+000 0.000000e+000 9.343233e-001 6.567676e-002
 0.000000e+000 0.000000e+000 0.000000e+000 0.000000e+000 0.000000e+000
<ENDHMM>
~h "ny"
<BEGINHMM>
<NUMSTATES> 5
<STATE> 2
<MEAN> 25
 1.176430e+000 1.749976e+000 3.919082e+000 3.231039e+000 7.500325e-001 2.155721e+000 -3.885848e+000 -1.665452e+000 -4.013191e+000 -2.397314e-001 2.563644e-001 4.345292e+000 9.264220e-003 1.506930e-001 -3.000853e-002 -1.818098e-001 -2.048705e-001 -3.159749e-002 7.722998e-002 2.304765e-001 -4.368280e-002 2.497241e-001 2.086160e-001 -2.411489e-002 1.273475e-001
<VARIANCE> 25
 2.330893e+001 1.324035e+001 1.781365e+001 2.422276e+001 2.851922e+001 1.854913e+001 2.536874e+001 2.951071e+001 2.217363e+001 1.336050e+001 1.811652e+001 1.829693e+001 3.942463e-001 5.834883e-001 5.911295e-001 1.061919e+000 1.268946e+000 1.496259e+000 1.874425e+000 2.497277e+000 1.079374e+000 1.164569e+000 1.202138e+000 1.321414e+000 5.366172e-001
<GCONST> 8.244890e+001
<STATE> 3
<MEAN> 25
 -6.563109e+000 1.063840e+001 -4.842678e+000 2.953438e+000 -4.321640e+000 -3.062712e+000 1.020471e-002 -6.667085e-001 1.882839e-001 -8.131223e-001 2.958222e+000 -1.283041e-001 -5.834964e-001 3.558289e-001 2.099619e-001 2.618566e-002 3.438480e-002 1.200807e-001 -1.163951e-001 -1.868114e-001 3.964426e-001 9.148861e-002 1.552237e-001 -2.028011e-001 -4.247041e-001
<VARIANCE> 25
 5.055606e+001 1.611463e+001 4.904424e+001 2.144642e+001 2.724685e+001 1.138029e+001 1.361728e+001 2.120979e+001 1.557864e+001 1.635599e+001 1.475737e+001 1.355388e+001 1.452771e-001 7.125472e-001 1.001750e+000 1.325410e+000 1.081457e+000 5.350884e-001 8.533491e-001 8.397105e-001 8.697029e-001 7.345477e-001 1.239619e+000 1.032919e+000 3.519301e-001
<GCONST> 7.773946e+001
<STATE> 4
<MEAN> 25
 3.477066e+000 1.538131e+001 3.789390e+000 5.011036e+000 -3.821179e+000 -3.227303e+000 1.511628e+000 -8.343241e-001 -1.633391e+000 3.226933e+000 5.570404e+000 -3.768547e-001 1.643246e+000 -7.730739e-001 1.991953e+000 -1.873313e+000 -1.444062e+000 2.383377e-001 8.013955e-001 4.278804e-002 -9.712563e-001 7.157952e-001 1.914306e-001 -2.749415e-001 2.531376e+000
<VARIANCE> 25
 1.149354e+002 7.692816e+001 5.326036e+001 1.286639e+002 8.700764e+001 6.254524e+001 3.801866e+001 5.547812e+001 4.226189e+001 4.837120e+001 3.378480e+001 2.226800e+001 9.423974e+000 1.343676e+001 5.209321e+000 1.502870e+001 7.297610e+000 1.006649e+001 6.270006e+000 4.255260e+000 3.967531e+000 4.158237e+000 3.203609e+000 2.298588e+000 2.683838e+000
<GCONST> 1.169379e+002
<TRANSP> 5
 0.000000e+000 1.000000e+000 0.000000e+000 0.000000e+000 0.000000e+000
 0.000000e+000 9.010607e-001 9.893927e-002 0.000000e+000 0.000000e+000
 0.000000e+000 0.000000e+000 8.263827e-001 1.736173e-001 0.000000e+000
 0.000000e+000 0.000000e+000 0.000000e+000 8.470198e-001 1.529802e-001
 0.000000e+000 0.000000e+000 0.000000e+000 0.000000e+000 0.000000e+000
<ENDHMM>
~h "sp"
<BEGINHMM>
<NUMSTATES> 5
<STATE> 2
~s "silst"
<STATE> 3
<MEAN> 25
 -3.652406e+000 2.820106e+000 -3.803792e+000 4.955392e+000 -7.551746e-001 -1.745996e+000 -4.626075e-001 1.227860e+000 1.309178e+000 -1.638293e+000 -1.307545e+000 1.544179e+000 -3.572800e-001 4.623320e-001 -3.584136e-001 2.848441e-001 -8.374784e-002 -7.419194e-002 -7.358668e-002 -1.534108e-001 2.147584e-001 -1.397483e-001 1.265104e-001 4.909683e-002 -6.733035e-001
<VARIANCE> 25
 1.750401e+001 4.656517e+001 6.967749e+001 3.544712e+001 3.469389e+001 3.273983e+001 2.886881e+001 2.906406e+001 2.950986e+001 2.906461e+001 2.430107e+001 2.235972e+001 2.317241e-001 5.100861e-001 8.496709e-001 8.875142e-001 1.084515e+000 1.247230e+000 1.236479e+000 1.390787e+000 1.453821e+000 1.370716e+000 1.352290e+000 1.291376e+000 1.609758e-001
<GCONST> 8.512868e+001
<STATE> 4
<MEAN> 25
 -1.245235e+001 7.405123e+000 -7.583790e+000 5.956002e+000 -3.297608e-001 -7.008997e-001 6.762196e-001 2.460849e-002 3.019799e+000 -1.460547e+000 1.636296e+000 1.760836e-002 -4.966008e-001 1.832868e-001 1.782079e-001 5.017319e-002 -1.070485e-002 1.380815e-001 4.837727e-002 -7.704494e-002 -3.654343e-002 2.650036e-002 1.131690e-001 -5.899483e-002 -4.490006e-001
<VARIANCE> 25
 5.157487e+001 2.461631e+001 2.788088e+001 1.761198e+001 2.169443e+001 1.964525e+001 2.092830e+001 2.374878e+001 1.995061e+001 1.824129e+001 1.688659e+001 1.634701e+001 6.351393e-001 6.321725e-001 9.154368e-001 8.551631e-001 9.397604e-001 1.039442e+000 1.209737e+000 1.414789e+000 1.403153e+000 1.220948e+000 1.076959e+000 1.128289e+000 3.100928e-001
<GCONST> 8.198985e+001
<TRANSP> 5
 0.000000e+000 1.570791e-001 8.429209e-001 0.000000e+000 0.000000e+000
 0.000000e+000 8.330551e-001 1.669450e-001 0.000000e+000 0.000000e+000
 0.000000e+000 0.000000e+000 7.945803e-001 2.054197e-001 0.000000e+000
 0.000000e+000 0.000000e+000 0.000000e+000 8.091860e-001 1.908140e-001
 0.000000e+000 0.000000e+000 0.000000e+000 0.000000e+000 0.000000e+000
<ENDHMM>
~h "sil"
<BEGINHMM>
<NUMSTATES> 5
<STATE> 2
<MEAN> 25
 -1.571006e+001 9.552948e+000 -5.591950e+000 6.127758e+000 -1.229137e+000 -8.056138e-001 6.542342e-001 -1.535506e+000 1.953867e+000 -2.383622e+000 1.145392e+000 -7.540126e-001 -4.069172e-001 -1.447087e-001 2.360389e-002 2.659143e-002 4.416788e-002 1.126223e-001 -8.994941e-003 -1.027475e-001 -2.438268e-002 8.581869e-002 1.150565e-001 -9.957328e-002 -2.643236e-001
<VARIANCE> 25
 3.517960e+001 1.674754e+001 2.262874e+001 1.359028e+001 2.290662e+001 1.666942e+001 1.832656e+001 1.906761e+001 1.977044e+001 1.619941e+001 1.457565e+001 1.603531e+001 2.228603e-001 3.358922e-001 4.535182e-001 6.272053e-001 8.868725e-001 8.808662e-001 1.130708e+000 1.190744e+000 1.331548e+000 1.265584e+000 1.084867e+000 1.054853e+000 7.921414e-002
<GCONST> 7.540115e+001
<STATE> 3
~s "silst"
<STATE> 4
<MEAN> 25
 -2.415304e+001 2.899136e+000 -8.949110e+000 6.408298e+000 -5.770571e-002 2.441980e+000 4.226605e+000 2.469070e+000 6.436071e+000 1.463466e+000 5.081664e+000 1.886400e+000 -1.055945e-003 1.122782e-002 -5.024738e-004 -2.593985e-002 -2.018102e-003 2.438911e-002 2.455730e-002 -9.450386e-003 -2.613615e-003 -7.102301e-003 -1.481029e-002 -6.973727e-003 -5.244642e-003
<VARIANCE> 25
 1.058398e+001 7.211712e+000 1.089778e+001 7.755002e+000 9.393214e+000 1.086308e+001 1.246680e+001 1.470296e+001 1.487852e+001 9.770223e+000 8.668417e+000 7.181084e+000 4.127271e-002 1.407149e-001 2.158980e-001 3.594096e-001 5.058178e-001 4.533563e-001 7.993286e-001 1.147617e+000 1.304838e+000 1.017878e+000 8.395168e-001 9.158487e-001 2.980222e-002
<GCONST> 6.090977e+001
<TRANSP> 5
 0.000000e+000 1.000000e+000 0.000000e+000 0.000000e+000 0.000000e+000
 0.000000e+000 8.925862e-001 7.252639e-003 1.001612e-001 0.000000e+000
 0.000000e+000 0.000000e+000 9.265630e-001 7.343699e-002 0.000000e+000
 0.000000e+000 4.164662e-003 0.000000e+000 9.602576e-001 3.557761e-002
 0.000000e+000 0.000000e+000 0.000000e+000 0.000000e+000 0.000000e+000
<ENDHMM>
