~h "a"
<BEGINHMM>
<NUMSTATES> 5
<STATE> 2
<MEAN> 25
 1.565769e-007 -6.290797e-008 -2.937665e-007 -4.371385e-008 5.392831e-009 -1.134847e-007 1.048326e-008 1.461609e-009 6.497437e-008 2.474654e-008 2.793856e-008 3.496100e-008 6.361995e-003 4.308552e-003 2.542655e-003 -9.878381e-004 4.629357e-004 7.091404e-004 -2.578934e-003 -6.028318e-003 -4.543920e-003 -2.417521e-003 -2.678531e-003 -6.849539e-003 3.474661e-003
<VARIANCE> 25
 1.482363e+002 1.186289e+002 1.358767e+002 1.150533e+002 6.856859e+001 5.959438e+001 5.340210e+001 5.644455e+001 5.966214e+001 3.805057e+001 3.493165e+001 2.775295e+001 2.220379e+000 3.354012e+000 3.076584e+000 3.783211e+000 3.009660e+000 2.603472e+000 2.703241e+000 2.901384e+000 2.795699e+000 2.264799e+000 1.906537e+000 1.789198e+000 2.980222e+000
<GCONST> 1.090549e+002
<STATE> 3
<MEAN> 25
 1.565769e-007 -6.290797e-008 -2.937665e-007 -4.371385e-008 5.392831e-009 -1.134847e-007 1.048326e-008 1.461609e-009 6.497437e-008 2.474654e-008 2.793856e-008 3.496100e-008 6.361995e-003 4.308552e-003 2.542655e-003 -9.878381e-004 4.629357e-004 7.091404e-004 -2.578934e-003 -6.028318e-003 -4.543920e-003 -2.417521e-003 -2.678531e-003 -6.849539e-003 3.474661e-003
<VARIANCE> 25
 1.482363e+002 1.186289e+002 1.358767e+002 1.150533e+002 6.856859e+001 5.959438e+001 5.340210e+001 5.644455e+001 5.966214e+001 3.805057e+001 3.493165e+001 2.775295e+001 2.220379e+000 3.354012e+000 3.076584e+000 3.783211e+000 3.009660e+000 2.603472e+000 2.703241e+000 2.901384e+000 2.795699e+000 2.264799e+000 1.906537e+000 1.789198e+000 2.980222e+000
<GCONST> 1.090549e+002
<STATE> 4
<MEAN> 25
 1.565769e-007 -6.290797e-008 -2.937665e-007 -4.371385e-008 5.392831e-009 -1.134847e-007 1.048326e-008 1.461609e-009 6.497437e-008 2.474654e-008 2.793856e-008 3.496100e-008 6.361995e-003 4.308552e-003 2.542655e-003 -9.878381e-004 4.629357e-004 7.091404e-004 -2.578934e-003 -6.028318e-003 -4.543920e-003 -2.417521e-003 -2.678531e-003 -6.849539e-003 3.474661e-003
<VARIANCE> 25
 1.482363e+002 1.186289e+002 1.358767e+002 1.150533e+002 6.856859e+001 5.959438e+001 5.340210e+001 5.644455e+001 5.966214e+001 3.805057e+001 3.493165e+001 2.775295e+001 2.220379e+000 3.354012e+000 3.076584e+000 3.783211e+000 3.009660e+000 2.603472e+000 2.703241e+000 2.901384e+000 2.795699e+000 2.264799e+000 1.906537e+000 1.789198e+000 2.980222e+000
<GCONST> 1.090549e+002
<TRANSP> 5
 0.000000e+000 1.000000e+000 0.000000e+000 0.000000e+000 0.000000e+000
 0.000000e+000 6.000000e-001 4.000000e-001 0.000000e+000 0.000000e+000
 0.000000e+000 0.000000e+000 6.000000e-001 4.000000e-001 0.000000e+000
 0.000000e+000 0.000000e+000 0.000000e+000 7.000000e-001 3.000000e-001
 0.000000e+000 0.000000e+000 0.000000e+000 0.000000e+000 0.000000e+000
<ENDHMM>
~h "b"
<BEGINHMM>
<NUMSTATES> 5
<STATE> 2
<MEAN> 25
 1.565769e-007 -6.290797e-008 -2.937665e-007 -4.371385e-008 5.392831e-009 -1.134847e-007 1.048326e-008 1.461609e-009 6.497437e-008 2.474654e-008 2.793856e-008 3.496100e-008 6.361995e-003 4.308552e-003 2.542655e-003 -9.878381e-004 4.629357e-004 7.091404e-004 -2.578934e-003 -6.028318e-003 -4.543920e-003 -2.417521e-003 -2.678531e-003 -6.849539e-003 3.474661e-003
<VARIANCE> 25
 1.482363e+002 1.186289e+002 1.358767e+002 1.150533e+002 6.856859e+001 5.959438e+001 5.340210e+001 5.644455e+001 5.966214e+001 3.805057e+001 3.493165e+001 2.775295e+001 2.220379e+000 3.354012e+000 3.076584e+000 3.783211e+000 3.009660e+000 2.603472e+000 2.703241e+000 2.901384e+000 2.795699e+000 2.264799e+000 1.906537e+000 1.789198e+000 2.980222e+000
<GCONST> 1.090549e+002
<STATE> 3
<MEAN> 25
 1.565769e-007 -6.290797e-008 -2.937665e-007 -4.371385e-008 5.392831e-009 -1.134847e-007 1.048326e-008 1.461609e-009 6.497437e-008 2.474654e-008 2.793856e-008 3.496100e-008 6.361995e-003 4.308552e-003 2.542655e-003 -9.878381e-004 4.629357e-004 7.091404e-004 -2.578934e-003 -6.028318e-003 -4.543920e-003 -2.417521e-003 -2.678531e-003 -6.849539e-003 3.474661e-003
<VARIANCE> 25
 1.482363e+002 1.186289e+002 1.358767e+002 1.150533e+002 6.856859e+001 5.959438e+001 5.340210e+001 5.644455e+001 5.966214e+001 3.805057e+001 3.493165e+001 2.775295e+001 2.220379e+000 3.354012e+000 3.076584e+000 3.783211e+000 3.009660e+000 2.603472e+000 2.703241e+000 2.901384e+000 2.795699e+000 2.264799e+000 1.906537e+000 1.789198e+000 2.980222e+000
<GCONST> 1.090549e+002
<STATE> 4
<MEAN> 25
 1.565769e-007 -6.290797e-008 -2.937665e-007 -4.371385e-008 5.392831e-009 -1.134847e-007 1.048326e-008 1.461609e-009 6.497437e-008 2.474654e-008 2.793856e-008 3.496100e-008 6.361995e-003 4.308552e-003 2.542655e-003 -9.878381e-004 4.629357e-004 7.091404e-004 -2.578934e-003 -6.028318e-003 -4.543920e-003 -2.417521e-003 -2.678531e-003 -6.849539e-003 3.474661e-003
<VARIANCE> 25
 1.482363e+002 1.186289e+002 1.358767e+002 1.150533e+002 6.856859e+001 5.959438e+001 5.340210e+001 5.644455e+001 5.966214e+001 3.805057e+001 3.493165e+001 2.775295e+001 2.220379e+000 3.354012e+000 3.076584e+000 3.783211e+000 3.009660e+000 2.603472e+000 2.703241e+000 2.901384e+000 2.795699e+000 2.264799e+000 1.906537e+000 1.789198e+000 2.980222e+000
<GCONST> 1.090549e+002
<TRANSP> 5
 0.000000e+000 1.000000e+000 0.000000e+000 0.000000e+000 0.000000e+000
 0.000000e+000 6.000000e-001 4.000000e-001 0.000000e+000 0.000000e+000
 0.000000e+000 0.000000e+000 6.000000e-001 4.000000e-001 0.000000e+000
 0.000000e+000 0.000000e+000 0.000000e+000 7.000000e-001 3.000000e-001
 0.000000e+000 0.000000e+000 0.000000e+000 0.000000e+000 0.000000e+000
<ENDHMM>
~h "ng"
<BEGINHMM>
<NUMSTATES> 5
<STATE> 2
<MEAN> 25
 1.565769e-007 -6.290797e-008 -2.937665e-007 -4.371385e-008 5.392831e-009 -1.134847e-007 1.048326e-008 1.461609e-009 6.497437e-008 2.474654e-008 2.793856e-008 3.496100e-008 6.361995e-003 4.308552e-003 2.542655e-003 -9.878381e-004 4.629357e-004 7.091404e-004 -2.578934e-003 -6.028318e-003 -4.543920e-003 -2.417521e-003 -2.678531e-003 -6.849539e-003 3.474661e-003
<VARIANCE> 25
 1.482363e+002 1.186289e+002 1.358767e+002 1.150533e+002 6.856859e+001 5.959438e+001 5.340210e+001 5.644455e+001 5.966214e+001 3.805057e+001 3.493165e+001 2.775295e+001 2.220379e+000 3.354012e+000 3.076584e+000 3.783211e+000 3.009660e+000 2.603472e+000 2.703241e+000 2.901384e+000 2.795699e+000 2.264799e+000 1.906537e+000 1.789198e+000 2.980222e+000
<GCONST> 1.090549e+002
<STATE> 3
<MEAN> 25
 1.565769e-007 -6.290797e-008 -2.937665e-007 -4.371385e-008 5.392831e-009 -1.134847e-007 1.048326e-008 1.461609e-009 6.497437e-008 2.474654e-008 2.793856e-008 3.496100e-008 6.361995e-003 4.308552e-003 2.542655e-003 -9.878381e-004 4.629357e-004 7.091404e-004 -2.578934e-003 -6.028318e-003 -4.543920e-003 -2.417521e-003 -2.678531e-003 -6.849539e-003 3.474661e-003
<VARIANCE> 25
 1.482363e+002 1.186289e+002 1.358767e+002 1.150533e+002 6.856859e+001 5.959438e+001 5.340210e+001 5.644455e+001 5.966214e+001 3.805057e+001 3.493165e+001 2.775295e+001 2.220379e+000 3.354012e+000 3.076584e+000 3.783211e+000 3.009660e+000 2.603472e+000 2.703241e+000 2.901384e+000 2.795699e+000 2.264799e+000 1.906537e+000 1.789198e+000 2.980222e+000
<GCONST> 1.090549e+002
<STATE> 4
<MEAN> 25
 1.565769e-007 -6.290797e-008 -2.937665e-007 -4.371385e-008 5.392831e-009 -1.134847e-007 1.048326e-008 1.461609e-009 6.497437e-008 2.474654e-008 2.793856e-008 3.496100e-008 6.361995e-003 4.308552e-003 2.542655e-003 -9.878381e-004 4.629357e-004 7.091404e-004 -2.578934e-003 -6.028318e-003 -4.543920e-003 -2.417521e-003 -2.678531e-003 -6.849539e-003 3.474661e-003
<VARIANCE> 25
 1.482363e+002 1.186289e+002 1.358767e+002 1.150533e+002 6.856859e+001 5.959438e+001 5.340210e+001 5.644455e+001 5.966214e+001 3.805057e+001 3.493165e+001 2.775295e+001 2.220379e+000 3.354012e+000 3.076584e+000 3.783211e+000 3.009660e+000 2.603472e+000 2.703241e+000 2.901384e+000 2.795699e+000 2.264799e+000 1.906537e+000 1.789198e+000 2.980222e+000
<GCONST> 1.090549e+002
<TRANSP> 5
 0.000000e+000 1.000000e+000 0.000000e+000 0.000000e+000 0.000000e+000
 0.000000e+000 6.000000e-001 4.000000e-001 0.000000e+000 0.000000e+000
 0.000000e+000 0.000000e+000 6.000000e-001 4.000000e-001 0.000000e+000
 0.000000e+000 0.000000e+000 0.000000e+000 7.000000e-001 3.000000e-001
 0.000000e+000 0.000000e+000 0.000000e+000 0.000000e+000 0.000000e+000
<ENDHMM>
~h "sp"
<BEGINHMM>
<NUMSTATES> 5
<STATE> 2
<MEAN> 25
 1.565769e-007 -6.290797e-008 -2.937665e-007 -4.371385e-008 5.392831e-009 -1.134847e-007 1.048326e-008 1.461609e-009 6.497437e-008 2.474654e-008 2.793856e-008 3.496100e-008 6.361995e-003 4.308552e-003 2.542655e-003 -9.878381e-004 4.629357e-004 7.091404e-004 -2.578934e-003 -6.028318e-003 -4.543920e-003 -2.417521e-003 -2.678531e-003 -6.849539e-003 3.474661e-003
<VARIANCE> 25
 1.482363e+002 1.186289e+002 1.358767e+002 1.150533e+002 6.856859e+001 5.959438e+001 5.340210e+001 5.644455e+001 5.966214e+001 3.805057e+001 3.493165e+001 2.775295e+001 2.220379e+000 3.354012e+000 3.076584e+000 3.783211e+000 3.009660e+000 2.603472e+000 2.703241e+000 2.901384e+000 2.795699e+000 2.264799e+000 1.906537e+000 1.789198e+000 2.980222e+000
<GCONST> 1.090549e+002
<STATE> 3
<MEAN> 25
 1.565769e-007 -6.290797e-008 -2.937665e-007 -4.371385e-008 5.392831e-009 -1.134847e-007 1.048326e-008 1.461609e-009 6.497437e-008 2.474654e-008 2.793856e-008 3.496100e-008 6.361995e-003 4.308552e-003 2.542655e-003 -9.878381e-004 4.629357e-004 7.091404e-004 -2.578934e-003 -6.028318e-003 -4.543920e-003 -2.417521e-003 -2.678531e-003 -6.849539e-003 3.474661e-003
<VARIANCE> 25
 1.482363e+002 1.186289e+002 1.358767e+002 1.150533e+002 6.856859e+001 5.959438e+001 5.340210e+001 5.644455e+001 5.966214e+001 3.805057e+001 3.493165e+001 2.775295e+001 2.220379e+000 3.354012e+000 3.076584e+000 3.783211e+000 3.009660e+000 2.603472e+000 2.703241e+000 2.901384e+000 2.795699e+000 2.264799e+000 1.906537e+000 1.789198e+000 2.980222e+000
<GCONST> 1.090549e+002
<STATE> 4
<MEAN> 25
 1.565769e-007 -6.290797e-008 -2.937665e-007 -4.371385e-008 5.392831e-009 -1.134847e-007 1.048326e-008 1.461609e-009 6.497437e-008 2.474654e-008 2.793856e-008 3.496100e-008 6.361995e-003 4.308552e-003 2.542655e-003 -9.878381e-004 4.629357e-004 7.091404e-004 -2.578934e-003 -6.028318e-003 -4.543920e-003 -2.417521e-003 -2.678531e-003 -6.849539e-003 3.474661e-003
<VARIANCE> 25
 1.482363e+002 1.186289e+002 1.358767e+002 1.150533e+002 6.856859e+001 5.959438e+001 5.340210e+001 5.644455e+001 5.966214e+001 3.805057e+001 3.493165e+001 2.775295e+001 2.220379e+000 3.354012e+000 3.076584e+000 3.783211e+000 3.009660e+000 2.603472e+000 2.703241e+000 2.901384e+000 2.795699e+000 2.264799e+000 1.906537e+000 1.789198e+000 2.980222e+000
<GCONST> 1.090549e+002
<TRANSP> 5
 0.000000e+000 1.000000e+000 0.000000e+000 0.000000e+000 0.000000e+000
 0.000000e+000 6.000000e-001 4.000000e-001 0.000000e+000 0.000000e+000
 0.000000e+000 0.000000e+000 6.000000e-001 4.000000e-001 0.000000e+000
 0.000000e+000 0.000000e+000 0.000000e+000 7.000000e-001 3.000000e-001
 0.000000e+000 0.000000e+000 0.000000e+000 0.000000e+000 0.000000e+000
<ENDHMM>
~h "d"
<BEGINHMM>
<NUMSTATES> 5
<STATE> 2
<MEAN> 25
 1.565769e-007 -6.290797e-008 -2.937665e-007 -4.371385e-008 5.392831e-009 -1.134847e-007 1.048326e-008 1.461609e-009 6.497437e-008 2.474654e-008 2.793856e-008 3.496100e-008 6.361995e-003 4.308552e-003 2.542655e-003 -9.878381e-004 4.629357e-004 7.091404e-004 -2.578934e-003 -6.028318e-003 -4.543920e-003 -2.417521e-003 -2.678531e-003 -6.849539e-003 3.474661e-003
<VARIANCE> 25
 1.482363e+002 1.186289e+002 1.358767e+002 1.150533e+002 6.856859e+001 5.959438e+001 5.340210e+001 5.644455e+001 5.966214e+001 3.805057e+001 3.493165e+001 2.775295e+001 2.220379e+000 3.354012e+000 3.076584e+000 3.783211e+000 3.009660e+000 2.603472e+000 2.703241e+000 2.901384e+000 2.795699e+000 2.264799e+000 1.906537e+000 1.789198e+000 2.980222e+000
<GCONST> 1.090549e+002
<STATE> 3
<MEAN> 25
 1.565769e-007 -6.290797e-008 -2.937665e-007 -4.371385e-008 5.392831e-009 -1.134847e-007 1.048326e-008 1.461609e-009 6.497437e-008 2.474654e-008 2.793856e-008 3.496100e-008 6.361995e-003 4.308552e-003 2.542655e-003 -9.878381e-004 4.629357e-004 7.091404e-004 -2.578934e-003 -6.028318e-003 -4.543920e-003 -2.417521e-003 -2.678531e-003 -6.849539e-003 3.474661e-003
<VARIANCE> 25
 1.482363e+002 1.186289e+002 1.358767e+002 1.150533e+002 6.856859e+001 5.959438e+001 5.340210e+001 5.644455e+001 5.966214e+001 3.805057e+001 3.493165e+001 2.775295e+001 2.220379e+000 3.354012e+000 3.076584e+000 3.783211e+000 3.009660e+000 2.603472e+000 2.703241e+000 2.901384e+000 2.795699e+000 2.264799e+000 1.906537e+000 1.789198e+000 2.980222e+000
<GCONST> 1.090549e+002
<STATE> 4
<MEAN> 25
 1.565769e-007 -6.290797e-008 -2.937665e-007 -4.371385e-008 5.392831e-009 -1.134847e-007 1.048326e-008 1.461609e-009 6.497437e-008 2.474654e-008 2.793856e-008 3.496100e-008 6.361995e-003 4.308552e-003 2.542655e-003 -9.878381e-004 4.629357e-004 7.091404e-004 -2.578934e-003 -6.028318e-003 -4.543920e-003 -2.417521e-003 -2.678531e-003 -6.849539e-003 3.474661e-003
<VARIANCE> 25
 1.482363e+002 1.186289e+002 1.358767e+002 1.150533e+002 6.856859e+001 5.959438e+001 5.340210e+001 5.644455e+001 5.966214e+001 3.805057e+001 3.493165e+001 2.775295e+001 2.220379e+000 3.354012e+000 3.076584e+000 3.783211e+000 3.009660e+000 2.603472e+000 2.703241e+000 2.901384e+000 2.795699e+000 2.264799e+000 1.906537e+000 1.789198e+000 2.980222e+000
<GCONST> 1.090549e+002
<TRANSP> 5
 0.000000e+000 1.000000e+000 0.000000e+000 0.000000e+000 0.000000e+000
 0.000000e+000 6.000000e-001 4.000000e-001 0.000000e+000 0.000000e+000
 0.000000e+000 0.000000e+000 6.000000e-001 4.000000e-001 0.000000e+000
 0.000000e+000 0.000000e+000 0.000000e+000 7.000000e-001 3.000000e-001
 0.000000e+000 0.000000e+000 0.000000e+000 0.000000e+000 0.000000e+000
<ENDHMM>
~h "k"
<BEGINHMM>
<NUMSTATES> 5
<STATE> 2
<MEAN> 25
 1.565769e-007 -6.290797e-008 -2.937665e-007 -4.371385e-008 5.392831e-009 -1.134847e-007 1.048326e-008 1.461609e-009 6.497437e-008 2.474654e-008 2.793856e-008 3.496100e-008 6.361995e-003 4.308552e-003 2.542655e-003 -9.878381e-004 4.629357e-004 7.091404e-004 -2.578934e-003 -6.028318e-003 -4.543920e-003 -2.417521e-003 -2.678531e-003 -6.849539e-003 3.474661e-003
<VARIANCE> 25
 1.482363e+002 1.186289e+002 1.358767e+002 1.150533e+002 6.856859e+001 5.959438e+001 5.340210e+001 5.644455e+001 5.966214e+001 3.805057e+001 3.493165e+001 2.775295e+001 2.220379e+000 3.354012e+000 3.076584e+000 3.783211e+000 3.009660e+000 2.603472e+000 2.703241e+000 2.901384e+000 2.795699e+000 2.264799e+000 1.906537e+000 1.789198e+000 2.980222e+000
<GCONST> 1.090549e+002
<STATE> 3
<MEAN> 25
 1.565769e-007 -6.290797e-008 -2.937665e-007 -4.371385e-008 5.392831e-009 -1.134847e-007 1.048326e-008 1.461609e-009 6.497437e-008 2.474654e-008 2.793856e-008 3.496100e-008 6.361995e-003 4.308552e-003 2.542655e-003 -9.878381e-004 4.629357e-004 7.091404e-004 -2.578934e-003 -6.028318e-003 -4.543920e-003 -2.417521e-003 -2.678531e-003 -6.849539e-003 3.474661e-003
<VARIANCE> 25
 1.482363e+002 1.186289e+002 1.358767e+002 1.150533e+002 6.856859e+001 5.959438e+001 5.340210e+001 5.644455e+001 5.966214e+001 3.805057e+001 3.493165e+001 2.775295e+001 2.220379e+000 3.354012e+000 3.076584e+000 3.783211e+000 3.009660e+000 2.603472e+000 2.703241e+000 2.901384e+000 2.795699e+000 2.264799e+000 1.906537e+000 1.789198e+000 2.980222e+000
<GCONST> 1.090549e+002
<STATE> 4
<MEAN> 25
 1.565769e-007 -6.290797e-008 -2.937665e-007 -4.371385e-008 5.392831e-009 -1.134847e-007 1.048326e-008 1.461609e-009 6.497437e-008 2.474654e-008 2.793856e-008 3.496100e-008 6.361995e-003 4.308552e-003 2.542655e-003 -9.878381e-004 4.629357e-004 7.091404e-004 -2.578934e-003 -6.028318e-003 -4.543920e-003 -2.417521e-003 -2.678531e-003 -6.849539e-003 3.474661e-003
<VARIANCE> 25
 1.482363e+002 1.186289e+002 1.358767e+002 1.150533e+002 6.856859e+001 5.959438e+001 5.340210e+001 5.644455e+001 5.966214e+001 3.805057e+001 3.493165e+001 2.775295e+001 2.220379e+000 3.354012e+000 3.076584e+000 3.783211e+000 3.009660e+000 2.603472e+000 2.703241e+000 2.901384e+000 2.795699e+000 2.264799e+000 1.906537e+000 1.789198e+000 2.980222e+000
<GCONST> 1.090549e+002
<TRANSP> 5
 0.000000e+000 1.000000e+000 0.000000e+000 0.000000e+000 0.000000e+000
 0.000000e+000 6.000000e-001 4.000000e-001 0.000000e+000 0.000000e+000
 0.000000e+000 0.000000e+000 6.000000e-001 4.000000e-001 0.000000e+000
 0.000000e+000 0.000000e+000 0.000000e+000 7.000000e-001 3.000000e-001
 0.000000e+000 0.000000e+000 0.000000e+000 0.000000e+000 0.000000e+000
<ENDHMM>
~h "l"
<BEGINHMM>
<NUMSTATES> 5
<STATE> 2
<MEAN> 25
 1.565769e-007 -6.290797e-008 -2.937665e-007 -4.371385e-008 5.392831e-009 -1.134847e-007 1.048326e-008 1.461609e-009 6.497437e-008 2.474654e-008 2.793856e-008 3.496100e-008 6.361995e-003 4.308552e-003 2.542655e-003 -9.878381e-004 4.629357e-004 7.091404e-004 -2.578934e-003 -6.028318e-003 -4.543920e-003 -2.417521e-003 -2.678531e-003 -6.849539e-003 3.474661e-003
<VARIANCE> 25
 1.482363e+002 1.186289e+002 1.358767e+002 1.150533e+002 6.856859e+001 5.959438e+001 5.340210e+001 5.644455e+001 5.966214e+001 3.805057e+001 3.493165e+001 2.775295e+001 2.220379e+000 3.354012e+000 3.076584e+000 3.783211e+000 3.009660e+000 2.603472e+000 2.703241e+000 2.901384e+000 2.795699e+000 2.264799e+000 1.906537e+000 1.789198e+000 2.980222e+000
<GCONST> 1.090549e+002
<STATE> 3
<MEAN> 25
 1.565769e-007 -6.290797e-008 -2.937665e-007 -4.371385e-008 5.392831e-009 -1.134847e-007 1.048326e-008 1.461609e-009 6.497437e-008 2.474654e-008 2.793856e-008 3.496100e-008 6.361995e-003 4.308552e-003 2.542655e-003 -9.878381e-004 4.629357e-004 7.091404e-004 -2.578934e-003 -6.028318e-003 -4.543920e-003 -2.417521e-003 -2.678531e-003 -6.849539e-003 3.474661e-003
<VARIANCE> 25
 1.482363e+002 1.186289e+002 1.358767e+002 1.150533e+002 6.856859e+001 5.959438e+001 5.340210e+001 5.644455e+001 5.966214e+001 3.805057e+001 3.493165e+001 2.775295e+001 2.220379e+000 3.354012e+000 3.076584e+000 3.783211e+000 3.009660e+000 2.603472e+000 2.703241e+000 2.901384e+000 2.795699e+000 2.264799e+000 1.906537e+000 1.789198e+000 2.980222e+000
<GCONST> 1.090549e+002
<STATE> 4
<MEAN> 25
 1.565769e-007 -6.290797e-008 -2.937665e-007 -4.371385e-008 5.392831e-009 -1.134847e-007 1.048326e-008 1.461609e-009 6.497437e-008 2.474654e-008 2.793856e-008 3.496100e-008 6.361995e-003 4.308552e-003 2.542655e-003 -9.878381e-004 4.629357e-004 7.091404e-004 -2.578934e-003 -6.028318e-003 -4.543920e-003 -2.417521e-003 -2.678531e-003 -6.849539e-003 3.474661e-003
<VARIANCE> 25
 1.482363e+002 1.186289e+002 1.358767e+002 1.150533e+002 6.856859e+001 5.959438e+001 5.340210e+001 5.644455e+001 5.966214e+001 3.805057e+001 3.493165e+001 2.775295e+001 2.220379e+000 3.354012e+000 3.076584e+000 3.783211e+000 3.009660e+000 2.603472e+000 2.703241e+000 2.901384e+000 2.795699e+000 2.264799e+000 1.906537e+000 1.789198e+000 2.980222e+000
<GCONST> 1.090549e+002
<TRANSP> 5
 0.000000e+000 1.000000e+000 0.000000e+000 0.000000e+000 0.000000e+000
 0.000000e+000 6.000000e-001 4.000000e-001 0.000000e+000 0.000000e+000
 0.000000e+000 0.000000e+000 6.000000e-001 4.000000e-001 0.000000e+000
 0.000000e+000 0.000000e+000 0.000000e+000 7.000000e-001 3.000000e-001
 0.000000e+000 0.000000e+000 0.000000e+000 0.000000e+000 0.000000e+000
<ENDHMM>
~h "ny"
<BEGINHMM>
<NUMSTATES> 5
<STATE> 2
<MEAN> 25
 1.565769e-007 -6.290797e-008 -2.937665e-007 -4.371385e-008 5.392831e-009 -1.134847e-007 1.048326e-008 1.461609e-009 6.497437e-008 2.474654e-008 2.793856e-008 3.496100e-008 6.361995e-003 4.308552e-003 2.542655e-003 -9.878381e-004 4.629357e-004 7.091404e-004 -2.578934e-003 -6.028318e-003 -4.543920e-003 -2.417521e-003 -2.678531e-003 -6.849539e-003 3.474661e-003
<VARIANCE> 25
 1.482363e+002 1.186289e+002 1.358767e+002 1.150533e+002 6.856859e+001 5.959438e+001 5.340210e+001 5.644455e+001 5.966214e+001 3.805057e+001 3.493165e+001 2.775295e+001 2.220379e+000 3.354012e+000 3.076584e+000 3.783211e+000 3.009660e+000 2.603472e+000 2.703241e+000 2.901384e+000 2.795699e+000 2.264799e+000 1.906537e+000 1.789198e+000 2.980222e+000
<GCONST> 1.090549e+002
<STATE> 3
<MEAN> 25
 1.565769e-007 -6.290797e-008 -2.937665e-007 -4.371385e-008 5.392831e-009 -1.134847e-007 1.048326e-008 1.461609e-009 6.497437e-008 2.474654e-008 2.793856e-008 3.496100e-008 6.361995e-003 4.308552e-003 2.542655e-003 -9.878381e-004 4.629357e-004 7.091404e-004 -2.578934e-003 -6.028318e-003 -4.543920e-003 -2.417521e-003 -2.678531e-003 -6.849539e-003 3.474661e-003
<VARIANCE> 25
 1.482363e+002 1.186289e+002 1.358767e+002 1.150533e+002 6.856859e+001 5.959438e+001 5.340210e+001 5.644455e+001 5.966214e+001 3.805057e+001 3.493165e+001 2.775295e+001 2.220379e+000 3.354012e+000 3.076584e+000 3.783211e+000 3.009660e+000 2.603472e+000 2.703241e+000 2.901384e+000 2.795699e+000 2.264799e+000 1.906537e+000 1.789198e+000 2.980222e+000
<GCONST> 1.090549e+002
<STATE> 4
<MEAN> 25
 1.565769e-007 -6.290797e-008 -2.937665e-007 -4.371385e-008 5.392831e-009 -1.134847e-007 1.048326e-008 1.461609e-009 6.497437e-008 2.474654e-008 2.793856e-008 3.496100e-008 6.361995e-003 4.308552e-003 2.542655e-003 -9.878381e-004 4.629357e-004 7.091404e-004 -2.578934e-003 -6.028318e-003 -4.543920e-003 -2.417521e-003 -2.678531e-003 -6.849539e-003 3.474661e-003
<VARIANCE> 25
 1.482363e+002 1.186289e+002 1.358767e+002 1.150533e+002 6.856859e+001 5.959438e+001 5.340210e+001 5.644455e+001 5.966214e+001 3.805057e+001 3.493165e+001 2.775295e+001 2.220379e+000 3.354012e+000 3.076584e+000 3.783211e+000 3.009660e+000 2.603472e+000 2.703241e+000 2.901384e+000 2.795699e+000 2.264799e+000 1.906537e+000 1.789198e+000 2.980222e+000
<GCONST> 1.090549e+002
<TRANSP> 5
 0.000000e+000 1.000000e+000 0.000000e+000 0.000000e+000 0.000000e+000
 0.000000e+000 6.000000e-001 4.000000e-001 0.000000e+000 0.000000e+000
 0.000000e+000 0.000000e+000 6.000000e-001 4.000000e-001 0.000000e+000
 0.000000e+000 0.000000e+000 0.000000e+000 7.000000e-001 3.000000e-001
 0.000000e+000 0.000000e+000 0.000000e+000 0.000000e+000 0.000000e+000
<ENDHMM>
~h "n"
<BEGINHMM>
<NUMSTATES> 5
<STATE> 2
<MEAN> 25
 1.565769e-007 -6.290797e-008 -2.937665e-007 -4.371385e-008 5.392831e-009 -1.134847e-007 1.048326e-008 1.461609e-009 6.497437e-008 2.474654e-008 2.793856e-008 3.496100e-008 6.361995e-003 4.308552e-003 2.542655e-003 -9.878381e-004 4.629357e-004 7.091404e-004 -2.578934e-003 -6.028318e-003 -4.543920e-003 -2.417521e-003 -2.678531e-003 -6.849539e-003 3.474661e-003
<VARIANCE> 25
 1.482363e+002 1.186289e+002 1.358767e+002 1.150533e+002 6.856859e+001 5.959438e+001 5.340210e+001 5.644455e+001 5.966214e+001 3.805057e+001 3.493165e+001 2.775295e+001 2.220379e+000 3.354012e+000 3.076584e+000 3.783211e+000 3.009660e+000 2.603472e+000 2.703241e+000 2.901384e+000 2.795699e+000 2.264799e+000 1.906537e+000 1.789198e+000 2.980222e+000
<GCONST> 1.090549e+002
<STATE> 3
<MEAN> 25
 1.565769e-007 -6.290797e-008 -2.937665e-007 -4.371385e-008 5.392831e-009 -1.134847e-007 1.048326e-008 1.461609e-009 6.497437e-008 2.474654e-008 2.793856e-008 3.496100e-008 6.361995e-003 4.308552e-003 2.542655e-003 -9.878381e-004 4.629357e-004 7.091404e-004 -2.578934e-003 -6.028318e-003 -4.543920e-003 -2.417521e-003 -2.678531e-003 -6.849539e-003 3.474661e-003
<VARIANCE> 25
 1.482363e+002 1.186289e+002 1.358767e+002 1.150533e+002 6.856859e+001 5.959438e+001 5.340210e+001 5.644455e+001 5.966214e+001 3.805057e+001 3.493165e+001 2.775295e+001 2.220379e+000 3.354012e+000 3.076584e+000 3.783211e+000 3.009660e+000 2.603472e+000 2.703241e+000 2.901384e+000 2.795699e+000 2.264799e+000 1.906537e+000 1.789198e+000 2.980222e+000
<GCONST> 1.090549e+002
<STATE> 4
<MEAN> 25
 1.565769e-007 -6.290797e-008 -2.937665e-007 -4.371385e-008 5.392831e-009 -1.134847e-007 1.048326e-008 1.461609e-009 6.497437e-008 2.474654e-008 2.793856e-008 3.496100e-008 6.361995e-003 4.308552e-003 2.542655e-003 -9.878381e-004 4.629357e-004 7.091404e-004 -2.578934e-003 -6.028318e-003 -4.543920e-003 -2.417521e-003 -2.678531e-003 -6.849539e-003 3.474661e-003
<VARIANCE> 25
 1.482363e+002 1.186289e+002 1.358767e+002 1.150533e+002 6.856859e+001 5.959438e+001 5.340210e+001 5.644455e+001 5.966214e+001 3.805057e+001 3.493165e+001 2.775295e+001 2.220379e+000 3.354012e+000 3.076584e+000 3.783211e+000 3.009660e+000 2.603472e+000 2.703241e+000 2.901384e+000 2.795699e+000 2.264799e+000 1.906537e+000 1.789198e+000 2.980222e+000
<GCONST> 1.090549e+002
<TRANSP> 5
 0.000000e+000 1.000000e+000 0.000000e+000 0.000000e+000 0.000000e+000
 0.000000e+000 6.000000e-001 4.000000e-001 0.000000e+000 0.000000e+000
 0.000000e+000 0.000000e+000 6.000000e-001 4.000000e-001 0.000000e+000
 0.000000e+000 0.000000e+000 0.000000e+000 7.000000e-001 3.000000e-001
 0.000000e+000 0.000000e+000 0.000000e+000 0.000000e+000 0.000000e+000
<ENDHMM>
~h "m"
<BEGINHMM>
<NUMSTATES> 5
<STATE> 2
<MEAN> 25
 1.565769e-007 -6.290797e-008 -2.937665e-007 -4.371385e-008 5.392831e-009 -1.134847e-007 1.048326e-008 1.461609e-009 6.497437e-008 2.474654e-008 2.793856e-008 3.496100e-008 6.361995e-003 4.308552e-003 2.542655e-003 -9.878381e-004 4.629357e-004 7.091404e-004 -2.578934e-003 -6.028318e-003 -4.543920e-003 -2.417521e-003 -2.678531e-003 -6.849539e-003 3.474661e-003
<VARIANCE> 25
 1.482363e+002 1.186289e+002 1.358767e+002 1.150533e+002 6.856859e+001 5.959438e+001 5.340210e+001 5.644455e+001 5.966214e+001 3.805057e+001 3.493165e+001 2.775295e+001 2.220379e+000 3.354012e+000 3.076584e+000 3.783211e+000 3.009660e+000 2.603472e+000 2.703241e+000 2.901384e+000 2.795699e+000 2.264799e+000 1.906537e+000 1.789198e+000 2.980222e+000
<GCONST> 1.090549e+002
<STATE> 3
<MEAN> 25
 1.565769e-007 -6.290797e-008 -2.937665e-007 -4.371385e-008 5.392831e-009 -1.134847e-007 1.048326e-008 1.461609e-009 6.497437e-008 2.474654e-008 2.793856e-008 3.496100e-008 6.361995e-003 4.308552e-003 2.542655e-003 -9.878381e-004 4.629357e-004 7.091404e-004 -2.578934e-003 -6.028318e-003 -4.543920e-003 -2.417521e-003 -2.678531e-003 -6.849539e-003 3.474661e-003
<VARIANCE> 25
 1.482363e+002 1.186289e+002 1.358767e+002 1.150533e+002 6.856859e+001 5.959438e+001 5.340210e+001 5.644455e+001 5.966214e+001 3.805057e+001 3.493165e+001 2.775295e+001 2.220379e+000 3.354012e+000 3.076584e+000 3.783211e+000 3.009660e+000 2.603472e+000 2.703241e+000 2.901384e+000 2.795699e+000 2.264799e+000 1.906537e+000 1.789198e+000 2.980222e+000
<GCONST> 1.090549e+002
<STATE> 4
<MEAN> 25
 1.565769e-007 -6.290797e-008 -2.937665e-007 -4.371385e-008 5.392831e-009 -1.134847e-007 1.048326e-008 1.461609e-009 6.497437e-008 2.474654e-008 2.793856e-008 3.496100e-008 6.361995e-003 4.308552e-003 2.542655e-003 -9.878381e-004 4.629357e-004 7.091404e-004 -2.578934e-003 -6.028318e-003 -4.543920e-003 -2.417521e-003 -2.678531e-003 -6.849539e-003 3.474661e-003
<VARIANCE> 25
 1.482363e+002 1.186289e+002 1.358767e+002 1.150533e+002 6.856859e+001 5.959438e+001 5.340210e+001 5.644455e+001 5.966214e+001 3.805057e+001 3.493165e+001 2.775295e+001 2.220379e+000 3.354012e+000 3.076584e+000 3.783211e+000 3.009660e+000 2.603472e+000 2.703241e+000 2.901384e+000 2.795699e+000 2.264799e+000 1.906537e+000 1.789198e+000 2.980222e+000
<GCONST> 1.090549e+002
<TRANSP> 5
 0.000000e+000 1.000000e+000 0.000000e+000 0.000000e+000 0.000000e+000
 0.000000e+000 6.000000e-001 4.000000e-001 0.000000e+000 0.000000e+000
 0.000000e+000 0.000000e+000 6.000000e-001 4.000000e-001 0.000000e+000
 0.000000e+000 0.000000e+000 0.000000e+000 7.000000e-001 3.000000e-001
 0.000000e+000 0.000000e+000 0.000000e+000 0.000000e+000 0.000000e+000
<ENDHMM>
~h "i"
<BEGINHMM>
<NUMSTATES> 5
<STATE> 2
<MEAN> 25
 1.565769e-007 -6.290797e-008 -2.937665e-007 -4.371385e-008 5.392831e-009 -1.134847e-007 1.048326e-008 1.461609e-009 6.497437e-008 2.474654e-008 2.793856e-008 3.496100e-008 6.361995e-003 4.308552e-003 2.542655e-003 -9.878381e-004 4.629357e-004 7.091404e-004 -2.578934e-003 -6.028318e-003 -4.543920e-003 -2.417521e-003 -2.678531e-003 -6.849539e-003 3.474661e-003
<VARIANCE> 25
 1.482363e+002 1.186289e+002 1.358767e+002 1.150533e+002 6.856859e+001 5.959438e+001 5.340210e+001 5.644455e+001 5.966214e+001 3.805057e+001 3.493165e+001 2.775295e+001 2.220379e+000 3.354012e+000 3.076584e+000 3.783211e+000 3.009660e+000 2.603472e+000 2.703241e+000 2.901384e+000 2.795699e+000 2.264799e+000 1.906537e+000 1.789198e+000 2.980222e+000
<GCONST> 1.090549e+002
<STATE> 3
<MEAN> 25
 1.565769e-007 -6.290797e-008 -2.937665e-007 -4.371385e-008 5.392831e-009 -1.134847e-007 1.048326e-008 1.461609e-009 6.497437e-008 2.474654e-008 2.793856e-008 3.496100e-008 6.361995e-003 4.308552e-003 2.542655e-003 -9.878381e-004 4.629357e-004 7.091404e-004 -2.578934e-003 -6.028318e-003 -4.543920e-003 -2.417521e-003 -2.678531e-003 -6.849539e-003 3.474661e-003
<VARIANCE> 25
 1.482363e+002 1.186289e+002 1.358767e+002 1.150533e+002 6.856859e+001 5.959438e+001 5.340210e+001 5.644455e+001 5.966214e+001 3.805057e+001 3.493165e+001 2.775295e+001 2.220379e+000 3.354012e+000 3.076584e+000 3.783211e+000 3.009660e+000 2.603472e+000 2.703241e+000 2.901384e+000 2.795699e+000 2.264799e+000 1.906537e+000 1.789198e+000 2.980222e+000
<GCONST> 1.090549e+002
<STATE> 4
<MEAN> 25
 1.565769e-007 -6.290797e-008 -2.937665e-007 -4.371385e-008 5.392831e-009 -1.134847e-007 1.048326e-008 1.461609e-009 6.497437e-008 2.474654e-008 2.793856e-008 3.496100e-008 6.361995e-003 4.308552e-003 2.542655e-003 -9.878381e-004 4.629357e-004 7.091404e-004 -2.578934e-003 -6.028318e-003 -4.543920e-003 -2.417521e-003 -2.678531e-003 -6.849539e-003 3.474661e-003
<VARIANCE> 25
 1.482363e+002 1.186289e+002 1.358767e+002 1.150533e+002 6.856859e+001 5.959438e+001 5.340210e+001 5.644455e+001 5.966214e+001 3.805057e+001 3.493165e+001 2.775295e+001 2.220379e+000 3.354012e+000 3.076584e+000 3.783211e+000 3.009660e+000 2.603472e+000 2.703241e+000 2.901384e+000 2.795699e+000 2.264799e+000 1.906537e+000 1.789198e+000 2.980222e+000
<GCONST> 1.090549e+002
<TRANSP> 5
 0.000000e+000 1.000000e+000 0.000000e+000 0.000000e+000 0.000000e+000
 0.000000e+000 6.000000e-001 4.000000e-001 0.000000e+000 0.000000e+000
 0.000000e+000 0.000000e+000 6.000000e-001 4.000000e-001 0.000000e+000
 0.000000e+000 0.000000e+000 0.000000e+000 7.000000e-001 3.000000e-001
 0.000000e+000 0.000000e+000 0.000000e+000 0.000000e+000 0.000000e+000
<ENDHMM>
~h "p"
<BEGINHMM>
<NUMSTATES> 5
<STATE> 2
<MEAN> 25
 1.565769e-007 -6.290797e-008 -2.937665e-007 -4.371385e-008 5.392831e-009 -1.134847e-007 1.048326e-008 1.461609e-009 6.497437e-008 2.474654e-008 2.793856e-008 3.496100e-008 6.361995e-003 4.308552e-003 2.542655e-003 -9.878381e-004 4.629357e-004 7.091404e-004 -2.578934e-003 -6.028318e-003 -4.543920e-003 -2.417521e-003 -2.678531e-003 -6.849539e-003 3.474661e-003
<VARIANCE> 25
 1.482363e+002 1.186289e+002 1.358767e+002 1.150533e+002 6.856859e+001 5.959438e+001 5.340210e+001 5.644455e+001 5.966214e+001 3.805057e+001 3.493165e+001 2.775295e+001 2.220379e+000 3.354012e+000 3.076584e+000 3.783211e+000 3.009660e+000 2.603472e+000 2.703241e+000 2.901384e+000 2.795699e+000 2.264799e+000 1.906537e+000 1.789198e+000 2.980222e+000
<GCONST> 1.090549e+002
<STATE> 3
<MEAN> 25
 1.565769e-007 -6.290797e-008 -2.937665e-007 -4.371385e-008 5.392831e-009 -1.134847e-007 1.048326e-008 1.461609e-009 6.497437e-008 2.474654e-008 2.793856e-008 3.496100e-008 6.361995e-003 4.308552e-003 2.542655e-003 -9.878381e-004 4.629357e-004 7.091404e-004 -2.578934e-003 -6.028318e-003 -4.543920e-003 -2.417521e-003 -2.678531e-003 -6.849539e-003 3.474661e-003
<VARIANCE> 25
 1.482363e+002 1.186289e+002 1.358767e+002 1.150533e+002 6.856859e+001 5.959438e+001 5.340210e+001 5.644455e+001 5.966214e+001 3.805057e+001 3.493165e+001 2.775295e+001 2.220379e+000 3.354012e+000 3.076584e+000 3.783211e+000 3.009660e+000 2.603472e+000 2.703241e+000 2.901384e+000 2.795699e+000 2.264799e+000 1.906537e+000 1.789198e+000 2.980222e+000
<GCONST> 1.090549e+002
<STATE> 4
<MEAN> 25
 1.565769e-007 -6.290797e-008 -2.937665e-007 -4.371385e-008 5.392831e-009 -1.134847e-007 1.048326e-008 1.461609e-009 6.497437e-008 2.474654e-008 2.793856e-008 3.496100e-008 6.361995e-003 4.308552e-003 2.542655e-003 -9.878381e-004 4.629357e-004 7.091404e-004 -2.578934e-003 -6.028318e-003 -4.543920e-003 -2.417521e-003 -2.678531e-003 -6.849539e-003 3.474661e-003
<VARIANCE> 25
 1.482363e+002 1.186289e+002 1.358767e+002 1.150533e+002 6.856859e+001 5.959438e+001 5.340210e+001 5.644455e+001 5.966214e+001 3.805057e+001 3.493165e+001 2.775295e+001 2.220379e+000 3.354012e+000 3.076584e+000 3.783211e+000 3.009660e+000 2.603472e+000 2.703241e+000 2.901384e+000 2.795699e+000 2.264799e+000 1.906537e+000 1.789198e+000 2.980222e+000
<GCONST> 1.090549e+002
<TRANSP> 5
 0.000000e+000 1.000000e+000 0.000000e+000 0.000000e+000 0.000000e+000
 0.000000e+000 6.000000e-001 4.000000e-001 0.000000e+000 0.000000e+000
 0.000000e+000 0.000000e+000 6.000000e-001 4.000000e-001 0.000000e+000
 0.000000e+000 0.000000e+000 0.000000e+000 7.000000e-001 3.000000e-001
 0.000000e+000 0.000000e+000 0.000000e+000 0.000000e+000 0.000000e+000
<ENDHMM>
~h "s"
<BEGINHMM>
<NUMSTATES> 5
<STATE> 2
<MEAN> 25
 1.565769e-007 -6.290797e-008 -2.937665e-007 -4.371385e-008 5.392831e-009 -1.134847e-007 1.048326e-008 1.461609e-009 6.497437e-008 2.474654e-008 2.793856e-008 3.496100e-008 6.361995e-003 4.308552e-003 2.542655e-003 -9.878381e-004 4.629357e-004 7.091404e-004 -2.578934e-003 -6.028318e-003 -4.543920e-003 -2.417521e-003 -2.678531e-003 -6.849539e-003 3.474661e-003
<VARIANCE> 25
 1.482363e+002 1.186289e+002 1.358767e+002 1.150533e+002 6.856859e+001 5.959438e+001 5.340210e+001 5.644455e+001 5.966214e+001 3.805057e+001 3.493165e+001 2.775295e+001 2.220379e+000 3.354012e+000 3.076584e+000 3.783211e+000 3.009660e+000 2.603472e+000 2.703241e+000 2.901384e+000 2.795699e+000 2.264799e+000 1.906537e+000 1.789198e+000 2.980222e+000
<GCONST> 1.090549e+002
<STATE> 3
<MEAN> 25
 1.565769e-007 -6.290797e-008 -2.937665e-007 -4.371385e-008 5.392831e-009 -1.134847e-007 1.048326e-008 1.461609e-009 6.497437e-008 2.474654e-008 2.793856e-008 3.496100e-008 6.361995e-003 4.308552e-003 2.542655e-003 -9.878381e-004 4.629357e-004 7.091404e-004 -2.578934e-003 -6.028318e-003 -4.543920e-003 -2.417521e-003 -2.678531e-003 -6.849539e-003 3.474661e-003
<VARIANCE> 25
 1.482363e+002 1.186289e+002 1.358767e+002 1.150533e+002 6.856859e+001 5.959438e+001 5.340210e+001 5.644455e+001 5.966214e+001 3.805057e+001 3.493165e+001 2.775295e+001 2.220379e+000 3.354012e+000 3.076584e+000 3.783211e+000 3.009660e+000 2.603472e+000 2.703241e+000 2.901384e+000 2.795699e+000 2.264799e+000 1.906537e+000 1.789198e+000 2.980222e+000
<GCONST> 1.090549e+002
<STATE> 4
<MEAN> 25
 1.565769e-007 -6.290797e-008 -2.937665e-007 -4.371385e-008 5.392831e-009 -1.134847e-007 1.048326e-008 1.461609e-009 6.497437e-008 2.474654e-008 2.793856e-008 3.496100e-008 6.361995e-003 4.308552e-003 2.542655e-003 -9.878381e-004 4.629357e-004 7.091404e-004 -2.578934e-003 -6.028318e-003 -4.543920e-003 -2.417521e-003 -2.678531e-003 -6.849539e-003 3.474661e-003
<VARIANCE> 25
 1.482363e+002 1.186289e+002 1.358767e+002 1.150533e+002 6.856859e+001 5.959438e+001 5.340210e+001 5.644455e+001 5.966214e+001 3.805057e+001 3.493165e+001 2.775295e+001 2.220379e+000 3.354012e+000 3.076584e+000 3.783211e+000 3.009660e+000 2.603472e+000 2.703241e+000 2.901384e+000 2.795699e+000 2.264799e+000 1.906537e+000 1.789198e+000 2.980222e+000
<GCONST> 1.090549e+002
<TRANSP> 5
 0.000000e+000 1.000000e+000 0.000000e+000 0.000000e+000 0.000000e+000
 0.000000e+000 6.000000e-001 4.000000e-001 0.000000e+000 0.000000e+000
 0.000000e+000 0.000000e+000 6.000000e-001 4.000000e-001 0.000000e+000
 0.000000e+000 0.000000e+000 0.000000e+000 7.000000e-001 3.000000e-001
 0.000000e+000 0.000000e+000 0.000000e+000 0.000000e+000 0.000000e+000
<ENDHMM>
~h "t"
<BEGINHMM>
<NUMSTATES> 5
<STATE> 2
<MEAN> 25
 1.565769e-007 -6.290797e-008 -2.937665e-007 -4.371385e-008 5.392831e-009 -1.134847e-007 1.048326e-008 1.461609e-009 6.497437e-008 2.474654e-008 2.793856e-008 3.496100e-008 6.361995e-003 4.308552e-003 2.542655e-003 -9.878381e-004 4.629357e-004 7.091404e-004 -2.578934e-003 -6.028318e-003 -4.543920e-003 -2.417521e-003 -2.678531e-003 -6.849539e-003 3.474661e-003
<VARIANCE> 25
 1.482363e+002 1.186289e+002 1.358767e+002 1.150533e+002 6.856859e+001 5.959438e+001 5.340210e+001 5.644455e+001 5.966214e+001 3.805057e+001 3.493165e+001 2.775295e+001 2.220379e+000 3.354012e+000 3.076584e+000 3.783211e+000 3.009660e+000 2.603472e+000 2.703241e+000 2.901384e+000 2.795699e+000 2.264799e+000 1.906537e+000 1.789198e+000 2.980222e+000
<GCONST> 1.090549e+002
<STATE> 3
<MEAN> 25
 1.565769e-007 -6.290797e-008 -2.937665e-007 -4.371385e-008 5.392831e-009 -1.134847e-007 1.048326e-008 1.461609e-009 6.497437e-008 2.474654e-008 2.793856e-008 3.496100e-008 6.361995e-003 4.308552e-003 2.542655e-003 -9.878381e-004 4.629357e-004 7.091404e-004 -2.578934e-003 -6.028318e-003 -4.543920e-003 -2.417521e-003 -2.678531e-003 -6.849539e-003 3.474661e-003
<VARIANCE> 25
 1.482363e+002 1.186289e+002 1.358767e+002 1.150533e+002 6.856859e+001 5.959438e+001 5.340210e+001 5.644455e+001 5.966214e+001 3.805057e+001 3.493165e+001 2.775295e+001 2.220379e+000 3.354012e+000 3.076584e+000 3.783211e+000 3.009660e+000 2.603472e+000 2.703241e+000 2.901384e+000 2.795699e+000 2.264799e+000 1.906537e+000 1.789198e+000 2.980222e+000
<GCONST> 1.090549e+002
<STATE> 4
<MEAN> 25
 1.565769e-007 -6.290797e-008 -2.937665e-007 -4.371385e-008 5.392831e-009 -1.134847e-007 1.048326e-008 1.461609e-009 6.497437e-008 2.474654e-008 2.793856e-008 3.496100e-008 6.361995e-003 4.308552e-003 2.542655e-003 -9.878381e-004 4.629357e-004 7.091404e-004 -2.578934e-003 -6.028318e-003 -4.543920e-003 -2.417521e-003 -2.678531e-003 -6.849539e-003 3.474661e-003
<VARIANCE> 25
 1.482363e+002 1.186289e+002 1.358767e+002 1.150533e+002 6.856859e+001 5.959438e+001 5.340210e+001 5.644455e+001 5.966214e+001 3.805057e+001 3.493165e+001 2.775295e+001 2.220379e+000 3.354012e+000 3.076584e+000 3.783211e+000 3.009660e+000 2.603472e+000 2.703241e+000 2.901384e+000 2.795699e+000 2.264799e+000 1.906537e+000 1.789198e+000 2.980222e+000
<GCONST> 1.090549e+002
<TRANSP> 5
 0.000000e+000 1.000000e+000 0.000000e+000 0.000000e+000 0.000000e+000
 0.000000e+000 6.000000e-001 4.000000e-001 0.000000e+000 0.000000e+000
 0.000000e+000 0.000000e+000 6.000000e-001 4.000000e-001 0.000000e+000
 0.000000e+000 0.000000e+000 0.000000e+000 7.000000e-001 3.000000e-001
 0.000000e+000 0.000000e+000 0.000000e+000 0.000000e+000 0.000000e+000
<ENDHMM>
~h "h"
<BEGINHMM>
<NUMSTATES> 5
<STATE> 2
<MEAN> 25
 1.565769e-007 -6.290797e-008 -2.937665e-007 -4.371385e-008 5.392831e-009 -1.134847e-007 1.048326e-008 1.461609e-009 6.497437e-008 2.474654e-008 2.793856e-008 3.496100e-008 6.361995e-003 4.308552e-003 2.542655e-003 -9.878381e-004 4.629357e-004 7.091404e-004 -2.578934e-003 -6.028318e-003 -4.543920e-003 -2.417521e-003 -2.678531e-003 -6.849539e-003 3.474661e-003
<VARIANCE> 25
 1.482363e+002 1.186289e+002 1.358767e+002 1.150533e+002 6.856859e+001 5.959438e+001 5.340210e+001 5.644455e+001 5.966214e+001 3.805057e+001 3.493165e+001 2.775295e+001 2.220379e+000 3.354012e+000 3.076584e+000 3.783211e+000 3.009660e+000 2.603472e+000 2.703241e+000 2.901384e+000 2.795699e+000 2.264799e+000 1.906537e+000 1.789198e+000 2.980222e+000
<GCONST> 1.090549e+002
<STATE> 3
<MEAN> 25
 1.565769e-007 -6.290797e-008 -2.937665e-007 -4.371385e-008 5.392831e-009 -1.134847e-007 1.048326e-008 1.461609e-009 6.497437e-008 2.474654e-008 2.793856e-008 3.496100e-008 6.361995e-003 4.308552e-003 2.542655e-003 -9.878381e-004 4.629357e-004 7.091404e-004 -2.578934e-003 -6.028318e-003 -4.543920e-003 -2.417521e-003 -2.678531e-003 -6.849539e-003 3.474661e-003
<VARIANCE> 25
 1.482363e+002 1.186289e+002 1.358767e+002 1.150533e+002 6.856859e+001 5.959438e+001 5.340210e+001 5.644455e+001 5.966214e+001 3.805057e+001 3.493165e+001 2.775295e+001 2.220379e+000 3.354012e+000 3.076584e+000 3.783211e+000 3.009660e+000 2.603472e+000 2.703241e+000 2.901384e+000 2.795699e+000 2.264799e+000 1.906537e+000 1.789198e+000 2.980222e+000
<GCONST> 1.090549e+002
<STATE> 4
<MEAN> 25
 1.565769e-007 -6.290797e-008 -2.937665e-007 -4.371385e-008 5.392831e-009 -1.134847e-007 1.048326e-008 1.461609e-009 6.497437e-008 2.474654e-008 2.793856e-008 3.496100e-008 6.361995e-003 4.308552e-003 2.542655e-003 -9.878381e-004 4.629357e-004 7.091404e-004 -2.578934e-003 -6.028318e-003 -4.543920e-003 -2.417521e-003 -2.678531e-003 -6.849539e-003 3.474661e-003
<VARIANCE> 25
 1.482363e+002 1.186289e+002 1.358767e+002 1.150533e+002 6.856859e+001 5.959438e+001 5.340210e+001 5.644455e+001 5.966214e+001 3.805057e+001 3.493165e+001 2.775295e+001 2.220379e+000 3.354012e+000 3.076584e+000 3.783211e+000 3.009660e+000 2.603472e+000 2.703241e+000 2.901384e+000 2.795699e+000 2.264799e+000 1.906537e+000 1.789198e+000 2.980222e+000
<GCONST> 1.090549e+002
<TRANSP> 5
 0.000000e+000 1.000000e+000 0.000000e+000 0.000000e+000 0.000000e+000
 0.000000e+000 6.000000e-001 4.000000e-001 0.000000e+000 0.000000e+000
 0.000000e+000 0.000000e+000 6.000000e-001 4.000000e-001 0.000000e+000
 0.000000e+000 0.000000e+000 0.000000e+000 7.000000e-001 3.000000e-001
 0.000000e+000 0.000000e+000 0.000000e+000 0.000000e+000 0.000000e+000
<ENDHMM>
~h "e"
<BEGINHMM>
<NUMSTATES> 5
<STATE> 2
<MEAN> 25
 1.565769e-007 -6.290797e-008 -2.937665e-007 -4.371385e-008 5.392831e-009 -1.134847e-007 1.048326e-008 1.461609e-009 6.497437e-008 2.474654e-008 2.793856e-008 3.496100e-008 6.361995e-003 4.308552e-003 2.542655e-003 -9.878381e-004 4.629357e-004 7.091404e-004 -2.578934e-003 -6.028318e-003 -4.543920e-003 -2.417521e-003 -2.678531e-003 -6.849539e-003 3.474661e-003
<VARIANCE> 25
 1.482363e+002 1.186289e+002 1.358767e+002 1.150533e+002 6.856859e+001 5.959438e+001 5.340210e+001 5.644455e+001 5.966214e+001 3.805057e+001 3.493165e+001 2.775295e+001 2.220379e+000 3.354012e+000 3.076584e+000 3.783211e+000 3.009660e+000 2.603472e+000 2.703241e+000 2.901384e+000 2.795699e+000 2.264799e+000 1.906537e+000 1.789198e+000 2.980222e+000
<GCONST> 1.090549e+002
<STATE> 3
<MEAN> 25
 1.565769e-007 -6.290797e-008 -2.937665e-007 -4.371385e-008 5.392831e-009 -1.134847e-007 1.048326e-008 1.461609e-009 6.497437e-008 2.474654e-008 2.793856e-008 3.496100e-008 6.361995e-003 4.308552e-003 2.542655e-003 -9.878381e-004 4.629357e-004 7.091404e-004 -2.578934e-003 -6.028318e-003 -4.543920e-003 -2.417521e-003 -2.678531e-003 -6.849539e-003 3.474661e-003
<VARIANCE> 25
 1.482363e+002 1.186289e+002 1.358767e+002 1.150533e+002 6.856859e+001 5.959438e+001 5.340210e+001 5.644455e+001 5.966214e+001 3.805057e+001 3.493165e+001 2.775295e+001 2.220379e+000 3.354012e+000 3.076584e+000 3.783211e+000 3.009660e+000 2.603472e+000 2.703241e+000 2.901384e+000 2.795699e+000 2.264799e+000 1.906537e+000 1.789198e+000 2.980222e+000
<GCONST> 1.090549e+002
<STATE> 4
<MEAN> 25
 1.565769e-007 -6.290797e-008 -2.937665e-007 -4.371385e-008 5.392831e-009 -1.134847e-007 1.048326e-008 1.461609e-009 6.497437e-008 2.474654e-008 2.793856e-008 3.496100e-008 6.361995e-003 4.308552e-003 2.542655e-003 -9.878381e-004 4.629357e-004 7.091404e-004 -2.578934e-003 -6.028318e-003 -4.543920e-003 -2.417521e-003 -2.678531e-003 -6.849539e-003 3.474661e-003
<VARIANCE> 25
 1.482363e+002 1.186289e+002 1.358767e+002 1.150533e+002 6.856859e+001 5.959438e+001 5.340210e+001 5.644455e+001 5.966214e+001 3.805057e+001 3.493165e+001 2.775295e+001 2.220379e+000 3.354012e+000 3.076584e+000 3.783211e+000 3.009660e+000 2.603472e+000 2.703241e+000 2.901384e+000 2.795699e+000 2.264799e+000 1.906537e+000 1.789198e+000 2.980222e+000
<GCONST> 1.090549e+002
<TRANSP> 5
 0.000000e+000 1.000000e+000 0.000000e+000 0.000000e+000 0.000000e+000
 0.000000e+000 6.000000e-001 4.000000e-001 0.000000e+000 0.000000e+000
 0.000000e+000 0.000000e+000 6.000000e-001 4.000000e-001 0.000000e+000
 0.000000e+000 0.000000e+000 0.000000e+000 7.000000e-001 3.000000e-001
 0.000000e+000 0.000000e+000 0.000000e+000 0.000000e+000 0.000000e+000
<ENDHMM>
~h "g"
<BEGINHMM>
<NUMSTATES> 5
<STATE> 2
<MEAN> 25
 1.565769e-007 -6.290797e-008 -2.937665e-007 -4.371385e-008 5.392831e-009 -1.134847e-007 1.048326e-008 1.461609e-009 6.497437e-008 2.474654e-008 2.793856e-008 3.496100e-008 6.361995e-003 4.308552e-003 2.542655e-003 -9.878381e-004 4.629357e-004 7.091404e-004 -2.578934e-003 -6.028318e-003 -4.543920e-003 -2.417521e-003 -2.678531e-003 -6.849539e-003 3.474661e-003
<VARIANCE> 25
 1.482363e+002 1.186289e+002 1.358767e+002 1.150533e+002 6.856859e+001 5.959438e+001 5.340210e+001 5.644455e+001 5.966214e+001 3.805057e+001 3.493165e+001 2.775295e+001 2.220379e+000 3.354012e+000 3.076584e+000 3.783211e+000 3.009660e+000 2.603472e+000 2.703241e+000 2.901384e+000 2.795699e+000 2.264799e+000 1.906537e+000 1.789198e+000 2.980222e+000
<GCONST> 1.090549e+002
<STATE> 3
<MEAN> 25
 1.565769e-007 -6.290797e-008 -2.937665e-007 -4.371385e-008 5.392831e-009 -1.134847e-007 1.048326e-008 1.461609e-009 6.497437e-008 2.474654e-008 2.793856e-008 3.496100e-008 6.361995e-003 4.308552e-003 2.542655e-003 -9.878381e-004 4.629357e-004 7.091404e-004 -2.578934e-003 -6.028318e-003 -4.543920e-003 -2.417521e-003 -2.678531e-003 -6.849539e-003 3.474661e-003
<VARIANCE> 25
 1.482363e+002 1.186289e+002 1.358767e+002 1.150533e+002 6.856859e+001 5.959438e+001 5.340210e+001 5.644455e+001 5.966214e+001 3.805057e+001 3.493165e+001 2.775295e+001 2.220379e+000 3.354012e+000 3.076584e+000 3.783211e+000 3.009660e+000 2.603472e+000 2.703241e+000 2.901384e+000 2.795699e+000 2.264799e+000 1.906537e+000 1.789198e+000 2.980222e+000
<GCONST> 1.090549e+002
<STATE> 4
<MEAN> 25
 1.565769e-007 -6.290797e-008 -2.937665e-007 -4.371385e-008 5.392831e-009 -1.134847e-007 1.048326e-008 1.461609e-009 6.497437e-008 2.474654e-008 2.793856e-008 3.496100e-008 6.361995e-003 4.308552e-003 2.542655e-003 -9.878381e-004 4.629357e-004 7.091404e-004 -2.578934e-003 -6.028318e-003 -4.543920e-003 -2.417521e-003 -2.678531e-003 -6.849539e-003 3.474661e-003
<VARIANCE> 25
 1.482363e+002 1.186289e+002 1.358767e+002 1.150533e+002 6.856859e+001 5.959438e+001 5.340210e+001 5.644455e+001 5.966214e+001 3.805057e+001 3.493165e+001 2.775295e+001 2.220379e+000 3.354012e+000 3.076584e+000 3.783211e+000 3.009660e+000 2.603472e+000 2.703241e+000 2.901384e+000 2.795699e+000 2.264799e+000 1.906537e+000 1.789198e+000 2.980222e+000
<GCONST> 1.090549e+002
<TRANSP> 5
 0.000000e+000 1.000000e+000 0.000000e+000 0.000000e+000 0.000000e+000
 0.000000e+000 6.000000e-001 4.000000e-001 0.000000e+000 0.000000e+000
 0.000000e+000 0.000000e+000 6.000000e-001 4.000000e-001 0.000000e+000
 0.000000e+000 0.000000e+000 0.000000e+000 7.000000e-001 3.000000e-001
 0.000000e+000 0.000000e+000 0.000000e+000 0.000000e+000 0.000000e+000
<ENDHMM>
~h "w"
<BEGINHMM>
<NUMSTATES> 5
<STATE> 2
<MEAN> 25
 1.565769e-007 -6.290797e-008 -2.937665e-007 -4.371385e-008 5.392831e-009 -1.134847e-007 1.048326e-008 1.461609e-009 6.497437e-008 2.474654e-008 2.793856e-008 3.496100e-008 6.361995e-003 4.308552e-003 2.542655e-003 -9.878381e-004 4.629357e-004 7.091404e-004 -2.578934e-003 -6.028318e-003 -4.543920e-003 -2.417521e-003 -2.678531e-003 -6.849539e-003 3.474661e-003
<VARIANCE> 25
 1.482363e+002 1.186289e+002 1.358767e+002 1.150533e+002 6.856859e+001 5.959438e+001 5.340210e+001 5.644455e+001 5.966214e+001 3.805057e+001 3.493165e+001 2.775295e+001 2.220379e+000 3.354012e+000 3.076584e+000 3.783211e+000 3.009660e+000 2.603472e+000 2.703241e+000 2.901384e+000 2.795699e+000 2.264799e+000 1.906537e+000 1.789198e+000 2.980222e+000
<GCONST> 1.090549e+002
<STATE> 3
<MEAN> 25
 1.565769e-007 -6.290797e-008 -2.937665e-007 -4.371385e-008 5.392831e-009 -1.134847e-007 1.048326e-008 1.461609e-009 6.497437e-008 2.474654e-008 2.793856e-008 3.496100e-008 6.361995e-003 4.308552e-003 2.542655e-003 -9.878381e-004 4.629357e-004 7.091404e-004 -2.578934e-003 -6.028318e-003 -4.543920e-003 -2.417521e-003 -2.678531e-003 -6.849539e-003 3.474661e-003
<VARIANCE> 25
 1.482363e+002 1.186289e+002 1.358767e+002 1.150533e+002 6.856859e+001 5.959438e+001 5.340210e+001 5.644455e+001 5.966214e+001 3.805057e+001 3.493165e+001 2.775295e+001 2.220379e+000 3.354012e+000 3.076584e+000 3.783211e+000 3.009660e+000 2.603472e+000 2.703241e+000 2.901384e+000 2.795699e+000 2.264799e+000 1.906537e+000 1.789198e+000 2.980222e+000
<GCONST> 1.090549e+002
<STATE> 4
<MEAN> 25
 1.565769e-007 -6.290797e-008 -2.937665e-007 -4.371385e-008 5.392831e-009 -1.134847e-007 1.048326e-008 1.461609e-009 6.497437e-008 2.474654e-008 2.793856e-008 3.496100e-008 6.361995e-003 4.308552e-003 2.542655e-003 -9.878381e-004 4.629357e-004 7.091404e-004 -2.578934e-003 -6.028318e-003 -4.543920e-003 -2.417521e-003 -2.678531e-003 -6.849539e-003 3.474661e-003
<VARIANCE> 25
 1.482363e+002 1.186289e+002 1.358767e+002 1.150533e+002 6.856859e+001 5.959438e+001 5.340210e+001 5.644455e+001 5.966214e+001 3.805057e+001 3.493165e+001 2.775295e+001 2.220379e+000 3.354012e+000 3.076584e+000 3.783211e+000 3.009660e+000 2.603472e+000 2.703241e+000 2.901384e+000 2.795699e+000 2.264799e+000 1.906537e+000 1.789198e+000 2.980222e+000
<GCONST> 1.090549e+002
<TRANSP> 5
 0.000000e+000 1.000000e+000 0.000000e+000 0.000000e+000 0.000000e+000
 0.000000e+000 6.000000e-001 4.000000e-001 0.000000e+000 0.000000e+000
 0.000000e+000 0.000000e+000 6.000000e-001 4.000000e-001 0.000000e+000
 0.000000e+000 0.000000e+000 0.000000e+000 7.000000e-001 3.000000e-001
 0.000000e+000 0.000000e+000 0.000000e+000 0.000000e+000 0.000000e+000
<ENDHMM>
~h "j"
<BEGINHMM>
<NUMSTATES> 5
<STATE> 2
<MEAN> 25
 1.565769e-007 -6.290797e-008 -2.937665e-007 -4.371385e-008 5.392831e-009 -1.134847e-007 1.048326e-008 1.461609e-009 6.497437e-008 2.474654e-008 2.793856e-008 3.496100e-008 6.361995e-003 4.308552e-003 2.542655e-003 -9.878381e-004 4.629357e-004 7.091404e-004 -2.578934e-003 -6.028318e-003 -4.543920e-003 -2.417521e-003 -2.678531e-003 -6.849539e-003 3.474661e-003
<VARIANCE> 25
 1.482363e+002 1.186289e+002 1.358767e+002 1.150533e+002 6.856859e+001 5.959438e+001 5.340210e+001 5.644455e+001 5.966214e+001 3.805057e+001 3.493165e+001 2.775295e+001 2.220379e+000 3.354012e+000 3.076584e+000 3.783211e+000 3.009660e+000 2.603472e+000 2.703241e+000 2.901384e+000 2.795699e+000 2.264799e+000 1.906537e+000 1.789198e+000 2.980222e+000
<GCONST> 1.090549e+002
<STATE> 3
<MEAN> 25
 1.565769e-007 -6.290797e-008 -2.937665e-007 -4.371385e-008 5.392831e-009 -1.134847e-007 1.048326e-008 1.461609e-009 6.497437e-008 2.474654e-008 2.793856e-008 3.496100e-008 6.361995e-003 4.308552e-003 2.542655e-003 -9.878381e-004 4.629357e-004 7.091404e-004 -2.578934e-003 -6.028318e-003 -4.543920e-003 -2.417521e-003 -2.678531e-003 -6.849539e-003 3.474661e-003
<VARIANCE> 25
 1.482363e+002 1.186289e+002 1.358767e+002 1.150533e+002 6.856859e+001 5.959438e+001 5.340210e+001 5.644455e+001 5.966214e+001 3.805057e+001 3.493165e+001 2.775295e+001 2.220379e+000 3.354012e+000 3.076584e+000 3.783211e+000 3.009660e+000 2.603472e+000 2.703241e+000 2.901384e+000 2.795699e+000 2.264799e+000 1.906537e+000 1.789198e+000 2.980222e+000
<GCONST> 1.090549e+002
<STATE> 4
<MEAN> 25
 1.565769e-007 -6.290797e-008 -2.937665e-007 -4.371385e-008 5.392831e-009 -1.134847e-007 1.048326e-008 1.461609e-009 6.497437e-008 2.474654e-008 2.793856e-008 3.496100e-008 6.361995e-003 4.308552e-003 2.542655e-003 -9.878381e-004 4.629357e-004 7.091404e-004 -2.578934e-003 -6.028318e-003 -4.543920e-003 -2.417521e-003 -2.678531e-003 -6.849539e-003 3.474661e-003
<VARIANCE> 25
 1.482363e+002 1.186289e+002 1.358767e+002 1.150533e+002 6.856859e+001 5.959438e+001 5.340210e+001 5.644455e+001 5.966214e+001 3.805057e+001 3.493165e+001 2.775295e+001 2.220379e+000 3.354012e+000 3.076584e+000 3.783211e+000 3.009660e+000 2.603472e+000 2.703241e+000 2.901384e+000 2.795699e+000 2.264799e+000 1.906537e+000 1.789198e+000 2.980222e+000
<GCONST> 1.090549e+002
<TRANSP> 5
 0.000000e+000 1.000000e+000 0.000000e+000 0.000000e+000 0.000000e+000
 0.000000e+000 6.000000e-001 4.000000e-001 0.000000e+000 0.000000e+000
 0.000000e+000 0.000000e+000 6.000000e-001 4.000000e-001 0.000000e+000
 0.000000e+000 0.000000e+000 0.000000e+000 7.000000e-001 3.000000e-001
 0.000000e+000 0.000000e+000 0.000000e+000 0.000000e+000 0.000000e+000
<ENDHMM>
~h "r"
<BEGINHMM>
<NUMSTATES> 5
<STATE> 2
<MEAN> 25
 1.565769e-007 -6.290797e-008 -2.937665e-007 -4.371385e-008 5.392831e-009 -1.134847e-007 1.048326e-008 1.461609e-009 6.497437e-008 2.474654e-008 2.793856e-008 3.496100e-008 6.361995e-003 4.308552e-003 2.542655e-003 -9.878381e-004 4.629357e-004 7.091404e-004 -2.578934e-003 -6.028318e-003 -4.543920e-003 -2.417521e-003 -2.678531e-003 -6.849539e-003 3.474661e-003
<VARIANCE> 25
 1.482363e+002 1.186289e+002 1.358767e+002 1.150533e+002 6.856859e+001 5.959438e+001 5.340210e+001 5.644455e+001 5.966214e+001 3.805057e+001 3.493165e+001 2.775295e+001 2.220379e+000 3.354012e+000 3.076584e+000 3.783211e+000 3.009660e+000 2.603472e+000 2.703241e+000 2.901384e+000 2.795699e+000 2.264799e+000 1.906537e+000 1.789198e+000 2.980222e+000
<GCONST> 1.090549e+002
<STATE> 3
<MEAN> 25
 1.565769e-007 -6.290797e-008 -2.937665e-007 -4.371385e-008 5.392831e-009 -1.134847e-007 1.048326e-008 1.461609e-009 6.497437e-008 2.474654e-008 2.793856e-008 3.496100e-008 6.361995e-003 4.308552e-003 2.542655e-003 -9.878381e-004 4.629357e-004 7.091404e-004 -2.578934e-003 -6.028318e-003 -4.543920e-003 -2.417521e-003 -2.678531e-003 -6.849539e-003 3.474661e-003
<VARIANCE> 25
 1.482363e+002 1.186289e+002 1.358767e+002 1.150533e+002 6.856859e+001 5.959438e+001 5.340210e+001 5.644455e+001 5.966214e+001 3.805057e+001 3.493165e+001 2.775295e+001 2.220379e+000 3.354012e+000 3.076584e+000 3.783211e+000 3.009660e+000 2.603472e+000 2.703241e+000 2.901384e+000 2.795699e+000 2.264799e+000 1.906537e+000 1.789198e+000 2.980222e+000
<GCONST> 1.090549e+002
<STATE> 4
<MEAN> 25
 1.565769e-007 -6.290797e-008 -2.937665e-007 -4.371385e-008 5.392831e-009 -1.134847e-007 1.048326e-008 1.461609e-009 6.497437e-008 2.474654e-008 2.793856e-008 3.496100e-008 6.361995e-003 4.308552e-003 2.542655e-003 -9.878381e-004 4.629357e-004 7.091404e-004 -2.578934e-003 -6.028318e-003 -4.543920e-003 -2.417521e-003 -2.678531e-003 -6.849539e-003 3.474661e-003
<VARIANCE> 25
 1.482363e+002 1.186289e+002 1.358767e+002 1.150533e+002 6.856859e+001 5.959438e+001 5.340210e+001 5.644455e+001 5.966214e+001 3.805057e+001 3.493165e+001 2.775295e+001 2.220379e+000 3.354012e+000 3.076584e+000 3.783211e+000 3.009660e+000 2.603472e+000 2.703241e+000 2.901384e+000 2.795699e+000 2.264799e+000 1.906537e+000 1.789198e+000 2.980222e+000
<GCONST> 1.090549e+002
<TRANSP> 5
 0.000000e+000 1.000000e+000 0.000000e+000 0.000000e+000 0.000000e+000
 0.000000e+000 6.000000e-001 4.000000e-001 0.000000e+000 0.000000e+000
 0.000000e+000 0.000000e+000 6.000000e-001 4.000000e-001 0.000000e+000
 0.000000e+000 0.000000e+000 0.000000e+000 7.000000e-001 3.000000e-001
 0.000000e+000 0.000000e+000 0.000000e+000 0.000000e+000 0.000000e+000
<ENDHMM>
~h "u"
<BEGINHMM>
<NUMSTATES> 5
<STATE> 2
<MEAN> 25
 1.565769e-007 -6.290797e-008 -2.937665e-007 -4.371385e-008 5.392831e-009 -1.134847e-007 1.048326e-008 1.461609e-009 6.497437e-008 2.474654e-008 2.793856e-008 3.496100e-008 6.361995e-003 4.308552e-003 2.542655e-003 -9.878381e-004 4.629357e-004 7.091404e-004 -2.578934e-003 -6.028318e-003 -4.543920e-003 -2.417521e-003 -2.678531e-003 -6.849539e-003 3.474661e-003
<VARIANCE> 25
 1.482363e+002 1.186289e+002 1.358767e+002 1.150533e+002 6.856859e+001 5.959438e+001 5.340210e+001 5.644455e+001 5.966214e+001 3.805057e+001 3.493165e+001 2.775295e+001 2.220379e+000 3.354012e+000 3.076584e+000 3.783211e+000 3.009660e+000 2.603472e+000 2.703241e+000 2.901384e+000 2.795699e+000 2.264799e+000 1.906537e+000 1.789198e+000 2.980222e+000
<GCONST> 1.090549e+002
<STATE> 3
<MEAN> 25
 1.565769e-007 -6.290797e-008 -2.937665e-007 -4.371385e-008 5.392831e-009 -1.134847e-007 1.048326e-008 1.461609e-009 6.497437e-008 2.474654e-008 2.793856e-008 3.496100e-008 6.361995e-003 4.308552e-003 2.542655e-003 -9.878381e-004 4.629357e-004 7.091404e-004 -2.578934e-003 -6.028318e-003 -4.543920e-003 -2.417521e-003 -2.678531e-003 -6.849539e-003 3.474661e-003
<VARIANCE> 25
 1.482363e+002 1.186289e+002 1.358767e+002 1.150533e+002 6.856859e+001 5.959438e+001 5.340210e+001 5.644455e+001 5.966214e+001 3.805057e+001 3.493165e+001 2.775295e+001 2.220379e+000 3.354012e+000 3.076584e+000 3.783211e+000 3.009660e+000 2.603472e+000 2.703241e+000 2.901384e+000 2.795699e+000 2.264799e+000 1.906537e+000 1.789198e+000 2.980222e+000
<GCONST> 1.090549e+002
<STATE> 4
<MEAN> 25
 1.565769e-007 -6.290797e-008 -2.937665e-007 -4.371385e-008 5.392831e-009 -1.134847e-007 1.048326e-008 1.461609e-009 6.497437e-008 2.474654e-008 2.793856e-008 3.496100e-008 6.361995e-003 4.308552e-003 2.542655e-003 -9.878381e-004 4.629357e-004 7.091404e-004 -2.578934e-003 -6.028318e-003 -4.543920e-003 -2.417521e-003 -2.678531e-003 -6.849539e-003 3.474661e-003
<VARIANCE> 25
 1.482363e+002 1.186289e+002 1.358767e+002 1.150533e+002 6.856859e+001 5.959438e+001 5.340210e+001 5.644455e+001 5.966214e+001 3.805057e+001 3.493165e+001 2.775295e+001 2.220379e+000 3.354012e+000 3.076584e+000 3.783211e+000 3.009660e+000 2.603472e+000 2.703241e+000 2.901384e+000 2.795699e+000 2.264799e+000 1.906537e+000 1.789198e+000 2.980222e+000
<GCONST> 1.090549e+002
<TRANSP> 5
 0.000000e+000 1.000000e+000 0.000000e+000 0.000000e+000 0.000000e+000
 0.000000e+000 6.000000e-001 4.000000e-001 0.000000e+000 0.000000e+000
 0.000000e+000 0.000000e+000 6.000000e-001 4.000000e-001 0.000000e+000
 0.000000e+000 0.000000e+000 0.000000e+000 7.000000e-001 3.000000e-001
 0.000000e+000 0.000000e+000 0.000000e+000 0.000000e+000 0.000000e+000
<ENDHMM>
~h "c"
<BEGINHMM>
<NUMSTATES> 5
<STATE> 2
<MEAN> 25
 1.565769e-007 -6.290797e-008 -2.937665e-007 -4.371385e-008 5.392831e-009 -1.134847e-007 1.048326e-008 1.461609e-009 6.497437e-008 2.474654e-008 2.793856e-008 3.496100e-008 6.361995e-003 4.308552e-003 2.542655e-003 -9.878381e-004 4.629357e-004 7.091404e-004 -2.578934e-003 -6.028318e-003 -4.543920e-003 -2.417521e-003 -2.678531e-003 -6.849539e-003 3.474661e-003
<VARIANCE> 25
 1.482363e+002 1.186289e+002 1.358767e+002 1.150533e+002 6.856859e+001 5.959438e+001 5.340210e+001 5.644455e+001 5.966214e+001 3.805057e+001 3.493165e+001 2.775295e+001 2.220379e+000 3.354012e+000 3.076584e+000 3.783211e+000 3.009660e+000 2.603472e+000 2.703241e+000 2.901384e+000 2.795699e+000 2.264799e+000 1.906537e+000 1.789198e+000 2.980222e+000
<GCONST> 1.090549e+002
<STATE> 3
<MEAN> 25
 1.565769e-007 -6.290797e-008 -2.937665e-007 -4.371385e-008 5.392831e-009 -1.134847e-007 1.048326e-008 1.461609e-009 6.497437e-008 2.474654e-008 2.793856e-008 3.496100e-008 6.361995e-003 4.308552e-003 2.542655e-003 -9.878381e-004 4.629357e-004 7.091404e-004 -2.578934e-003 -6.028318e-003 -4.543920e-003 -2.417521e-003 -2.678531e-003 -6.849539e-003 3.474661e-003
<VARIANCE> 25
 1.482363e+002 1.186289e+002 1.358767e+002 1.150533e+002 6.856859e+001 5.959438e+001 5.340210e+001 5.644455e+001 5.966214e+001 3.805057e+001 3.493165e+001 2.775295e+001 2.220379e+000 3.354012e+000 3.076584e+000 3.783211e+000 3.009660e+000 2.603472e+000 2.703241e+000 2.901384e+000 2.795699e+000 2.264799e+000 1.906537e+000 1.789198e+000 2.980222e+000
<GCONST> 1.090549e+002
<STATE> 4
<MEAN> 25
 1.565769e-007 -6.290797e-008 -2.937665e-007 -4.371385e-008 5.392831e-009 -1.134847e-007 1.048326e-008 1.461609e-009 6.497437e-008 2.474654e-008 2.793856e-008 3.496100e-008 6.361995e-003 4.308552e-003 2.542655e-003 -9.878381e-004 4.629357e-004 7.091404e-004 -2.578934e-003 -6.028318e-003 -4.543920e-003 -2.417521e-003 -2.678531e-003 -6.849539e-003 3.474661e-003
<VARIANCE> 25
 1.482363e+002 1.186289e+002 1.358767e+002 1.150533e+002 6.856859e+001 5.959438e+001 5.340210e+001 5.644455e+001 5.966214e+001 3.805057e+001 3.493165e+001 2.775295e+001 2.220379e+000 3.354012e+000 3.076584e+000 3.783211e+000 3.009660e+000 2.603472e+000 2.703241e+000 2.901384e+000 2.795699e+000 2.264799e+000 1.906537e+000 1.789198e+000 2.980222e+000
<GCONST> 1.090549e+002
<TRANSP> 5
 0.000000e+000 1.000000e+000 0.000000e+000 0.000000e+000 0.000000e+000
 0.000000e+000 6.000000e-001 4.000000e-001 0.000000e+000 0.000000e+000
 0.000000e+000 0.000000e+000 6.000000e-001 4.000000e-001 0.000000e+000
 0.000000e+000 0.000000e+000 0.000000e+000 7.000000e-001 3.000000e-001
 0.000000e+000 0.000000e+000 0.000000e+000 0.000000e+000 0.000000e+000
<ENDHMM>
~h "o"
<BEGINHMM>
<NUMSTATES> 5
<STATE> 2
<MEAN> 25
 1.565769e-007 -6.290797e-008 -2.937665e-007 -4.371385e-008 5.392831e-009 -1.134847e-007 1.048326e-008 1.461609e-009 6.497437e-008 2.474654e-008 2.793856e-008 3.496100e-008 6.361995e-003 4.308552e-003 2.542655e-003 -9.878381e-004 4.629357e-004 7.091404e-004 -2.578934e-003 -6.028318e-003 -4.543920e-003 -2.417521e-003 -2.678531e-003 -6.849539e-003 3.474661e-003
<VARIANCE> 25
 1.482363e+002 1.186289e+002 1.358767e+002 1.150533e+002 6.856859e+001 5.959438e+001 5.340210e+001 5.644455e+001 5.966214e+001 3.805057e+001 3.493165e+001 2.775295e+001 2.220379e+000 3.354012e+000 3.076584e+000 3.783211e+000 3.009660e+000 2.603472e+000 2.703241e+000 2.901384e+000 2.795699e+000 2.264799e+000 1.906537e+000 1.789198e+000 2.980222e+000
<GCONST> 1.090549e+002
<STATE> 3
<MEAN> 25
 1.565769e-007 -6.290797e-008 -2.937665e-007 -4.371385e-008 5.392831e-009 -1.134847e-007 1.048326e-008 1.461609e-009 6.497437e-008 2.474654e-008 2.793856e-008 3.496100e-008 6.361995e-003 4.308552e-003 2.542655e-003 -9.878381e-004 4.629357e-004 7.091404e-004 -2.578934e-003 -6.028318e-003 -4.543920e-003 -2.417521e-003 -2.678531e-003 -6.849539e-003 3.474661e-003
<VARIANCE> 25
 1.482363e+002 1.186289e+002 1.358767e+002 1.150533e+002 6.856859e+001 5.959438e+001 5.340210e+001 5.644455e+001 5.966214e+001 3.805057e+001 3.493165e+001 2.775295e+001 2.220379e+000 3.354012e+000 3.076584e+000 3.783211e+000 3.009660e+000 2.603472e+000 2.703241e+000 2.901384e+000 2.795699e+000 2.264799e+000 1.906537e+000 1.789198e+000 2.980222e+000
<GCONST> 1.090549e+002
<STATE> 4
<MEAN> 25
 1.565769e-007 -6.290797e-008 -2.937665e-007 -4.371385e-008 5.392831e-009 -1.134847e-007 1.048326e-008 1.461609e-009 6.497437e-008 2.474654e-008 2.793856e-008 3.496100e-008 6.361995e-003 4.308552e-003 2.542655e-003 -9.878381e-004 4.629357e-004 7.091404e-004 -2.578934e-003 -6.028318e-003 -4.543920e-003 -2.417521e-003 -2.678531e-003 -6.849539e-003 3.474661e-003
<VARIANCE> 25
 1.482363e+002 1.186289e+002 1.358767e+002 1.150533e+002 6.856859e+001 5.959438e+001 5.340210e+001 5.644455e+001 5.966214e+001 3.805057e+001 3.493165e+001 2.775295e+001 2.220379e+000 3.354012e+000 3.076584e+000 3.783211e+000 3.009660e+000 2.603472e+000 2.703241e+000 2.901384e+000 2.795699e+000 2.264799e+000 1.906537e+000 1.789198e+000 2.980222e+000
<GCONST> 1.090549e+002
<TRANSP> 5
 0.000000e+000 1.000000e+000 0.000000e+000 0.000000e+000 0.000000e+000
 0.000000e+000 6.000000e-001 4.000000e-001 0.000000e+000 0.000000e+000
 0.000000e+000 0.000000e+000 6.000000e-001 4.000000e-001 0.000000e+000
 0.000000e+000 0.000000e+000 0.000000e+000 7.000000e-001 3.000000e-001
 0.000000e+000 0.000000e+000 0.000000e+000 0.000000e+000 0.000000e+000
<ENDHMM>
~h "f"
<BEGINHMM>
<NUMSTATES> 5
<STATE> 2
<MEAN> 25
 1.565769e-007 -6.290797e-008 -2.937665e-007 -4.371385e-008 5.392831e-009 -1.134847e-007 1.048326e-008 1.461609e-009 6.497437e-008 2.474654e-008 2.793856e-008 3.496100e-008 6.361995e-003 4.308552e-003 2.542655e-003 -9.878381e-004 4.629357e-004 7.091404e-004 -2.578934e-003 -6.028318e-003 -4.543920e-003 -2.417521e-003 -2.678531e-003 -6.849539e-003 3.474661e-003
<VARIANCE> 25
 1.482363e+002 1.186289e+002 1.358767e+002 1.150533e+002 6.856859e+001 5.959438e+001 5.340210e+001 5.644455e+001 5.966214e+001 3.805057e+001 3.493165e+001 2.775295e+001 2.220379e+000 3.354012e+000 3.076584e+000 3.783211e+000 3.009660e+000 2.603472e+000 2.703241e+000 2.901384e+000 2.795699e+000 2.264799e+000 1.906537e+000 1.789198e+000 2.980222e+000
<GCONST> 1.090549e+002
<STATE> 3
<MEAN> 25
 1.565769e-007 -6.290797e-008 -2.937665e-007 -4.371385e-008 5.392831e-009 -1.134847e-007 1.048326e-008 1.461609e-009 6.497437e-008 2.474654e-008 2.793856e-008 3.496100e-008 6.361995e-003 4.308552e-003 2.542655e-003 -9.878381e-004 4.629357e-004 7.091404e-004 -2.578934e-003 -6.028318e-003 -4.543920e-003 -2.417521e-003 -2.678531e-003 -6.849539e-003 3.474661e-003
<VARIANCE> 25
 1.482363e+002 1.186289e+002 1.358767e+002 1.150533e+002 6.856859e+001 5.959438e+001 5.340210e+001 5.644455e+001 5.966214e+001 3.805057e+001 3.493165e+001 2.775295e+001 2.220379e+000 3.354012e+000 3.076584e+000 3.783211e+000 3.009660e+000 2.603472e+000 2.703241e+000 2.901384e+000 2.795699e+000 2.264799e+000 1.906537e+000 1.789198e+000 2.980222e+000
<GCONST> 1.090549e+002
<STATE> 4
<MEAN> 25
 1.565769e-007 -6.290797e-008 -2.937665e-007 -4.371385e-008 5.392831e-009 -1.134847e-007 1.048326e-008 1.461609e-009 6.497437e-008 2.474654e-008 2.793856e-008 3.496100e-008 6.361995e-003 4.308552e-003 2.542655e-003 -9.878381e-004 4.629357e-004 7.091404e-004 -2.578934e-003 -6.028318e-003 -4.543920e-003 -2.417521e-003 -2.678531e-003 -6.849539e-003 3.474661e-003
<VARIANCE> 25
 1.482363e+002 1.186289e+002 1.358767e+002 1.150533e+002 6.856859e+001 5.959438e+001 5.340210e+001 5.644455e+001 5.966214e+001 3.805057e+001 3.493165e+001 2.775295e+001 2.220379e+000 3.354012e+000 3.076584e+000 3.783211e+000 3.009660e+000 2.603472e+000 2.703241e+000 2.901384e+000 2.795699e+000 2.264799e+000 1.906537e+000 1.789198e+000 2.980222e+000
<GCONST> 1.090549e+002
<TRANSP> 5
 0.000000e+000 1.000000e+000 0.000000e+000 0.000000e+000 0.000000e+000
 0.000000e+000 6.000000e-001 4.000000e-001 0.000000e+000 0.000000e+000
 0.000000e+000 0.000000e+000 6.000000e-001 4.000000e-001 0.000000e+000
 0.000000e+000 0.000000e+000 0.000000e+000 7.000000e-001 3.000000e-001
 0.000000e+000 0.000000e+000 0.000000e+000 0.000000e+000 0.000000e+000
<ENDHMM>
~h "eh"
<BEGINHMM>
<NUMSTATES> 5
<STATE> 2
<MEAN> 25
 1.565769e-007 -6.290797e-008 -2.937665e-007 -4.371385e-008 5.392831e-009 -1.134847e-007 1.048326e-008 1.461609e-009 6.497437e-008 2.474654e-008 2.793856e-008 3.496100e-008 6.361995e-003 4.308552e-003 2.542655e-003 -9.878381e-004 4.629357e-004 7.091404e-004 -2.578934e-003 -6.028318e-003 -4.543920e-003 -2.417521e-003 -2.678531e-003 -6.849539e-003 3.474661e-003
<VARIANCE> 25
 1.482363e+002 1.186289e+002 1.358767e+002 1.150533e+002 6.856859e+001 5.959438e+001 5.340210e+001 5.644455e+001 5.966214e+001 3.805057e+001 3.493165e+001 2.775295e+001 2.220379e+000 3.354012e+000 3.076584e+000 3.783211e+000 3.009660e+000 2.603472e+000 2.703241e+000 2.901384e+000 2.795699e+000 2.264799e+000 1.906537e+000 1.789198e+000 2.980222e+000
<GCONST> 1.090549e+002
<STATE> 3
<MEAN> 25
 1.565769e-007 -6.290797e-008 -2.937665e-007 -4.371385e-008 5.392831e-009 -1.134847e-007 1.048326e-008 1.461609e-009 6.497437e-008 2.474654e-008 2.793856e-008 3.496100e-008 6.361995e-003 4.308552e-003 2.542655e-003 -9.878381e-004 4.629357e-004 7.091404e-004 -2.578934e-003 -6.028318e-003 -4.543920e-003 -2.417521e-003 -2.678531e-003 -6.849539e-003 3.474661e-003
<VARIANCE> 25
 1.482363e+002 1.186289e+002 1.358767e+002 1.150533e+002 6.856859e+001 5.959438e+001 5.340210e+001 5.644455e+001 5.966214e+001 3.805057e+001 3.493165e+001 2.775295e+001 2.220379e+000 3.354012e+000 3.076584e+000 3.783211e+000 3.009660e+000 2.603472e+000 2.703241e+000 2.901384e+000 2.795699e+000 2.264799e+000 1.906537e+000 1.789198e+000 2.980222e+000
<GCONST> 1.090549e+002
<STATE> 4
<MEAN> 25
 1.565769e-007 -6.290797e-008 -2.937665e-007 -4.371385e-008 5.392831e-009 -1.134847e-007 1.048326e-008 1.461609e-009 6.497437e-008 2.474654e-008 2.793856e-008 3.496100e-008 6.361995e-003 4.308552e-003 2.542655e-003 -9.878381e-004 4.629357e-004 7.091404e-004 -2.578934e-003 -6.028318e-003 -4.543920e-003 -2.417521e-003 -2.678531e-003 -6.849539e-003 3.474661e-003
<VARIANCE> 25
 1.482363e+002 1.186289e+002 1.358767e+002 1.150533e+002 6.856859e+001 5.959438e+001 5.340210e+001 5.644455e+001 5.966214e+001 3.805057e+001 3.493165e+001 2.775295e+001 2.220379e+000 3.354012e+000 3.076584e+000 3.783211e+000 3.009660e+000 2.603472e+000 2.703241e+000 2.901384e+000 2.795699e+000 2.264799e+000 1.906537e+000 1.789198e+000 2.980222e+000
<GCONST> 1.090549e+002
<TRANSP> 5
 0.000000e+000 1.000000e+000 0.000000e+000 0.000000e+000 0.000000e+000
 0.000000e+000 6.000000e-001 4.000000e-001 0.000000e+000 0.000000e+000
 0.000000e+000 0.000000e+000 6.000000e-001 4.000000e-001 0.000000e+000
 0.000000e+000 0.000000e+000 0.000000e+000 7.000000e-001 3.000000e-001
 0.000000e+000 0.000000e+000 0.000000e+000 0.000000e+000 0.000000e+000
<ENDHMM>
~h "ay"
<BEGINHMM>
<NUMSTATES> 5
<STATE> 2
<MEAN> 25
 1.565769e-007 -6.290797e-008 -2.937665e-007 -4.371385e-008 5.392831e-009 -1.134847e-007 1.048326e-008 1.461609e-009 6.497437e-008 2.474654e-008 2.793856e-008 3.496100e-008 6.361995e-003 4.308552e-003 2.542655e-003 -9.878381e-004 4.629357e-004 7.091404e-004 -2.578934e-003 -6.028318e-003 -4.543920e-003 -2.417521e-003 -2.678531e-003 -6.849539e-003 3.474661e-003
<VARIANCE> 25
 1.482363e+002 1.186289e+002 1.358767e+002 1.150533e+002 6.856859e+001 5.959438e+001 5.340210e+001 5.644455e+001 5.966214e+001 3.805057e+001 3.493165e+001 2.775295e+001 2.220379e+000 3.354012e+000 3.076584e+000 3.783211e+000 3.009660e+000 2.603472e+000 2.703241e+000 2.901384e+000 2.795699e+000 2.264799e+000 1.906537e+000 1.789198e+000 2.980222e+000
<GCONST> 1.090549e+002
<STATE> 3
<MEAN> 25
 1.565769e-007 -6.290797e-008 -2.937665e-007 -4.371385e-008 5.392831e-009 -1.134847e-007 1.048326e-008 1.461609e-009 6.497437e-008 2.474654e-008 2.793856e-008 3.496100e-008 6.361995e-003 4.308552e-003 2.542655e-003 -9.878381e-004 4.629357e-004 7.091404e-004 -2.578934e-003 -6.028318e-003 -4.543920e-003 -2.417521e-003 -2.678531e-003 -6.849539e-003 3.474661e-003
<VARIANCE> 25
 1.482363e+002 1.186289e+002 1.358767e+002 1.150533e+002 6.856859e+001 5.959438e+001 5.340210e+001 5.644455e+001 5.966214e+001 3.805057e+001 3.493165e+001 2.775295e+001 2.220379e+000 3.354012e+000 3.076584e+000 3.783211e+000 3.009660e+000 2.603472e+000 2.703241e+000 2.901384e+000 2.795699e+000 2.264799e+000 1.906537e+000 1.789198e+000 2.980222e+000
<GCONST> 1.090549e+002
<STATE> 4
<MEAN> 25
 1.565769e-007 -6.290797e-008 -2.937665e-007 -4.371385e-008 5.392831e-009 -1.134847e-007 1.048326e-008 1.461609e-009 6.497437e-008 2.474654e-008 2.793856e-008 3.496100e-008 6.361995e-003 4.308552e-003 2.542655e-003 -9.878381e-004 4.629357e-004 7.091404e-004 -2.578934e-003 -6.028318e-003 -4.543920e-003 -2.417521e-003 -2.678531e-003 -6.849539e-003 3.474661e-003
<VARIANCE> 25
 1.482363e+002 1.186289e+002 1.358767e+002 1.150533e+002 6.856859e+001 5.959438e+001 5.340210e+001 5.644455e+001 5.966214e+001 3.805057e+001 3.493165e+001 2.775295e+001 2.220379e+000 3.354012e+000 3.076584e+000 3.783211e+000 3.009660e+000 2.603472e+000 2.703241e+000 2.901384e+000 2.795699e+000 2.264799e+000 1.906537e+000 1.789198e+000 2.980222e+000
<GCONST> 1.090549e+002
<TRANSP> 5
 0.000000e+000 1.000000e+000 0.000000e+000 0.000000e+000 0.000000e+000
 0.000000e+000 6.000000e-001 4.000000e-001 0.000000e+000 0.000000e+000
 0.000000e+000 0.000000e+000 6.000000e-001 4.000000e-001 0.000000e+000
 0.000000e+000 0.000000e+000 0.000000e+000 7.000000e-001 3.000000e-001
 0.000000e+000 0.000000e+000 0.000000e+000 0.000000e+000 0.000000e+000
<ENDHMM>
~h "y"
<BEGINHMM>
<NUMSTATES> 5
<STATE> 2
<MEAN> 25
 1.565769e-007 -6.290797e-008 -2.937665e-007 -4.371385e-008 5.392831e-009 -1.134847e-007 1.048326e-008 1.461609e-009 6.497437e-008 2.474654e-008 2.793856e-008 3.496100e-008 6.361995e-003 4.308552e-003 2.542655e-003 -9.878381e-004 4.629357e-004 7.091404e-004 -2.578934e-003 -6.028318e-003 -4.543920e-003 -2.417521e-003 -2.678531e-003 -6.849539e-003 3.474661e-003
<VARIANCE> 25
 1.482363e+002 1.186289e+002 1.358767e+002 1.150533e+002 6.856859e+001 5.959438e+001 5.340210e+001 5.644455e+001 5.966214e+001 3.805057e+001 3.493165e+001 2.775295e+001 2.220379e+000 3.354012e+000 3.076584e+000 3.783211e+000 3.009660e+000 2.603472e+000 2.703241e+000 2.901384e+000 2.795699e+000 2.264799e+000 1.906537e+000 1.789198e+000 2.980222e+000
<GCONST> 1.090549e+002
<STATE> 3
<MEAN> 25
 1.565769e-007 -6.290797e-008 -2.937665e-007 -4.371385e-008 5.392831e-009 -1.134847e-007 1.048326e-008 1.461609e-009 6.497437e-008 2.474654e-008 2.793856e-008 3.496100e-008 6.361995e-003 4.308552e-003 2.542655e-003 -9.878381e-004 4.629357e-004 7.091404e-004 -2.578934e-003 -6.028318e-003 -4.543920e-003 -2.417521e-003 -2.678531e-003 -6.849539e-003 3.474661e-003
<VARIANCE> 25
 1.482363e+002 1.186289e+002 1.358767e+002 1.150533e+002 6.856859e+001 5.959438e+001 5.340210e+001 5.644455e+001 5.966214e+001 3.805057e+001 3.493165e+001 2.775295e+001 2.220379e+000 3.354012e+000 3.076584e+000 3.783211e+000 3.009660e+000 2.603472e+000 2.703241e+000 2.901384e+000 2.795699e+000 2.264799e+000 1.906537e+000 1.789198e+000 2.980222e+000
<GCONST> 1.090549e+002
<STATE> 4
<MEAN> 25
 1.565769e-007 -6.290797e-008 -2.937665e-007 -4.371385e-008 5.392831e-009 -1.134847e-007 1.048326e-008 1.461609e-009 6.497437e-008 2.474654e-008 2.793856e-008 3.496100e-008 6.361995e-003 4.308552e-003 2.542655e-003 -9.878381e-004 4.629357e-004 7.091404e-004 -2.578934e-003 -6.028318e-003 -4.543920e-003 -2.417521e-003 -2.678531e-003 -6.849539e-003 3.474661e-003
<VARIANCE> 25
 1.482363e+002 1.186289e+002 1.358767e+002 1.150533e+002 6.856859e+001 5.959438e+001 5.340210e+001 5.644455e+001 5.966214e+001 3.805057e+001 3.493165e+001 2.775295e+001 2.220379e+000 3.354012e+000 3.076584e+000 3.783211e+000 3.009660e+000 2.603472e+000 2.703241e+000 2.901384e+000 2.795699e+000 2.264799e+000 1.906537e+000 1.789198e+000 2.980222e+000
<GCONST> 1.090549e+002
<TRANSP> 5
 0.000000e+000 1.000000e+000 0.000000e+000 0.000000e+000 0.000000e+000
 0.000000e+000 6.000000e-001 4.000000e-001 0.000000e+000 0.000000e+000
 0.000000e+000 0.000000e+000 6.000000e-001 4.000000e-001 0.000000e+000
 0.000000e+000 0.000000e+000 0.000000e+000 7.000000e-001 3.000000e-001
 0.000000e+000 0.000000e+000 0.000000e+000 0.000000e+000 0.000000e+000
<ENDHMM>
~h "sil"
<BEGINHMM>
<NUMSTATES> 5
<STATE> 2
<MEAN> 25
 1.565769e-007 -6.290797e-008 -2.937665e-007 -4.371385e-008 5.392831e-009 -1.134847e-007 1.048326e-008 1.461609e-009 6.497437e-008 2.474654e-008 2.793856e-008 3.496100e-008 6.361995e-003 4.308552e-003 2.542655e-003 -9.878381e-004 4.629357e-004 7.091404e-004 -2.578934e-003 -6.028318e-003 -4.543920e-003 -2.417521e-003 -2.678531e-003 -6.849539e-003 3.474661e-003
<VARIANCE> 25
 1.482363e+002 1.186289e+002 1.358767e+002 1.150533e+002 6.856859e+001 5.959438e+001 5.340210e+001 5.644455e+001 5.966214e+001 3.805057e+001 3.493165e+001 2.775295e+001 2.220379e+000 3.354012e+000 3.076584e+000 3.783211e+000 3.009660e+000 2.603472e+000 2.703241e+000 2.901384e+000 2.795699e+000 2.264799e+000 1.906537e+000 1.789198e+000 2.980222e+000
<GCONST> 1.090549e+002
<STATE> 3
<MEAN> 25
 1.565769e-007 -6.290797e-008 -2.937665e-007 -4.371385e-008 5.392831e-009 -1.134847e-007 1.048326e-008 1.461609e-009 6.497437e-008 2.474654e-008 2.793856e-008 3.496100e-008 6.361995e-003 4.308552e-003 2.542655e-003 -9.878381e-004 4.629357e-004 7.091404e-004 -2.578934e-003 -6.028318e-003 -4.543920e-003 -2.417521e-003 -2.678531e-003 -6.849539e-003 3.474661e-003
<VARIANCE> 25
 1.482363e+002 1.186289e+002 1.358767e+002 1.150533e+002 6.856859e+001 5.959438e+001 5.340210e+001 5.644455e+001 5.966214e+001 3.805057e+001 3.493165e+001 2.775295e+001 2.220379e+000 3.354012e+000 3.076584e+000 3.783211e+000 3.009660e+000 2.603472e+000 2.703241e+000 2.901384e+000 2.795699e+000 2.264799e+000 1.906537e+000 1.789198e+000 2.980222e+000
<GCONST> 1.090549e+002
<STATE> 4
<MEAN> 25
 1.565769e-007 -6.290797e-008 -2.937665e-007 -4.371385e-008 5.392831e-009 -1.134847e-007 1.048326e-008 1.461609e-009 6.497437e-008 2.474654e-008 2.793856e-008 3.496100e-008 6.361995e-003 4.308552e-003 2.542655e-003 -9.878381e-004 4.629357e-004 7.091404e-004 -2.578934e-003 -6.028318e-003 -4.543920e-003 -2.417521e-003 -2.678531e-003 -6.849539e-003 3.474661e-003
<VARIANCE> 25
 1.482363e+002 1.186289e+002 1.358767e+002 1.150533e+002 6.856859e+001 5.959438e+001 5.340210e+001 5.644455e+001 5.966214e+001 3.805057e+001 3.493165e+001 2.775295e+001 2.220379e+000 3.354012e+000 3.076584e+000 3.783211e+000 3.009660e+000 2.603472e+000 2.703241e+000 2.901384e+000 2.795699e+000 2.264799e+000 1.906537e+000 1.789198e+000 2.980222e+000
<GCONST> 1.090549e+002
<TRANSP> 5
 0.000000e+000 1.000000e+000 0.000000e+000 0.000000e+000 0.000000e+000
 0.000000e+000 6.000000e-001 4.000000e-001 0.000000e+000 0.000000e+000
 0.000000e+000 0.000000e+000 6.000000e-001 4.000000e-001 0.000000e+000
 0.000000e+000 0.000000e+000 0.000000e+000 7.000000e-001 3.000000e-001
 0.000000e+000 0.000000e+000 0.000000e+000 0.000000e+000 0.000000e+000
<ENDHMM>