~o
<STREAMINFO> 1 25
<VECSIZE> 25<NULLD><MFCC_D_N_Z_0><DIAGC>
~h "a"
<BEGINHMM>
<NUMSTATES> 5
<STATE> 2
<MEAN> 25
 9.743727e+000 -1.015810e+001 -1.605245e+000 -6.289470e+000 -5.559714e-001 3.862399e+000 2.098209e+000 6.245309e-003 2.114689e+000 2.064811e+000 -1.038451e+000 -3.161043e+000 2.182267e-001 -2.000510e+000 2.698780e-001 -8.347712e-001 7.854137e-001 2.924675e-001 2.754884e-001 7.939997e-001 1.168776e-001 -2.523451e-001 -7.090632e-001 -6.500223e-001 1.584609e+000
<VARIANCE> 25
 5.804660e+001 1.100564e+002 1.371606e+002 1.321080e+002 7.462146e+001 9.618088e+001 7.299632e+001 9.339665e+001 6.605389e+001 7.774012e+001 5.226868e+001 5.197605e+001 2.197008e+000 4.217901e+000 4.962383e+000 6.300357e+000 4.693010e+000 5.465477e+000 4.923546e+000 5.753483e+000 4.560201e+000 5.151129e+000 3.051311e+000 3.564642e+000 3.059748e+000
<GCONST> 1.175897e+002
<STATE> 3
<MEAN> 25
 1.068707e+001 -1.887669e+001 -1.729714e+000 -9.855402e+000 4.848858e+000 2.493103e+000 3.012441e+000 4.994581e+000 1.523549e+000 1.331528e+000 -4.850769e+000 -5.779755e+000 -1.468529e-001 -7.041789e-002 1.203188e-001 -4.806603e-002 2.188116e-001 -2.685455e-001 2.093356e-001 3.507888e-001 -3.350422e-001 -2.384042e-001 -1.262467e-001 1.459599e-001 -2.178670e-004
<VARIANCE> 25
 2.194780e+001 2.711825e+001 5.614743e+001 5.492102e+001 5.015583e+001 6.023467e+001 6.582972e+001 6.352448e+001 3.013857e+001 3.787829e+001 2.831052e+001 2.418595e+001 2.909731e-001 8.442641e-001 1.104771e+000 1.273103e+000 1.560846e+000 2.043528e+000 1.660272e+000 2.242727e+000 1.597281e+000 1.733673e+000 1.396016e+000 1.510694e+000 3.764614e-001
<GCONST> 9.249040e+001
<STATE> 4
<MEAN> 25
 5.830307e+000 -1.056001e+001 -1.284778e+000 -3.402405e+000 3.360808e+000 4.112956e-001 2.983355e+000 4.304558e+000 1.369248e+000 4.992559e-001 -4.258169e+000 -2.038678e+000 -6.620618e-001 1.487144e+000 3.747185e-001 1.374918e+000 -1.543746e-001 -1.405357e-001 -3.636380e-001 -4.619374e-001 -3.228277e-001 -7.393933e-002 2.204750e-001 6.178219e-001 -1.630314e+000
<VARIANCE> 25
 3.853846e+001 5.118713e+001 5.651839e+001 7.140652e+001 4.319008e+001 6.726691e+001 4.186932e+001 5.724589e+001 3.576474e+001 3.141271e+001 3.626825e+001 2.676813e+001 9.481813e-001 1.651120e+000 1.804978e+000 2.594123e+000 2.510416e+000 2.172399e+000 2.290093e+000 2.366950e+000 2.539093e+000 1.957381e+000 1.987277e+000 1.718797e+000 1.246267e+000
<GCONST> 9.992602e+001
<TRANSP> 5
 0.000000e+000 1.000000e+000 0.000000e+000 0.000000e+000 0.000000e+000
 0.000000e+000 6.849334e-001 3.150666e-001 0.000000e+000 0.000000e+000
 0.000000e+000 0.000000e+000 8.310383e-001 1.689617e-001 0.000000e+000
 0.000000e+000 0.000000e+000 0.000000e+000 7.896568e-001 2.103432e-001
 0.000000e+000 0.000000e+000 0.000000e+000 0.000000e+000 0.000000e+000
<ENDHMM>
~h "b"
<BEGINHMM>
<NUMSTATES> 5
<STATE> 2
<MEAN> 25
 -8.162432e+000 6.720242e+000 -5.327187e+000 7.531648e+000 -6.474704e-001 -2.220003e+000 4.100503e-001 6.778808e-001 1.928954e+000 -3.419891e+000 6.225070e-002 2.052963e+000 -4.198812e-001 3.228681e-001 -2.689156e-002 7.894997e-002 -5.037531e-002 1.332527e-002 -7.235581e-002 -1.865590e-001 -9.664748e-003 4.599490e-002 1.399756e-001 -6.977437e-002 -5.637561e-001
<VARIANCE> 25
 7.099039e+001 3.100438e+001 3.924645e+001 3.061023e+001 3.692008e+001 3.067477e+001 3.046123e+001 3.580119e+001 3.224815e+001 3.711181e+001 2.232982e+001 2.569188e+001 2.995706e-001 6.879674e-001 6.450849e-001 7.813825e-001 8.967928e-001 1.122838e+000 1.091165e+000 1.209117e+000 1.040623e+000 1.698533e+000 1.134629e+000 1.353747e+000 1.324645e-001
<GCONST> 8.519783e+001
<STATE> 3
<MEAN> 25
 -1.228664e+001 7.748397e+000 -4.779494e+000 7.915970e+000 -1.528589e+000 -2.993959e-001 1.160051e+000 -3.277565e-001 2.687686e+000 -1.339715e+000 1.378763e+000 7.345699e-002 1.165173e+000 1.540824e+000 1.608624e+000 1.300444e+000 1.353095e+000 9.895802e-001 6.592329e-001 2.993311e-001 2.185324e-001 2.807091e-001 -1.610079e-001 -5.173799e-001 5.536472e-001
<VARIANCE> 25
 1.256225e+002 2.261379e+001 5.784008e+001 2.599124e+001 2.807337e+001 2.545569e+001 2.318543e+001 4.279371e+001 3.585742e+001 2.714134e+001 2.484738e+001 1.783356e+001 3.876674e+000 1.811450e+000 2.378414e+000 1.773597e+000 2.187030e+000 2.701352e+000 3.204499e+000 1.990985e+000 1.878965e+000 1.452656e+000 1.164067e+000 1.542001e+000 2.478701e+000
<GCONST> 9.717521e+001
<STATE> 4
<MEAN> 25
 4.510210e+000 2.056973e+001 4.599557e+000 1.450503e+001 3.754877e+000 1.781114e+000 2.525963e+000 -3.424049e+000 -2.010092e+000 -3.054623e+000 7.627742e-001 -3.303059e-001 2.729230e+000 2.834091e-001 3.266051e-002 -1.166769e-001 4.858757e-002 -7.270641e-002 -3.481217e-001 -5.760725e-001 -7.972876e-001 -1.959229e-001 7.672291e-002 1.128304e-001 2.031363e+000
<VARIANCE> 25
 8.084550e+001 7.938836e+001 3.950246e+001 2.699627e+001 2.924713e+001 2.066290e+001 3.414931e+001 3.028450e+001 3.171247e+001 2.529069e+001 2.580462e+001 1.751042e+001 5.788670e+000 1.587449e+001 9.199723e+000 7.061409e+000 4.315570e+000 2.693229e+000 4.038940e+000 3.621523e+000 3.759198e+000 2.934539e+000 2.806507e+000 2.203238e+000 3.461775e+000
<GCONST> 1.071266e+002
<TRANSP> 5
 0.000000e+000 1.000000e+000 0.000000e+000 0.000000e+000 0.000000e+000
 0.000000e+000 9.189857e-001 8.101427e-002 0.000000e+000 0.000000e+000
 0.000000e+000 0.000000e+000 4.070710e-001 5.929289e-001 0.000000e+000
 0.000000e+000 0.000000e+000 0.000000e+000 8.485702e-001 1.514298e-001
 0.000000e+000 0.000000e+000 0.000000e+000 0.000000e+000 0.000000e+000
<ENDHMM>
~h "c"
<BEGINHMM>
<NUMSTATES> 5
<STATE> 2
<MEAN> 25
 -1.353207e+001 5.130817e+000 -6.618888e+000 3.944503e+000 -2.304482e+000 -2.220688e+000 2.317902e+000 5.328466e-001 3.462049e+000 3.107385e-001 2.353184e+000 8.518189e-001 -4.202662e-001 -1.373603e-001 -4.279701e-001 1.452321e-001 7.154318e-002 -1.949922e-001 1.707206e-001 2.419408e-001 1.344828e-002 -8.310422e-002 -8.607188e-002 -1.992543e-002 -3.719870e-001
<VARIANCE> 25
 2.971865e+001 1.316805e+001 1.487531e+001 8.999711e+000 7.743942e+000 6.060984e+000 1.432448e+001 1.479242e+001 1.021374e+001 9.634721e+000 8.437494e+000 8.578849e+000 1.921619e-001 2.803409e-001 4.437528e-001 5.585057e-001 6.201774e-001 6.523663e-001 8.992667e-001 9.456818e-001 8.250864e-001 6.986941e-001 8.005757e-001 1.001700e+000 1.455943e-001
<GCONST> 6.680782e+001
<STATE> 3
<MEAN> 25
 -1.207422e+001 7.871621e-001 -8.302807e+000 8.210406e+000 2.514406e-001 -2.237337e+000 3.144690e+000 2.958932e+000 3.686660e+000 8.592659e-001 1.408428e+000 -3.029303e-001 1.141834e-002 -7.787716e-001 2.244744e+000 1.517136e-001 1.081045e+000 -8.623249e-001 5.334674e-001 1.605525e+000 3.158390e-002 -1.852204e-001 -7.258537e-001 6.993910e-001 1.535406e+000
<VARIANCE> 25
 8.139347e+001 5.031855e+000 1.548623e+001 1.326923e+001 9.859322e+000 2.695844e+001 1.679490e+001 1.507080e+001 2.850745e+001 1.975600e+001 1.174625e+001 6.505528e+000 2.447542e+000 8.720237e+000 5.951331e+000 7.661152e+000 3.529994e+000 7.001881e+000 1.934694e+000 9.372444e+000 5.445154e+000 2.384070e+000 3.021938e+000 3.282464e+000 5.590874e+000
<GCONST> 9.863863e+001
<STATE> 4
<MEAN> 25
 -7.402969e+000 -4.372925e+000 7.053293e+000 -1.554002e+000 9.938777e+000 -8.909134e+000 2.667309e+000 -4.168842e+000 1.849696e+000 1.027427e+000 8.287662e-001 -8.368893e-001 5.772165e-001 -2.496675e-001 9.052475e-001 -6.711977e-001 6.270153e-002 -3.146092e-001 1.696028e-001 -7.987624e-001 -3.549242e-001 -8.733255e-002 2.233926e-001 -1.354651e-001 1.853537e+000
<VARIANCE> 25
 2.193697e+002 9.594856e+001 4.108102e+001 1.356454e+002 1.095978e+002 7.542525e+001 5.060475e+001 7.729020e+001 9.418488e+001 5.369026e+001 2.453686e+001 3.672650e+001 1.307803e+001 5.693060e+000 6.959298e+000 1.136858e+001 1.011733e+001 7.700629e+000 6.515028e+000 5.599453e+000 7.068745e+000 4.193874e+000 2.661869e+000 2.638509e+000 8.192266e+000
<GCONST> 1.212260e+002
<TRANSP> 5
 0.000000e+000 1.000000e+000 0.000000e+000 0.000000e+000 0.000000e+000
 0.000000e+000 9.171401e-001 8.285991e-002 0.000000e+000 0.000000e+000
 0.000000e+000 0.000000e+000 5.751752e-001 4.248248e-001 0.000000e+000
 0.000000e+000 0.000000e+000 0.000000e+000 9.365422e-001 6.345783e-002
 0.000000e+000 0.000000e+000 0.000000e+000 0.000000e+000 0.000000e+000
<ENDHMM>
~h "d"
<BEGINHMM>
<NUMSTATES> 5
<STATE> 2
<MEAN> 25
 -4.723334e+000 1.158840e+001 2.056864e+000 8.511973e+000 2.035461e+000 5.648715e-001 1.548409e+000 8.681269e-001 -6.634701e-002 -2.615740e+000 -1.985534e-001 -6.833049e-001 1.127834e+000 1.172015e+000 1.050055e+000 1.305883e+000 6.404631e-001 2.344619e-001 -9.386790e-002 -3.728604e-001 2.246382e-002 -7.741239e-002 -3.217643e-001 -1.097573e-001 3.245105e-001
<VARIANCE> 25
 6.654368e+001 5.800663e+001 1.223302e+002 3.382593e+001 4.032291e+001 2.571882e+001 2.498282e+001 2.796268e+001 4.042154e+001 2.729576e+001 2.622147e+001 1.869388e+001 4.188645e+000 4.527005e+000 4.091819e+000 2.581298e+000 2.804628e+000 1.930415e+000 1.706298e+000 1.908493e+000 2.720633e+000 1.676589e+000 2.011015e+000 1.458845e+000 1.614725e+000
<GCONST> 1.004698e+002
<STATE> 3
<MEAN> 25
 5.890604e+000 2.041148e+001 9.349586e+000 1.552145e+001 3.643398e+000 -2.432697e+000 -2.784556e+000 -4.156076e+000 -2.312571e+000 -2.270805e+000 3.957530e-001 6.920974e-001 1.035399e+000 -1.545945e+000 3.799991e-001 2.712278e-001 -1.522287e+000 -6.688330e-001 -4.985957e-001 -4.825093e-001 2.901849e-001 -1.101464e-001 5.101212e-002 8.156324e-001 1.446181e+000
<VARIANCE> 25
 1.237899e+001 1.466701e+002 2.157134e+001 3.209814e+001 2.964806e+001 2.919133e+001 3.346145e+001 3.923940e+001 2.319032e+001 2.042052e+001 2.659301e+001 1.625546e+001 2.431417e+000 9.725187e+000 2.453245e+000 2.201013e+000 3.675699e+000 4.244872e+000 5.267300e+000 5.660533e+000 3.955858e+000 2.252110e+000 3.131380e+000 2.306299e+000 1.707046e+000
<GCONST> 1.018549e+002
<STATE> 4
<MEAN> 25
 9.317806e+000 -4.458967e+000 1.513038e+001 6.189936e+000 -1.216066e+001 -3.680729e+000 -4.105419e+000 1.755253e+000 8.813244e-001 -4.609235e+000 2.454775e+000 3.750549e+000 8.090029e-001 -3.171603e+000 8.385907e-001 -3.435591e+000 -2.130002e+000 -3.525798e-001 -8.462921e-001 9.138390e-001 -3.715506e-001 5.070363e-001 1.195195e+000 -4.466855e-001 2.982298e+000
<VARIANCE> 25
 1.836268e+001 1.334272e+002 4.449717e+001 1.116892e+002 7.227998e+001 5.164590e+001 4.550018e+001 8.008730e+001 6.482499e+001 4.326380e+001 6.330470e+001 3.723013e+001 1.439080e+000 1.928017e+001 6.060058e+000 6.293466e+000 1.655110e+001 8.512980e+000 5.436983e+000 7.462266e+000 7.051027e+000 5.816288e+000 6.398486e+000 5.520563e+000 6.063374e+000
<GCONST> 1.190879e+002
<TRANSP> 5
 0.000000e+000 1.000000e+000 0.000000e+000 0.000000e+000 0.000000e+000
 0.000000e+000 7.882288e-001 2.117712e-001 0.000000e+000 0.000000e+000
 0.000000e+000 0.000000e+000 6.942333e-001 3.057667e-001 0.000000e+000
 0.000000e+000 0.000000e+000 0.000000e+000 6.964524e-001 3.035476e-001
 0.000000e+000 0.000000e+000 0.000000e+000 0.000000e+000 0.000000e+000
<ENDHMM>
~h "e"
<BEGINHMM>
<NUMSTATES> 5
<STATE> 2
<MEAN> 25
 -4.853733e+000 7.811126e+000 -3.796418e+000 3.228681e+000 -1.031724e-001 2.816414e+000 5.202931e-001 -1.281509e+000 1.085256e+000 4.650936e-001 4.481637e+000 1.786903e+000 1.020956e-001 3.693894e-001 -2.330772e-001 5.461400e-001 2.168850e-001 1.950216e-001 -6.491222e-002 -3.733549e-001 -1.301426e-001 1.084996e-001 2.477544e-002 -1.846032e-001 -2.714009e-001
<VARIANCE> 25
 2.031901e+002 1.287554e+002 1.055267e+002 7.944366e+001 4.721912e+001 5.667206e+001 3.834602e+001 3.828602e+001 3.963611e+001 2.208248e+001 2.614419e+001 2.417667e+001 7.727235e+000 3.234340e+000 3.768827e+000 2.823174e+000 2.929215e+000 2.432209e+000 2.068189e+000 2.190639e+000 3.562927e+000 1.739122e+000 1.930033e+000 1.602544e+000 6.271828e+000
<GCONST> 1.074071e+002
<STATE> 3
<MEAN> 25
 4.522847e+000 8.740977e+000 2.603920e+000 5.187917e+000 2.289930e+000 -1.437335e+000 -2.150234e+000 -2.306027e+000 -1.776479e+000 1.058402e-001 1.921888e+000 -8.798147e-002 1.163819e+000 6.368244e-002 -2.855556e-002 7.939360e-001 -1.430855e-002 -4.746507e-001 -6.196536e-001 -7.425624e-001 2.551738e-002 4.140092e-001 -1.224030e-001 -2.203899e-001 6.969194e-001
<VARIANCE> 25
 4.753922e+001 2.135447e+002 9.789418e+001 1.089817e+002 5.408600e+001 4.650035e+001 3.585243e+001 3.916017e+001 4.050768e+001 4.132904e+001 2.617936e+001 2.339176e+001 9.887581e+000 1.172102e+001 5.561153e+000 7.115656e+000 6.651866e+000 3.925460e+000 5.833072e+000 4.639257e+000 5.052679e+000 3.440626e+000 2.521282e+000 2.057737e+000 1.064446e+001
<GCONST> 1.152231e+002
<STATE> 4
<MEAN> 25
 1.030497e+001 1.245282e+000 2.184780e+000 3.774502e+000 -2.967491e+000 -1.032068e+000 -6.245333e+000 -5.721043e+000 1.098269e+000 3.578148e+000 2.318635e+000 1.108710e-003 5.413370e-001 -3.046679e+000 1.270567e+000 -2.067659e+000 -1.387689e+000 -1.729087e-001 -6.542180e-001 5.658550e-001 6.812664e-001 6.801150e-001 -5.107804e-001 2.073794e-001 2.489097e+000
<VARIANCE> 25
 4.541508e+001 1.277480e+002 1.277604e+002 1.073140e+002 1.454729e+002 6.617416e+001 8.099117e+001 9.771887e+001 8.613088e+001 5.202681e+001 5.673031e+001 3.128160e+001 4.003853e+000 1.601742e+001 8.421999e+000 1.141488e+001 1.170006e+001 4.799364e+000 7.138458e+000 1.044746e+001 9.181132e+000 6.087508e+000 4.778175e+000 2.961790e+000 1.022813e+001
<GCONST> 1.242414e+002
<TRANSP> 5
 0.000000e+000 1.000000e+000 0.000000e+000 0.000000e+000 0.000000e+000
 0.000000e+000 6.139301e-001 3.860699e-001 0.000000e+000 0.000000e+000
 0.000000e+000 0.000000e+000 2.604486e-001 7.395514e-001 0.000000e+000
 0.000000e+000 0.000000e+000 0.000000e+000 6.522353e-001 3.477647e-001
 0.000000e+000 0.000000e+000 0.000000e+000 0.000000e+000 0.000000e+000
<ENDHMM>
~h "f"
<BEGINHMM>
<NUMSTATES> 5
<STATE> 2
<MEAN> 25
 -3.622573e+000 1.906878e+000 4.140019e+000 4.521742e+000 3.061332e+000 8.284477e-001 -3.907449e+000 -2.204683e+000 -3.472801e+000 2.414923e-001 -1.270164e+000 2.176085e+000 -3.422788e-001 1.195230e-001 4.496557e-002 1.818291e-001 1.564525e-001 -1.422999e-001 1.005946e-001 2.924464e-002 -1.592855e-001 -3.782042e-002 3.776076e-002 -1.275509e-002 1.049633e-001
<VARIANCE> 25
 3.016655e+001 3.162854e+001 3.459257e+001 1.317723e+001 1.831776e+001 3.034383e+001 2.317912e+001 3.086559e+001 1.770330e+001 1.483445e+001 1.318835e+001 1.349985e+001 1.082801e+000 1.007737e+000 1.197086e+000 1.033615e+000 1.536068e+000 1.891503e+000 2.053234e+000 2.277146e+000 2.077421e+000 1.388699e+000 1.041975e+000 1.040564e+000 2.614293e-001
<GCONST> 8.528385e+001
<STATE> 3
<MEAN> 25
 -1.261346e+001 1.011601e+001 6.211956e+000 4.436755e+000 -7.452643e-001 -5.557176e+000 1.622977e+000 -2.174612e+000 -6.880560e+000 2.240350e+000 2.741969e+000 2.560683e+000 -2.683566e-001 2.341421e-001 -5.889741e-002 -2.317210e-001 -2.562643e-001 -3.743485e-001 1.359707e-001 -3.078391e-001 4.809039e-002 9.498148e-003 1.338806e-002 -1.149634e-001 2.365095e-001
<VARIANCE> 25
 4.180883e+001 5.919601e+001 2.360362e+001 1.411348e+001 3.905816e+001 2.142357e+001 2.299069e+001 3.133341e+001 1.954984e+001 1.956760e+001 1.635651e+001 1.488030e+001 3.144577e+000 7.732194e-001 2.250421e+000 1.117997e+000 3.328623e+000 1.591836e+000 1.758785e+000 2.227396e+000 2.100959e+000 1.415173e+000 1.899663e+000 1.347844e+000 2.194702e-001
<GCONST> 8.967758e+001
<STATE> 4
<MEAN> 25
 -7.811903e+000 -4.437494e+000 1.419527e+001 -3.535790e+000 -3.677211e+000 -9.245621e+000 2.316905e+000 -1.923509e+000 -3.094960e+000 -1.593675e+000 1.554467e+000 -5.583535e-001 6.576885e-002 2.348383e-001 -2.600327e-001 4.559547e-002 -2.317244e-001 1.117204e-001 -2.817192e-001 -7.470364e-002 2.744347e-001 2.050208e-002 1.766685e-001 -2.301701e-001 -2.498185e-001
<VARIANCE> 25
 2.574678e+001 1.646028e+002 1.785150e+002 5.705775e+001 1.017876e+002 5.146870e+001 6.971340e+001 2.999330e+001 8.603976e+001 2.218171e+001 1.378558e+001 1.900052e+001 1.494141e+000 1.474498e+000 3.442318e+000 2.256824e+000 2.706173e+000 1.845543e+000 2.243718e+000 1.553778e+000 2.872658e+000 2.265845e+000 1.563454e+000 1.670801e+000 3.883391e-001
<GCONST> 1.004435e+002
<TRANSP> 5
 0.000000e+000 1.000000e+000 0.000000e+000 0.000000e+000 0.000000e+000
 0.000000e+000 9.093806e-001 9.061942e-002 0.000000e+000 0.000000e+000
 0.000000e+000 0.000000e+000 8.850539e-001 1.149461e-001 0.000000e+000
 0.000000e+000 0.000000e+000 0.000000e+000 8.940501e-001 1.059500e-001
 0.000000e+000 0.000000e+000 0.000000e+000 0.000000e+000 0.000000e+000
<ENDHMM>
~h "g"
<BEGINHMM>
<NUMSTATES> 5
<STATE> 2
<MEAN> 25
 5.233569e+000 1.072430e+000 1.196923e+001 1.066485e+001 -3.862914e+000 -5.965389e+000 -4.608688e+000 2.587233e+000 -2.507473e+000 -1.825993e+000 2.803400e+000 2.913116e+000 7.142465e-001 -1.778574e+000 1.747008e+000 -2.330680e+000 -1.426216e+000 -1.327367e+000 -1.143723e+000 8.658038e-001 -7.200602e-001 5.248184e-001 7.094487e-001 6.546867e-001 2.259798e+000
<VARIANCE> 25
 1.384685e+001 1.207980e+002 6.824573e+001 1.057229e+002 6.330055e+001 3.900805e+001 4.916470e+001 4.927034e+001 3.735808e+001 3.239650e+001 3.701829e+001 2.542110e+001 1.377723e+000 7.623137e+000 5.121945e+000 1.003423e+001 5.335385e+000 2.685102e+000 3.058414e+000 3.477751e+000 4.037575e+000 4.530838e+000 5.095581e+000 1.686308e+000 2.321839e+000
<GCONST> 1.090201e+002
<STATE> 3
<MEAN> 25
 6.289118e+000 -7.704226e+000 1.476793e+001 -9.355157e+000 -3.033679e+000 -9.425173e+000 -3.684361e+000 1.022481e+001 -3.020255e+000 5.214897e+000 2.389993e-001 5.981445e-001 -1.386103e-001 -3.323905e-001 -7.822310e-001 -7.987775e-001 1.048371e+000 3.966494e-002 8.576646e-001 3.822793e-001 5.295618e-001 5.188676e-001 -1.277584e+000 -3.159596e-001 2.048417e-001
<VARIANCE> 25
 7.206368e+000 4.832418e+001 2.192274e+001 4.811570e+001 2.999668e+001 1.984179e+001 3.453376e+001 2.821257e+001 3.728587e+001 2.068689e+001 2.705931e+001 2.573540e+001 3.110100e-001 2.070584e+000 1.916393e+000 5.005622e+000 2.320678e+000 1.678447e+000 2.501683e+000 2.189968e+000 3.044655e+000 2.562871e+000 2.301704e+000 1.802770e+000 1.994604e+000
<GCONST> 9.427497e+001
<STATE> 4
<MEAN> 25
 3.365787e+000 -1.119327e+001 7.032622e+000 -1.150078e+001 2.800525e+000 -6.614880e+000 1.171191e+000 9.235450e+000 1.884126e+000 4.823468e+000 -1.034982e+001 -1.377487e+000 -3.963886e-001 3.443414e-001 -6.344624e-001 6.903202e-001 -5.841851e-003 5.608382e-001 2.066277e-001 -6.339181e-001 2.474462e-001 -2.228289e-001 -1.165753e-001 -1.419780e-001 -8.617178e-001
<VARIANCE> 25
 2.232268e+001 4.414329e+001 2.163045e+001 6.911350e+001 2.390616e+001 3.158078e+001 2.285332e+001 3.629475e+001 1.868093e+001 2.542388e+001 2.382265e+001 1.860066e+001 3.934869e-001 9.987224e-001 5.932410e-001 1.920774e+000 1.590409e+000 1.453309e+000 1.248150e+000 1.739010e+000 1.278081e+000 1.312388e+000 1.756705e+000 1.610370e+000 8.814469e-001
<GCONST> 8.799462e+001
<TRANSP> 5
 0.000000e+000 1.000000e+000 0.000000e+000 0.000000e+000 0.000000e+000
 0.000000e+000 8.429450e-001 1.570550e-001 0.000000e+000 0.000000e+000
 0.000000e+000 0.000000e+000 8.730058e-001 1.269942e-001 0.000000e+000
 0.000000e+000 0.000000e+000 0.000000e+000 9.128782e-001 8.712190e-002
 0.000000e+000 0.000000e+000 0.000000e+000 0.000000e+000 0.000000e+000
<ENDHMM>
~h "h"
<BEGINHMM>
<NUMSTATES> 5
<STATE> 2
<MEAN> 25
 3.983926e-001 -4.401688e+000 -3.002142e+000 1.689495e+000 3.942552e+000 3.493171e+000 4.142664e+000 2.289474e+000 -1.648010e-001 -2.479807e+000 -4.557878e+000 -1.500921e-001 -3.312723e-001 5.867326e-001 -3.018195e-001 4.934628e-001 -2.729709e-002 3.261691e-001 -6.427812e-001 -7.433075e-002 -4.296128e-002 1.653910e-002 2.212971e-001 3.292501e-001 -1.014751e+000
<VARIANCE> 25
 2.865876e+001 7.233256e+001 4.353058e+001 2.194561e+001 1.197270e+001 1.891328e+001 2.681936e+001 2.405833e+001 2.403699e+001 2.579530e+001 1.436494e+001 1.299375e+001 2.237363e-001 5.813057e-001 1.319187e+000 1.449134e+000 9.460070e-001 1.525427e+000 1.826356e+000 1.208821e+000 1.386228e+000 1.347954e+000 1.056687e+000 1.673057e+000 1.913589e-001
<GCONST> 8.330515e+001
<STATE> 3
<MEAN> 25
 -6.365493e+000 3.688454e+000 -1.394485e+000 3.859830e+000 2.437804e+000 1.722977e+000 -3.653722e+000 -1.744300e+000 -1.045606e-001 -7.787862e-001 -7.668976e-002 1.707788e+000 -4.842506e-001 3.053649e-001 3.340405e-002 -1.887240e-002 -2.191056e-001 -1.352834e-001 -1.802914e-001 -2.373186e-001 -8.784588e-002 4.683924e-002 2.144436e-001 -1.106209e-002 -2.871393e-001
<VARIANCE> 25
 3.801752e+001 1.779204e+001 7.452071e+001 1.611902e+001 2.009383e+001 1.171002e+001 2.654932e+001 1.881040e+001 2.502481e+001 1.647079e+001 2.390697e+001 1.255999e+001 3.241680e-001 4.850688e-001 5.246158e-001 7.245997e-001 1.117071e+000 1.432793e+000 1.468094e+000 1.317827e+000 1.696019e+000 1.370545e+000 1.559950e+000 9.365924e-001 3.284009e-001
<GCONST> 8.137744e+001
<STATE> 4
<MEAN> 25
 -7.987011e+000 -5.418557e+000 -4.194987e+000 4.226135e+000 3.984470e-001 6.060911e+000 1.327456e+000 3.023868e+000 -2.013530e+000 -1.482413e+000 3.327667e+000 -8.483565e-001 -4.261422e-001 1.964832e-001 -1.895165e-001 -3.644226e-003 -5.232861e-001 1.902147e-001 2.625699e-001 1.083002e-001 4.896924e-002 -1.483563e-001 2.924454e-001 6.017708e-002 -4.481711e-001
<VARIANCE> 25
 1.176809e+002 2.334393e+002 1.187831e+002 7.823270e+000 3.310189e+001 3.796925e+001 3.302776e+001 4.143974e+001 3.966596e+001 2.467965e+001 2.532461e+001 1.589353e+001 2.286687e+000 1.270684e+000 1.797815e+000 7.543506e-001 2.006387e+000 1.911188e+000 1.520475e+000 1.665011e+000 2.327137e+000 1.516086e+000 2.175701e+000 1.703543e+000 1.418364e+000
<GCONST> 9.680893e+001
<TRANSP> 5
 0.000000e+000 1.000000e+000 0.000000e+000 0.000000e+000 0.000000e+000
 0.000000e+000 7.901208e-001 2.098792e-001 0.000000e+000 0.000000e+000
 0.000000e+000 0.000000e+000 9.376588e-001 6.234115e-002 0.000000e+000
 0.000000e+000 0.000000e+000 0.000000e+000 8.299974e-001 1.700026e-001
 0.000000e+000 0.000000e+000 0.000000e+000 0.000000e+000 0.000000e+000
<ENDHMM>
~h "i"
<BEGINHMM>
<NUMSTATES> 5
<STATE> 2
<MEAN> 25
 -4.578664e+000 -2.787217e-002 7.898195e+000 5.645273e+000 -5.768514e+000 -5.921992e+000 2.551514e+000 3.614128e-001 -1.074301e+000 -2.049099e+000 3.616210e+000 2.233201e+000 2.281673e+000 -1.125319e+000 4.806347e+000 -9.048353e-001 -3.274540e+000 4.657042e-001 -6.834639e-001 -1.168902e+000 -2.419052e+000 -1.280580e-001 1.053248e+000 -4.238273e-001 3.107022e+000
<VARIANCE> 25
 9.666556e+001 7.495955e+001 1.308660e+002 9.038433e+001 1.124509e+002 1.096458e+002 1.177171e+002 8.917139e+001 7.261553e+001 5.967761e+001 3.788096e+001 3.747678e+001 7.310530e+000 1.140971e+001 1.828032e+001 1.043429e+001 1.034086e+001 7.301778e+000 6.928609e+000 6.083199e+000 8.118922e+000 5.661989e+000 3.678312e+000 2.902501e+000 1.053338e+001
<GCONST> 1.248150e+002
<STATE> 3
<MEAN> 25
 2.050772e+000 -1.233163e+000 2.403640e+001 -8.005490e-001 -1.339121e+001 7.607335e-001 -2.970459e+000 -4.154460e+000 -7.986492e+000 -1.683354e+000 5.382717e+000 -6.628614e-001 8.417375e-001 -6.441240e-001 5.594910e+000 -3.492307e+000 -2.138415e+000 1.752689e+000 -1.677752e+000 -3.704281e-001 -2.235324e+000 -1.608927e-001 1.735732e-001 -1.295605e+000 2.661958e+000
<VARIANCE> 25
 4.344077e+001 4.860105e+001 1.766633e+002 1.393785e+002 1.366392e+002 8.664671e+001 8.739043e+001 7.737010e+001 1.067042e+002 5.823945e+001 3.721914e+001 4.045942e+001 2.476527e+000 5.849741e+000 1.366311e+001 1.192730e+001 1.119408e+001 8.106298e+000 8.585437e+000 5.327799e+000 5.982392e+000 4.785042e+000 3.184897e+000 3.241213e+000 3.956599e+000
<GCONST> 1.211252e+002
<STATE> 4
<MEAN> 25
 2.227048e+000 -1.660781e-001 2.984262e+001 -7.521246e+000 -1.221475e+001 1.539264e+000 -3.662217e+000 -1.041615e+000 -1.285210e+001 -1.681015e+000 3.263272e+000 -2.365158e+000 -1.479489e-001 2.150409e-001 -1.052798e+000 3.677462e-001 6.388005e-001 -2.628777e-001 1.723487e-001 2.858220e-001 3.383792e-001 9.826300e-002 -3.361700e-001 2.280764e-001 -6.266729e-001
<VARIANCE> 25
 1.959140e+001 2.918228e+001 1.241566e+002 7.138998e+001 5.380668e+001 5.259466e+001 4.146173e+001 4.579403e+001 5.015774e+001 3.785104e+001 2.477026e+001 2.569323e+001 5.587436e-001 1.394948e+000 4.553064e+000 4.610547e+000 3.485814e+000 3.064633e+000 2.471844e+000 2.571734e+000 2.717956e+000 2.123550e+000 1.901583e+000 1.580178e+000 1.352501e+000
<GCONST> 1.010552e+002
<TRANSP> 5
 0.000000e+000 1.000000e+000 0.000000e+000 0.000000e+000 0.000000e+000
 0.000000e+000 4.025175e-001 5.974825e-001 0.000000e+000 0.000000e+000
 0.000000e+000 0.000000e+000 5.374172e-001 4.625829e-001 0.000000e+000
 0.000000e+000 0.000000e+000 0.000000e+000 9.128250e-001 8.717504e-002
 0.000000e+000 0.000000e+000 0.000000e+000 0.000000e+000 0.000000e+000
<ENDHMM>
~h "j"
<BEGINHMM>
<NUMSTATES> 5
<STATE> 2
<MEAN> 25
 -2.322838e+000 1.369069e+001 -1.205407e+000 1.212837e+001 2.632549e+000 -4.167847e+000 -3.950711e+000 1.126013e+000 4.516193e+000 -2.528311e+000 -8.051061e-001 5.582986e-001 6.047761e-001 7.299911e-001 2.097895e-001 6.458488e-001 9.456961e-001 -3.079631e-002 -4.250732e-002 -2.134755e-001 5.994804e-002 1.194572e-001 -1.158448e-001 2.883864e-001 1.967572e-001
<VARIANCE> 25
 7.614851e+001 8.196934e+001 4.050907e+001 3.284236e+001 4.852929e+001 3.017399e+001 2.719146e+001 3.694767e+001 5.247806e+001 8.658961e+000 1.236461e+001 1.026742e+001 4.044558e+000 2.086407e+000 1.843409e+000 3.451116e+000 2.448979e+000 3.917024e+000 2.861889e+000 2.303055e+000 2.938584e+000 1.683230e+000 1.503645e+000 1.213800e+000 1.715993e+000
<GCONST> 9.791370e+001
<STATE> 3
<MEAN> 25
 3.082416e+000 1.121654e+001 1.170812e+001 -2.477869e-001 1.649432e+001 -5.962652e+000 -3.330606e+000 1.192357e+000 -1.656633e+000 4.517171e+000 -8.916507e-001 5.918417e+000 -1.157745e+000 -3.423012e+000 2.368546e+000 -4.227364e+000 1.578177e+000 -2.269860e+000 1.347638e+000 1.501710e-001 -1.972701e+000 4.437990e-001 -1.149678e+000 9.796636e-001 3.313559e+000
<VARIANCE> 25
 2.614601e+001 1.341578e+002 4.903787e+001 1.427699e+002 1.324723e+002 4.291192e+001 8.531106e+001 2.763536e+001 4.081533e+001 3.240083e+001 1.220598e+001 2.180059e+001 5.671168e+000 5.462641e+000 4.434964e+000 8.021931e+000 2.772459e+001 6.356261e+000 6.112120e+000 4.383277e+000 2.550743e+000 8.446553e+000 1.386502e+000 2.055511e+000 3.654148e+000
<GCONST> 1.130237e+002
<STATE> 4
<MEAN> 25
 3.323703e+000 -6.272802e+000 1.718920e+001 -1.017968e+001 1.821036e+000 -1.547924e+001 6.608163e+000 5.718326e+000 -2.709524e+000 2.604254e+000 -4.623172e+000 6.108142e+000 1.576418e-001 -2.089650e-001 -5.216129e-002 -9.380031e-002 -4.483798e-001 -9.020790e-002 1.439610e-001 -6.221071e-002 2.318350e-002 -5.909210e-002 5.191799e-002 8.354431e-002 1.833618e-001
<VARIANCE> 25
 2.322521e+001 5.697837e+001 3.527689e+001 5.061447e+001 7.510609e+001 3.382527e+001 5.427967e+001 6.618288e+001 6.773923e+001 2.399754e+001 6.261049e+001 1.096460e+001 1.202258e+000 1.969900e+000 3.608801e+000 4.341395e+000 7.511438e+000 3.675755e+000 3.462961e+000 4.836208e+000 5.047155e+000 2.009697e+000 4.376554e+000 1.260448e+000 2.533329e+000
<GCONST> 1.052785e+002
<TRANSP> 5
 0.000000e+000 1.000000e+000 0.000000e+000 0.000000e+000 0.000000e+000
 0.000000e+000 9.121278e-001 8.787224e-002 0.000000e+000 0.000000e+000
 0.000000e+000 0.000000e+000 6.774641e-001 3.225359e-001 0.000000e+000
 0.000000e+000 0.000000e+000 0.000000e+000 9.514753e-001 4.852468e-002
 0.000000e+000 0.000000e+000 0.000000e+000 0.000000e+000 0.000000e+000
<ENDHMM>
~h "k"
<BEGINHMM>
<NUMSTATES> 5
<STATE> 2
<MEAN> 25
 -5.067897e+000 4.178547e+000 -4.448475e+000 1.989759e+000 2.717737e-002 1.012418e+000 -1.316671e+000 -1.701963e+000 4.825003e-001 -1.984404e-002 4.053690e-002 -6.901386e-001 -4.120461e-001 2.458868e-001 -2.089660e-001 3.540999e-001 4.563532e-002 -4.287487e-002 2.543691e-002 3.236848e-002 9.637767e-002 -1.688582e-002 1.204157e-001 1.588702e-001 -5.585172e-001
<VARIANCE> 25
 4.517961e+001 5.115808e+001 5.225427e+001 2.951723e+001 2.886845e+001 2.937334e+001 2.129517e+001 2.120585e+001 2.200202e+001 1.955497e+001 1.969105e+001 1.554436e+001 2.796384e-001 6.606104e-001 9.772719e-001 7.938409e-001 1.125121e+000 1.154726e+000 1.224388e+000 1.409991e+000 1.305591e+000 1.206810e+000 1.128749e+000 1.235431e+000 2.736926e-001
<GCONST> 8.403389e+001
<STATE> 3
<MEAN> 25
 -5.730473e+000 2.781633e+000 -5.168081e+000 3.164408e+000 1.116415e+000 6.992858e-002 -7.686350e-001 -3.112817e-001 2.088703e-001 1.988909e-001 -2.296152e-001 3.446947e-001 3.687744e-001 -1.569257e+000 -1.649081e+000 8.752191e-002 1.149565e+000 -1.971587e-001 5.563923e-002 7.735549e-001 9.429875e-001 3.752179e-001 -2.212859e-001 -1.136092e-001 1.522460e+000
<VARIANCE> 25
 5.313591e+001 3.608187e+001 4.523775e+001 2.529621e+001 3.495970e+001 2.059102e+001 1.986398e+001 3.086832e+001 2.906383e+001 2.439191e+001 2.130169e+001 1.732068e+001 3.293911e+000 5.856952e+000 4.608343e+000 3.273209e+000 4.059562e+000 3.499769e+000 6.473532e+000 4.780312e+000 2.373955e+000 3.372639e+000 2.336550e+000 2.678846e+000 2.942428e+000
<GCONST> 1.027732e+002
<STATE> 4
<MEAN> 25
 1.738425e+000 -9.059529e+000 -9.978122e+000 -5.298976e-001 8.412616e+000 -1.603988e+000 -3.407345e+000 2.897156e+000 4.994575e+000 2.343499e+000 -1.995357e+000 -1.535820e+000 2.305443e+000 -2.221326e+000 5.793763e-001 -1.701990e+000 1.824854e-001 -3.772559e-002 6.698822e-001 5.728918e-001 4.326475e-001 6.051781e-001 -4.374916e-001 -8.496727e-001 3.682396e+000
<VARIANCE> 25
 8.370908e+001 8.893664e+001 1.079339e+002 1.026184e+002 1.285178e+002 8.973079e+001 1.033713e+002 8.153433e+001 5.861127e+001 4.653016e+001 3.499548e+001 3.406954e+001 5.067137e+000 9.815150e+000 1.055947e+001 6.455537e+000 1.809503e+001 7.070994e+000 1.297914e+001 7.992031e+000 6.330906e+000 5.030658e+000 3.238022e+000 3.267559e+000 5.372489e+000
<GCONST> 1.226850e+002
<TRANSP> 5
 0.000000e+000 1.000000e+000 0.000000e+000 0.000000e+000 0.000000e+000
 0.000000e+000 8.887829e-001 1.112172e-001 0.000000e+000 0.000000e+000
 0.000000e+000 0.000000e+000 4.833459e-001 5.166541e-001 0.000000e+000
 0.000000e+000 0.000000e+000 0.000000e+000 7.672844e-001 2.327157e-001
 0.000000e+000 0.000000e+000 0.000000e+000 0.000000e+000 0.000000e+000
<ENDHMM>
~h "l"
<BEGINHMM>
<NUMSTATES> 5
<STATE> 2
<MEAN> 25
 4.359450e+000 5.355858e+000 -2.556704e+000 -1.644625e-001 -6.729572e-001 -2.324550e+000 -2.986993e+000 2.895580e+000 4.296053e+000 9.471509e-001 8.016482e-001 3.521149e-001 2.541404e+000 -5.432974e-001 7.924342e-001 -2.094902e+000 -1.125673e-001 2.699678e-001 -1.026491e+000 -7.573254e-003 -1.885184e-001 6.591436e-001 -4.617709e-002 -1.537644e-001 2.800302e+000
<VARIANCE> 25
 1.363717e+002 1.811278e+002 1.260150e+002 1.536730e+002 6.915431e+001 8.964179e+001 7.978996e+001 6.589111e+001 6.709682e+001 6.977888e+001 3.616530e+001 4.310831e+001 9.758581e+000 1.052441e+001 9.137805e+000 9.345941e+000 4.588549e+000 7.589549e+000 7.428379e+000 6.834496e+000 4.445006e+000 4.614808e+000 3.038774e+000 3.205161e+000 7.086506e+000
<GCONST> 1.228479e+002
<STATE> 3
<MEAN> 25
 1.062743e+001 -5.619709e+000 4.627257e+000 -1.231782e+001 -2.095109e-001 7.593243e-001 -5.688955e+000 3.594522e-002 3.253386e+000 5.754935e+000 -6.192108e-001 -1.599216e+000 -3.769252e-001 -1.627808e+000 4.208508e-001 -7.221032e-001 8.621544e-001 3.189955e-001 2.767657e-001 -3.221865e-001 4.346046e-001 2.738373e-001 -1.044201e+000 8.465469e-003 1.034076e+000
<VARIANCE> 25
 3.772967e+001 7.729123e+001 1.542773e+002 6.924818e+001 8.519624e+001 1.524342e+002 1.250957e+002 1.143114e+002 5.372840e+001 5.943697e+001 4.919396e+001 3.605914e+001 5.351118e-001 5.362267e+000 4.197416e+000 3.771154e+000 5.976312e+000 5.496166e+000 6.791894e+000 6.578700e+000 4.580138e+000 6.040774e+000 3.236356e+000 3.444669e+000 1.746952e+000
<GCONST> 1.151877e+002
<STATE> 4
<MEAN> 25
 9.306865e+000 -6.291857e+000 6.903420e+000 -1.506384e+001 2.896232e+000 -1.481675e+000 -7.513980e+000 -1.861294e+000 2.318901e+000 1.044945e+001 -2.191107e+000 -3.646109e-001 -2.958277e-002 -6.336683e-002 -3.980670e-001 2.262748e-001 9.963153e-002 4.499235e-001 5.305577e-001 -1.124252e-001 -2.862796e-001 -1.634092e-001 -1.587907e-001 -9.628531e-002 -2.068393e-001
<VARIANCE> 25
 1.525001e+001 4.034479e+001 6.020500e+001 6.916224e+001 6.680848e+001 9.416452e+001 1.058005e+002 1.190681e+002 5.991045e+001 5.093536e+001 4.141442e+001 4.044301e+001 3.123551e-001 1.964887e+000 1.398594e+000 2.509166e+000 2.203714e+000 2.005520e+000 2.723174e+000 3.254716e+000 2.604372e+000 2.655786e+000 2.397458e+000 1.457645e+000 8.536788e-001
<GCONST> 1.018004e+002
<TRANSP> 5
 0.000000e+000 1.000000e+000 0.000000e+000 0.000000e+000 0.000000e+000
 0.000000e+000 6.741130e-001 3.258870e-001 0.000000e+000 0.000000e+000
 0.000000e+000 0.000000e+000 4.214640e-001 5.785359e-001 0.000000e+000
 0.000000e+000 0.000000e+000 0.000000e+000 8.140813e-001 1.859187e-001
 0.000000e+000 0.000000e+000 0.000000e+000 0.000000e+000 0.000000e+000
<ENDHMM>
~h "m"
<BEGINHMM>
<NUMSTATES> 5
<STATE> 2
<MEAN> 25
 4.700624e+000 1.963031e+000 1.067770e+000 5.428335e+000 3.169694e+000 4.765475e+000 -9.295752e-001 -6.663876e+000 -5.891019e+000 -7.175140e-001 -6.650990e-001 2.529735e+000 -9.905802e-002 5.218096e-001 -1.397750e-001 4.507766e-001 -1.818898e-001 9.938119e-002 1.068757e-001 -1.292243e-001 -7.111908e-002 -1.967763e-001 -2.012007e-002 1.893063e-001 -5.232801e-001
<VARIANCE> 25
 7.961765e+001 2.754417e+001 7.529946e+001 2.677722e+001 2.523121e+001 4.154438e+001 3.597414e+001 5.456684e+001 6.993291e+001 3.097438e+001 2.502232e+001 2.218679e+001 1.965982e-001 4.071106e-001 6.561474e-001 8.713613e-001 8.217424e-001 8.770564e-001 1.073210e+000 1.544375e+000 1.690979e+000 1.276333e+000 1.087700e+000 1.090354e+000 1.387013e-001
<GCONST> 8.584387e+001
<STATE> 3
<MEAN> 25
 -2.371445e+000 6.951346e+000 -3.412117e+000 5.518781e+000 -1.266500e+000 2.631254e+000 8.063752e-001 -3.157159e+000 -7.861409e-002 -6.903022e-001 1.324494e-001 8.606714e-001 -2.851297e-001 1.483908e-002 -1.856921e-001 5.529969e-003 -6.362765e-002 -8.836783e-002 2.096168e-001 3.130681e-001 3.965208e-001 7.070521e-002 3.562145e-002 -2.043511e-001 -2.591770e-001
<VARIANCE> 25
 1.979055e+002 4.387610e+001 5.471861e+001 3.071047e+001 3.826583e+001 3.026623e+001 2.953765e+001 5.649251e+001 3.763564e+001 2.245126e+001 2.624277e+001 2.083418e+001 1.614455e+000 8.771803e-001 1.086097e+000 1.243092e+000 1.330992e+000 1.562170e+000 1.277472e+000 1.679470e+000 1.606676e+000 1.232455e+000 1.258905e+000 1.152375e+000 9.028410e-001
<GCONST> 9.305708e+001
<STATE> 4
<MEAN> 25
 6.371317e+000 4.773742e+000 -4.709172e+000 5.359228e+000 4.632844e+000 4.658707e+000 1.465335e+000 -5.695030e+000 -3.482534e+000 -1.312758e+000 2.345896e+000 6.453748e-001 2.131825e+000 -1.006332e+000 -3.602130e-001 -1.063809e+000 6.465556e-003 5.336878e-001 -3.365901e-001 1.247440e-001 2.817676e-001 -2.542318e-001 -1.660788e-002 -1.490382e-001 2.214071e+000
<VARIANCE> 25
 1.377563e+002 1.668923e+002 9.032273e+001 1.062682e+002 6.128661e+001 6.911591e+001 4.302053e+001 7.539521e+001 7.729687e+001 3.450386e+001 3.243773e+001 1.855862e+001 8.146169e+000 1.279748e+001 8.743237e+000 9.937341e+000 5.962452e+000 5.875434e+000 5.492611e+000 9.112597e+000 1.158932e+001 3.422411e+000 3.030288e+000 1.951738e+000 4.892904e+000
<GCONST> 1.195102e+002
<TRANSP> 5
 0.000000e+000 1.000000e+000 0.000000e+000 0.000000e+000 0.000000e+000
 0.000000e+000 8.865448e-001 1.134552e-001 0.000000e+000 0.000000e+000
 0.000000e+000 0.000000e+000 7.546114e-001 2.453886e-001 0.000000e+000
 0.000000e+000 0.000000e+000 0.000000e+000 7.906652e-001 2.093348e-001
 0.000000e+000 0.000000e+000 0.000000e+000 0.000000e+000 0.000000e+000
<ENDHMM>
~h "n"
<BEGINHMM>
<NUMSTATES> 5
<STATE> 2
<MEAN> 25
 8.166385e+000 -9.034894e+000 7.590670e+000 -5.919049e+000 6.678154e-001 -6.624754e+000 1.336537e+000 5.560221e+000 -1.690004e+000 1.767268e+000 -5.335536e+000 9.748109e-002 -1.709831e-001 2.511750e+000 7.649825e-001 1.960608e+000 -5.345405e-001 -3.345107e-001 -1.079320e+000 -2.527893e+000 -5.062770e-001 7.764909e-001 3.171936e-001 4.201398e-001 -1.978436e+000
<VARIANCE> 25
 9.183140e+000 4.379429e+001 8.224249e+001 8.172753e+001 3.722797e+001 2.760404e+001 4.965200e+001 7.205560e+001 3.636954e+001 2.342888e+001 3.827996e+001 1.484472e+001 3.017711e-001 1.966176e+000 1.280303e+000 4.139982e+000 1.661470e+000 1.506570e+000 2.917822e+000 3.639318e+000 1.991861e+000 1.623347e+000 1.379113e+000 1.043219e+000 1.303471e+000
<GCONST> 9.519294e+001
<STATE> 3
<MEAN> 25
 8.160071e+000 1.691648e+000 5.438527e+000 5.097209e+000 -1.163241e+000 -4.955169e+000 -3.555677e+000 -3.538730e+000 -2.797457e+000 2.143085e+000 -4.051335e+000 1.378344e+000 -1.587597e-001 6.389323e-001 -1.375711e-001 6.114672e-001 -4.064033e-002 4.162538e-001 8.394604e-005 -1.156750e-001 1.459894e-001 -1.320570e-001 2.442960e-001 1.575511e-002 -6.905598e-001
<VARIANCE> 25
 1.307532e+001 2.052122e+001 3.015994e+001 3.457268e+001 2.930056e+001 3.067708e+001 2.782074e+001 4.365697e+001 2.482724e+001 2.521723e+001 2.544433e+001 1.380288e+001 2.132477e-001 3.620439e-001 6.135201e-001 7.527031e-001 1.092568e+000 1.186566e+000 1.261257e+000 1.377610e+000 1.208415e+000 1.107738e+000 1.033936e+000 1.070349e+000 1.102574e-001
<GCONST> 8.035899e+001
<STATE> 4
<MEAN> 25
 9.872472e-001 4.042782e+000 2.667184e+000 5.718812e+000 -2.640887e+000 -3.135409e+000 2.105788e-001 -1.171168e-001 -1.484608e+000 -1.571313e-003 8.426910e-001 1.813276e+000 -5.495921e-001 2.188811e-002 -6.896177e-001 1.527812e-001 7.719237e-002 -4.402407e-002 7.005551e-002 1.766987e-001 2.217164e-001 -1.982235e-001 1.230059e-001 1.214735e-001 -6.658701e-001
<VARIANCE> 25
 3.771078e+001 3.820836e+001 1.254891e+002 1.262547e+002 5.214252e+001 3.752067e+001 3.501854e+001 5.551040e+001 4.699794e+001 4.285079e+001 2.405427e+001 2.347232e+001 5.139639e-001 1.315220e+000 1.408215e+000 2.004152e+000 1.746637e+000 2.379174e+000 1.983853e+000 2.580376e+000 1.712311e+000 1.619055e+000 1.652509e+000 1.495778e+000 3.953495e-001
<GCONST> 9.668574e+001
<TRANSP> 5
 0.000000e+000 1.000000e+000 0.000000e+000 0.000000e+000 0.000000e+000
 0.000000e+000 7.323097e-001 2.676903e-001 0.000000e+000 0.000000e+000
 0.000000e+000 0.000000e+000 9.116609e-001 8.833906e-002 0.000000e+000
 0.000000e+000 0.000000e+000 0.000000e+000 9.063761e-001 9.362397e-002
 0.000000e+000 0.000000e+000 0.000000e+000 0.000000e+000 0.000000e+000
<ENDHMM>
~h "o"
<BEGINHMM>
<NUMSTATES> 5
<STATE> 2
<MEAN> 25
 7.946123e+000 -4.505730e+000 1.826480e+001 -8.277594e+000 -3.446720e+000 -7.044543e+000 -7.658456e+000 5.621603e+000 -1.140250e+001 7.184467e+000 4.239683e+000 1.254818e+000 2.872439e-001 -4.383319e-001 -6.243587e-001 -2.003902e+000 2.982222e-001 3.060097e-001 -8.390626e-002 -8.861029e-002 5.532556e-001 7.283664e-001 1.281442e-001 3.321042e-001 7.941877e-001
<VARIANCE> 25
 9.581599e+000 2.778314e+001 7.672934e+001 1.607499e+002 3.607658e+001 3.565872e+001 9.800015e+000 6.488756e+001 5.592897e+001 3.659774e+001 1.633405e+001 5.099628e+000 1.114114e-001 1.987954e+000 4.317289e+000 3.738559e+000 2.670828e+000 4.846072e+000 1.797548e+000 3.354818e+000 4.745259e+000 8.520249e-001 2.687587e+000 1.052550e+000 6.620441e-001
<GCONST> 9.426823e+001
<STATE> 3
<MEAN> 25
 1.159799e+001 -8.362557e+000 8.456999e+000 -1.858394e+001 -1.265113e+000 -7.616717e-001 -3.136117e+000 2.549400e+000 -3.186299e+000 9.723527e+000 -1.319896e+000 9.397245e-001 -9.162675e-002 -4.449561e-002 -1.662448e-001 1.313277e-001 -2.843827e-003 -4.112946e-001 5.486166e-001 8.457983e-001 -1.278595e-002 -6.817672e-001 -4.293185e-001 -2.175798e-001 9.696646e-004
<VARIANCE> 25
 9.640246e+000 1.748696e+001 9.866795e+000 3.297402e+001 2.108669e+001 1.255367e+002 5.454635e+001 1.037530e+002 6.368454e+000 2.268082e+001 1.883783e+001 1.317472e+001 2.056689e-001 1.326396e+000 9.236574e-001 2.360702e+000 1.027959e+000 4.978096e+000 4.979072e+000 3.547655e+000 1.446098e+000 2.242396e+000 2.309394e+000 1.257606e+000 6.020061e-001
<GCONST> 8.958837e+001
<STATE> 4
<MEAN> 25
 1.438800e+000 8.731771e-002 1.824134e+000 -6.942213e+000 9.562102e-001 7.577689e-001 -2.653006e+000 -3.482378e+000 -1.627346e+000 5.129702e+000 -2.382162e+000 -2.156174e+000 -8.707514e-001 2.302244e-002 -2.663822e-001 5.553787e-001 2.538010e-001 -1.410937e-001 6.844226e-002 6.075380e-002 2.772375e-001 8.869700e-002 -1.128166e-002 -9.429361e-002 -8.237357e-001
<VARIANCE> 25
 7.866608e+001 1.253414e+001 7.310217e+001 1.922570e+002 2.733196e+001 3.196924e+001 1.872230e+001 3.297753e+001 3.265547e+001 6.852631e+001 2.766681e+001 9.870335e+000 4.234997e+000 1.399301e+000 4.405715e+000 1.513934e+001 2.064198e+000 1.922343e+000 1.872231e+000 2.832316e+000 3.050813e+000 5.791980e+000 1.815488e+000 1.476933e+000 5.501241e+000
<GCONST> 1.035019e+002
<TRANSP> 5
 0.000000e+000 1.000000e+000 0.000000e+000 0.000000e+000 0.000000e+000
 0.000000e+000 8.987072e-001 1.012928e-001 0.000000e+000 0.000000e+000
 0.000000e+000 0.000000e+000 9.122693e-001 8.773071e-002 0.000000e+000
 0.000000e+000 0.000000e+000 0.000000e+000 9.389094e-001 6.109056e-002
 0.000000e+000 0.000000e+000 0.000000e+000 0.000000e+000 0.000000e+000
<ENDHMM>
~h "p"
<BEGINHMM>
<NUMSTATES> 5
<STATE> 2
<MEAN> 25
 -1.955574e+000 2.563626e+000 -1.489056e+000 3.173000e+000 -1.641353e+000 2.294100e-001 -2.345304e+000 -1.951942e+000 5.605074e-002 -2.429295e-001 9.463667e-001 7.426039e-001 -4.524547e-001 2.144742e-001 -6.295314e-001 1.844946e-001 -3.416798e-002 -1.384304e-001 1.045362e-001 3.047535e-003 2.204489e-001 -5.074897e-002 -2.417618e-002 1.221415e-003 -7.276906e-001
<VARIANCE> 25
 3.174471e+001 3.164940e+001 4.927253e+001 3.237532e+001 2.804594e+001 2.179409e+001 2.311414e+001 3.040305e+001 2.846612e+001 2.082655e+001 2.151353e+001 1.735401e+001 3.149384e-001 4.276796e-001 8.740482e-001 7.792154e-001 1.063729e+000 1.134176e+000 1.107298e+000 1.321342e+000 1.279142e+000 1.456142e+000 1.228775e+000 1.228445e+000 1.760115e-001
<GCONST> 8.298801e+001
<STATE> 3
<MEAN> 25
 -5.620039e+000 3.389105e+000 -3.920795e+000 4.837751e+000 -2.413743e-001 5.917760e-001 -5.603182e-001 -1.722622e+000 6.467516e-001 -8.120784e-001 2.152243e-001 4.980567e-001 6.258736e-001 -6.027997e-001 -1.130624e+000 -2.789150e-001 -6.574766e-002 -2.429935e-001 5.454512e-001 2.931840e-001 -1.846246e-001 1.484052e-001 8.585875e-002 -3.599334e-002 7.223036e-001
<VARIANCE> 25
 7.485633e+001 2.712749e+001 4.222885e+001 1.920447e+001 2.469867e+001 1.772544e+001 2.171326e+001 2.911907e+001 2.565874e+001 1.606754e+001 1.669133e+001 1.614547e+001 1.558350e+000 1.338239e+000 2.162390e+000 2.893006e+000 2.220207e+000 1.782027e+000 2.503775e+000 2.125959e+000 1.739044e+000 1.736488e+000 2.221647e+000 1.664994e+000 1.070485e+000
<GCONST> 9.250782e+001
<STATE> 4
<MEAN> 25
 5.033069e+000 -1.436577e+000 -8.739500e+000 3.346616e+000 -2.362138e+000 6.744573e-001 2.621989e+000 -1.330672e+000 -1.310678e+000 -3.702985e-001 1.375880e+000 -6.358938e-001 3.654543e+000 -1.848619e+000 -9.767860e-001 -2.237482e+000 -4.699185e-001 5.365611e-001 9.565962e-001 4.078916e-001 -5.873356e-001 5.579288e-001 8.784411e-002 -1.097611e+000 4.019197e+000
<VARIANCE> 25
 9.512831e+001 6.867872e+001 5.978096e+001 7.393163e+001 3.729236e+001 4.877121e+001 4.462886e+001 3.044056e+001 3.547752e+001 3.078844e+001 2.601367e+001 3.016957e+001 4.526628e+000 1.262450e+001 6.424165e+000 1.047722e+001 5.440646e+000 5.779869e+000 4.902378e+000 4.156350e+000 3.801330e+000 4.791678e+000 2.880734e+000 3.591699e+000 6.923269e+000
<GCONST> 1.133983e+002
<TRANSP> 5
 0.000000e+000 1.000000e+000 0.000000e+000 0.000000e+000 0.000000e+000
 0.000000e+000 9.105473e-001 8.945271e-002 0.000000e+000 0.000000e+000
 0.000000e+000 0.000000e+000 3.505407e-001 6.494594e-001 0.000000e+000
 0.000000e+000 0.000000e+000 0.000000e+000 6.321812e-001 3.678188e-001
 0.000000e+000 0.000000e+000 0.000000e+000 0.000000e+000 0.000000e+000
<ENDHMM>
~h "r"
<BEGINHMM>
<NUMSTATES> 5
<STATE> 2
<MEAN> 25
 1.053096e+001 -1.067886e+001 4.678307e+000 -4.938469e+000 -3.250928e+000 -2.918955e+000 -6.112471e+000 -1.544481e+000 9.990279e-001 5.676249e+000 -1.986092e+000 2.256151e+000 2.245619e-001 -2.930311e-001 -1.065185e+000 1.690067e+000 5.445811e-003 -2.730826e-001 -1.044019e-001 -2.399599e-001 1.539674e+000 -5.921664e-001 -9.008729e-001 8.149833e-001 -4.088311e-001
<VARIANCE> 25
 1.756342e+001 3.069052e+001 7.918883e+001 7.460947e+001 4.398051e+001 6.188465e+001 8.915637e+001 8.620760e+001 7.525483e+001 4.375552e+001 4.967085e+001 3.620615e+001 9.940768e-001 1.581820e+000 1.495710e+000 5.676084e+000 2.919518e+000 3.334983e+000 2.618520e+000 2.707577e+000 2.827385e+000 3.604542e+000 1.907613e+000 2.286000e+000 1.109742e+000
<GCONST> 1.040955e+002
<STATE> 3
<MEAN> 25
 9.701345e+000 -8.312964e+000 -5.583893e-001 6.131209e+000 -1.295841e+000 6.724145e-001 -3.737275e+000 2.977965e-001 7.377285e+000 6.593323e-001 -3.500190e+000 4.718183e+000 -7.901297e-001 7.941658e-001 -9.975075e-002 1.126200e+000 7.500881e-001 8.749037e-001 7.483197e-001 4.556248e-001 1.302534e-001 -3.753997e-001 2.418195e-001 5.232311e-003 -1.239204e+000
<VARIANCE> 25
 2.283393e+001 2.797161e+001 3.639838e+001 4.241236e+001 3.828601e+001 4.311439e+001 5.582943e+001 5.445692e+001 3.872150e+001 3.244871e+001 3.516756e+001 3.428934e+001 1.180572e+000 1.208959e+000 1.200266e+000 1.589756e+000 2.325160e+000 2.081356e+000 2.698229e+000 2.651670e+000 2.246251e+000 2.015951e+000 1.717481e+000 2.250190e+000 8.279880e-001
<GCONST> 9.662794e+001
<STATE> 4
<MEAN> 25
 -2.111381e+000 1.372931e+000 -8.223373e+000 7.660106e+000 7.603712e-001 -7.491807e-001 -1.342115e+000 2.181139e-001 5.272079e+000 -1.193405e+000 -1.238139e+000 1.140213e+000 -5.112061e-001 5.555187e-001 -2.947311e-001 -1.012641e-001 -1.183682e-001 -2.057048e-001 -2.667282e-002 -1.372723e-001 -1.588874e-001 -3.993358e-002 1.577451e-001 -2.073833e-001 -7.138912e-001
<VARIANCE> 25
 3.643863e+001 4.062251e+001 4.740190e+001 2.155020e+001 2.721164e+001 2.469306e+001 2.116879e+001 2.351398e+001 2.300549e+001 1.937586e+001 1.933098e+001 2.135149e+001 3.751091e-001 4.564603e-001 9.517170e-001 7.994108e-001 1.003529e+000 1.282034e+000 1.261800e+000 1.297735e+000 1.380437e+000 1.378529e+000 1.111804e+000 1.339990e+000 2.096597e-001
<GCONST> 8.320557e+001
<TRANSP> 5
 0.000000e+000 1.000000e+000 0.000000e+000 0.000000e+000 0.000000e+000
 0.000000e+000 8.114060e-001 1.885940e-001 0.000000e+000 0.000000e+000
 0.000000e+000 0.000000e+000 8.049498e-001 1.950502e-001 0.000000e+000
 0.000000e+000 0.000000e+000 0.000000e+000 9.237109e-001 7.628907e-002
 0.000000e+000 0.000000e+000 0.000000e+000 0.000000e+000 0.000000e+000
<ENDHMM>
~h "s"
<BEGINHMM>
<NUMSTATES> 5
<STATE> 2
<MEAN> 25
 4.153728e+000 -3.654783e+000 5.355130e+000 -3.830305e+000 1.099945e+001 -5.448120e+000 4.757397e+000 5.264772e-001 -2.960986e-001 -1.983267e-001 -4.807830e+000 5.882731e+000 -1.828981e+000 5.915018e-001 1.224787e+000 -1.785094e+000 3.362991e+000 -2.848396e+000 1.919975e+000 -1.761222e+000 -8.001402e-002 -3.359297e-001 4.094539e-001 -1.060598e-001 1.420128e+000
<VARIANCE> 25
 7.865835e+001 8.991257e+001 1.139536e+002 8.197775e+001 9.593620e+001 1.071979e+002 7.118461e+001 9.236707e+001 4.313621e+001 4.503164e+001 3.436236e+001 2.535329e+001 8.080108e+000 7.354878e+000 7.890111e+000 7.510149e+000 5.879315e+000 7.883283e+000 5.891422e+000 9.128649e+000 6.070369e+000 4.922284e+000 3.778397e+000 3.496060e+000 5.700812e+000
<GCONST> 1.200306e+002
<STATE> 3
<MEAN> 25
 -9.859993e+000 -1.201894e+000 9.884635e+000 -1.209992e+001 2.072410e+001 -1.607634e+001 1.362109e+001 -6.192502e+000 3.713064e+000 -1.770227e+000 9.114206e-001 1.729290e+000 -7.354609e-001 7.250912e-002 -1.317889e-001 -8.399566e-002 -1.208202e-001 1.257298e-001 -2.004468e-001 1.168935e-001 3.513351e-001 4.700450e-002 3.974203e-001 -2.596677e-001 -4.362515e-001
<VARIANCE> 25
 8.867146e+001 3.996157e+001 4.726530e+001 3.823262e+001 4.983453e+001 3.899486e+001 3.400650e+001 2.649669e+001 2.455756e+001 1.999006e+001 2.299778e+001 1.841144e+001 6.939837e+000 2.702255e+000 2.989253e+000 3.131503e+000 2.298649e+000 2.469449e+000 2.428007e+000 2.361263e+000 2.463656e+000 1.966258e+000 1.984022e+000 1.597693e+000 2.428303e+000
<GCONST> 1.005087e+002
<STATE> 4
<MEAN> 25
 -9.501112e+000 2.150352e+000 3.479263e+000 -5.061725e+000 1.195173e+001 -8.176419e+000 4.525756e+000 -1.377695e+000 1.806778e+000 6.212427e-001 -1.411381e+000 1.092956e+000 2.924235e-001 2.796898e-001 -7.630602e-001 7.000431e-001 -9.482860e-001 6.241196e-001 -6.843023e-001 3.150655e-001 -2.727284e-001 7.687466e-002 -1.529984e-001 -1.848767e-002 -1.066719e+000
<VARIANCE> 25
 3.857928e+001 2.961142e+001 7.061878e+001 4.443558e+001 5.716435e+001 3.805096e+001 3.408130e+001 2.364676e+001 2.327403e+001 1.668184e+001 2.044130e+001 1.293303e+001 9.455926e-001 9.372002e-001 1.177779e+000 1.323585e+000 1.061890e+000 1.443339e+000 1.142382e+000 1.581786e+000 1.440598e+000 1.046256e+000 1.442425e+000 1.069948e+000 3.042005e-001
<GCONST> 8.795097e+001
<TRANSP> 5
 0.000000e+000 1.000000e+000 0.000000e+000 0.000000e+000 0.000000e+000
 0.000000e+000 7.588190e-001 2.411809e-001 0.000000e+000 0.000000e+000
 0.000000e+000 0.000000e+000 8.800940e-001 1.199059e-001 0.000000e+000
 0.000000e+000 0.000000e+000 0.000000e+000 8.843930e-001 1.156070e-001
 0.000000e+000 0.000000e+000 0.000000e+000 0.000000e+000 0.000000e+000
<ENDHMM>
~h "t"
<BEGINHMM>
<NUMSTATES> 5
<STATE> 2
<MEAN> 25
 -8.781030e+000 6.971101e+000 -6.660706e+000 4.190949e+000 -9.683085e-001 -1.316260e+000 -3.648250e-001 -1.491639e-001 1.930945e+000 -1.348214e+000 8.505082e-001 -2.325523e-001 -4.994792e-001 1.692892e-001 -1.099902e-001 1.858080e-001 -1.014101e-001 -2.572051e-002 5.225595e-002 -4.686614e-002 5.666055e-002 -5.815359e-002 9.631145e-002 -5.682045e-002 -5.469099e-001
<VARIANCE> 25
 5.232869e+001 2.980033e+001 3.033531e+001 2.554998e+001 2.290687e+001 2.270448e+001 2.135687e+001 2.405763e+001 2.362859e+001 1.463125e+001 1.677516e+001 1.518270e+001 2.094695e-001 3.843391e-001 6.799978e-001 6.457580e-001 7.500339e-001 8.685398e-001 1.049444e+000 1.169286e+000 1.240960e+000 9.864187e-001 1.017467e+000 1.064403e+000 1.252514e-001
<GCONST> 7.847162e+001
<STATE> 3
<MEAN> 25
 -1.172290e+001 6.060821e+000 -5.223347e+000 5.166151e+000 -5.151955e-001 2.899887e-001 1.120982e+000 4.717223e-001 2.421309e+000 -6.537887e-001 1.703708e+000 1.940369e-001 5.690418e-001 -7.610323e-001 2.060563e-001 1.235349e-001 -3.205927e-001 -3.594575e-001 5.709577e-001 5.684719e-001 -1.377261e-002 7.330030e-002 3.627845e-001 1.329211e-001 1.058556e+000
<VARIANCE> 25
 1.035754e+002 3.602100e+001 2.683478e+001 1.957623e+001 1.748600e+001 2.564102e+001 2.517294e+001 1.934158e+001 2.575399e+001 1.597294e+001 1.490889e+001 1.578316e+001 5.693475e+000 4.032960e+000 2.450700e+000 2.026255e+000 3.312003e+000 2.984108e+000 3.968463e+000 3.145560e+000 3.032465e+000 2.277818e+000 1.530402e+000 1.708805e+000 3.722026e+000
<GCONST> 9.796915e+001
<STATE> 4
<MEAN> 25
 -1.343472e+000 -3.218814e+000 1.137802e+000 6.919108e-001 -6.407712e-001 -2.919513e+000 -1.384003e+000 2.505474e+000 -5.575079e-001 -7.654957e-001 2.217726e+000 2.532317e-001 3.600720e+000 -2.343268e+000 2.244523e+000 -2.424667e+000 -4.687782e-001 -4.721298e-001 -6.099184e-001 7.581069e-001 -1.489766e+000 5.690023e-001 3.478404e-001 1.920852e-002 5.072631e+000
<VARIANCE> 25
 8.895126e+001 9.720403e+001 1.302009e+002 8.117200e+001 6.971098e+001 7.627389e+001 1.135240e+002 4.472717e+001 8.678537e+001 4.173617e+001 3.451465e+001 2.576455e+001 8.478992e+000 1.402254e+001 9.369724e+000 1.091220e+001 9.932292e+000 7.787812e+000 1.229438e+001 7.002736e+000 1.078955e+001 4.916270e+000 4.681876e+000 4.752286e+000 1.220922e+001
<GCONST> 1.241590e+002
<TRANSP> 5
 0.000000e+000 1.000000e+000 0.000000e+000 0.000000e+000 0.000000e+000
 0.000000e+000 9.086268e-001 9.137316e-002 0.000000e+000 0.000000e+000
 0.000000e+000 0.000000e+000 5.087865e-001 4.912135e-001 0.000000e+000
 0.000000e+000 0.000000e+000 0.000000e+000 6.966939e-001 3.033061e-001
 0.000000e+000 0.000000e+000 0.000000e+000 0.000000e+000 0.000000e+000
<ENDHMM>
~h "u"
<BEGINHMM>
<NUMSTATES> 5
<STATE> 2
<MEAN> 25
 1.243037e+001 5.126410e+000 -2.310380e+000 -4.527379e+000 -4.005863e+000 1.774083e+000 -2.328564e-001 -2.222508e+000 -5.997630e+000 -2.361913e+000 2.062904e+000 1.088147e+000 5.975871e-001 5.031531e-001 7.051032e-002 -2.552689e+000 -2.534207e-001 7.101238e-001 -3.957165e-001 3.719848e-002 -9.118379e-001 5.689544e-002 5.180793e-001 -1.309178e-002 6.989199e-001
<VARIANCE> 25
 7.132118e+001 9.039699e+001 8.136716e+001 1.531828e+002 4.928773e+001 4.223344e+001 5.270070e+001 6.080822e+001 7.964998e+001 4.911680e+001 3.587154e+001 3.360888e+001 2.319356e+000 4.560908e+000 3.083397e+000 7.095680e+000 3.708018e+000 3.887724e+000 4.275072e+000 5.113906e+000 4.302543e+000 4.266159e+000 3.461950e+000 2.315023e+000 1.810097e+000
<GCONST> 1.120107e+002
<STATE> 3
<MEAN> 25
 1.233132e+001 6.604531e+000 3.809491e+000 -1.962644e+001 -4.393525e+000 2.048004e+000 -6.632393e+000 3.770139e-001 -1.065981e+001 -1.428945e+000 7.539160e-001 -9.099209e-001 -1.909374e-001 2.764835e-001 -1.284758e-001 -5.118717e-001 -1.120657e-001 -9.256708e-003 -2.884441e-001 1.092407e-002 4.272562e-001 2.112857e-001 -2.200886e-001 -1.548320e-001 -2.154250e-001
<VARIANCE> 25
 2.200460e+001 4.580477e+001 6.026141e+001 1.543365e+002 4.312358e+001 6.022418e+001 5.824445e+001 6.404463e+001 6.658604e+001 6.891044e+001 4.239256e+001 3.265911e+001 2.368141e-001 1.040447e+000 1.284551e+000 3.223489e+000 1.269202e+000 2.076555e+000 1.990230e+000 2.428160e+000 2.316977e+000 3.270314e+000 1.844934e+000 1.758206e+000 4.987749e-001
<GCONST> 9.882198e+001
<STATE> 4
<MEAN> 25
 3.655274e+000 9.693933e+000 -5.406654e+000 -6.710180e+000 -3.054163e+000 1.027301e+000 -1.823749e+000 -1.151438e+000 -2.169037e+000 -1.493114e+000 1.121155e+000 6.563444e-002 -8.002505e-001 -9.525333e-002 -3.312438e-001 1.008204e+000 2.439628e-001 -7.682039e-002 2.275408e-001 -2.531287e-001 4.355183e-001 1.760973e-001 1.881796e-002 3.617306e-003 -8.589678e-001
<VARIANCE> 25
 8.719905e+001 3.746167e+001 5.961180e+001 9.870485e+001 4.497087e+001 4.253485e+001 4.420575e+001 4.124171e+001 4.124920e+001 4.628194e+001 2.694268e+001 1.962284e+001 8.979509e-001 7.295668e-001 1.497130e+000 3.106392e+000 1.619043e+000 1.953667e+000 1.683417e+000 2.048532e+000 1.941151e+000 1.996871e+000 1.784403e+000 1.393450e+000 7.902291e-001
<GCONST> 9.714172e+001
<TRANSP> 5
 0.000000e+000 1.000000e+000 0.000000e+000 0.000000e+000 0.000000e+000
 0.000000e+000 7.446815e-001 2.553186e-001 0.000000e+000 0.000000e+000
 0.000000e+000 0.000000e+000 8.079293e-001 1.920707e-001 0.000000e+000
 0.000000e+000 0.000000e+000 0.000000e+000 8.734015e-001 1.265984e-001
 0.000000e+000 0.000000e+000 0.000000e+000 0.000000e+000 0.000000e+000
<ENDHMM>
~h "w"
<BEGINHMM>
<NUMSTATES> 5
<STATE> 2
<MEAN> 25
 -9.318790e+000 1.380761e+000 -4.538672e+000 9.837128e+000 -3.292680e+000 -5.095498e+000 4.764166e-001 9.499791e-001 8.539335e-001 -4.130860e+000 2.278142e+000 1.803046e+000 5.660287e-001 9.782561e-001 2.298082e-001 1.565533e-001 -1.546274e-001 -3.089587e-001 -9.960780e-002 -3.918677e-003 2.070483e-002 -2.350910e-001 -1.101697e-001 -1.179019e-001 2.596926e-002
<VARIANCE> 25
 9.664541e+001 9.833536e+001 8.051855e+001 1.398195e+002 6.213831e+001 4.213026e+001 2.936986e+001 4.630362e+001 2.363595e+001 3.330734e+001 2.788669e+001 3.214230e+001 4.383691e+000 3.851912e+000 3.761168e+000 2.466359e+000 2.617568e+000 2.113960e+000 1.748274e+000 1.996902e+000 2.263366e+000 2.375098e+000 1.623501e+000 1.265820e+000 2.187113e+000
<GCONST> 1.041871e+002
<STATE> 3
<MEAN> 25
 1.426399e+001 1.715006e+001 -4.906740e+000 -9.873518e+000 -1.171091e+001 1.932412e+000 3.302627e+000 -1.614315e+000 -1.578589e+000 -7.323277e+000 3.150621e-001 4.420766e+000 1.026459e+000 -1.696454e+000 -4.845566e-001 -2.802765e+000 -9.356374e-002 2.863831e+000 -4.095227e-002 -9.553952e-001 4.068078e-001 7.344992e-001 9.683504e-001 8.766620e-001 1.878200e+000
<VARIANCE> 25
 1.370317e+001 5.186887e+001 2.858854e+001 7.424538e+001 2.556116e+001 9.015339e+001 2.325810e+001 2.535648e+001 3.993143e+001 2.540558e+001 2.632439e+001 2.941496e+001 3.648626e+000 5.566246e+000 3.296935e+000 3.068537e+000 5.649955e+000 8.372741e+000 4.205445e+000 2.341538e+000 3.213741e+000 5.763876e+000 2.901968e+000 3.295372e+000 1.096805e+000
<GCONST> 1.046085e+002
<STATE> 4
<MEAN> 25
 1.314327e+001 -5.213352e+000 8.991420e-001 -2.139153e+001 -2.094682e+000 1.703095e+001 -6.743940e+000 -6.620239e+000 3.414014e+000 8.567730e+000 4.053217e+000 -3.091063e+000 -9.868811e-001 -4.086665e+000 1.633230e+000 5.710739e-001 2.148581e+000 -1.451579e+000 -7.785208e-001 2.134952e+000 8.689531e-001 1.838325e+000 -1.980436e+000 -2.579515e+000 2.011160e+000
<VARIANCE> 25
 5.323948e+000 5.508657e+001 4.367325e+001 2.306068e+001 2.991713e+001 5.747544e+001 5.195894e+001 6.043367e+001 4.849795e+001 2.845910e+001 4.677978e+001 3.442756e+001 2.397344e-001 1.503345e+000 2.045131e+000 3.431219e+000 3.986659e+000 1.076118e+001 4.885142e+000 7.515555e+000 5.507645e+000 6.657969e+000 4.534710e+000 3.220688e+000 3.542649e-001
<GCONST> 1.021945e+002
<TRANSP> 5
 0.000000e+000 1.000000e+000 0.000000e+000 0.000000e+000 0.000000e+000
 0.000000e+000 9.115403e-001 8.845966e-002 0.000000e+000 0.000000e+000
 0.000000e+000 0.000000e+000 8.453943e-001 1.546057e-001 0.000000e+000
 0.000000e+000 0.000000e+000 0.000000e+000 7.970052e-001 2.029948e-001
 0.000000e+000 0.000000e+000 0.000000e+000 0.000000e+000 0.000000e+000
<ENDHMM>
~h "y"
<BEGINHMM>
<NUMSTATES> 5
<STATE> 2
<MEAN> 25
 1.565769e-007 -6.290797e-008 -2.937665e-007 -4.371385e-008 5.392831e-009 -1.134847e-007 1.048326e-008 1.461609e-009 6.497437e-008 2.474654e-008 2.793856e-008 3.496100e-008 6.361995e-003 4.308552e-003 2.542655e-003 -9.878381e-004 4.629357e-004 7.091404e-004 -2.578934e-003 -6.028318e-003 -4.543920e-003 -2.417521e-003 -2.678531e-003 -6.849539e-003 3.474661e-003
<VARIANCE> 25
 1.482363e+002 1.186289e+002 1.358767e+002 1.150533e+002 6.856859e+001 5.959438e+001 5.340210e+001 5.644455e+001 5.966214e+001 3.805057e+001 3.493165e+001 2.775295e+001 2.220379e+000 3.354012e+000 3.076584e+000 3.783211e+000 3.009660e+000 2.603472e+000 2.703241e+000 2.901384e+000 2.795699e+000 2.264799e+000 1.906537e+000 1.789198e+000 2.980222e+000
<GCONST> 1.090549e+002
<STATE> 3
<MEAN> 25
 1.565769e-007 -6.290797e-008 -2.937665e-007 -4.371385e-008 5.392831e-009 -1.134847e-007 1.048326e-008 1.461609e-009 6.497437e-008 2.474654e-008 2.793856e-008 3.496100e-008 6.361995e-003 4.308552e-003 2.542655e-003 -9.878381e-004 4.629357e-004 7.091404e-004 -2.578934e-003 -6.028318e-003 -4.543920e-003 -2.417521e-003 -2.678531e-003 -6.849539e-003 3.474661e-003
<VARIANCE> 25
 1.482363e+002 1.186289e+002 1.358767e+002 1.150533e+002 6.856859e+001 5.959438e+001 5.340210e+001 5.644455e+001 5.966214e+001 3.805057e+001 3.493165e+001 2.775295e+001 2.220379e+000 3.354012e+000 3.076584e+000 3.783211e+000 3.009660e+000 2.603472e+000 2.703241e+000 2.901384e+000 2.795699e+000 2.264799e+000 1.906537e+000 1.789198e+000 2.980222e+000
<GCONST> 1.090549e+002
<STATE> 4
<MEAN> 25
 1.565769e-007 -6.290797e-008 -2.937665e-007 -4.371385e-008 5.392831e-009 -1.134847e-007 1.048326e-008 1.461609e-009 6.497437e-008 2.474654e-008 2.793856e-008 3.496100e-008 6.361995e-003 4.308552e-003 2.542655e-003 -9.878381e-004 4.629357e-004 7.091404e-004 -2.578934e-003 -6.028318e-003 -4.543920e-003 -2.417521e-003 -2.678531e-003 -6.849539e-003 3.474661e-003
<VARIANCE> 25
 1.482363e+002 1.186289e+002 1.358767e+002 1.150533e+002 6.856859e+001 5.959438e+001 5.340210e+001 5.644455e+001 5.966214e+001 3.805057e+001 3.493165e+001 2.775295e+001 2.220379e+000 3.354012e+000 3.076584e+000 3.783211e+000 3.009660e+000 2.603472e+000 2.703241e+000 2.901384e+000 2.795699e+000 2.264799e+000 1.906537e+000 1.789198e+000 2.980222e+000
<GCONST> 1.090549e+002
<TRANSP> 5
 0.000000e+000 1.000000e+000 0.000000e+000 0.000000e+000 0.000000e+000
 0.000000e+000 6.000000e-001 4.000000e-001 0.000000e+000 0.000000e+000
 0.000000e+000 0.000000e+000 6.000000e-001 4.000000e-001 0.000000e+000
 0.000000e+000 0.000000e+000 0.000000e+000 7.000000e-001 3.000000e-001
 0.000000e+000 0.000000e+000 0.000000e+000 0.000000e+000 0.000000e+000
<ENDHMM>
~h "ay"
<BEGINHMM>
<NUMSTATES> 5
<STATE> 2
<MEAN> 25
 -5.399521e+000 -5.546183e+000 -1.441639e+001 1.377937e+001 5.377939e+000 -3.400431e+000 2.136353e+000 7.011387e+000 3.531624e+000 -8.742373e+000 -1.446713e+000 6.460413e+000 -1.437224e-001 4.396552e-001 -2.447096e-001 -5.198395e-001 -1.785140e-001 5.472031e-001 3.460922e-001 -4.395003e-001 9.479865e-003 8.352635e-002 4.607204e-002 -3.969712e-001 -3.077062e-001
<VARIANCE> 25
 7.050515e+001 1.234154e+002 4.053463e+001 5.458904e+001 1.289859e+001 9.651802e+001 5.025512e+001 5.244968e+001 5.195095e+001 2.516280e+001 1.315389e+001 2.156396e+001 7.221702e-001 5.122944e+000 2.123840e+000 2.672880e+000 1.337005e+000 4.003221e+000 2.193269e+000 2.515953e+000 2.184265e+000 2.903239e+000 1.709156e+000 1.890275e+000 1.415729e+000
<GCONST> 1.003450e+002
<STATE> 3
<MEAN> 25
 2.054170e-001 4.462466e+000 -9.815297e+000 4.259294e+000 3.669305e+000 5.382015e+000 4.171066e+000 -2.682894e+000 -7.972924e-001 -4.652434e+000 -1.106851e+000 9.508206e-001 1.821602e+000 -1.461999e+000 8.930617e-002 -9.773368e-001 -1.073945e+000 1.230758e+000 -4.595423e-002 -1.480574e-001 1.143224e+000 3.788394e-001 -2.828224e-001 -3.985704e-002 2.121829e+000
<VARIANCE> 25
 2.100178e+002 9.071073e+001 5.949243e+001 4.740293e+001 2.009534e+001 5.007439e+001 2.182907e+001 6.730936e+001 1.036628e+002 2.365898e+001 1.847346e+001 1.232086e+001 4.508962e+000 1.326024e+001 6.852482e+000 2.710497e+000 4.608931e+000 4.101588e+000 4.405187e+000 3.623302e+000 1.007170e+001 3.764456e+000 1.080156e+000 9.221767e-001 1.985146e+000
<GCONST> 1.082246e+002
<STATE> 4
<MEAN> 25
 1.251999e+001 -1.161333e+001 -2.271693e+000 5.915335e-002 6.896044e-001 1.069795e+001 -1.273281e+000 8.286496e-001 2.732895e+000 -7.019205e+000 4.410056e-001 1.173324e+000 1.348216e-002 -9.873207e-001 1.306607e+000 -7.628622e-001 -4.673946e-001 -4.225034e-001 1.931536e-001 7.333563e-001 -2.264012e-001 1.411628e-001 8.244181e-002 -1.844063e-001 1.049534e+000
<VARIANCE> 25
 3.309658e+001 2.066262e+002 9.336427e+001 9.477438e+001 6.174231e+001 4.596035e+001 4.916258e+001 1.052133e+002 7.518854e+001 3.737533e+001 1.878767e+001 1.873588e+001 4.530592e+000 8.365744e+000 4.081001e+000 3.867830e+000 3.175424e+000 3.707402e+000 4.819436e+000 4.722218e+000 8.637604e+000 3.491311e+000 1.975327e+000 1.459738e+000 3.349984e+000
<GCONST> 1.118309e+002
<TRANSP> 5
 0.000000e+000 1.000000e+000 0.000000e+000 0.000000e+000 0.000000e+000
 0.000000e+000 8.203921e-001 1.796079e-001 0.000000e+000 0.000000e+000
 0.000000e+000 0.000000e+000 3.683059e-001 6.316941e-001 0.000000e+000
 0.000000e+000 0.000000e+000 0.000000e+000 9.411752e-001 5.882483e-002
 0.000000e+000 0.000000e+000 0.000000e+000 0.000000e+000 0.000000e+000
<ENDHMM>
~h "eh"
<BEGINHMM>
<NUMSTATES> 5
<STATE> 2
<MEAN> 25
 7.545229e+000 -1.063047e+001 8.315367e+000 -7.229121e+000 -1.092492e+001 -1.004467e+001 7.372263e+000 1.123347e+001 -3.639037e+000 7.721205e-001 4.064817e+000 3.355804e-002 -4.335596e-001 -8.465717e-001 6.616604e-001 -1.949581e+000 -7.617537e-003 -5.285853e-001 1.255385e+000 -6.899168e-002 -4.766299e-001 5.607082e-001 3.520696e-001 -2.128157e-001 9.599686e-001
<VARIANCE> 25
 1.294456e+001 4.847731e+001 1.436188e+002 2.842561e+001 5.666186e+001 3.871550e+001 5.623237e+001 3.270031e+001 7.300779e+001 2.541655e+001 2.915597e+001 2.313607e+001 5.441684e-001 1.652540e+000 3.953697e+000 2.590020e+000 3.292932e+000 3.111968e+000 2.966054e+000 2.858275e+000 2.122265e+000 2.919642e+000 2.311961e+000 1.105491e+000 9.618896e-001
<GCONST> 9.936148e+001
<STATE> 3
<MEAN> 25
 6.514379e+000 -1.171338e+001 7.772761e+000 -8.378244e+000 -9.303607e+000 -1.288301e+001 7.117610e+000 8.905180e+000 -1.766553e+000 8.059382e-001 4.623939e+000 1.523902e+000 2.378968e-002 -9.993095e-002 -3.511486e-001 -1.668562e-001 5.792869e-001 1.211767e-001 -1.996853e-001 2.507646e-002 6.737874e-001 1.628823e-001 -4.748230e-001 -7.353318e-002 1.530217e-002
<VARIANCE> 25
 1.296160e+001 2.800412e+001 1.390724e+002 2.593554e+001 3.818735e+001 2.373350e+001 6.227456e+001 3.327616e+001 6.232147e+001 1.860829e+001 2.977516e+001 3.270475e+001 1.487192e-001 5.847999e-001 1.151883e+000 8.789186e-001 1.567986e+000 1.370121e+000 1.911088e+000 1.180047e+000 1.874639e+000 2.289403e+000 8.867198e-001 1.122101e+000 1.150593e-001
<GCONST> 8.685222e+001
<STATE> 4
<MEAN> 25
 1.102851e+001 -1.631239e+001 1.045382e+001 -9.584325e+000 -1.018447e+001 -4.811787e+000 2.148103e+000 1.424515e+001 -3.410018e+000 2.858805e+000 2.689061e+000 -2.279912e+000 1.226690e-001 1.424176e-001 -9.522636e-001 3.089224e-001 1.076989e+000 6.796471e-001 -7.091969e-001 -2.630864e-001 8.016636e-001 1.357828e-001 -9.435533e-001 -3.135320e-001 -3.104506e-001
<VARIANCE> 25
 1.143261e+001 1.863803e+001 5.127488e+001 1.791013e+001 4.581324e+001 3.701642e+001 2.760982e+001 2.106920e+001 3.172965e+001 2.125324e+001 2.410077e+001 1.023757e+001 2.475875e-001 5.660602e-001 1.249074e+000 9.644902e-001 1.422198e+000 9.532814e-001 1.801603e+000 2.158320e+000 1.288916e+000 1.488537e+000 1.274814e+000 1.147778e+000 4.621673e-001
<GCONST> 8.409911e+001
<TRANSP> 5
 0.000000e+000 1.000000e+000 0.000000e+000 0.000000e+000 0.000000e+000
 0.000000e+000 6.614120e-001 3.385880e-001 0.000000e+000 0.000000e+000
 0.000000e+000 0.000000e+000 7.911595e-001 2.088405e-001 0.000000e+000
 0.000000e+000 0.000000e+000 0.000000e+000 7.708873e-001 2.291127e-001
 0.000000e+000 0.000000e+000 0.000000e+000 0.000000e+000 0.000000e+000
<ENDHMM>
~h "ng"
<BEGINHMM>
<NUMSTATES> 5
<STATE> 2
<MEAN> 25
 1.166157e+001 -1.216585e+001 -3.331954e+000 -8.871585e+000 4.546502e+000 1.214743e+001 -3.935605e+000 1.338222e-001 3.976641e-001 -3.442751e+000 -8.082049e-001 -1.821137e+000 2.879909e-002 1.276158e+000 -1.843010e-001 6.314839e-001 -5.986948e-001 -2.933693e-002 1.437337e-001 -4.819527e-001 -5.566012e-001 -4.058263e-001 3.730822e-001 6.419877e-001 -9.962003e-001
<VARIANCE> 25
 6.531559e+000 4.389011e+001 2.121904e+001 4.686200e+001 3.176257e+001 2.782801e+001 2.462938e+001 2.594745e+001 3.073815e+001 2.643708e+001 1.192118e+001 1.865494e+001 1.231224e-001 7.122816e-001 5.942547e-001 1.072369e+000 1.275936e+000 1.112492e+000 1.919896e+000 1.243469e+000 1.621006e+000 1.190325e+000 7.515482e-001 8.017067e-001 3.126127e-001
<GCONST> 8.118029e+001
<STATE> 3
<MEAN> 25
 9.599337e+000 1.862821e+000 -3.913921e+000 5.436770e-001 2.148620e+000 8.440026e+000 -2.991712e-001 -4.897904e+000 -4.456341e+000 -3.384617e+000 2.293243e+000 5.838774e-001 -4.726301e-001 7.232537e-001 6.692912e-002 1.249744e+000 4.484273e-001 2.114518e-002 4.731891e-001 4.715808e-002 2.560726e-001 1.038264e-001 -1.166186e-001 -1.452693e-001 -8.585756e-001
<VARIANCE> 25
 8.149014e+000 3.996960e+001 1.428040e+001 6.250032e+001 3.957037e+001 3.015250e+001 3.338450e+001 2.664349e+001 3.466185e+001 2.564489e+001 1.433821e+001 1.368789e+001 3.224232e-001 3.948060e-001 6.729230e-001 9.166600e-001 9.717765e-001 1.186399e+000 1.708170e+000 1.767287e+000 1.418916e+000 1.109858e+000 1.003460e+000 1.037842e+000 1.632442e-001
<GCONST> 8.185639e+001
<STATE> 4
<MEAN> 25
 -3.957748e+000 8.275249e+000 -9.532751e+000 6.883632e+000 3.378186e+000 3.406067e+000 2.284257e+000 -2.838499e+000 2.098707e+000 -1.058557e+000 7.993851e-001 -8.268771e-001 -6.998427e-001 1.650711e-001 -2.102956e-001 -1.862070e-001 -2.787982e-001 -4.202621e-001 -9.712595e-002 7.412930e-003 5.614685e-002 -6.912528e-003 3.281876e-002 2.154949e-002 -6.487723e-001
<VARIANCE> 25
 4.352015e+001 1.932024e+001 2.613925e+001 1.715284e+001 3.039252e+001 2.846512e+001 1.994715e+001 2.221407e+001 1.943195e+001 2.127287e+001 1.546615e+001 1.829801e+001 2.808923e-001 4.885163e-001 1.061312e+000 7.814609e-001 9.815847e-001 1.170503e+000 1.239155e+000 1.311592e+000 1.568179e+000 1.573344e+000 1.198290e+000 1.119708e+000 1.188753e-001
<GCONST> 8.083205e+001
<TRANSP> 5
 0.000000e+000 1.000000e+000 0.000000e+000 0.000000e+000 0.000000e+000
 0.000000e+000 8.784915e-001 1.215085e-001 0.000000e+000 0.000000e+000
 0.000000e+000 0.000000e+000 9.097716e-001 9.022839e-002 0.000000e+000
 0.000000e+000 0.000000e+000 0.000000e+000 9.479697e-001 5.203031e-002
 0.000000e+000 0.000000e+000 0.000000e+000 0.000000e+000 0.000000e+000
<ENDHMM>
~h "ny"
<BEGINHMM>
<NUMSTATES> 5
<STATE> 2
<MEAN> 25
 1.091554e+000 1.884182e+000 4.108274e+000 2.950091e+000 6.332521e-001 1.940641e+000 -3.520586e+000 -1.571643e+000 -4.243601e+000 -2.621262e-001 -8.736329e-003 4.146606e+000 -3.342174e-002 1.446306e-001 -6.623477e-002 -1.067174e-001 -2.037574e-001 2.857503e-002 7.774692e-002 1.901601e-001 3.127035e-002 2.408545e-001 1.820951e-001 6.324610e-003 3.403066e-002
<VARIANCE> 25
 2.402678e+001 1.389858e+001 2.159588e+001 2.524395e+001 2.842319e+001 2.009742e+001 2.322200e+001 2.692453e+001 2.252939e+001 1.374355e+001 1.792115e+001 1.707445e+001 3.977154e-001 5.407222e-001 6.599922e-001 1.067552e+000 1.176401e+000 1.478844e+000 1.931113e+000 2.452441e+000 1.079580e+000 1.159740e+000 1.253766e+000 1.440687e+000 5.070062e-001
<GCONST> 8.266254e+001
<STATE> 3
<MEAN> 25
 -5.763797e+000 1.037898e+001 -3.930033e+000 2.831205e+000 -4.683405e+000 -3.212075e+000 -1.794396e-002 -2.664818e-001 -1.246158e-001 -1.036360e+000 2.899922e+000 2.596993e-001 -4.569058e-001 4.356875e-001 2.591313e-001 -7.847612e-002 -3.300361e-002 4.360788e-002 -5.653838e-002 -1.110899e-001 3.010923e-001 6.758147e-002 1.030370e-001 -2.950921e-001 -2.361109e-001
<VARIANCE> 25
 4.750462e+001 1.914911e+001 4.788093e+001 2.092301e+001 2.540986e+001 1.215015e+001 1.634383e+001 2.486399e+001 1.464178e+001 1.605396e+001 1.810703e+001 1.503078e+001 6.336515e-001 7.890202e-001 1.259693e+000 1.569409e+000 1.173670e+000 6.562442e-001 8.372754e-001 8.686528e-001 1.043872e+000 6.677961e-001 1.232367e+000 1.052593e+000 9.626446e-001
<GCONST> 8.174570e+001
<STATE> 4
<MEAN> 25
 -4.199691e-001 6.817222e+000 3.434391e+000 -6.819147e-001 -5.919448e+000 -1.663574e-001 2.169803e+000 2.425200e+000 2.134379e+000 -9.727864e-001 3.472501e+000 6.375987e-001 1.697595e+000 -4.216588e-001 4.003264e-001 1.415644e-001 -5.686208e-001 -5.907246e-001 4.422107e-001 -2.389765e-001 3.140789e-001 -4.344145e-001 -9.379701e-002 -3.745157e-001 1.555162e+000
<VARIANCE> 25
 6.157572e+001 1.592059e+002 3.780400e+001 1.191310e+002 8.427702e+001 2.807246e+001 1.961540e+001 3.218258e+001 2.226600e+001 3.307100e+001 2.721565e+001 2.103930e+001 7.891723e+000 8.531416e+000 4.659550e+000 4.490648e+000 7.815043e+000 4.149025e+000 3.489936e+000 2.907700e+000 2.967603e+000 3.858123e+000 3.160234e+000 1.600854e+000 3.029317e+000
<GCONST> 1.089327e+002
<TRANSP> 5
 0.000000e+000 1.000000e+000 0.000000e+000 0.000000e+000 0.000000e+000
 0.000000e+000 9.036390e-001 9.636109e-002 0.000000e+000 0.000000e+000
 0.000000e+000 0.000000e+000 8.289908e-001 1.710092e-001 0.000000e+000
 0.000000e+000 0.000000e+000 0.000000e+000 7.980775e-001 2.019224e-001
 0.000000e+000 0.000000e+000 0.000000e+000 0.000000e+000 0.000000e+000
<ENDHMM>
~h "sp"
<BEGINHMM>
<NUMSTATES> 5
<STATE> 2
<MEAN> 25
 1.565769e-007 -6.290797e-008 -2.937665e-007 -4.371385e-008 5.392831e-009 -1.134847e-007 1.048326e-008 1.461609e-009 6.497437e-008 2.474654e-008 2.793856e-008 3.496100e-008 6.361995e-003 4.308552e-003 2.542655e-003 -9.878381e-004 4.629357e-004 7.091404e-004 -2.578934e-003 -6.028318e-003 -4.543920e-003 -2.417521e-003 -2.678531e-003 -6.849539e-003 3.474661e-003
<VARIANCE> 25
 1.482363e+002 1.186289e+002 1.358767e+002 1.150533e+002 6.856859e+001 5.959438e+001 5.340210e+001 5.644455e+001 5.966214e+001 3.805057e+001 3.493165e+001 2.775295e+001 2.220379e+000 3.354012e+000 3.076584e+000 3.783211e+000 3.009660e+000 2.603472e+000 2.703241e+000 2.901384e+000 2.795699e+000 2.264799e+000 1.906537e+000 1.789198e+000 2.980222e+000
<GCONST> 1.090549e+002
<STATE> 3
<MEAN> 25
 1.565769e-007 -6.290797e-008 -2.937665e-007 -4.371385e-008 5.392831e-009 -1.134847e-007 1.048326e-008 1.461609e-009 6.497437e-008 2.474654e-008 2.793856e-008 3.496100e-008 6.361995e-003 4.308552e-003 2.542655e-003 -9.878381e-004 4.629357e-004 7.091404e-004 -2.578934e-003 -6.028318e-003 -4.543920e-003 -2.417521e-003 -2.678531e-003 -6.849539e-003 3.474661e-003
<VARIANCE> 25
 1.482363e+002 1.186289e+002 1.358767e+002 1.150533e+002 6.856859e+001 5.959438e+001 5.340210e+001 5.644455e+001 5.966214e+001 3.805057e+001 3.493165e+001 2.775295e+001 2.220379e+000 3.354012e+000 3.076584e+000 3.783211e+000 3.009660e+000 2.603472e+000 2.703241e+000 2.901384e+000 2.795699e+000 2.264799e+000 1.906537e+000 1.789198e+000 2.980222e+000
<GCONST> 1.090549e+002
<STATE> 4
<MEAN> 25
 1.565769e-007 -6.290797e-008 -2.937665e-007 -4.371385e-008 5.392831e-009 -1.134847e-007 1.048326e-008 1.461609e-009 6.497437e-008 2.474654e-008 2.793856e-008 3.496100e-008 6.361995e-003 4.308552e-003 2.542655e-003 -9.878381e-004 4.629357e-004 7.091404e-004 -2.578934e-003 -6.028318e-003 -4.543920e-003 -2.417521e-003 -2.678531e-003 -6.849539e-003 3.474661e-003
<VARIANCE> 25
 1.482363e+002 1.186289e+002 1.358767e+002 1.150533e+002 6.856859e+001 5.959438e+001 5.340210e+001 5.644455e+001 5.966214e+001 3.805057e+001 3.493165e+001 2.775295e+001 2.220379e+000 3.354012e+000 3.076584e+000 3.783211e+000 3.009660e+000 2.603472e+000 2.703241e+000 2.901384e+000 2.795699e+000 2.264799e+000 1.906537e+000 1.789198e+000 2.980222e+000
<GCONST> 1.090549e+002
<TRANSP> 5
 0.000000e+000 1.000000e+000 0.000000e+000 0.000000e+000 0.000000e+000
 0.000000e+000 6.000000e-001 4.000000e-001 0.000000e+000 0.000000e+000
 0.000000e+000 0.000000e+000 6.000000e-001 4.000000e-001 0.000000e+000
 0.000000e+000 0.000000e+000 0.000000e+000 7.000000e-001 3.000000e-001
 0.000000e+000 0.000000e+000 0.000000e+000 0.000000e+000 0.000000e+000
<ENDHMM>
~h "sil"
<BEGINHMM>
<NUMSTATES> 5
<STATE> 2
<MEAN> 25
 -6.189610e+000 5.932733e+000 -4.499382e+000 5.594493e+000 -4.469912e-001 -9.791057e-001 1.823868e+000 -3.096218e-001 2.745452e+000 -1.204703e+000 3.091722e-001 1.063380e+000 -3.170705e-001 2.636341e-001 -3.941022e-002 7.176592e-003 1.306044e-002 2.727002e-002 -1.394698e-001 -2.306172e-001 -2.767358e-002 1.101022e-005 8.496360e-002 -1.739934e-001 -4.081914e-001
<VARIANCE> 25
 1.267463e+002 6.303054e+001 3.977869e+001 4.862646e+001 6.848351e+001 2.661884e+001 3.249119e+001 3.016264e+001 2.918780e+001 2.478647e+001 1.843160e+001 2.277168e+001 6.920138e-001 9.215725e-001 8.405343e-001 1.064660e+000 1.665632e+000 1.428815e+000 1.564045e+000 1.455682e+000 1.445352e+000 1.484237e+000 1.177262e+000 1.425479e+000 1.083366e+000
<GCONST> 9.200959e+001
<STATE> 3
<MEAN> 25
 -1.625846e+001 8.557831e+000 -5.906294e+000 6.229530e+000 -1.341185e+000 -1.373767e-001 9.687938e-001 -1.489480e+000 2.103381e+000 -1.845913e+000 1.722635e+000 -1.006870e+000 -3.631190e-001 -1.759844e-001 -7.528379e-003 1.200811e-002 3.748252e-002 1.161321e-001 3.521087e-002 -3.678389e-002 1.130008e-002 7.671095e-002 7.791091e-002 -9.147122e-002 -2.189773e-001
<VARIANCE> 25
 3.538741e+001 1.312366e+001 2.216475e+001 1.462134e+001 1.735909e+001 1.778100e+001 1.769780e+001 1.672176e+001 1.824775e+001 1.668158e+001 1.455866e+001 1.286835e+001 2.086962e-001 3.030533e-001 4.349117e-001 6.344004e-001 8.908526e-001 8.691439e-001 1.033769e+000 1.148883e+000 1.388202e+000 1.359704e+000 1.083861e+000 9.477944e-001 6.741696e-002
<GCONST> 7.407549e+001
<STATE> 4
<MEAN> 25
 -2.420666e+001 2.922259e+000 -8.968746e+000 6.309571e+000 -7.674474e-002 2.412626e+000 4.227051e+000 2.473958e+000 6.431731e+000 1.514181e+000 5.049458e+000 1.881310e+000 -3.292159e-003 7.002828e-003 8.353860e-004 -2.006490e-002 -5.710409e-003 1.416951e-002 3.373462e-002 1.223434e-002 -8.031607e-004 -2.563584e-002 -2.576672e-002 2.423491e-002 -5.614880e-003
<VARIANCE> 25
 1.040801e+001 7.342077e+000 1.094329e+001 7.449119e+000 9.468698e+000 1.081441e+001 1.287803e+001 1.466141e+001 1.459584e+001 9.686994e+000 8.729817e+000 7.373028e+000 4.229645e-002 1.420371e-001 2.151305e-001 3.569528e-001 5.050545e-001 4.467980e-001 8.065477e-001 1.125224e+000 1.308262e+000 9.719005e-001 8.329403e-001 8.820883e-001 2.980222e-002
<GCONST> 6.082129e+001
<TRANSP> 5
 0.000000e+000 1.000000e+000 0.000000e+000 0.000000e+000 0.000000e+000
 0.000000e+000 8.794406e-001 1.205595e-001 0.000000e+000 0.000000e+000
 0.000000e+000 0.000000e+000 8.980177e-001 1.019822e-001 0.000000e+000
 0.000000e+000 0.000000e+000 0.000000e+000 9.626958e-001 3.730418e-002
 0.000000e+000 0.000000e+000 0.000000e+000 0.000000e+000 0.000000e+000
<ENDHMM>
