~o
<STREAMINFO> 1 25
<VECSIZE> 25<NULLD><MFCC_D_N_Z_0><DIAGC>
~h "a"
<BEGINHMM>
<NUMSTATES> 5
<STATE> 2
<MEAN> 25
 8.646455e+000 -1.229484e+001 -2.257076e+000 -6.118740e+000 2.513545e+000 2.097659e+000 1.819139e+000 3.130778e+000 2.077941e+000 1.377352e+000 -3.067872e+000 -3.836428e+000 1.381811e-001 -6.625305e-001 1.745336e-001 -2.283495e-001 4.051613e-001 2.998259e-002 2.217205e-001 3.497348e-001 -1.198818e-001 -1.574116e-001 -3.022685e-001 -2.474520e-001 6.560403e-001
<VARIANCE> 25
 5.765952e+001 1.226092e+002 7.604971e+001 9.511489e+001 5.958807e+001 7.672770e+001 6.015413e+001 7.307366e+001 3.932207e+001 4.794548e+001 3.789156e+001 3.666866e+001 2.205132e+000 4.389352e+000 2.870342e+000 4.057419e+000 3.260359e+000 3.356115e+000 3.390231e+000 3.871581e+000 2.995027e+000 2.914581e+000 2.345122e+000 2.334272e+000 3.384393e+000
<GCONST> 1.100696e+002
<STATE> 3
<MEAN> 25
 8.326774e+000 -1.297126e+001 -1.836116e+000 -5.906786e+000 3.190778e+000 1.580134e+000 2.300023e+000 3.717576e+000 1.558390e+000 7.716525e-001 -3.749270e+000 -3.788870e+000 -1.199250e-001 1.235210e-001 1.732097e-001 2.065917e-001 8.083030e-002 -1.737320e-001 5.694498e-002 1.029637e-001 -1.798835e-001 -1.349547e-001 -8.779600e-002 1.394124e-001 -1.423311e-001
<VARIANCE> 25
 4.777001e+001 1.164465e+002 6.224200e+001 8.815205e+001 5.339010e+001 6.568782e+001 5.421555e+001 6.747392e+001 3.454620e+001 4.070405e+001 3.363925e+001 3.289128e+001 1.348994e+000 2.988308e+000 1.962743e+000 2.825681e+000 2.443424e+000 2.709641e+000 2.515955e+000 3.148648e+000 2.194966e+000 2.447380e+000 1.876805e+000 2.010271e+000 2.347648e+000
<GCONST> 1.047351e+002
<STATE> 4
<MEAN> 25
 6.720090e+000 -9.986663e+000 -1.344450e+000 -2.900500e+000 2.781728e+000 6.577721e-001 2.029551e+000 3.295319e+000 9.097680e-001 3.174145e-001 -4.314309e+000 -2.186685e+000 -2.683629e-001 6.638944e-001 1.108200e-001 5.303454e-001 -8.930090e-002 -1.259322e-001 -8.589610e-002 -2.433324e-001 -1.296357e-001 -5.109341e-002 6.210065e-002 2.878647e-001 -6.735029e-001
<VARIANCE> 25
 5.400489e+001 1.101100e+002 5.756819e+001 9.770167e+001 5.598586e+001 6.127203e+001 4.504249e+001 6.394177e+001 3.649397e+001 3.784278e+001 3.365319e+001 3.178944e+001 1.389890e+000 3.067441e+000 1.923159e+000 3.441836e+000 2.698166e+000 2.452503e+000 2.335552e+000 2.988352e+000 2.397316e+000 2.367776e+000 1.876120e+000 1.832277e+000 2.562001e+000
<GCONST> 1.046687e+002
<TRANSP> 5
 0.000000e+000 1.000000e+000 0.000000e+000 0.000000e+000 0.000000e+000
 0.000000e+000 6.606905e-001 3.393095e-001 0.000000e+000 0.000000e+000
 0.000000e+000 0.000000e+000 6.810006e-001 3.189995e-001 0.000000e+000
 0.000000e+000 0.000000e+000 0.000000e+000 8.576506e-001 1.423495e-001
 0.000000e+000 0.000000e+000 0.000000e+000 0.000000e+000 0.000000e+000
<ENDHMM>
~h "b"
<BEGINHMM>
<NUMSTATES> 5
<STATE> 2
<MEAN> 25
 -8.503567e+000 5.313726e+000 -5.067825e+000 7.417491e+000 1.077622e-001 -1.397850e+000 1.059254e+000 1.343541e+000 1.977824e+000 -2.911094e+000 6.477845e-001 2.278423e+000 -2.569296e-001 3.485065e-001 4.459595e-003 2.751517e-001 4.834618e-002 -4.890492e-002 -1.178553e-002 -8.295071e-002 2.762668e-003 -4.150312e-002 1.057963e-001 5.210270e-002 -4.732367e-001
<VARIANCE> 25
 1.007770e+002 3.729764e+001 4.927197e+001 3.935868e+001 3.674696e+001 3.574831e+001 2.775108e+001 4.359662e+001 3.798606e+001 4.430759e+001 2.158676e+001 3.025061e+001 1.120976e+000 1.090953e+000 1.150628e+000 1.341908e+000 1.259425e+000 1.319044e+000 1.273242e+000 1.589101e+000 1.332183e+000 1.772047e+000 1.306369e+000 1.597581e+000 8.335864e-001
<GCONST> 9.319825e+001
<STATE> 3
<MEAN> 25
 -9.128524e+000 6.706106e+000 -4.733807e+000 8.521110e+000 -2.478511e-002 -1.430745e+000 1.047949e+000 4.680436e-001 1.778761e+000 -3.026536e+000 8.882911e-001 2.019877e+000 3.631444e-002 5.333852e-001 3.706336e-001 2.999079e-001 1.778563e-001 1.118765e-001 7.398040e-003 -2.380554e-001 -9.124257e-002 4.010173e-002 4.961348e-002 -1.482746e-001 -2.146740e-001
<VARIANCE> 25
 9.610921e+001 3.776443e+001 5.105346e+001 3.589669e+001 3.639112e+001 3.684483e+001 3.061087e+001 4.721193e+001 3.759462e+001 4.771938e+001 2.191073e+001 2.663417e+001 3.057184e+000 1.929130e+000 1.931211e+000 1.867026e+000 1.572720e+000 1.551067e+000 1.670854e+000 1.725478e+000 1.706353e+000 1.824189e+000 1.333106e+000 1.544904e+000 1.823762e+000
<GCONST> 9.746223e+001
<STATE> 4
<MEAN> 25
 5.708575e-001 1.449339e+001 1.066080e+000 1.131664e+001 1.415151e+000 1.947293e-001 1.338109e+000 -1.950094e+000 -6.987737e-001 -3.495862e+000 6.927177e-001 6.381715e-001 1.464923e+000 1.442695e-001 3.697586e-001 -2.976237e-001 -1.287897e-001 6.065028e-002 -1.604717e-001 -1.241589e-001 -2.554297e-001 6.278159e-002 -3.355768e-002 -2.036806e-001 1.196306e+000
<VARIANCE> 25
 1.321383e+002 1.289559e+002 5.991208e+001 6.053615e+001 3.725352e+001 3.141498e+001 4.035729e+001 4.456393e+001 3.783089e+001 4.916922e+001 2.499649e+001 2.329767e+001 5.369345e+000 1.220793e+001 5.107411e+000 6.870833e+000 3.400723e+000 2.449220e+000 3.328364e+000 3.444999e+000 3.164141e+000 2.971441e+000 2.037430e+000 2.253989e+000 4.139265e+000
<GCONST> 1.098273e+002
<TRANSP> 5
 0.000000e+000 1.000000e+000 0.000000e+000 0.000000e+000 0.000000e+000
 0.000000e+000 7.598228e-001 2.401772e-001 0.000000e+000 0.000000e+000
 0.000000e+000 0.000000e+000 7.334495e-001 2.665506e-001 0.000000e+000
 0.000000e+000 0.000000e+000 0.000000e+000 8.594803e-001 1.405198e-001
 0.000000e+000 0.000000e+000 0.000000e+000 0.000000e+000 0.000000e+000
<ENDHMM>
~h "c"
<BEGINHMM>
<NUMSTATES> 5
<STATE> 2
<MEAN> 25
 -1.397478e+001 3.686486e+000 -7.687677e+000 3.913488e+000 -1.887042e+000 -2.076604e+000 2.952387e+000 9.704362e-001 3.097185e+000 3.238923e-001 2.781445e+000 7.257864e-001 -2.466181e-001 -2.960069e-001 -1.591501e-001 2.212458e-002 -7.269721e-002 -6.279666e-002 1.587200e-001 2.436948e-001 1.107207e-001 -7.519350e-002 4.139308e-002 1.154509e-001 -1.013567e-001
<VARIANCE> 25
 4.115369e+001 1.065197e+001 9.920804e+000 9.130643e+000 9.645216e+000 7.634840e+000 1.566173e+001 1.518861e+001 1.341379e+001 1.141681e+001 9.321014e+000 8.808024e+000 3.813110e-001 8.178827e-001 1.337212e+000 7.512302e-001 7.526376e-001 8.900252e-001 1.287016e+000 1.077860e+000 9.673436e-001 9.027706e-001 9.023627e-001 9.556787e-001 9.120510e-001
<GCONST> 7.413689e+001
<STATE> 3
<MEAN> 25
 -1.123466e+001 6.298149e-001 -7.944484e+000 6.254895e+000 -5.951623e-001 -1.736518e+000 2.582911e+000 7.836004e-001 2.428620e+000 5.060813e-001 2.251242e+000 -6.553249e-002 3.687167e-001 -8.175738e-001 1.010542e+000 -2.917383e-002 1.412141e-001 -1.109538e-001 8.501158e-001 5.283876e-001 1.236288e-001 5.965224e-002 -3.256839e-001 -1.077233e-002 1.457924e+000
<VARIANCE> 25
 8.625242e+001 2.229410e+001 2.239147e+001 1.661821e+001 1.513324e+001 2.067617e+001 2.266739e+001 2.055258e+001 2.753039e+001 1.967950e+001 1.245964e+001 5.531047e+000 3.627966e+000 6.513946e+000 6.728338e+000 4.706292e+000 2.380366e+000 2.969353e+000 2.780608e+000 3.415921e+000 3.103611e+000 1.564309e+000 1.655753e+000 1.353054e+000 1.035699e+001
<GCONST> 9.739409e+001
<STATE> 4
<MEAN> 25
 -8.225860e+000 -3.701475e+000 6.618459e+000 -1.325335e+000 9.011642e+000 -7.879121e+000 2.797082e+000 -4.105165e+000 7.723567e-001 4.857141e-001 1.345222e+000 -7.094754e-001 7.810737e-001 -1.519795e-001 1.103750e+000 -3.841574e-001 5.038398e-002 -4.354146e-001 -1.370882e-003 -5.797634e-001 -5.861488e-001 -9.331123e-003 1.318005e-001 -2.037992e-001 1.677110e+000
<VARIANCE> 25
 2.168228e+002 9.676748e+001 7.764288e+001 1.245915e+002 1.024993e+002 7.528428e+001 4.998597e+001 7.313597e+001 8.996626e+001 4.720645e+001 2.361218e+001 3.447309e+001 1.303443e+001 6.242441e+000 6.514000e+000 1.095723e+001 9.179027e+000 7.811557e+000 6.278757e+000 6.569657e+000 6.362210e+000 4.156590e+000 2.647846e+000 2.938238e+000 7.969059e+000
<GCONST> 1.213478e+002
<TRANSP> 5
 0.000000e+000 1.000000e+000 0.000000e+000 0.000000e+000 0.000000e+000
 0.000000e+000 8.852251e-001 1.147750e-001 0.000000e+000 0.000000e+000
 0.000000e+000 0.000000e+000 5.584752e-001 4.415248e-001 0.000000e+000
 0.000000e+000 0.000000e+000 0.000000e+000 9.348241e-001 6.517590e-002
 0.000000e+000 0.000000e+000 0.000000e+000 0.000000e+000 0.000000e+000
<ENDHMM>
~h "d"
<BEGINHMM>
<NUMSTATES> 5
<STATE> 2
<MEAN> 25
 -2.460053e-001 9.758669e+000 6.778671e+000 7.784421e+000 2.933772e-001 -4.455239e-001 -1.216539e-001 1.861352e-001 -1.913966e+000 -1.908600e+000 8.302718e-001 -3.848091e-001 9.955423e-001 2.362268e-001 4.892703e-001 8.378131e-001 1.400745e-001 -1.797675e-001 -3.114816e-001 -2.233940e-001 2.323524e-001 -9.895107e-002 -2.154694e-001 2.363460e-001 5.975528e-001
<VARIANCE> 25
 6.532169e+001 1.088645e+002 1.481055e+002 5.713005e+001 8.350204e+001 3.526440e+001 4.380935e+001 5.180004e+001 5.485339e+001 3.622184e+001 3.391909e+001 2.226061e+001 3.258612e+000 8.213240e+000 5.347907e+000 4.871380e+000 7.703012e+000 3.683424e+000 3.585363e+000 3.943430e+000 3.911509e+000 2.804212e+000 3.241404e+000 2.270405e+000 3.146039e+000
<GCONST> 1.118744e+002
<STATE> 3
<MEAN> 25
 3.150130e+000 9.522975e+000 9.097463e+000 8.876854e+000 -1.489491e+000 -1.336701e+000 -1.216751e+000 -5.318212e-001 -1.951474e+000 -2.306731e+000 6.339060e-001 2.567960e-001 9.762049e-001 -4.707180e-001 5.109897e-001 3.471731e-002 -7.388796e-001 -3.102897e-001 -4.396252e-001 -1.841153e-001 3.457649e-002 -6.373039e-002 1.403102e-001 2.294815e-001 1.055065e+000
<VARIANCE> 25
 5.069444e+001 1.630883e+002 1.057585e+002 7.080121e+001 1.087331e+002 4.264383e+001 4.597841e+001 6.211007e+001 5.336262e+001 3.740719e+001 3.994190e+001 2.553611e+001 2.622696e+000 1.007333e+001 4.801125e+000 6.609786e+000 8.607247e+000 4.517539e+000 4.087974e+000 5.092519e+000 4.866468e+000 2.806642e+000 4.291069e+000 2.600944e+000 3.408509e+000
<GCONST> 1.144944e+002
<STATE> 4
<MEAN> 25
 8.037148e+000 2.306444e+000 1.299349e+001 6.018930e+000 -7.131853e+000 -2.636779e+000 -3.057637e+000 6.242806e-001 -1.727452e+000 -1.871592e+000 2.528023e+000 1.410719e+000 4.569922e-001 -1.489145e+000 2.918034e-001 -1.294260e+000 -6.203985e-001 6.669437e-002 -2.556953e-001 2.502289e-001 -1.840985e-001 2.987029e-001 2.872623e-001 -1.411888e-001 1.328734e+000
<VARIANCE> 25
 2.824042e+001 2.228466e+002 6.542207e+001 1.248833e+002 1.133233e+002 4.724440e+001 4.539621e+001 8.210808e+001 7.500693e+001 4.077761e+001 4.463675e+001 3.136328e+001 1.592646e+000 1.374783e+001 4.896783e+000 8.309528e+000 1.067747e+001 5.408348e+000 3.982169e+000 5.442657e+000 5.706526e+000 3.550672e+000 4.847691e+000 3.370030e+000 5.784801e+000
<GCONST> 1.172632e+002
<TRANSP> 5
 0.000000e+000 1.000000e+000 0.000000e+000 0.000000e+000 0.000000e+000
 0.000000e+000 6.261960e-001 3.738039e-001 0.000000e+000 0.000000e+000
 0.000000e+000 0.000000e+000 6.373552e-001 3.626448e-001 0.000000e+000
 0.000000e+000 0.000000e+000 0.000000e+000 8.715138e-001 1.284862e-001
 0.000000e+000 0.000000e+000 0.000000e+000 0.000000e+000 0.000000e+000
<ENDHMM>
~h "e"
<BEGINHMM>
<NUMSTATES> 5
<STATE> 2
<MEAN> 25
 -3.352515e+000 5.766166e+000 -1.974345e+000 4.023157e+000 -2.090454e-002 1.129652e-001 -3.610410e-001 -7.075951e-001 1.348011e+000 -5.443951e-001 2.075609e+000 8.943166e-001 5.339878e-001 4.192427e-001 -4.311408e-002 5.149897e-001 4.117089e-001 1.446465e-001 -2.200011e-001 -2.987880e-001 -6.819735e-002 1.792393e-001 -9.048489e-002 -9.797414e-002 1.256944e-001
<VARIANCE> 25
 1.355366e+002 1.379375e+002 9.341930e+001 8.241208e+001 4.991720e+001 5.244115e+001 3.811499e+001 3.438037e+001 3.803099e+001 2.696450e+001 2.394938e+001 2.298362e+001 6.941620e+000 5.370512e+000 4.263391e+000 3.378295e+000 4.075777e+000 2.774992e+000 2.845335e+000 2.884180e+000 3.358378e+000 2.677090e+000 1.694743e+000 1.778822e+000 5.586584e+000
<GCONST> 1.088602e+002
<STATE> 3
<MEAN> 25
 -3.647730e-001 6.396030e+000 -1.021071e+000 4.991656e+000 6.083306e-001 -5.771335e-001 -1.375833e+000 -1.573416e+000 1.046622e+000 4.163030e-002 1.661634e+000 6.535338e-001 1.052529e+000 -6.087196e-002 2.211897e-001 1.741621e-001 1.092930e-001 -1.458565e-001 -4.880413e-001 -3.997404e-001 -1.784591e-002 3.649059e-001 -9.447085e-002 -5.340449e-002 8.930146e-001
<VARIANCE> 25
 9.369418e+001 1.665406e+002 1.004192e+002 8.763573e+001 6.727573e+001 4.693570e+001 4.319582e+001 4.350858e+001 4.612289e+001 3.281097e+001 2.668023e+001 2.403151e+001 6.962728e+000 7.254415e+000 5.374658e+000 4.847692e+000 6.068463e+000 3.486608e+000 3.508382e+000 4.201083e+000 3.828004e+000 2.967631e+000 2.113445e+000 2.166544e+000 7.318137e+000
<GCONST> 1.129332e+002
<STATE> 4
<MEAN> 25
 6.225108e+000 2.736435e+000 6.340877e-001 3.303132e+000 -2.439166e-001 -1.019025e+000 -4.859177e+000 -3.052090e+000 1.601574e+000 2.065504e+000 1.290661e+000 1.300982e-001 9.890058e-001 -1.871325e+000 6.957904e-001 -1.195614e+000 -7.466608e-001 -1.753721e-001 -5.584698e-001 1.535364e-001 2.605562e-001 4.894632e-001 -2.432434e-001 1.444154e-002 2.007808e+000
<VARIANCE> 25
 7.389422e+001 1.679414e+002 9.927734e+001 1.174931e+002 1.095197e+002 5.331208e+001 7.025764e+001 8.266212e+001 6.141348e+001 5.029347e+001 3.801028e+001 3.136832e+001 5.686868e+000 1.429014e+001 7.253579e+000 9.760627e+000 9.576187e+000 4.117227e+000 5.666053e+000 7.859571e+000 6.629193e+000 4.581182e+000 3.089322e+000 3.141332e+000 1.044891e+001
<GCONST> 1.213566e+002
<TRANSP> 5
 0.000000e+000 1.000000e+000 0.000000e+000 0.000000e+000 0.000000e+000
 0.000000e+000 5.874744e-001 4.125257e-001 0.000000e+000 0.000000e+000
 0.000000e+000 0.000000e+000 5.701942e-001 4.298058e-001 0.000000e+000
 0.000000e+000 0.000000e+000 0.000000e+000 8.008985e-001 1.991015e-001
 0.000000e+000 0.000000e+000 0.000000e+000 0.000000e+000 0.000000e+000
<ENDHMM>
~h "f"
<BEGINHMM>
<NUMSTATES> 5
<STATE> 2
<MEAN> 25
 -6.103625e+000 4.083230e+000 7.467360e+000 2.574101e+000 -6.129084e-001 -9.200936e-001 -2.542733e+000 -2.063750e+000 -4.516424e+000 1.122564e+000 1.755472e-001 1.160174e+000 -2.601323e-001 2.400428e-001 1.350823e-001 1.829195e-001 2.744055e-002 -2.509455e-001 2.634018e-001 -2.065904e-001 -2.178069e-001 1.193563e-001 4.367092e-002 7.105202e-003 6.256236e-002
<VARIANCE> 25
 3.682901e+001 5.597840e+001 8.794688e+001 4.217338e+001 4.579419e+001 4.445119e+001 3.293274e+001 3.375951e+001 3.090819e+001 1.726761e+001 1.724462e+001 1.659525e+001 1.797058e+000 1.074466e+000 2.303266e+000 1.459265e+000 2.538210e+000 1.736215e+000 1.950324e+000 2.096684e+000 2.316186e+000 1.525110e+000 1.512506e+000 1.483264e+000 3.616863e-001
<GCONST> 9.418023e+001
<STATE> 3
<MEAN> 25
 -8.630930e+000 6.359312e+000 8.582709e+000 2.713749e+000 -9.129329e-001 -3.204999e+000 -1.526288e-001 -2.419995e+000 -5.255829e+000 1.860412e+000 1.051129e+000 1.341305e+000 -1.009021e-001 1.751873e-001 1.526504e-001 9.010457e-003 -2.371086e-001 -1.693242e-001 2.233007e-001 -2.408487e-001 -4.689723e-003 1.774831e-001 1.564433e-001 1.845133e-002 1.807575e-001
<VARIANCE> 25
 5.089308e+001 7.927758e+001 8.768540e+001 4.737610e+001 5.021013e+001 4.030288e+001 3.051705e+001 2.835409e+001 3.055867e+001 1.866207e+001 1.706292e+001 1.616920e+001 2.372257e+000 9.581206e-001 2.744973e+000 1.888355e+000 2.989273e+000 1.759512e+000 1.891957e+000 2.061882e+000 2.078198e+000 1.517556e+000 1.661260e+000 1.561438e+000 4.341657e-001
<GCONST> 9.567863e+001
<STATE> 4
<MEAN> 25
 -4.072833e+000 -2.480206e+000 2.008178e+001 -5.022305e+000 -5.160420e+000 -6.293979e+000 7.614077e-001 -3.082076e+000 -7.461097e+000 1.787028e-001 1.918793e+000 1.213137e-001 -1.971586e-002 2.206879e-001 -8.738416e-002 -1.283731e-002 -1.270236e-001 6.653245e-002 -6.871703e-002 -3.300613e-003 -4.029632e-002 1.962926e-002 4.341847e-002 -8.586368e-002 -2.326269e-001
<VARIANCE> 25
 4.970018e+001 9.207227e+001 1.754770e+002 7.480608e+001 8.712769e+001 6.754737e+001 7.462883e+001 3.024447e+001 7.811688e+001 2.822607e+001 1.602691e+001 2.592978e+001 2.249117e+000 1.982826e+000 5.158012e+000 3.548932e+000 4.011990e+000 2.993857e+000 2.745986e+000 1.826527e+000 3.341611e+000 1.907356e+000 1.613415e+000 1.651898e+000 7.046024e-001
<GCONST> 1.049711e+002
<TRANSP> 5
 0.000000e+000 1.000000e+000 0.000000e+000 0.000000e+000 0.000000e+000
 0.000000e+000 8.389034e-001 1.610966e-001 0.000000e+000 0.000000e+000
 0.000000e+000 0.000000e+000 8.322867e-001 1.677133e-001 0.000000e+000
 0.000000e+000 0.000000e+000 0.000000e+000 9.545643e-001 4.543567e-002
 0.000000e+000 0.000000e+000 0.000000e+000 0.000000e+000 0.000000e+000
<ENDHMM>
~h "g"
<BEGINHMM>
<NUMSTATES> 5
<STATE> 2
<MEAN> 25
 6.996816e+000 -7.646350e+000 9.385741e+000 -8.070344e-001 -2.184432e+000 -5.959149e+000 -6.478237e-001 5.909321e+000 -1.822464e+000 3.616367e+000 2.860226e-001 -1.086473e+000 -1.745753e-001 -3.658302e-001 6.378146e-001 -3.266270e-001 1.241273e-002 -8.248299e-001 -1.473839e-001 7.784109e-001 -9.607680e-002 2.371942e-001 -5.003909e-002 -9.154683e-002 3.585716e-001
<VARIANCE> 25
 1.831155e+001 6.229504e+001 6.449512e+001 1.440066e+002 4.828942e+001 8.107420e+001 4.962661e+001 7.382178e+001 3.501834e+001 4.425448e+001 4.574120e+001 4.327366e+001 8.311753e-001 4.391422e+000 3.576257e+000 7.406491e+000 4.431392e+000 4.644572e+000 2.791606e+000 4.336122e+000 3.473220e+000 4.093331e+000 4.746466e+000 2.790256e+000 3.136933e+000
<GCONST> 1.100086e+002
<STATE> 3
<MEAN> 25
 6.093914e+000 -8.136585e+000 1.098115e+001 -3.905747e+000 -1.522809e+000 -8.071731e+000 -1.940791e+000 8.815311e+000 -1.280829e+000 4.113957e+000 -8.464090e-001 -8.725109e-001 -1.242826e-001 -5.383803e-002 -1.408097e-001 -3.721562e-001 4.044546e-001 -2.019771e-002 1.352333e-001 1.088690e-001 1.729081e-001 6.795042e-002 -5.063244e-001 -2.324384e-002 3.825876e-002
<VARIANCE> 25
 1.825768e+001 6.295226e+001 3.950048e+001 1.458685e+002 3.780227e+001 4.381485e+001 3.895903e+001 5.396548e+001 3.271704e+001 3.096574e+001 4.748083e+001 3.977986e+001 6.796148e-001 2.516802e+000 2.283396e+000 5.894285e+000 3.288760e+000 3.035252e+000 2.557312e+000 2.520087e+000 2.897985e+000 3.193306e+000 3.066269e+000 2.091908e+000 2.419194e+000
<GCONST> 1.034481e+002
<STATE> 4
<MEAN> 25
 2.874067e+000 -7.726472e+000 5.859272e+000 -5.306728e+000 1.032387e+000 -5.801913e+000 3.864961e-001 6.767811e+000 1.200701e+000 3.272258e+000 -6.143778e+000 -3.991036e-001 -2.762148e-001 2.742361e-001 -4.587032e-001 3.610595e-001 5.077363e-002 2.925210e-001 1.030074e-001 -2.447648e-001 1.044865e-001 -1.777418e-001 -2.271501e-002 -1.966775e-002 -5.874064e-001
<VARIANCE> 25
 3.456005e+001 5.618871e+001 5.689229e+001 1.249012e+002 2.856544e+001 3.537842e+001 3.458398e+001 4.002183e+001 3.137722e+001 3.970697e+001 4.864246e+001 2.179091e+001 6.016514e-001 1.646784e+000 1.343678e+000 3.729134e+000 2.066259e+000 1.761824e+000 1.777469e+000 1.936126e+000 1.876131e+000 1.781648e+000 1.980170e+000 1.681321e+000 1.641812e+000
<GCONST> 9.766735e+001
<TRANSP> 5
 0.000000e+000 1.000000e+000 0.000000e+000 0.000000e+000 0.000000e+000
 0.000000e+000 9.019591e-001 9.804098e-002 0.000000e+000 0.000000e+000
 0.000000e+000 0.000000e+000 8.489427e-001 1.510573e-001 0.000000e+000
 0.000000e+000 0.000000e+000 0.000000e+000 9.565995e-001 4.340051e-002
 0.000000e+000 0.000000e+000 0.000000e+000 0.000000e+000 0.000000e+000
<ENDHMM>
~h "h"
<BEGINHMM>
<NUMSTATES> 5
<STATE> 2
<MEAN> 25
 8.545121e-001 -5.234987e-001 -2.089884e+000 1.386700e+000 1.330906e+000 5.745067e-001 1.036736e+000 8.875678e-001 1.268890e+000 -4.986897e-001 -9.781529e-001 2.221089e-001 -1.781218e-001 1.713856e-001 -1.873740e-002 1.378429e-001 3.343671e-003 1.239343e-001 -1.600047e-001 -5.741814e-002 -7.970633e-002 -8.682497e-002 8.705442e-002 5.067771e-002 -3.106477e-001
<VARIANCE> 25
 3.326074e+001 4.661121e+001 4.600418e+001 2.543493e+001 3.676774e+001 3.642944e+001 8.625766e+001 3.581914e+001 3.049925e+001 2.084752e+001 2.015952e+001 1.576922e+001 5.958337e-001 1.191093e+000 1.719904e+000 1.550905e+000 1.604479e+000 2.041502e+000 2.838357e+000 1.942154e+000 1.887280e+000 1.623913e+000 1.551275e+000 1.529287e+000 8.462238e-001
<GCONST> 9.315907e+001
<STATE> 3
<MEAN> 25
 -4.408912e+000 1.824021e+000 -1.680586e+000 3.156734e+000 2.540217e+000 2.005814e+000 -2.172963e+000 -1.225087e+000 -4.401198e-001 -8.118598e-001 -1.681026e-001 9.870810e-001 -4.358101e-001 2.774422e-001 6.586751e-003 2.905813e-002 -1.556968e-001 -4.649174e-002 -1.598878e-001 -1.531491e-001 -1.570987e-001 -1.033992e-001 1.432775e-001 3.502747e-003 -3.654701e-001
<VARIANCE> 25
 5.691637e+001 6.145507e+001 6.360263e+001 1.839717e+001 2.311405e+001 1.918134e+001 4.258105e+001 2.144581e+001 2.961751e+001 1.943905e+001 2.573257e+001 1.390750e+001 4.442909e-001 6.460690e-001 9.063103e-001 8.621157e-001 1.332895e+000 1.571649e+000 1.748683e+000 1.590133e+000 1.624035e+000 1.756519e+000 1.683812e+000 1.255492e+000 4.870960e-001
<GCONST> 8.766366e+001
<STATE> 4
<MEAN> 25
 -8.869662e+000 -1.923934e+000 -5.594678e+000 4.313244e+000 1.185860e-002 4.505166e+000 4.175760e-001 4.645303e-001 -1.295716e+000 -1.561465e+000 2.574404e+000 -3.166603e-001 -4.260090e-001 2.978088e-001 -7.147823e-002 3.510696e-002 -3.157106e-001 7.457557e-002 1.675024e-001 -1.402700e-002 -5.090487e-002 -1.846535e-001 3.248083e-001 7.842987e-002 -3.799281e-001
<VARIANCE> 25
 1.092399e+002 2.108930e+002 9.108508e+001 1.286160e+001 2.900515e+001 3.518474e+001 3.608856e+001 4.727068e+001 3.430375e+001 2.379855e+001 2.967486e+001 1.597574e+001 1.600144e+000 1.111034e+000 1.970723e+000 9.105718e-001 1.550184e+000 2.320006e+000 1.452220e+000 1.545160e+000 1.864247e+000 1.834767e+000 1.898851e+000 1.647503e+000 1.422119e+000
<GCONST> 9.626476e+001
<TRANSP> 5
 0.000000e+000 1.000000e+000 0.000000e+000 0.000000e+000 0.000000e+000
 0.000000e+000 9.574773e-001 4.252268e-002 0.000000e+000 0.000000e+000
 0.000000e+000 0.000000e+000 9.193571e-001 8.064292e-002 0.000000e+000
 0.000000e+000 0.000000e+000 0.000000e+000 8.836218e-001 1.163783e-001
 0.000000e+000 0.000000e+000 0.000000e+000 0.000000e+000 0.000000e+000
<ENDHMM>
~h "i"
<BEGINHMM>
<NUMSTATES> 5
<STATE> 2
<MEAN> 25
 -5.316427e+000 3.446902e+000 7.423816e+000 2.202579e+000 -4.829159e+000 -1.728072e+000 -1.527770e+000 -2.004405e+000 -3.047710e+000 -1.087608e+000 3.257180e+000 -6.177172e-003 6.036893e-001 -3.777598e-001 1.872941e+000 -5.627857e-001 -1.463398e+000 8.165717e-002 -3.369636e-001 -1.516385e-001 -8.453550e-001 -2.824644e-001 5.044023e-001 -2.169444e-001 9.999994e-001
<VARIANCE> 25
 9.494067e+001 6.497250e+001 2.144485e+002 7.235574e+001 8.033472e+001 6.165355e+001 5.355054e+001 5.281794e+001 7.426729e+001 3.957800e+001 3.261781e+001 2.542319e+001 3.547289e+000 4.110053e+000 9.859534e+000 5.538606e+000 6.543782e+000 4.357355e+000 4.417160e+000 3.951805e+000 4.836864e+000 3.505716e+000 2.532479e+000 2.188257e+000 5.190448e+000
<GCONST> 1.145651e+002
<STATE> 3
<MEAN> 25
 -3.358496e+000 2.814832e+000 1.264332e+001 7.165890e-001 -7.595051e+000 -8.799397e-001 -2.647323e+000 -2.326057e+000 -5.008774e+000 -1.490170e+000 3.899365e+000 -8.532913e-001 6.912118e-001 -4.075391e-001 1.749666e+000 -5.439582e-001 -1.007933e+000 1.189506e-001 -3.269702e-001 1.334235e-001 -6.211266e-001 -2.957152e-001 1.635459e-001 -6.980589e-002 1.011614e+000
<VARIANCE> 25
 8.156049e+001 6.390499e+001 2.635876e+002 9.245447e+001 8.602940e+001 5.556070e+001 6.298120e+001 5.327602e+001 8.613451e+001 3.917778e+001 3.057924e+001 2.976746e+001 3.434615e+000 4.302758e+000 1.154609e+001 6.723782e+000 8.732755e+000 5.192101e+000 5.929593e+000 4.616463e+000 4.774507e+000 3.481714e+000 2.776775e+000 2.841524e+000 5.017659e+000
<GCONST> 1.167934e+002
<STATE> 4
<MEAN> 25
 1.705904e+000 1.066726e-001 2.512592e+001 -4.359568e+000 -1.117518e+001 4.813651e-001 -3.341774e+000 -1.712719e-001 -1.024010e+001 -2.063486e+000 2.798914e+000 -1.386939e+000 1.736263e-001 -1.045182e-001 -9.664237e-003 -8.694079e-002 2.294588e-001 -6.440183e-002 -5.542994e-002 1.618837e-001 -5.142767e-004 9.575666e-002 -2.313789e-001 3.248387e-002 1.693535e-001
<VARIANCE> 25
 3.718507e+001 4.491601e+001 2.274494e+002 1.083382e+002 8.105486e+001 6.776115e+001 6.062561e+001 5.962911e+001 8.542033e+001 4.108524e+001 2.802563e+001 3.157808e+001 1.964210e+000 3.131877e+000 1.364280e+001 7.307290e+000 6.269546e+000 4.808244e+000 4.620109e+000 3.838221e+000 4.536628e+000 2.753376e+000 2.227939e+000 2.471250e+000 4.797658e+000
<GCONST> 1.137318e+002
<TRANSP> 5
 0.000000e+000 1.000000e+000 0.000000e+000 0.000000e+000 0.000000e+000
 0.000000e+000 4.832191e-001 5.167810e-001 0.000000e+000 0.000000e+000
 0.000000e+000 0.000000e+000 5.187746e-001 4.812253e-001 0.000000e+000
 0.000000e+000 0.000000e+000 0.000000e+000 9.222345e-001 7.776551e-002
 0.000000e+000 0.000000e+000 0.000000e+000 0.000000e+000 0.000000e+000
<ENDHMM>
~h "j"
<BEGINHMM>
<NUMSTATES> 5
<STATE> 2
<MEAN> 25
 2.620451e+000 1.728948e+001 -1.367974e+000 9.629492e+000 4.439888e+000 -2.518023e+000 -5.037805e+000 -4.233488e+000 1.503855e-001 -1.901982e+000 -8.140495e-002 1.644607e+000 1.802664e+000 4.627248e-001 7.483086e-001 2.246430e-001 1.548722e+000 -4.125179e-001 -8.952472e-001 1.614440e-002 -7.202274e-001 7.425638e-001 -9.310723e-002 -3.291475e-001 1.574362e+000
<VARIANCE> 25
 9.383440e+001 1.849456e+002 1.003412e+002 5.965993e+001 7.045620e+001 2.522934e+001 3.193419e+001 2.984280e+001 2.462793e+001 1.235615e+001 8.955940e+000 1.273298e+001 8.090225e+000 5.837187e+000 2.297039e+000 4.216549e+000 7.376949e+000 3.119813e+000 3.726117e+000 3.567313e+000 2.818858e+000 1.145583e+000 1.253577e+000 2.479817e+000 2.978689e+000
<GCONST> 1.044497e+002
<STATE> 3
<MEAN> 25
 5.645700e+000 7.679564e+000 1.390206e+000 1.947819e+000 1.214620e+001 -6.346276e+000 -1.041457e+001 4.660736e-001 -1.179588e+000 2.641644e+000 6.830982e-001 1.826341e+000 -1.230356e-001 -2.524094e+000 7.850003e-001 -2.140483e+000 2.659641e+000 -8.516134e-001 -9.674835e-001 1.769017e+000 -1.059782e+000 6.462241e-001 -3.994123e-001 -3.425947e-001 2.303714e+000
<VARIANCE> 25
 3.548631e+001 2.768855e+002 2.384250e+002 9.674096e+001 2.392741e+002 2.868532e+001 6.207101e+001 5.925847e+001 3.723297e+001 2.191982e+001 6.028800e+000 3.896935e+001 4.256845e+000 8.200105e+000 7.428073e+000 9.420601e+000 3.085710e+001 1.704995e+000 1.421845e+001 4.206190e+000 5.704101e+000 3.297857e+000 1.061375e+000 5.416722e+000 4.637856e+000
<GCONST> 1.164665e+002
<STATE> 4
<MEAN> 25
 4.064016e+000 -8.099141e+000 1.175546e+001 -9.602530e+000 3.678805e+000 -1.214580e+001 2.405404e+000 7.533958e+000 -2.575846e+000 3.821207e+000 -4.197211e+000 2.806347e+000 5.900050e-003 -2.026637e-001 2.998981e-001 -1.609056e-001 -4.060773e-001 -1.776987e-001 4.536086e-001 -5.805315e-002 1.938573e-002 3.374698e-002 -7.433543e-002 1.679731e-001 2.537707e-001
<VARIANCE> 25
 2.481223e+001 8.652440e+001 1.080954e+002 7.706673e+001 9.949685e+001 7.084149e+001 9.230730e+001 6.052248e+001 5.320967e+001 2.505199e+001 5.745924e+001 3.970537e+001 1.526048e+000 3.063322e+000 4.210637e+000 4.692853e+000 1.072477e+001 3.885644e+000 4.080383e+000 3.899254e+000 4.952741e+000 2.013358e+000 3.428573e+000 1.944743e+000 3.241725e+000
<GCONST> 1.114586e+002
<TRANSP> 5
 0.000000e+000 1.000000e+000 0.000000e+000 0.000000e+000 0.000000e+000
 0.000000e+000 7.354347e-001 2.645654e-001 0.000000e+000 0.000000e+000
 0.000000e+000 0.000000e+000 6.540356e-001 3.459644e-001 0.000000e+000
 0.000000e+000 0.000000e+000 0.000000e+000 9.676582e-001 3.234182e-002
 0.000000e+000 0.000000e+000 0.000000e+000 0.000000e+000 0.000000e+000
<ENDHMM>
~h "k"
<BEGINHMM>
<NUMSTATES> 5
<STATE> 2
<MEAN> 25
 -2.930014e+000 1.043786e-001 -5.450374e+000 1.849990e+000 1.052735e+000 4.174561e-001 -6.881713e-001 -7.761617e-001 1.479706e+000 -1.486302e-001 -8.278936e-001 -1.202989e+000 -2.495881e-001 -9.858754e-002 -4.686537e-001 2.137275e-001 2.209993e-001 -1.133341e-001 3.459740e-002 2.675766e-001 2.029167e-001 7.071817e-002 6.821810e-002 1.703746e-003 -2.377025e-001
<VARIANCE> 25
 6.215471e+001 8.606470e+001 6.375280e+001 4.123203e+001 4.257722e+001 3.802509e+001 3.117419e+001 2.922041e+001 2.807381e+001 2.229160e+001 2.398422e+001 2.239151e+001 1.420443e+000 3.195041e+000 2.318094e+000 1.754784e+000 3.024153e+000 2.039950e+000 2.979090e+000 2.466080e+000 2.126216e+000 1.701036e+000 1.558803e+000 1.747620e+000 2.441001e+000
<GCONST> 9.924465e+001
<STATE> 3
<MEAN> 25
 -3.413925e+000 -9.565648e-002 -6.943169e+000 2.363230e+000 1.928667e+000 5.851261e-001 -1.128202e-001 -1.973053e-001 2.029391e+000 -1.929750e-002 -5.681787e-001 -1.115558e+000 1.054621e-001 -4.267244e-001 -3.252236e-001 5.595709e-002 4.580332e-001 -5.614375e-002 -6.597969e-003 2.994941e-001 2.351481e-001 1.319001e-001 1.753765e-002 -4.104144e-002 3.512682e-001
<VARIANCE> 25
 6.994238e+001 9.605228e+001 5.988337e+001 4.080034e+001 4.413511e+001 3.667921e+001 4.337897e+001 3.391095e+001 2.884164e+001 2.205022e+001 2.357151e+001 2.225624e+001 2.238930e+000 4.583759e+000 3.151975e+000 2.616198e+000 4.174590e+000 2.560004e+000 4.429441e+000 3.094851e+000 2.368767e+000 2.224870e+000 1.765975e+000 1.816103e+000 3.626658e+000
<GCONST> 1.035026e+002
<STATE> 4
<MEAN> 25
 6.489568e-001 -6.074043e+000 -7.558739e+000 4.338041e-001 5.533379e+000 1.144084e+000 -5.917368e-002 2.638701e-001 3.732935e+000 1.129829e+000 -1.185442e+000 -2.353875e+000 9.564884e-001 -1.141143e+000 3.645594e-001 -7.342182e-001 2.948238e-001 4.007985e-002 3.759146e-001 1.735855e-001 2.620579e-002 2.409296e-001 -1.765665e-001 -3.815114e-001 1.800911e+000
<VARIANCE> 25
 1.015675e+002 1.615944e+002 6.601000e+001 8.825898e+001 8.822942e+001 6.691294e+001 7.952027e+001 5.641643e+001 4.299444e+001 2.927317e+001 2.852096e+001 2.816436e+001 5.005197e+000 7.515318e+000 4.786325e+000 4.922521e+000 9.072467e+000 4.203200e+000 7.497497e+000 4.904746e+000 4.279420e+000 3.114950e+000 2.213247e+000 2.262074e+000 7.437468e+000
<GCONST> 1.154815e+002
<TRANSP> 5
 0.000000e+000 1.000000e+000 0.000000e+000 0.000000e+000 0.000000e+000
 0.000000e+000 6.660802e-001 3.339198e-001 0.000000e+000 0.000000e+000
 0.000000e+000 0.000000e+000 6.696931e-001 3.303068e-001 0.000000e+000
 0.000000e+000 0.000000e+000 0.000000e+000 8.165705e-001 1.834295e-001
 0.000000e+000 0.000000e+000 0.000000e+000 0.000000e+000 0.000000e+000
<ENDHMM>
~h "l"
<BEGINHMM>
<NUMSTATES> 5
<STATE> 2
<MEAN> 25
 6.172372e+000 -1.754241e+000 2.645055e+000 -8.838234e+000 -4.626678e-001 -2.533769e+000 -6.149938e+000 1.565418e+000 2.252993e+000 4.712884e+000 -9.599946e-001 -1.229128e+000 2.507577e-001 -3.835836e-001 8.781993e-002 -1.143311e+000 1.753716e-001 3.945364e-001 -1.908598e-001 -2.139328e-001 2.123024e-001 5.234640e-001 -1.995015e-001 -1.706144e-002 6.195965e-001
<VARIANCE> 25
 7.763936e+001 1.167207e+002 1.148377e+002 1.566434e+002 5.679684e+001 7.592493e+001 8.661352e+001 6.250047e+001 6.874933e+001 5.151857e+001 4.516074e+001 3.370699e+001 2.753780e+000 3.945210e+000 4.007627e+000 5.777826e+000 3.396212e+000 4.275300e+000 3.978482e+000 4.845802e+000 3.588326e+000 3.404876e+000 2.291799e+000 2.333095e+000 3.542621e+000
<GCONST> 1.139290e+002
<STATE> 3
<MEAN> 25
 6.800035e+000 -2.916290e+000 2.437052e+000 -1.103410e+001 4.559472e-001 -1.462255e+000 -5.821918e+000 5.183125e-001 2.951982e+000 5.937743e+000 -1.682471e+000 -1.186663e+000 1.039083e-001 -4.019205e-001 -1.182161e-001 -5.132273e-001 2.767424e-001 3.339249e-001 2.073257e-001 -2.858579e-001 2.058243e-001 2.345631e-001 -2.784344e-001 1.973986e-002 3.847335e-001
<VARIANCE> 25
 6.297570e+001 9.875408e+001 1.068965e+002 1.410200e+002 6.105098e+001 8.079868e+001 8.844118e+001 7.952411e+001 6.445983e+001 5.661134e+001 4.960609e+001 3.527955e+001 2.299376e+000 3.882307e+000 3.260279e+000 4.511520e+000 3.249368e+000 3.632449e+000 4.094199e+000 4.554395e+000 3.319783e+000 3.880078e+000 2.394173e+000 2.197922e+000 2.714158e+000
<GCONST> 1.128211e+002
<STATE> 4
<MEAN> 25
 8.030865e+000 -5.062201e+000 2.929075e+000 -1.120715e+001 2.660709e+000 7.996457e-001 -4.134217e+000 -1.100091e+000 1.843922e+000 7.246431e+000 -4.278354e+000 -6.609225e-001 -4.675320e-002 -3.299690e-001 -2.430193e-001 2.541075e-001 1.937623e-001 1.885538e-001 3.957820e-001 4.487163e-002 -5.038203e-002 -2.997768e-001 -2.655041e-001 3.604594e-002 2.787569e-002
<VARIANCE> 25
 4.145380e+001 9.020889e+001 8.065948e+001 1.233777e+002 5.824775e+001 7.636610e+001 8.534134e+001 1.016302e+002 7.961076e+001 6.542152e+001 5.132118e+001 4.086642e+001 1.492656e+000 3.315661e+000 2.225866e+000 4.081522e+000 2.669685e+000 2.677903e+000 3.438155e+000 3.783266e+000 3.548378e+000 3.210678e+000 2.677520e+000 1.921009e+000 2.387336e+000
<GCONST> 1.103330e+002
<TRANSP> 5
 0.000000e+000 1.000000e+000 0.000000e+000 0.000000e+000 0.000000e+000
 0.000000e+000 6.089872e-001 3.910128e-001 0.000000e+000 0.000000e+000
 0.000000e+000 0.000000e+000 6.360726e-001 3.639273e-001 0.000000e+000
 0.000000e+000 0.000000e+000 0.000000e+000 8.956292e-001 1.043708e-001
 0.000000e+000 0.000000e+000 0.000000e+000 0.000000e+000 0.000000e+000
<ENDHMM>
~h "m"
<BEGINHMM>
<NUMSTATES> 5
<STATE> 2
<MEAN> 25
 1.004538e+000 2.431505e+000 -3.955194e+000 4.584955e+000 2.380700e+000 3.191299e+000 -1.532654e-001 -4.201717e+000 -1.379748e+000 -4.547311e-001 3.101965e-001 1.224390e+000 -2.635654e-001 5.166658e-001 -7.836648e-002 4.467257e-001 -4.549995e-003 1.071034e-002 9.937737e-002 -1.448483e-001 -1.987447e-001 -1.122804e-001 4.031588e-002 1.118075e-001 -5.883755e-001
<VARIANCE> 25
 1.264121e+002 4.561792e+001 6.764451e+001 3.550823e+001 3.440717e+001 4.216368e+001 2.888449e+001 5.339269e+001 7.457838e+001 2.207395e+001 2.211127e+001 2.111479e+001 1.107746e+000 9.655428e-001 1.247124e+000 1.919062e+000 1.053150e+000 1.129071e+000 1.367873e+000 1.965242e+000 2.210819e+000 1.265201e+000 1.110984e+000 1.310364e+000 8.566896e-001
<GCONST> 9.391537e+001
<STATE> 3
<MEAN> 25
 9.209395e-001 4.553635e+000 -4.019431e+000 5.357062e+000 1.782459e+000 3.209948e+000 8.090581e-001 -4.221246e+000 -1.858635e+000 -9.088219e-001 3.340689e-001 1.254464e+000 2.356122e-002 3.943969e-001 -5.693030e-002 1.920017e-001 -5.382713e-002 2.074701e-002 1.224844e-001 2.965506e-002 9.646690e-003 -1.041361e-001 1.007347e-002 3.305080e-002 -2.315277e-001
<VARIANCE> 25
 1.472174e+002 4.571370e+001 6.364724e+001 3.636207e+001 3.629953e+001 4.318399e+001 2.861359e+001 5.964361e+001 7.038406e+001 2.384479e+001 2.277050e+001 2.172924e+001 2.172151e+000 1.446703e+000 1.604758e+000 1.632634e+000 1.248609e+000 1.432005e+000 1.372638e+000 2.012412e+000 2.221547e+000 1.439385e+000 1.247628e+000 1.241107e+000 1.390503e+000
<GCONST> 9.657200e+001
<STATE> 4
<MEAN> 25
 8.071123e+000 3.785978e+000 -5.356043e+000 3.807423e+000 2.419596e+000 5.949110e+000 1.157755e+000 -5.851814e+000 -2.455320e+000 -1.669443e+000 3.504944e-001 9.203547e-001 6.797475e-001 -4.230498e-001 -2.100265e-001 -3.395970e-001 -3.201726e-002 1.984143e-001 -1.966332e-001 1.183022e-001 2.433997e-001 -1.423540e-001 -2.384111e-002 -7.019378e-002 7.156247e-001
<VARIANCE> 25
 1.250134e+002 1.326800e+002 7.005083e+001 8.493687e+001 6.197942e+001 6.482953e+001 4.099938e+001 6.560877e+001 8.641479e+001 3.518023e+001 3.292345e+001 2.263882e+001 5.237579e+000 6.112731e+000 3.789538e+000 4.980220e+000 2.405559e+000 3.292051e+000 2.906161e+000 4.824298e+000 6.247298e+000 2.159631e+000 2.029736e+000 1.456269e+000 3.630594e+000
<GCONST> 1.112728e+002
<TRANSP> 5
 0.000000e+000 1.000000e+000 0.000000e+000 0.000000e+000 0.000000e+000
 0.000000e+000 8.273935e-001 1.726064e-001 0.000000e+000 0.000000e+000
 0.000000e+000 0.000000e+000 7.801660e-001 2.198340e-001 0.000000e+000
 0.000000e+000 0.000000e+000 0.000000e+000 8.757758e-001 1.242242e-001
 0.000000e+000 0.000000e+000 0.000000e+000 0.000000e+000 0.000000e+000
<ENDHMM>
~h "n"
<BEGINHMM>
<NUMSTATES> 5
<STATE> 2
<MEAN> 25
 7.844211e+000 -4.156342e+000 3.425652e+000 1.175818e+000 2.375247e-002 -4.542546e+000 -4.824842e-001 1.611593e+000 -1.466305e+000 7.728226e-001 -4.108719e+000 -8.476562e-002 -1.568773e-001 1.004656e+000 1.873434e-001 8.157932e-001 -2.706617e-001 -7.084897e-002 -2.735940e-001 -5.920185e-001 -1.379459e-001 1.628907e-001 1.467368e-001 1.683393e-001 -9.081501e-001
<VARIANCE> 25
 2.169360e+001 7.520761e+001 5.629291e+001 6.122147e+001 2.734225e+001 4.031557e+001 5.344593e+001 8.112130e+001 2.985390e+001 3.103371e+001 2.881430e+001 1.823583e+001 3.820710e-001 1.993571e+000 1.423393e+000 2.436796e+000 1.481555e+000 1.636437e+000 2.867865e+000 3.674915e+000 1.915969e+000 1.695727e+000 1.415489e+000 1.177504e+000 1.125262e+000
<GCONST> 9.598414e+001
<STATE> 3
<MEAN> 25
 5.990005e+000 5.565183e-001 2.761107e+000 4.869175e+000 -8.115151e-001 -4.006677e+000 -1.103747e+000 -1.867826e-001 -1.023021e+000 7.181090e-001 -2.889938e+000 6.114200e-001 -3.063677e-001 6.562567e-001 -6.440579e-002 4.621048e-001 -9.913241e-002 1.088748e-001 -3.617261e-002 -2.490566e-001 5.976815e-002 1.246797e-003 1.910223e-001 1.000134e-001 -7.487237e-001
<VARIANCE> 25
 3.183065e+001 5.462960e+001 6.065001e+001 5.851623e+001 2.828667e+001 3.559686e+001 4.406456e+001 6.288642e+001 2.875105e+001 2.836796e+001 2.651824e+001 1.727027e+001 3.935139e-001 1.231553e+000 1.332774e+000 1.691786e+000 1.337548e+000 1.667385e+000 2.486804e+000 2.467509e+000 1.554815e+000 1.514970e+000 1.239308e+000 1.169296e+000 5.179569e-001
<GCONST> 9.252957e+001
<STATE> 4
<MEAN> 25
 2.383602e+000 3.287924e+000 3.203302e+000 5.447037e+000 -2.425020e+000 -3.904305e+000 -1.088583e+000 -7.844609e-001 -1.400576e+000 3.699704e-001 -9.754875e-001 1.277835e+000 -3.704967e-001 3.132480e-001 -3.731167e-001 2.813334e-001 7.098540e-002 5.180646e-002 2.559722e-002 3.090082e-003 1.733201e-001 -1.293313e-001 1.532666e-001 5.710502e-002 -6.028028e-001
<VARIANCE> 25
 4.881544e+001 5.385712e+001 1.258754e+002 1.087136e+002 3.941635e+001 4.046409e+001 3.844701e+001 6.194431e+001 4.591722e+001 3.939125e+001 2.719832e+001 2.185041e+001 6.637413e-001 1.732641e+000 1.555324e+000 2.116707e+000 1.762816e+000 2.102871e+000 2.226282e+000 2.829848e+000 1.781200e+000 1.721086e+000 1.475993e+000 1.438752e+000 6.270958e-001
<GCONST> 9.827199e+001
<TRANSP> 5
 0.000000e+000 1.000000e+000 0.000000e+000 0.000000e+000 0.000000e+000
 0.000000e+000 7.888389e-001 2.111611e-001 0.000000e+000 0.000000e+000
 0.000000e+000 0.000000e+000 8.190599e-001 1.809401e-001 0.000000e+000
 0.000000e+000 0.000000e+000 0.000000e+000 9.239374e-001 7.606265e-002
 0.000000e+000 0.000000e+000 0.000000e+000 0.000000e+000 0.000000e+000
<ENDHMM>
~h "o"
<BEGINHMM>
<NUMSTATES> 5
<STATE> 2
<MEAN> 25
 1.008023e+001 -4.593672e+000 1.124947e+001 -1.003931e+001 -2.926779e+000 -2.614711e+000 -6.343591e+000 9.628420e-001 -6.446168e+000 8.490317e+000 2.771918e+000 8.148164e-001 1.001492e-001 -2.764552e-001 -9.186854e-002 -1.785167e+000 -9.479520e-002 1.003048e+000 -7.612866e-003 -2.852214e-001 2.937157e-001 1.200816e-001 -6.600407e-002 1.161474e-001 5.459534e-001
<VARIANCE> 25
 1.813235e+001 2.218472e+001 6.586964e+001 2.079269e+002 3.231294e+001 7.485721e+001 2.413101e+001 9.578494e+001 4.067080e+001 4.313380e+001 2.055633e+001 1.487027e+001 5.165719e-001 2.403019e+000 3.890719e+000 6.224775e+000 3.176709e+000 3.845326e+000 2.869484e+000 3.350940e+000 4.577058e+000 2.230298e+000 2.322792e+000 1.478336e+000 1.562150e+000
<GCONST> 1.023702e+002
<STATE> 3
<MEAN> 25
 9.898673e+000 -6.089984e+000 7.774549e+000 -1.548372e+001 -1.504001e+000 6.557428e-001 -4.730182e+000 9.204695e-001 -3.093300e+000 8.347027e+000 -7.624115e-001 -9.201898e-002 -2.270926e-001 -1.690976e-001 -3.100516e-001 -5.607864e-002 2.471321e-001 -1.646805e-001 4.265914e-001 4.712950e-001 2.105191e-001 -2.998017e-001 -5.898140e-001 -2.439442e-001 -3.413381e-002
<VARIANCE> 25
 2.219621e+001 2.282337e+001 4.016124e+001 1.022763e+002 2.612739e+001 7.384438e+001 3.493847e+001 7.485323e+001 1.618105e+001 4.393908e+001 2.557558e+001 1.429742e+001 8.257274e-001 1.403724e+000 1.762290e+000 5.925737e+000 1.310906e+000 4.417178e+000 3.883360e+000 3.405131e+000 1.964659e+000 2.840415e+000 2.028935e+000 1.322649e+000 1.382323e+000
<GCONST> 9.825958e+001
<STATE> 4
<MEAN> 25
 3.602319e+000 -3.293067e+000 3.925953e+000 -1.025520e+001 1.031710e+000 -1.896144e+000 -1.582394e+000 3.880226e-001 -2.398811e+000 6.207652e+000 -3.560577e+000 -2.439999e+000 -6.698257e-001 5.578333e-002 -2.906457e-001 5.605237e-001 1.975431e-001 -2.380963e-001 2.312286e-001 2.114082e-001 1.600652e-001 -2.199505e-001 -1.207179e-001 1.412759e-003 -7.216642e-001
<VARIANCE> 25
 5.780336e+001 4.143236e+001 6.371471e+001 1.594339e+002 2.259975e+001 6.602664e+001 3.055849e+001 8.088412e+001 2.420043e+001 5.426946e+001 3.120192e+001 1.250182e+001 3.137999e+000 1.625434e+000 3.447342e+000 1.158215e+001 1.592079e+000 3.077682e+000 2.933042e+000 3.278887e+000 2.540720e+000 4.859013e+000 2.076754e+000 1.701619e+000 4.631290e+000
<GCONST> 1.056991e+002
<TRANSP> 5
 0.000000e+000 1.000000e+000 0.000000e+000 0.000000e+000 0.000000e+000
 0.000000e+000 9.082360e-001 9.176399e-002 0.000000e+000 0.000000e+000
 0.000000e+000 0.000000e+000 8.664631e-001 1.335369e-001 0.000000e+000
 0.000000e+000 0.000000e+000 0.000000e+000 9.480406e-001 5.195939e-002
 0.000000e+000 0.000000e+000 0.000000e+000 0.000000e+000 0.000000e+000
<ENDHMM>
~h "p"
<BEGINHMM>
<NUMSTATES> 5
<STATE> 2
<MEAN> 25
 -7.271333e-001 1.820223e+000 -2.659808e-001 3.622993e+000 -1.097244e+000 7.281600e-001 -1.867695e+000 -1.790138e+000 -6.519530e-001 -5.278543e-001 4.120528e-001 1.237544e+000 -2.021471e-001 2.221057e-002 -5.851820e-001 9.643566e-002 -9.146969e-002 -1.316722e-001 1.811419e-001 1.313072e-001 3.033178e-002 -7.371508e-002 3.442441e-002 -8.223594e-002 -3.886952e-001
<VARIANCE> 25
 4.687664e+001 3.518333e+001 6.164593e+001 4.048171e+001 3.326655e+001 2.618853e+001 2.599086e+001 3.221014e+001 3.476637e+001 1.947834e+001 2.541673e+001 1.967843e+001 2.122375e+000 1.627711e+000 2.059720e+000 2.531592e+000 1.931430e+000 1.628995e+000 1.688894e+000 1.742103e+000 1.915139e+000 1.749752e+000 1.553069e+000 1.491452e+000 2.114967e+000
<GCONST> 9.532487e+001
<STATE> 3
<MEAN> 25
 -1.000954e+000 2.105048e+000 -2.111717e+000 3.697853e+000 -1.801210e+000 3.083647e-001 -1.142537e+000 -1.474661e+000 -6.002037e-001 -8.745050e-001 5.269237e-001 1.065395e+000 3.621649e-001 -8.979711e-002 -5.663820e-001 -2.789352e-001 -2.174488e-001 -1.120108e-001 3.109310e-001 1.771060e-001 -6.649014e-002 -6.971981e-002 1.721632e-002 -1.843685e-001 2.460416e-001
<VARIANCE> 25
 4.670517e+001 3.913757e+001 5.827239e+001 4.027624e+001 3.243453e+001 2.754297e+001 2.734966e+001 3.104072e+001 3.104160e+001 2.054964e+001 2.167803e+001 1.905675e+001 3.301584e+000 2.901483e+000 2.812033e+000 3.523326e+000 2.190315e+000 1.831756e+000 2.116967e+000 2.118381e+000 1.927755e+000 1.925745e+000 1.716171e+000 1.636711e+000 3.481958e+000
<GCONST> 9.827457e+001
<STATE> 4
<MEAN> 25
 2.551532e+000 1.033542e+000 -4.791944e+000 1.605346e+000 -2.751235e+000 7.064736e-001 2.420146e-001 -7.760215e-001 -1.204927e+000 -6.458408e-001 9.430732e-001 -7.193283e-001 1.510339e+000 -7.795501e-001 -4.228921e-001 -1.459987e+000 -6.368305e-002 2.521316e-001 3.264102e-001 3.664120e-001 -2.800584e-001 3.165785e-001 5.282211e-002 -7.414804e-001 1.852374e+000
<VARIANCE> 25
 9.453718e+001 8.935684e+001 7.494851e+001 7.687097e+001 3.591972e+001 4.105944e+001 3.676092e+001 3.500253e+001 3.244760e+001 2.791890e+001 2.262891e+001 2.803093e+001 6.215545e+000 8.854114e+000 5.549062e+000 8.116514e+000 3.438945e+000 3.419137e+000 3.510767e+000 3.082364e+000 2.468024e+000 2.982972e+000 2.109797e+000 2.660127e+000 9.054374e+000
<GCONST> 1.099512e+002
<TRANSP> 5
 0.000000e+000 1.000000e+000 0.000000e+000 0.000000e+000 0.000000e+000
 0.000000e+000 6.501949e-001 3.498051e-001 0.000000e+000 0.000000e+000
 0.000000e+000 0.000000e+000 6.676953e-001 3.323047e-001 0.000000e+000
 0.000000e+000 0.000000e+000 0.000000e+000 7.791137e-001 2.208864e-001
 0.000000e+000 0.000000e+000 0.000000e+000 0.000000e+000 0.000000e+000
<ENDHMM>
~h "r"
<BEGINHMM>
<NUMSTATES> 5
<STATE> 2
<MEAN> 25
 8.634232e+000 -7.304377e+000 -8.359551e-001 9.390761e-001 -2.785627e+000 -9.661957e-002 -4.515327e+000 -1.192093e+000 3.770864e+000 1.390366e+000 -1.707777e+000 3.119574e+000 -4.356603e-002 2.236706e-002 -5.243648e-001 8.138976e-001 5.358285e-002 -1.475247e-002 1.180314e-001 2.788785e-002 6.308368e-001 -4.365269e-001 -2.112873e-001 3.984274e-001 -3.925245e-001
<VARIANCE> 25
 4.788264e+001 7.846817e+001 7.158376e+001 9.133822e+001 4.152368e+001 4.939064e+001 6.614262e+001 6.711252e+001 5.203967e+001 4.493003e+001 3.806308e+001 4.009232e+001 1.662579e+000 2.070136e+000 1.959916e+000 4.446913e+000 2.766905e+000 3.298326e+000 2.571477e+000 2.759651e+000 3.091748e+000 3.278138e+000 2.137335e+000 2.748126e+000 1.600187e+000
<GCONST> 1.062040e+002
<STATE> 3
<MEAN> 25
 7.276494e+000 -5.581470e+000 -2.839077e+000 3.268790e+000 -2.256941e+000 3.922923e-001 -3.135554e+000 -6.347245e-001 4.896115e+000 -3.445573e-002 -1.617528e+000 3.490575e+000 -2.326394e-001 2.569228e-001 -4.052336e-001 3.703963e-001 1.496963e-001 1.177085e-001 2.546985e-001 7.276234e-002 2.126244e-001 -2.072228e-001 -4.177991e-002 -1.572893e-002 -4.913001e-001
<VARIANCE> 25
 5.479808e+001 8.207015e+001 6.981432e+001 8.111486e+001 3.927938e+001 5.050531e+001 5.866901e+001 5.721543e+001 4.738825e+001 3.983870e+001 3.366056e+001 3.732453e+001 1.311462e+000 1.634506e+000 1.620909e+000 2.640877e+000 2.304941e+000 2.636995e+000 2.175620e+000 2.536513e+000 2.349188e+000 2.579480e+000 1.824471e+000 2.239750e+000 1.333549e+000
<GCONST> 1.026171e+002
<STATE> 4
<MEAN> 25
 3.179075e+000 -2.044861e+000 -5.994498e+000 5.434643e+000 -1.226710e+000 2.676805e-002 -1.695711e+000 -4.453714e-002 5.587005e+000 -1.194166e+000 -1.268248e+000 2.482657e+000 -3.327878e-001 3.210638e-001 -2.028617e-001 1.642705e-002 1.065640e-001 -7.074404e-002 1.432066e-001 1.004864e-001 -3.684941e-002 -2.643112e-002 3.064087e-002 -2.534487e-001 -4.358581e-001
<VARIANCE> 25
 7.299800e+001 8.501891e+001 7.290890e+001 6.088643e+001 4.430037e+001 4.562394e+001 4.107619e+001 3.928025e+001 3.987956e+001 3.515266e+001 2.614447e+001 2.988057e+001 9.453084e-001 1.430255e+000 1.882280e+000 1.885898e+000 1.858160e+000 2.052576e+000 1.858042e+000 2.231444e+000 2.162013e+000 2.268814e+000 1.668294e+000 1.801528e+000 1.173769e+000
<GCONST> 9.916274e+001
<TRANSP> 5
 0.000000e+000 1.000000e+000 0.000000e+000 0.000000e+000 0.000000e+000
 0.000000e+000 7.175767e-001 2.824233e-001 0.000000e+000 0.000000e+000
 0.000000e+000 0.000000e+000 7.178030e-001 2.821970e-001 0.000000e+000
 0.000000e+000 0.000000e+000 0.000000e+000 8.597378e-001 1.402622e-001
 0.000000e+000 0.000000e+000 0.000000e+000 0.000000e+000 0.000000e+000
<ENDHMM>
~h "s"
<BEGINHMM>
<NUMSTATES> 5
<STATE> 2
<MEAN> 25
 -1.303679e+000 -2.527325e+000 6.100120e+000 -5.940571e+000 1.351115e+001 -9.668179e+000 8.432570e+000 -1.566301e+000 5.413989e-001 -7.245963e-001 -3.051651e+000 4.216779e+000 -1.531363e+000 5.229378e-001 7.012772e-001 -1.169569e+000 1.888600e+000 -1.565100e+000 1.005932e+000 -1.013801e+000 1.791335e-002 -8.379143e-002 4.885078e-001 -1.957287e-001 6.025102e-001
<VARIANCE> 25
 1.084857e+002 7.976838e+001 9.136188e+001 7.337012e+001 9.622895e+001 7.997609e+001 7.337015e+001 6.937367e+001 3.806847e+001 3.010212e+001 3.774911e+001 2.819915e+001 6.520200e+000 4.963667e+000 5.545969e+000 5.763403e+000 6.462167e+000 7.083254e+000 4.669448e+000 6.780360e+000 4.052485e+000 3.188306e+000 2.834468e+000 2.655484e+000 6.376304e+000
<GCONST> 1.159710e+002
<STATE> 3
<MEAN> 25
 -7.965064e+000 -1.655718e-001 6.947474e+000 -8.404565e+000 1.595794e+001 -1.215595e+001 9.771524e+000 -4.043120e+000 2.014207e+000 -7.726275e-001 -1.128218e+000 2.282017e+000 -8.199282e-001 3.448196e-001 -1.522005e-002 -2.543432e-001 2.409221e-001 -2.273967e-001 7.983361e-002 -2.299094e-001 2.374814e-001 -1.353145e-002 3.411090e-001 -2.485034e-001 -3.058254e-001
<VARIANCE> 25
 9.277364e+001 6.111527e+001 8.841830e+001 5.873453e+001 9.283687e+001 6.103355e+001 6.566376e+001 3.915938e+001 3.226562e+001 2.340894e+001 3.005908e+001 2.010084e+001 5.176051e+000 2.964668e+000 3.253712e+000 3.470588e+000 3.693097e+000 3.657449e+000 3.324213e+000 3.358758e+000 2.633439e+000 1.954547e+000 2.152409e+000 1.665572e+000 3.055589e+000
<GCONST> 1.068736e+002
<STATE> 4
<MEAN> 25
 -7.772556e+000 8.180161e-001 5.192924e+000 -6.638961e+000 1.237141e+001 -9.916254e+000 6.821569e+000 -2.529213e+000 2.077928e+000 6.140708e-002 -9.549864e-001 1.248066e+000 9.194962e-002 1.650147e-001 -3.407855e-001 3.839503e-001 -6.227610e-001 4.163551e-001 -4.396295e-001 1.903192e-001 -8.676763e-002 7.568147e-002 6.167063e-003 -7.821892e-002 -6.849329e-001
<VARIANCE> 25
 8.160156e+001 6.205548e+001 8.454057e+001 6.257561e+001 1.016282e+002 5.465657e+001 5.845843e+001 3.443576e+001 2.851088e+001 2.140249e+001 2.507554e+001 1.632865e+001 3.942634e+000 2.180423e+000 3.043108e+000 2.609544e+000 2.701737e+000 2.409832e+000 2.122216e+000 2.480668e+000 2.019161e+000 1.711427e+000 1.838252e+000 1.340128e+000 2.476634e+000
<GCONST> 1.025152e+002
<TRANSP> 5
 0.000000e+000 1.000000e+000 0.000000e+000 0.000000e+000 0.000000e+000
 0.000000e+000 7.866462e-001 2.133538e-001 0.000000e+000 0.000000e+000
 0.000000e+000 0.000000e+000 7.755975e-001 2.244024e-001 0.000000e+000
 0.000000e+000 0.000000e+000 0.000000e+000 9.392672e-001 6.073282e-002
 0.000000e+000 0.000000e+000 0.000000e+000 0.000000e+000 0.000000e+000
<ENDHMM>
~h "t"
<BEGINHMM>
<NUMSTATES> 5
<STATE> 2
<MEAN> 25
 -9.077831e+000 6.114608e+000 -6.416907e+000 4.656810e+000 -8.419500e-001 -1.211692e+000 2.553751e-001 1.776364e-002 2.507739e+000 -6.973075e-001 1.396376e+000 -2.254887e-001 -4.868472e-001 2.367237e-002 -9.741770e-002 1.161013e-001 -9.964535e-002 -1.051986e-001 6.395914e-002 4.958477e-002 6.196347e-002 1.361400e-002 1.120482e-001 -3.969061e-002 -4.345339e-001
<VARIANCE> 25
 7.076878e+001 3.251719e+001 4.492944e+001 2.810403e+001 2.783731e+001 2.146500e+001 2.574306e+001 2.289075e+001 2.872715e+001 1.545961e+001 1.829376e+001 1.660092e+001 1.083600e+000 8.110030e-001 1.202703e+000 9.357253e-001 1.224992e+000 1.209874e+000 1.427456e+000 1.377205e+000 1.669559e+000 1.082729e+000 1.156308e+000 1.141153e+000 1.087198e+000
<GCONST> 8.742417e+001
<STATE> 3
<MEAN> 25
 -1.002989e+001 5.312571e+000 -5.737385e+000 4.820641e+000 -9.413331e-001 -1.282276e+000 2.710728e-001 7.829751e-002 2.497702e+000 -6.467559e-001 1.408223e+000 -4.179224e-002 -5.396311e-003 -3.584760e-001 1.457598e-001 -2.337097e-002 -6.095744e-002 -2.262666e-001 -2.388771e-002 1.800220e-001 -1.035217e-001 2.509076e-002 1.608738e-001 -9.134012e-002 2.760774e-001
<VARIANCE> 25
 8.700840e+001 3.497602e+001 4.107821e+001 2.454822e+001 2.372851e+001 2.076078e+001 2.434942e+001 2.282062e+001 2.956043e+001 1.515847e+001 1.657883e+001 1.555822e+001 3.028979e+000 2.612579e+000 2.502048e+000 1.428187e+000 2.265454e+000 2.371778e+000 2.830860e+000 2.051564e+000 2.656950e+000 1.267821e+000 1.448026e+000 1.389720e+000 4.437451e+000
<GCONST> 9.524788e+001
<STATE> 4
<MEAN> 25
 -2.392899e+000 -5.808046e-001 8.411560e-001 1.167052e-001 -6.250375e-001 -2.001666e+000 -2.343056e+000 1.179867e+000 -1.383037e+000 -1.875056e-001 2.174741e+000 -3.416162e-001 2.123712e+000 -1.133679e+000 1.227348e+000 -1.783409e+000 -7.872733e-002 5.002724e-002 -5.145684e-001 1.660332e-001 -1.011825e+000 3.665343e-001 2.074522e-001 -4.991658e-002 2.920400e+000
<VARIANCE> 25
 1.131757e+002 8.924329e+001 1.586631e+002 9.218089e+001 5.132440e+001 6.042003e+001 7.598084e+001 3.765398e+001 9.616519e+001 3.515553e+001 3.136242e+001 2.259764e+001 8.605730e+000 9.805552e+000 7.593156e+000 8.578377e+000 5.127557e+000 5.315841e+000 7.417524e+000 3.899626e+000 8.384969e+000 3.147908e+000 3.402566e+000 2.886255e+000 1.273082e+001
<GCONST> 1.188291e+002
<TRANSP> 5
 0.000000e+000 1.000000e+000 0.000000e+000 0.000000e+000 0.000000e+000
 0.000000e+000 7.643447e-001 2.356553e-001 0.000000e+000 0.000000e+000
 0.000000e+000 0.000000e+000 6.406024e-001 3.593976e-001 0.000000e+000
 0.000000e+000 0.000000e+000 0.000000e+000 7.390714e-001 2.609286e-001
 0.000000e+000 0.000000e+000 0.000000e+000 0.000000e+000 0.000000e+000
<ENDHMM>
~h "u"
<BEGINHMM>
<NUMSTATES> 5
<STATE> 2
<MEAN> 25
 7.619853e+000 5.370234e+000 2.735130e-001 -5.797768e+000 -2.911076e+000 1.431558e+000 -2.977258e+000 -1.787342e+000 -5.625163e+000 -1.159738e+000 2.062674e+000 1.127399e+000 1.871249e-001 4.360351e-001 -1.910754e-001 -1.184195e+000 -3.314703e-002 3.475505e-001 -8.949037e-002 -1.114321e-002 -3.023991e-001 -3.592961e-002 9.444401e-002 5.171303e-002 5.900338e-002
<VARIANCE> 25
 1.015397e+002 6.378272e+001 7.644776e+001 1.688674e+002 4.797479e+001 4.142045e+001 5.683966e+001 4.857820e+001 7.107255e+001 4.006369e+001 2.896442e+001 2.462563e+001 2.203742e+000 2.753033e+000 2.264335e+000 6.576308e+000 2.157381e+000 2.702405e+000 2.682325e+000 2.915474e+000 3.315682e+000 2.524269e+000 2.432681e+000 1.770500e+000 1.755023e+000
<GCONST> 1.067012e+002
<STATE> 3
<MEAN> 25
 6.972351e+000 6.304439e+000 -4.179395e-001 -7.673592e+000 -2.764581e+000 2.044330e+000 -3.490283e+000 -1.828581e+000 -5.362211e+000 -9.967378e-001 1.968361e+000 7.665527e-001 -1.773281e-001 1.430700e-001 -2.152416e-001 -4.670348e-001 3.537242e-002 1.597714e-001 -1.549444e-001 -2.729986e-002 1.337355e-001 7.420429e-002 -4.872339e-002 -9.077233e-002 -1.972501e-001
<VARIANCE> 25
 9.893165e+001 5.921086e+001 7.252695e+001 1.757102e+002 3.999761e+001 4.040225e+001 5.057868e+001 4.684119e+001 6.981345e+001 4.381200e+001 2.853168e+001 2.524610e+001 1.626175e+000 1.793806e+000 1.905352e+000 5.388277e+000 1.905325e+000 2.496264e+000 2.450724e+000 2.700937e+000 2.814809e+000 2.731030e+000 2.163794e+000 1.718823e+000 1.423019e+000
<GCONST> 1.043934e+002
<STATE> 4
<MEAN> 25
 4.499467e+000 8.408842e+000 -3.184096e+000 -8.104986e+000 -2.242255e+000 2.195648e+000 -3.624635e+000 -2.332513e+000 -4.132313e+000 -1.022091e+000 1.530582e+000 3.210223e-001 -2.971210e-001 -1.126205e-001 -2.058418e-001 3.514141e-001 5.477008e-002 -1.574508e-002 -1.134575e-002 -1.014682e-001 3.410414e-001 8.881608e-002 -1.624357e-002 3.006609e-002 -2.958775e-001
<VARIANCE> 25
 9.660882e+001 6.425462e+001 7.124807e+001 1.763519e+002 3.576006e+001 4.063380e+001 4.881630e+001 4.736738e+001 6.279309e+001 5.428107e+001 2.721567e+001 2.467501e+001 2.149857e+000 2.064279e+000 2.162990e+000 5.383087e+000 1.926843e+000 2.642672e+000 2.529428e+000 2.556340e+000 2.695105e+000 2.944199e+000 2.044319e+000 1.849725e+000 1.894720e+000
<GCONST> 1.052698e+002
<TRANSP> 5
 0.000000e+000 1.000000e+000 0.000000e+000 0.000000e+000 0.000000e+000
 0.000000e+000 6.775097e-001 3.224902e-001 0.000000e+000 0.000000e+000
 0.000000e+000 0.000000e+000 7.017664e-001 2.982337e-001 0.000000e+000
 0.000000e+000 0.000000e+000 0.000000e+000 9.183087e-001 8.169125e-002
 0.000000e+000 0.000000e+000 0.000000e+000 0.000000e+000 0.000000e+000
<ENDHMM>
~h "w"
<BEGINHMM>
<NUMSTATES> 5
<STATE> 2
<MEAN> 25
 -7.158590e+000 4.053949e+000 -2.844440e+000 6.915643e+000 -5.408794e+000 -3.746855e+000 8.377866e-001 8.548398e-001 4.054924e-001 -4.952587e+000 3.036736e+000 2.107404e+000 7.362607e-001 5.670018e-001 1.813224e-001 -2.984902e-001 -3.505714e-001 4.882385e-002 8.146772e-003 -4.357006e-003 8.775276e-002 -1.139343e-001 8.755018e-003 1.621302e-001 3.849695e-001
<VARIANCE> 25
 1.721583e+002 1.524255e+002 7.242551e+001 2.213271e+002 6.554243e+001 7.273666e+001 3.826620e+001 5.144651e+001 2.401874e+001 4.370676e+001 3.184268e+001 3.827464e+001 5.042340e+000 5.381081e+000 4.584894e+000 4.389140e+000 3.756945e+000 4.184672e+000 2.546501e+000 2.415705e+000 2.620998e+000 3.491883e+000 1.909540e+000 2.067063e+000 3.036662e+000
<GCONST> 1.114930e+002
<STATE> 3
<MEAN> 25
 5.967927e+000 1.033482e+001 -2.564870e+000 -6.804041e+000 -7.319147e+000 3.273122e+000 -4.041815e-001 -2.495451e+000 8.021688e-001 -2.985991e+000 1.749511e+000 2.089908e+000 9.635326e-001 -6.314136e-001 1.514243e-001 -1.185096e+000 1.561857e-001 1.182784e+000 -1.407549e-001 -2.162784e-001 3.674508e-001 4.981572e-001 1.425371e-001 -8.793550e-003 1.308325e+000
<VARIANCE> 25
 1.491211e+002 1.403031e+002 3.842656e+001 1.882955e+002 5.986499e+001 1.253811e+002 3.506168e+001 3.272163e+001 2.947838e+001 4.872388e+001 2.661489e+001 3.277703e+001 5.585410e+000 9.803613e+000 3.089569e+000 5.450124e+000 5.344399e+000 9.656219e+000 3.818379e+000 2.827821e+000 3.266601e+000 4.855912e+000 2.839305e+000 4.260821e+000 2.444499e+000
<GCONST> 1.140922e+002
<STATE> 4
<MEAN> 25
 1.044251e+001 -1.465694e+000 7.859374e-001 -1.543815e+001 -2.161621e+000 8.628798e+000 -2.961839e+000 -7.772868e-001 1.975145e+000 3.176794e+000 1.704954e-001 -2.070549e+000 -1.661932e-001 -2.008813e+000 4.766951e-001 -3.556720e-002 1.308574e+000 -5.977233e-001 4.421742e-002 8.941352e-001 7.941772e-002 6.126443e-001 -8.566311e-001 -5.798898e-001 1.283714e+000
<VARIANCE> 25
 3.176860e+001 2.263644e+002 4.557774e+001 1.171614e+002 7.908835e+001 1.249432e+002 4.157978e+001 5.710051e+001 3.083182e+001 7.367075e+001 4.362459e+001 4.994059e+001 2.400746e+000 6.334664e+000 3.215401e+000 4.910295e+000 4.363580e+000 1.158159e+001 4.124519e+000 5.389860e+000 3.589093e+000 4.553059e+000 4.206319e+000 5.360795e+000 1.613131e+000
<GCONST> 1.146888e+002
<TRANSP> 5
 0.000000e+000 1.000000e+000 0.000000e+000 0.000000e+000 0.000000e+000
 0.000000e+000 8.883917e-001 1.116083e-001 0.000000e+000 0.000000e+000
 0.000000e+000 0.000000e+000 7.928244e-001 2.071756e-001 0.000000e+000
 0.000000e+000 0.000000e+000 0.000000e+000 8.627679e-001 1.372321e-001
 0.000000e+000 0.000000e+000 0.000000e+000 0.000000e+000 0.000000e+000
<ENDHMM>
~h "y"
<BEGINHMM>
<NUMSTATES> 5
<STATE> 2
<MEAN> 25
 1.565769e-007 -6.290797e-008 -2.937665e-007 -4.371385e-008 5.392831e-009 -1.134847e-007 1.048326e-008 1.461609e-009 6.497437e-008 2.474654e-008 2.793856e-008 3.496100e-008 6.361995e-003 4.308552e-003 2.542655e-003 -9.878381e-004 4.629357e-004 7.091404e-004 -2.578934e-003 -6.028318e-003 -4.543920e-003 -2.417521e-003 -2.678531e-003 -6.849539e-003 3.474661e-003
<VARIANCE> 25
 1.482363e+002 1.186289e+002 1.358767e+002 1.150533e+002 6.856859e+001 5.959438e+001 5.340210e+001 5.644455e+001 5.966214e+001 3.805057e+001 3.493165e+001 2.775295e+001 2.220379e+000 3.354012e+000 3.076584e+000 3.783211e+000 3.009660e+000 2.603472e+000 2.703241e+000 2.901384e+000 2.795699e+000 2.264799e+000 1.906537e+000 1.789198e+000 2.980222e+000
<GCONST> 1.090549e+002
<STATE> 3
<MEAN> 25
 1.565769e-007 -6.290797e-008 -2.937665e-007 -4.371385e-008 5.392831e-009 -1.134847e-007 1.048326e-008 1.461609e-009 6.497437e-008 2.474654e-008 2.793856e-008 3.496100e-008 6.361995e-003 4.308552e-003 2.542655e-003 -9.878381e-004 4.629357e-004 7.091404e-004 -2.578934e-003 -6.028318e-003 -4.543920e-003 -2.417521e-003 -2.678531e-003 -6.849539e-003 3.474661e-003
<VARIANCE> 25
 1.482363e+002 1.186289e+002 1.358767e+002 1.150533e+002 6.856859e+001 5.959438e+001 5.340210e+001 5.644455e+001 5.966214e+001 3.805057e+001 3.493165e+001 2.775295e+001 2.220379e+000 3.354012e+000 3.076584e+000 3.783211e+000 3.009660e+000 2.603472e+000 2.703241e+000 2.901384e+000 2.795699e+000 2.264799e+000 1.906537e+000 1.789198e+000 2.980222e+000
<GCONST> 1.090549e+002
<STATE> 4
<MEAN> 25
 1.565769e-007 -6.290797e-008 -2.937665e-007 -4.371385e-008 5.392831e-009 -1.134847e-007 1.048326e-008 1.461609e-009 6.497437e-008 2.474654e-008 2.793856e-008 3.496100e-008 6.361995e-003 4.308552e-003 2.542655e-003 -9.878381e-004 4.629357e-004 7.091404e-004 -2.578934e-003 -6.028318e-003 -4.543920e-003 -2.417521e-003 -2.678531e-003 -6.849539e-003 3.474661e-003
<VARIANCE> 25
 1.482363e+002 1.186289e+002 1.358767e+002 1.150533e+002 6.856859e+001 5.959438e+001 5.340210e+001 5.644455e+001 5.966214e+001 3.805057e+001 3.493165e+001 2.775295e+001 2.220379e+000 3.354012e+000 3.076584e+000 3.783211e+000 3.009660e+000 2.603472e+000 2.703241e+000 2.901384e+000 2.795699e+000 2.264799e+000 1.906537e+000 1.789198e+000 2.980222e+000
<GCONST> 1.090549e+002
<TRANSP> 5
 0.000000e+000 1.000000e+000 0.000000e+000 0.000000e+000 0.000000e+000
 0.000000e+000 6.000000e-001 4.000000e-001 0.000000e+000 0.000000e+000
 0.000000e+000 0.000000e+000 6.000000e-001 4.000000e-001 0.000000e+000
 0.000000e+000 0.000000e+000 0.000000e+000 7.000000e-001 3.000000e-001
 0.000000e+000 0.000000e+000 0.000000e+000 0.000000e+000 0.000000e+000
<ENDHMM>
~h "ay"
<BEGINHMM>
<NUMSTATES> 5
<STATE> 2
<MEAN> 25
 -2.080936e+000 -4.236135e+000 -1.234657e+001 9.984040e+000 4.847470e+000 -1.348825e+000 2.526602e+000 4.828526e+000 1.397358e+000 -6.989703e+000 -7.863403e-001 5.586393e+000 -2.239563e-002 -2.065045e-001 -1.707368e-001 2.704520e-002 -1.514118e-001 4.033418e-001 1.679212e-001 -5.356669e-002 3.969952e-001 -1.976523e-001 1.138258e-001 -6.736397e-003 -1.844741e-002
<VARIANCE> 25
 1.059717e+002 9.778428e+001 3.321489e+001 3.544581e+001 1.079194e+001 5.412032e+001 5.967121e+001 4.664026e+001 4.386108e+001 2.839001e+001 9.768791e+000 3.326067e+001 1.169145e+000 6.334859e+000 2.143223e+000 1.909220e+000 7.650254e-001 2.677991e+000 1.616275e+000 2.307011e+000 2.211044e+000 3.005646e+000 1.256306e+000 2.320346e+000 2.416982e+000
<GCONST> 9.876683e+001
<STATE> 3
<MEAN> 25
 -4.535667e-001 -2.978897e+000 -1.154908e+001 8.008084e+000 3.449315e+000 1.918385e+000 3.622645e+000 3.112304e+000 2.518933e+000 -6.715533e+000 -3.516623e-001 2.959630e+000 2.811848e-001 -5.944641e-001 2.454202e-001 -4.452712e-001 -2.435933e-001 9.638127e-001 -2.136628e-001 -3.450577e-001 2.790178e-001 -3.141493e-001 -1.127820e-001 6.196355e-002 5.000226e-001
<VARIANCE> 25
 1.742235e+002 1.529319e+002 5.357108e+001 5.619029e+001 1.517316e+001 5.881858e+001 9.430169e+001 7.168144e+001 5.028393e+001 3.835051e+001 9.002592e+000 2.304635e+001 1.662577e+000 8.624813e+000 3.190871e+000 2.098383e+000 1.590019e+000 2.830822e+000 3.396606e+000 3.007370e+000 5.904582e+000 2.192073e+000 1.137775e+000 1.186766e+000 2.450885e+000
<GCONST> 1.048092e+002
<STATE> 4
<MEAN> 25
 9.777081e+000 -7.425200e+000 -8.709610e+000 6.118912e+000 2.113243e+000 9.369218e+000 -4.029578e-002 -4.706901e-001 4.373198e+000 -7.516752e+000 8.154801e-001 2.744718e+000 6.477080e-001 -9.239322e-001 8.121698e-001 -2.868605e-001 -2.742144e-001 1.241453e-001 -3.578917e-001 1.598407e-001 2.124050e-002 -4.201121e-002 -3.138231e-002 -1.689217e-001 1.155043e+000
<VARIANCE> 25
 1.002118e+002 2.371026e+002 8.806150e+001 8.424464e+001 5.188736e+001 4.170317e+001 5.713935e+001 6.203543e+001 6.800694e+001 4.646168e+001 2.094691e+001 2.089066e+001 6.453605e+000 1.059033e+001 4.628671e+000 2.757313e+000 3.182091e+000 3.263742e+000 3.034942e+000 4.714305e+000 8.880800e+000 2.827988e+000 1.868235e+000 1.627787e+000 4.843123e+000
<GCONST> 1.126124e+002
<TRANSP> 5
 0.000000e+000 1.000000e+000 0.000000e+000 0.000000e+000 0.000000e+000
 0.000000e+000 6.781301e-001 3.218699e-001 0.000000e+000 0.000000e+000
 0.000000e+000 0.000000e+000 4.431418e-001 5.568582e-001 0.000000e+000
 0.000000e+000 0.000000e+000 0.000000e+000 9.127272e-001 8.727280e-002
 0.000000e+000 0.000000e+000 0.000000e+000 0.000000e+000 0.000000e+000
<ENDHMM>
~h "eh"
<BEGINHMM>
<NUMSTATES> 5
<STATE> 2
<MEAN> 25
 2.381239e+000 -3.787585e+000 3.830137e+000 -2.668918e+000 -7.612395e+000 -9.366972e+000 4.066254e+000 7.846888e+000 -1.685879e+000 2.508371e-001 3.257808e+000 -3.068283e-001 -1.796069e-001 -3.074326e-001 -7.260694e-002 -6.358137e-001 -1.196007e-001 -7.771145e-002 5.246337e-001 8.856556e-002 1.772386e-001 1.274766e-001 1.960236e-001 -1.615179e-001 2.068588e-001
<VARIANCE> 25
 4.577639e+001 1.074365e+002 1.234280e+002 5.076095e+001 3.958452e+001 4.442934e+001 6.053016e+001 5.352341e+001 4.717961e+001 1.653378e+001 2.518139e+001 2.129544e+001 6.401007e-001 1.609793e+000 2.411555e+000 2.431672e+000 2.581094e+000 2.342036e+000 3.501036e+000 2.572126e+000 1.847623e+000 1.725648e+000 1.580008e+000 1.102906e+000 1.490793e+000
<GCONST> 9.959999e+001
<STATE> 3
<MEAN> 25
 1.081189e+000 -3.887736e+000 2.286338e+000 -3.060757e+000 -6.910259e+000 -7.881513e+000 3.832619e+000 6.861635e+000 -3.010884e-001 1.438331e-001 3.454426e+000 -1.325669e-001 -1.607315e-001 -1.908933e-001 -2.217284e-001 -1.950613e-001 3.422319e-001 3.164963e-001 -7.245881e-002 -1.018379e-001 2.224120e-001 5.187727e-002 -1.118583e-001 -3.428330e-002 -7.024315e-002
<VARIANCE> 25
 7.229507e+001 1.276007e+002 1.255141e+002 5.670835e+001 4.647081e+001 5.759203e+001 6.642083e+001 5.625130e+001 4.833519e+001 1.709688e+001 2.506840e+001 2.180422e+001 8.229824e-001 1.419885e+000 1.613159e+000 1.217835e+000 2.066161e+000 1.351274e+000 2.827821e+000 2.125391e+000 1.922416e+000 1.507698e+000 1.334945e+000 1.446598e+000 7.870917e-001
<GCONST> 9.821983e+001
<STATE> 4
<MEAN> 25
 8.406367e+000 -1.165770e+001 7.174824e+000 -5.745753e+000 -8.958344e+000 -4.807467e+000 2.973709e+000 1.019348e+001 -3.655324e+000 1.809349e+000 3.101425e+000 -1.315519e+000 5.470280e-001 -5.599802e-001 -5.705443e-002 -2.604383e-001 3.185927e-001 3.154508e-001 -1.785124e-001 1.324797e-001 3.356057e-001 1.202541e-001 -5.141554e-001 -1.399865e-001 6.959599e-001
<VARIANCE> 25
 5.812254e+001 1.205259e+002 1.058545e+002 5.794497e+001 5.281062e+001 4.992318e+001 4.086919e+001 8.085048e+001 4.014331e+001 2.040554e+001 2.932245e+001 1.558276e+001 4.238184e+000 4.260302e+000 5.055879e+000 3.162787e+000 3.079318e+000 2.084286e+000 2.813832e+000 5.133137e+000 2.734501e+000 2.268024e+000 1.960827e+000 1.145800e+000 5.448358e+000
<GCONST> 1.068604e+002
<TRANSP> 5
 0.000000e+000 1.000000e+000 0.000000e+000 0.000000e+000 0.000000e+000
 0.000000e+000 7.458674e-001 2.541327e-001 0.000000e+000 0.000000e+000
 0.000000e+000 0.000000e+000 7.045736e-001 2.954265e-001 0.000000e+000
 0.000000e+000 0.000000e+000 0.000000e+000 8.773935e-001 1.226065e-001
 0.000000e+000 0.000000e+000 0.000000e+000 0.000000e+000 0.000000e+000
<ENDHMM>
~h "ng"
<BEGINHMM>
<NUMSTATES> 5
<STATE> 2
<MEAN> 25
 1.029518e+001 -8.214878e+000 -3.057565e+000 -6.853655e+000 2.231865e+000 9.493708e+000 -1.735944e+000 -1.367151e+000 -3.885521e-001 -1.671513e+000 5.694077e-001 -2.255972e+000 -9.888840e-002 6.886890e-001 -1.249707e-001 5.943367e-001 -5.874442e-002 -5.783818e-002 1.155478e-001 -2.494344e-001 -2.928270e-001 -2.612153e-001 1.311095e-001 2.819844e-001 -6.617463e-001
<VARIANCE> 25
 1.595809e+001 1.002579e+002 2.877766e+001 6.805828e+001 4.963838e+001 3.835419e+001 3.539938e+001 3.348023e+001 3.913578e+001 3.444650e+001 2.095276e+001 2.849424e+001 2.775079e-001 1.172956e+000 7.264202e-001 1.531478e+000 1.679639e+000 1.294235e+000 1.662661e+000 1.498325e+000 1.734918e+000 1.488894e+000 1.011037e+000 1.291049e+000 6.936068e-001
<GCONST> 9.065536e+001
<STATE> 3
<MEAN> 25
 8.165347e+000 -1.916191e-001 -4.511725e+000 4.790852e-002 2.154391e+000 8.074253e+000 3.852899e-001 -3.701949e+000 -2.064754e+000 -2.306886e+000 1.445179e+000 -4.755026e-001 -3.971643e-001 6.266796e-001 -1.392934e-001 7.626997e-001 9.905445e-002 -1.380888e-001 2.021545e-001 -1.069266e-001 4.726475e-002 4.844576e-003 -2.389147e-003 1.051317e-001 -8.141666e-001
<VARIANCE> 25
 2.263795e+001 6.719512e+001 2.378574e+001 6.864670e+001 4.240113e+001 3.264121e+001 3.206799e+001 2.879801e+001 3.856324e+001 2.780435e+001 1.842438e+001 2.087744e+001 3.845736e-001 8.370544e-001 8.729194e-001 1.441997e+000 1.443486e+000 1.289711e+000 1.675679e+000 1.673767e+000 1.706036e+000 1.417679e+000 1.064998e+000 1.262983e+000 3.784111e-001
<GCONST> 8.862024e+001
<STATE> 4
<MEAN> 25
 -2.149979e+000 6.294909e+000 -8.101601e+000 5.701900e+000 2.868500e+000 4.000340e+000 1.611076e+000 -3.109105e+000 9.338264e-001 -1.920783e+000 6.506020e-001 -6.789118e-001 -6.095831e-001 2.119029e-001 -9.203283e-002 1.663784e-001 -6.142331e-002 -2.521396e-001 5.171064e-002 1.095830e-001 1.207650e-001 -5.025282e-004 -2.545519e-002 4.875887e-002 -6.187319e-001
<VARIANCE> 25
 7.934299e+001 4.453407e+001 3.335961e+001 3.361643e+001 3.290456e+001 3.217328e+001 2.620576e+001 2.422165e+001 2.618275e+001 2.351804e+001 1.550389e+001 1.989013e+001 5.676018e-001 1.029329e+000 1.270351e+000 1.358157e+000 1.162778e+000 1.286593e+000 1.574739e+000 1.482149e+000 1.652515e+000 1.598421e+000 1.240980e+000 1.310566e+000 4.512296e-001
<GCONST> 8.863176e+001
<TRANSP> 5
 0.000000e+000 1.000000e+000 0.000000e+000 0.000000e+000 0.000000e+000
 0.000000e+000 9.302039e-001 6.979615e-002 0.000000e+000 0.000000e+000
 0.000000e+000 0.000000e+000 8.898228e-001 1.101771e-001 0.000000e+000
 0.000000e+000 0.000000e+000 0.000000e+000 9.546731e-001 4.532690e-002
 0.000000e+000 0.000000e+000 0.000000e+000 0.000000e+000 0.000000e+000
<ENDHMM>
~h "ny"
<BEGINHMM>
<NUMSTATES> 5
<STATE> 2
<MEAN> 25
 -1.455175e-001 3.947114e+000 1.519514e+000 2.273150e+000 -3.882441e-001 -6.513969e-002 -2.500801e+000 -2.432158e-001 -2.387121e+000 -4.694678e-001 3.519979e-001 1.852538e+000 -1.746742e-001 1.313189e-001 -2.312420e-001 4.871373e-002 -4.467823e-002 4.451119e-002 6.774493e-002 1.333666e-001 1.195766e-001 2.297876e-002 1.319876e-001 3.828029e-002 -2.359665e-001
<VARIANCE> 25
 3.868634e+001 2.475803e+001 5.419072e+001 4.370658e+001 3.833652e+001 2.758472e+001 2.611141e+001 3.553511e+001 2.648127e+001 1.919554e+001 1.902493e+001 1.678256e+001 5.781198e-001 7.919517e-001 9.651073e-001 1.676161e+000 1.488043e+000 1.512644e+000 1.593827e+000 2.123634e+000 1.651825e+000 1.361610e+000 1.482145e+000 1.403060e+000 6.026734e-001
<GCONST> 8.914200e+001
<STATE> 3
<MEAN> 25
 -2.936986e+000 3.664890e+000 -1.024155e+000 2.404801e+000 -2.955049e+000 -3.475104e-001 1.623958e-001 1.056349e+000 4.666609e-001 -1.574210e+000 2.116512e+000 1.571482e+000 -1.797078e-001 3.660528e-002 -1.221228e-001 -1.809337e-001 -6.571645e-002 4.518737e-002 1.471605e-001 9.194065e-002 2.210565e-001 -6.120510e-002 -4.477277e-004 -6.352147e-002 -8.729398e-002
<VARIANCE> 25
 5.545088e+001 4.510387e+001 5.605068e+001 3.611415e+001 4.242529e+001 2.529260e+001 2.594422e+001 2.455772e+001 2.419666e+001 2.423927e+001 2.121127e+001 1.961992e+001 9.420707e-001 1.180648e+000 1.492010e+000 1.394807e+000 1.683146e+000 1.364700e+000 1.555706e+000 1.584233e+000 1.402640e+000 1.365025e+000 1.541679e+000 1.459519e+000 1.284084e+000
<GCONST> 9.150829e+001
<STATE> 4
<MEAN> 25
 -5.626715e+000 3.752738e+000 -2.493021e+000 -6.953477e-001 -4.882087e+000 -2.271392e-001 2.262038e+000 2.384688e+000 2.702634e+000 -1.962550e+000 2.178894e+000 8.515664e-002 2.510801e-001 -2.992331e-001 1.676683e-001 2.551339e-001 4.065221e-001 2.314533e-001 4.830148e-001 2.315228e-001 4.073700e-001 -2.402863e-001 -2.925155e-001 -4.389061e-001 4.285142e-001
<VARIANCE> 25
 6.370555e+001 8.207266e+001 5.556165e+001 6.100203e+001 5.917889e+001 1.816672e+001 1.777551e+001 2.426928e+001 2.739487e+001 2.395071e+001 2.858532e+001 2.101291e+001 3.133621e+000 3.174109e+000 2.668027e+000 2.323074e+000 3.140785e+000 1.483015e+000 1.601700e+000 2.241745e+000 1.599057e+000 2.131927e+000 1.812788e+000 1.324250e+000 2.230263e+000
<GCONST> 9.841136e+001
<TRANSP> 5
 0.000000e+000 1.000000e+000 0.000000e+000 0.000000e+000 0.000000e+000
 0.000000e+000 9.282402e-001 7.175977e-002 0.000000e+000 0.000000e+000
 0.000000e+000 0.000000e+000 8.839918e-001 1.160081e-001 0.000000e+000
 0.000000e+000 0.000000e+000 0.000000e+000 7.610422e-001 2.389578e-001
 0.000000e+000 0.000000e+000 0.000000e+000 0.000000e+000 0.000000e+000
<ENDHMM>
~h "sp"
<BEGINHMM>
<NUMSTATES> 5
<STATE> 2
<MEAN> 25
 1.565769e-007 -6.290797e-008 -2.937665e-007 -4.371385e-008 5.392831e-009 -1.134847e-007 1.048326e-008 1.461609e-009 6.497437e-008 2.474654e-008 2.793856e-008 3.496100e-008 6.361995e-003 4.308552e-003 2.542655e-003 -9.878381e-004 4.629357e-004 7.091404e-004 -2.578934e-003 -6.028318e-003 -4.543920e-003 -2.417521e-003 -2.678531e-003 -6.849539e-003 3.474661e-003
<VARIANCE> 25
 1.482363e+002 1.186289e+002 1.358767e+002 1.150533e+002 6.856859e+001 5.959438e+001 5.340210e+001 5.644455e+001 5.966214e+001 3.805057e+001 3.493165e+001 2.775295e+001 2.220379e+000 3.354012e+000 3.076584e+000 3.783211e+000 3.009660e+000 2.603472e+000 2.703241e+000 2.901384e+000 2.795699e+000 2.264799e+000 1.906537e+000 1.789198e+000 2.980222e+000
<GCONST> 1.090549e+002
<STATE> 3
<MEAN> 25
 1.565769e-007 -6.290797e-008 -2.937665e-007 -4.371385e-008 5.392831e-009 -1.134847e-007 1.048326e-008 1.461609e-009 6.497437e-008 2.474654e-008 2.793856e-008 3.496100e-008 6.361995e-003 4.308552e-003 2.542655e-003 -9.878381e-004 4.629357e-004 7.091404e-004 -2.578934e-003 -6.028318e-003 -4.543920e-003 -2.417521e-003 -2.678531e-003 -6.849539e-003 3.474661e-003
<VARIANCE> 25
 1.482363e+002 1.186289e+002 1.358767e+002 1.150533e+002 6.856859e+001 5.959438e+001 5.340210e+001 5.644455e+001 5.966214e+001 3.805057e+001 3.493165e+001 2.775295e+001 2.220379e+000 3.354012e+000 3.076584e+000 3.783211e+000 3.009660e+000 2.603472e+000 2.703241e+000 2.901384e+000 2.795699e+000 2.264799e+000 1.906537e+000 1.789198e+000 2.980222e+000
<GCONST> 1.090549e+002
<STATE> 4
<MEAN> 25
 1.565769e-007 -6.290797e-008 -2.937665e-007 -4.371385e-008 5.392831e-009 -1.134847e-007 1.048326e-008 1.461609e-009 6.497437e-008 2.474654e-008 2.793856e-008 3.496100e-008 6.361995e-003 4.308552e-003 2.542655e-003 -9.878381e-004 4.629357e-004 7.091404e-004 -2.578934e-003 -6.028318e-003 -4.543920e-003 -2.417521e-003 -2.678531e-003 -6.849539e-003 3.474661e-003
<VARIANCE> 25
 1.482363e+002 1.186289e+002 1.358767e+002 1.150533e+002 6.856859e+001 5.959438e+001 5.340210e+001 5.644455e+001 5.966214e+001 3.805057e+001 3.493165e+001 2.775295e+001 2.220379e+000 3.354012e+000 3.076584e+000 3.783211e+000 3.009660e+000 2.603472e+000 2.703241e+000 2.901384e+000 2.795699e+000 2.264799e+000 1.906537e+000 1.789198e+000 2.980222e+000
<GCONST> 1.090549e+002
<TRANSP> 5
 0.000000e+000 1.000000e+000 0.000000e+000 0.000000e+000 0.000000e+000
 0.000000e+000 6.000000e-001 4.000000e-001 0.000000e+000 0.000000e+000
 0.000000e+000 0.000000e+000 6.000000e-001 4.000000e-001 0.000000e+000
 0.000000e+000 0.000000e+000 0.000000e+000 7.000000e-001 3.000000e-001
 0.000000e+000 0.000000e+000 0.000000e+000 0.000000e+000 0.000000e+000
<ENDHMM>
~h "sil"
<BEGINHMM>
<NUMSTATES> 5
<STATE> 2
<MEAN> 25
 -5.018417e+000 4.067850e+000 -3.248763e+000 5.350016e+000 6.651404e-001 -6.140406e-001 3.136311e-001 4.855749e-002 1.385160e+000 -4.498806e-001 2.978864e-001 1.150650e+000 -2.265806e-001 2.650194e-001 -6.163377e-002 -4.327184e-002 -1.399343e-002 4.806321e-002 -1.189360e-001 -1.931081e-001 2.185937e-002 1.369278e-001 1.529771e-001 -2.041218e-001 -3.235689e-001
<VARIANCE> 25
 1.174863e+002 6.151977e+001 8.247084e+001 5.781884e+001 2.900270e+001 2.807829e+001 2.898900e+001 2.339140e+001 3.947112e+001 2.604416e+001 2.656893e+001 2.435101e+001 7.101315e-001 9.893345e-001 1.523985e+000 1.440678e+000 1.201360e+000 1.380100e+000 1.336233e+000 1.694545e+000 1.534233e+000 1.583816e+000 1.348477e+000 1.320440e+000 7.714399e-001
<GCONST> 9.289332e+001
<STATE> 3
<MEAN> 25
 -1.656828e+001 5.903106e+000 -6.733860e+000 6.758512e+000 -2.562640e-002 8.512846e-001 8.140907e-001 -3.069494e-001 4.297676e+000 5.197031e-001 3.120410e+000 9.607411e-001 -1.585287e-001 1.135849e-001 4.297926e-002 -3.086836e-002 9.111086e-003 -1.206070e-002 -1.077740e-002 1.131968e-002 -8.846982e-003 -1.668010e-001 -1.251528e-001 -1.751601e-002 -1.658748e-001
<VARIANCE> 25
 8.885594e+001 2.470595e+001 3.945550e+001 1.174121e+001 1.680746e+001 1.791759e+001 2.184272e+001 2.705966e+001 3.260681e+001 1.905621e+001 2.032171e+001 1.330738e+001 1.603802e-001 2.560053e-001 3.344875e-001 4.063186e-001 6.411538e-001 6.839944e-001 8.427618e-001 1.190268e+000 1.387801e+000 1.254025e+000 9.225233e-001 7.901334e-001 8.789472e-002
<GCONST> 7.569725e+001
<STATE> 4
<MEAN> 25
 -2.109864e+001 4.161718e+000 -8.107141e+000 5.840693e+000 -3.606538e-001 1.668738e+000 3.722260e+000 1.446651e+000 4.986363e+000 3.918661e-001 3.902609e+000 1.159500e+000 -1.244636e-001 -4.678687e-002 1.190395e-002 -8.783467e-004 -9.933853e-003 2.921455e-002 3.266691e-002 -1.904175e-003 -1.440456e-002 -4.836520e-003 9.165966e-003 1.069655e-002 -6.990998e-002
<VARIANCE> 25
 5.806470e+001 1.782126e+001 1.527712e+001 1.649085e+001 2.048415e+001 1.591566e+001 1.713729e+001 1.956865e+001 1.974595e+001 1.373243e+001 1.302762e+001 1.124562e+001 2.534650e-001 3.083913e-001 3.442971e-001 5.441412e-001 7.365817e-001 6.966394e-001 9.989075e-001 1.192909e+000 1.355489e+000 1.044225e+000 9.293505e-001 9.014524e-001 2.879449e-001
<GCONST> 7.481974e+001
<TRANSP> 5
 0.000000e+000 1.000000e+000 0.000000e+000 0.000000e+000 0.000000e+000
 0.000000e+000 9.176083e-001 8.239169e-002 0.000000e+000 0.000000e+000
 0.000000e+000 0.000000e+000 8.665869e-001 1.334130e-001 0.000000e+000
 0.000000e+000 0.000000e+000 0.000000e+000 9.693007e-001 3.069929e-002
 0.000000e+000 0.000000e+000 0.000000e+000 0.000000e+000 0.000000e+000
<ENDHMM>
