~o
<STREAMINFO> 1 25
<VECSIZE> 25<NULLD><MFCC_D_N_Z_0><DIAGC>
~h "a"
<BEGINHMM>
<NUMSTATES> 5
<STATE> 2
<MEAN> 25
 8.646184e+000 -1.229524e+001 -2.242079e+000 -6.151393e+000 2.518902e+000 2.116481e+000 1.817246e+000 3.112010e+000 2.071440e+000 1.390954e+000 -3.057555e+000 -3.849036e+000 1.391193e-001 -6.656286e-001 1.763055e-001 -2.288517e-001 4.063542e-001 3.012859e-002 2.215785e-001 3.517544e-001 -1.208236e-001 -1.575872e-001 -3.034572e-001 -2.480261e-001 6.590796e-001
<VARIANCE> 25
 5.828771e+001 1.229611e+002 7.598586e+001 9.469064e+001 5.965438e+001 7.666001e+001 6.023065e+001 7.318283e+001 3.944782e+001 4.789386e+001 3.792725e+001 3.666269e+001 2.207928e+000 4.391551e+000 2.871781e+000 4.060637e+000 3.264570e+000 3.361275e+000 3.395886e+000 3.871617e+000 3.001343e+000 2.917138e+000 2.346927e+000 2.335947e+000 3.385349e+000
<GCONST> 1.100962e+002
<STATE> 3
<MEAN> 25
 8.330794e+000 -1.298050e+001 -1.812728e+000 -5.938996e+000 3.198301e+000 1.599677e+000 2.299769e+000 3.705629e+000 1.549141e+000 7.827320e-001 -3.743876e+000 -3.802232e+000 -1.188877e-001 1.218095e-001 1.750729e-001 2.081573e-001 8.044265e-002 -1.749304e-001 5.767179e-002 1.055258e-001 -1.800537e-001 -1.359314e-001 -8.948550e-002 1.403956e-001 -1.405429e-001
<VARIANCE> 25
 4.825463e+001 1.166946e+002 6.201781e+001 8.775365e+001 5.344542e+001 6.563492e+001 5.428396e+001 6.759945e+001 3.467152e+001 4.068586e+001 3.368853e+001 3.287490e+001 1.350868e+000 2.992373e+000 1.962198e+000 2.828739e+000 2.447335e+000 2.714606e+000 2.518732e+000 3.147458e+000 2.200446e+000 2.449167e+000 1.877573e+000 2.011318e+000 2.351224e+000
<GCONST> 1.047600e+002
<STATE> 4
<MEAN> 25
 6.713749e+000 -9.993110e+000 -1.336041e+000 -2.895885e+000 2.778501e+000 6.575994e-001 2.032556e+000 3.306633e+000 9.050035e-001 3.121901e-001 -4.320278e+000 -2.188321e+000 -2.671940e-001 6.632817e-001 1.102767e-001 5.319373e-001 -9.052182e-002 -1.280974e-001 -8.469341e-002 -2.424203e-001 -1.283541e-001 -5.175973e-002 6.092950e-002 2.893137e-001 -6.727548e-001
<VARIANCE> 25
 5.416297e+001 1.100198e+002 5.733437e+001 9.772839e+001 5.597588e+001 6.126515e+001 4.499360e+001 6.402508e+001 3.650029e+001 3.787094e+001 3.364113e+001 3.177100e+001 1.389399e+000 3.066705e+000 1.922064e+000 3.440882e+000 2.697234e+000 2.452102e+000 2.331381e+000 2.985533e+000 2.397875e+000 2.366618e+000 1.874560e+000 1.831282e+000 2.561564e+000
<GCONST> 1.046605e+002
<TRANSP> 5
 0.000000e+000 1.000000e+000 0.000000e+000 0.000000e+000 0.000000e+000
 0.000000e+000 6.601229e-001 3.398772e-001 0.000000e+000 0.000000e+000
 0.000000e+000 0.000000e+000 6.804072e-001 3.195928e-001 0.000000e+000
 0.000000e+000 0.000000e+000 0.000000e+000 8.576974e-001 1.423026e-001
 0.000000e+000 0.000000e+000 0.000000e+000 0.000000e+000 0.000000e+000
<ENDHMM>
~h "b"
<BEGINHMM>
<NUMSTATES> 5
<STATE> 2
<MEAN> 25
 -8.503592e+000 5.313742e+000 -5.067844e+000 7.417501e+000 1.077623e-001 -1.397853e+000 1.059244e+000 1.343536e+000 1.977834e+000 -2.911104e+000 6.477842e-001 2.278421e+000 -2.569325e-001 3.485060e-001 4.461522e-003 2.751501e-001 4.834522e-002 -4.890317e-002 -1.178441e-002 -8.295202e-002 2.763178e-003 -4.149987e-002 1.057973e-001 5.210064e-002 -4.732384e-001
<VARIANCE> 25
 1.007766e+002 3.729756e+001 4.927194e+001 3.935859e+001 3.674689e+001 3.574831e+001 2.775116e+001 4.359653e+001 3.798601e+001 4.430758e+001 2.158675e+001 3.025058e+001 1.120983e+000 1.090949e+000 1.150626e+000 1.341901e+000 1.259423e+000 1.319043e+000 1.273246e+000 1.589099e+000 1.332181e+000 1.772047e+000 1.306369e+000 1.597579e+000 8.335844e-001
<GCONST> 9.319823e+001
<STATE> 3
<MEAN> 25
 -9.128535e+000 6.706112e+000 -4.733801e+000 8.521102e+000 -2.479500e-002 -1.430738e+000 1.047951e+000 4.680323e-001 1.778758e+000 -3.026521e+000 8.883048e-001 2.019870e+000 3.631285e-002 5.333831e-001 3.706330e-001 2.999071e-001 1.778553e-001 1.118760e-001 7.398890e-003 -2.380552e-001 -9.124332e-002 4.010246e-002 4.961396e-002 -1.482741e-001 -2.146733e-001
<VARIANCE> 25
 9.610923e+001 3.776428e+001 5.105333e+001 3.589666e+001 3.639101e+001 3.684474e+001 3.061091e+001 4.721188e+001 3.759460e+001 4.771931e+001 2.191069e+001 2.663407e+001 3.057170e+000 1.929122e+000 1.931206e+000 1.867025e+000 1.572714e+000 1.551063e+000 1.670851e+000 1.725470e+000 1.706352e+000 1.824190e+000 1.333104e+000 1.544900e+000 1.823758e+000
<GCONST> 9.746217e+001
<STATE> 4
<MEAN> 25
 5.708688e-001 1.449343e+001 1.066077e+000 1.131664e+001 1.415145e+000 1.947337e-001 1.338123e+000 -1.950109e+000 -6.987801e-001 -3.495857e+000 6.927229e-001 6.381702e-001 1.464931e+000 1.442739e-001 3.697563e-001 -2.976234e-001 -1.287896e-001 6.065147e-002 -1.604695e-001 -1.241607e-001 -2.554324e-001 6.277873e-002 -3.355798e-002 -2.036791e-001 1.196310e+000
<VARIANCE> 25
 1.321385e+002 1.289554e+002 5.991206e+001 6.053614e+001 3.725357e+001 3.141493e+001 4.035729e+001 4.456384e+001 3.783085e+001 4.916905e+001 2.499648e+001 2.329758e+001 5.369356e+000 1.220791e+001 5.107423e+000 6.870821e+000 3.400729e+000 2.449222e+000 3.328367e+000 3.444990e+000 3.164141e+000 2.971438e+000 2.037427e+000 2.253985e+000 4.139258e+000
<GCONST> 1.098273e+002
<TRANSP> 5
 0.000000e+000 1.000000e+000 0.000000e+000 0.000000e+000 0.000000e+000
 0.000000e+000 7.598239e-001 2.401761e-001 0.000000e+000 0.000000e+000
 0.000000e+000 0.000000e+000 7.334486e-001 2.665515e-001 0.000000e+000
 0.000000e+000 0.000000e+000 0.000000e+000 8.594811e-001 1.405189e-001
 0.000000e+000 0.000000e+000 0.000000e+000 0.000000e+000 0.000000e+000
<ENDHMM>
~h "c"
<BEGINHMM>
<NUMSTATES> 5
<STATE> 2
<MEAN> 25
 -1.397476e+001 3.686476e+000 -7.687673e+000 3.913482e+000 -1.887039e+000 -2.076602e+000 2.952390e+000 9.704373e-001 3.097184e+000 3.238974e-001 2.781443e+000 7.257832e-001 -2.466173e-001 -2.960055e-001 -1.591486e-001 2.212460e-002 -7.269835e-002 -6.279571e-002 1.587206e-001 2.436957e-001 1.107217e-001 -7.519329e-002 4.139312e-002 1.154514e-001 -1.013566e-001
<VARIANCE> 25
 4.115398e+001 1.065195e+001 9.920849e+000 9.130626e+000 9.645249e+000 7.634845e+000 1.566171e+001 1.518862e+001 1.341383e+001 1.141682e+001 9.321033e+000 8.808034e+000 3.813110e-001 8.178845e-001 1.337215e+000 7.512314e-001 7.526373e-001 8.900255e-001 1.287017e+000 1.077863e+000 9.673463e-001 9.027711e-001 9.023631e-001 9.556783e-001 9.120554e-001
<GCONST> 7.413692e+001
<STATE> 3
<MEAN> 25
 -1.123462e+001 6.297981e-001 -7.944452e+000 6.254872e+000 -5.951640e-001 -1.736495e+000 2.582924e+000 7.835985e-001 2.428620e+000 5.060874e-001 2.251233e+000 -6.553378e-002 3.687193e-001 -8.175727e-001 1.010552e+000 -2.918062e-002 1.412169e-001 -1.109519e-001 8.501185e-001 5.283781e-001 1.236193e-001 5.965776e-002 -3.256851e-001 -1.077303e-002 1.457937e+000
<VARIANCE> 25
 8.625262e+001 2.229429e+001 2.239193e+001 1.661833e+001 1.513333e+001 2.067636e+001 2.266742e+001 2.055264e+001 2.753047e+001 1.967956e+001 1.245968e+001 5.531064e+000 3.627995e+000 6.513970e+000 6.728369e+000 4.706338e+000 2.380397e+000 2.969370e+000 2.780620e+000 3.415909e+000 3.103638e+000 1.564311e+000 1.655750e+000 1.353052e+000 1.035706e+001
<GCONST> 9.739422e+001
<STATE> 4
<MEAN> 25
 -8.225873e+000 -3.701454e+000 6.618474e+000 -1.325326e+000 9.011624e+000 -7.879120e+000 2.797094e+000 -4.105169e+000 7.723355e-001 4.857244e-001 1.345232e+000 -7.094852e-001 7.810777e-001 -1.519815e-001 1.103757e+000 -3.841579e-001 5.038337e-002 -4.354187e-001 -1.372072e-003 -5.797675e-001 -5.861530e-001 -9.331643e-003 1.318034e-001 -2.038008e-001 1.677120e+000
<VARIANCE> 25
 2.168230e+002 9.676748e+001 7.764310e+001 1.245920e+002 1.024992e+002 7.528435e+001 4.998622e+001 7.313575e+001 8.996620e+001 4.720648e+001 2.361222e+001 3.447305e+001 1.303449e+001 6.242455e+000 6.514003e+000 1.095726e+001 9.179053e+000 7.811589e+000 6.278793e+000 6.569641e+000 6.362225e+000 4.156599e+000 2.647848e+000 2.938238e+000 7.969070e+000
<GCONST> 1.213479e+002
<TRANSP> 5
 0.000000e+000 1.000000e+000 0.000000e+000 0.000000e+000 0.000000e+000
 0.000000e+000 8.852250e-001 1.147750e-001 0.000000e+000 0.000000e+000
 0.000000e+000 0.000000e+000 5.584749e-001 4.415251e-001 0.000000e+000
 0.000000e+000 0.000000e+000 0.000000e+000 9.348235e-001 6.517644e-002
 0.000000e+000 0.000000e+000 0.000000e+000 0.000000e+000 0.000000e+000
<ENDHMM>
~h "d"
<BEGINHMM>
<NUMSTATES> 5
<STATE> 2
<MEAN> 25
 -2.459430e-001 9.758710e+000 6.778704e+000 7.784494e+000 2.933579e-001 -4.455194e-001 -1.216598e-001 1.861075e-001 -1.913956e+000 -1.908618e+000 8.302854e-001 -3.847896e-001 9.955580e-001 2.362069e-001 4.892838e-001 8.377964e-001 1.400463e-001 -1.797755e-001 -3.114881e-001 -2.233932e-001 2.323507e-001 -9.895176e-002 -2.154606e-001 2.363522e-001 5.975789e-001
<VARIANCE> 25
 6.532176e+001 1.088653e+002 1.481030e+002 5.713007e+001 8.350188e+001 3.526439e+001 4.380943e+001 5.179991e+001 5.485345e+001 3.622154e+001 3.391916e+001 2.226068e+001 3.258640e+000 8.213378e+000 5.347898e+000 4.871424e+000 7.703091e+000 3.683445e+000 3.585407e+000 3.943443e+000 3.911537e+000 2.804190e+000 3.241437e+000 2.270412e+000 3.146078e+000
<GCONST> 1.118744e+002
<STATE> 3
<MEAN> 25
 3.150223e+000 9.522832e+000 9.097539e+000 8.876793e+000 -1.489695e+000 -1.336766e+000 -1.216763e+000 -5.318345e-001 -1.951486e+000 -2.306720e+000 6.339610e-001 2.568527e-001 9.761814e-001 -4.707518e-001 5.109791e-001 3.467569e-002 -7.389075e-001 -3.102884e-001 -4.396127e-001 -1.840976e-001 3.457951e-002 -6.372234e-002 1.403191e-001 2.294746e-001 1.055068e+000
<VARIANCE> 25
 5.069460e+001 1.630892e+002 1.057586e+002 7.080183e+001 1.087366e+002 4.264434e+001 4.597873e+001 6.211099e+001 5.336274e+001 3.740754e+001 3.994231e+001 2.553632e+001 2.622632e+000 1.007326e+001 4.801119e+000 6.609822e+000 8.607383e+000 4.517621e+000 4.087996e+000 5.092618e+000 4.866465e+000 2.806693e+000 4.291108e+000 2.600971e+000 3.408512e+000
<GCONST> 1.144945e+002
<STATE> 4
<MEAN> 25
 8.037151e+000 2.306405e+000 1.299349e+001 6.018906e+000 -7.131888e+000 -2.636773e+000 -3.057643e+000 6.242832e-001 -1.727458e+000 -1.871592e+000 2.528032e+000 1.410712e+000 4.569914e-001 -1.489144e+000 2.917976e-001 -1.294263e+000 -6.203845e-001 6.669680e-002 -2.556978e-001 2.502292e-001 -1.841009e-001 2.987029e-001 2.872589e-001 -1.411925e-001 1.328733e+000
<VARIANCE> 25
 2.824050e+001 2.228466e+002 6.542213e+001 1.248836e+002 1.133227e+002 4.724424e+001 4.539618e+001 8.210809e+001 7.500706e+001 4.077765e+001 4.463680e+001 3.136324e+001 1.592646e+000 1.374784e+001 4.896774e+000 8.309526e+000 1.067742e+001 5.408322e+000 3.982152e+000 5.442642e+000 5.706526e+000 3.550670e+000 4.847692e+000 3.370020e+000 5.784800e+000
<GCONST> 1.172632e+002
<TRANSP> 5
 0.000000e+000 1.000000e+000 0.000000e+000 0.000000e+000 0.000000e+000
 0.000000e+000 6.261986e-001 3.738014e-001 0.000000e+000 0.000000e+000
 0.000000e+000 0.000000e+000 6.373577e-001 3.626424e-001 0.000000e+000
 0.000000e+000 0.000000e+000 0.000000e+000 8.715123e-001 1.284878e-001
 0.000000e+000 0.000000e+000 0.000000e+000 0.000000e+000 0.000000e+000
<ENDHMM>
~h "e"
<BEGINHMM>
<NUMSTATES> 5
<STATE> 2
<MEAN> 25
 -3.352628e+000 5.766190e+000 -1.974386e+000 4.023152e+000 -2.090622e-002 1.129794e-001 -3.610131e-001 -7.075721e-001 1.348013e+000 -5.443996e-001 2.075601e+000 8.943249e-001 5.339772e-001 4.192424e-001 -4.312009e-002 5.149960e-001 4.117127e-001 1.446531e-001 -2.199972e-001 -2.987873e-001 -6.819586e-002 1.792373e-001 -9.048507e-002 -9.797215e-002 1.256827e-001
<VARIANCE> 25
 1.355375e+002 1.379365e+002 9.341888e+001 8.241149e+001 4.991671e+001 5.244090e+001 3.811479e+001 3.438014e+001 3.803092e+001 2.696441e+001 2.394929e+001 2.298353e+001 6.941575e+000 5.370461e+000 4.263371e+000 3.378260e+000 4.075738e+000 2.774979e+000 2.845291e+000 2.884151e+000 3.358350e+000 2.677067e+000 1.694739e+000 1.778812e+000 5.586524e+000
<GCONST> 1.088600e+002
<STATE> 3
<MEAN> 25
 -3.648646e-001 6.396082e+000 -1.021110e+000 4.991682e+000 6.083380e-001 -5.770993e-001 -1.375804e+000 -1.573423e+000 1.046615e+000 4.161080e-002 1.661632e+000 6.535462e-001 1.052533e+000 -6.088089e-002 2.211810e-001 1.741682e-001 1.092974e-001 -1.458542e-001 -4.880468e-001 -3.997428e-001 -1.784268e-002 3.649068e-001 -9.446577e-002 -5.340377e-002 8.930194e-001
<VARIANCE> 25
 9.369518e+001 1.665401e+002 1.004189e+002 8.763512e+001 6.727492e+001 4.693558e+001 4.319564e+001 4.350843e+001 4.612274e+001 3.281079e+001 2.668009e+001 2.403143e+001 6.962716e+000 7.254469e+000 5.374583e+000 4.847671e+000 6.068412e+000 3.486609e+000 3.508382e+000 4.201095e+000 3.828008e+000 2.967648e+000 2.113449e+000 2.166546e+000 7.318121e+000
<GCONST> 1.129332e+002
<STATE> 4
<MEAN> 25
 6.225065e+000 2.736398e+000 6.340692e-001 3.303125e+000 -2.439331e-001 -1.019016e+000 -4.859165e+000 -3.052046e+000 1.601602e+000 2.065490e+000 1.290669e+000 1.300869e-001 9.890158e-001 -1.871322e+000 6.957906e-001 -1.195606e+000 -7.466540e-001 -1.753739e-001 -5.584684e-001 1.535388e-001 2.605536e-001 4.894605e-001 -2.432392e-001 1.443599e-002 2.007818e+000
<VARIANCE> 25
 7.389496e+001 1.679412e+002 9.927757e+001 1.174931e+002 1.095195e+002 5.331184e+001 7.025751e+001 8.266193e+001 6.141330e+001 5.029353e+001 3.801019e+001 3.136841e+001 5.686958e+000 1.429016e+001 7.253584e+000 9.760609e+000 9.576204e+000 4.117209e+000 5.666041e+000 7.859517e+000 6.629177e+000 4.581187e+000 3.089315e+000 3.141343e+000 1.044898e+001
<GCONST> 1.213566e+002
<TRANSP> 5
 0.000000e+000 1.000000e+000 0.000000e+000 0.000000e+000 0.000000e+000
 0.000000e+000 5.874743e-001 4.125257e-001 0.000000e+000 0.000000e+000
 0.000000e+000 0.000000e+000 5.701965e-001 4.298035e-001 0.000000e+000
 0.000000e+000 0.000000e+000 0.000000e+000 8.009005e-001 1.990995e-001
 0.000000e+000 0.000000e+000 0.000000e+000 0.000000e+000 0.000000e+000
<ENDHMM>
~h "f"
<BEGINHMM>
<NUMSTATES> 5
<STATE> 2
<MEAN> 25
 -6.103651e+000 4.083250e+000 7.467373e+000 2.574124e+000 -6.129043e-001 -9.201068e-001 -2.542723e+000 -2.063780e+000 -4.516423e+000 1.122555e+000 1.755510e-001 1.160162e+000 -2.601303e-001 2.400431e-001 1.350829e-001 1.829163e-001 2.743817e-002 -2.509447e-001 2.634003e-001 -2.065909e-001 -2.178020e-001 1.193568e-001 4.367159e-002 7.103443e-003 6.256343e-002
<VARIANCE> 25
 3.682909e+001 5.597887e+001 8.794641e+001 4.217333e+001 4.579423e+001 4.445121e+001 3.293283e+001 3.375945e+001 3.090809e+001 1.726761e+001 1.724462e+001 1.659527e+001 1.797065e+000 1.074470e+000 2.303277e+000 1.459273e+000 2.538221e+000 1.736212e+000 1.950325e+000 2.096680e+000 2.316178e+000 1.525115e+000 1.512504e+000 1.483269e+000 3.616881e-001
<GCONST> 9.418026e+001
<STATE> 3
<MEAN> 25
 -8.630947e+000 6.359305e+000 8.582704e+000 2.713755e+000 -9.129101e-001 -3.205006e+000 -1.526245e-001 -2.420012e+000 -5.255824e+000 1.860402e+000 1.051119e+000 1.341294e+000 -1.008998e-001 1.751855e-001 1.526552e-001 9.006053e-003 -2.371146e-001 -1.693248e-001 2.232988e-001 -2.408487e-001 -4.688577e-003 1.774853e-001 1.564446e-001 1.845152e-002 1.807597e-001
<VARIANCE> 25
 5.089299e+001 7.927804e+001 8.768514e+001 4.737614e+001 5.021010e+001 4.030287e+001 3.051702e+001 2.835406e+001 3.055865e+001 1.866207e+001 1.706286e+001 1.616921e+001 2.372253e+000 9.581198e-001 2.744978e+000 1.888360e+000 2.989262e+000 1.759510e+000 1.891952e+000 2.061874e+000 2.078195e+000 1.517557e+000 1.661258e+000 1.561436e+000 4.341677e-001
<GCONST> 9.567862e+001
<STATE> 4
<MEAN> 25
 -4.072826e+000 -2.480203e+000 2.008174e+001 -5.022285e+000 -5.160439e+000 -6.293992e+000 7.613965e-001 -3.082052e+000 -7.461075e+000 1.787279e-001 1.918788e+000 1.213144e-001 -1.971477e-002 2.206884e-001 -8.738355e-002 -1.283741e-002 -1.270247e-001 6.653275e-002 -6.871974e-002 -3.301038e-003 -4.029603e-002 1.963106e-002 4.341790e-002 -8.586443e-002 -2.326277e-001
<VARIANCE> 25
 4.970006e+001 9.207299e+001 1.754774e+002 7.480617e+001 8.712726e+001 6.754712e+001 7.462877e+001 3.024450e+001 7.811687e+001 2.822606e+001 1.602689e+001 2.592971e+001 2.249108e+000 1.982828e+000 5.158000e+000 3.548935e+000 4.011975e+000 2.993843e+000 2.745984e+000 1.826532e+000 3.341613e+000 1.907359e+000 1.613415e+000 1.651898e+000 7.046017e-001
<GCONST> 1.049711e+002
<TRANSP> 5
 0.000000e+000 1.000000e+000 0.000000e+000 0.000000e+000 0.000000e+000
 0.000000e+000 8.389035e-001 1.610965e-001 0.000000e+000 0.000000e+000
 0.000000e+000 0.000000e+000 8.322860e-001 1.677140e-001 0.000000e+000
 0.000000e+000 0.000000e+000 0.000000e+000 9.545639e-001 4.543614e-002
 0.000000e+000 0.000000e+000 0.000000e+000 0.000000e+000 0.000000e+000
<ENDHMM>
~h "g"
<BEGINHMM>
<NUMSTATES> 5
<STATE> 2
<MEAN> 25
 6.996830e+000 -7.646385e+000 9.385738e+000 -8.070962e-001 -2.184456e+000 -5.959129e+000 -6.478310e-001 5.909335e+000 -1.822450e+000 3.616380e+000 2.860346e-001 -1.086473e+000 -1.745771e-001 -3.658291e-001 6.378157e-001 -3.266343e-001 1.242195e-002 -8.248330e-001 -1.473836e-001 7.784178e-001 -9.607590e-002 2.371993e-001 -5.003969e-002 -9.155368e-002 3.585740e-001
<VARIANCE> 25
 1.831170e+001 6.229446e+001 6.449554e+001 1.440063e+002 4.828949e+001 8.107488e+001 4.962652e+001 7.382229e+001 3.501839e+001 4.425470e+001 4.574115e+001 4.327396e+001 8.311762e-001 4.391353e+000 3.576257e+000 7.406503e+000 4.431374e+000 4.644596e+000 2.791614e+000 4.336142e+000 3.473222e+000 4.093361e+000 4.746473e+000 2.790282e+000 3.136906e+000
<GCONST> 1.100086e+002
<STATE> 3
<MEAN> 25
 6.093930e+000 -8.136734e+000 1.098109e+001 -3.905945e+000 -1.522804e+000 -8.071691e+000 -1.940746e+000 8.815380e+000 -1.280779e+000 4.114023e+000 -8.464624e-001 -8.726185e-001 -1.242898e-001 -5.382504e-002 -1.408179e-001 -3.721292e-001 4.044686e-001 -2.019186e-002 1.352399e-001 1.088644e-001 1.729094e-001 6.793994e-002 -5.063310e-001 -2.324880e-002 3.824018e-002
<VARIANCE> 25
 1.825798e+001 6.295126e+001 3.950093e+001 1.458666e+002 3.780225e+001 4.381550e+001 3.895902e+001 5.396626e+001 3.271692e+001 3.096579e+001 4.748102e+001 3.978043e+001 6.796080e-001 2.516767e+000 2.283360e+000 5.894191e+000 3.288724e+000 3.035275e+000 2.557285e+000 2.520104e+000 2.897952e+000 3.193325e+000 3.066250e+000 2.091923e+000 2.419150e+000
<GCONST> 1.034480e+002
<STATE> 4
<MEAN> 25
 2.874109e+000 -7.726415e+000 5.859360e+000 -5.306622e+000 1.032355e+000 -5.801958e+000 3.864595e-001 6.767805e+000 1.200637e+000 3.272249e+000 -6.143675e+000 -3.990869e-001 -2.762108e-001 2.742296e-001 -4.586942e-001 3.610458e-001 5.077345e-002 2.925142e-001 1.030045e-001 -2.447598e-001 1.044862e-001 -1.777376e-001 -2.271776e-002 -1.966420e-002 -5.873942e-001
<VARIANCE> 25
 3.455977e+001 5.618922e+001 5.689236e+001 1.249025e+002 2.856565e+001 3.537846e+001 3.458421e+001 4.002169e+001 3.137751e+001 3.970679e+001 4.864301e+001 2.179090e+001 6.016549e-001 1.646811e+000 1.343706e+000 3.729201e+000 2.066286e+000 1.761839e+000 1.777487e+000 1.936127e+000 1.876155e+000 1.781659e+000 1.980188e+000 1.681319e+000 1.641847e+000
<GCONST> 9.766753e+001
<TRANSP> 5
 0.000000e+000 1.000000e+000 0.000000e+000 0.000000e+000 0.000000e+000
 0.000000e+000 9.019585e-001 9.804149e-002 0.000000e+000 0.000000e+000
 0.000000e+000 0.000000e+000 8.489363e-001 1.510638e-001 0.000000e+000
 0.000000e+000 0.000000e+000 0.000000e+000 9.566001e-001 4.339986e-002
 0.000000e+000 0.000000e+000 0.000000e+000 0.000000e+000 0.000000e+000
<ENDHMM>
~h "h"
<BEGINHMM>
<NUMSTATES> 5
<STATE> 2
<MEAN> 25
 8.545061e-001 -5.234934e-001 -2.089884e+000 1.386703e+000 1.330901e+000 5.745016e-001 1.036747e+000 8.875730e-001 1.268885e+000 -4.986914e-001 -9.781449e-001 2.221070e-001 -1.781222e-001 1.713852e-001 -1.873643e-002 1.378418e-001 3.344508e-003 1.239334e-001 -1.600047e-001 -5.741792e-002 -7.970703e-002 -8.682536e-002 8.705445e-002 5.067780e-002 -3.106472e-001
<VARIANCE> 25
 3.326067e+001 4.661118e+001 4.600415e+001 2.543490e+001 3.676779e+001 3.642949e+001 8.625762e+001 3.581907e+001 3.049921e+001 2.084745e+001 2.015950e+001 1.576922e+001 5.958331e-001 1.191092e+000 1.719902e+000 1.550903e+000 1.604478e+000 2.041501e+000 2.838357e+000 1.942156e+000 1.887279e+000 1.623913e+000 1.551276e+000 1.529287e+000 8.462238e-001
<GCONST> 9.315906e+001
<STATE> 3
<MEAN> 25
 -4.408969e+000 1.824043e+000 -1.680578e+000 3.156748e+000 2.540243e+000 2.005840e+000 -2.173018e+000 -1.225116e+000 -4.401318e-001 -8.118666e-001 -1.680986e-001 9.870916e-001 -4.358129e-001 2.774447e-001 6.587061e-003 2.905778e-002 -1.556991e-001 -4.649310e-002 -1.598884e-001 -1.531500e-001 -1.570998e-001 -1.033992e-001 1.432793e-001 3.502305e-003 -3.654712e-001
<VARIANCE> 25
 5.691632e+001 6.145530e+001 6.360285e+001 1.839709e+001 2.311371e+001 1.918104e+001 4.258041e+001 2.144559e+001 2.961750e+001 1.943901e+001 2.573258e+001 1.390745e+001 4.442874e-001 6.460608e-001 9.063047e-001 8.621100e-001 1.332891e+000 1.571643e+000 1.748670e+000 1.590123e+000 1.624034e+000 1.756517e+000 1.683810e+000 1.255486e+000 4.870922e-001
<GCONST> 8.766353e+001
<STATE> 4
<MEAN> 25
 -8.869694e+000 -1.923917e+000 -5.594672e+000 4.313244e+000 1.184680e-002 4.505143e+000 4.175802e-001 4.645393e-001 -1.295720e+000 -1.561473e+000 2.574416e+000 -3.166531e-001 -4.260080e-001 2.978092e-001 -7.148010e-002 3.510690e-002 -3.157130e-001 7.457610e-002 1.675033e-001 -1.402855e-002 -5.090392e-002 -1.846521e-001 3.248062e-001 7.842940e-002 -3.799288e-001
<VARIANCE> 25
 1.092396e+002 2.108927e+002 9.108530e+001 1.286161e+001 2.900527e+001 3.518516e+001 3.608859e+001 4.727076e+001 3.430369e+001 2.379860e+001 2.967485e+001 1.597579e+001 1.600147e+000 1.111034e+000 1.970724e+000 9.105726e-001 1.550183e+000 2.320010e+000 1.452218e+000 1.545159e+000 1.864247e+000 1.834765e+000 1.898847e+000 1.647504e+000 1.422120e+000
<GCONST> 9.626479e+001
<TRANSP> 5
 0.000000e+000 1.000000e+000 0.000000e+000 0.000000e+000 0.000000e+000
 0.000000e+000 9.574776e-001 4.252242e-002 0.000000e+000 0.000000e+000
 0.000000e+000 0.000000e+000 9.193562e-001 8.064381e-002 0.000000e+000
 0.000000e+000 0.000000e+000 0.000000e+000 8.836218e-001 1.163783e-001
 0.000000e+000 0.000000e+000 0.000000e+000 0.000000e+000 0.000000e+000
<ENDHMM>
~h "i"
<BEGINHMM>
<NUMSTATES> 5
<STATE> 2
<MEAN> 25
 -5.278247e+000 3.445394e+000 7.479394e+000 2.210376e+000 -4.835085e+000 -1.714854e+000 -1.500172e+000 -1.981926e+000 -3.053109e+000 -1.102811e+000 3.267617e+000 1.108118e-002 6.160200e-001 -3.778488e-001 1.886718e+000 -5.519751e-001 -1.473915e+000 7.805037e-002 -3.320992e-001 -1.592164e-001 -8.588167e-001 -2.838735e-001 5.049994e-001 -2.088239e-001 1.011094e+000
<VARIANCE> 25
 9.469239e+001 6.511410e+001 2.137275e+002 7.285609e+001 8.061993e+001 6.183020e+001 5.421996e+001 5.311839e+001 7.446454e+001 3.986842e+001 3.266519e+001 2.547987e+001 3.606876e+000 4.118604e+000 9.890249e+000 5.624588e+000 6.582211e+000 4.372285e+000 4.481787e+000 3.958634e+000 4.850440e+000 3.521554e+000 2.536021e+000 2.210042e+000 5.226686e+000
<GCONST> 1.146947e+002
<STATE> 3
<MEAN> 25
 -3.306065e+000 2.814474e+000 1.270899e+001 7.450186e-001 -7.622896e+000 -8.796671e-001 -2.619904e+000 -2.320627e+000 -5.034886e+000 -1.503096e+000 3.905046e+000 -8.336760e-001 6.997588e-001 -4.077381e-001 1.760551e+000 -5.452566e-001 -1.026313e+000 1.117176e-001 -3.370070e-001 1.184871e-001 -6.283680e-001 -2.880977e-001 1.642191e-001 -7.037316e-002 1.020497e+000
<VARIANCE> 25
 8.107607e+001 6.400095e+001 2.623153e+002 9.338656e+001 8.610780e+001 5.569690e+001 6.393608e+001 5.358366e+001 8.633422e+001 3.944125e+001 3.062070e+001 2.993214e+001 3.492383e+000 4.309141e+000 1.161273e+001 6.755718e+000 8.810040e+000 5.202741e+000 5.920856e+000 4.642903e+000 4.802515e+000 3.481076e+000 2.782600e+000 2.846263e+000 5.062218e+000
<GCONST> 1.168962e+002
<STATE> 4
<MEAN> 25
 1.713854e+000 1.045468e-001 2.514668e+001 -4.374860e+000 -1.118465e+001 4.809608e-001 -3.355053e+000 -1.769373e-001 -1.024371e+001 -2.056699e+000 2.798986e+000 -1.391171e+000 1.697514e-001 -1.045163e-001 -1.382069e-002 -9.004404e-002 2.329348e-001 -6.381692e-002 -5.790323e-002 1.624991e-001 2.091969e-003 9.660566e-002 -2.322207e-001 3.060255e-002 1.659894e-001
<VARIANCE> 25
 3.707020e+001 4.494303e+001 2.270008e+002 1.080582e+002 8.092123e+001 6.779337e+001 6.038464e+001 5.959616e+001 8.542204e+001 4.104165e+001 2.803511e+001 3.155718e+001 1.941925e+000 3.134282e+000 1.362708e+001 7.290596e+000 6.244940e+000 4.807989e+000 4.604427e+000 3.830090e+000 4.528145e+000 2.750565e+000 2.228317e+000 2.466300e+000 4.783935e+000
<GCONST> 1.136865e+002
<TRANSP> 5
 0.000000e+000 1.000000e+000 0.000000e+000 0.000000e+000 0.000000e+000
 0.000000e+000 4.821034e-001 5.178967e-001 0.000000e+000 0.000000e+000
 0.000000e+000 0.000000e+000 5.180407e-001 4.819594e-001 0.000000e+000
 0.000000e+000 0.000000e+000 0.000000e+000 9.221751e-001 7.782489e-002
 0.000000e+000 0.000000e+000 0.000000e+000 0.000000e+000 0.000000e+000
<ENDHMM>
~h "j"
<BEGINHMM>
<NUMSTATES> 5
<STATE> 2
<MEAN> 25
 2.620460e+000 1.728960e+001 -1.367987e+000 9.629502e+000 4.439956e+000 -2.518119e+000 -5.037861e+000 -4.233459e+000 1.504439e-001 -1.901867e+000 -8.137021e-002 1.644649e+000 1.802580e+000 4.626900e-001 7.483076e-001 2.245813e-001 1.548732e+000 -4.125018e-001 -8.952246e-001 1.616744e-002 -7.202151e-001 7.425642e-001 -9.309538e-002 -3.291373e-001 1.574328e+000
<VARIANCE> 25
 9.383525e+001 1.849435e+002 1.003402e+002 5.965966e+001 7.045611e+001 2.522907e+001 3.193390e+001 2.984320e+001 2.462836e+001 1.235675e+001 8.955915e+000 1.273285e+001 8.090226e+000 5.837177e+000 2.297076e+000 4.216742e+000 7.377002e+000 3.119787e+000 3.726140e+000 3.567322e+000 2.818884e+000 1.145625e+000 1.253579e+000 2.479810e+000 2.978718e+000
<GCONST> 1.044498e+002
<STATE> 3
<MEAN> 25
 5.645535e+000 7.678971e+000 1.390215e+000 1.947389e+000 1.214650e+001 -6.346343e+000 -1.041467e+001 4.663366e-001 -1.179646e+000 2.641693e+000 6.830671e-001 1.826321e+000 -1.230253e-001 -2.524166e+000 7.850285e-001 -2.140525e+000 2.659601e+000 -8.516119e-001 -9.674568e-001 1.769019e+000 -1.059823e+000 6.461796e-001 -3.994481e-001 -3.425947e-001 2.303775e+000
<VARIANCE> 25
 3.548606e+001 2.768801e+002 2.384318e+002 9.674014e+001 2.392792e+002 2.868580e+001 6.207305e+001 5.925785e+001 3.723409e+001 2.191995e+001 6.028872e+000 3.897079e+001 4.256841e+000 8.200112e+000 7.428271e+000 9.420704e+000 3.085821e+001 1.705022e+000 1.421881e+001 4.206247e+000 5.704195e+000 3.297940e+000 1.061344e+000 5.416839e+000 4.637862e+000
<GCONST> 1.164668e+002
<STATE> 4
<MEAN> 25
 4.063993e+000 -8.099121e+000 1.175546e+001 -9.602478e+000 3.678786e+000 -1.214581e+001 2.405421e+000 7.533950e+000 -2.575841e+000 3.821205e+000 -4.197189e+000 2.806346e+000 5.901191e-003 -2.026537e-001 2.998945e-001 -1.608973e-001 -4.060751e-001 -1.776952e-001 4.536065e-001 -5.805680e-002 1.938767e-002 3.374637e-002 -7.433376e-002 1.679710e-001 2.537634e-001
<VARIANCE> 25
 2.481225e+001 8.652376e+001 1.080949e+002 7.706737e+001 9.949622e+001 7.084162e+001 9.230655e+001 6.052237e+001 5.320954e+001 2.505209e+001 5.745932e+001 3.970522e+001 1.526039e+000 3.063290e+000 4.210614e+000 4.692823e+000 1.072469e+001 3.885670e+000 4.080353e+000 3.899259e+000 4.952717e+000 2.013365e+000 3.428574e+000 1.944734e+000 3.241699e+000
<GCONST> 1.114586e+002
<TRANSP> 5
 0.000000e+000 1.000000e+000 0.000000e+000 0.000000e+000 0.000000e+000
 0.000000e+000 7.354460e-001 2.645540e-001 0.000000e+000 0.000000e+000
 0.000000e+000 0.000000e+000 6.540307e-001 3.459693e-001 0.000000e+000
 0.000000e+000 0.000000e+000 0.000000e+000 9.676583e-001 3.234171e-002
 0.000000e+000 0.000000e+000 0.000000e+000 0.000000e+000 0.000000e+000
<ENDHMM>
~h "k"
<BEGINHMM>
<NUMSTATES> 5
<STATE> 2
<MEAN> 25
 -2.929767e+000 1.042431e-001 -5.450264e+000 1.849837e+000 1.052692e+000 4.173832e-001 -6.882384e-001 -7.761661e-001 1.479611e+000 -1.486946e-001 -8.279335e-001 -1.202932e+000 -2.495719e-001 -9.862484e-002 -4.686678e-001 2.137269e-001 2.210120e-001 -1.133500e-001 3.458804e-002 2.675944e-001 2.029251e-001 7.072670e-002 6.821586e-002 1.697924e-003 -2.376710e-001
<VARIANCE> 25
 6.215425e+001 8.606696e+001 6.375378e+001 4.123237e+001 4.257765e+001 3.802517e+001 3.117451e+001 2.922100e+001 2.807415e+001 2.229174e+001 2.398436e+001 2.239178e+001 1.420524e+000 3.195215e+000 2.318185e+000 1.754853e+000 3.024253e+000 2.039987e+000 2.979189e+000 2.466164e+000 2.126266e+000 1.701070e+000 1.558819e+000 1.747645e+000 2.441143e+000
<GCONST> 9.924521e+001
<STATE> 3
<MEAN> 25
 -3.414043e+000 -9.563842e-002 -6.943109e+000 2.363261e+000 1.928616e+000 5.851430e-001 -1.128581e-001 -1.973383e-001 2.029391e+000 -1.927513e-002 -5.681766e-001 -1.115608e+000 1.054359e-001 -4.266998e-001 -3.252268e-001 5.595961e-002 4.580211e-001 -5.613878e-002 -6.588093e-003 2.994863e-001 2.351442e-001 1.318952e-001 1.754369e-002 -4.103416e-002 3.512312e-001
<VARIANCE> 25
 6.994234e+001 9.605087e+001 5.988288e+001 4.079977e+001 4.413474e+001 3.667912e+001 4.337762e+001 3.391037e+001 2.884126e+001 2.205007e+001 2.357124e+001 2.225631e+001 2.238851e+000 4.583648e+000 3.151908e+000 2.616135e+000 4.174492e+000 2.559975e+000 4.429279e+000 3.094786e+000 2.368734e+000 2.224820e+000 1.765953e+000 1.816088e+000 3.626583e+000
<GCONST> 1.035022e+002
<STATE> 4
<MEAN> 25
 6.488025e-001 -6.073896e+000 -7.558775e+000 4.338728e-001 5.533361e+000 1.144113e+000 -5.914543e-002 2.638413e-001 3.732935e+000 1.129822e+000 -1.185412e+000 -2.353860e+000 9.564665e-001 -1.141118e+000 3.645480e-001 -7.341970e-001 2.948211e-001 4.007709e-002 3.759135e-001 1.735839e-001 2.620917e-002 2.409242e-001 -1.765625e-001 -3.815010e-001 1.800873e+000
<VARIANCE> 25
 1.015677e+002 1.615938e+002 6.601009e+001 8.825803e+001 8.822881e+001 6.691238e+001 7.951994e+001 5.641556e+001 4.299394e+001 2.927286e+001 2.852076e+001 2.816424e+001 5.005140e+000 7.515238e+000 4.786273e+000 4.922440e+000 9.072399e+000 4.203162e+000 7.497481e+000 4.904680e+000 4.279382e+000 3.114922e+000 2.213235e+000 2.262055e+000 7.437404e+000
<GCONST> 1.154813e+002
<TRANSP> 5
 0.000000e+000 1.000000e+000 0.000000e+000 0.000000e+000 0.000000e+000
 0.000000e+000 6.660433e-001 3.339567e-001 0.000000e+000 0.000000e+000
 0.000000e+000 0.000000e+000 6.697025e-001 3.302974e-001 0.000000e+000
 0.000000e+000 0.000000e+000 0.000000e+000 8.165724e-001 1.834276e-001
 0.000000e+000 0.000000e+000 0.000000e+000 0.000000e+000 0.000000e+000
<ENDHMM>
~h "l"
<BEGINHMM>
<NUMSTATES> 5
<STATE> 2
<MEAN> 25
 6.172384e+000 -1.754217e+000 2.645061e+000 -8.838235e+000 -4.626658e-001 -2.533751e+000 -6.149951e+000 1.565395e+000 2.252958e+000 4.712893e+000 -9.599799e-001 -1.229134e+000 2.507597e-001 -3.835846e-001 8.782551e-002 -1.143317e+000 1.753737e-001 3.945450e-001 -1.908605e-001 -2.139353e-001 2.123058e-001 5.234712e-001 -1.995041e-001 -1.706748e-002 6.196012e-001
<VARIANCE> 25
 7.763911e+001 1.167201e+002 1.148374e+002 1.566430e+002 5.679713e+001 7.592482e+001 8.661366e+001 6.250047e+001 6.874927e+001 5.151870e+001 4.516071e+001 3.370676e+001 2.753822e+000 3.945217e+000 4.007681e+000 5.777874e+000 3.396207e+000 4.275296e+000 3.978505e+000 4.845800e+000 3.588308e+000 3.404900e+000 2.291800e+000 2.333115e+000 3.542652e+000
<GCONST> 1.139290e+002
<STATE> 3
<MEAN> 25
 6.800097e+000 -2.916313e+000 2.437106e+000 -1.103413e+001 4.559422e-001 -1.462167e+000 -5.821878e+000 5.182326e-001 2.951954e+000 5.937778e+000 -1.682464e+000 -1.186644e+000 1.039095e-001 -4.019485e-001 -1.182112e-001 -5.132248e-001 2.767458e-001 3.339194e-001 2.073267e-001 -2.858505e-001 2.058420e-001 2.345627e-001 -2.784461e-001 1.974125e-002 3.847510e-001
<VARIANCE> 25
 6.297495e+001 9.875359e+001 1.068966e+002 1.410190e+002 6.105165e+001 8.079982e+001 8.844202e+001 7.952510e+001 6.446007e+001 5.661154e+001 4.960631e+001 3.527965e+001 2.299420e+000 3.882414e+000 3.260352e+000 4.511611e+000 3.249432e+000 3.632538e+000 4.094250e+000 4.554510e+000 3.319849e+000 3.880189e+000 2.394189e+000 2.197987e+000 2.714218e+000
<GCONST> 1.128215e+002
<STATE> 4
<MEAN> 25
 8.030859e+000 -5.062242e+000 2.929075e+000 -1.120720e+001 2.660746e+000 7.996452e-001 -4.134246e+000 -1.100105e+000 1.843948e+000 7.246488e+000 -4.278405e+000 -6.609372e-001 -4.675772e-002 -3.299582e-001 -2.430273e-001 2.541179e-001 1.937610e-001 1.885531e-001 3.957861e-001 4.487336e-002 -5.038704e-002 -2.997833e-001 -2.655040e-001 3.604729e-002 2.786161e-002
<VARIANCE> 25
 4.145348e+001 9.020802e+001 8.065894e+001 1.233773e+002 5.824739e+001 7.636546e+001 8.534112e+001 1.016300e+002 7.961030e+001 6.542093e+001 5.132094e+001 4.086647e+001 1.492617e+000 3.315574e+000 2.225808e+000 4.081444e+000 2.669646e+000 2.677854e+000 3.438110e+000 3.783199e+000 3.548330e+000 3.210613e+000 2.677522e+000 1.920997e+000 2.387282e+000
<GCONST> 1.103327e+002
<TRANSP> 5
 0.000000e+000 1.000000e+000 0.000000e+000 0.000000e+000 0.000000e+000
 0.000000e+000 6.089888e-001 3.910111e-001 0.000000e+000 0.000000e+000
 0.000000e+000 0.000000e+000 6.360823e-001 3.639177e-001 0.000000e+000
 0.000000e+000 0.000000e+000 0.000000e+000 8.956276e-001 1.043724e-001
 0.000000e+000 0.000000e+000 0.000000e+000 0.000000e+000 0.000000e+000
<ENDHMM>
~h "m"
<BEGINHMM>
<NUMSTATES> 5
<STATE> 2
<MEAN> 25
 1.004451e+000 2.431533e+000 -3.955220e+000 4.584965e+000 2.380702e+000 3.191273e+000 -1.532561e-001 -4.201669e+000 -1.379721e+000 -4.547130e-001 3.102201e-001 1.224381e+000 -2.635675e-001 5.166624e-001 -7.836913e-002 4.467213e-001 -4.549632e-003 1.070979e-002 9.937883e-002 -1.448437e-001 -1.987417e-001 -1.122814e-001 4.031796e-002 1.118062e-001 -5.883752e-001
<VARIANCE> 25
 1.264127e+002 4.561784e+001 6.764439e+001 3.550800e+001 3.440707e+001 4.216333e+001 2.888444e+001 5.339268e+001 7.457824e+001 2.207385e+001 2.211129e+001 2.111475e+001 1.107765e+000 9.655468e-001 1.247129e+000 1.919047e+000 1.053148e+000 1.129065e+000 1.367875e+000 1.965234e+000 2.210795e+000 1.265200e+000 1.110989e+000 1.310365e+000 8.566923e-001
<GCONST> 9.391535e+001
<STATE> 3
<MEAN> 25
 9.209186e-001 4.553612e+000 -4.019397e+000 5.357066e+000 1.782486e+000 3.209941e+000 8.090569e-001 -4.221227e+000 -1.858679e+000 -9.088238e-001 3.340868e-001 1.254469e+000 2.356066e-002 3.943956e-001 -5.693153e-002 1.920044e-001 -5.382911e-002 2.074802e-002 1.224852e-001 2.965410e-002 9.646786e-003 -1.041407e-001 1.007186e-002 3.305284e-002 -2.315288e-001
<VARIANCE> 25
 1.472173e+002 4.571373e+001 6.364713e+001 3.636206e+001 3.629912e+001 4.318369e+001 2.861350e+001 5.964359e+001 7.038409e+001 2.384475e+001 2.277045e+001 2.172921e+001 2.172125e+000 1.446687e+000 1.604732e+000 1.632605e+000 1.248591e+000 1.431985e+000 1.372636e+000 2.012383e+000 2.221526e+000 1.439375e+000 1.247619e+000 1.241103e+000 1.390497e+000
<GCONST> 9.657184e+001
<STATE> 4
<MEAN> 25
 8.071131e+000 3.785935e+000 -5.356096e+000 3.807330e+000 2.419533e+000 5.949094e+000 1.157784e+000 -5.851753e+000 -2.455302e+000 -1.669463e+000 3.505156e-001 9.203334e-001 6.797339e-001 -4.230556e-001 -2.100169e-001 -3.395963e-001 -3.201995e-002 1.984153e-001 -1.966323e-001 1.183064e-001 2.434058e-001 -1.423547e-001 -2.384331e-002 -7.019196e-002 7.156187e-001
<VARIANCE> 25
 1.250146e+002 1.326815e+002 7.005043e+001 8.493736e+001 6.198024e+001 6.483004e+001 4.099965e+001 6.560894e+001 8.641448e+001 3.518050e+001 3.292336e+001 2.263890e+001 5.237532e+000 6.112774e+000 3.789546e+000 4.980223e+000 2.405587e+000 3.292061e+000 2.906192e+000 4.824296e+000 6.247295e+000 2.159643e+000 2.029740e+000 1.456271e+000 3.630576e+000
<GCONST> 1.112728e+002
<TRANSP> 5
 0.000000e+000 1.000000e+000 0.000000e+000 0.000000e+000 0.000000e+000
 0.000000e+000 8.273944e-001 1.726056e-001 0.000000e+000 0.000000e+000
 0.000000e+000 0.000000e+000 7.801620e-001 2.198381e-001 0.000000e+000
 0.000000e+000 0.000000e+000 0.000000e+000 8.757799e-001 1.242200e-001
 0.000000e+000 0.000000e+000 0.000000e+000 0.000000e+000 0.000000e+000
<ENDHMM>
~h "n"
<BEGINHMM>
<NUMSTATES> 5
<STATE> 2
<MEAN> 25
 7.844221e+000 -4.156342e+000 3.425658e+000 1.175824e+000 2.374057e-002 -4.542550e+000 -4.824795e-001 1.611560e+000 -1.466316e+000 7.728321e-001 -4.108712e+000 -8.477090e-002 -1.568756e-001 1.004652e+000 1.873431e-001 8.157902e-001 -2.706610e-001 -7.084819e-002 -2.735958e-001 -5.920168e-001 -1.379467e-001 1.628917e-001 1.467381e-001 1.683366e-001 -9.081472e-001
<VARIANCE> 25
 2.169347e+001 7.520741e+001 5.629317e+001 6.122118e+001 2.734228e+001 4.031578e+001 5.344618e+001 8.112128e+001 2.985391e+001 3.103373e+001 2.881422e+001 1.823580e+001 3.820728e-001 1.993570e+000 1.423397e+000 2.436798e+000 1.481554e+000 1.636435e+000 2.867873e+000 3.674921e+000 1.915975e+000 1.695735e+000 1.415483e+000 1.177500e+000 1.125265e+000
<GCONST> 9.598415e+001
<STATE> 3
<MEAN> 25
 5.990011e+000 5.565299e-001 2.761104e+000 4.869191e+000 -8.115154e-001 -4.006679e+000 -1.103747e+000 -1.867978e-001 -1.023020e+000 7.181163e-001 -2.889930e+000 6.114145e-001 -3.063680e-001 6.562536e-001 -6.440619e-002 4.621001e-001 -9.913084e-002 1.088768e-001 -3.617253e-002 -2.490500e-001 5.976824e-002 1.245807e-003 1.910222e-001 1.000129e-001 -7.487214e-001
<VARIANCE> 25
 3.183061e+001 5.462931e+001 6.065020e+001 5.851601e+001 2.828670e+001 3.559677e+001 4.406465e+001 6.288622e+001 2.875105e+001 2.836795e+001 2.651819e+001 1.727031e+001 3.935153e-001 1.231541e+000 1.332777e+000 1.691764e+000 1.337549e+000 1.667388e+000 2.486802e+000 2.467468e+000 1.554805e+000 1.514972e+000 1.239309e+000 1.169295e+000 5.179482e-001
<GCONST> 9.252951e+001
<STATE> 4
<MEAN> 25
 2.383593e+000 3.287940e+000 3.203269e+000 5.447049e+000 -2.425012e+000 -3.904289e+000 -1.088587e+000 -7.844585e-001 -1.400567e+000 3.699627e-001 -9.754815e-001 1.277830e+000 -3.704957e-001 3.132456e-001 -3.731169e-001 2.813328e-001 7.098516e-002 5.180652e-002 2.559736e-002 3.091434e-003 1.733203e-001 -1.293318e-001 1.532662e-001 5.710566e-002 -6.028005e-001
<VARIANCE> 25
 4.881546e+001 5.385713e+001 1.258750e+002 1.087132e+002 3.941623e+001 4.046408e+001 3.844689e+001 6.194426e+001 4.591713e+001 3.939111e+001 2.719828e+001 2.185041e+001 6.637459e-001 1.732650e+000 1.555323e+000 2.116702e+000 1.762812e+000 2.102870e+000 2.226283e+000 2.829846e+000 1.781194e+000 1.721083e+000 1.475994e+000 1.438758e+000 6.271010e-001
<GCONST> 9.827198e+001
<TRANSP> 5
 0.000000e+000 1.000000e+000 0.000000e+000 0.000000e+000 0.000000e+000
 0.000000e+000 7.888389e-001 2.111611e-001 0.000000e+000 0.000000e+000
 0.000000e+000 0.000000e+000 8.190592e-001 1.809408e-001 0.000000e+000
 0.000000e+000 0.000000e+000 0.000000e+000 9.239376e-001 7.606244e-002
 0.000000e+000 0.000000e+000 0.000000e+000 0.000000e+000 0.000000e+000
<ENDHMM>
~h "o"
<BEGINHMM>
<NUMSTATES> 5
<STATE> 2
<MEAN> 25
 1.008025e+001 -4.593693e+000 1.124953e+001 -1.003932e+001 -2.926788e+000 -2.614754e+000 -6.343604e+000 9.628724e-001 -6.446203e+000 8.490344e+000 2.771942e+000 8.148298e-001 1.001517e-001 -2.764581e-001 -9.186903e-002 -1.785180e+000 -9.479889e-002 1.003058e+000 -7.613472e-003 -2.852269e-001 2.937194e-001 1.200825e-001 -6.600187e-002 1.161493e-001 5.459590e-001
<VARIANCE> 25
 1.813215e+001 2.218464e+001 6.586909e+001 2.079270e+002 3.231295e+001 7.485721e+001 2.413103e+001 9.578515e+001 4.067079e+001 4.313354e+001 2.055629e+001 1.487024e+001 5.165568e-001 2.403022e+000 3.890722e+000 6.224722e+000 3.176718e+000 3.845322e+000 2.869484e+000 3.350933e+000 4.577067e+000 2.230275e+000 2.322794e+000 1.478337e+000 1.562136e+000
<GCONST> 1.023701e+002
<STATE> 3
<MEAN> 25
 9.898687e+000 -6.089981e+000 7.774556e+000 -1.548372e+001 -1.504023e+000 6.557646e-001 -4.730190e+000 9.204501e-001 -3.093301e+000 8.347029e+000 -7.623900e-001 -9.200527e-002 -2.270900e-001 -1.690950e-001 -3.100539e-001 -5.608578e-002 2.471332e-001 -1.646720e-001 4.265875e-001 4.712934e-001 2.105192e-001 -2.998021e-001 -5.898142e-001 -2.439434e-001 -3.413336e-002
<VARIANCE> 25
 2.219613e+001 2.282321e+001 4.016114e+001 1.022760e+002 2.612739e+001 7.384423e+001 3.493829e+001 7.485314e+001 1.618101e+001 4.393900e+001 2.557548e+001 1.429740e+001 8.257219e-001 1.403722e+000 1.762282e+000 5.925713e+000 1.310905e+000 4.417163e+000 3.883337e+000 3.405124e+000 1.964657e+000 2.840410e+000 2.028929e+000 1.322647e+000 1.382311e+000
<GCONST> 9.825951e+001
<STATE> 4
<MEAN> 25
 3.602341e+000 -3.293066e+000 3.925950e+000 -1.025520e+001 1.031702e+000 -1.896127e+000 -1.582408e+000 3.880137e-001 -2.398810e+000 6.207650e+000 -3.560565e+000 -2.439993e+000 -6.698239e-001 5.578227e-002 -2.906435e-001 5.605214e-001 1.975437e-001 -2.380986e-001 2.312291e-001 2.114094e-001 1.600644e-001 -2.199493e-001 -1.207193e-001 1.411464e-003 -7.216604e-001
<VARIANCE> 25
 5.780330e+001 4.143233e+001 6.371473e+001 1.594341e+002 2.259979e+001 6.602666e+001 3.055856e+001 8.088409e+001 2.420043e+001 5.426952e+001 3.120193e+001 1.250182e+001 3.137995e+000 1.625435e+000 3.447344e+000 1.158215e+001 1.592078e+000 3.077688e+000 2.933049e+000 3.278891e+000 2.540722e+000 4.859014e+000 2.076755e+000 1.701618e+000 4.631286e+000
<GCONST> 1.056991e+002
<TRANSP> 5
 0.000000e+000 1.000000e+000 0.000000e+000 0.000000e+000 0.000000e+000
 0.000000e+000 9.082352e-001 9.176482e-002 0.000000e+000 0.000000e+000
 0.000000e+000 0.000000e+000 8.664629e-001 1.335371e-001 0.000000e+000
 0.000000e+000 0.000000e+000 0.000000e+000 9.480409e-001 5.195911e-002
 0.000000e+000 0.000000e+000 0.000000e+000 0.000000e+000 0.000000e+000
<ENDHMM>
~h "p"
<BEGINHMM>
<NUMSTATES> 5
<STATE> 2
<MEAN> 25
 -7.271418e-001 1.820230e+000 -2.659614e-001 3.622977e+000 -1.097266e+000 7.281389e-001 -1.867699e+000 -1.790121e+000 -6.519403e-001 -5.278437e-001 4.120699e-001 1.237550e+000 -2.021525e-001 2.222085e-002 -5.851811e-001 9.643278e-002 -9.147219e-002 -1.316752e-001 1.811391e-001 1.313072e-001 3.033222e-002 -7.371818e-002 3.442340e-002 -8.223356e-002 -3.887039e-001
<VARIANCE> 25
 4.687639e+001 3.518302e+001 6.164576e+001 4.048162e+001 3.326611e+001 2.618821e+001 2.599090e+001 3.221005e+001 3.476635e+001 1.947824e+001 2.541667e+001 1.967838e+001 2.122352e+000 1.627666e+000 2.059684e+000 2.531567e+000 1.931393e+000 1.628979e+000 1.688892e+000 1.742096e+000 1.915141e+000 1.749741e+000 1.553064e+000 1.491447e+000 2.114926e+000
<GCONST> 9.532468e+001
<STATE> 3
<MEAN> 25
 -1.000982e+000 2.105070e+000 -2.111698e+000 3.697828e+000 -1.801222e+000 3.083542e-001 -1.142548e+000 -1.474649e+000 -6.001874e-001 -8.744993e-001 5.269307e-001 1.065403e+000 3.621556e-001 -8.979525e-002 -5.663788e-001 -2.789355e-001 -2.174445e-001 -1.120077e-001 3.109279e-001 1.771063e-001 -6.648759e-002 -6.972233e-002 1.721365e-002 -1.843693e-001 2.460351e-001
<VARIANCE> 25
 4.670468e+001 3.913704e+001 5.827225e+001 4.027608e+001 3.243429e+001 2.754273e+001 2.734952e+001 3.104061e+001 3.104150e+001 2.054958e+001 2.167788e+001 1.905668e+001 3.301544e+000 2.901467e+000 2.812028e+000 3.523316e+000 2.190290e+000 1.831746e+000 2.116959e+000 2.118374e+000 1.927753e+000 1.925735e+000 1.716158e+000 1.636711e+000 3.481945e+000
<GCONST> 9.827443e+001
<STATE> 4
<MEAN> 25
 2.551458e+000 1.033564e+000 -4.791934e+000 1.605301e+000 -2.751256e+000 7.064553e-001 2.420163e-001 -7.759889e-001 -1.204889e+000 -6.458622e-001 9.430593e-001 -7.193277e-001 1.510341e+000 -7.795457e-001 -4.228960e-001 -1.459984e+000 -6.367590e-002 2.521358e-001 3.264107e-001 3.664097e-001 -2.800580e-001 3.165790e-001 5.281992e-002 -7.414823e-001 1.852372e+000
<VARIANCE> 25
 9.453675e+001 8.935654e+001 7.494878e+001 7.687064e+001 3.591945e+001 4.105926e+001 3.676078e+001 3.500234e+001 3.244747e+001 2.791890e+001 2.262883e+001 2.803090e+001 6.215532e+000 8.854089e+000 5.549095e+000 8.116524e+000 3.438946e+000 3.419138e+000 3.510775e+000 3.082357e+000 2.468019e+000 2.982978e+000 2.109794e+000 2.660130e+000 9.054344e+000
<GCONST> 1.099512e+002
<TRANSP> 5
 0.000000e+000 1.000000e+000 0.000000e+000 0.000000e+000 0.000000e+000
 0.000000e+000 6.501941e-001 3.498060e-001 0.000000e+000 0.000000e+000
 0.000000e+000 0.000000e+000 6.676939e-001 3.323061e-001 0.000000e+000
 0.000000e+000 0.000000e+000 0.000000e+000 7.791133e-001 2.208867e-001
 0.000000e+000 0.000000e+000 0.000000e+000 0.000000e+000 0.000000e+000
<ENDHMM>
~h "r"
<BEGINHMM>
<NUMSTATES> 5
<STATE> 2
<MEAN> 25
 8.634226e+000 -7.304368e+000 -8.359666e-001 9.391012e-001 -2.785621e+000 -9.660824e-002 -4.515337e+000 -1.192113e+000 3.770887e+000 1.390348e+000 -1.707777e+000 3.119607e+000 -4.356752e-002 2.236994e-002 -5.243639e-001 8.138922e-001 5.358162e-002 -1.474969e-002 1.180347e-001 2.788845e-002 6.308320e-001 -4.365279e-001 -2.112861e-001 3.984253e-001 -3.925260e-001
<VARIANCE> 25
 4.788249e+001 7.846808e+001 7.158335e+001 9.133776e+001 4.152364e+001 4.939065e+001 6.614241e+001 6.711227e+001 5.203960e+001 4.492992e+001 3.806303e+001 4.009232e+001 1.662593e+000 2.070126e+000 1.959927e+000 4.446906e+000 2.766906e+000 3.298324e+000 2.571480e+000 2.759631e+000 3.091760e+000 3.278126e+000 2.137334e+000 2.748145e+000 1.600203e+000
<GCONST> 1.062040e+002
<STATE> 3
<MEAN> 25
 7.276485e+000 -5.581438e+000 -2.839085e+000 3.268752e+000 -2.256957e+000 3.922822e-001 -3.135535e+000 -6.347085e-001 4.896080e+000 -3.445645e-002 -1.617509e+000 3.490542e+000 -2.326395e-001 2.569246e-001 -4.052333e-001 3.703930e-001 1.496975e-001 1.177058e-001 2.546979e-001 7.276330e-002 2.126205e-001 -2.072235e-001 -4.178184e-002 -1.572971e-002 -4.912995e-001
<VARIANCE> 25
 5.479816e+001 8.207056e+001 6.981426e+001 8.111502e+001 3.927943e+001 5.050546e+001 5.866892e+001 5.721537e+001 4.738821e+001 3.983846e+001 3.366060e+001 3.732442e+001 1.311438e+000 1.634493e+000 1.620902e+000 2.640865e+000 2.304932e+000 2.636981e+000 2.175607e+000 2.536495e+000 2.349171e+000 2.579476e+000 1.824464e+000 2.239722e+000 1.333533e+000
<GCONST> 1.026170e+002
<STATE> 4
<MEAN> 25
 3.179058e+000 -2.044829e+000 -5.994510e+000 5.434652e+000 -1.226697e+000 2.676164e-002 -1.695709e+000 -4.452802e-002 5.587010e+000 -1.194186e+000 -1.268250e+000 2.482653e+000 -3.327896e-001 3.210661e-001 -2.028621e-001 1.642808e-002 1.065652e-001 -7.074402e-002 1.432077e-001 1.004871e-001 -3.684878e-002 -2.642949e-002 3.064056e-002 -2.534493e-001 -4.358605e-001
<VARIANCE> 25
 7.299809e+001 8.501872e+001 7.290890e+001 6.088649e+001 4.430056e+001 4.562388e+001 4.107619e+001 3.928014e+001 3.987954e+001 3.515254e+001 2.614446e+001 2.988069e+001 9.453045e-001 1.430247e+000 1.882280e+000 1.885892e+000 1.858162e+000 2.052569e+000 1.858051e+000 2.231438e+000 2.162011e+000 2.268804e+000 1.668297e+000 1.801534e+000 1.173763e+000
<GCONST> 9.916273e+001
<TRANSP> 5
 0.000000e+000 1.000000e+000 0.000000e+000 0.000000e+000 0.000000e+000
 0.000000e+000 7.175792e-001 2.824208e-001 0.000000e+000 0.000000e+000
 0.000000e+000 0.000000e+000 7.177988e-001 2.822012e-001 0.000000e+000
 0.000000e+000 0.000000e+000 0.000000e+000 8.597382e-001 1.402617e-001
 0.000000e+000 0.000000e+000 0.000000e+000 0.000000e+000 0.000000e+000
<ENDHMM>
~h "s"
<BEGINHMM>
<NUMSTATES> 5
<STATE> 2
<MEAN> 25
 -1.303714e+000 -2.527284e+000 6.100109e+000 -5.940666e+000 1.351133e+001 -9.668286e+000 8.432673e+000 -1.566360e+000 5.414580e-001 -7.246139e-001 -3.051614e+000 4.216751e+000 -1.531359e+000 5.229270e-001 7.012816e-001 -1.169566e+000 1.888576e+000 -1.565085e+000 1.005925e+000 -1.013793e+000 1.792651e-002 -8.379460e-002 4.885021e-001 -1.957332e-001 6.025115e-001
<VARIANCE> 25
 1.084863e+002 7.976807e+001 9.136269e+001 7.337026e+001 9.622967e+001 7.997603e+001 7.337006e+001 6.937329e+001 3.806868e+001 3.010218e+001 3.774894e+001 2.819903e+001 6.520309e+000 4.963727e+000 5.546034e+000 5.763430e+000 6.462231e+000 7.083260e+000 4.669473e+000 6.780344e+000 4.052471e+000 3.188316e+000 2.834475e+000 2.655472e+000 6.376318e+000
<GCONST> 1.159711e+002
<STATE> 3
<MEAN> 25
 -7.965153e+000 -1.655697e-001 6.947488e+000 -8.404586e+000 1.595795e+001 -1.215595e+001 9.771551e+000 -4.043139e+000 2.014260e+000 -7.726394e-001 -1.128195e+000 2.281968e+000 -8.199124e-001 3.448074e-001 -1.523172e-002 -2.543211e-001 2.408891e-001 -2.273712e-001 7.981426e-002 -2.298885e-001 2.374779e-001 -1.353079e-002 3.411047e-001 -2.485016e-001 -3.058415e-001
<VARIANCE> 25
 9.277274e+001 6.111529e+001 8.841748e+001 5.873429e+001 9.283721e+001 6.103348e+001 6.566361e+001 3.915893e+001 3.226558e+001 2.340874e+001 3.005894e+001 2.010070e+001 5.176046e+000 2.964619e+000 3.253636e+000 3.470531e+000 3.692996e+000 3.657365e+000 3.324176e+000 3.358690e+000 2.633415e+000 1.954534e+000 2.152394e+000 1.665561e+000 3.055478e+000
<GCONST> 1.068733e+002
<STATE> 4
<MEAN> 25
 -7.769688e+000 8.160015e-001 5.195981e+000 -6.639462e+000 1.236755e+001 -9.914248e+000 6.820844e+000 -2.527535e+000 2.076841e+000 6.208812e-002 -9.548162e-001 1.247920e+000 9.195431e-002 1.650217e-001 -3.406120e-001 3.838007e-001 -6.228154e-001 4.163005e-001 -4.396120e-001 1.904182e-001 -8.678865e-002 7.564244e-002 6.192124e-003 -7.819045e-002 -6.848164e-001
<VARIANCE> 25
 8.162639e+001 6.207064e+001 8.459248e+001 6.256801e+001 1.016953e+002 5.466862e+001 5.846593e+001 3.446047e+001 2.851487e+001 2.140826e+001 2.507670e+001 1.632767e+001 3.941908e+000 2.180438e+000 3.044021e+000 2.609581e+000 2.702527e+000 2.409875e+000 2.122610e+000 2.481918e+000 2.019075e+000 1.712454e+000 1.838649e+000 1.340232e+000 2.476327e+000
<GCONST> 1.025202e+002
<TRANSP> 5
 0.000000e+000 1.000000e+000 0.000000e+000 0.000000e+000 0.000000e+000
 0.000000e+000 7.866519e-001 2.133481e-001 0.000000e+000 0.000000e+000
 0.000000e+000 0.000000e+000 7.755971e-001 2.244029e-001 0.000000e+000
 0.000000e+000 0.000000e+000 0.000000e+000 9.392797e-001 6.072030e-002
 0.000000e+000 0.000000e+000 0.000000e+000 0.000000e+000 0.000000e+000
<ENDHMM>
~h "t"
<BEGINHMM>
<NUMSTATES> 5
<STATE> 2
<MEAN> 25
 -9.020422e+000 6.197005e+000 -6.250274e+000 4.629341e+000 -9.119533e-001 -1.184362e+000 2.998999e-001 3.662240e-002 2.623663e+000 -6.107380e-001 1.438139e+000 -1.834747e-001 -4.727777e-001 1.670617e-002 -1.085849e-001 1.245442e-001 -9.848737e-002 -1.139121e-001 6.225313e-002 6.273104e-002 8.043885e-002 1.519701e-002 1.136395e-001 -3.587572e-002 -4.253334e-001
<VARIANCE> 25
 7.193146e+001 3.294544e+001 4.482176e+001 2.863377e+001 2.804713e+001 2.174810e+001 2.588137e+001 2.333034e+001 2.869931e+001 1.521936e+001 1.841527e+001 1.678465e+001 1.103908e+000 8.174843e-001 1.215065e+000 9.511480e-001 1.229562e+000 1.209811e+000 1.415129e+000 1.389474e+000 1.688245e+000 1.064117e+000 1.146992e+000 1.155609e+000 1.110880e+000
<GCONST> 8.759262e+001
<STATE> 3
<MEAN> 25
 -9.905424e+000 5.350033e+000 -5.629466e+000 4.821804e+000 -9.832780e-001 -1.276680e+000 2.879147e-001 1.524642e-001 2.641314e+000 -5.977075e-001 1.433229e+000 -1.805310e-003 3.761420e-003 -3.662445e-001 1.494315e-001 -2.270151e-002 -6.447237e-002 -2.250445e-001 -1.359422e-002 2.006690e-001 -9.710936e-002 1.619738e-002 1.636567e-001 -9.789892e-002 2.878952e-001
<VARIANCE> 25
 8.767025e+001 3.552728e+001 4.117067e+001 2.495436e+001 2.388116e+001 2.101612e+001 2.456947e+001 2.289551e+001 2.880910e+001 1.512562e+001 1.668689e+001 1.559668e+001 3.080068e+000 2.655074e+000 2.547297e+000 1.462594e+000 2.295209e+000 2.396156e+000 2.865983e+000 2.092973e+000 2.666906e+000 1.272124e+000 1.453706e+000 1.408181e+000 4.515337e+000
<GCONST> 9.547353e+001
<STATE> 4
<MEAN> 25
 -2.295224e+000 -6.076991e-001 9.204388e-001 8.568232e-002 -6.392999e-001 -1.993551e+000 -2.337018e+000 1.234148e+000 -1.355148e+000 -1.830803e-001 2.188931e+000 -3.389661e-001 2.140666e+000 -1.141603e+000 1.239686e+000 -1.790921e+000 -7.762855e-002 5.291161e-002 -5.110002e-001 1.686034e-001 -1.026039e+000 3.644785e-001 2.102779e-001 -4.636912e-002 2.942160e+000
<VARIANCE> 25
 1.123666e+002 8.968271e+001 1.586576e+002 9.262809e+001 5.160212e+001 6.079464e+001 7.653502e+001 3.755838e+001 9.658436e+001 3.539263e+001 3.150817e+001 2.266696e+001 8.632625e+000 9.856631e+000 7.633643e+000 8.649998e+000 5.167291e+000 5.349660e+000 7.497313e+000 3.923339e+000 8.397374e+000 3.177516e+000 3.419631e+000 2.905139e+000 1.274792e+001
<GCONST> 1.189432e+002
<TRANSP> 5
 0.000000e+000 1.000000e+000 0.000000e+000 0.000000e+000 0.000000e+000
 0.000000e+000 7.580038e-001 2.419962e-001 0.000000e+000 0.000000e+000
 0.000000e+000 0.000000e+000 6.337157e-001 3.662843e-001 0.000000e+000
 0.000000e+000 0.000000e+000 0.000000e+000 7.374315e-001 2.625685e-001
 0.000000e+000 0.000000e+000 0.000000e+000 0.000000e+000 0.000000e+000
<ENDHMM>
~h "u"
<BEGINHMM>
<NUMSTATES> 5
<STATE> 2
<MEAN> 25
 7.619845e+000 5.370242e+000 2.735044e-001 -5.797814e+000 -2.911069e+000 1.431574e+000 -2.977263e+000 -1.787339e+000 -5.625153e+000 -1.159731e+000 2.062680e+000 1.127395e+000 1.871179e-001 4.360249e-001 -1.910749e-001 -1.184182e+000 -3.314331e-002 3.475483e-001 -8.949513e-002 -1.114764e-002 -3.023932e-001 -3.592366e-002 9.444647e-002 5.171270e-002 5.900021e-002
<VARIANCE> 25
 1.015396e+002 6.378301e+001 7.644783e+001 1.688676e+002 4.797447e+001 4.142060e+001 5.683960e+001 4.857829e+001 7.107257e+001 4.006377e+001 2.896441e+001 2.462565e+001 2.203738e+000 2.753024e+000 2.264328e+000 6.576293e+000 2.157387e+000 2.702433e+000 2.682329e+000 2.915489e+000 3.315693e+000 2.524292e+000 2.432688e+000 1.770505e+000 1.755021e+000
<GCONST> 1.067012e+002
<STATE> 3
<MEAN> 25
 6.972350e+000 6.304438e+000 -4.179513e-001 -7.673597e+000 -2.764566e+000 2.044348e+000 -3.490309e+000 -1.828600e+000 -5.362191e+000 -9.967254e-001 1.968368e+000 7.665528e-001 -1.773301e-001 1.430630e-001 -2.152420e-001 -4.670315e-001 3.537301e-002 1.597708e-001 -1.549475e-001 -2.730237e-002 1.337365e-001 7.420545e-002 -4.872296e-002 -9.077046e-002 -1.972494e-001
<VARIANCE> 25
 9.893133e+001 5.921135e+001 7.252724e+001 1.757107e+002 3.999741e+001 4.040232e+001 5.057871e+001 4.684125e+001 6.981344e+001 4.381202e+001 2.853173e+001 2.524616e+001 1.626184e+000 1.793825e+000 1.905383e+000 5.388305e+000 1.905336e+000 2.496300e+000 2.450747e+000 2.700927e+000 2.814812e+000 2.731034e+000 2.163805e+000 1.718817e+000 1.423030e+000
<GCONST> 1.043935e+002
<STATE> 4
<MEAN> 25
 4.499491e+000 8.408842e+000 -3.184069e+000 -8.105029e+000 -2.242246e+000 2.195651e+000 -3.624672e+000 -2.332538e+000 -4.132338e+000 -1.022082e+000 1.530582e+000 3.210212e-001 -2.971237e-001 -1.126195e-001 -2.058433e-001 3.514202e-001 5.476996e-002 -1.574728e-002 -1.134452e-002 -1.014684e-001 3.410431e-001 8.881595e-002 -1.624441e-002 3.006613e-002 -2.958819e-001
<VARIANCE> 25
 9.660767e+001 6.425433e+001 7.124808e+001 1.763520e+002 3.575990e+001 4.063372e+001 4.881614e+001 4.736741e+001 6.279311e+001 5.428111e+001 2.721568e+001 2.467503e+001 2.149830e+000 2.064260e+000 2.162976e+000 5.383094e+000 1.926833e+000 2.642659e+000 2.529419e+000 2.556342e+000 2.695100e+000 2.944203e+000 2.044314e+000 1.849728e+000 1.894707e+000
<GCONST> 1.052697e+002
<TRANSP> 5
 0.000000e+000 1.000000e+000 0.000000e+000 0.000000e+000 0.000000e+000
 0.000000e+000 6.775130e-001 3.224870e-001 0.000000e+000 0.000000e+000
 0.000000e+000 0.000000e+000 7.017666e-001 2.982334e-001 0.000000e+000
 0.000000e+000 0.000000e+000 0.000000e+000 9.183080e-001 8.169204e-002
 0.000000e+000 0.000000e+000 0.000000e+000 0.000000e+000 0.000000e+000
<ENDHMM>
~h "w"
<BEGINHMM>
<NUMSTATES> 5
<STATE> 2
<MEAN> 25
 -7.158615e+000 4.053914e+000 -2.844434e+000 6.915642e+000 -5.408785e+000 -3.746852e+000 8.377826e-001 8.548403e-001 4.054852e-001 -4.952578e+000 3.036745e+000 2.107397e+000 7.362559e-001 5.670010e-001 1.813225e-001 -2.984864e-001 -3.505722e-001 4.881991e-002 8.144857e-003 -4.355835e-003 8.775270e-002 -1.139345e-001 8.755029e-003 1.621298e-001 3.849651e-001
<VARIANCE> 25
 1.721581e+002 1.524251e+002 7.242559e+001 2.213270e+002 6.554250e+001 7.273650e+001 3.826622e+001 5.144657e+001 2.401880e+001 4.370667e+001 3.184265e+001 3.827465e+001 5.042326e+000 5.381064e+000 4.584897e+000 4.389132e+000 3.756938e+000 4.184649e+000 2.546493e+000 2.415702e+000 2.620995e+000 3.491876e+000 1.909532e+000 2.067056e+000 3.036658e+000
<GCONST> 1.114929e+002
<STATE> 3
<MEAN> 25
 5.967882e+000 1.033481e+001 -2.564884e+000 -6.803972e+000 -7.319127e+000 3.273081e+000 -4.041692e-001 -2.495419e+000 8.021774e-001 -2.986013e+000 1.749513e+000 2.089906e+000 9.635434e-001 -6.314048e-001 1.514252e-001 -1.185096e+000 1.561837e-001 1.182783e+000 -1.407544e-001 -2.162775e-001 3.674470e-001 4.981500e-001 1.425349e-001 -8.791876e-003 1.308329e+000
<VARIANCE> 25
 1.491220e+002 1.403037e+002 3.842683e+001 1.882965e+002 5.986511e+001 1.253812e+002 3.506175e+001 3.272190e+001 2.947840e+001 4.872381e+001 2.661495e+001 3.277707e+001 5.585464e+000 9.803657e+000 3.089591e+000 5.450132e+000 5.344413e+000 9.656224e+000 3.818393e+000 2.827816e+000 3.266596e+000 4.855916e+000 2.839308e+000 4.260803e+000 2.444511e+000
<GCONST> 1.140923e+002
<STATE> 4
<MEAN> 25
 1.044250e+001 -1.465772e+000 7.859498e-001 -1.543818e+001 -2.161593e+000 8.628789e+000 -2.961851e+000 -7.772684e-001 1.975133e+000 3.176801e+000 1.704775e-001 -2.070570e+000 -1.662017e-001 -2.008813e+000 4.766933e-001 -3.556509e-002 1.308573e+000 -5.977249e-001 4.421978e-002 8.941350e-001 7.942063e-002 6.126454e-001 -8.566318e-001 -5.798867e-001 1.283707e+000
<VARIANCE> 25
 3.176839e+001 2.263637e+002 4.557773e+001 1.171609e+002 7.908875e+001 1.249432e+002 4.157971e+001 5.710067e+001 3.083184e+001 7.367134e+001 4.362478e+001 4.994060e+001 2.400697e+000 6.334617e+000 3.215401e+000 4.910286e+000 4.363555e+000 1.158155e+001 4.124509e+000 5.389852e+000 3.589104e+000 4.553067e+000 4.206315e+000 5.360790e+000 1.613135e+000
<GCONST> 1.146888e+002
<TRANSP> 5
 0.000000e+000 1.000000e+000 0.000000e+000 0.000000e+000 0.000000e+000
 0.000000e+000 8.883909e-001 1.116091e-001 0.000000e+000 0.000000e+000
 0.000000e+000 0.000000e+000 7.928264e-001 2.071736e-001 0.000000e+000
 0.000000e+000 0.000000e+000 0.000000e+000 8.627684e-001 1.372316e-001
 0.000000e+000 0.000000e+000 0.000000e+000 0.000000e+000 0.000000e+000
<ENDHMM>
~h "y"
<BEGINHMM>
<NUMSTATES> 5
<STATE> 2
<MEAN> 25
 -1.513887e-008 8.685321e-009 6.289883e-008 7.186313e-008 3.131923e-008 4.571417e-008 5.014053e-008 1.333485e-008 -7.134006e-008 8.713219e-009 1.011273e-009 4.209684e-008 -6.534437e-003 7.731597e-003 -5.306157e-003 4.609803e-003 -4.191151e-003 8.242088e-003 -6.219152e-003 5.951754e-003 -5.249157e-003 1.868283e-003 2.200403e-003 -1.269434e-003 2.744509e-003
<VARIANCE> 25
 6.716856e+001 2.941401e+001 5.663681e+001 4.741492e+001 4.696264e+001 4.914315e+001 4.999928e+001 4.303569e+001 5.672998e+001 3.222253e+001 2.850756e+001 4.103967e+001 2.100924e+000 1.434693e+000 1.891293e+000 2.194988e+000 2.363979e+000 2.636887e+000 2.464799e+000 2.732278e+000 2.851009e+000 2.222413e+000 2.036798e+000 2.011688e+000 1.909456e+000
<GCONST> 1.015924e+002
<STATE> 3
<MEAN> 25
 -1.513887e-008 8.685321e-009 6.289883e-008 7.186313e-008 3.131923e-008 4.571417e-008 5.014053e-008 1.333485e-008 -7.134006e-008 8.713219e-009 1.011273e-009 4.209684e-008 -6.534437e-003 7.731597e-003 -5.306157e-003 4.609803e-003 -4.191151e-003 8.242088e-003 -6.219152e-003 5.951754e-003 -5.249157e-003 1.868283e-003 2.200403e-003 -1.269434e-003 2.744509e-003
<VARIANCE> 25
 6.716856e+001 2.941401e+001 5.663681e+001 4.741492e+001 4.696264e+001 4.914315e+001 4.999928e+001 4.303569e+001 5.672998e+001 3.222253e+001 2.850756e+001 4.103967e+001 2.100924e+000 1.434693e+000 1.891293e+000 2.194988e+000 2.363979e+000 2.636887e+000 2.464799e+000 2.732278e+000 2.851009e+000 2.222413e+000 2.036798e+000 2.011688e+000 1.909456e+000
<GCONST> 1.015924e+002
<STATE> 4
<MEAN> 25
 -1.513887e-008 8.685321e-009 6.289883e-008 7.186313e-008 3.131923e-008 4.571417e-008 5.014053e-008 1.333485e-008 -7.134006e-008 8.713219e-009 1.011273e-009 4.209684e-008 -6.534437e-003 7.731597e-003 -5.306157e-003 4.609803e-003 -4.191151e-003 8.242088e-003 -6.219152e-003 5.951754e-003 -5.249157e-003 1.868283e-003 2.200403e-003 -1.269434e-003 2.744509e-003
<VARIANCE> 25
 6.716856e+001 2.941401e+001 5.663681e+001 4.741492e+001 4.696264e+001 4.914315e+001 4.999928e+001 4.303569e+001 5.672998e+001 3.222253e+001 2.850756e+001 4.103967e+001 2.100924e+000 1.434693e+000 1.891293e+000 2.194988e+000 2.363979e+000 2.636887e+000 2.464799e+000 2.732278e+000 2.851009e+000 2.222413e+000 2.036798e+000 2.011688e+000 1.909456e+000
<GCONST> 1.015924e+002
<TRANSP> 5
 0.000000e+000 1.000000e+000 0.000000e+000 0.000000e+000 0.000000e+000
 0.000000e+000 6.000000e-001 4.000000e-001 0.000000e+000 0.000000e+000
 0.000000e+000 0.000000e+000 6.000000e-001 4.000000e-001 0.000000e+000
 0.000000e+000 0.000000e+000 0.000000e+000 7.000000e-001 3.000000e-001
 0.000000e+000 0.000000e+000 0.000000e+000 0.000000e+000 0.000000e+000
<ENDHMM>
~h "ay"
<BEGINHMM>
<NUMSTATES> 5
<STATE> 2
<MEAN> 25
 -2.080926e+000 -4.236384e+000 -1.234652e+001 9.984008e+000 4.847453e+000 -1.348791e+000 2.526489e+000 4.828628e+000 1.397532e+000 -6.989733e+000 -7.863632e-001 5.586389e+000 -2.241047e-002 -2.064806e-001 -1.707026e-001 2.706741e-002 -1.514254e-001 4.033161e-001 1.679215e-001 -5.356228e-002 3.969806e-001 -1.976648e-001 1.138318e-001 -6.729999e-003 -1.846485e-002
<VARIANCE> 25
 1.059721e+002 9.778291e+001 3.321509e+001 3.544651e+001 1.079192e+001 5.412114e+001 5.967205e+001 4.663852e+001 4.386001e+001 2.839030e+001 9.768806e+000 3.326072e+001 1.169114e+000 6.334672e+000 2.143162e+000 1.909189e+000 7.650414e-001 2.677970e+000 1.616260e+000 2.307014e+000 2.210988e+000 3.005609e+000 1.256289e+000 2.320342e+000 2.416910e+000
<GCONST> 9.876665e+001
<STATE> 3
<MEAN> 25
 -4.535462e-001 -2.979280e+000 -1.154897e+001 8.008050e+000 3.449241e+000 1.918431e+000 3.622481e+000 3.112508e+000 2.519184e+000 -6.715662e+000 -3.516625e-001 2.959642e+000 2.811648e-001 -5.943975e-001 2.454633e-001 -4.452376e-001 -2.436085e-001 9.637599e-001 -2.136202e-001 -3.450622e-001 2.789496e-001 -3.141633e-001 -1.127730e-001 6.196653e-002 4.999876e-001
<VARIANCE> 25
 1.742238e+002 1.529331e+002 5.357193e+001 5.619094e+001 1.517293e+001 5.881907e+001 9.430360e+001 7.167878e+001 5.028188e+001 3.835146e+001 9.002551e+000 2.304642e+001 1.662563e+000 8.624439e+000 3.190781e+000 2.098332e+000 1.590037e+000 2.830860e+000 3.396552e+000 3.007351e+000 5.904303e+000 2.192000e+000 1.137756e+000 1.186754e+000 2.450787e+000
<GCONST> 1.048089e+002
<STATE> 4
<MEAN> 25
 9.777010e+000 -7.425147e+000 -8.709589e+000 6.119053e+000 2.113198e+000 9.369125e+000 -4.020321e-002 -4.707009e-001 4.373143e+000 -7.516716e+000 8.155003e-001 2.744723e+000 6.477161e-001 -9.238953e-001 8.121645e-001 -2.868617e-001 -2.742104e-001 1.241454e-001 -3.578768e-001 1.598173e-001 2.120811e-002 -4.199570e-002 -3.137991e-002 -1.689252e-001 1.155034e+000
<VARIANCE> 25
 1.002121e+002 2.371038e+002 8.806221e+001 8.424349e+001 5.188767e+001 4.170245e+001 5.713871e+001 6.203577e+001 6.800663e+001 4.646185e+001 2.094704e+001 2.089077e+001 6.453662e+000 1.059023e+001 4.628682e+000 2.757290e+000 3.182106e+000 3.263713e+000 3.034883e+000 4.714293e+000 8.880653e+000 2.827986e+000 1.868253e+000 1.627798e+000 4.843142e+000
<GCONST> 1.126124e+002
<TRANSP> 5
 0.000000e+000 1.000000e+000 0.000000e+000 0.000000e+000 0.000000e+000
 0.000000e+000 6.781312e-001 3.218688e-001 0.000000e+000 0.000000e+000
 0.000000e+000 0.000000e+000 4.431435e-001 5.568564e-001 0.000000e+000
 0.000000e+000 0.000000e+000 0.000000e+000 9.127262e-001 8.727372e-002
 0.000000e+000 0.000000e+000 0.000000e+000 0.000000e+000 0.000000e+000
<ENDHMM>
~h "eh"
<BEGINHMM>
<NUMSTATES> 5
<STATE> 2
<MEAN> 25
 2.381309e+000 -3.787689e+000 3.830204e+000 -2.668971e+000 -7.612440e+000 -9.366992e+000 4.066271e+000 7.846908e+000 -1.685916e+000 2.508521e-001 3.257823e+000 -3.068268e-001 -1.796109e-001 -3.074386e-001 -7.259504e-002 -6.358218e-001 -1.195996e-001 -7.771242e-002 5.246356e-001 8.856592e-002 1.772369e-001 1.274799e-001 1.960176e-001 -1.615158e-001 2.068629e-001
<VARIANCE> 25
 4.577599e+001 1.074360e+002 1.234287e+002 5.076085e+001 3.958457e+001 4.442903e+001 6.053027e+001 5.352355e+001 4.717979e+001 1.653384e+001 2.518145e+001 2.129543e+001 6.401013e-001 1.609811e+000 2.411626e+000 2.431695e+000 2.581092e+000 2.342031e+000 3.501034e+000 2.572139e+000 1.847633e+000 1.725665e+000 1.580014e+000 1.102906e+000 1.490795e+000
<GCONST> 9.960006e+001
<STATE> 3
<MEAN> 25
 1.081258e+000 -3.887837e+000 2.286441e+000 -3.060815e+000 -6.910283e+000 -7.881521e+000 3.832635e+000 6.861644e+000 -3.011384e-001 1.438599e-001 3.454429e+000 -1.325653e-001 -1.607359e-001 -1.908964e-001 -2.217270e-001 -1.950635e-001 3.422365e-001 3.164928e-001 -7.245348e-002 -1.018338e-001 2.224151e-001 5.187592e-002 -1.118614e-001 -3.428261e-002 -7.024280e-002
<VARIANCE> 25
 7.229466e+001 1.276000e+002 1.255147e+002 5.670827e+001 4.647100e+001 5.759159e+001 6.642070e+001 5.625141e+001 4.833537e+001 1.709687e+001 2.506845e+001 2.180425e+001 8.229666e-001 1.419885e+000 1.613181e+000 1.217851e+000 2.066164e+000 1.351282e+000 2.827818e+000 2.125382e+000 1.922415e+000 1.507707e+000 1.334948e+000 1.446599e+000 7.870911e-001
<GCONST> 9.821984e+001
<STATE> 4
<MEAN> 25
 8.406369e+000 -1.165784e+001 7.174876e+000 -5.745825e+000 -8.958373e+000 -4.807515e+000 2.973720e+000 1.019359e+001 -3.655287e+000 1.809348e+000 3.101394e+000 -1.315527e+000 5.470212e-001 -5.599671e-001 -5.706782e-002 -2.604305e-001 3.186001e-001 3.154581e-001 -1.785166e-001 1.324774e-001 3.356146e-001 1.202525e-001 -5.141589e-001 -1.399883e-001 6.959423e-001
<VARIANCE> 25
 5.812232e+001 1.205216e+002 1.058537e+002 5.794397e+001 5.281042e+001 4.992276e+001 4.086905e+001 8.084811e+001 4.014293e+001 2.040548e+001 2.932225e+001 1.558284e+001 4.238121e+000 4.260205e+000 5.055782e+000 3.162747e+000 3.079291e+000 2.084280e+000 2.813787e+000 5.133014e+000 2.734442e+000 2.268000e+000 1.960797e+000 1.145796e+000 5.448333e+000
<GCONST> 1.068601e+002
<TRANSP> 5
 0.000000e+000 1.000000e+000 0.000000e+000 0.000000e+000 0.000000e+000
 0.000000e+000 7.458674e-001 2.541326e-001 0.000000e+000 0.000000e+000
 0.000000e+000 0.000000e+000 7.045728e-001 2.954271e-001 0.000000e+000
 0.000000e+000 0.000000e+000 0.000000e+000 8.773924e-001 1.226076e-001
 0.000000e+000 0.000000e+000 0.000000e+000 0.000000e+000 0.000000e+000
<ENDHMM>
~h "ng"
<BEGINHMM>
<NUMSTATES> 5
<STATE> 2
<MEAN> 25
 1.029519e+001 -8.214853e+000 -3.057570e+000 -6.853634e+000 2.231867e+000 9.493709e+000 -1.735942e+000 -1.367163e+000 -3.885639e-001 -1.671524e+000 5.694079e-001 -2.255962e+000 -9.888934e-002 6.886903e-001 -1.249705e-001 5.943388e-001 -5.874425e-002 -5.783895e-002 1.155484e-001 -2.494342e-001 -2.928259e-001 -2.612143e-001 1.311095e-001 2.819851e-001 -6.617475e-001
<VARIANCE> 25
 1.595780e+001 1.002579e+002 2.877770e+001 6.805847e+001 4.963838e+001 3.835419e+001 3.539940e+001 3.348027e+001 3.913583e+001 3.444652e+001 2.095275e+001 2.849426e+001 2.775089e-001 1.172954e+000 7.264208e-001 1.531476e+000 1.679640e+000 1.294235e+000 1.662664e+000 1.498324e+000 1.734917e+000 1.488893e+000 1.011037e+000 1.291049e+000 6.936067e-001
<GCONST> 9.065536e+001
<STATE> 3
<MEAN> 25
 8.165278e+000 -1.915392e-001 -4.511751e+000 4.800030e-002 2.154400e+000 8.074220e+000 3.853185e-001 -3.701946e+000 -2.064729e+000 -2.306881e+000 1.445175e+000 -4.754944e-001 -3.971688e-001 6.266719e-001 -1.392968e-001 7.626945e-001 9.905577e-002 -1.380904e-001 2.021550e-001 -1.069218e-001 4.726951e-002 4.846611e-003 -2.390168e-003 1.051293e-001 -8.141652e-001
<VARIANCE> 25
 2.263818e+001 6.719465e+001 2.378584e+001 6.864677e+001 4.240110e+001 3.264121e+001 3.206791e+001 2.879800e+001 3.856322e+001 2.780430e+001 1.842440e+001 2.087741e+001 3.845753e-001 8.370540e-001 8.729232e-001 1.442006e+000 1.443485e+000 1.289716e+000 1.675682e+000 1.673773e+000 1.706040e+000 1.417688e+000 1.065002e+000 1.262984e+000 3.784108e-001
<GCONST> 8.862028e+001
<STATE> 4
<MEAN> 25
 -2.150041e+000 6.294952e+000 -8.101630e+000 5.701921e+000 2.868504e+000 4.000319e+000 1.611081e+000 -3.109105e+000 9.338427e-001 -1.920781e+000 6.505995e-001 -6.789146e-001 -6.095837e-001 2.119022e-001 -9.203172e-002 1.663749e-001 -6.142500e-002 -2.521400e-001 5.170950e-002 1.095831e-001 1.207641e-001 -5.030530e-004 -2.545541e-002 4.875891e-002 -6.187315e-001
<VARIANCE> 25
 7.934296e+001 4.453387e+001 3.335962e+001 3.361612e+001 3.290454e+001 3.217321e+001 2.620573e+001 2.422160e+001 2.618266e+001 2.351800e+001 1.550386e+001 1.989012e+001 5.676035e-001 1.029330e+000 1.270354e+000 1.358153e+000 1.162775e+000 1.286590e+000 1.574736e+000 1.482146e+000 1.652515e+000 1.598419e+000 1.240980e+000 1.310567e+000 4.512286e-001
<GCONST> 8.863172e+001
<TRANSP> 5
 0.000000e+000 1.000000e+000 0.000000e+000 0.000000e+000 0.000000e+000
 0.000000e+000 9.302042e-001 6.979576e-002 0.000000e+000 0.000000e+000
 0.000000e+000 0.000000e+000 8.898239e-001 1.101760e-001 0.000000e+000
 0.000000e+000 0.000000e+000 0.000000e+000 9.546727e-001 4.532733e-002
 0.000000e+000 0.000000e+000 0.000000e+000 0.000000e+000 0.000000e+000
<ENDHMM>
~h "ny"
<BEGINHMM>
<NUMSTATES> 5
<STATE> 2
<MEAN> 25
 -1.455105e-001 3.947116e+000 1.519495e+000 2.273114e+000 -3.882188e-001 -6.510366e-002 -2.500817e+000 -2.431916e-001 -2.387115e+000 -4.694799e-001 3.519935e-001 1.852540e+000 -1.746723e-001 1.313184e-001 -2.312418e-001 4.871219e-002 -4.467774e-002 4.451128e-002 6.774458e-002 1.333671e-001 1.195763e-001 2.297781e-002 1.319868e-001 3.827969e-002 -2.359643e-001
<VARIANCE> 25
 3.868618e+001 2.475804e+001 5.419061e+001 4.370702e+001 3.833651e+001 2.758485e+001 2.611136e+001 3.553543e+001 2.648129e+001 1.919557e+001 1.902493e+001 1.678250e+001 5.781258e-001 7.919530e-001 9.651051e-001 1.676173e+000 1.488050e+000 1.512648e+000 1.593825e+000 2.123638e+000 1.651835e+000 1.361613e+000 1.482152e+000 1.403054e+000 6.026728e-001
<GCONST> 8.914204e+001
<STATE> 3
<MEAN> 25
 -2.936984e+000 3.664879e+000 -1.024150e+000 2.404799e+000 -2.955053e+000 -3.475124e-001 1.623960e-001 1.056350e+000 4.666658e-001 -1.574210e+000 2.116514e+000 1.571479e+000 -1.797083e-001 3.660316e-002 -1.221241e-001 -1.809332e-001 -6.571610e-002 4.518728e-002 1.471607e-001 9.194032e-002 2.210561e-001 -6.120620e-002 -4.480872e-004 -6.352081e-002 -8.729458e-002
<VARIANCE> 25
 5.545079e+001 4.510384e+001 5.605069e+001 3.611428e+001 4.242537e+001 2.529261e+001 2.594425e+001 2.455774e+001 2.419669e+001 2.423931e+001 2.121129e+001 1.961992e+001 9.420636e-001 1.180650e+000 1.492008e+000 1.394810e+000 1.683149e+000 1.364701e+000 1.555709e+000 1.584236e+000 1.402642e+000 1.365027e+000 1.541681e+000 1.459521e+000 1.284077e+000
<GCONST> 9.150829e+001
<STATE> 4
<MEAN> 25
 -5.626725e+000 3.752721e+000 -2.493041e+000 -6.953492e-001 -4.882076e+000 -2.271343e-001 2.262044e+000 2.384691e+000 2.702644e+000 -1.962555e+000 2.178883e+000 8.514614e-002 2.510830e-001 -2.992295e-001 1.676691e-001 2.551365e-001 4.065270e-001 2.314560e-001 4.830144e-001 2.315246e-001 4.073688e-001 -2.402841e-001 -2.925163e-001 -4.389071e-001 4.285134e-001
<VARIANCE> 25
 6.370575e+001 8.207284e+001 5.556153e+001 6.100192e+001 5.917877e+001 1.816672e+001 1.777550e+001 2.426930e+001 2.739487e+001 2.395072e+001 2.858534e+001 2.101292e+001 3.133620e+000 3.174108e+000 2.668030e+000 2.323065e+000 3.140770e+000 1.483011e+000 1.601696e+000 2.241744e+000 1.599053e+000 2.131927e+000 1.812785e+000 1.324250e+000 2.230267e+000
<GCONST> 9.841135e+001
<TRANSP> 5
 0.000000e+000 1.000000e+000 0.000000e+000 0.000000e+000 0.000000e+000
 0.000000e+000 9.282406e-001 7.175943e-002 0.000000e+000 0.000000e+000
 0.000000e+000 0.000000e+000 8.839927e-001 1.160073e-001 0.000000e+000
 0.000000e+000 0.000000e+000 0.000000e+000 7.610417e-001 2.389583e-001
 0.000000e+000 0.000000e+000 0.000000e+000 0.000000e+000 0.000000e+000
<ENDHMM>
~h "sil"
<BEGINHMM>
<NUMSTATES> 5
<STATE> 2
<MEAN> 25
 -5.018401e+000 4.067841e+000 -3.248757e+000 5.350013e+000 6.651400e-001 -6.140415e-001 3.136336e-001 4.856081e-002 1.385158e+000 -4.498805e-001 2.978786e-001 1.150651e+000 -2.265804e-001 2.650194e-001 -6.163360e-002 -4.327182e-002 -1.399347e-002 4.806333e-002 -1.189362e-001 -1.931081e-001 2.185930e-002 1.369277e-001 1.529773e-001 -2.041215e-001 -3.235688e-001
<VARIANCE> 25
 1.174860e+002 6.151968e+001 8.247081e+001 5.781882e+001 2.900267e+001 2.807829e+001 2.898896e+001 2.339138e+001 3.947110e+001 2.604415e+001 2.656895e+001 2.435098e+001 7.101315e-001 9.893348e-001 1.523985e+000 1.440679e+000 1.201360e+000 1.380098e+000 1.336233e+000 1.694545e+000 1.534233e+000 1.583817e+000 1.348479e+000 1.320440e+000 7.714398e-001
<GCONST> 9.289332e+001
<STATE> 3
<MEAN> 25
 -1.656827e+001 5.903111e+000 -6.733856e+000 6.758509e+000 -2.562304e-002 8.512861e-001 8.140911e-001 -3.069515e-001 4.297672e+000 5.197020e-001 3.120408e+000 9.607398e-001 -1.585294e-001 1.135848e-001 4.297965e-002 -3.086795e-002 9.110896e-003 -1.206133e-002 -1.077745e-002 1.131942e-002 -8.846826e-003 -1.668001e-001 -1.251518e-001 -1.751592e-002 -1.658752e-001
<VARIANCE> 25
 8.885604e+001 2.470601e+001 3.945560e+001 1.174123e+001 1.680747e+001 1.791760e+001 2.184275e+001 2.705966e+001 3.260684e+001 1.905622e+001 2.032171e+001 1.330742e+001 1.603811e-001 2.560056e-001 3.344884e-001 4.063178e-001 6.411539e-001 6.839962e-001 8.427621e-001 1.190269e+000 1.387802e+000 1.254026e+000 9.225231e-001 7.901345e-001 8.789497e-002
<GCONST> 7.569728e+001
<STATE> 4
<MEAN> 25
 -2.109865e+001 4.161717e+000 -8.107139e+000 5.840693e+000 -3.606539e-001 1.668738e+000 3.722260e+000 1.446651e+000 4.986363e+000 3.918658e-001 3.902610e+000 1.159501e+000 -1.244634e-001 -4.678698e-002 1.190394e-002 -8.782891e-004 -9.933724e-003 2.921457e-002 3.266690e-002 -1.904097e-003 -1.440453e-002 -4.836419e-003 9.165986e-003 1.069667e-002 -6.990983e-002
<VARIANCE> 25
 5.806465e+001 1.782126e+001 1.527713e+001 1.649085e+001 2.048415e+001 1.591565e+001 1.713728e+001 1.956863e+001 1.974594e+001 1.373243e+001 1.302761e+001 1.124561e+001 2.534649e-001 3.083912e-001 3.442971e-001 5.441414e-001 7.365816e-001 6.966394e-001 9.989074e-001 1.192908e+000 1.355488e+000 1.044224e+000 9.293504e-001 9.014519e-001 2.879448e-001
<GCONST> 7.481973e+001
<TRANSP> 5
 0.000000e+000 1.000000e+000 0.000000e+000 0.000000e+000 0.000000e+000
 0.000000e+000 9.176082e-001 8.239182e-002 0.000000e+000 0.000000e+000
 0.000000e+000 0.000000e+000 8.665876e-001 1.334124e-001 0.000000e+000
 0.000000e+000 0.000000e+000 0.000000e+000 9.693007e-001 3.069932e-002
 0.000000e+000 0.000000e+000 0.000000e+000 0.000000e+000 0.000000e+000
<ENDHMM>
