~o
<STREAMINFO> 1 25
<VECSIZE> 25<NULLD><MFCC_D_N_Z_0><DIAGC>
~s "silst"
<MEAN> 25
 -1.224662e+001 8.604822e+000 -6.981951e+000 5.392420e+000 -1.163133e+000 -9.243552e-001 4.963309e-001 -6.914147e-001 2.496050e+000 -1.437168e+000 1.418385e+000 -5.077623e-001 -5.267170e-001 6.183473e-002 4.836424e-002 8.231577e-002 -5.923691e-002 2.999250e-002 2.884054e-002 -6.665683e-003 3.132590e-002 -3.500756e-002 9.885878e-002 -3.734641e-002 -4.446906e-001
<VARIANCE> 25
 4.352770e+001 2.099659e+001 2.119853e+001 1.842734e+001 2.049402e+001 1.777504e+001 2.067194e+001 1.948504e+001 1.840279e+001 1.782814e+001 1.588308e+001 1.544476e+001 2.277967e-001 4.300416e-001 6.342061e-001 6.845165e-001 8.231165e-001 8.597422e-001 1.084500e+000 1.155552e+000 1.272852e+000 1.221292e+000 1.082857e+000 1.034101e+000 1.157946e-001
<GCONST> 7.704530e+001
~h "a"
<BEGINHMM>
<NUMSTATES> 5
<STATE> 2
<MEAN> 25
 9.915558e+000 -1.069843e+001 -3.191018e+000 -6.283329e+000 -1.048869e+000 4.141410e+000 2.388859e+000 9.988979e-001 2.821094e+000 1.500357e+000 -1.454591e+000 -2.814537e+000 2.458553e-001 -2.324676e+000 1.973702e-001 -9.154374e-001 8.551569e-001 3.771731e-001 3.197688e-001 8.084071e-001 3.306539e-001 -3.730294e-001 -7.567421e-001 -7.389703e-001 1.769017e+000
<VARIANCE> 25
 6.639374e+001 9.459869e+001 1.272902e+002 1.196035e+002 7.699037e+001 9.782547e+001 7.276278e+001 7.841483e+001 5.271787e+001 7.570908e+001 4.525423e+001 5.069699e+001 2.258839e+000 4.159550e+000 5.170283e+000 6.775603e+000 5.306877e+000 5.600296e+000 5.559182e+000 5.909671e+000 5.412952e+000 5.336437e+000 3.205512e+000 3.431654e+000 2.976218e+000
<GCONST> 1.174612e+002
<STATE> 3
<MEAN> 25
 1.095071e+001 -1.931817e+001 -1.131591e+000 -1.013048e+001 4.824535e+000 2.737196e+000 2.530824e+000 5.199477e+000 1.444244e+000 1.207615e+000 -4.933858e+000 -5.798187e+000 -1.676624e-001 -1.291023e-001 1.323819e-001 -9.887481e-002 2.948732e-001 -2.871182e-001 2.104360e-001 4.014915e-001 -3.788474e-001 -3.073926e-001 -1.332223e-001 1.287635e-001 6.746525e-002
<VARIANCE> 25
 1.895326e+001 2.099254e+001 5.414901e+001 5.149199e+001 5.446515e+001 6.028164e+001 6.119461e+001 6.481598e+001 2.931710e+001 3.671889e+001 2.801406e+001 2.380994e+001 2.613657e-001 7.282144e-001 1.061567e+000 1.219539e+000 1.515763e+000 2.115183e+000 1.607079e+000 2.236676e+000 1.588917e+000 1.677898e+000 1.421457e+000 1.489422e+000 2.925464e-001
<GCONST> 9.127794e+001
<STATE> 4
<MEAN> 25
 6.334905e+000 -1.093494e+001 -1.501693e+000 -3.823818e+000 3.484446e+000 8.418748e-001 3.224927e+000 4.079400e+000 1.279421e+000 3.392266e-001 -3.565680e+000 -2.608007e+000 -6.238471e-001 1.521533e+000 4.120483e-001 1.362480e+000 -1.727832e-001 -1.315736e-001 -4.296024e-001 -5.040619e-001 -3.247582e-001 -2.574008e-002 1.825960e-001 6.705694e-001 -1.667099e+000
<VARIANCE> 25
 3.285018e+001 4.598382e+001 6.236858e+001 6.458499e+001 4.253730e+001 6.834351e+001 4.964529e+001 5.782545e+001 3.846532e+001 3.099236e+001 3.644473e+001 2.762701e+001 9.058663e-001 1.627779e+000 1.830177e+000 2.569400e+000 2.518700e+000 2.227326e+000 2.508782e+000 2.447906e+000 2.590317e+000 2.079652e+000 1.958481e+000 1.684551e+000 1.098475e+000
<GCONST> 9.995115e+001
<TRANSP> 5
 0.000000e+000 1.000000e+000 0.000000e+000 0.000000e+000 0.000000e+000
 0.000000e+000 6.842741e-001 3.157260e-001 0.000000e+000 0.000000e+000
 0.000000e+000 0.000000e+000 8.277698e-001 1.722302e-001 0.000000e+000
 0.000000e+000 0.000000e+000 0.000000e+000 8.036426e-001 1.963574e-001
 0.000000e+000 0.000000e+000 0.000000e+000 0.000000e+000 0.000000e+000
<ENDHMM>
~h "b"
<BEGINHMM>
<NUMSTATES> 5
<STATE> 2
<MEAN> 25
 -6.183570e+000 5.840782e+000 -3.871869e+000 9.722244e+000 1.751295e+000 -3.080845e+000 -6.145477e-001 1.151639e+000 1.097920e+000 -4.998560e+000 -1.488414e+000 2.847231e+000 -3.450637e-001 5.687422e-001 1.126506e-001 5.307391e-002 4.361669e-002 2.145983e-001 -6.704288e-002 -3.457757e-001 6.155514e-002 2.200389e-001 1.397927e-001 -2.088099e-001 -6.322318e-001
<VARIANCE> 25
 7.108543e+001 3.187619e+001 5.877982e+001 3.568750e+001 4.228095e+001 4.884500e+001 3.426012e+001 4.787806e+001 3.610358e+001 4.788016e+001 2.203014e+001 2.838241e+001 4.029403e-001 7.644449e-001 6.839097e-001 9.830933e-001 1.066861e+000 1.360382e+000 1.125211e+000 1.608465e+000 1.070105e+000 2.102737e+000 1.302790e+000 1.747155e+000 1.515188e-001
<GCONST> 8.938780e+001
<STATE> 3
<MEAN> 25
 -1.215208e+001 9.424548e+000 -3.208646e+000 9.146402e+000 -2.160270e-001 1.097457e+000 2.424447e+000 -7.772945e-002 3.430968e+000 -7.404064e-001 2.009245e+000 -1.193170e-001 2.558904e+000 2.442710e+000 2.538302e+000 2.014976e+000 1.952055e+000 1.130900e+000 9.477619e-001 2.198091e-001 -2.914937e-001 -2.051816e-001 -3.755066e-001 -5.003246e-001 1.446463e+000
<VARIANCE> 25
 1.208109e+002 3.214484e+001 5.168225e+001 2.526369e+001 2.906594e+001 2.460445e+001 2.366355e+001 3.367933e+001 3.432366e+001 2.023345e+001 1.902947e+001 1.535390e+001 7.213068e+000 4.555831e+000 4.068971e+000 2.416861e+000 2.744996e+000 2.759669e+000 2.392687e+000 1.958231e+000 2.959164e+000 1.605958e+000 1.597060e+000 1.686270e+000 3.900702e+000
<GCONST> 1.001177e+002
<STATE> 4
<MEAN> 25
 6.715112e+000 2.303316e+001 6.214492e+000 1.552981e+001 4.298104e+000 1.624920e+000 2.448448e+000 -4.028200e+000 -2.937133e+000 -3.621490e+000 2.557997e-001 -6.218833e-001 2.358997e+000 -7.462350e-002 -3.555872e-001 -2.881808e-001 -2.916076e-001 -3.242772e-001 -5.140912e-001 -6.376240e-001 -8.053485e-001 -1.785685e-001 1.765069e-001 2.116801e-001 1.788399e+000
<VARIANCE> 25
 2.947542e+001 5.192216e+001 2.350290e+001 2.193026e+001 2.702914e+001 1.973859e+001 3.294072e+001 2.911217e+001 2.295138e+001 2.326374e+001 2.513148e+001 1.784562e+001 4.948180e+000 1.462157e+001 7.939339e+000 5.152253e+000 3.291317e+000 2.551148e+000 4.046821e+000 3.961909e+000 3.693603e+000 2.595965e+000 2.649882e+000 2.200296e+000 2.711258e+000
<GCONST> 1.029731e+002
<TRANSP> 5
 0.000000e+000 1.000000e+000 0.000000e+000 0.000000e+000 0.000000e+000
 0.000000e+000 8.389228e-001 1.610772e-001 0.000000e+000 0.000000e+000
 0.000000e+000 0.000000e+000 5.320181e-001 4.679819e-001 0.000000e+000
 0.000000e+000 0.000000e+000 0.000000e+000 8.193991e-001 1.806008e-001
 0.000000e+000 0.000000e+000 0.000000e+000 0.000000e+000 0.000000e+000
<ENDHMM>
~h "c"
<BEGINHMM>
<NUMSTATES> 5
<STATE> 2
<MEAN> 25
 -1.679475e+000 -1.526134e+000 -2.732044e+000 5.603907e+000 1.740855e+000 -9.900620e-001 -1.129870e+000 -2.125960e+000 -8.574391e-001 2.051540e+000 2.070617e+000 -1.017475e+000 -4.634498e-001 4.461062e-001 -6.386983e-001 1.850331e-001 -4.672470e-001 -1.097683e-001 2.304868e-001 2.562046e-001 4.785990e-001 1.706687e-001 -2.449588e-002 9.733089e-002 -8.749760e-001
<VARIANCE> 25
 4.593003e+001 7.598887e+000 1.684209e+001 1.537584e+001 9.664708e+000 9.849422e+000 1.164335e+001 1.541336e+001 2.502059e+001 1.050685e+001 2.072645e+001 5.623216e+000 9.914639e-002 1.822126e-001 4.120021e-001 2.743741e-001 6.626595e-001 9.099323e-001 7.498862e-001 1.414401e+000 2.019810e+000 8.166493e-001 1.638178e+000 4.035610e-001 1.074566e-001
<GCONST> 6.864984e+001
<STATE> 3
<MEAN> 25
 -1.096653e+001 3.130534e-001 -5.134269e+000 6.666981e+000 1.049670e+000 -8.354124e-001 3.272935e+000 2.075138e+000 3.842280e+000 2.537380e+000 -1.227596e+000 -4.966953e-002 5.391777e-001 4.628357e-002 2.309034e+000 -3.467702e+000 2.034511e+000 -3.052488e-001 2.699926e-001 -1.267754e-001 -2.550605e+000 6.119723e-001 -7.143862e-001 1.997341e-001 2.688058e+000
<VARIANCE> 25
 1.009065e+002 5.062511e+000 2.173611e+001 2.964168e+001 1.228733e+001 2.615130e+001 1.153352e+001 1.721004e+001 4.817815e+001 7.760284e+000 6.190183e+000 4.256463e+000 1.065706e+001 3.503404e+000 4.705184e+000 5.224543e+000 6.362940e+000 4.950690e+000 3.217257e+000 2.563323e+000 5.500352e+000 1.416292e+000 1.939642e+000 6.865432e-001 5.624461e+000
<GCONST> 9.535793e+001
<STATE> 4
<MEAN> 25
 -1.381283e+001 -6.015562e+000 1.265993e+001 -5.373488e+000 7.135863e+000 -6.994506e+000 5.605210e+000 -1.601607e+000 3.871796e-001 6.587090e-001 1.674144e+000 3.738853e-002 9.906113e-001 -9.780166e-001 1.982501e+000 -4.079508e-001 -1.695708e-001 -1.510664e+000 -5.856726e-002 -6.675382e-001 2.289936e-002 -1.074441e+000 6.458872e-001 -1.946014e-001 3.694797e+000
<VARIANCE> 25
 1.457454e+002 1.104863e+002 6.800755e+001 1.046156e+002 1.020670e+002 1.081728e+002 6.605547e+001 4.689740e+001 7.913314e+001 4.569847e+001 3.200220e+001 1.227614e+001 2.181275e+001 1.076290e+001 1.636785e+001 1.204944e+001 1.302610e+001 8.837066e+000 7.671654e+000 4.471280e+000 7.753787e+000 4.374723e+000 2.571099e+000 1.998047e+000 6.817035e+000
<GCONST> 1.221221e+002
<TRANSP> 5
 0.000000e+000 1.000000e+000 0.000000e+000 0.000000e+000 0.000000e+000
 0.000000e+000 8.066241e-001 1.933759e-001 0.000000e+000 0.000000e+000
 0.000000e+000 0.000000e+000 5.945713e-001 4.054288e-001 0.000000e+000
 0.000000e+000 0.000000e+000 0.000000e+000 8.589436e-001 1.410564e-001
 0.000000e+000 0.000000e+000 0.000000e+000 0.000000e+000 0.000000e+000
<ENDHMM>
~h "d"
<BEGINHMM>
<NUMSTATES> 5
<STATE> 2
<MEAN> 25
 -3.867692e+000 1.184393e+001 3.310288e+000 8.765677e+000 2.355303e+000 8.206024e-001 2.184525e+000 1.683334e+000 5.330496e-001 -2.129355e+000 -2.159097e-001 -6.430193e-001 1.511736e+000 1.444097e+000 1.183811e+000 1.555709e+000 8.399001e-001 2.793354e-001 -7.473270e-002 -3.461948e-001 -3.080327e-002 -1.319175e-001 -4.126186e-001 -1.473107e-001 5.352228e-001
<VARIANCE> 25
 7.834875e+001 5.960476e+001 1.077277e+002 3.640890e+001 4.228597e+001 2.687885e+001 2.689094e+001 2.998629e+001 3.728531e+001 2.683807e+001 3.287627e+001 1.926759e+001 4.695140e+000 5.047502e+000 5.051505e+000 2.569921e+000 2.920844e+000 2.001791e+000 1.763592e+000 2.003950e+000 2.907673e+000 1.677221e+000 2.038214e+000 1.507730e+000 1.980506e+000
<GCONST> 1.019061e+002
<STATE> 3
<MEAN> 25
 5.931386e+000 2.161275e+001 9.334327e+000 1.563954e+001 4.038744e+000 -2.611797e+000 -2.973814e+000 -4.402663e+000 -2.576020e+000 -2.287750e+000 5.863449e-001 6.460530e-001 1.061903e+000 -1.402143e+000 4.480966e-001 3.307620e-001 -1.444715e+000 -6.633285e-001 -4.897947e-001 -4.378939e-001 2.565758e-001 -1.322314e-001 2.495218e-002 8.385774e-001 1.408157e+000
<VARIANCE> 25
 1.153564e+001 1.207472e+002 2.083664e+001 2.736985e+001 2.529755e+001 2.776525e+001 3.196660e+001 3.799451e+001 2.171781e+001 1.965187e+001 2.323068e+001 1.511376e+001 2.694043e+000 1.036176e+001 2.389514e+000 2.154887e+000 3.514858e+000 4.323851e+000 5.423957e+000 5.410780e+000 3.932192e+000 2.201219e+000 2.985719e+000 2.193577e+000 1.624256e+000
<GCONST> 1.006972e+002
<STATE> 4
<MEAN> 25
 8.968611e+000 -4.051784e+000 1.450403e+001 8.259059e+000 -1.183210e+001 -3.519719e+000 -3.425651e+000 1.461722e+000 1.995784e+000 -5.541949e+000 1.581280e+000 4.534862e+000 1.021218e+000 -3.822904e+000 9.929456e-001 -3.458064e+000 -2.862092e+000 -6.492175e-001 -1.024719e+000 8.864177e-001 -1.064175e-001 3.494980e-001 1.324175e+000 -2.208794e-001 3.448864e+000
<VARIANCE> 25
 1.893603e+001 1.402953e+002 3.818990e+001 9.993597e+001 7.725047e+001 5.427215e+001 4.558604e+001 7.463784e+001 5.577676e+001 4.145515e+001 6.521914e+001 3.500981e+001 1.432647e+000 1.914269e+001 5.895074e+000 5.899164e+000 1.551727e+001 8.427882e+000 5.489727e+000 7.915277e+000 7.323564e+000 6.141798e+000 6.119052e+000 5.970706e+000 5.225115e+000
<GCONST> 1.185950e+002
<TRANSP> 5
 0.000000e+000 1.000000e+000 0.000000e+000 0.000000e+000 0.000000e+000
 0.000000e+000 7.576451e-001 2.423548e-001 0.000000e+000 0.000000e+000
 0.000000e+000 0.000000e+000 7.017365e-001 2.982635e-001 0.000000e+000
 0.000000e+000 0.000000e+000 0.000000e+000 6.608868e-001 3.391132e-001
 0.000000e+000 0.000000e+000 0.000000e+000 0.000000e+000 0.000000e+000
<ENDHMM>
~h "e"
<BEGINHMM>
<NUMSTATES> 5
<STATE> 2
<MEAN> 25
 7.689935e+000 4.652287e+000 1.954526e-001 -4.663907e-001 -2.560997e-002 2.353189e+000 -2.214194e+000 -2.514111e+000 -3.710510e-001 7.376375e-001 4.189326e+000 4.266533e-001 2.264120e-001 8.383768e-001 -9.686239e-002 8.712872e-001 5.938437e-001 4.049596e-001 9.299542e-002 -7.301009e-001 -7.168248e-001 1.815232e-002 4.356555e-002 -1.319213e-001 -5.038389e-001
<VARIANCE> 25
 6.356090e+001 2.221323e+002 1.519776e+002 1.324024e+002 9.424102e+001 8.515215e+001 4.949275e+001 5.145456e+001 4.277421e+001 4.177818e+001 3.224362e+001 3.532212e+001 9.466764e+000 6.173964e+000 3.233030e+000 5.388092e+000 4.664859e+000 4.177280e+000 3.706921e+000 3.261181e+000 5.141264e+000 2.583603e+000 1.856536e+000 2.014868e+000 9.225537e+000
<GCONST> 1.152862e+002
<STATE> 3
<MEAN> 25
 6.816222e+000 5.894414e+000 3.755823e+000 4.935480e+000 8.008165e-001 -1.730584e+000 -1.785584e+000 -2.423086e+000 -1.693773e+000 2.937464e-001 1.974681e+000 4.611858e-001 5.810009e-001 -5.268031e-001 5.028827e-002 5.015958e-001 -6.055652e-001 -4.857139e-001 -6.436425e-001 -5.370505e-001 -1.473309e-001 3.637525e-001 -9.195954e-002 1.637710e-003 4.410079e-001
<VARIANCE> 25
 2.562210e+001 2.095627e+002 1.134444e+002 1.148797e+002 8.587096e+001 5.539898e+001 4.451741e+001 4.360471e+001 5.602021e+001 3.566146e+001 3.565179e+001 2.395271e+001 7.398485e+000 1.210978e+001 7.041048e+000 9.010549e+000 6.565746e+000 4.258092e+000 5.129153e+000 6.013525e+000 6.367746e+000 3.638709e+000 2.768898e+000 1.360500e+000 1.087171e+001
<GCONST> 1.166591e+002
<STATE> 4
<MEAN> 25
 1.010171e+001 1.111665e+000 2.743073e+000 4.073760e+000 -1.551490e+000 -1.908732e+000 -6.707635e+000 -5.530580e+000 -7.022331e-001 3.144547e+000 2.979590e+000 -5.945475e-001 2.978790e-001 -3.086634e+000 1.306353e+000 -2.191183e+000 -1.472065e+000 -3.295322e-001 -9.379150e-001 6.446050e-001 7.866025e-001 9.101602e-001 -6.308235e-001 2.166345e-001 2.275507e+000
<VARIANCE> 25
 3.070106e+001 1.125829e+002 1.114653e+002 9.822778e+001 1.256181e+002 6.519479e+001 8.591627e+001 1.113731e+002 6.989020e+001 4.155815e+001 3.888314e+001 2.572330e+001 2.712039e+000 1.571802e+001 8.331632e+000 1.208296e+001 1.004592e+001 4.222644e+000 7.091996e+000 1.065072e+001 8.702855e+000 6.006892e+000 3.877383e+000 2.565995e+000 9.980849e+000
<GCONST> 1.214461e+002
<TRANSP> 5
 0.000000e+000 1.000000e+000 0.000000e+000 0.000000e+000 0.000000e+000
 0.000000e+000 4.436270e-001 5.563731e-001 0.000000e+000 0.000000e+000
 0.000000e+000 0.000000e+000 8.193003e-002 9.180700e-001 0.000000e+000
 0.000000e+000 0.000000e+000 0.000000e+000 5.503440e-001 4.496560e-001
 0.000000e+000 0.000000e+000 0.000000e+000 0.000000e+000 0.000000e+000
<ENDHMM>
~h "f"
<BEGINHMM>
<NUMSTATES> 5
<STATE> 2
<MEAN> 25
 -3.477153e+000 2.087080e+000 4.190044e+000 4.643415e+000 3.061885e+000 9.387773e-001 -3.869977e+000 -2.124100e+000 -3.516425e+000 2.711473e-001 -1.251585e+000 2.209450e+000 -3.655293e-001 9.539038e-002 1.438488e-002 2.090978e-001 1.757792e-001 -1.405852e-001 1.060565e-001 6.459688e-002 -1.487535e-001 -4.359637e-003 -1.754987e-002 -2.716393e-002 1.047585e-001
<VARIANCE> 25
 3.091733e+001 2.539502e+001 3.757576e+001 1.247795e+001 1.853583e+001 2.885161e+001 2.410975e+001 3.206063e+001 1.836193e+001 1.530280e+001 1.300475e+001 1.417071e+001 1.130194e+000 1.270996e+000 1.250522e+000 1.008024e+000 1.567014e+000 1.980309e+000 2.024554e+000 2.229969e+000 1.906037e+000 1.350144e+000 1.160059e+000 1.090271e+000 2.617236e-001
<GCONST> 8.562321e+001
<STATE> 3
<MEAN> 25
 -1.242284e+001 1.018518e+001 6.305203e+000 4.490226e+000 -7.891864e-001 -5.460793e+000 1.525452e+000 -2.002394e+000 -6.899048e+000 2.418260e+000 2.828849e+000 2.607165e+000 -2.678177e-001 1.642759e-001 -7.524701e-002 -2.559474e-001 -2.719860e-001 -4.408177e-001 1.280448e-001 -3.434874e-001 3.560751e-002 -2.589532e-003 -2.951967e-002 -1.565383e-001 2.416712e-001
<VARIANCE> 25
 4.367101e+001 5.189042e+001 2.517836e+001 1.319859e+001 3.879992e+001 1.991769e+001 2.418180e+001 3.171405e+001 2.056066e+001 1.920069e+001 1.512082e+001 1.487198e+001 3.319108e+000 1.098343e+000 2.393450e+000 1.165371e+000 3.330180e+000 1.770124e+000 1.752265e+000 2.229171e+000 2.152694e+000 1.422816e+000 2.009277e+000 1.352441e+000 2.150756e-001
<GCONST> 9.020327e+001
<STATE> 4
<MEAN> 25
 -7.788291e+000 -5.096038e+000 1.409791e+001 -3.450720e+000 -3.391881e+000 -9.404779e+000 2.652410e+000 -1.833355e+000 -3.071385e+000 -1.561348e+000 1.224334e+000 -3.819425e-001 -1.833026e-002 1.656915e-001 -2.975561e-001 -7.853359e-003 -1.520030e-001 3.990079e-002 -2.674919e-001 -1.149015e-001 3.384688e-001 -4.357975e-002 1.654961e-001 -2.338990e-001 -2.209866e-001
<VARIANCE> 25
 2.467652e+001 1.682402e+002 1.720628e+002 5.502818e+001 1.004674e+002 5.110373e+001 6.902032e+001 2.963982e+001 8.332507e+001 2.188303e+001 1.515392e+001 1.893948e+001 1.746523e+000 1.604207e+000 3.445965e+000 2.257533e+000 2.900845e+000 1.996545e+000 2.280223e+000 1.664921e+000 2.980355e+000 2.365646e+000 1.535235e+000 1.678555e+000 3.963702e-001
<GCONST> 1.009156e+002
<TRANSP> 5
 0.000000e+000 1.000000e+000 0.000000e+000 0.000000e+000 0.000000e+000
 0.000000e+000 9.081045e-001 9.189542e-002 0.000000e+000 0.000000e+000
 0.000000e+000 0.000000e+000 8.871418e-001 1.128581e-001 0.000000e+000
 0.000000e+000 0.000000e+000 0.000000e+000 8.986443e-001 1.013558e-001
 0.000000e+000 0.000000e+000 0.000000e+000 0.000000e+000 0.000000e+000
<ENDHMM>
~h "g"
<BEGINHMM>
<NUMSTATES> 5
<STATE> 2
<MEAN> 25
 3.970290e+000 2.707634e+000 1.088756e+001 1.143368e+001 -2.637415e+000 -5.608688e+000 -4.664707e+000 2.856567e+000 -3.096226e+000 -1.912654e+000 2.604659e+000 2.788716e+000 8.783962e-001 -1.705114e+000 1.896677e+000 -2.138030e+000 -1.318273e+000 -1.191609e+000 -1.076832e+000 7.401991e-001 -9.046930e-001 3.614891e-001 7.991929e-001 5.284517e-001 2.373919e+000
<VARIANCE> 25
 3.277649e+001 1.162583e+002 7.168220e+001 7.835073e+001 5.954549e+001 3.923156e+001 4.658534e+001 4.468023e+001 4.337557e+001 2.828287e+001 3.568930e+001 2.094058e+001 1.682536e+000 7.134946e+000 4.936673e+000 1.064893e+001 5.125620e+000 2.833595e+000 2.870014e+000 3.615520e+000 3.933544e+000 3.535952e+000 4.633521e+000 1.789131e+000 2.201806e+000
<GCONST> 1.089513e+002
<STATE> 3
<MEAN> 25
 6.879987e+000 -9.359742e+000 1.683875e+001 -1.176612e+001 -4.765955e+000 -1.048510e+001 -5.007744e+000 1.075591e+001 -2.854999e+000 6.164030e+000 5.440897e-001 2.419358e+000 -3.352440e-002 -9.539275e-001 -1.273037e+000 -1.633988e+000 1.308143e+000 -1.829365e-001 1.360278e+000 7.998658e-001 1.192503e+000 9.965816e-001 -1.858858e+000 -5.439599e-001 8.020149e-001
<VARIANCE> 25
 6.680266e+000 2.668462e+001 2.429561e+001 1.746377e+001 2.122112e+001 1.381690e+001 2.862163e+001 2.339111e+001 3.460495e+001 1.868484e+001 3.014095e+001 1.532647e+001 2.795056e-001 8.042971e-001 9.651015e-001 2.139021e+000 1.456926e+000 1.157546e+000 1.508703e+000 1.454233e+000 1.632822e+000 2.309515e+000 1.044011e+000 1.374126e+000 6.769602e-001
<GCONST> 8.381393e+001
<STATE> 4
<MEAN> 25
 4.283108e+000 -1.250379e+001 7.188131e+000 -1.363737e+001 3.072462e+000 -6.707962e+000 2.107486e+000 1.003759e+001 1.756104e+000 5.165054e+000 -1.126773e+001 -1.389896e+000 -4.632962e-001 2.632965e-001 -6.793081e-001 6.498649e-001 1.559527e-001 5.668890e-001 3.193078e-001 -4.656203e-001 1.475225e-001 -3.351058e-001 -2.767844e-001 -2.324706e-001 -8.602583e-001
<VARIANCE> 25
 1.483634e+001 2.535044e+001 1.910243e+001 3.998810e+001 2.086361e+001 3.369773e+001 2.304162e+001 3.320378e+001 1.693029e+001 1.887163e+001 2.302356e+001 1.863914e+001 4.127275e-001 1.159415e+000 5.214407e-001 2.300818e+000 1.902450e+000 1.591450e+000 1.280855e+000 1.593148e+000 1.299190e+000 1.186673e+000 2.178715e+000 1.439091e+000 1.062241e+000
<GCONST> 8.644125e+001
<TRANSP> 5
 0.000000e+000 1.000000e+000 0.000000e+000 0.000000e+000 0.000000e+000
 0.000000e+000 8.622831e-001 1.377169e-001 0.000000e+000 0.000000e+000
 0.000000e+000 0.000000e+000 8.321854e-001 1.678146e-001 0.000000e+000
 0.000000e+000 0.000000e+000 0.000000e+000 9.072336e-001 9.276641e-002
 0.000000e+000 0.000000e+000 0.000000e+000 0.000000e+000 0.000000e+000
<ENDHMM>
~h "h"
<BEGINHMM>
<NUMSTATES> 5
<STATE> 2
<MEAN> 25
 -7.307281e-002 -9.758071e+000 -4.627566e+000 1.702869e+000 5.054491e+000 4.474012e+000 5.941663e+000 -4.303316e-001 -4.804533e-001 -3.639617e-001 -2.243613e+000 -8.832031e-002 -3.026031e-001 5.946617e-001 -1.513968e-001 2.054467e-001 -4.415840e-002 -1.374500e-001 -6.112899e-001 8.596314e-002 -3.835325e-001 1.192563e-002 -1.386989e-002 2.406633e-001 -9.080129e-001
<VARIANCE> 25
 4.108400e+001 8.630058e+001 4.978522e+001 1.962945e+001 1.382382e+001 1.375990e+001 3.435442e+001 2.084085e+001 2.351169e+001 3.435600e+001 2.122897e+001 1.415141e+001 2.026492e-001 3.632780e-001 9.556963e-001 1.396213e+000 1.253901e+000 8.716418e-001 2.798200e+000 1.038280e+000 1.515323e+000 2.629749e+000 1.200182e+000 1.557570e+000 2.308107e-001
<GCONST> 8.460335e+001
<STATE> 3
<MEAN> 25
 -3.956241e+000 2.177521e+000 5.836685e+000 2.425888e+000 4.835018e+000 2.169979e+000 -5.799582e+000 -2.291900e+000 -1.920310e+000 -2.439708e-001 -2.397406e+000 2.606863e+000 -4.339197e-001 2.764611e-001 2.358389e-001 -1.020365e-001 -2.319493e-001 6.120511e-002 -1.953188e-001 -2.474064e-001 -1.892585e-001 1.903511e-002 1.137775e-001 -9.224566e-003 5.888299e-002
<VARIANCE> 25
 2.997367e+001 1.695127e+001 2.231571e+001 1.010543e+001 1.462981e+001 1.279896e+001 2.831975e+001 2.298172e+001 2.228339e+001 1.842859e+001 2.507077e+001 1.203819e+001 4.856953e-001 5.178609e-001 5.315135e-001 8.419857e-001 1.510593e+000 1.580187e+000 1.761504e+000 1.651829e+000 1.996612e+000 2.019954e+000 2.396708e+000 8.397111e-001 2.955186e-001
<GCONST> 8.166293e+001
<STATE> 4
<MEAN> 25
 -5.849146e+000 -7.193498e+000 -3.804468e+000 4.696736e+000 2.043689e+000 5.598059e+000 4.724812e+000 1.674771e+000 -5.167680e-001 -2.355736e+000 4.837715e+000 -2.497210e+000 -2.769277e-001 2.142209e-001 -2.238214e-001 4.456729e-002 -6.421677e-001 -8.908007e-002 4.506144e-002 4.375235e-002 5.964691e-002 -1.277727e-001 2.302696e-001 -2.740104e-002 -3.897669e-001
<VARIANCE> 25
 1.156535e+002 1.745929e+002 1.069599e+002 9.028415e+000 3.753212e+001 4.022622e+001 6.328643e+001 5.499531e+001 5.391007e+001 3.239401e+001 4.094390e+001 2.384943e+001 2.395549e+000 1.362206e+000 1.577738e+000 7.593354e-001 2.300303e+000 2.229619e+000 1.632664e+000 1.984857e+000 2.234595e+000 1.942557e+000 2.027328e+000 1.750545e+000 1.462122e+000
<GCONST> 9.984533e+001
<TRANSP> 5
 0.000000e+000 1.000000e+000 0.000000e+000 0.000000e+000 0.000000e+000
 0.000000e+000 7.303339e-001 2.696662e-001 0.000000e+000 0.000000e+000
 0.000000e+000 0.000000e+000 8.881064e-001 1.118936e-001 0.000000e+000
 0.000000e+000 0.000000e+000 0.000000e+000 8.424158e-001 1.575843e-001
 0.000000e+000 0.000000e+000 0.000000e+000 0.000000e+000 0.000000e+000
<ENDHMM>
~h "i"
<BEGINHMM>
<NUMSTATES> 5
<STATE> 2
<MEAN> 25
 -4.463212e+000 -7.025552e-001 8.431220e+000 4.875881e+000 -5.916067e+000 -4.913245e+000 1.756411e+000 -5.249357e-001 -4.480076e-001 -2.484331e+000 3.398366e+000 2.597558e+000 2.375986e+000 -9.590686e-001 5.062287e+000 -1.007604e+000 -2.907737e+000 4.508126e-001 -6.835291e-001 -1.239253e+000 -2.341360e+000 -4.303218e-002 8.447196e-001 -5.253456e-001 3.323230e+000
<VARIANCE> 25
 9.056027e+001 7.262060e+001 1.370242e+002 1.447890e+002 1.536562e+002 1.126879e+002 1.332679e+002 9.705833e+001 7.987894e+001 6.661490e+001 3.902731e+001 4.342076e+001 6.271173e+000 1.182576e+001 1.736455e+001 1.144357e+001 1.293631e+001 8.642226e+000 7.628681e+000 6.231109e+000 7.863972e+000 5.275560e+000 3.649217e+000 3.116113e+000 1.031729e+001
<GCONST> 1.265418e+002
<STATE> 3
<MEAN> 25
 3.654174e+000 -1.930038e+000 3.046063e+001 -2.389704e+000 -1.563782e+001 1.607469e+000 -3.189393e+000 -3.730664e+000 -1.157670e+001 -2.526176e+000 6.215711e+000 -2.603905e+000 2.027176e-001 -5.943083e-001 4.799287e+000 -3.983265e+000 -1.652023e+000 1.691441e+000 -1.529770e+000 2.234718e-001 -1.981177e+000 -3.073170e-001 -9.675954e-002 -1.048910e+000 2.117763e+000
<VARIANCE> 25
 2.071968e+001 3.841188e+001 9.559368e+001 8.503107e+001 6.847060e+001 7.273219e+001 6.394098e+001 6.927129e+001 7.084319e+001 5.081801e+001 3.051487e+001 2.533115e+001 1.242530e+000 3.753227e+000 1.185063e+001 7.418938e+000 7.993726e+000 5.840195e+000 6.967313e+000 4.509625e+000 5.287715e+000 4.082224e+000 3.097203e+000 3.322902e+000 2.819937e+000
<GCONST> 1.131248e+002
<STATE> 4
<MEAN> 25
 1.756928e+000 2.807578e-001 3.000929e+001 -7.918018e+000 -1.217731e+001 1.556915e+000 -3.347060e+000 -7.725119e-001 -1.297714e+001 -1.871672e+000 2.877147e+000 -2.361794e+000 -1.506176e-001 2.606479e-001 -1.300360e+000 6.455185e-001 7.172549e-001 -3.834628e-001 2.591874e-001 2.921640e-001 4.324104e-001 1.685325e-001 -2.989241e-001 3.000492e-001 -7.713026e-001
<VARIANCE> 25
 1.827936e+001 2.749797e+001 1.182602e+002 6.709510e+001 4.833694e+001 4.886897e+001 4.134818e+001 4.232332e+001 4.895829e+001 3.340734e+001 2.413797e+001 2.493453e+001 4.833773e-001 1.200408e+000 3.685112e+000 3.467721e+000 3.273606e+000 2.617010e+000 2.118125e+000 2.358820e+000 2.352988e+000 1.989637e+000 1.775631e+000 1.460969e+000 1.062435e+000
<GCONST> 9.849788e+001
<TRANSP> 5
 0.000000e+000 1.000000e+000 0.000000e+000 0.000000e+000 0.000000e+000
 0.000000e+000 5.435005e-001 4.564995e-001 0.000000e+000 0.000000e+000
 0.000000e+000 0.000000e+000 5.911122e-001 4.088878e-001 0.000000e+000
 0.000000e+000 0.000000e+000 0.000000e+000 9.068979e-001 9.310210e-002
 0.000000e+000 0.000000e+000 0.000000e+000 0.000000e+000 0.000000e+000
<ENDHMM>
~h "j"
<BEGINHMM>
<NUMSTATES> 5
<STATE> 2
<MEAN> 25
 -2.235448e+000 1.293163e+001 -1.455113e+000 1.216528e+001 3.054129e+000 -4.553727e+000 -4.209842e+000 1.279058e+000 4.271307e+000 -2.444028e+000 -6.911291e-001 5.957775e-001 6.517815e-001 7.586861e-001 2.817674e-001 7.181372e-001 1.017713e+000 -2.182566e-003 1.839000e-002 -2.213445e-001 -5.264119e-002 4.143969e-002 -1.664003e-001 2.822576e-001 2.250537e-001
<VARIANCE> 25
 7.595500e+001 9.303712e+001 4.154710e+001 3.145610e+001 4.157328e+001 2.741928e+001 2.652172e+001 3.809299e+001 5.431895e+001 9.372484e+000 1.320327e+001 1.003633e+001 3.994225e+000 2.119770e+000 1.835417e+000 3.620986e+000 2.513533e+000 3.948026e+000 2.783669e+000 2.322311e+000 2.810073e+000 1.940878e+000 1.535285e+000 1.182588e+000 1.675135e+000
<GCONST> 9.806159e+001
<STATE> 3
<MEAN> 25
 1.174079e+000 1.010702e+001 1.288634e+001 -1.082804e+000 1.857453e+001 -9.539173e+000 -7.380475e-001 -9.007874e-001 4.339030e-001 5.174222e+000 -2.703861e+000 6.332386e+000 -6.577454e-001 -2.867688e+000 2.488534e+000 -4.016358e+000 4.347610e-001 -2.892423e+000 6.489100e-001 -2.714419e-001 -1.623622e+000 1.528027e-003 -9.564225e-001 1.193712e+000 3.270124e+000
<VARIANCE> 25
 3.149979e+001 1.068545e+002 4.341907e+001 1.149675e+002 1.378516e+002 7.540485e+001 8.140588e+001 2.853983e+001 4.473830e+001 3.149669e+001 2.124594e+001 1.715245e+001 5.794451e+000 5.187971e+000 3.286702e+000 7.129195e+000 2.850216e+001 6.415833e+000 6.707602e+000 5.507202e+000 2.622629e+000 7.704770e+000 1.440543e+000 1.554583e+000 2.734151e+000
<GCONST> 1.129262e+002
<STATE> 4
<MEAN> 25
 3.771607e+000 -7.055625e+000 1.710954e+001 -1.040751e+001 4.525194e-001 -1.515362e+001 6.487173e+000 6.340895e+000 -2.895861e+000 2.377647e+000 -4.506746e+000 5.985861e+000 1.056082e-001 -1.883092e-001 -1.720384e-001 6.559747e-003 -2.620942e-001 6.874284e-002 2.311406e-001 7.539379e-002 2.481012e-002 -1.416689e-003 3.254915e-002 -1.557946e-002 8.291256e-002
<VARIANCE> 25
 2.131405e+001 5.118164e+001 3.678758e+001 5.133915e+001 4.806868e+001 3.229263e+001 6.100430e+001 6.134454e+001 6.704603e+001 2.289269e+001 6.424612e+001 1.137315e+001 1.108974e+000 1.994429e+000 3.353215e+000 3.833665e+000 6.979782e+000 2.547457e+000 3.410330e+000 4.575351e+000 5.320229e+000 1.866905e+000 4.483704e+000 1.164777e+000 2.184017e+000
<GCONST> 1.036935e+002
<TRANSP> 5
 0.000000e+000 1.000000e+000 0.000000e+000 0.000000e+000 0.000000e+000
 0.000000e+000 9.124408e-001 8.755916e-002 0.000000e+000 0.000000e+000
 0.000000e+000 0.000000e+000 7.529429e-001 2.470571e-001 0.000000e+000
 0.000000e+000 0.000000e+000 0.000000e+000 9.488427e-001 5.115734e-002
 0.000000e+000 0.000000e+000 0.000000e+000 0.000000e+000 0.000000e+000
<ENDHMM>
~h "k"
<BEGINHMM>
<NUMSTATES> 5
<STATE> 2
<MEAN> 25
 -2.555108e+000 2.009101e+000 -3.276937e+000 7.714117e-001 -2.231155e-001 9.572214e-001 -1.505602e+000 -1.801918e+000 6.826539e-002 -1.363731e-001 -4.544545e-001 -5.279846e-003 -3.106072e-001 2.835087e-001 -2.998298e-001 4.754055e-001 1.097394e-001 -5.488946e-002 -1.384159e-002 3.159902e-002 1.136073e-001 6.125811e-002 7.757198e-002 1.896689e-001 -6.044880e-001
<VARIANCE> 25
 1.985954e+001 4.712281e+001 6.820624e+001 2.674758e+001 3.666113e+001 3.170710e+001 2.187631e+001 2.398194e+001 2.486771e+001 1.892636e+001 2.060336e+001 1.604470e+001 2.554210e-001 5.647100e-001 9.923236e-001 7.829473e-001 1.125329e+000 1.250193e+000 1.270133e+000 1.640557e+000 1.381250e+000 1.102845e+000 1.229605e+000 1.225286e+000 2.396366e-001
<GCONST> 8.386224e+001
<STATE> 3
<MEAN> 25
 -5.454013e+000 2.452683e+000 -5.024841e+000 2.817136e+000 9.383337e-001 -9.724475e-002 -9.653086e-001 -2.840268e-001 4.409869e-001 3.555429e-001 -4.610312e-001 1.398500e-001 5.473743e-001 -1.863979e+000 -1.760511e+000 -1.444237e-001 1.233955e+000 -2.210143e-001 -2.751983e-002 7.985619e-001 9.744405e-001 4.422372e-001 -2.584858e-001 -1.965711e-001 1.779269e+000
<VARIANCE> 25
 4.753610e+001 3.626018e+001 5.077302e+001 2.764730e+001 3.334830e+001 2.129648e+001 2.004844e+001 3.071008e+001 2.875335e+001 2.503654e+001 2.187762e+001 1.778683e+001 4.053019e+000 6.448235e+000 4.821495e+000 3.712400e+000 5.218780e+000 4.302562e+000 7.408260e+000 5.034873e+000 2.736977e+000 3.313446e+000 2.613292e+000 2.743739e+000 3.451406e+000
<GCONST> 1.044694e+002
<STATE> 4
<MEAN> 25
 1.478503e+000 -1.028799e+001 -8.858562e+000 -6.482512e-001 9.038046e+000 -3.149961e+000 -5.074190e+000 3.826750e+000 5.177357e+000 3.084358e+000 -2.102600e+000 -1.837121e+000 2.490339e+000 -2.156045e+000 7.932768e-001 -1.999673e+000 -3.999474e-002 -3.974893e-002 7.083276e-001 6.331844e-001 4.642829e-001 8.369997e-001 -4.282698e-001 -1.033642e+000 3.906949e+000
<VARIANCE> 25
 6.843388e+001 7.929132e+001 1.036563e+002 9.698268e+001 1.387912e+002 8.990256e+001 9.716316e+001 8.746864e+001 6.558873e+001 5.185861e+001 3.984676e+001 3.790974e+001 4.910057e+000 1.032300e+001 9.991035e+000 6.783401e+000 1.913601e+001 7.060119e+000 1.272612e+001 8.208891e+000 6.466417e+000 5.246466e+000 3.321383e+000 3.449548e+000 5.640892e+000
<GCONST> 1.230827e+002
<TRANSP> 5
 0.000000e+000 1.000000e+000 0.000000e+000 0.000000e+000 0.000000e+000
 0.000000e+000 8.469039e-001 1.530962e-001 0.000000e+000 0.000000e+000
 0.000000e+000 0.000000e+000 6.056880e-001 3.943120e-001 0.000000e+000
 0.000000e+000 0.000000e+000 0.000000e+000 7.178596e-001 2.821403e-001
 0.000000e+000 0.000000e+000 0.000000e+000 0.000000e+000 0.000000e+000
<ENDHMM>
~h "l"
<BEGINHMM>
<NUMSTATES> 5
<STATE> 2
<MEAN> 25
 2.338448e+000 4.588227e+000 -6.214137e+000 2.173783e+000 7.619776e-001 -1.549434e+000 -2.356563e+000 2.054004e+000 5.451097e+000 9.980893e-001 2.588754e-001 1.014383e-001 3.014917e+000 -2.269137e-001 3.102315e-001 -1.702018e+000 1.093040e-001 4.126819e-001 -1.141882e+000 -8.124316e-002 8.706411e-002 7.335808e-001 -7.132937e-002 -2.787579e-001 2.775396e+000
<VARIANCE> 25
 1.449130e+002 1.678566e+002 1.477292e+002 1.348464e+002 8.617225e+001 9.003574e+001 7.104357e+001 6.473801e+001 5.495977e+001 6.572237e+001 3.611141e+001 4.407611e+001 9.362880e+000 8.026999e+000 9.254313e+000 8.954040e+000 6.102683e+000 6.938549e+000 7.320707e+000 6.099711e+000 3.949870e+000 4.858586e+000 2.592204e+000 3.414407e+000 7.644942e+000
<GCONST> 1.223510e+002
<STATE> 3
<MEAN> 25
 1.307574e+001 -3.927139e+000 1.505664e+000 -1.164743e+001 -1.691398e+000 4.002504e+000 -5.839146e+000 -3.123517e+000 3.775925e+000 7.041145e+000 -5.995955e-001 -1.496676e+000 -3.658151e-001 -2.313507e+000 1.172297e+000 -9.899939e-001 2.399372e-001 7.590322e-001 2.003704e-001 -2.455961e-001 2.700927e-001 4.786653e-001 -1.012809e+000 -3.009060e-002 1.475254e+000
<VARIANCE> 25
 3.491522e+001 7.485397e+001 1.617432e+002 7.674435e+001 8.425074e+001 1.618948e+002 9.858899e+001 1.376712e+002 5.828052e+001 5.445623e+001 5.767973e+001 4.324344e+001 4.639570e-001 5.663645e+000 4.142872e+000 4.775757e+000 5.161786e+000 5.813814e+000 6.666443e+000 7.689417e+000 4.495019e+000 5.080750e+000 3.896783e+000 3.110069e+000 1.911654e+000
<GCONST> 1.157236e+002
<STATE> 4
<MEAN> 25
 8.800683e+000 -6.188310e+000 7.390051e+000 -1.580762e+001 2.751620e+000 -1.762864e+000 -7.990524e+000 -1.670398e+000 2.575332e+000 1.125162e+001 -3.147100e+000 -5.073358e-001 -7.504182e-002 5.918687e-002 -4.479469e-001 1.876650e-001 6.246316e-002 3.677061e-001 4.906374e-001 -1.082848e-001 -3.150371e-001 -7.829218e-002 3.030919e-002 -2.087936e-001 -2.824202e-001
<VARIANCE> 25
 1.645271e+001 3.779434e+001 5.683303e+001 6.074657e+001 5.291470e+001 9.208488e+001 9.276124e+001 1.052937e+002 5.209808e+001 3.889909e+001 4.502825e+001 3.783441e+001 3.826036e-001 1.556931e+000 1.294529e+000 2.428566e+000 2.227882e+000 2.158251e+000 2.471733e+000 3.116614e+000 2.444365e+000 2.454839e+000 2.110342e+000 1.479085e+000 7.143860e-001
<GCONST> 1.000924e+002
<TRANSP> 5
 0.000000e+000 1.000000e+000 0.000000e+000 0.000000e+000 0.000000e+000
 0.000000e+000 7.065064e-001 2.934937e-001 0.000000e+000 0.000000e+000
 0.000000e+000 0.000000e+000 5.468970e-001 4.531030e-001 0.000000e+000
 0.000000e+000 0.000000e+000 0.000000e+000 8.278242e-001 1.721758e-001
 0.000000e+000 0.000000e+000 0.000000e+000 0.000000e+000 0.000000e+000
<ENDHMM>
~h "m"
<BEGINHMM>
<NUMSTATES> 5
<STATE> 2
<MEAN> 25
 9.545981e+000 1.558183e+000 3.636645e+000 6.382923e+000 3.163016e+000 6.999368e+000 6.147661e-001 -1.100025e+001 -1.018513e+001 3.696965e-001 4.415829e-001 2.149813e+000 7.530072e-002 5.840135e-001 -1.184265e-001 6.457328e-001 -1.661209e-001 1.104255e-001 7.732239e-002 -1.937385e-001 -6.098759e-002 -1.980514e-001 -9.183330e-002 2.973620e-001 -4.652681e-001
<VARIANCE> 25
 4.416507e+001 3.150415e+001 6.009735e+001 2.405049e+001 3.381681e+001 3.312866e+001 3.325459e+001 3.334164e+001 4.435085e+001 3.965426e+001 2.972076e+001 2.050439e+001 1.112556e-001 3.784953e-001 4.860919e-001 7.231655e-001 8.123742e-001 9.491338e-001 8.212188e-001 1.383001e+000 1.624943e+000 1.347632e+000 1.089394e+000 1.034942e+000 1.088305e-001
<GCONST> 8.271844e+001
<STATE> 3
<MEAN> 25
 2.648619e-001 4.681203e+000 -2.953657e+000 7.323681e+000 2.131202e+000 3.951298e+000 -3.930892e-002 -4.167986e+000 -6.603330e-001 -1.476383e+000 -5.605431e-001 2.899080e+000 -3.665309e-001 -2.062334e-002 -3.685983e-001 -7.451551e-002 -1.139066e-001 -2.715305e-001 3.518857e-001 5.936362e-001 5.926285e-001 1.410448e-001 9.520717e-002 -3.543187e-001 -3.219081e-001
<VARIANCE> 25
 1.222558e+002 3.154450e+001 6.878886e+001 2.078111e+001 2.291492e+001 2.787786e+001 2.985749e+001 5.401795e+001 4.437905e+001 2.309178e+001 3.073362e+001 2.120571e+001 1.760837e+000 1.101284e+000 1.535072e+000 1.543481e+000 1.334405e+000 1.600566e+000 1.401113e+000 1.913640e+000 1.762060e+000 1.534717e+000 1.406107e+000 1.426733e+000 1.079700e+000
<GCONST> 9.376450e+001
<STATE> 4
<MEAN> 25
 5.885670e+000 8.855784e+000 -4.950987e+000 9.582915e+000 5.377695e+000 4.424957e+000 8.380468e-001 -7.352348e+000 -4.837441e+000 -9.330539e-001 2.896605e+000 9.447457e-001 2.520381e+000 -8.562300e-001 -6.302505e-001 -1.069463e+000 -1.054702e-001 4.982148e-001 -2.921587e-001 -2.448837e-002 1.088017e-001 -4.183227e-001 -1.467681e-002 -6.708804e-002 2.354705e+000
<VARIANCE> 25
 1.404734e+002 1.260049e+002 8.019383e+001 5.103117e+001 5.221770e+001 3.680865e+001 4.326327e+001 7.737467e+001 8.363829e+001 3.601708e+001 3.689595e+001 1.538229e+001 8.335829e+000 1.331256e+001 8.114789e+000 9.294922e+000 5.949474e+000 5.796523e+000 5.597946e+000 1.058603e+001 1.265040e+001 3.688162e+000 3.254170e+000 1.891317e+000 3.526046e+000
<GCONST> 1.176492e+002
<TRANSP> 5
 0.000000e+000 1.000000e+000 0.000000e+000 0.000000e+000 0.000000e+000
 0.000000e+000 8.552369e-001 1.447631e-001 0.000000e+000 0.000000e+000
 0.000000e+000 0.000000e+000 7.160074e-001 2.839925e-001 0.000000e+000
 0.000000e+000 0.000000e+000 0.000000e+000 6.990756e-001 3.009245e-001
 0.000000e+000 0.000000e+000 0.000000e+000 0.000000e+000 0.000000e+000
<ENDHMM>
~h "n"
<BEGINHMM>
<NUMSTATES> 5
<STATE> 2
<MEAN> 25
 6.947093e+000 -8.175721e+000 1.340514e+001 -9.303020e+000 -2.385357e+000 -5.909003e+000 1.749302e+000 4.680979e+000 -4.080157e+000 3.084029e+000 -3.223216e+000 4.988915e-001 -1.151908e-001 2.244387e+000 4.673345e-001 1.896246e+000 -3.341267e-001 -2.778859e-001 -1.077193e+000 -2.406109e+000 -4.608664e-001 6.850096e-001 2.406272e-001 3.294936e-001 -1.796142e+000
<VARIANCE> 25
 1.508642e+001 3.995732e+001 1.593575e+002 1.052152e+002 6.450878e+001 2.990021e+001 4.889366e+001 6.062403e+001 5.805505e+001 2.913552e+001 4.715473e+001 1.553604e+001 2.908600e-001 2.793933e+000 2.377715e+000 4.651021e+000 2.222155e+000 1.502183e+000 2.305545e+000 4.264268e+000 2.194644e+000 1.690529e+000 1.503169e+000 1.123710e+000 1.667250e+000
<GCONST> 9.969784e+001
<STATE> 3
<MEAN> 25
 9.085291e+000 1.815760e+000 6.770881e+000 4.144334e+000 -2.834775e+000 -6.403605e+000 -4.142624e+000 -5.150929e+000 -4.101770e+000 3.296427e+000 -4.038473e+000 1.209529e+000 -2.906118e-002 7.231157e-001 -2.219816e-001 6.837438e-001 -1.042705e-001 3.046665e-001 -8.599863e-002 -2.180079e-001 1.585721e-001 -1.481415e-001 1.957073e-001 1.977810e-002 -6.718110e-001
<VARIANCE> 25
 7.926178e+000 2.331263e+001 2.969527e+001 3.421501e+001 3.081904e+001 2.356981e+001 2.945014e+001 4.742176e+001 2.596313e+001 2.771985e+001 2.845120e+001 1.421868e+001 1.398557e-001 2.961920e-001 5.515200e-001 6.500220e-001 1.151005e+000 9.830689e-001 1.063961e+000 1.305210e+000 1.197925e+000 1.128993e+000 1.045373e+000 1.042894e+000 7.779451e-002
<GCONST> 7.857801e+001
<STATE> 4
<MEAN> 25
 1.928885e+000 3.687157e+000 6.898555e-002 1.032146e+001 2.676052e-001 -1.881483e+000 4.160487e-001 1.361404e+000 5.984394e-001 -1.509363e+000 -2.974634e-001 2.266416e+000 -7.448994e-001 -1.566076e-001 -8.345371e-001 8.638503e-002 4.260994e-002 1.561143e-002 2.539310e-001 4.270582e-001 3.386694e-001 -2.870058e-001 1.859516e-001 1.630942e-001 -7.477916e-001
<VARIANCE> 25
 2.099495e+001 2.337145e+001 4.189978e+001 2.951662e+001 3.581730e+001 4.053869e+001 2.726150e+001 4.096741e+001 2.667278e+001 3.507112e+001 2.419818e+001 2.620754e+001 4.268003e-001 1.215449e+000 1.180798e+000 1.734296e+000 1.749985e+000 2.803242e+000 2.126953e+000 2.242438e+000 1.654308e+000 1.734788e+000 1.605870e+000 1.664977e+000 3.256454e-001
<GCONST> 9.098415e+001
<TRANSP> 5
 0.000000e+000 1.000000e+000 0.000000e+000 0.000000e+000 0.000000e+000
 0.000000e+000 7.604792e-001 2.395209e-001 0.000000e+000 0.000000e+000
 0.000000e+000 0.000000e+000 9.065593e-001 9.344074e-002 0.000000e+000
 0.000000e+000 0.000000e+000 0.000000e+000 8.916253e-001 1.083747e-001
 0.000000e+000 0.000000e+000 0.000000e+000 0.000000e+000 0.000000e+000
<ENDHMM>
~h "o"
<BEGINHMM>
<NUMSTATES> 5
<STATE> 2
<MEAN> 25
 7.402796e+000 -6.683555e+000 1.791123e+001 -1.554183e+001 -3.155454e+000 -5.384725e+000 -4.913403e+000 3.745295e+000 -1.201769e+001 1.019532e+001 2.811188e+000 1.164876e+000 3.810434e-001 1.327618e-001 -1.838694e+000 -1.389304e+000 8.467333e-001 6.618797e-001 4.398387e-001 -6.283589e-001 6.741870e-001 6.513067e-001 2.139621e-001 6.410416e-001 1.732798e-001
<VARIANCE> 25
 5.658953e+001 3.892019e+001 1.508153e+002 8.496523e+001 3.865149e+001 3.547207e+001 1.155752e+001 1.801266e+001 6.899532e+001 3.365441e+001 1.216731e+001 6.361914e+000 2.329493e-001 3.119273e-001 1.285462e+000 1.527797e+000 1.720087e+000 4.950671e+000 2.012433e+000 2.432606e+000 4.277928e+000 1.627204e+000 2.640021e+000 1.414352e+000 1.883912e-001
<GCONST> 9.113535e+001
<STATE> 3
<MEAN> 25
 1.153211e+001 -9.892765e+000 5.138215e+000 -1.856680e+001 -1.241201e-001 1.997989e-001 -2.035331e+000 3.553028e+000 -2.530277e+000 8.446033e+000 -5.626529e-001 1.772233e+000 -1.077773e-001 -3.143723e-002 9.273696e-002 5.603939e-001 -3.059825e-001 -7.609254e-001 4.857897e-001 7.189430e-001 2.445918e-001 -5.533289e-001 -2.000036e-001 -2.132823e-001 -8.120660e-002
<VARIANCE> 25
 4.647376e+001 4.254392e+001 3.077039e+001 5.958197e+001 1.580470e+001 1.324308e+002 8.932542e+001 8.822432e+001 6.653759e+000 2.398871e+001 1.700331e+001 1.192008e+001 3.246225e-001 2.010262e+000 6.332975e-001 1.759593e+000 1.232176e+000 6.019060e+000 6.575273e+000 3.216123e+000 1.474868e+000 1.041682e+000 2.499187e+000 1.473729e+000 7.769115e-001
<GCONST> 9.427058e+001
<STATE> 4
<MEAN> 25
 7.324690e+000 -4.876677e+000 2.293081e+000 -2.282307e+000 -1.059442e+000 -3.337400e+000 1.915824e+000 2.337887e+000 -6.589427e-001 3.856959e-001 3.695091e-001 -1.190988e+000 -8.110535e-001 2.170922e+000 -1.946884e-001 2.988300e+000 1.709026e+000 1.977421e+000 -1.066188e+000 -2.282513e+000 -8.809904e-001 -1.056250e+000 -7.176782e-001 -1.932612e-001 -2.501064e+000
<VARIANCE> 25
 1.328526e+002 6.041068e+001 2.504514e+001 5.588667e+001 3.231158e+001 1.337419e+002 7.692891e+000 1.083919e+002 1.309302e+001 3.673156e+001 1.355624e+001 1.506842e+001 1.855740e+000 9.513520e-001 2.328459e+000 4.916815e+000 1.448641e+000 2.290074e+000 9.321321e-001 2.246721e+000 4.502949e+000 1.196371e+000 9.965445e-001 9.963869e-001 3.106827e+000
<GCONST> 9.652911e+001
<TRANSP> 5
 0.000000e+000 1.000000e+000 0.000000e+000 0.000000e+000 0.000000e+000
 0.000000e+000 8.188566e-001 1.811434e-001 0.000000e+000 0.000000e+000
 0.000000e+000 0.000000e+000 8.842168e-001 1.157832e-001 0.000000e+000
 0.000000e+000 0.000000e+000 0.000000e+000 6.304092e-001 3.695908e-001
 0.000000e+000 0.000000e+000 0.000000e+000 0.000000e+000 0.000000e+000
<ENDHMM>
~h "p"
<BEGINHMM>
<NUMSTATES> 5
<STATE> 2
<MEAN> 25
 -1.255393e+000 5.027333e-001 -8.545921e-001 2.537409e+000 -2.173928e+000 2.684872e-001 -2.556246e+000 -1.613751e+000 7.570333e-002 -2.582786e-001 4.543375e-001 5.975077e-001 -3.942450e-001 3.003751e-001 -6.614439e-001 2.337441e-001 3.983720e-002 -1.038796e-001 1.480672e-001 -9.293120e-002 1.830834e-001 -8.540215e-002 7.518854e-003 8.299875e-002 -7.351790e-001
<VARIANCE> 25
 1.412835e+001 2.051793e+001 3.755915e+001 2.933748e+001 2.663480e+001 1.930104e+001 2.198915e+001 2.964543e+001 2.766389e+001 2.180899e+001 2.237025e+001 1.653985e+001 2.038799e-001 3.492982e-001 6.867337e-001 7.122567e-001 9.984056e-001 1.031503e+000 1.034268e+000 1.137779e+000 1.345238e+000 1.264679e+000 1.192657e+000 1.122485e+000 1.216676e-001
<GCONST> 7.921105e+001
<STATE> 3
<MEAN> 25
 -2.832860e+000 2.990060e+000 -3.432703e+000 4.221098e+000 -7.075677e-002 9.267437e-001 -1.554411e+000 -2.693424e+000 8.360008e-003 -4.447719e-001 2.698021e-001 1.198641e+000 8.005752e-001 -5.935183e-001 -1.343997e+000 -2.746228e-001 -8.378675e-002 -3.145592e-001 5.323293e-001 2.805306e-001 7.821151e-002 1.439945e-001 1.071092e-001 -1.014056e-002 8.029454e-001
<VARIANCE> 25
 3.364645e+001 2.388415e+001 4.587791e+001 2.019815e+001 2.487181e+001 1.800848e+001 1.995983e+001 2.845986e+001 2.267918e+001 1.812929e+001 1.712096e+001 1.431824e+001 1.391988e+000 1.235826e+000 1.799990e+000 3.221002e+000 2.329318e+000 1.921020e+000 2.742096e+000 2.293360e+000 1.926869e+000 1.944563e+000 2.465492e+000 1.657416e+000 9.509718e-001
<GCONST> 9.175066e+001
<STATE> 4
<MEAN> 25
 4.551088e+000 -1.739393e+000 -8.991525e+000 3.698997e+000 -2.253623e+000 5.113147e-001 2.258655e+000 -1.365520e+000 -1.007435e+000 -3.082938e-001 1.793717e+000 -5.574958e-001 3.825719e+000 -2.127134e+000 -1.031243e+000 -2.120899e+000 -4.528431e-001 6.229910e-001 1.036573e+000 4.094568e-001 -7.255000e-001 5.541344e-001 1.839683e-001 -1.093087e+000 4.206289e+000
<VARIANCE> 25
 7.996201e+001 6.877875e+001 6.001560e+001 7.356807e+001 3.557996e+001 4.840022e+001 4.869670e+001 2.890506e+001 3.641066e+001 2.655574e+001 2.512110e+001 2.995215e+001 4.433500e+000 1.106021e+001 6.310946e+000 1.126572e+001 4.978137e+000 5.607445e+000 4.868073e+000 4.189481e+000 3.819728e+000 4.785275e+000 2.898173e+000 3.555932e+000 6.913540e+000
<GCONST> 1.128234e+002
<TRANSP> 5
 0.000000e+000 1.000000e+000 0.000000e+000 0.000000e+000 0.000000e+000
 0.000000e+000 8.756642e-001 1.243358e-001 0.000000e+000 0.000000e+000
 0.000000e+000 0.000000e+000 3.487629e-001 6.512371e-001 0.000000e+000
 0.000000e+000 0.000000e+000 0.000000e+000 6.062314e-001 3.937687e-001
 0.000000e+000 0.000000e+000 0.000000e+000 0.000000e+000 0.000000e+000
<ENDHMM>
~h "r"
<BEGINHMM>
<NUMSTATES> 5
<STATE> 2
<MEAN> 25
 1.036710e+001 -1.103219e+001 5.872258e+000 -5.740414e+000 -3.817780e+000 -3.397015e+000 -5.683319e+000 -4.846189e-001 -3.015307e-001 5.583285e+000 -7.906489e-001 1.778251e+000 2.761953e-001 -3.873723e-001 -1.097831e+000 1.714978e+000 -3.865310e-002 -4.367261e-001 -1.184781e-001 -2.477749e-001 1.642814e+000 -4.869450e-001 -9.814940e-001 8.497185e-001 -3.385701e-001
<VARIANCE> 25
 1.822579e+001 3.305783e+001 9.107160e+001 7.978019e+001 4.861248e+001 6.352596e+001 8.706145e+001 8.551805e+001 7.424586e+001 4.618531e+001 4.857422e+001 3.603120e+001 9.449196e-001 1.435704e+000 1.508988e+000 5.794594e+000 2.828746e+000 3.210896e+000 2.617155e+000 2.607945e+000 2.590319e+000 3.740902e+000 1.941526e+000 2.277189e+000 1.028295e+000
<GCONST> 1.041830e+002
<STATE> 3
<MEAN> 25
 8.715670e+000 -7.593729e+000 -1.211969e+000 6.002153e+000 -5.375150e-001 6.213502e-001 -3.793656e+000 1.317583e-001 7.579820e+000 1.163163e+000 -3.548418e+000 4.443054e+000 -8.754916e-001 7.436279e-001 -2.355632e-001 9.548816e-001 5.762529e-001 6.231323e-001 5.378253e-001 3.486490e-001 1.048832e-001 -3.702522e-001 2.815441e-001 1.518133e-002 -1.298728e+000
<VARIANCE> 25
 3.407331e+001 2.693641e+001 4.009791e+001 4.282902e+001 3.807029e+001 4.191545e+001 5.850520e+001 5.758611e+001 3.939645e+001 3.115317e+001 3.635278e+001 3.516267e+001 1.475714e+000 1.114109e+000 1.329082e+000 1.878403e+000 2.499076e+000 2.442395e+000 2.810030e+000 2.657121e+000 2.288228e+000 1.973456e+000 1.649751e+000 2.199527e+000 9.479290e-001
<GCONST> 9.795519e+001
<STATE> 4
<MEAN> 25
 -1.326803e+000 9.156826e-001 -8.912817e+000 8.041874e+000 8.843486e-001 -1.047341e+000 -1.277479e+000 4.241132e-001 5.294319e+000 -1.251281e+000 -1.235808e+000 1.152486e+000 -4.476190e-001 6.657987e-001 -3.213105e-001 -1.183026e-001 -5.166924e-002 -1.701590e-001 -5.970700e-004 -1.492131e-001 -1.736614e-001 -4.267116e-002 1.141908e-001 -2.342094e-001 -7.218810e-001
<VARIANCE> 25
 2.213937e+001 3.296451e+001 4.616755e+001 1.977955e+001 2.773310e+001 2.367414e+001 1.955382e+001 2.140483e+001 2.110940e+001 1.694239e+001 1.866336e+001 1.892526e+001 2.324364e-001 3.685419e-001 8.096047e-001 6.864985e-001 8.972110e-001 1.208895e+000 1.217824e+000 1.222357e+000 1.328396e+000 1.250452e+000 1.052652e+000 1.201024e+000 1.159348e-001
<GCONST> 7.964866e+001
<TRANSP> 5
 0.000000e+000 1.000000e+000 0.000000e+000 0.000000e+000 0.000000e+000
 0.000000e+000 8.050846e-001 1.949154e-001 0.000000e+000 0.000000e+000
 0.000000e+000 0.000000e+000 8.466281e-001 1.533719e-001 0.000000e+000
 0.000000e+000 0.000000e+000 0.000000e+000 9.079042e-001 9.209576e-002
 0.000000e+000 0.000000e+000 0.000000e+000 0.000000e+000 0.000000e+000
<ENDHMM>
~h "s"
<BEGINHMM>
<NUMSTATES> 5
<STATE> 2
<MEAN> 25
 3.054519e+000 -3.307190e+000 4.249177e+000 -3.396215e+000 1.057397e+001 -5.890521e+000 4.463066e+000 1.553867e+000 -2.821061e-003 -6.209652e-001 -4.266657e+000 6.252668e+000 -1.481628e+000 8.394118e-002 1.409370e+000 -1.962110e+000 3.423602e+000 -2.925653e+000 1.826963e+000 -1.650383e+000 -9.115926e-003 -2.089689e-001 3.883516e-001 -2.794703e-002 2.066449e+000
<VARIANCE> 25
 1.011969e+002 9.743317e+001 1.254080e+002 8.784380e+001 1.016022e+002 1.096958e+002 6.571436e+001 9.647243e+001 4.360999e+001 4.792147e+001 3.608489e+001 2.539720e+001 9.073542e+000 8.168056e+000 8.226395e+000 8.028245e+000 5.902034e+000 7.727742e+000 5.771344e+000 1.117302e+001 5.970141e+000 5.237301e+000 3.992433e+000 3.930693e+000 6.643265e+000
<GCONST> 1.215608e+002
<STATE> 3
<MEAN> 25
 -9.704320e+000 -1.381565e+000 9.021082e+000 -1.123653e+001 1.999911e+001 -1.551642e+001 1.270198e+001 -5.790404e+000 4.165885e+000 -1.680519e+000 9.066552e-001 1.801448e+000 -4.980617e-001 1.293251e-001 -2.178732e-001 1.600402e-001 -3.083186e-001 3.622014e-001 -2.909473e-001 1.043134e-001 2.631528e-001 1.101706e-001 2.030883e-001 -2.354012e-001 -6.011518e-001
<VARIANCE> 25
 9.872862e+001 5.057158e+001 5.121480e+001 4.362185e+001 4.748564e+001 3.645572e+001 3.472542e+001 2.524079e+001 2.656278e+001 1.949997e+001 2.432934e+001 1.755305e+001 6.720244e+000 3.243375e+000 3.017515e+000 3.229729e+000 2.441474e+000 2.665803e+000 2.367996e+000 2.384661e+000 2.366738e+000 2.021784e+000 2.376960e+000 1.540121e+000 3.108879e+000
<GCONST> 1.016738e+002
<STATE> 4
<MEAN> 25
 -8.479913e+000 3.048890e+000 1.772532e+000 -3.138225e+000 9.313184e+000 -6.166109e+000 2.828305e+000 -5.290632e-001 6.868720e-001 1.224350e+000 -2.161053e+000 1.030710e+000 1.949799e-001 4.224055e-001 -9.106271e-001 6.112682e-001 -8.942784e-001 6.082528e-001 -5.170655e-001 3.095299e-001 -3.550869e-001 -9.953896e-002 -3.008656e-002 7.682114e-003 -1.115820e+000
<VARIANCE> 25
 2.360018e+001 2.740382e+001 6.058251e+001 3.351899e+001 3.907272e+001 2.512678e+001 2.720589e+001 2.363557e+001 2.121812e+001 1.549385e+001 1.648282e+001 1.280304e+001 5.511191e-001 6.692210e-001 7.601281e-001 1.039963e+000 8.751910e-001 1.133886e+000 1.135676e+000 1.417971e+000 1.451935e+000 1.082457e+000 1.252307e+000 9.988190e-001 1.705890e-001
<GCONST> 8.268153e+001
<TRANSP> 5
 0.000000e+000 1.000000e+000 0.000000e+000 0.000000e+000 0.000000e+000
 0.000000e+000 7.759437e-001 2.240563e-001 0.000000e+000 0.000000e+000
 0.000000e+000 0.000000e+000 9.120961e-001 8.790385e-002 0.000000e+000
 0.000000e+000 0.000000e+000 0.000000e+000 8.769175e-001 1.230825e-001
 0.000000e+000 0.000000e+000 0.000000e+000 0.000000e+000 0.000000e+000
<ENDHMM>
~h "t"
<BEGINHMM>
<NUMSTATES> 5
<STATE> 2
<MEAN> 25
 -4.886892e+000 4.653115e+000 -4.549044e+000 1.877530e+000 -9.086416e-001 -1.258631e+000 -1.158484e+000 -3.143461e-001 1.470862e-002 -1.267997e+000 -1.358888e-001 2.727619e-001 -4.502246e-001 2.633272e-001 -2.154636e-001 3.723276e-001 -1.428333e-001 1.157559e-002 1.095607e-001 -1.045580e-001 5.507622e-002 -1.347385e-001 9.915493e-002 -1.077501e-002 -6.288286e-001
<VARIANCE> 25
 3.618396e+001 4.153840e+001 4.087001e+001 3.580227e+001 2.389492e+001 2.574278e+001 2.318618e+001 3.333253e+001 2.469627e+001 1.727089e+001 1.876430e+001 1.258248e+001 1.796979e-001 3.639543e-001 8.300372e-001 7.064337e-001 8.097200e-001 1.191615e+000 1.131311e+000 1.216792e+000 1.287068e+000 9.562134e-001 9.999673e-001 1.127583e+000 1.257222e-001
<GCONST> 8.041919e+001
<STATE> 3
<MEAN> 25
 -1.075095e+001 5.658371e+000 -4.614345e+000 5.086953e+000 -3.529019e-001 2.243917e-002 1.135206e+000 3.987393e-001 1.979708e+000 -5.430534e-001 1.381498e+000 3.931648e-001 5.908158e-001 -9.964649e-001 2.881475e-002 4.300399e-002 -4.485475e-001 -4.541101e-001 6.322255e-001 7.128048e-001 1.391564e-001 1.016528e-001 4.193399e-001 9.062869e-002 1.237349e+000
<VARIANCE> 25
 1.043329e+002 3.654615e+001 2.620688e+001 1.948038e+001 1.773488e+001 2.439660e+001 2.581493e+001 1.790222e+001 2.501580e+001 1.567873e+001 1.632924e+001 1.580107e+001 6.431599e+000 4.637756e+000 3.086947e+000 2.905215e+000 3.635319e+000 3.484349e+000 4.763680e+000 3.443584e+000 3.652448e+000 2.397490e+000 1.915565e+000 2.232199e+000 4.666393e+000
<GCONST> 1.002481e+002
<STATE> 4
<MEAN> 25
 -1.577838e+000 -4.610659e+000 -8.346588e-001 1.624198e+000 -1.073027e+000 -2.215299e+000 -3.218091e+000 3.327586e+000 7.372341e-001 7.147855e-003 2.128986e+000 -2.521252e-001 4.134616e+000 -3.183405e+000 2.415625e+000 -2.804218e+000 -5.091185e-001 -5.274752e-001 -9.715641e-001 9.688485e-001 -1.578848e+000 6.154008e-001 5.080525e-001 -4.358238e-002 6.003374e+000
<VARIANCE> 25
 8.878494e+001 1.005528e+002 7.826447e+001 6.510602e+001 7.078584e+001 8.186301e+001 1.099559e+002 4.665445e+001 7.979536e+001 3.422826e+001 3.580943e+001 2.728160e+001 7.437368e+000 1.261913e+001 9.175395e+000 1.031300e+001 1.096744e+001 8.598619e+000 1.338432e+001 7.521491e+000 1.175846e+001 5.148758e+000 4.869923e+000 4.662281e+000 7.167542e+000
<GCONST> 1.230299e+002
<TRANSP> 5
 0.000000e+000 1.000000e+000 0.000000e+000 0.000000e+000 0.000000e+000
 0.000000e+000 8.435591e-001 1.564409e-001 0.000000e+000 0.000000e+000
 0.000000e+000 0.000000e+000 5.598811e-001 4.401189e-001 0.000000e+000
 0.000000e+000 0.000000e+000 0.000000e+000 6.002728e-001 3.997273e-001
 0.000000e+000 0.000000e+000 0.000000e+000 0.000000e+000 0.000000e+000
<ENDHMM>
~h "u"
<BEGINHMM>
<NUMSTATES> 5
<STATE> 2
<MEAN> 25
 1.206693e+001 5.102252e+000 -2.846555e+000 -5.205538e+000 -3.857692e+000 1.620859e+000 -6.994151e-001 -1.313160e+000 -5.924307e+000 -2.291306e+000 2.229403e+000 1.199048e+000 8.766794e-001 5.364141e-001 1.384030e-001 -3.070280e+000 -2.720276e-001 7.400482e-001 -5.010808e-001 3.202194e-004 -1.081558e+000 1.457956e-001 4.860559e-001 -2.962243e-002 1.035457e+000
<VARIANCE> 25
 7.987648e+001 8.653588e+001 8.544958e+001 1.559979e+002 4.886958e+001 4.379919e+001 5.636451e+001 6.187667e+001 7.774379e+001 5.099030e+001 3.816317e+001 3.041551e+001 2.772924e+000 5.273618e+000 4.513130e+000 6.935098e+000 4.246531e+000 4.299635e+000 4.654705e+000 5.510020e+000 4.984159e+000 4.869304e+000 3.887062e+000 2.614556e+000 1.564598e+000
<GCONST> 1.136842e+002
<STATE> 3
<MEAN> 25
 1.207739e+001 5.849044e+000 4.649443e+000 -2.188825e+001 -3.391031e+000 3.219479e+000 -7.477059e+000 4.263733e-001 -1.211464e+001 -1.277708e+000 1.370597e+000 -9.142525e-001 -1.921356e-001 2.993717e-001 -1.203740e-001 -6.726460e-001 -1.315903e-001 6.998031e-002 -2.355438e-001 6.581228e-002 3.897564e-001 1.333885e-001 -2.680981e-001 -1.613186e-001 -2.006598e-001
<VARIANCE> 25
 1.770348e+001 4.370019e+001 5.788227e+001 1.322104e+002 3.733835e+001 5.478159e+001 5.306738e+001 6.528368e+001 5.513524e+001 7.240148e+001 4.119735e+001 3.429946e+001 2.244281e-001 1.119669e+000 1.357494e+000 3.643996e+000 1.268409e+000 2.168488e+000 2.249829e+000 2.691672e+000 2.498819e+000 3.555937e+000 2.022338e+000 1.841933e+000 5.000415e-001
<GCONST> 9.869685e+001
<STATE> 4
<MEAN> 25
 7.656556e+000 1.067971e+001 -4.492385e+000 -8.329067e+000 -4.608712e+000 7.348095e-001 -2.089477e+000 -1.219401e+000 -2.557923e+000 -1.656669e+000 5.546461e-001 -2.138679e-001 -8.388754e-001 -1.291903e-002 -4.088486e-001 1.034793e+000 2.851223e-001 -8.209918e-002 2.288884e-001 -2.745450e-001 4.385326e-001 2.149475e-001 2.065391e-002 1.940115e-002 -9.594586e-001
<VARIANCE> 25
 5.708608e+001 4.246233e+001 5.487352e+001 8.513934e+001 5.102631e+001 4.456951e+001 4.203981e+001 4.077053e+001 3.620166e+001 4.871007e+001 2.719116e+001 2.137302e+001 7.984487e-001 7.531962e-001 1.152298e+000 3.040734e+000 1.630470e+000 1.905847e+000 1.670859e+000 1.934280e+000 1.831797e+000 1.769825e+000 1.576428e+000 1.378960e+000 7.399293e-001
<GCONST> 9.590908e+001
<TRANSP> 5
 0.000000e+000 1.000000e+000 0.000000e+000 0.000000e+000 0.000000e+000
 0.000000e+000 7.535455e-001 2.464546e-001 0.000000e+000 0.000000e+000
 0.000000e+000 0.000000e+000 7.918787e-001 2.081213e-001 0.000000e+000
 0.000000e+000 0.000000e+000 0.000000e+000 8.712747e-001 1.287253e-001
 0.000000e+000 0.000000e+000 0.000000e+000 0.000000e+000 0.000000e+000
<ENDHMM>
~h "w"
<BEGINHMM>
<NUMSTATES> 5
<STATE> 2
<MEAN> 25
 -6.690659e+000 3.397446e+000 -5.395904e-001 8.602238e+000 -6.320966e+000 -4.992604e+000 7.858492e-001 2.083193e+000 5.161418e-002 -5.193417e+000 3.375804e+000 3.190637e+000 1.672526e+000 1.446712e+000 2.969421e-001 -3.545191e-002 -6.376589e-001 -6.921176e-001 1.265873e-001 3.170017e-001 -2.553687e-002 -5.465625e-001 -3.648162e-001 -1.706991e-001 7.036587e-001
<VARIANCE> 25
 1.626990e+002 1.625960e+002 7.865141e+001 2.446115e+002 5.855693e+001 6.765417e+001 4.289158e+001 5.214634e+001 2.756303e+001 4.672792e+001 3.739500e+001 4.152522e+001 7.262472e+000 5.850532e+000 5.513007e+000 4.925558e+000 4.640942e+000 3.175875e+000 2.746791e+000 2.038885e+000 2.701188e+000 3.477438e+000 2.455023e+000 1.551091e+000 3.804081e+000
<GCONST> 1.128779e+002
<STATE> 3
<MEAN> 25
 1.530868e+001 1.693612e+001 -5.731238e+000 -1.101662e+001 -1.213390e+001 2.370912e+000 3.703965e+000 -1.926064e+000 -2.180656e+000 -7.549087e+000 6.750044e-001 5.458153e+000 6.208034e-001 -2.106478e+000 -4.164059e-001 -2.952381e+000 7.113297e-002 3.330523e+000 -2.502711e-001 -1.273330e+000 4.888354e-001 9.355589e-001 1.280815e+000 1.138340e+000 1.794589e+000
<VARIANCE> 25
 7.928974e+000 4.872570e+001 2.627188e+001 5.007988e+001 2.628495e+001 8.533376e+001 2.012382e+001 2.535620e+001 4.495284e+001 2.309500e+001 2.421204e+001 2.150655e+001 1.570359e+000 3.987763e+000 3.594544e+000 2.281489e+000 3.909405e+000 7.130404e+000 3.876778e+000 1.699215e+000 3.071610e+000 4.740112e+000 2.068566e+000 2.852092e+000 6.730961e-001
<GCONST> 9.944572e+001
<STATE> 4
<MEAN> 25
 1.353640e+001 -3.546689e+000 1.039659e-001 -2.177682e+001 -2.921299e+000 1.824671e+001 -6.547727e+000 -7.599748e+000 3.149868e+000 7.708745e+000 5.125093e+000 -1.924238e+000 -9.951958e-001 -4.332711e+000 1.657454e+000 3.304060e-001 2.359150e+000 -8.780292e-001 -1.156773e+000 1.754437e+000 1.013982e+000 2.286957e+000 -1.685557e+000 -2.865908e+000 2.139439e+000
<VARIANCE> 25
 5.130427e+000 5.516413e+001 4.579513e+001 2.005218e+001 3.231013e+001 4.510238e+001 5.248034e+001 4.935656e+001 5.153867e+001 3.409720e+001 3.928482e+001 3.856310e+001 2.502845e-001 1.109262e+000 2.192080e+000 3.628742e+000 4.352862e+000 1.184146e+001 4.481810e+000 8.321146e+000 5.637970e+000 6.452775e+000 5.100216e+000 2.625710e+000 2.644475e-001
<GCONST> 1.015656e+002
<TRANSP> 5
 0.000000e+000 1.000000e+000 0.000000e+000 0.000000e+000 0.000000e+000
 0.000000e+000 8.577474e-001 1.422525e-001 0.000000e+000 0.000000e+000
 0.000000e+000 0.000000e+000 8.150703e-001 1.849297e-001 0.000000e+000
 0.000000e+000 0.000000e+000 0.000000e+000 7.842979e-001 2.157021e-001
 0.000000e+000 0.000000e+000 0.000000e+000 0.000000e+000 0.000000e+000
<ENDHMM>
~h "y"
<BEGINHMM>
<NUMSTATES> 5
<STATE> 2
<MEAN> 25
 -1.513887e-008 8.685321e-009 6.289883e-008 7.186313e-008 3.131923e-008 4.571417e-008 5.014053e-008 1.333485e-008 -7.134006e-008 8.713219e-009 1.011273e-009 4.209684e-008 -6.534437e-003 7.731597e-003 -5.306157e-003 4.609803e-003 -4.191151e-003 8.242088e-003 -6.219152e-003 5.951754e-003 -5.249157e-003 1.868283e-003 2.200403e-003 -1.269434e-003 2.744509e-003
<VARIANCE> 25
 6.716856e+001 2.941401e+001 5.663681e+001 4.741492e+001 4.696264e+001 4.914315e+001 4.999928e+001 4.303569e+001 5.672998e+001 3.222253e+001 2.850756e+001 4.103967e+001 2.100924e+000 1.434693e+000 1.891293e+000 2.194988e+000 2.363979e+000 2.636887e+000 2.464799e+000 2.732278e+000 2.851009e+000 2.222413e+000 2.036798e+000 2.011688e+000 1.909456e+000
<GCONST> 1.015924e+002
<STATE> 3
<MEAN> 25
 -1.513887e-008 8.685321e-009 6.289883e-008 7.186313e-008 3.131923e-008 4.571417e-008 5.014053e-008 1.333485e-008 -7.134006e-008 8.713219e-009 1.011273e-009 4.209684e-008 -6.534437e-003 7.731597e-003 -5.306157e-003 4.609803e-003 -4.191151e-003 8.242088e-003 -6.219152e-003 5.951754e-003 -5.249157e-003 1.868283e-003 2.200403e-003 -1.269434e-003 2.744509e-003
<VARIANCE> 25
 6.716856e+001 2.941401e+001 5.663681e+001 4.741492e+001 4.696264e+001 4.914315e+001 4.999928e+001 4.303569e+001 5.672998e+001 3.222253e+001 2.850756e+001 4.103967e+001 2.100924e+000 1.434693e+000 1.891293e+000 2.194988e+000 2.363979e+000 2.636887e+000 2.464799e+000 2.732278e+000 2.851009e+000 2.222413e+000 2.036798e+000 2.011688e+000 1.909456e+000
<GCONST> 1.015924e+002
<STATE> 4
<MEAN> 25
 -1.513887e-008 8.685321e-009 6.289883e-008 7.186313e-008 3.131923e-008 4.571417e-008 5.014053e-008 1.333485e-008 -7.134006e-008 8.713219e-009 1.011273e-009 4.209684e-008 -6.534437e-003 7.731597e-003 -5.306157e-003 4.609803e-003 -4.191151e-003 8.242088e-003 -6.219152e-003 5.951754e-003 -5.249157e-003 1.868283e-003 2.200403e-003 -1.269434e-003 2.744509e-003
<VARIANCE> 25
 6.716856e+001 2.941401e+001 5.663681e+001 4.741492e+001 4.696264e+001 4.914315e+001 4.999928e+001 4.303569e+001 5.672998e+001 3.222253e+001 2.850756e+001 4.103967e+001 2.100924e+000 1.434693e+000 1.891293e+000 2.194988e+000 2.363979e+000 2.636887e+000 2.464799e+000 2.732278e+000 2.851009e+000 2.222413e+000 2.036798e+000 2.011688e+000 1.909456e+000
<GCONST> 1.015924e+002
<TRANSP> 5
 0.000000e+000 1.000000e+000 0.000000e+000 0.000000e+000 0.000000e+000
 0.000000e+000 6.000000e-001 4.000000e-001 0.000000e+000 0.000000e+000
 0.000000e+000 0.000000e+000 6.000000e-001 4.000000e-001 0.000000e+000
 0.000000e+000 0.000000e+000 0.000000e+000 7.000000e-001 3.000000e-001
 0.000000e+000 0.000000e+000 0.000000e+000 0.000000e+000 0.000000e+000
<ENDHMM>
~h "ay"
<BEGINHMM>
<NUMSTATES> 5
<STATE> 2
<MEAN> 25
 -5.996138e+000 -4.777125e+000 -1.401119e+001 1.366464e+001 5.299088e+000 -3.262237e+000 2.253195e+000 6.788193e+000 3.594043e+000 -8.704700e+000 -1.429564e+000 6.316382e+000 -4.101596e-002 5.178797e-001 -1.720584e-001 -5.756007e-001 -2.537119e-001 6.469054e-001 4.285846e-001 -5.256096e-001 -1.563816e-001 2.417409e-001 1.221352e-001 -4.165621e-001 -2.594432e-001
<VARIANCE> 25
 7.166757e+001 1.276559e+002 4.631853e+001 5.293242e+001 1.145096e+001 9.275706e+001 4.809272e+001 4.919565e+001 5.222926e+001 2.484508e+001 1.443601e+001 2.050993e+001 8.732783e-001 4.800947e+000 2.440402e+000 2.640672e+000 1.501725e+000 3.829830e+000 2.180899e+000 2.500025e+000 2.183308e+000 2.410077e+000 1.748784e+000 1.615485e+000 1.415542e+000
<GCONST> 1.002573e+002
<STATE> 3
<MEAN> 25
 1.024860e+001 8.570291e+000 -1.298278e+001 4.324693e+000 5.876821e+000 8.303536e+000 2.532842e+000 -6.450522e+000 -2.239186e+000 -2.236961e+000 2.417895e+000 6.807774e-001 2.225716e+000 -2.500331e+000 -2.757123e-001 -1.199897e+000 -5.240188e-001 1.308128e+000 -7.340226e-001 7.353118e-002 1.527803e+000 -1.559423e-001 7.116070e-002 -1.849891e-001 2.857796e+000
<VARIANCE> 25
 1.030017e+002 1.162706e+002 7.750117e+001 5.511609e+001 4.803402e+001 3.646352e+001 2.014260e+001 4.448414e+001 6.879195e+001 2.185533e+001 2.271818e+001 1.381049e+001 9.543576e+000 1.683980e+001 7.955909e+000 4.232335e+000 4.268985e+000 3.514797e+000 3.164748e+000 6.574513e+000 1.503109e+001 3.965696e+000 2.221082e+000 2.357908e+000 5.073523e+000
<GCONST> 1.127352e+002
<STATE> 4
<MEAN> 25
 1.209321e+001 -1.684071e+001 7.473132e-001 -1.581151e+000 -9.530073e-001 1.030231e+001 -1.161793e+000 3.418916e+000 3.795589e+000 -8.116757e+000 -4.985150e-001 9.810097e-001 -5.776514e-001 -5.341551e-001 1.633793e+000 -6.026405e-001 -6.170757e-001 -1.020353e+000 6.715640e-001 8.855809e-001 -5.900484e-001 2.122472e-001 1.612174e-001 -1.768929e-001 5.477559e-001
<VARIANCE> 25
 2.768207e+001 8.210981e+001 5.568687e+001 9.042716e+001 4.932625e+001 5.578085e+001 6.088648e+001 1.032216e+002 7.177247e+001 3.125295e+001 1.521471e+001 2.274502e+001 1.087984e+000 4.943828e+000 2.362674e+000 3.399550e+000 2.979767e+000 2.839212e+000 5.168988e+000 3.609277e+000 5.410351e+000 3.320562e+000 1.913689e+000 1.198375e+000 1.315612e+000
<GCONST> 1.052483e+002
<TRANSP> 5
 0.000000e+000 1.000000e+000 0.000000e+000 0.000000e+000 0.000000e+000
 0.000000e+000 8.301317e-001 1.698683e-001 0.000000e+000 0.000000e+000
 0.000000e+000 0.000000e+000 7.884967e-001 2.115033e-001 0.000000e+000
 0.000000e+000 0.000000e+000 0.000000e+000 9.316643e-001 6.833567e-002
 0.000000e+000 0.000000e+000 0.000000e+000 0.000000e+000 0.000000e+000
<ENDHMM>
~h "eh"
<BEGINHMM>
<NUMSTATES> 5
<STATE> 2
<MEAN> 25
 8.672873e+000 -1.133766e+001 7.748581e+000 -6.018814e+000 -1.218091e+001 -9.827353e+000 6.415238e+000 1.232298e+001 -3.474565e+000 5.351855e-001 4.410307e+000 -4.438895e-001 -4.879352e-001 -1.113614e+000 1.651325e+000 -2.716021e+000 -4.044499e-001 -2.003090e-001 1.297422e+000 2.446527e-001 -9.216544e-001 9.068758e-001 5.064299e-001 -5.003738e-001 1.417389e+000
<VARIANCE> 25
 1.794005e+001 5.201475e+001 1.197890e+002 2.550400e+001 5.411815e+001 4.189334e+001 5.488014e+001 3.226097e+001 6.103827e+001 3.033568e+001 2.644625e+001 2.026819e+001 7.347890e-001 1.941728e+000 5.968768e+000 3.371508e+000 3.069692e+000 3.313929e+000 3.351301e+000 3.801204e+000 1.873102e+000 2.676865e+000 2.727870e+000 8.397608e-001 1.465525e+000
<GCONST> 1.008684e+002
<STATE> 3
<MEAN> 25
 6.294621e+000 -1.089668e+001 7.588427e+000 -8.531035e+000 -9.042953e+000 -1.275534e+001 8.033830e+000 7.906980e+000 -1.687127e+000 8.390083e-001 3.833159e+000 2.113197e+000 -4.322503e-002 -1.772114e-001 -3.941698e-001 -3.163885e-001 7.010117e-001 -8.154915e-002 -5.874275e-002 -1.716962e-002 6.562535e-001 2.401557e-001 -4.411975e-001 -2.369615e-002 9.454893e-002
<VARIANCE> 25
 1.256375e+001 2.046494e+001 1.436077e+002 2.873343e+001 4.130061e+001 2.451909e+001 6.053296e+001 2.858875e+001 6.423832e+001 2.044925e+001 2.958946e+001 3.334692e+001 1.423856e-001 6.700152e-001 1.260751e+000 9.305445e-001 1.987751e+000 1.840387e+000 2.076936e+000 1.230426e+000 2.190515e+000 2.419661e+000 1.011952e+000 1.413187e+000 1.002144e-001
<GCONST> 8.804340e+001
<STATE> 4
<MEAN> 25
 1.067670e+001 -1.656180e+001 1.177735e+001 -9.668279e+000 -1.083581e+001 -5.686081e+000 2.269865e+000 1.447880e+001 -4.548227e+000 2.661022e+000 3.908538e+000 -2.306685e+000 1.732940e-001 7.144347e-002 -8.911521e-001 2.405483e-001 9.400976e-001 5.508613e-001 -5.822737e-001 -1.731711e-001 7.848523e-001 2.240473e-002 -8.901031e-001 -2.481464e-001 -1.968205e-001
<VARIANCE> 25
 1.044350e+001 1.880475e+001 5.318230e+001 1.681423e+001 4.219057e+001 4.058974e+001 2.970228e+001 1.868020e+001 3.121323e+001 1.948667e+001 2.664047e+001 9.470246e+000 1.838215e-001 3.687610e-001 1.065168e+000 7.597715e-001 1.391832e+000 8.939503e-001 1.640725e+000 1.957827e+000 1.068830e+000 1.492327e+000 1.308527e+000 9.411807e-001 2.359194e-001
<GCONST> 8.144193e+001
<TRANSP> 5
 0.000000e+000 1.000000e+000 0.000000e+000 0.000000e+000 0.000000e+000
 0.000000e+000 5.909017e-001 4.090983e-001 0.000000e+000 0.000000e+000
 0.000000e+000 0.000000e+000 7.879252e-001 2.120748e-001 0.000000e+000
 0.000000e+000 0.000000e+000 0.000000e+000 7.882038e-001 2.117962e-001
 0.000000e+000 0.000000e+000 0.000000e+000 0.000000e+000 0.000000e+000
<ENDHMM>
~h "ng"
<BEGINHMM>
<NUMSTATES> 5
<STATE> 2
<MEAN> 25
 1.182600e+001 -1.012571e+001 -3.617046e+000 -7.588245e+000 3.631773e+000 1.216076e+001 -3.721944e+000 -3.907697e-001 7.958735e-003 -4.362534e+000 -5.153491e-001 -8.517625e-001 -1.502360e-003 1.393827e+000 -1.617952e-001 7.790217e-001 -7.106693e-001 -2.062827e-001 3.266100e-001 -5.863068e-001 -7.123573e-001 -2.566712e-001 4.304691e-001 6.266980e-001 -1.057956e+000
<VARIANCE> 25
 6.071717e+000 4.381659e+001 1.981501e+001 4.868271e+001 3.122306e+001 2.853767e+001 2.375086e+001 2.594695e+001 3.174336e+001 2.403761e+001 1.064216e+001 1.504805e+001 1.173264e-001 5.381347e-001 6.057708e-001 9.974371e-001 1.196020e+000 1.031758e+000 1.681835e+000 1.168524e+000 1.424264e+000 1.146522e+000 7.223465e-001 7.716807e-001 2.564720e-001
<GCONST> 7.949662e+001
<STATE> 3
<MEAN> 25
 9.392921e+000 1.284284e+000 -3.931612e+000 1.265383e+000 2.872357e+000 8.408495e+000 -7.797825e-001 -5.536635e+000 -5.160058e+000 -3.575279e+000 2.100092e+000 4.758297e-001 -5.321319e-001 7.152445e-001 1.103569e-001 1.309964e+000 5.072294e-001 3.464012e-002 4.957344e-001 6.343142e-002 3.701239e-001 1.937893e-001 -1.340958e-001 -2.347053e-001 -8.935478e-001
<VARIANCE> 25
 6.358945e+000 2.360021e+001 1.383891e+001 6.057129e+001 3.593683e+001 3.036220e+001 3.343972e+001 2.480440e+001 3.448899e+001 2.519958e+001 1.379863e+001 1.419553e+001 3.458754e-001 3.609260e-001 7.056182e-001 9.605470e-001 8.649808e-001 1.168950e+000 1.731587e+000 1.836422e+000 1.399377e+000 1.047947e+000 9.781414e-001 9.479635e-001 1.744188e-001
<GCONST> 8.070929e+001
<STATE> 4
<MEAN> 25
 -1.399812e+000 7.372014e+000 -9.821407e+000 7.319484e+000 4.526078e+000 4.453837e+000 2.095154e+000 -3.237468e+000 2.090280e+000 -6.671458e-001 7.638003e-001 -6.428939e-001 -6.807399e-001 2.347750e-001 -3.758508e-001 -2.542453e-001 -2.869107e-001 -4.933521e-001 -1.672487e-001 -5.198752e-002 5.954214e-002 3.188908e-002 1.907627e-002 -1.004660e-002 -6.996166e-001
<VARIANCE> 25
 1.888420e+001 1.869942e+001 3.025832e+001 1.909496e+001 2.977186e+001 2.959310e+001 2.168609e+001 2.351443e+001 2.116364e+001 2.344890e+001 1.609765e+001 1.902609e+001 2.773811e-001 5.015090e-001 1.044293e+000 7.078719e-001 1.040860e+000 1.212267e+000 1.209347e+000 1.295170e+000 1.590187e+000 1.710358e+000 1.164826e+000 1.090659e+000 1.080120e-001
<GCONST> 8.054093e+001
<TRANSP> 5
 0.000000e+000 1.000000e+000 0.000000e+000 0.000000e+000 0.000000e+000
 0.000000e+000 8.687766e-001 1.312234e-001 0.000000e+000 0.000000e+000
 0.000000e+000 0.000000e+000 8.937143e-001 1.062857e-001 0.000000e+000
 0.000000e+000 0.000000e+000 0.000000e+000 9.341344e-001 6.586561e-002
 0.000000e+000 0.000000e+000 0.000000e+000 0.000000e+000 0.000000e+000
<ENDHMM>
~h "ny"
<BEGINHMM>
<NUMSTATES> 5
<STATE> 2
<MEAN> 25
 9.493908e-001 1.809461e+000 4.270042e+000 3.499994e+000 6.875988e-001 1.916523e+000 -3.701128e+000 -1.731097e+000 -4.266296e+000 -2.524248e-001 -1.181728e-003 4.428544e+000 -5.616145e-004 1.715554e-001 -6.613714e-002 -1.962506e-001 -2.423221e-001 3.396556e-003 9.861983e-002 2.835179e-001 4.456352e-002 2.394075e-001 2.202725e-001 1.623759e-002 1.246293e-001
<VARIANCE> 25
 2.420485e+001 1.377570e+001 1.772111e+001 2.194351e+001 2.885563e+001 2.027193e+001 2.408520e+001 2.731749e+001 2.191472e+001 1.406160e+001 1.808377e+001 1.782395e+001 4.057602e-001 5.792974e-001 6.033482e-001 1.013838e+000 1.206576e+000 1.525200e+000 1.763180e+000 2.265793e+000 9.878580e-001 1.179897e+000 1.243637e+000 1.342057e+000 5.350805e-001
<GCONST> 8.218207e+001
<STATE> 3
<MEAN> 25
 -6.282184e+000 1.037401e+001 -5.065140e+000 3.195097e+000 -4.138737e+000 -3.139565e+000 1.292685e-001 -5.824250e-001 2.444394e-001 -8.933594e-001 2.967439e+000 -9.923382e-002 -5.246636e-001 4.090278e-001 2.430935e-001 -1.024854e-002 2.694855e-002 1.501092e-001 -8.318291e-002 -1.486860e-001 3.479338e-001 7.607475e-002 1.387043e-001 -2.550717e-001 -4.037020e-001
<VARIANCE> 25
 5.161929e+001 1.733264e+001 4.758731e+001 2.127515e+001 2.676462e+001 1.154965e+001 1.502312e+001 2.182492e+001 1.523570e+001 1.567737e+001 1.613008e+001 1.361507e+001 2.392412e-001 8.112714e-001 1.176238e+000 1.420941e+000 1.060077e+000 5.664947e-001 8.657284e-001 8.889244e-001 9.227917e-001 6.829156e-001 1.226348e+000 1.020021e+000 3.694879e-001
<GCONST> 7.892645e+001
<STATE> 4
<MEAN> 25
 1.176079e+000 1.327753e+001 3.385773e+000 4.450854e+000 -3.795223e+000 -2.665053e+000 1.406525e+000 8.644117e-001 9.173538e-001 4.782895e-001 4.644068e+000 8.152847e-001 2.135332e+000 -1.832642e-001 1.025996e+000 -5.631950e-001 -1.256765e+000 -5.853354e-001 4.898885e-001 -2.646689e-001 -4.119431e-001 3.314593e-001 2.977877e-001 -3.263459e-001 2.134523e+000
<VARIANCE> 25
 1.009868e+002 1.251606e+002 3.197495e+001 1.289530e+002 7.704615e+001 5.214932e+001 2.967425e+001 4.801513e+001 2.222862e+001 3.418642e+001 2.945051e+001 1.632183e+001 8.369750e+000 1.014492e+001 4.368938e+000 8.644455e+000 6.887846e+000 6.373663e+000 5.512533e+000 3.839505e+000 3.700891e+000 5.258118e+000 3.257577e+000 2.207639e+000 2.638496e+000
<GCONST> 1.129035e+002
<TRANSP> 5
 0.000000e+000 1.000000e+000 0.000000e+000 0.000000e+000 0.000000e+000
 0.000000e+000 9.008549e-001 9.914511e-002 0.000000e+000 0.000000e+000
 0.000000e+000 0.000000e+000 8.386540e-001 1.613460e-001 0.000000e+000
 0.000000e+000 0.000000e+000 0.000000e+000 8.298275e-001 1.701725e-001
 0.000000e+000 0.000000e+000 0.000000e+000 0.000000e+000 0.000000e+000
<ENDHMM>
~h "sp"
<BEGINHMM>
<NUMSTATES> 3
<STATE> 2
~s "silst"
<TRANSP> 3
 0.000000e+000 4.812938e-001 5.187063e-001
 0.000000e+000 9.396799e-001 6.032003e-002
 0.000000e+000 0.000000e+000 0.000000e+000
<ENDHMM>
~h "sil"
<BEGINHMM>
<NUMSTATES> 5
<STATE> 2
<MEAN> 25
 -3.552458e+000 3.740475e+000 -1.450495e+000 5.558284e+000 2.888193e-001 -5.673394e-001 2.715678e-001 -1.634745e+000 1.269133e+000 -1.261671e+000 -8.023125e-001 2.109621e+000 -1.044828e-001 2.614224e-001 -1.237831e-002 5.489685e-002 8.466323e-002 4.330034e-002 -1.719428e-001 -3.349399e-001 -9.286629e-002 6.404854e-003 2.706599e-002 -1.640070e-001 -2.763254e-001
<VARIANCE> 25
 1.002117e+002 6.139056e+001 5.438659e+001 5.262785e+001 7.997491e+001 2.945434e+001 4.794866e+001 3.337957e+001 3.076081e+001 2.522257e+001 1.910460e+001 2.673682e+001 7.123423e-001 1.016674e+000 8.671880e-001 1.287392e+000 1.953971e+000 1.743503e+000 1.738685e+000 1.652013e+000 1.598714e+000 1.418037e+000 1.303141e+000 1.565361e+000 1.320322e+000
<GCONST> 9.454100e+001
<STATE> 3
~s "silst"
<STATE> 4
<MEAN> 25
 -2.414911e+001 2.891612e+000 -8.928297e+000 6.455233e+000 -5.494767e-002 2.432647e+000 4.193978e+000 2.470978e+000 6.446119e+000 1.441521e+000 5.060850e+000 1.888695e+000 -7.448904e-004 1.043688e-002 5.101191e-004 -2.219622e-002 -1.753907e-003 2.550919e-002 2.917348e-002 -7.134072e-003 -4.388753e-003 -6.796050e-003 -1.329527e-002 -3.615475e-003 -4.492600e-003
<VARIANCE> 25
 1.014911e+001 7.150480e+000 1.078302e+001 7.795040e+000 9.324472e+000 1.074942e+001 1.237521e+001 1.461894e+001 1.481056e+001 9.794580e+000 8.673593e+000 7.212519e+000 4.122447e-002 1.395053e-001 2.155198e-001 3.555436e-001 5.105048e-001 4.521282e-001 7.962481e-001 1.138596e+000 1.319814e+000 1.016804e+000 8.486944e-001 9.159849e-001 2.980222e-002
<GCONST> 6.081952e+001
<TRANSP> 5
 0.000000e+000 1.000000e+000 0.000000e+000 0.000000e+000 0.000000e+000
 0.000000e+000 8.417873e-001 5.283092e-002 1.053817e-001 0.000000e+000
 0.000000e+000 0.000000e+000 9.604047e-001 3.959528e-002 0.000000e+000
 0.000000e+000 9.484855e-004 0.000000e+000 9.638586e-001 3.519288e-002
 0.000000e+000 0.000000e+000 0.000000e+000 0.000000e+000 0.000000e+000
<ENDHMM>
