~o
<STREAMINFO> 1 25
<VECSIZE> 25<NULLD><MFCC_D_N_Z_0><DIAGC>
~s "silst"
<MEAN> 25
 -6.395853e+000 6.960047e-002 -9.521239e+000 9.588858e+000 4.991809e-001 -4.660544e+000 -9.938442e-001 3.375862e+000 4.150179e+000 -4.743937e+000 1.334534e+000 3.898260e+000 -3.313397e-001 -6.485773e-001 -6.336772e-001 8.886455e-001 4.858749e-001 -4.678641e-001 -3.498273e-002 4.303001e-001 4.404338e-001 -3.269071e-001 -1.965062e-001 1.270607e-001 -2.983715e-001
<VARIANCE> 25
 6.004750e+001 8.099801e+001 9.429002e+001 1.014407e+002 1.099263e+002 8.219942e+001 7.848133e+001 7.450465e+001 4.631092e+001 8.816399e+001 3.322460e+001 5.501608e+001 5.669858e+000 5.711721e+000 5.328548e+000 4.873328e+000 5.630090e+000 6.140781e+000 4.693726e+000 4.891832e+000 4.771109e+000 5.433155e+000 3.423898e+000 2.910868e+000 4.799834e+000
<GCONST> 1.177448e+002
~h "a"
<BEGINHMM>
<NUMSTATES> 5
<STATE> 2
<MEAN> 25
 1.063481e+001 -1.138636e+001 -3.038659e+000 -6.918252e+000 -1.216224e+000 4.637356e+000 2.609932e+000 7.969838e-001 2.940304e+000 1.732327e+000 -1.296718e+000 -3.265902e+000 2.727101e-001 -2.398325e+000 1.455985e-001 -8.823717e-001 9.038887e-001 3.226126e-001 2.975498e-001 8.618500e-001 3.931863e-001 -3.809284e-001 -7.663390e-001 -7.564577e-001 1.801945e+000
<VARIANCE> 25
 5.184797e+001 8.342764e+001 1.213766e+002 1.115747e+002 7.549928e+001 9.105448e+001 7.219915e+001 7.795275e+001 5.145772e+001 7.056721e+001 4.604599e+001 4.899983e+001 2.179504e+000 3.783445e+000 4.826034e+000 6.281059e+000 5.118335e+000 5.350664e+000 5.577199e+000 5.700147e+000 5.033044e+000 5.281273e+000 3.145420e+000 3.475541e+000 2.862344e+000
<GCONST> 1.162368e+002
<STATE> 3
<MEAN> 25
 1.098215e+001 -1.943977e+001 -1.098377e+000 -1.012744e+001 4.960292e+000 2.675534e+000 2.521646e+000 5.197269e+000 1.477038e+000 1.185534e+000 -4.940310e+000 -5.770587e+000 -1.700473e-001 -1.281399e-001 1.353755e-001 -1.119634e-001 3.022660e-001 -2.764055e-001 1.989143e-001 4.035124e-001 -3.820741e-001 -3.131380e-001 -1.313056e-001 1.336083e-001 6.604387e-002
<VARIANCE> 25
 1.867718e+001 1.933505e+001 5.386606e+001 5.146393e+001 5.653643e+001 6.157338e+001 6.187811e+001 6.517847e+001 2.929145e+001 3.656226e+001 2.780443e+001 2.372838e+001 2.617970e-001 7.116643e-001 1.051832e+000 1.212608e+000 1.503143e+000 2.122835e+000 1.621748e+000 2.223651e+000 1.590631e+000 1.658841e+000 1.403140e+000 1.495564e+000 2.876847e-001
<GCONST> 9.116064e+001
<STATE> 4
<MEAN> 25
 6.739248e+000 -1.113910e+001 -1.605791e+000 -4.366615e+000 3.768842e+000 1.020637e+000 3.561303e+000 3.969394e+000 1.326866e+000 3.596749e-001 -3.497085e+000 -2.836684e+000 -6.239914e-001 1.570376e+000 4.594314e-001 1.403088e+000 -1.928229e-001 -1.313386e-001 -4.529952e-001 -4.982237e-001 -3.423975e-001 -9.749831e-003 1.696976e-001 6.937220e-001 -1.709328e+000
<VARIANCE> 25
 3.042207e+001 4.625169e+001 6.077726e+001 6.188124e+001 4.369466e+001 6.926154e+001 5.293590e+001 6.129556e+001 3.865471e+001 3.096905e+001 3.758512e+001 2.672358e+001 9.185543e-001 1.639361e+000 1.825368e+000 2.595535e+000 2.533790e+000 2.237363e+000 2.580571e+000 2.527219e+000 2.579607e+000 2.095555e+000 1.981831e+000 1.703564e+000 1.123683e+000
<GCONST> 1.001242e+002
<TRANSP> 5
 0.000000e+000 1.000000e+000 0.000000e+000 0.000000e+000 0.000000e+000
 0.000000e+000 6.747944e-001 3.252056e-001 0.000000e+000 0.000000e+000
 0.000000e+000 0.000000e+000 8.277792e-001 1.722208e-001 0.000000e+000
 0.000000e+000 0.000000e+000 0.000000e+000 8.002239e-001 1.997761e-001
 0.000000e+000 0.000000e+000 0.000000e+000 0.000000e+000 0.000000e+000
<ENDHMM>
~h "b"
<BEGINHMM>
<NUMSTATES> 5
<STATE> 2
<MEAN> 25
 -7.707525e+000 8.452939e+000 -4.662013e+000 8.099145e+000 3.733749e-001 -2.289966e+000 -4.654149e-001 -1.066334e-001 2.136628e+000 -2.996377e+000 7.781246e-002 1.566054e+000 -4.677324e-001 4.519031e-001 2.401783e-001 -9.274683e-003 -5.165797e-002 1.901840e-001 -2.180921e-002 -2.728336e-001 -4.028117e-002 2.037682e-001 2.099935e-001 -1.561632e-001 -6.040961e-001
<VARIANCE> 25
 6.496311e+001 2.416004e+001 5.160780e+001 2.560990e+001 4.127201e+001 3.058400e+001 2.864134e+001 3.214568e+001 3.081937e+001 2.956334e+001 2.116171e+001 2.240045e+001 3.542981e-001 6.514918e-001 4.778566e-001 6.641954e-001 9.215446e-001 1.067918e+000 1.121368e+000 1.177624e+000 1.006858e+000 1.709235e+000 1.148864e+000 1.301537e+000 1.065542e-001
<GCONST> 8.378826e+001
<STATE> 3
<MEAN> 25
 -1.123670e+001 1.023984e+001 -1.872304e+000 9.991492e+000 7.507128e-001 1.298655e+000 3.037048e+000 -7.646512e-002 3.139127e+000 -8.827034e-001 1.836220e+000 -3.161400e-001 3.231762e+000 2.853671e+000 2.802740e+000 2.258951e+000 2.119144e+000 1.059412e+000 7.874250e-001 -6.694437e-003 -5.944106e-001 -3.396064e-001 -5.583695e-001 -6.163065e-001 1.830909e+000
<VARIANCE> 25
 1.113470e+002 3.857051e+001 4.786632e+001 2.578628e+001 3.605353e+001 2.667064e+001 2.602408e+001 3.151237e+001 3.306874e+001 1.924715e+001 1.887020e+001 1.449800e+001 6.862390e+000 4.850007e+000 3.982058e+000 2.235176e+000 2.295630e+000 2.750234e+000 2.335413e+000 1.987850e+000 3.264447e+000 1.616056e+000 1.568305e+000 1.535610e+000 3.535463e+000
<GCONST> 9.994978e+001
<STATE> 4
<MEAN> 25
 7.263197e+000 2.342972e+001 6.331006e+000 1.560469e+001 4.088481e+000 1.454285e+000 2.148040e+000 -4.295823e+000 -3.154264e+000 -3.678510e+000 2.884283e-001 -5.249114e-001 2.159536e+000 -3.019594e-001 -5.462871e-001 -4.397270e-001 -4.154521e-001 -3.666809e-001 -5.460989e-001 -6.044899e-001 -7.182340e-001 -1.350084e-001 2.456125e-001 2.536772e-001 1.695713e+000
<VARIANCE> 25
 2.189546e+001 4.739241e+001 2.310298e+001 2.181367e+001 2.684731e+001 1.895848e+001 3.234902e+001 2.872622e+001 2.185241e+001 2.385825e+001 2.602881e+001 1.843329e+001 4.157130e+000 1.381874e+001 7.124278e+000 4.649705e+000 3.039712e+000 2.532533e+000 4.147552e+000 4.090066e+000 3.643330e+000 2.599532e+000 2.587470e+000 2.198005e+000 2.587822e+000
<GCONST> 1.019713e+002
<TRANSP> 5
 0.000000e+000 1.000000e+000 0.000000e+000 0.000000e+000 0.000000e+000
 0.000000e+000 8.781677e-001 1.218323e-001 0.000000e+000 0.000000e+000
 0.000000e+000 0.000000e+000 5.636612e-001 4.363388e-001 0.000000e+000
 0.000000e+000 0.000000e+000 0.000000e+000 8.105023e-001 1.894977e-001
 0.000000e+000 0.000000e+000 0.000000e+000 0.000000e+000 0.000000e+000
<ENDHMM>
~h "c"
<BEGINHMM>
<NUMSTATES> 5
<STATE> 2
<MEAN> 25
 -1.223171e+001 -5.781846e-001 -4.450428e+000 7.127983e+000 2.683195e-001 -4.879720e-001 1.854657e+000 1.169330e+000 4.324912e+000 1.427396e+000 1.548234e+000 1.553473e-001 -1.339179e-001 3.698991e-001 -3.651696e-001 -7.785111e-002 -4.084875e-001 -3.897637e-002 6.885527e-001 2.752798e-001 1.278287e-001 3.443888e-001 -4.000172e-001 -4.247091e-002 -4.405239e-001
<VARIANCE> 25
 1.565312e+002 5.938051e+000 1.518435e+001 1.367577e+001 5.892262e+000 5.656424e+000 1.486259e+001 1.595364e+001 2.225777e+001 6.948737e+000 1.217875e+001 8.914889e+000 7.494126e-002 3.074426e-001 2.609221e-001 3.395613e-001 4.926330e-001 8.340802e-001 5.078758e-001 1.427477e+000 2.086218e+000 7.883904e-001 8.938442e-001 3.950680e-001 1.962562e-001
<GCONST> 6.724425e+001
<STATE> 3
<MEAN> 25
 -1.083659e+001 -2.059428e-002 -6.908787e+000 8.441561e+000 2.403719e-001 -7.287064e-001 3.466877e+000 1.881291e+000 4.461124e+000 2.896067e+000 1.254259e+000 1.666747e-001 3.075317e-001 -1.287955e-001 1.900820e+000 -1.821347e+000 7.387226e-001 -1.518309e-001 6.116303e-001 4.015070e-001 -1.129171e+000 3.786985e-001 -1.068623e+000 2.593837e-001 1.715906e+000
<VARIANCE> 25
 1.197365e+002 3.406789e+000 1.575641e+001 1.204335e+001 1.258623e+001 2.127742e+001 1.369298e+001 1.868938e+001 4.223205e+001 9.447759e+000 1.409653e+001 4.062997e+000 5.575071e+000 3.771800e+000 5.941530e+000 3.127247e+000 2.792674e+000 3.880583e+000 2.218155e+000 1.728946e+000 7.618437e+000 1.420292e+000 2.382944e+000 5.264999e-001 7.362152e+000
<GCONST> 9.267542e+001
<STATE> 4
<MEAN> 25
 -1.133893e+001 -5.309148e+000 1.005130e+001 -4.156805e+000 6.723809e+000 -6.410069e+000 4.314282e+000 -1.542031e+000 1.243869e-001 1.081130e+000 9.016609e-001 2.271359e-002 6.619428e-001 -7.737439e-001 1.570475e+000 -1.350640e+000 5.084937e-001 -1.076314e+000 3.920778e-001 -5.110713e-001 -3.570877e-001 -6.831701e-001 4.792343e-001 -1.288247e-001 3.562113e+000
<VARIANCE> 25
 1.472721e+002 1.083968e+002 6.517307e+001 1.093076e+002 9.581148e+001 1.046905e+002 6.234804e+001 4.769118e+001 8.032407e+001 4.089934e+001 2.980621e+001 1.179601e+001 2.033800e+001 1.051285e+001 1.550879e+001 1.333377e+001 1.357967e+001 1.026961e+001 8.515523e+000 4.744186e+000 8.772038e+000 4.189940e+000 2.825713e+000 2.105099e+000 7.348861e+000
<GCONST> 1.223820e+002
<TRANSP> 5
 0.000000e+000 1.000000e+000 0.000000e+000 0.000000e+000 0.000000e+000
 0.000000e+000 6.068630e-001 3.931370e-001 0.000000e+000 0.000000e+000
 0.000000e+000 0.000000e+000 5.314923e-001 4.685077e-001 0.000000e+000
 0.000000e+000 0.000000e+000 0.000000e+000 8.702163e-001 1.297837e-001
 0.000000e+000 0.000000e+000 0.000000e+000 0.000000e+000 0.000000e+000
<ENDHMM>
~h "d"
<BEGINHMM>
<NUMSTATES> 5
<STATE> 2
<MEAN> 25
 -2.659219e+000 1.203424e+001 5.980256e+000 9.665650e+000 2.858928e+000 2.078180e+000 2.720978e+000 1.675716e+000 4.311258e-002 -2.040501e+000 1.177549e-001 -1.372529e+000 1.856101e+000 1.753193e+000 1.418836e+000 1.762791e+000 9.588453e-001 3.362112e-001 -3.102993e-003 -4.313308e-001 -1.831422e-001 -2.173338e-001 -4.041982e-001 -1.213570e-001 7.724299e-001
<VARIANCE> 25
 6.578152e+001 5.972946e+001 9.300461e+001 3.675340e+001 4.417260e+001 1.950651e+001 2.465645e+001 3.025694e+001 3.701104e+001 2.094405e+001 2.951871e+001 1.485232e+001 4.549215e+000 5.239664e+000 5.044562e+000 2.708517e+000 3.399325e+000 1.969002e+000 1.737149e+000 1.845564e+000 2.714063e+000 1.718185e+000 2.004126e+000 1.416311e+000 1.901109e+000
<GCONST> 1.005473e+002
<STATE> 3
<MEAN> 25
 5.928982e+000 2.173638e+001 9.337358e+000 1.561016e+001 4.026127e+000 -2.678680e+000 -3.091028e+000 -4.486033e+000 -2.607237e+000 -2.233986e+000 7.301626e-001 7.050081e-001 1.082528e+000 -1.382209e+000 4.669318e-001 3.301561e-001 -1.466132e+000 -6.955033e-001 -5.000869e-001 -4.555516e-001 2.598486e-001 -1.119190e-001 -6.448296e-003 8.240414e-001 1.421714e+000
<VARIANCE> 25
 1.178999e+001 1.204829e+002 2.216025e+001 2.732994e+001 2.745345e+001 2.743734e+001 3.202991e+001 3.715775e+001 2.026991e+001 1.912280e+001 2.238440e+001 1.569220e+001 2.777742e+000 1.042125e+001 2.464656e+000 2.192443e+000 3.551587e+000 4.434552e+000 5.606502e+000 5.423692e+000 4.050213e+000 2.216021e+000 3.044680e+000 2.171786e+000 1.591141e+000
<GCONST> 1.009117e+002
<STATE> 4
<MEAN> 25
 8.867202e+000 -3.741485e+000 1.438358e+001 8.655232e+000 -1.176649e+001 -3.468433e+000 -3.359862e+000 1.151773e+000 2.078333e+000 -5.478912e+000 1.457735e+000 4.458274e+000 1.019198e+000 -3.924466e+000 1.046440e+000 -3.449115e+000 -2.937786e+000 -6.352662e-001 -1.022314e+000 8.473861e-001 -1.412435e-001 3.334389e-001 1.391629e+000 -1.902687e-001 3.502980e+000
<VARIANCE> 25
 1.979057e+001 1.410545e+002 3.835144e+001 9.730263e+001 7.971820e+001 5.353162e+001 4.690022e+001 7.278123e+001 5.483129e+001 4.351962e+001 6.532339e+001 3.580058e+001 1.428498e+000 1.947189e+001 6.016153e+000 5.975042e+000 1.538202e+001 8.441412e+000 5.391218e+000 7.888092e+000 7.025985e+000 6.213382e+000 5.720600e+000 5.861125e+000 5.332615e+000
<GCONST> 1.186216e+002
<TRANSP> 5
 0.000000e+000 1.000000e+000 0.000000e+000 0.000000e+000 0.000000e+000
 0.000000e+000 6.824599e-001 3.175400e-001 0.000000e+000 0.000000e+000
 0.000000e+000 0.000000e+000 6.984835e-001 3.015165e-001 0.000000e+000
 0.000000e+000 0.000000e+000 0.000000e+000 6.559426e-001 3.440575e-001
 0.000000e+000 0.000000e+000 0.000000e+000 0.000000e+000 0.000000e+000
<ENDHMM>
~h "e"
<BEGINHMM>
<NUMSTATES> 5
<STATE> 2
<MEAN> 25
 7.277080e+000 4.630785e+000 1.439021e-001 -6.626830e-001 3.989608e-003 2.745273e+000 -2.199911e+000 -2.286062e+000 8.517437e-002 8.423007e-001 4.056441e+000 4.617329e-001 1.083736e-001 9.337064e-001 -6.097135e-002 8.566048e-001 6.090588e-001 4.136310e-001 6.393588e-002 -6.809443e-001 -7.817711e-001 -2.100262e-002 7.064235e-002 -7.094336e-002 -5.840951e-001
<VARIANCE> 25
 6.951327e+001 2.161182e+002 1.418303e+002 1.284025e+002 8.703673e+001 7.942284e+001 4.464410e+001 5.042536e+001 4.267900e+001 3.720349e+001 3.259701e+001 3.198678e+001 8.755716e+000 5.041514e+000 3.186415e+000 5.275894e+000 4.254208e+000 4.074696e+000 3.550073e+000 2.992704e+000 4.810048e+000 2.297775e+000 1.827882e+000 1.944911e+000 8.395449e+000
<GCONST> 1.138781e+002
<STATE> 3
<MEAN> 25
 6.426022e+000 6.000483e+000 3.729816e+000 4.399148e+000 1.131149e+000 -1.736510e+000 -1.953369e+000 -2.643997e+000 -1.904780e+000 3.995907e-002 1.792892e+000 4.060396e-001 7.439306e-001 -4.884055e-001 -4.675254e-002 6.556775e-001 -6.252565e-001 -5.096008e-001 -6.803278e-001 -5.073782e-001 -1.106381e-001 2.789459e-001 -6.065631e-002 3.067739e-003 4.714110e-001
<VARIANCE> 25
 2.860655e+001 2.075956e+002 1.132172e+002 1.190520e+002 8.530092e+001 5.370347e+001 4.038684e+001 3.860026e+001 5.188363e+001 3.964356e+001 3.371798e+001 2.329582e+001 8.156049e+000 1.172353e+001 6.682827e+000 9.443624e+000 6.276196e+000 3.933854e+000 5.478272e+000 5.849711e+000 6.465193e+000 3.554447e+000 2.555167e+000 1.387998e+000 1.061279e+001
<GCONST> 1.163632e+002
<STATE> 4
<MEAN> 25
 1.002948e+001 1.313659e+000 2.429594e+000 4.274438e+000 -1.488140e+000 -1.891439e+000 -6.618469e+000 -5.589859e+000 -8.829833e-001 2.983066e+000 3.155701e+000 -5.328371e-001 3.774149e-001 -3.108284e+000 1.243318e+000 -2.131069e+000 -1.490271e+000 -3.694853e-001 -8.404856e-001 6.568647e-001 7.904003e-001 9.470642e-001 -5.770150e-001 2.140093e-001 2.371588e+000
<VARIANCE> 25
 3.029631e+001 1.121695e+002 1.100498e+002 9.910020e+001 1.237399e+002 6.485844e+001 8.618947e+001 1.113269e+002 6.839188e+001 4.080338e+001 3.861775e+001 2.818160e+001 2.990215e+000 1.589452e+001 8.576732e+000 1.201506e+001 9.922810e+000 4.215194e+000 7.282040e+000 1.059586e+001 8.675572e+000 5.949363e+000 4.060585e+000 2.502029e+000 1.037831e+001
<GCONST> 1.216387e+002
<TRANSP> 5
 0.000000e+000 1.000000e+000 0.000000e+000 0.000000e+000 0.000000e+000
 0.000000e+000 4.588252e-001 5.411748e-001 0.000000e+000 0.000000e+000
 0.000000e+000 0.000000e+000 1.115161e-001 8.884839e-001 0.000000e+000
 0.000000e+000 0.000000e+000 0.000000e+000 5.535723e-001 4.464278e-001
 0.000000e+000 0.000000e+000 0.000000e+000 0.000000e+000 0.000000e+000
<ENDHMM>
~h "f"
<BEGINHMM>
<NUMSTATES> 5
<STATE> 2
<MEAN> 25
 -3.553579e+000 2.098412e+000 4.051730e+000 4.950111e+000 3.210778e+000 8.506332e-001 -3.645373e+000 -1.843113e+000 -3.593216e+000 3.330668e-001 -1.406796e+000 2.279079e+000 -3.932955e-001 1.180537e-001 2.457389e-002 2.006851e-001 1.724755e-001 -1.096339e-001 1.457070e-001 7.279547e-002 -1.205752e-001 4.092183e-002 2.886409e-002 9.611546e-005 1.349346e-001
<VARIANCE> 25
 3.227881e+001 2.497346e+001 3.832529e+001 1.057839e+001 1.869612e+001 2.721975e+001 2.321616e+001 3.098532e+001 1.902257e+001 1.548537e+001 1.220375e+001 1.551727e+001 1.137697e+000 1.273469e+000 1.293631e+000 9.142933e-001 1.627050e+000 2.042139e+000 1.991896e+000 2.161216e+000 1.968787e+000 1.322292e+000 1.063806e+000 1.120841e+000 2.455472e-001
<GCONST> 8.531149e+001
<STATE> 3
<MEAN> 25
 -1.233458e+001 1.030713e+001 6.351235e+000 4.502522e+000 -8.542305e-001 -5.429273e+000 1.489643e+000 -1.938256e+000 -6.846062e+000 2.435481e+000 2.863282e+000 2.612412e+000 -3.004990e-001 1.436820e-001 -8.307274e-002 -2.524063e-001 -2.601525e-001 -4.320309e-001 1.357710e-001 -3.409109e-001 2.848130e-002 -5.396778e-003 -5.231584e-002 -1.560015e-001 2.347901e-001
<VARIANCE> 25
 4.615042e+001 4.790168e+001 2.624202e+001 1.283220e+001 3.933984e+001 1.945209e+001 2.364036e+001 3.297948e+001 2.133779e+001 1.920653e+001 1.490440e+001 1.484722e+001 3.261667e+000 1.230586e+000 2.422661e+000 1.178802e+000 3.225161e+000 1.763378e+000 1.765728e+000 2.202186e+000 2.074878e+000 1.397508e+000 2.101563e+000 1.356812e+000 2.119573e-001
<GCONST> 9.027790e+001
<STATE> 4
<MEAN> 25
 -1.044995e+001 -1.430497e+001 7.263679e+000 -1.034002e+000 4.317302e+000 -1.411156e+001 7.640639e+000 -2.306125e+000 2.213489e+000 -1.396953e+000 -4.218053e-002 1.126391e+000 1.089873e-002 -6.638240e-002 -3.528277e-001 1.417678e-002 -1.422207e-001 -2.275992e-001 -9.547127e-002 -3.036265e-001 6.256014e-001 -1.302876e-001 1.351898e-001 -4.104924e-001 6.567170e-002
<VARIANCE> 25
 1.558724e+001 8.431787e+001 2.742760e+001 1.401471e+001 3.098109e+001 2.692930e+001 3.168247e+001 2.772295e+001 4.033500e+001 2.495329e+001 1.540240e+001 1.706093e+001 3.050013e+000 1.957483e+000 3.368595e+000 1.850763e+000 3.548555e+000 1.731879e+000 1.443966e+000 1.556995e+000 2.981266e+000 2.676006e+000 1.561883e+000 1.981079e+000 2.999687e-001
<GCONST> 9.331471e+001
<TRANSP> 5
 0.000000e+000 1.000000e+000 0.000000e+000 0.000000e+000 0.000000e+000
 0.000000e+000 9.041307e-001 9.586930e-002 0.000000e+000 0.000000e+000
 0.000000e+000 0.000000e+000 8.863211e-001 1.136789e-001 0.000000e+000
 0.000000e+000 0.000000e+000 0.000000e+000 8.179866e-001 1.820133e-001
 0.000000e+000 0.000000e+000 0.000000e+000 0.000000e+000 0.000000e+000
<ENDHMM>
~h "g"
<BEGINHMM>
<NUMSTATES> 5
<STATE> 2
<MEAN> 25
 4.930884e+000 1.822095e+000 1.200501e+001 1.093256e+001 -3.115474e+000 -6.054479e+000 -5.107393e+000 2.900935e+000 -3.624605e+000 -1.522828e+000 2.955564e+000 2.904151e+000 7.596942e-001 -1.939307e+000 1.681740e+000 -2.388720e+000 -1.396165e+000 -1.281337e+000 -1.145932e+000 8.350570e-001 -8.046762e-001 4.211864e-001 8.164241e-001 5.937204e-001 2.374261e+000
<VARIANCE> 25
 1.685269e+001 1.105917e+002 6.175993e+001 8.694695e+001 6.101370e+001 3.612426e+001 4.440454e+001 4.544192e+001 4.409233e+001 2.771608e+001 3.597137e+001 2.061689e+001 1.519152e+000 6.087957e+000 5.080078e+000 9.688874e+000 4.983120e+000 2.715284e+000 2.687209e+000 3.593432e+000 4.021258e+000 3.628474e+000 4.721465e+000 1.799194e+000 2.217786e+000
<GCONST> 1.077005e+002
<STATE> 3
<MEAN> 25
 6.947730e+000 -9.880440e+000 1.620414e+001 -1.217948e+001 -3.960397e+000 -1.031793e+001 -4.753710e+000 1.100338e+001 -2.278845e+000 6.444039e+000 -4.503283e-001 2.183777e+000 -7.882522e-002 -8.828681e-001 -1.232298e+000 -1.527839e+000 1.342461e+000 -5.076696e-002 1.324522e+000 6.986512e-001 1.064391e+000 8.604857e-001 -1.887659e+000 -5.378273e-001 7.271423e-001
<VARIANCE> 25
 6.491244e+000 2.735068e+001 2.225873e+001 1.672354e+001 2.243113e+001 1.602157e+001 2.796640e+001 2.074799e+001 3.141040e+001 1.750644e+001 3.149321e+001 1.552699e+001 2.867047e-001 7.168991e-001 9.430335e-001 1.998989e+000 1.473367e+000 1.168662e+000 1.454870e+000 1.488755e+000 1.862613e+000 2.358962e+000 9.302369e-001 1.297868e+000 6.156815e-001
<GCONST> 8.334729e+001
<STATE> 4
<MEAN> 25
 4.588098e+000 -1.276547e+001 7.215135e+000 -1.403439e+001 3.125598e+000 -6.726984e+000 2.194856e+000 1.010634e+001 1.829376e+000 5.265969e+000 -1.126785e+001 -1.506581e+000 -4.384654e-001 2.255709e-001 -7.226974e-001 6.808701e-001 1.395434e-001 5.763807e-001 3.370304e-001 -4.619890e-001 1.704812e-001 -3.490734e-001 -3.135595e-001 -2.668899e-001 -8.657863e-001
<VARIANCE> 25
 1.195307e+001 2.419526e+001 1.780358e+001 3.898520e+001 2.142169e+001 3.612877e+001 2.120474e+001 3.606251e+001 1.751392e+001 1.805832e+001 2.232458e+001 1.920573e+001 4.120606e-001 1.088691e+000 5.144407e-001 2.219225e+000 1.747560e+000 1.662659e+000 1.362791e+000 1.585277e+000 1.214800e+000 1.249544e+000 2.074553e+000 1.512048e+000 1.010172e+000
<GCONST> 8.600362e+001
<TRANSP> 5
 0.000000e+000 1.000000e+000 0.000000e+000 0.000000e+000 0.000000e+000
 0.000000e+000 8.599529e-001 1.400472e-001 0.000000e+000 0.000000e+000
 0.000000e+000 0.000000e+000 8.405992e-001 1.594007e-001 0.000000e+000
 0.000000e+000 0.000000e+000 0.000000e+000 8.964082e-001 1.035918e-001
 0.000000e+000 0.000000e+000 0.000000e+000 0.000000e+000 0.000000e+000
<ENDHMM>
~h "h"
<BEGINHMM>
<NUMSTATES> 5
<STATE> 2
<MEAN> 25
 -1.435272e+000 -8.495244e+000 -6.899579e+000 1.280773e+000 3.222997e+000 4.100258e+000 4.259513e+000 -6.472262e-001 -2.006791e+000 -2.586235e+000 -2.954145e+000 -2.682248e-001 -3.515074e-001 6.824299e-001 -4.419560e-001 1.349296e-001 -4.132605e-002 -2.176927e-001 -4.210303e-001 -1.523674e-001 -2.096555e-001 -7.286809e-002 1.118613e-001 3.218937e-001 -8.185088e-001
<VARIANCE> 25
 1.735366e+001 8.016348e+001 3.732496e+001 1.680721e+001 2.317669e+001 1.873174e+001 2.472904e+001 1.207803e+001 1.703813e+001 1.948666e+001 2.553423e+001 1.450943e+001 2.135744e-001 4.004315e-001 6.651611e-001 7.704309e-001 1.262842e+000 1.015459e+000 2.006778e+000 1.182621e+000 1.801198e+000 1.721617e+000 1.201761e+000 1.607578e+000 1.724378e-001
<GCONST> 8.113697e+001
<STATE> 3
<MEAN> 25
 -6.890100e+000 2.861327e+000 2.280265e+000 2.558853e+000 4.116989e+000 1.736289e+000 -4.378521e+000 -2.353791e+000 -1.591649e+000 -3.990453e-001 -3.562306e-001 2.262089e+000 -3.773614e-001 2.494387e-001 1.726602e-001 -5.808983e-002 -1.292397e-001 -2.585875e-002 -1.178665e-001 -1.755437e-001 -6.355827e-002 6.794319e-002 2.130188e-001 3.776691e-002 7.730919e-003
<VARIANCE> 25
 4.766816e+001 1.667061e+001 6.444017e+001 1.054796e+001 1.930126e+001 1.308520e+001 3.353936e+001 1.782870e+001 2.016179e+001 1.828855e+001 3.099224e+001 1.404745e+001 3.653118e-001 4.885595e-001 4.255506e-001 7.388822e-001 1.353938e+000 1.513392e+000 1.594844e+000 1.465972e+000 1.820384e+000 1.715819e+000 1.957406e+000 9.213281e-001 2.780976e-001
<GCONST> 8.219315e+001
<STATE> 4
<MEAN> 25
 -7.297870e+000 -7.577678e+000 -2.681067e+000 3.950423e+000 1.193753e+000 6.327308e+000 2.204871e+000 3.611342e+000 -2.043285e+000 -1.383806e+000 3.468185e+000 -1.339357e+000 -4.084019e-001 1.882945e-001 -1.448582e-001 1.041368e-001 -5.690628e-001 1.313209e-001 1.493636e-001 6.630262e-002 5.934459e-002 -9.220541e-002 1.720175e-001 -9.740195e-002 -4.436883e-001
<VARIANCE> 25
 1.287836e+002 2.087359e+002 1.148715e+002 6.429784e+000 3.751730e+001 3.880938e+001 3.856011e+001 3.947291e+001 4.304115e+001 2.435206e+001 2.656032e+001 1.543383e+001 2.603099e+000 1.432491e+000 1.807871e+000 8.600042e-001 2.480423e+000 1.932122e+000 1.525914e+000 1.705212e+000 2.657866e+000 1.745501e+000 2.006937e+000 1.535938e+000 1.518021e+000
<GCONST> 9.769144e+001
<TRANSP> 5
 0.000000e+000 1.000000e+000 0.000000e+000 0.000000e+000 0.000000e+000
 0.000000e+000 6.971900e-001 3.028100e-001 0.000000e+000 0.000000e+000
 0.000000e+000 0.000000e+000 9.055877e-001 9.441224e-002 0.000000e+000
 0.000000e+000 0.000000e+000 0.000000e+000 8.143124e-001 1.856876e-001
 0.000000e+000 0.000000e+000 0.000000e+000 0.000000e+000 0.000000e+000
<ENDHMM>
~h "i"
<BEGINHMM>
<NUMSTATES> 5
<STATE> 2
<MEAN> 25
 -2.686933e+000 -1.068143e+000 1.165028e+001 4.266227e+000 -6.457612e+000 -3.700571e+000 2.701837e+000 -1.946584e+000 -2.315382e+000 -2.382629e+000 3.678181e+000 2.290297e+000 2.629009e+000 -9.731088e-001 5.897594e+000 -1.274724e+000 -3.520236e+000 5.301749e-001 -7.292604e-001 -1.317655e+000 -2.720211e+000 -1.070314e-001 9.232494e-001 -5.763783e-001 3.644805e+000
<VARIANCE> 25
 7.595067e+001 7.372108e+001 1.142162e+002 1.558029e+002 1.515778e+002 1.089111e+002 1.216424e+002 9.342155e+001 6.952123e+001 6.325818e+001 3.724305e+001 4.450379e+001 6.175519e+000 1.204335e+001 1.342963e+001 1.231821e+001 1.108777e+001 8.679242e+000 7.934604e+000 6.576344e+000 7.549462e+000 4.740084e+000 3.702802e+000 3.250365e+000 9.160781e+000
<GCONST> 1.254352e+002
<STATE> 3
<MEAN> 25
 3.650830e+000 -2.017782e+000 3.151198e+001 -3.126831e+000 -1.596630e+001 1.889346e+000 -3.146893e+000 -3.712547e+000 -1.220222e+001 -2.747079e+000 6.253192e+000 -2.515806e+000 1.149726e-001 -4.776522e-001 4.418426e+000 -3.952305e+000 -1.420558e+000 1.611714e+000 -1.567316e+000 3.845321e-001 -1.757360e+000 -3.590159e-001 -2.098253e-001 -9.828033e-001 1.927333e+000
<VARIANCE> 25
 1.864235e+001 3.706719e+001 8.550945e+001 7.875002e+001 6.197421e+001 6.950587e+001 5.792690e+001 6.559776e+001 6.401754e+001 4.895614e+001 2.850529e+001 2.103641e+001 9.981431e-001 3.114162e+000 1.157936e+001 6.966132e+000 7.237153e+000 5.681860e+000 6.160306e+000 4.308513e+000 5.244073e+000 3.903931e+000 3.041691e+000 3.121220e+000 2.553062e+000
<GCONST> 1.110839e+002
<STATE> 4
<MEAN> 25
 1.662113e+000 3.214227e-001 2.991878e+001 -7.971701e+000 -1.212773e+001 1.375888e+000 -3.552477e+000 -1.000744e+000 -1.279685e+001 -1.817020e+000 2.721164e+000 -2.346619e+000 -1.424319e-001 2.521777e-001 -1.296519e+000 6.768944e-001 6.653794e-001 -3.887239e-001 2.844390e-001 2.682232e-001 4.165054e-001 1.789750e-001 -2.747335e-001 3.122019e-001 -7.812020e-001
<VARIANCE> 25
 1.867445e+001 2.802474e+001 1.176065e+002 6.981630e+001 4.843737e+001 4.859545e+001 4.125599e+001 4.274157e+001 5.144461e+001 3.381297e+001 2.406123e+001 2.479717e+001 4.726139e-001 1.164530e+000 3.523122e+000 3.245122e+000 3.225490e+000 2.539906e+000 2.182057e+000 2.350105e+000 2.261072e+000 1.971985e+000 1.735929e+000 1.444412e+000 1.005563e+000
<GCONST> 9.830878e+001
<TRANSP> 5
 0.000000e+000 1.000000e+000 0.000000e+000 0.000000e+000 0.000000e+000
 0.000000e+000 5.042301e-001 4.957699e-001 0.000000e+000 0.000000e+000
 0.000000e+000 0.000000e+000 6.029589e-001 3.970412e-001 0.000000e+000
 0.000000e+000 0.000000e+000 0.000000e+000 9.079575e-001 9.204251e-002
 0.000000e+000 0.000000e+000 0.000000e+000 0.000000e+000 0.000000e+000
<ENDHMM>
~h "j"
<BEGINHMM>
<NUMSTATES> 5
<STATE> 2
<MEAN> 25
 -2.050743e+000 1.346083e+001 -1.447339e+000 1.286796e+001 3.575646e+000 -4.656449e+000 -4.379931e+000 1.014490e+000 4.427331e+000 -2.729834e+000 -1.080289e+000 7.017528e-001 6.738989e-001 7.607309e-001 2.826354e-001 5.977729e-001 9.307092e-001 3.950465e-002 6.920707e-002 -2.325408e-001 -6.355488e-002 1.711981e-001 -8.418910e-002 3.041663e-001 2.568687e-001
<VARIANCE> 25
 8.026969e+001 8.864410e+001 4.316098e+001 2.528994e+001 3.694308e+001 2.608808e+001 2.758571e+001 3.913131e+001 5.528834e+001 8.486582e+000 1.111136e+001 1.029618e+001 4.220887e+000 2.192293e+000 1.898085e+000 3.613670e+000 2.550982e+000 4.042574e+000 2.771442e+000 2.429442e+000 2.649992e+000 1.745464e+000 1.507708e+000 1.233242e+000 1.762357e+000
<GCONST> 9.766758e+001
<STATE> 3
<MEAN> 25
 1.197239e+000 9.590566e+000 1.346914e+001 -1.283129e+000 1.815405e+001 -1.040727e+001 -6.930066e-001 -9.585592e-001 3.381320e-001 4.938797e+000 -3.084121e+000 6.666941e+000 -4.650840e-001 -2.806018e+000 2.477257e+000 -3.825876e+000 3.734526e-002 -2.860823e+000 4.499450e-001 8.345093e-002 -1.754810e+000 -1.635088e-001 -7.500129e-001 1.167049e+000 3.201150e+000
<VARIANCE> 25
 2.960620e+001 1.045678e+002 4.613664e+001 1.087365e+002 1.328893e+002 8.295790e+001 7.648259e+001 2.665597e+001 4.240393e+001 3.059389e+001 2.228352e+001 1.779012e+001 6.050866e+000 4.946951e+000 3.093631e+000 7.292861e+000 2.932311e+001 6.049786e+000 6.974737e+000 7.239479e+000 2.742726e+000 7.677746e+000 2.041831e+000 1.472317e+000 2.648239e+000
<GCONST> 1.133211e+002
<STATE> 4
<MEAN> 25
 3.760442e+000 -7.133133e+000 1.707509e+001 -1.046385e+001 3.382066e-001 -1.513236e+001 6.553832e+000 6.516613e+000 -2.860972e+000 2.361611e+000 -4.439450e+000 5.903668e+000 7.232142e-002 -1.612516e-001 -1.932326e-001 7.363118e-003 -1.837780e-001 1.080094e-001 2.698742e-001 1.454466e-003 5.934608e-002 3.749500e-002 1.277703e-002 -4.399642e-002 5.855380e-002
<VARIANCE> 25
 2.134668e+001 5.128219e+001 3.708588e+001 5.170846e+001 4.734402e+001 3.172819e+001 6.186359e+001 6.129795e+001 6.726334e+001 2.339490e+001 6.507889e+001 1.109268e+001 1.041361e+000 2.003401e+000 3.297292e+000 3.858095e+000 6.609521e+000 2.550762e+000 3.342234e+000 4.221529e+000 5.209352e+000 1.800865e+000 4.513529e+000 1.179919e+000 2.164735e+000
<GCONST> 1.034363e+002
<TRANSP> 5
 0.000000e+000 1.000000e+000 0.000000e+000 0.000000e+000 0.000000e+000
 0.000000e+000 9.068009e-001 9.319914e-002 0.000000e+000 0.000000e+000
 0.000000e+000 0.000000e+000 7.673516e-001 2.326484e-001 0.000000e+000
 0.000000e+000 0.000000e+000 0.000000e+000 9.480605e-001 5.193947e-002
 0.000000e+000 0.000000e+000 0.000000e+000 0.000000e+000 0.000000e+000
<ENDHMM>
~h "k"
<BEGINHMM>
<NUMSTATES> 5
<STATE> 2
<MEAN> 25
 -5.141509e+000 3.749036e+000 -4.474690e+000 2.145072e+000 -8.116896e-002 8.574232e-001 -1.286048e+000 -1.590333e+000 6.591225e-001 -2.072292e-001 1.032828e-001 -4.728466e-001 -3.364968e-001 2.169358e-001 -2.361750e-001 3.941271e-001 1.266704e-001 -1.300870e-002 6.260653e-003 5.351270e-002 8.413005e-002 3.982634e-002 1.186839e-001 1.794986e-001 -5.369733e-001
<VARIANCE> 25
 4.524607e+001 4.950915e+001 4.885847e+001 2.710472e+001 2.952180e+001 2.717632e+001 1.879619e+001 2.221010e+001 2.119589e+001 1.689421e+001 1.986126e+001 1.549176e+001 2.242997e-001 5.422285e-001 8.490357e-001 7.767628e-001 9.905035e-001 1.098622e+000 1.079987e+000 1.440585e+000 1.258462e+000 1.115637e+000 1.173215e+000 1.153502e+000 1.918615e-001
<GCONST> 8.217565e+001
<STATE> 3
<MEAN> 25
 -5.362268e+000 2.447441e+000 -5.134096e+000 2.618306e+000 1.087323e+000 -3.383648e-003 -9.043344e-001 -3.240774e-002 1.851834e-001 3.688314e-001 -5.084214e-001 2.570977e-001 5.861770e-001 -1.883598e+000 -1.732026e+000 -1.595747e-001 1.224747e+000 -2.333750e-001 -8.318683e-002 7.859291e-001 9.670112e-001 3.844410e-001 -2.790482e-001 -1.335042e-001 1.788793e+000
<VARIANCE> 25
 4.704472e+001 3.661817e+001 4.945256e+001 2.660115e+001 3.344746e+001 2.095271e+001 2.023495e+001 3.194080e+001 2.837008e+001 2.340982e+001 2.146402e+001 1.735302e+001 3.872378e+000 6.371247e+000 4.739888e+000 3.694607e+000 5.565388e+000 4.656854e+000 7.621073e+000 4.963314e+000 2.703952e+000 3.345923e+000 2.525015e+000 2.667304e+000 3.382276e+000
<GCONST> 1.043075e+002
<STATE> 4
<MEAN> 25
 1.384387e+000 -1.054340e+001 -8.538263e+000 -8.270515e-001 9.228905e+000 -3.445468e+000 -5.013529e+000 4.183657e+000 5.140728e+000 2.955639e+000 -2.093555e+000 -1.660155e+000 2.555678e+000 -2.122738e+000 8.099419e-001 -2.079609e+000 -1.111559e-001 3.616870e-002 7.477919e-001 5.913882e-001 4.420587e-001 8.546208e-001 -3.710195e-001 -1.069282e+000 3.978717e+000
<VARIANCE> 25
 7.816571e+001 7.542577e+001 1.029267e+002 1.042609e+002 1.412409e+002 9.266286e+001 9.886268e+001 8.368694e+001 6.649973e+001 5.253540e+001 4.004964e+001 3.745288e+001 4.834279e+000 1.014816e+001 9.952235e+000 6.738362e+000 1.926951e+001 7.429555e+000 1.251244e+001 8.205139e+000 6.367014e+000 5.206272e+000 3.344681e+000 3.399221e+000 5.189896e+000
<GCONST> 1.231547e+002
<TRANSP> 5
 0.000000e+000 1.000000e+000 0.000000e+000 0.000000e+000 0.000000e+000
 0.000000e+000 8.581122e-001 1.418878e-001 0.000000e+000 0.000000e+000
 0.000000e+000 0.000000e+000 6.222060e-001 3.777940e-001 0.000000e+000
 0.000000e+000 0.000000e+000 0.000000e+000 7.180579e-001 2.819421e-001
 0.000000e+000 0.000000e+000 0.000000e+000 0.000000e+000 0.000000e+000
<ENDHMM>
~h "l"
<BEGINHMM>
<NUMSTATES> 5
<STATE> 2
<MEAN> 25
 3.842114e+000 5.131449e+000 -3.677547e+000 1.350045e+000 4.797259e-002 -2.574350e+000 -3.380002e+000 2.421097e+000 6.180463e+000 1.810315e+000 -1.697626e-002 -2.179862e-001 3.277239e+000 -4.226598e-001 5.400313e-001 -2.023492e+000 8.752458e-003 3.091252e-001 -1.529410e+000 -2.410992e-001 6.931587e-002 9.923795e-001 -2.929665e-002 -3.731423e-001 3.170917e+000
<VARIANCE> 25
 1.338010e+002 1.660620e+002 1.315398e+002 1.388116e+002 7.195130e+001 1.075327e+002 8.931967e+001 7.402742e+001 6.165981e+001 6.097576e+001 4.084038e+001 4.770609e+001 9.972878e+000 8.460199e+000 1.066528e+001 9.185569e+000 5.573540e+000 7.484080e+000 7.362344e+000 6.404797e+000 4.460523e+000 4.578350e+000 2.944938e+000 3.773936e+000 8.126538e+000
<GCONST> 1.234494e+002
<STATE> 3
<MEAN> 25
 1.337383e+001 -3.921524e+000 1.265148e+000 -1.165090e+001 -1.841110e+000 4.217859e+000 -5.526592e+000 -3.381248e+000 3.757100e+000 7.205430e+000 -5.306082e-001 -1.694835e+000 -3.786454e-001 -2.386289e+000 1.219616e+000 -9.561531e-001 1.685961e-001 8.147169e-001 2.946573e-001 -2.545027e-001 2.360379e-001 4.059613e-001 -9.940792e-001 -3.480454e-002 1.499062e+000
<VARIANCE> 25
 3.270586e+001 7.497884e+001 1.712455e+002 7.330495e+001 8.318784e+001 1.540710e+002 9.331498e+001 1.289854e+002 5.483224e+001 4.839988e+001 5.562794e+001 4.313183e+001 5.061895e-001 5.487904e+000 4.156874e+000 4.626243e+000 5.270910e+000 5.704416e+000 6.768133e+000 7.529619e+000 4.538491e+000 4.945280e+000 3.881675e+000 3.184777e+000 1.806690e+000
<GCONST> 1.152402e+002
<STATE> 4
<MEAN> 25
 9.114040e+000 -6.619006e+000 7.591370e+000 -1.631371e+001 2.551787e+000 -1.978104e+000 -8.070040e+000 -1.778173e+000 2.568397e+000 1.137781e+001 -3.131044e+000 -5.376747e-001 -1.643411e-002 7.097252e-002 -4.384147e-001 1.518731e-001 1.364813e-001 4.085793e-001 4.939154e-001 -1.403682e-001 -3.293891e-001 -4.068352e-002 5.219379e-003 -2.270412e-001 -2.292785e-001
<VARIANCE> 25
 1.342288e+001 3.559010e+001 5.951856e+001 5.480999e+001 5.388769e+001 9.118073e+001 9.579967e+001 1.064555e+002 5.262484e+001 3.979011e+001 4.519487e+001 3.874261e+001 2.920587e-001 1.519964e+000 1.273271e+000 2.437254e+000 2.190336e+000 2.148162e+000 2.484135e+000 3.148653e+000 2.500672e+000 2.545351e+000 2.093202e+000 1.496661e+000 6.409822e-001
<GCONST> 9.952450e+001
<TRANSP> 5
 0.000000e+000 1.000000e+000 0.000000e+000 0.000000e+000 0.000000e+000
 0.000000e+000 6.492318e-001 3.507681e-001 0.000000e+000 0.000000e+000
 0.000000e+000 0.000000e+000 5.552680e-001 4.447320e-001 0.000000e+000
 0.000000e+000 0.000000e+000 0.000000e+000 8.229946e-001 1.770054e-001
 0.000000e+000 0.000000e+000 0.000000e+000 0.000000e+000 0.000000e+000
<ENDHMM>
~h "m"
<BEGINHMM>
<NUMSTATES> 5
<STATE> 2
<MEAN> 25
 9.415273e+000 1.496767e+000 3.639356e+000 6.270400e+000 3.395644e+000 6.911871e+000 8.035995e-001 -1.092233e+001 -1.022494e+001 2.198666e-001 3.387491e-001 2.318384e+000 7.537373e-002 5.654197e-001 -1.081503e-001 6.169086e-001 -2.161769e-001 1.231919e-001 8.463838e-002 -1.890891e-001 -7.919072e-002 -1.707048e-001 -8.132443e-002 2.559872e-001 -4.638717e-001
<VARIANCE> 25
 4.487597e+001 2.951134e+001 5.662603e+001 2.395319e+001 3.523124e+001 3.226579e+001 3.389585e+001 3.301758e+001 4.117265e+001 3.891030e+001 2.933765e+001 2.044656e+001 1.158259e-001 3.714916e-001 4.697267e-001 7.457547e-001 8.148304e-001 9.374240e-001 8.195698e-001 1.364388e+000 1.628457e+000 1.326663e+000 1.089191e+000 1.003161e+000 1.114369e-001
<GCONST> 8.249223e+001
<STATE> 3
<MEAN> 25
 1.872725e+000 5.668258e+000 -5.496953e-001 7.686813e+000 1.788172e+000 4.089464e+000 6.857793e-002 -5.751960e+000 -1.756968e+000 -1.103328e+000 -6.376154e-001 2.158226e+000 -3.528196e-001 -1.106895e-001 -4.308428e-001 -8.501016e-002 -1.340600e-001 -3.317861e-001 2.082080e-001 5.439754e-001 6.703514e-001 2.438144e-001 1.150383e-001 -3.397838e-001 -2.880367e-001
<VARIANCE> 25
 1.107155e+002 3.211364e+001 4.503023e+001 2.084829e+001 2.362450e+001 2.798440e+001 2.155873e+001 4.327838e+001 3.610513e+001 2.067315e+001 3.034886e+001 2.102164e+001 1.206415e+000 8.764644e-001 1.286336e+000 1.432022e+000 1.228341e+000 1.553986e+000 1.322856e+000 2.129185e+000 1.660502e+000 1.417389e+000 1.386416e+000 1.318788e+000 7.107184e-001
<GCONST> 9.084032e+001
<STATE> 4
<MEAN> 25
 5.973871e+000 8.571472e+000 -4.657035e+000 9.461571e+000 5.084051e+000 4.647312e+000 1.170136e+000 -7.445865e+000 -5.432934e+000 -1.068267e+000 3.047090e+000 1.218780e+000 2.641428e+000 -8.598405e-001 -5.662142e-001 -1.019428e+000 -5.287074e-002 5.355290e-001 -3.185081e-001 -5.877889e-003 1.138861e-001 -4.614974e-001 -1.830653e-002 -6.390214e-002 2.465090e+000
<VARIANCE> 25
 1.503518e+002 1.236917e+002 7.720610e+001 5.221935e+001 4.615952e+001 3.590956e+001 4.014390e+001 7.859428e+001 7.830875e+001 3.227792e+001 3.684674e+001 1.422237e+001 8.157379e+000 1.335817e+001 7.902551e+000 9.677920e+000 5.555455e+000 5.827240e+000 5.432468e+000 1.072385e+001 1.307591e+001 3.404825e+000 3.287540e+000 1.877045e+000 3.421706e+000
<GCONST> 1.170623e+002
<TRANSP> 5
 0.000000e+000 1.000000e+000 0.000000e+000 0.000000e+000 0.000000e+000
 0.000000e+000 8.593413e-001 1.406588e-001 0.000000e+000 0.000000e+000
 0.000000e+000 0.000000e+000 6.927752e-001 3.072248e-001 0.000000e+000
 0.000000e+000 0.000000e+000 0.000000e+000 6.874746e-001 3.125254e-001
 0.000000e+000 0.000000e+000 0.000000e+000 0.000000e+000 0.000000e+000
<ENDHMM>
~h "n"
<BEGINHMM>
<NUMSTATES> 5
<STATE> 2
<MEAN> 25
 6.806586e+000 -7.891775e+000 1.387074e+001 -9.318575e+000 -2.702928e+000 -5.916226e+000 1.646245e+000 4.405015e+000 -4.171823e+000 3.187401e+000 -3.066477e+000 5.916327e-001 -1.203048e-001 2.224859e+000 4.116533e-001 1.887604e+000 -3.013622e-001 -2.606558e-001 -1.095456e+000 -2.406196e+000 -4.511670e-001 6.967236e-001 2.374723e-001 3.031144e-001 -1.781154e+000
<VARIANCE> 25
 1.554704e+001 3.879218e+001 1.561863e+002 1.068315e+002 6.631197e+001 3.008122e+001 4.843801e+001 5.915481e+001 5.998018e+001 2.897546e+001 4.735083e+001 1.536621e+001 2.778525e-001 2.819589e+000 2.419338e+000 4.713531e+000 2.269242e+000 1.480744e+000 2.178981e+000 4.349542e+000 2.246516e+000 1.689626e+000 1.523818e+000 1.098454e+000 1.669894e+000
<GCONST> 9.969279e+001
<STATE> 3
<MEAN> 25
 9.173340e+000 1.631472e+000 6.913290e+000 3.929230e+000 -3.059336e+000 -6.631303e+000 -4.257071e+000 -5.411930e+000 -4.259681e+000 3.523616e+000 -4.143373e+000 1.198359e+000 3.333949e-003 7.355847e-001 -2.359184e-001 6.670516e-001 -1.543609e-001 2.499769e-001 -1.367504e-001 -2.461150e-001 1.581869e-001 -1.337953e-001 2.007813e-001 4.307743e-002 -6.574765e-001
<VARIANCE> 25
 7.726442e+000 2.338452e+001 2.957182e+001 3.456562e+001 3.083222e+001 2.287230e+001 2.960685e+001 4.838554e+001 2.589528e+001 2.797374e+001 2.837490e+001 1.444444e+001 1.229565e-001 3.015963e-001 5.269585e-001 6.460154e-001 1.094257e+000 9.169369e-001 1.026004e+000 1.275445e+000 1.162059e+000 1.130919e+000 1.039027e+000 1.026701e+000 7.443091e-002
<GCONST> 7.814031e+001
<STATE> 4
<MEAN> 25
 2.191797e+000 4.737848e+000 5.221901e-001 9.327987e+000 7.962944e-001 -7.342044e-001 -3.764422e-002 -1.906496e-001 2.500668e-001 -3.423574e-001 -4.635424e-001 1.659364e+000 -7.752057e-001 -2.414402e-002 -6.765369e-001 1.502923e-002 3.912040e-002 1.534661e-001 2.465307e-001 3.273318e-001 2.693463e-001 -2.293627e-001 2.183245e-001 8.152264e-002 -8.084547e-001
<VARIANCE> 25
 2.177329e+001 1.794670e+001 3.996964e+001 2.042605e+001 3.178064e+001 2.495029e+001 2.420057e+001 3.102191e+001 2.269256e+001 2.097820e+001 2.076338e+001 1.784330e+001 3.372313e-001 6.242918e-001 1.163494e+000 1.128742e+000 1.459785e+000 2.105972e+000 1.846165e+000 1.822995e+000 1.526700e+000 1.373639e+000 1.295237e+000 1.420423e+000 1.838855e-001
<GCONST> 8.470495e+001
<TRANSP> 5
 0.000000e+000 1.000000e+000 0.000000e+000 0.000000e+000 0.000000e+000
 0.000000e+000 7.534716e-001 2.465284e-001 0.000000e+000 0.000000e+000
 0.000000e+000 0.000000e+000 9.015372e-001 9.846281e-002 0.000000e+000
 0.000000e+000 0.000000e+000 0.000000e+000 8.981105e-001 1.018895e-001
 0.000000e+000 0.000000e+000 0.000000e+000 0.000000e+000 0.000000e+000
<ENDHMM>
~h "o"
<BEGINHMM>
<NUMSTATES> 5
<STATE> 2
<MEAN> 25
 6.513868e+000 -6.974024e+000 2.023186e+001 -1.275642e+001 -5.308179e+000 -7.468488e+000 -4.940843e+000 4.532991e+000 -1.311353e+001 8.175200e+000 2.416944e+000 1.084819e+000 4.004778e-001 7.102013e-002 -1.855903e+000 -1.505749e+000 1.090395e+000 3.073784e-001 3.987852e-001 -1.459123e-001 7.044427e-001 1.017457e+000 7.197949e-002 5.412523e-001 2.466019e-001
<VARIANCE> 25
 5.214374e+001 4.914666e+001 1.672824e+002 5.676640e+001 2.564227e+001 2.382963e+001 1.153884e+001 1.546172e+001 7.650615e+001 3.757473e+001 1.345893e+001 7.610653e+000 1.624501e-001 3.761235e-001 1.504368e+000 1.642353e+000 1.546713e+000 5.542357e+000 2.382371e+000 1.948264e+000 4.768824e+000 1.320892e+000 2.903786e+000 1.545459e+000 1.909520e-001
<GCONST> 9.062540e+001
<STATE> 3
<MEAN> 25
 1.157238e+001 -9.566277e+000 5.600179e+000 -1.873192e+001 6.963713e-001 -1.015666e+000 -2.431170e+000 4.232778e+000 -2.902479e+000 9.205780e+000 1.205248e-001 1.245797e+000 -1.196574e-001 2.130476e-001 -1.811951e-001 5.907587e-001 -1.818374e-001 -2.693332e-001 3.606263e-001 1.098440e-001 2.791563e-001 -4.943421e-001 -1.288198e-001 -4.899054e-002 -3.320813e-001
<VARIANCE> 25
 3.798476e+001 3.888546e+001 2.504560e+001 6.993559e+001 1.600342e+001 1.367855e+002 7.690553e+001 8.667862e+001 9.486655e+000 2.637879e+001 1.748463e+001 1.418180e+001 4.121935e-001 2.369030e+000 1.014972e+000 2.139769e+000 1.437868e+000 6.473658e+000 5.996412e+000 4.630483e+000 1.592606e+000 1.012236e+000 2.299299e+000 1.484464e+000 1.605020e+000
<GCONST> 9.672956e+001
<STATE> 4
<MEAN> 25
 6.040879e+000 -2.259375e+000 6.245810e-002 -1.399451e+000 -3.210548e+000 1.453308e+000 3.382877e+000 -1.398039e+000 -3.960724e-002 -1.333538e-001 -7.378428e-002 -1.521172e-001 -1.349736e+000 1.585148e+000 5.516133e-001 3.240166e+000 1.632895e+000 1.472469e+000 -8.014358e-001 -2.135437e+000 -1.344196e+000 -1.399225e+000 -9.636106e-001 -1.953464e-001 -2.352076e+000
<VARIANCE> 25
 1.615610e+002 5.929990e+001 3.187616e+001 5.263627e+001 4.106894e+001 5.374808e+001 3.135917e+000 2.711281e+001 1.523386e+001 2.312696e+001 1.267228e+001 5.825533e+000 5.424895e-001 1.356468e+000 1.678015e+000 4.752254e+000 1.805122e+000 1.902381e+000 4.988651e-001 8.326088e-001 3.996469e+000 6.236393e-001 7.064142e-001 1.285583e+000 1.730942e+000
<GCONST> 8.833856e+001
<TRANSP> 5
 0.000000e+000 1.000000e+000 0.000000e+000 0.000000e+000 0.000000e+000
 0.000000e+000 7.799290e-001 2.200710e-001 0.000000e+000 0.000000e+000
 0.000000e+000 0.000000e+000 9.032040e-001 9.679601e-002 0.000000e+000
 0.000000e+000 0.000000e+000 0.000000e+000 4.789920e-001 5.210080e-001
 0.000000e+000 0.000000e+000 0.000000e+000 0.000000e+000 0.000000e+000
<ENDHMM>
~h "p"
<BEGINHMM>
<NUMSTATES> 5
<STATE> 2
<MEAN> 25
 -2.089143e+000 1.821283e+000 -1.274739e+000 2.641690e+000 -2.289222e+000 -1.817953e-002 -2.322327e+000 -1.562447e+000 2.964506e-001 2.271079e-002 6.890815e-001 6.438264e-001 -4.294077e-001 3.005914e-001 -6.221514e-001 2.287850e-001 -1.828727e-002 -1.034768e-001 1.535152e-001 -6.280511e-002 1.905248e-001 -7.179188e-002 2.335040e-002 1.687149e-002 -7.382526e-001
<VARIANCE> 25
 1.766737e+001 2.956306e+001 4.091129e+001 2.717234e+001 2.719864e+001 2.003408e+001 2.111112e+001 2.669763e+001 2.564533e+001 2.042660e+001 2.149436e+001 1.698645e+001 1.916624e-001 3.407634e-001 7.028297e-001 7.139268e-001 1.003740e+000 9.943486e-001 1.036656e+000 1.076004e+000 1.296176e+000 1.284312e+000 1.171333e+000 1.161413e+000 1.027995e-001
<GCONST> 7.924673e+001
<STATE> 3
<MEAN> 25
 -5.529613e+000 3.263328e+000 -3.444640e+000 4.366596e+000 -5.928938e-002 6.656480e-001 -1.167368e+000 -2.077468e+000 2.586374e-001 -6.929328e-001 2.042787e-001 8.956962e-001 3.453817e-001 -5.035879e-001 -9.528411e-001 -3.104688e-001 4.363968e-002 -5.810704e-002 4.919875e-001 2.497395e-001 -6.240051e-002 1.227307e-001 -1.455549e-002 -9.204333e-002 4.541327e-001
<VARIANCE> 25
 6.030077e+001 2.425134e+001 4.050951e+001 1.579229e+001 2.362785e+001 1.671439e+001 1.933530e+001 2.569101e+001 2.071280e+001 1.520110e+001 1.420622e+001 1.698602e+001 8.964508e-001 9.113666e-001 1.752019e+000 2.333938e+000 1.998268e+000 1.681081e+000 2.202004e+000 2.089474e+000 1.647482e+000 1.642962e+000 2.200745e+000 1.492008e+000 6.350353e-001
<GCONST> 8.879556e+001
<STATE> 4
<MEAN> 25
 4.009292e+000 -1.731523e+000 -8.535445e+000 4.139515e+000 -2.174688e+000 6.157265e-001 2.478983e+000 -1.404938e+000 -1.358932e+000 -5.764825e-001 1.651410e+000 -5.595385e-001 3.865679e+000 -2.103758e+000 -1.076870e+000 -2.015895e+000 -4.803008e-001 6.405969e-001 1.110430e+000 3.784134e-001 -8.283476e-001 5.096344e-001 1.841031e-001 -1.006816e+000 4.185561e+000
<VARIANCE> 25
 8.434558e+001 6.620807e+001 5.550372e+001 7.088308e+001 3.572510e+001 4.470104e+001 3.974152e+001 2.999970e+001 3.190089e+001 2.600809e+001 2.621845e+001 2.921359e+001 3.947271e+000 1.059415e+001 6.040622e+000 1.095132e+001 4.919112e+000 5.316212e+000 4.402769e+000 4.091170e+000 3.222764e+000 4.873006e+000 2.883478e+000 3.626514e+000 6.459296e+000
<GCONST> 1.117207e+002
<TRANSP> 5
 0.000000e+000 1.000000e+000 0.000000e+000 0.000000e+000 0.000000e+000
 0.000000e+000 8.866010e-001 1.133989e-001 0.000000e+000 0.000000e+000
 0.000000e+000 0.000000e+000 4.282973e-001 5.717028e-001 0.000000e+000
 0.000000e+000 0.000000e+000 0.000000e+000 6.131617e-001 3.868383e-001
 0.000000e+000 0.000000e+000 0.000000e+000 0.000000e+000 0.000000e+000
<ENDHMM>
~h "r"
<BEGINHMM>
<NUMSTATES> 5
<STATE> 2
<MEAN> 25
 1.044578e+001 -1.104676e+001 5.886216e+000 -6.241193e+000 -3.722417e+000 -3.440620e+000 -5.659936e+000 -3.940520e-001 -5.347806e-001 5.781882e+000 -5.732631e-001 1.691007e+000 2.969094e-001 -4.162298e-001 -1.070104e+000 1.678877e+000 -1.081132e-001 -5.219565e-001 -1.258670e-001 -2.233547e-001 1.647544e+000 -4.563864e-001 -9.813624e-001 8.171222e-001 -2.897598e-001
<VARIANCE> 25
 1.718207e+001 3.185602e+001 9.027098e+001 7.860736e+001 4.773065e+001 6.588064e+001 9.135243e+001 8.756006e+001 7.581886e+001 4.313979e+001 5.066403e+001 3.490202e+001 9.057923e-001 1.420242e+000 1.472508e+000 5.956370e+000 2.773785e+000 3.053929e+000 2.677891e+000 2.602815e+000 2.588091e+000 3.822653e+000 1.979154e+000 2.291982e+000 1.002745e+000
<GCONST> 1.040386e+002
<STATE> 3
<MEAN> 25
 9.228441e+000 -8.073047e+000 -1.193097e+000 6.083928e+000 -7.070794e-001 2.696771e-001 -3.461238e+000 4.281036e-001 7.359643e+000 1.124259e+000 -3.493210e+000 4.395639e+000 -8.132179e-001 7.376646e-001 -2.760192e-001 9.279203e-001 5.866544e-001 6.207345e-001 4.352376e-001 2.811398e-001 8.703478e-002 -3.920751e-001 1.937451e-001 1.335000e-002 -1.265838e+000
<VARIANCE> 25
 2.376479e+001 2.375973e+001 4.304245e+001 4.752838e+001 3.817886e+001 4.403248e+001 6.055498e+001 5.850000e+001 4.097158e+001 3.216891e+001 3.700241e+001 3.611834e+001 1.067382e+000 1.159402e+000 1.427048e+000 2.024466e+000 2.493030e+000 2.517431e+000 2.768777e+000 2.672381e+000 2.336887e+000 1.965497e+000 1.660217e+000 2.186903e+000 7.464070e-001
<GCONST> 9.752174e+001
<STATE> 4
<MEAN> 25
 -1.673258e+000 1.398681e+000 -8.731487e+000 7.737699e+000 8.839821e-001 -9.627507e-001 -1.607644e+000 3.272868e-002 5.174932e+000 -1.010827e+000 -1.150732e+000 9.977595e-001 -4.618397e-001 6.661612e-001 -2.468503e-001 -1.011404e-001 -8.142298e-002 -1.470404e-001 2.858888e-002 -1.597793e-001 -1.828552e-001 -3.107083e-002 1.552022e-001 -2.174026e-001 -7.148397e-001
<VARIANCE> 25
 2.238201e+001 3.460809e+001 4.405650e+001 1.840323e+001 2.718397e+001 2.327933e+001 1.801153e+001 2.044509e+001 2.050076e+001 1.665563e+001 1.755746e+001 1.828136e+001 2.280357e-001 3.139091e-001 7.708859e-001 6.619464e-001 8.633469e-001 1.137673e+000 1.107906e+000 1.180272e+000 1.284206e+000 1.220157e+000 1.031408e+000 1.148924e+000 1.046441e-001
<GCONST> 7.856304e+001
<TRANSP> 5
 0.000000e+000 1.000000e+000 0.000000e+000 0.000000e+000 0.000000e+000
 0.000000e+000 7.936471e-001 2.063529e-001 0.000000e+000 0.000000e+000
 0.000000e+000 0.000000e+000 8.508448e-001 1.491552e-001 0.000000e+000
 0.000000e+000 0.000000e+000 0.000000e+000 9.082656e-001 9.173442e-002
 0.000000e+000 0.000000e+000 0.000000e+000 0.000000e+000 0.000000e+000
<ENDHMM>
~h "s"
<BEGINHMM>
<NUMSTATES> 5
<STATE> 2
<MEAN> 25
 3.395712e+000 -3.810762e+000 4.903159e+000 -4.049779e+000 1.108033e+001 -6.194261e+000 4.666169e+000 1.002294e+000 -1.792065e-001 -4.172553e-001 -4.175730e+000 6.248432e+000 -1.613374e+000 9.242083e-002 1.378996e+000 -2.020434e+000 3.382855e+000 -3.005350e+000 1.818215e+000 -1.747246e+000 6.566022e-002 -2.497486e-001 3.816845e-001 7.862324e-006 1.980804e+000
<VARIANCE> 25
 1.007980e+002 9.626857e+001 1.176452e+002 8.573399e+001 1.014819e+002 1.114274e+002 6.759423e+001 9.959223e+001 4.339029e+001 4.705477e+001 3.882599e+001 2.524873e+001 8.695116e+000 8.306427e+000 8.175025e+000 7.660544e+000 6.052230e+000 7.270554e+000 5.711163e+000 1.094369e+001 6.050704e+000 5.318319e+000 4.067281e+000 3.837144e+000 7.033797e+000
<GCONST> 1.215095e+002
<STATE> 3
<MEAN> 25
 -1.009445e+001 -1.331531e+000 9.300182e+000 -1.151189e+001 2.030967e+001 -1.571453e+001 1.277620e+001 -5.849256e+000 4.251505e+000 -1.673493e+000 7.750716e-001 1.799301e+000 -3.865751e-001 1.146419e-001 -1.930482e-001 2.025146e-001 -3.261426e-001 3.782974e-001 -3.242269e-001 1.430011e-001 2.137584e-001 1.012376e-001 1.378393e-001 -2.321196e-001 -5.558671e-001
<VARIANCE> 25
 9.356303e+001 4.698837e+001 4.891443e+001 4.049719e+001 4.296004e+001 3.394179e+001 3.357201e+001 2.482601e+001 2.649333e+001 1.964763e+001 2.455051e+001 1.742820e+001 6.459363e+000 3.088969e+000 2.844778e+000 3.194201e+000 2.387157e+000 2.531815e+000 2.318288e+000 2.359191e+000 2.366138e+000 1.916123e+000 2.291740e+000 1.555471e+000 2.627609e+000
<GCONST> 1.006980e+002
<STATE> 4
<MEAN> 25
 -7.963272e+000 3.001354e+000 1.851379e+000 -2.918871e+000 9.066562e+000 -6.199515e+000 2.858329e+000 -5.003856e-001 4.654717e-001 1.266717e+000 -2.085057e+000 8.854985e-001 1.506895e-001 4.411460e-001 -9.374894e-001 6.124110e-001 -9.127004e-001 5.497683e-001 -4.853904e-001 3.412083e-001 -3.518817e-001 -5.338915e-002 -1.306257e-003 -3.479559e-002 -1.114256e+000
<VARIANCE> 25
 2.337322e+001 2.810884e+001 5.342041e+001 2.996846e+001 3.579453e+001 2.131226e+001 2.577256e+001 2.176670e+001 1.999604e+001 1.449840e+001 1.610290e+001 1.184457e+001 5.334973e-001 6.865695e-001 6.443853e-001 9.986130e-001 8.089757e-001 1.031850e+000 1.077322e+000 1.259170e+000 1.445707e+000 9.376130e-001 1.202964e+000 8.974798e-001 1.406391e-001
<GCONST> 8.079850e+001
<TRANSP> 5
 0.000000e+000 1.000000e+000 0.000000e+000 0.000000e+000 0.000000e+000
 0.000000e+000 7.780206e-001 2.219795e-001 0.000000e+000 0.000000e+000
 0.000000e+000 0.000000e+000 9.111693e-001 8.883068e-002 0.000000e+000
 0.000000e+000 0.000000e+000 0.000000e+000 8.692415e-001 1.307586e-001
 0.000000e+000 0.000000e+000 0.000000e+000 0.000000e+000 0.000000e+000
<ENDHMM>
~h "t"
<BEGINHMM>
<NUMSTATES> 5
<STATE> 2
<MEAN> 25
 -1.100627e+001 6.727180e+000 -6.592835e+000 5.131248e+000 -1.105257e+000 -1.033665e+000 1.210364e-001 7.337089e-002 2.074468e+000 -1.459651e+000 1.187372e+000 -3.468539e-001 -4.844391e-001 8.336599e-002 -3.239131e-002 1.934672e-001 -6.204686e-002 -1.992514e-002 2.072694e-002 -5.672778e-002 4.602592e-003 -5.398562e-002 9.176674e-002 -1.693607e-002 -4.677341e-001
<VARIANCE> 25
 5.790630e+001 3.026014e+001 2.467889e+001 2.139610e+001 1.920880e+001 2.090321e+001 2.101236e+001 2.450513e+001 2.201921e+001 1.418533e+001 1.562806e+001 1.320442e+001 2.378100e-001 3.689095e-001 6.629514e-001 5.691038e-001 8.321816e-001 8.794765e-001 1.058786e+000 1.179436e+000 1.361035e+000 1.048733e+000 1.001772e+000 1.149853e+000 1.522527e-001
<GCONST> 7.811456e+001
<STATE> 3
<MEAN> 25
 -9.743825e+000 6.242152e+000 -4.364567e+000 4.806459e+000 -1.902509e-001 1.315759e-002 7.032942e-001 2.023116e-001 1.490469e+000 -1.028469e+000 1.143306e+000 4.046432e-002 1.209509e+000 -1.132059e+000 1.527771e-001 -7.826504e-002 -5.203013e-001 -5.323437e-001 7.634085e-001 8.871502e-001 1.798894e-002 5.166489e-002 3.124585e-001 1.570256e-002 1.834573e+000
<VARIANCE> 25
 8.463420e+001 3.695990e+001 2.739022e+001 1.980298e+001 1.654363e+001 2.846483e+001 2.495613e+001 1.729075e+001 2.156949e+001 1.590669e+001 1.499116e+001 1.556583e+001 4.497675e+000 5.220993e+000 3.609741e+000 2.752893e+000 4.190785e+000 4.091846e+000 5.271437e+000 3.871564e+000 3.784452e+000 2.509163e+000 1.957636e+000 2.416406e+000 2.847348e+000
<GCONST> 9.996528e+001
<STATE> 4
<MEAN> 25
 -1.570215e+000 -4.710175e+000 -8.168547e-001 1.486589e+000 -6.998582e-001 -2.256431e+000 -3.359457e+000 3.387258e+000 6.546978e-001 2.824910e-001 1.908535e+000 -3.747783e-001 4.233258e+000 -3.182610e+000 2.373045e+000 -2.736944e+000 -4.096604e-001 -4.993425e-001 -9.891934e-001 8.578583e-001 -1.603855e+000 5.999152e-001 3.904649e-001 -4.227279e-002 6.087132e+000
<VARIANCE> 25
 8.360625e+001 1.025814e+002 7.831046e+001 6.987749e+001 7.071967e+001 7.963181e+001 1.092728e+002 4.831340e+001 8.344324e+001 3.696003e+001 3.788211e+001 2.742049e+001 7.038054e+000 1.299201e+001 8.818252e+000 1.058262e+001 1.165859e+001 8.528608e+000 1.291187e+001 7.881414e+000 1.158183e+001 5.172941e+000 4.907502e+000 4.774399e+000 7.305065e+000
<GCONST> 1.233079e+002
<TRANSP> 5
 0.000000e+000 1.000000e+000 0.000000e+000 0.000000e+000 0.000000e+000
 0.000000e+000 8.773553e-001 1.226446e-001 0.000000e+000 0.000000e+000
 0.000000e+000 0.000000e+000 4.566211e-001 5.433789e-001 0.000000e+000
 0.000000e+000 0.000000e+000 0.000000e+000 6.090086e-001 3.909914e-001
 0.000000e+000 0.000000e+000 0.000000e+000 0.000000e+000 0.000000e+000
<ENDHMM>
~h "u"
<BEGINHMM>
<NUMSTATES> 5
<STATE> 2
<MEAN> 25
 1.432700e+001 6.599947e+000 -2.378965e+000 -6.038126e+000 -4.845005e+000 1.559849e+000 -3.289811e-001 -1.930294e+000 -6.539400e+000 -2.617012e+000 1.797958e+000 6.086313e-001 8.315191e-001 6.895555e-001 1.626402e-001 -3.440569e+000 -3.338769e-001 8.691980e-001 -5.358369e-001 8.437443e-002 -1.117421e+000 1.042496e-001 5.396345e-001 -1.419540e-001 9.738681e-001
<VARIANCE> 25
 4.224831e+001 7.228707e+001 8.083334e+001 1.243914e+002 4.998492e+001 4.141774e+001 5.617969e+001 5.933290e+001 6.928632e+001 4.958020e+001 3.721324e+001 2.869962e+001 2.359389e+000 4.708059e+000 4.621020e+000 5.175093e+000 4.093957e+000 3.563556e+000 4.530865e+000 5.364331e+000 4.773454e+000 4.461131e+000 3.650807e+000 2.508663e+000 1.178639e+000
<GCONST> 1.109401e+002
<STATE> 3
<MEAN> 25
 1.142642e+001 5.518972e+000 5.432916e+000 -2.281035e+001 -2.708410e+000 3.800110e+000 -8.280442e+000 1.911992e-001 -1.203249e+001 -1.713328e-001 1.522373e+000 -1.129841e+000 -2.921994e-001 2.877024e-001 -2.064478e-001 -1.256179e-001 -7.575630e-002 3.254591e-002 -2.802553e-002 -1.496052e-003 5.825123e-001 1.915512e-001 -3.348853e-001 -1.756496e-001 -3.934117e-001
<VARIANCE> 25
 1.650907e+001 4.200694e+001 5.152617e+001 1.177963e+002 3.879837e+001 5.334144e+001 4.424825e+001 6.506353e+001 5.500791e+001 7.377641e+001 4.302429e+001 3.684034e+001 3.386411e-001 1.186896e+000 1.474263e+000 6.102016e+000 1.382438e+000 2.403331e+000 2.588631e+000 2.878921e+000 2.787107e+000 3.766633e+000 2.074643e+000 1.967579e+000 9.271294e-001
<GCONST> 1.006535e+002
<STATE> 4
<MEAN> 25
 5.974804e+000 1.100087e+001 -5.461542e+000 -7.141582e+000 -4.714938e+000 2.549537e-001 -1.194752e+000 -1.227945e+000 -2.086496e+000 -1.874442e+000 5.212230e-001 -4.886829e-003 -7.569355e-001 1.529195e-002 -3.310920e-001 7.353113e-001 1.794224e-001 -1.232336e-001 1.384591e-001 -1.794749e-001 3.061806e-001 1.009819e-001 4.584579e-002 2.209996e-002 -8.018058e-001
<VARIANCE> 25
 6.381072e+001 3.668944e+001 4.405462e+001 5.675074e+001 4.538709e+001 3.681163e+001 3.954120e+001 3.529235e+001 3.181656e+001 4.469217e+001 2.467182e+001 1.985207e+001 5.752745e-001 5.364962e-001 1.019695e+000 1.872009e+000 1.405562e+000 1.654174e+000 1.428970e+000 1.695088e+000 1.562625e+000 1.661797e+000 1.467042e+000 1.226582e+000 4.872866e-001
<GCONST> 9.166743e+001
<TRANSP> 5
 0.000000e+000 1.000000e+000 0.000000e+000 0.000000e+000 0.000000e+000
 0.000000e+000 7.423481e-001 2.576519e-001 0.000000e+000 0.000000e+000
 0.000000e+000 0.000000e+000 8.013073e-001 1.986928e-001 0.000000e+000
 0.000000e+000 0.000000e+000 0.000000e+000 8.911466e-001 1.088534e-001
 0.000000e+000 0.000000e+000 0.000000e+000 0.000000e+000 0.000000e+000
<ENDHMM>
~h "w"
<BEGINHMM>
<NUMSTATES> 5
<STATE> 2
<MEAN> 25
 -8.220905e+000 3.785918e+000 -1.165648e+000 1.315929e+001 -6.280654e+000 -7.166328e+000 1.890695e+000 3.319192e+000 7.863103e-001 -6.684079e+000 3.600065e+000 3.152617e+000 2.153417e+000 1.473676e+000 2.351511e-001 -4.865842e-001 -7.591655e-001 -5.175301e-001 2.297077e-001 4.106755e-001 -1.792504e-001 -7.380018e-001 -4.241549e-001 1.326901e-002 1.118524e+000
<VARIANCE> 25
 1.800226e+002 2.033156e+002 9.345736e+001 1.732695e+002 6.689633e+001 5.726920e+001 4.510459e+001 5.556402e+001 2.803913e+001 4.406377e+001 4.351802e+001 4.473317e+001 7.494373e+000 6.696969e+000 6.701554e+000 5.295343e+000 5.359299e+000 3.554303e+000 2.978348e+000 2.242363e+000 3.031725e+000 3.922951e+000 2.809425e+000 1.539487e+000 3.891852e+000
<GCONST> 1.145478e+002
<STATE> 3
<MEAN> 25
 1.537611e+001 1.717350e+001 -5.801266e+000 -1.086776e+001 -1.214420e+001 2.102892e+000 3.770783e+000 -1.811978e+000 -2.407317e+000 -7.723121e+000 6.796131e-001 5.453626e+000 6.175580e-001 -2.067184e+000 -4.394137e-001 -2.956198e+000 -2.836445e-003 3.314625e+000 -2.094132e-001 -1.288973e+000 4.687591e-001 9.074526e-001 1.332438e+000 1.249956e+000 1.758619e+000
<VARIANCE> 25
 7.686098e+000 4.536529e+001 2.662294e+001 4.649999e+001 2.713177e+001 8.101396e+001 2.003332e+001 2.527018e+001 4.484417e+001 2.304664e+001 2.413480e+001 2.041182e+001 1.341750e+000 3.840519e+000 3.522987e+000 2.204110e+000 3.561039e+000 7.143703e+000 3.848659e+000 1.636460e+000 2.965520e+000 4.471585e+000 1.984781e+000 2.534346e+000 6.330959e-001
<GCONST> 9.849401e+001
<STATE> 4
<MEAN> 25
 1.365640e+001 -3.010808e+000 -1.520500e-001 -2.186280e+001 -3.366242e+000 1.832975e+001 -6.255600e+000 -7.819436e+000 3.128441e+000 7.256537e+000 5.246373e+000 -1.329335e+000 -9.818832e-001 -4.366775e+000 1.625100e+000 1.940752e-001 2.401142e+000 -5.856087e-001 -1.266892e+000 1.584702e+000 1.099156e+000 2.384146e+000 -1.563347e+000 -2.898685e+000 2.161758e+000
<VARIANCE> 25
 4.918355e+000 5.489698e+001 4.556105e+001 1.928499e+001 3.425057e+001 4.246783e+001 5.429322e+001 4.476551e+001 5.143055e+001 3.802143e+001 3.748003e+001 4.159353e+001 2.558330e-001 1.087497e+000 2.249349e+000 3.906737e+000 4.360955e+000 1.248415e+001 4.200927e+000 8.495795e+000 5.538231e+000 6.330244e+000 5.127367e+000 2.469779e+000 2.653894e-001
<GCONST> 1.015674e+002
<TRANSP> 5
 0.000000e+000 1.000000e+000 0.000000e+000 0.000000e+000 0.000000e+000
 0.000000e+000 8.223040e-001 1.776960e-001 0.000000e+000 0.000000e+000
 0.000000e+000 0.000000e+000 8.061249e-001 1.938751e-001 0.000000e+000
 0.000000e+000 0.000000e+000 0.000000e+000 7.878760e-001 2.121240e-001
 0.000000e+000 0.000000e+000 0.000000e+000 0.000000e+000 0.000000e+000
<ENDHMM>
~h "y"
<BEGINHMM>
<NUMSTATES> 5
<STATE> 2
<MEAN> 25
 1.565769e-007 -6.290797e-008 -2.937665e-007 -4.371385e-008 5.392831e-009 -1.134847e-007 1.048326e-008 1.461609e-009 6.497437e-008 2.474654e-008 2.793856e-008 3.496100e-008 6.361995e-003 4.308552e-003 2.542655e-003 -9.878381e-004 4.629357e-004 7.091404e-004 -2.578934e-003 -6.028318e-003 -4.543920e-003 -2.417521e-003 -2.678531e-003 -6.849539e-003 3.474661e-003
<VARIANCE> 25
 1.482363e+002 1.186289e+002 1.358767e+002 1.150533e+002 6.856859e+001 5.959438e+001 5.340210e+001 5.644455e+001 5.966214e+001 3.805057e+001 3.493165e+001 2.775295e+001 2.220379e+000 3.354012e+000 3.076584e+000 3.783211e+000 3.009660e+000 2.603472e+000 2.703241e+000 2.901384e+000 2.795699e+000 2.264799e+000 1.906537e+000 1.789198e+000 2.980222e+000
<GCONST> 1.090549e+002
<STATE> 3
<MEAN> 25
 1.565769e-007 -6.290797e-008 -2.937665e-007 -4.371385e-008 5.392831e-009 -1.134847e-007 1.048326e-008 1.461609e-009 6.497437e-008 2.474654e-008 2.793856e-008 3.496100e-008 6.361995e-003 4.308552e-003 2.542655e-003 -9.878381e-004 4.629357e-004 7.091404e-004 -2.578934e-003 -6.028318e-003 -4.543920e-003 -2.417521e-003 -2.678531e-003 -6.849539e-003 3.474661e-003
<VARIANCE> 25
 1.482363e+002 1.186289e+002 1.358767e+002 1.150533e+002 6.856859e+001 5.959438e+001 5.340210e+001 5.644455e+001 5.966214e+001 3.805057e+001 3.493165e+001 2.775295e+001 2.220379e+000 3.354012e+000 3.076584e+000 3.783211e+000 3.009660e+000 2.603472e+000 2.703241e+000 2.901384e+000 2.795699e+000 2.264799e+000 1.906537e+000 1.789198e+000 2.980222e+000
<GCONST> 1.090549e+002
<STATE> 4
<MEAN> 25
 1.565769e-007 -6.290797e-008 -2.937665e-007 -4.371385e-008 5.392831e-009 -1.134847e-007 1.048326e-008 1.461609e-009 6.497437e-008 2.474654e-008 2.793856e-008 3.496100e-008 6.361995e-003 4.308552e-003 2.542655e-003 -9.878381e-004 4.629357e-004 7.091404e-004 -2.578934e-003 -6.028318e-003 -4.543920e-003 -2.417521e-003 -2.678531e-003 -6.849539e-003 3.474661e-003
<VARIANCE> 25
 1.482363e+002 1.186289e+002 1.358767e+002 1.150533e+002 6.856859e+001 5.959438e+001 5.340210e+001 5.644455e+001 5.966214e+001 3.805057e+001 3.493165e+001 2.775295e+001 2.220379e+000 3.354012e+000 3.076584e+000 3.783211e+000 3.009660e+000 2.603472e+000 2.703241e+000 2.901384e+000 2.795699e+000 2.264799e+000 1.906537e+000 1.789198e+000 2.980222e+000
<GCONST> 1.090549e+002
<TRANSP> 5
 0.000000e+000 1.000000e+000 0.000000e+000 0.000000e+000 0.000000e+000
 0.000000e+000 6.000000e-001 4.000000e-001 0.000000e+000 0.000000e+000
 0.000000e+000 0.000000e+000 6.000000e-001 4.000000e-001 0.000000e+000
 0.000000e+000 0.000000e+000 0.000000e+000 7.000000e-001 3.000000e-001
 0.000000e+000 0.000000e+000 0.000000e+000 0.000000e+000 0.000000e+000
<ENDHMM>
~h "ay"
<BEGINHMM>
<NUMSTATES> 5
<STATE> 2
<MEAN> 25
 -6.043872e+000 -4.738281e+000 -1.400604e+001 1.372568e+001 5.314197e+000 -3.239676e+000 2.290928e+000 6.779139e+000 3.591642e+000 -8.723969e+000 -1.430655e+000 6.292355e+000 -3.213397e-002 5.335178e-001 -1.542629e-001 -5.882980e-001 -2.754771e-001 6.428916e-001 4.282774e-001 -5.411332e-001 -1.706267e-001 2.737917e-001 1.339265e-001 -4.363798e-001 -2.560898e-001
<VARIANCE> 25
 7.146642e+001 1.276990e+002 4.653772e+001 5.239611e+001 1.135982e+001 9.289908e+001 4.800935e+001 4.894658e+001 5.265295e+001 2.460146e+001 1.451885e+001 2.048103e+001 9.055843e-001 4.728442e+000 2.482957e+000 2.626416e+000 1.541784e+000 3.829337e+000 2.204564e+000 2.501384e+000 2.161199e+000 2.316041e+000 1.746083e+000 1.498970e+000 1.413332e+000
<GCONST> 1.001812e+002
<STATE> 3
<MEAN> 25
 1.058426e+001 4.394070e+000 -1.015337e+001 6.280777e+000 2.688292e+000 1.077936e+001 3.452269e+000 -8.668235e+000 -2.275008e+000 -2.350559e+000 2.771689e+000 1.876453e+000 1.430105e+000 -1.873281e+000 8.215073e-002 -1.198236e+000 -2.430220e-001 1.097114e+000 -8.312144e-001 1.703011e-001 1.187590e+000 -2.615439e-001 2.939205e-002 -1.966202e-001 2.101365e+000
<VARIANCE> 25
 8.086002e+001 1.267755e+002 6.917065e+001 7.661313e+001 6.109435e+001 4.463287e+001 2.496383e+001 7.318895e+001 8.778965e+001 2.152904e+001 2.039965e+001 1.891378e+001 8.476691e+000 1.556936e+001 6.261049e+000 4.946798e+000 4.202574e+000 3.277016e+000 3.819518e+000 7.834421e+000 1.456223e+001 3.461080e+000 2.372358e+000 2.063631e+000 5.921318e+000
<GCONST> 1.143024e+002
<STATE> 4
<MEAN> 25
 1.226724e+001 -2.008930e+001 2.315058e+000 -4.307354e+000 -5.865270e-001 9.003140e+000 -2.375964e+000 7.198062e+000 5.077754e+000 -9.357350e+000 -1.354756e+000 2.946811e-001 -7.371430e-001 -4.422680e-001 1.856079e+000 -4.779732e-001 -8.303195e-001 -1.449079e+000 1.102651e+000 9.865242e-001 -8.637321e-001 3.787816e-001 2.215894e-001 -1.688971e-001 4.776834e-001
<VARIANCE> 25
 2.321651e+001 3.020437e+001 5.473668e+001 5.206345e+001 5.093409e+001 5.799403e+001 6.071551e+001 3.276375e+001 5.144506e+001 2.466110e+001 1.076643e+001 2.052192e+001 3.434144e-001 3.440479e+000 2.031860e+000 2.638263e+000 2.585067e+000 1.964771e+000 4.431014e+000 2.096720e+000 3.155034e+000 3.401318e+000 1.736293e+000 1.113268e+000 5.028943e-001
<GCONST> 9.662967e+001
<TRANSP> 5
 0.000000e+000 1.000000e+000 0.000000e+000 0.000000e+000 0.000000e+000
 0.000000e+000 8.301269e-001 1.698732e-001 0.000000e+000 0.000000e+000
 0.000000e+000 0.000000e+000 8.665243e-001 1.334756e-001 0.000000e+000
 0.000000e+000 0.000000e+000 0.000000e+000 9.167185e-001 8.328155e-002
 0.000000e+000 0.000000e+000 0.000000e+000 0.000000e+000 0.000000e+000
<ENDHMM>
~h "eh"
<BEGINHMM>
<NUMSTATES> 5
<STATE> 2
<MEAN> 25
 9.066159e+000 -1.199259e+001 7.493414e+000 -5.932550e+000 -1.180036e+001 -9.886287e+000 6.041955e+000 1.285947e+001 -3.344641e+000 7.867471e-001 3.924701e+000 -6.674549e-001 -4.589857e-001 -1.242906e+000 2.046196e+000 -3.126207e+000 -4.506454e-001 -1.471134e-001 1.267285e+000 2.758291e-001 -9.801428e-001 9.789578e-001 7.234720e-001 -6.203552e-001 1.711163e+000
<VARIANCE> 25
 2.020055e+001 5.005150e+001 1.035133e+002 2.676447e+001 4.951667e+001 4.362642e+001 5.423910e+001 2.969233e+001 5.294776e+001 3.037500e+001 2.131996e+001 1.890490e+001 8.236189e-001 2.053839e+000 6.493236e+000 4.213332e+000 3.500002e+000 3.516579e+000 3.949912e+000 3.935835e+000 2.226235e+000 2.649765e+000 2.742748e+000 7.320374e-001 1.903685e+000
<GCONST> 1.014411e+002
<STATE> 3
<MEAN> 25
 6.369761e+000 -1.058185e+001 7.776985e+000 -8.284626e+000 -9.544398e+000 -1.248293e+001 7.883111e+000 7.735496e+000 -1.909398e+000 6.985514e-001 4.071715e+000 2.240779e+000 -6.238869e-002 -2.022995e-001 -4.126797e-001 -3.828002e-001 7.045662e-001 -6.547806e-002 -2.142210e-002 -2.358067e-002 5.703537e-001 3.362657e-001 -4.626475e-001 -3.229450e-002 1.096080e-001
<VARIANCE> 25
 1.253979e+001 1.942859e+001 1.479440e+002 2.870890e+001 4.501266e+001 2.458353e+001 6.221923e+001 2.707996e+001 6.640456e+001 2.096019e+001 3.236874e+001 3.355352e+001 1.490525e-001 7.270272e-001 1.275390e+000 9.413886e-001 2.094549e+000 1.867124e+000 2.257060e+000 1.250087e+000 2.373752e+000 2.549290e+000 1.150238e+000 1.553045e+000 1.020226e-001
<GCONST> 8.892336e+001
<STATE> 4
<MEAN> 25
 1.046923e+001 -1.668006e+001 1.222169e+001 -9.881557e+000 -1.104794e+001 -6.140543e+000 2.670855e+000 1.469339e+001 -5.041085e+000 2.505166e+000 4.325771e+000 -2.377607e+000 1.762033e-001 2.571200e-002 -8.213141e-001 2.040826e-001 8.950804e-001 4.457400e-001 -4.860874e-001 -8.148292e-002 7.820510e-001 -9.387529e-002 -8.522199e-001 -1.909584e-001 -1.417769e-001
<VARIANCE> 25
 1.023893e+001 1.906312e+001 5.258142e+001 1.666567e+001 4.225669e+001 4.178818e+001 2.856689e+001 1.903981e+001 2.878163e+001 1.902889e+001 2.453180e+001 8.960162e+000 1.782041e-001 2.989516e-001 1.089351e+000 6.630336e-001 1.266669e+000 9.398170e-001 1.535842e+000 1.822881e+000 1.092274e+000 1.361148e+000 1.316555e+000 7.944306e-001 1.457897e-001
<GCONST> 7.993227e+001
<TRANSP> 5
 0.000000e+000 1.000000e+000 0.000000e+000 0.000000e+000 0.000000e+000
 0.000000e+000 5.632780e-001 4.367220e-001 0.000000e+000 0.000000e+000
 0.000000e+000 0.000000e+000 7.909312e-001 2.090688e-001 0.000000e+000
 0.000000e+000 0.000000e+000 0.000000e+000 7.827030e-001 2.172969e-001
 0.000000e+000 0.000000e+000 0.000000e+000 0.000000e+000 0.000000e+000
<ENDHMM>
~h "ng"
<BEGINHMM>
<NUMSTATES> 5
<STATE> 2
<MEAN> 25
 1.181495e+001 -9.385791e+000 -3.771502e+000 -7.112627e+000 3.230573e+000 1.199784e+001 -3.401075e+000 -7.787827e-001 -3.841306e-001 -4.532247e+000 -3.305236e-001 -5.775952e-001 -1.061569e-002 1.382068e+000 -1.461744e-001 7.907696e-001 -6.866408e-001 -2.317804e-001 3.555880e-001 -5.781798e-001 -7.446201e-001 -2.123784e-001 4.340755e-001 5.906541e-001 -1.041150e+000
<VARIANCE> 25
 5.750914e+000 4.340723e+001 1.888825e+001 4.875165e+001 3.151010e+001 2.844513e+001 2.344542e+001 2.645262e+001 3.253039e+001 2.300362e+001 1.043790e+001 1.438180e+001 1.109517e-001 5.044333e-001 6.163943e-001 9.898319e-001 1.201647e+000 9.875087e-001 1.549329e+000 1.130351e+000 1.310550e+000 1.100706e+000 6.832088e-001 7.655691e-001 2.409815e-001
<GCONST> 7.879942e+001
<STATE> 3
<MEAN> 25
 9.163527e+000 1.919630e+000 -3.638259e+000 1.918768e+000 2.821476e+000 8.187865e+000 -4.667608e-001 -5.584131e+000 -5.027613e+000 -3.304213e+000 2.239019e+000 4.814647e-001 -5.812321e-001 6.669874e-001 9.756672e-002 1.284446e+000 5.439698e-001 5.318088e-002 5.444067e-001 1.043512e-001 4.079179e-001 2.138356e-001 -1.319887e-001 -2.171305e-001 -9.085879e-001
<VARIANCE> 25
 6.515254e+000 2.367384e+001 1.738518e+001 6.502860e+001 3.957211e+001 3.087723e+001 3.579610e+001 2.441401e+001 3.497562e+001 2.627452e+001 1.390224e+001 1.411088e+001 3.642389e-001 3.665940e-001 7.297859e-001 1.010016e+000 9.172381e-001 1.210092e+000 1.785328e+000 1.878507e+000 1.432417e+000 1.131671e+000 1.006629e+000 9.740074e-001 1.780690e-001
<GCONST> 8.173293e+001
<STATE> 4
<MEAN> 25
 -2.128777e+000 8.210769e+000 -9.063271e+000 6.986128e+000 3.769753e+000 4.205650e+000 2.328732e+000 -3.649480e+000 2.040271e+000 -2.932337e-001 8.272978e-001 -1.108237e+000 -6.910415e-001 2.210217e-001 -3.274162e-001 -2.027326e-001 -2.626435e-001 -5.000545e-001 -1.955442e-001 -4.786730e-002 2.604671e-002 -1.486804e-002 -2.071340e-002 -2.594471e-002 -6.841057e-001
<VARIANCE> 25
 2.156414e+001 1.997700e+001 2.283912e+001 1.721727e+001 2.943303e+001 2.793592e+001 2.065429e+001 1.919336e+001 1.822957e+001 1.585626e+001 1.545698e+001 1.512908e+001 2.044670e-001 4.456334e-001 1.018744e+000 6.868042e-001 9.674225e-001 1.054293e+000 1.071296e+000 1.155977e+000 1.338138e+000 1.373040e+000 1.132399e+000 9.999637e-001 7.744309e-002
<GCONST> 7.745795e+001
<TRANSP> 5
 0.000000e+000 1.000000e+000 0.000000e+000 0.000000e+000 0.000000e+000
 0.000000e+000 8.729524e-001 1.270475e-001 0.000000e+000 0.000000e+000
 0.000000e+000 0.000000e+000 8.924266e-001 1.075734e-001 0.000000e+000
 0.000000e+000 0.000000e+000 0.000000e+000 9.366630e-001 6.333704e-002
 0.000000e+000 0.000000e+000 0.000000e+000 0.000000e+000 0.000000e+000
<ENDHMM>
~h "ny"
<BEGINHMM>
<NUMSTATES> 5
<STATE> 2
<MEAN> 25
 1.165975e+000 1.796734e+000 3.974944e+000 3.218132e+000 6.938771e-001 2.071775e+000 -3.857803e+000 -1.589392e+000 -4.013052e+000 -2.784581e-001 1.615479e-001 4.373354e+000 3.679802e-003 1.524887e-001 -3.331519e-002 -1.783544e-001 -2.075381e-001 -2.324587e-002 7.795300e-002 2.484960e-001 -4.011581e-002 2.499748e-001 2.174577e-001 -2.694288e-003 1.118964e-001
<VARIANCE> 25
 2.335955e+001 1.317308e+001 1.772516e+001 2.387550e+001 2.827428e+001 1.911451e+001 2.473870e+001 2.950423e+001 2.205664e+001 1.357465e+001 1.800958e+001 1.794513e+001 3.918087e-001 5.829273e-001 5.846559e-001 1.048690e+000 1.244097e+000 1.470452e+000 1.874428e+000 2.481484e+000 1.081492e+000 1.160825e+000 1.205107e+000 1.335695e+000 5.351154e-001
<GCONST> 8.234278e+001
<STATE> 3
<MEAN> 25
 -6.538352e+000 1.053757e+001 -4.956347e+000 3.056447e+000 -4.247133e+000 -3.096707e+000 5.778018e-002 -6.106773e-001 2.271558e-001 -8.448818e-001 2.995143e+000 -1.017638e-001 -5.663976e-001 3.813270e-001 2.326562e-001 2.320484e-002 4.007377e-002 1.389083e-001 -1.103929e-001 -1.922842e-001 3.782682e-001 9.040387e-002 1.496634e-001 -2.164022e-001 -4.206040e-001
<VARIANCE> 25
 5.040482e+001 1.664101e+001 4.886949e+001 2.129349e+001 2.726866e+001 1.148251e+001 1.435939e+001 2.121722e+001 1.565752e+001 1.624394e+001 1.506862e+001 1.381598e+001 1.748858e-001 7.579584e-001 1.056938e+000 1.332456e+000 1.064159e+000 5.591196e-001 8.500578e-001 8.259553e-001 8.657562e-001 7.264680e-001 1.251319e+000 1.032981e+000 3.539391e-001
<GCONST> 7.817241e+001
<STATE> 4
<MEAN> 25
 2.519319e+000 1.506678e+001 3.028147e+000 5.092685e+000 -3.142778e+000 -3.146712e+000 9.685822e-001 -8.474748e-002 -2.147404e-001 1.904827e+000 5.069680e+000 4.572856e-001 1.906835e+000 -4.715721e-001 1.594320e+000 -1.290626e+000 -1.530610e+000 -1.049344e-001 7.627534e-001 -1.609393e-001 -7.746601e-001 6.185286e-001 2.761350e-001 -3.365436e-001 2.378598e+000
<VARIANCE> 25
 1.140955e+002 9.137652e+001 3.992784e+001 1.177900e+002 7.309688e+001 5.515854e+001 3.143632e+001 5.416881e+001 2.768908e+001 3.746505e+001 2.931560e+001 1.598065e+001 8.951972e+000 1.202715e+001 4.783144e+000 1.235075e+001 6.704864e+000 8.827664e+000 5.978307e+000 3.910877e+000 4.117026e+000 4.632448e+000 3.179417e+000 2.268880e+000 2.605964e+000
<GCONST> 1.143634e+002
<TRANSP> 5
 0.000000e+000 1.000000e+000 0.000000e+000 0.000000e+000 0.000000e+000
 0.000000e+000 9.026096e-001 9.739041e-002 0.000000e+000 0.000000e+000
 0.000000e+000 0.000000e+000 8.304611e-001 1.695389e-001 0.000000e+000
 0.000000e+000 0.000000e+000 0.000000e+000 8.372211e-001 1.627789e-001
 0.000000e+000 0.000000e+000 0.000000e+000 0.000000e+000 0.000000e+000
<ENDHMM>
~h "sp"
<BEGINHMM>
<NUMSTATES> 5
<STATE> 2
~s "silst"
<STATE> 3
<MEAN> 25
 -4.101324e+000 2.967130e+000 -2.892185e+000 4.444565e+000 -7.005205e-001 -1.197407e+000 -5.851225e-001 1.114676e+000 1.035368e+000 -1.325705e+000 -1.180616e+000 1.214552e+000 -3.965667e-001 3.585334e-001 -3.622214e-001 3.441948e-001 -1.182265e-001 -3.930189e-002 -2.934219e-002 -8.881942e-002 2.605742e-001 -2.320106e-001 6.676243e-002 9.846354e-002 -6.777577e-001
<VARIANCE> 25
 2.526519e+001 5.090430e+001 6.988165e+001 3.653924e+001 3.564727e+001 3.550594e+001 2.995597e+001 2.940417e+001 3.228481e+001 3.180637e+001 2.730341e+001 2.311180e+001 3.207006e-001 6.560265e-001 1.063222e+000 1.112493e+000 1.269165e+000 1.503755e+000 1.382618e+000 1.538829e+000 1.506745e+000 1.606002e+000 1.527889e+000 1.355236e+000 2.022726e-001
<GCONST> 8.828120e+001
<STATE> 4
<MEAN> 25
 -1.177949e+001 6.310408e+000 -7.583128e+000 6.290608e+000 -2.750378e-001 -9.632083e-001 4.794625e-001 5.595237e-001 3.370034e+000 -1.843500e+000 1.183334e+000 6.195828e-001 -3.300673e-001 3.020910e-001 1.457984e-001 7.392042e-002 2.036943e-002 1.515184e-001 4.969808e-002 -1.290769e-001 -4.457259e-002 3.016022e-002 1.143621e-001 -7.776382e-002 -3.889973e-001
<VARIANCE> 25
 5.890405e+001 3.059272e+001 3.713761e+001 2.175742e+001 2.215157e+001 2.118717e+001 2.372982e+001 2.519391e+001 2.218265e+001 2.106556e+001 2.054084e+001 1.771663e+001 1.058108e+000 8.737038e-001 1.196933e+000 1.018093e+000 1.029820e+000 1.126860e+000 1.324437e+000 1.537995e+000 1.560624e+000 1.214862e+000 1.145997e+000 1.219033e+000 5.248219e-001
<GCONST> 8.603549e+001
<TRANSP> 5
 0.000000e+000 1.430261e-001 8.569738e-001 0.000000e+000 0.000000e+000
 0.000000e+000 8.227178e-001 1.772822e-001 0.000000e+000 0.000000e+000
 0.000000e+000 0.000000e+000 6.881522e-001 3.118478e-001 0.000000e+000
 0.000000e+000 0.000000e+000 0.000000e+000 7.563148e-001 2.436853e-001
 0.000000e+000 0.000000e+000 0.000000e+000 0.000000e+000 0.000000e+000
<ENDHMM>
~h "sil"
<BEGINHMM>
<NUMSTATES> 5
<STATE> 2
<MEAN> 25
 -1.462151e+001 9.241672e+000 -5.628225e+000 6.293931e+000 -1.261874e+000 -1.051038e+000 6.290960e-001 -1.356987e+000 2.040344e+000 -2.427588e+000 9.541337e-001 -5.609017e-001 -4.266529e-001 -6.971519e-002 2.791341e-002 9.044414e-003 5.215763e-002 1.057381e-001 -2.919467e-002 -1.190172e-001 -1.743311e-002 6.738920e-002 1.110405e-001 -9.731657e-002 -3.065935e-001
<VARIANCE> 25
 4.299374e+001 1.875493e+001 2.263371e+001 1.441267e+001 2.273436e+001 1.777214e+001 1.830191e+001 1.869782e+001 1.930567e+001 1.612210e+001 1.448420e+001 1.623113e+001 2.266117e-001 3.914283e-001 4.657066e-001 6.130838e-001 8.917896e-001 8.780075e-001 1.095415e+000 1.155252e+000 1.312895e+000 1.248682e+000 1.055280e+000 1.049193e+000 9.522764e-002
<GCONST> 7.602406e+001
<STATE> 3
~s "silst"
<STATE> 4
<MEAN> 25
 -2.414813e+001 2.909541e+000 -8.942842e+000 6.399789e+000 -6.711252e-002 2.437740e+000 4.216222e+000 2.454071e+000 6.417634e+000 1.450590e+000 5.074900e+000 1.875454e+000 -2.301931e-003 1.052678e-002 4.262632e-004 -2.461498e-002 -1.119418e-003 2.438781e-002 2.514640e-002 -7.850924e-003 -1.460733e-003 -5.836508e-003 -1.628540e-002 -8.693315e-003 -5.953365e-003
<VARIANCE> 25
 1.039642e+001 7.240113e+000 1.087083e+001 7.685048e+000 9.388312e+000 1.087791e+001 1.244698e+001 1.468629e+001 1.489896e+001 9.804584e+000 8.637781e+000 7.253025e+000 4.164624e-002 1.409875e-001 2.152750e-001 3.583623e-001 5.052277e-001 4.533285e-001 7.998240e-001 1.143460e+000 1.304811e+000 1.017024e+000 8.380250e-001 9.148193e-001 2.980222e-002
<GCONST> 6.089085e+001
<TRANSP> 5
 0.000000e+000 1.000000e+000 0.000000e+000 0.000000e+000 0.000000e+000
 0.000000e+000 9.011129e-001 5.696332e-003 9.319077e-002 0.000000e+000
 0.000000e+000 0.000000e+000 9.179652e-001 8.203480e-002 0.000000e+000
 0.000000e+000 4.204301e-003 0.000000e+000 9.603875e-001 3.540807e-002
 0.000000e+000 0.000000e+000 0.000000e+000 0.000000e+000 0.000000e+000
<ENDHMM>
