~o
<STREAMINFO> 1 25
<VECSIZE> 25<NULLD><MFCC_D_N_Z_0><DIAGC>
~h "a"
<BEGINHMM>
<NUMSTATES> 5
<STATE> 2
<MEAN> 25
 9.738707e+000 -1.180260e+001 -1.908600e+000 -6.683550e+000 5.827964e-001 3.822810e+000 2.040223e+000 1.410638e+000 2.021213e+000 2.266264e+000 -1.860108e+000 -3.940568e+000 1.950310e-001 -1.654360e+000 4.278862e-001 -6.034594e-001 8.910127e-001 9.568023e-002 2.598220e-001 6.943208e-001 -1.431878e-001 -2.524023e-001 -6.303699e-001 -6.293954e-001 1.450462e+000
<VARIANCE> 25
 5.390330e+001 1.082082e+002 1.246839e+002 1.281012e+002 6.982660e+001 9.523612e+001 7.116111e+001 9.114848e+001 5.901428e+001 7.090400e+001 4.751897e+001 4.601861e+001 2.484948e+000 4.281882e+000 4.399698e+000 5.512193e+000 3.866926e+000 4.779150e+000 4.224717e+000 5.263162e+000 3.871741e+000 4.320168e+000 2.917744e+000 3.118274e+000 2.937670e+000
<GCONST> 1.155801e+002
<STATE> 3
<MEAN> 25
 1.048130e+001 -1.830611e+001 -2.176621e+000 -9.173871e+000 5.171929e+000 2.533507e+000 3.459051e+000 4.381803e+000 1.363882e+000 1.030437e+000 -4.202517e+000 -5.783069e+000 -1.353095e-001 2.827632e-002 1.381976e-001 4.884231e-002 1.566308e-001 -2.813899e-001 1.537179e-001 2.844496e-001 -2.759685e-001 -2.269968e-001 -1.031211e-001 2.146810e-001 -8.241466e-002
<VARIANCE> 25
 2.391492e+001 4.184660e+001 5.416056e+001 6.145399e+001 4.798459e+001 6.196404e+001 6.572621e+001 6.886361e+001 3.213391e+001 3.834723e+001 3.110346e+001 2.545212e+001 4.236372e-001 1.157190e+000 1.225294e+000 1.545119e+000 1.613149e+000 2.088297e+000 1.880484e+000 2.376894e+000 1.714200e+000 1.891807e+000 1.502878e+000 1.623437e+000 6.196869e-001
<GCONST> 9.539857e+001
<STATE> 4
<MEAN> 25
 6.026576e+000 -1.086177e+001 -1.148646e+000 -3.676610e+000 3.426661e+000 2.719272e-001 2.859105e+000 4.537996e+000 1.297512e+000 4.596736e-001 -4.962259e+000 -1.943605e+000 -5.764042e-001 1.344052e+000 2.652833e-001 1.224331e+000 -1.915985e-001 -1.925949e-001 -2.924030e-001 -4.965248e-001 -2.078929e-001 -3.107311e-002 1.932979e-001 5.485925e-001 -1.459251e+000
<VARIANCE> 25
 4.097618e+001 6.439152e+001 5.389873e+001 7.657892e+001 4.297177e+001 6.192511e+001 3.980407e+001 5.498122e+001 3.256700e+001 3.307146e+001 3.334875e+001 2.603022e+001 9.547793e-001 1.864781e+000 1.707190e+000 2.716319e+000 2.393661e+000 2.082852e+000 2.117895e+000 2.567863e+000 2.424641e+000 1.937003e+000 1.834433e+000 1.667188e+000 1.498519e+000
<GCONST> 9.995624e+001
<TRANSP> 5
 0.000000e+000 1.000000e+000 0.000000e+000 0.000000e+000 0.000000e+000
 0.000000e+000 6.693901e-001 3.306099e-001 0.000000e+000 0.000000e+000
 0.000000e+000 0.000000e+000 8.032314e-001 1.967686e-001 0.000000e+000
 0.000000e+000 0.000000e+000 0.000000e+000 8.019693e-001 1.980307e-001
 0.000000e+000 0.000000e+000 0.000000e+000 0.000000e+000 0.000000e+000
<ENDHMM>
~h "b"
<BEGINHMM>
<NUMSTATES> 5
<STATE> 2
<MEAN> 25
 -8.447702e+000 6.295207e+000 -5.549979e+000 7.170831e+000 -5.873692e-001 -2.052800e+000 8.815147e-001 1.058250e+000 1.813947e+000 -3.535776e+000 3.019387e-001 2.281800e+000 -4.174514e-001 2.797802e-001 -2.504027e-002 1.339496e-001 -7.778102e-002 -1.946539e-002 -5.533304e-002 -1.336391e-001 5.923404e-003 -2.648950e-002 1.205626e-001 -2.866118e-002 -5.582790e-001
<VARIANCE> 25
 6.505264e+001 3.542338e+001 3.717675e+001 3.138466e+001 3.574416e+001 3.087969e+001 2.922935e+001 3.427714e+001 3.040356e+001 3.759256e+001 2.084825e+001 2.838768e+001 3.489917e-001 7.173997e-001 7.162442e-001 8.350259e-001 8.805304e-001 1.175886e+000 1.101986e+000 1.206200e+000 1.144038e+000 1.743105e+000 1.174464e+000 1.465281e+000 1.585359e-001
<GCONST> 8.590407e+001
<STATE> 3
<MEAN> 25
 -1.225507e+001 7.382899e+000 -5.159365e+000 8.886759e+000 -7.801710e-001 -1.522334e+000 4.585166e-001 6.478672e-001 2.253163e+000 -3.861954e+000 8.322949e-001 9.155113e-001 3.915428e-001 1.009182e+000 1.006187e+000 7.190453e-001 7.683681e-001 6.041518e-001 2.304488e-001 -9.823909e-002 1.123210e-001 2.004888e-001 -5.599792e-002 -4.704744e-001 8.845502e-002
<VARIANCE> 25
 1.031522e+002 2.333093e+001 4.784458e+001 2.747977e+001 2.360022e+001 3.874760e+001 2.708233e+001 5.276069e+001 3.056483e+001 5.318343e+001 2.198606e+001 2.232509e+001 3.565093e+000 1.335538e+000 1.564942e+000 1.810190e+000 1.765713e+000 2.035317e+000 2.355914e+000 1.877423e+000 1.701927e+000 1.887280e+000 1.260445e+000 1.502873e+000 2.293477e+000
<GCONST> 9.659066e+001
<STATE> 4
<MEAN> 25
 3.889002e+000 1.908661e+001 3.431212e+000 1.336991e+001 3.002769e+000 1.439664e+000 2.315729e+000 -3.142926e+000 -1.560887e+000 -3.063583e+000 8.908926e-001 -2.910286e-001 2.733432e+000 2.359925e-001 1.813879e-001 -3.182763e-001 -3.624356e-002 2.153026e-002 -2.075545e-001 -3.045371e-001 -6.176755e-001 -1.711453e-001 -2.943024e-002 -1.801962e-002 2.125036e+000
<VARIANCE> 25
 1.018586e+002 9.845599e+001 4.848714e+001 4.247650e+001 3.146640e+001 2.223470e+001 3.492599e+001 2.875264e+001 3.526223e+001 2.959393e+001 2.588360e+001 1.683116e+001 5.664455e+000 1.651241e+001 8.711004e+000 8.476123e+000 4.835564e+000 2.894247e+000 4.188019e+000 3.824948e+000 4.050754e+000 3.106609e+000 2.546457e+000 2.284359e+000 3.672136e+000
<GCONST> 1.091268e+002
<TRANSP> 5
 0.000000e+000 1.000000e+000 0.000000e+000 0.000000e+000 0.000000e+000
 0.000000e+000 9.193490e-001 8.065097e-002 0.000000e+000 0.000000e+000
 0.000000e+000 0.000000e+000 4.677998e-001 5.322002e-001 0.000000e+000
 0.000000e+000 0.000000e+000 0.000000e+000 8.602453e-001 1.397546e-001
 0.000000e+000 0.000000e+000 0.000000e+000 0.000000e+000 0.000000e+000
<ENDHMM>
~h "c"
<BEGINHMM>
<NUMSTATES> 5
<STATE> 2
<MEAN> 25
 -1.353846e+001 5.005263e+000 -6.758973e+000 4.016981e+000 -2.248432e+000 -2.250709e+000 2.262738e+000 5.818710e-001 3.406963e+000 2.527899e-001 2.347342e+000 8.160059e-001 -4.165517e-001 -1.490598e-001 -4.218359e-001 1.396591e-001 7.800247e-002 -1.721724e-001 1.811369e-001 2.588928e-001 3.284677e-002 -5.449376e-002 -7.588215e-002 -1.618817e-002 -3.634169e-001
<VARIANCE> 25
 3.068855e+001 1.324199e+001 1.315027e+001 9.308793e+000 7.895609e+000 6.115364e+000 1.459175e+001 1.454640e+001 1.065930e+001 9.954597e+000 8.521863e+000 8.609199e+000 1.964684e-001 2.817275e-001 4.440655e-001 5.507050e-001 6.235027e-001 6.060672e-001 8.988360e-001 1.037650e+000 8.747988e-001 7.018805e-001 7.953699e-001 1.018389e+000 1.522557e-001
<GCONST> 6.703051e+001
<STATE> 3
<MEAN> 25
 -1.199004e+001 7.230748e-001 -8.275327e+000 7.658804e+000 7.421717e-002 -1.269975e+000 3.684449e+000 2.324374e+000 3.894594e+000 1.500820e+000 1.274009e+000 -8.172329e-001 1.075713e-001 -3.060134e-001 2.342753e+000 1.140347e-001 9.248197e-001 -4.013057e-001 5.299214e-001 9.037532e-001 -2.337212e-001 -3.982329e-002 -7.821763e-001 3.256289e-001 1.391726e+000
<VARIANCE> 25
 9.058170e+001 5.231198e+000 1.687890e+001 1.318714e+001 1.098199e+001 2.261955e+001 1.690197e+001 1.019849e+001 3.014288e+001 1.909733e+001 1.250110e+001 4.042652e+000 2.618725e+000 7.203234e+000 6.525285e+000 8.326540e+000 3.592502e+000 5.864490e+000 2.055128e+000 6.310040e+000 5.332562e+000 2.150044e+000 3.338654e+000 2.081229e+000 5.886898e+000
<GCONST> 9.714925e+001
<STATE> 4
<MEAN> 25
 -7.660616e+000 -4.259298e+000 7.056425e+000 -1.532952e+000 9.866819e+000 -9.022325e+000 2.788354e+000 -3.847718e+000 1.803253e+000 7.192490e-001 9.026484e-001 -6.967756e-001 6.765567e-001 -3.089134e-001 9.290967e-001 -5.686892e-001 7.150236e-002 -3.726001e-001 1.908807e-001 -6.798450e-001 -4.232818e-001 -1.517836e-001 1.845451e-001 -1.074522e-001 1.841392e+000
<VARIANCE> 25
 2.148379e+002 9.433173e+001 5.002385e+001 1.321694e+002 1.032633e+002 7.332862e+001 5.033977e+001 7.780996e+001 9.379695e+001 5.241545e+001 2.557944e+001 3.592861e+001 1.316780e+001 6.037031e+000 7.270598e+000 1.105874e+001 1.004272e+001 7.818945e+000 6.480562e+000 6.347706e+000 7.034650e+000 4.399988e+000 2.678718e+000 2.825720e+000 7.993084e+000
<GCONST> 1.215673e+002
<TRANSP> 5
 0.000000e+000 1.000000e+000 0.000000e+000 0.000000e+000 0.000000e+000
 0.000000e+000 9.171927e-001 8.280732e-002 0.000000e+000 0.000000e+000
 0.000000e+000 0.000000e+000 4.976736e-001 5.023264e-001 0.000000e+000
 0.000000e+000 0.000000e+000 0.000000e+000 9.389848e-001 6.101524e-002
 0.000000e+000 0.000000e+000 0.000000e+000 0.000000e+000 0.000000e+000
<ENDHMM>
~h "d"
<BEGINHMM>
<NUMSTATES> 5
<STATE> 2
<MEAN> 25
 -3.473427e+000 1.267874e+001 3.921794e+000 8.802270e+000 2.405466e+000 4.624263e-001 9.115044e-001 4.428726e-001 -8.885630e-001 -2.184855e+000 2.676646e-001 -8.925401e-001 1.382539e+000 1.108243e+000 9.637514e-001 1.349307e+000 5.760078e-001 1.090797e-001 -2.015799e-001 -3.995117e-001 5.836564e-002 -9.943731e-002 -3.385654e-001 1.906602e-002 5.428261e-001
<VARIANCE> 25
 6.040572e+001 7.077178e+001 1.385940e+002 3.688476e+001 5.124425e+001 2.602687e+001 3.067986e+001 3.514517e+001 4.669831e+001 3.369513e+001 2.719224e+001 1.912976e+001 4.293200e+000 6.008095e+000 4.986073e+000 2.786339e+000 3.876611e+000 2.438207e+000 2.449823e+000 2.526993e+000 2.935642e+000 2.252689e+000 2.323258e+000 1.772558e+000 1.810829e+000
<GCONST> 1.044899e+002
<STATE> 3
<MEAN> 25
 5.468217e+000 1.890723e+001 9.532055e+000 1.488321e+001 2.710336e+000 -2.096441e+000 -2.529434e+000 -3.710089e+000 -2.411333e+000 -2.556314e+000 2.639413e-001 8.460687e-001 1.137116e+000 -1.291156e+000 3.960813e-001 2.767594e-001 -1.505016e+000 -7.990182e-001 -7.285481e-001 -6.300936e-001 2.677988e-001 -5.017091e-002 1.615992e-001 7.840171e-001 1.436407e+000
<VARIANCE> 25
 1.500915e+001 1.696323e+002 2.978974e+001 4.022169e+001 4.611573e+001 3.161644e+001 3.700199e+001 4.644899e+001 2.721539e+001 2.322970e+001 3.179714e+001 1.931304e+001 2.295529e+000 9.335732e+000 2.984607e+000 2.660708e+000 4.391181e+000 4.120795e+000 4.496231e+000 5.746007e+000 4.306442e+000 2.264050e+000 3.683405e+000 2.435990e+000 1.826448e+000
<GCONST> 1.048394e+002
<STATE> 4
<MEAN> 25
 9.393014e+000 -2.357682e+000 1.455759e+001 5.792588e+000 -1.045561e+001 -3.069557e+000 -4.468640e+000 1.088216e+000 -2.929763e-001 -3.051014e+000 3.405192e+000 2.792533e+000 5.425012e-001 -2.731731e+000 6.410045e-001 -2.750371e+000 -1.510903e+000 8.800180e-003 -3.867532e-001 8.295542e-001 -3.941022e-001 3.753477e-001 8.288481e-001 -3.676801e-001 2.359432e+000
<VARIANCE> 25
 1.786882e+001 1.821647e+002 5.259590e+001 1.174732e+002 8.656160e+001 5.066991e+001 3.924314e+001 8.936635e+001 7.572894e+001 4.743269e+001 5.631401e+001 3.493375e+001 1.319555e+000 1.719285e+001 6.005446e+000 7.940366e+000 1.487619e+001 7.299350e+000 5.328452e+000 6.679940e+000 7.241772e+000 4.953306e+000 6.108480e+000 4.449542e+000 6.249986e+000
<GCONST> 1.190444e+002
<TRANSP> 5
 0.000000e+000 1.000000e+000 0.000000e+000 0.000000e+000 0.000000e+000
 0.000000e+000 7.653599e-001 2.346401e-001 0.000000e+000 0.000000e+000
 0.000000e+000 0.000000e+000 6.369503e-001 3.630498e-001 0.000000e+000
 0.000000e+000 0.000000e+000 0.000000e+000 7.900013e-001 2.099986e-001
 0.000000e+000 0.000000e+000 0.000000e+000 0.000000e+000 0.000000e+000
<ENDHMM>
~h "e"
<BEGINHMM>
<NUMSTATES> 5
<STATE> 2
<MEAN> 25
 -6.553011e+000 7.954481e+000 -4.254794e+000 4.347346e+000 -1.052745e-001 2.345282e+000 6.319224e-001 -1.046546e+000 1.491989e+000 1.388783e-002 4.156361e+000 1.824728e+000 2.117251e-001 4.068263e-001 -3.402120e-001 4.707263e-001 3.390068e-001 1.774382e-001 -1.801851e-001 -3.016896e-001 -2.180478e-002 1.811791e-001 -8.142623e-003 -2.001355e-001 -2.157112e-001
<VARIANCE> 25
 1.823552e+002 1.304904e+002 9.466829e+001 6.481200e+001 4.435773e+001 5.360482e+001 3.725155e+001 4.028910e+001 3.953131e+001 2.110984e+001 2.465924e+001 2.359615e+001 7.377128e+000 3.315438e+000 3.958485e+000 2.592305e+000 2.936655e+000 2.611326e+000 1.924443e+000 2.464646e+000 3.342304e+000 1.984808e+000 1.813910e+000 1.623989e+000 5.394618e+000
<GCONST> 1.067040e+002
<STATE> 3
<MEAN> 25
 2.785504e+000 8.864137e+000 1.308431e+000 5.163315e+000 2.292540e+000 -1.032626e+000 -2.205543e+000 -2.353439e+000 -8.622578e-001 -1.363805e-001 1.960478e+000 2.546158e-001 1.360938e+000 3.329318e-001 -1.220879e-001 7.824613e-001 5.762046e-001 -5.006962e-001 -7.635450e-001 -4.990203e-001 1.518851e-001 5.656239e-001 -2.136222e-001 -3.614167e-001 7.912285e-001
<VARIANCE> 25
 7.399258e+001 2.087679e+002 9.117915e+001 1.059814e+002 5.857432e+001 4.651356e+001 3.708680e+001 3.640153e+001 3.875526e+001 3.614112e+001 2.393001e+001 2.574586e+001 9.704560e+000 1.037060e+001 5.661105e+000 5.757030e+000 5.780914e+000 4.666070e+000 5.329403e+000 4.733175e+000 4.205530e+000 2.808222e+000 2.708404e+000 2.189750e+000 9.808959e+000
<GCONST> 1.147049e+002
<STATE> 4
<MEAN> 25
 9.998643e+000 1.371583e+000 8.398357e-001 3.255914e+000 -1.036984e+000 -1.448555e+000 -6.895885e+000 -4.509034e+000 1.908320e+000 3.903393e+000 1.738224e+000 -6.800258e-002 9.332631e-001 -2.872901e+000 1.331794e+000 -2.098979e+000 -1.214469e+000 -2.644624e-001 -6.326058e-001 5.854956e-001 4.509065e-001 7.184484e-001 -4.949880e-001 1.106085e-001 2.750609e+000
<VARIANCE> 25
 4.955068e+001 1.349702e+002 1.465647e+002 1.166501e+002 1.704852e+002 6.167004e+001 7.619312e+001 1.005112e+002 8.109607e+001 5.945559e+001 5.371196e+001 3.411228e+001 5.298803e+000 1.499342e+001 1.035491e+001 1.087528e+001 1.491661e+001 4.870544e+000 7.571512e+000 1.143280e+001 8.995399e+000 6.161716e+000 4.576009e+000 3.285590e+000 9.574450e+000
<GCONST> 1.255299e+002
<TRANSP> 5
 0.000000e+000 1.000000e+000 0.000000e+000 0.000000e+000 0.000000e+000
 0.000000e+000 6.007501e-001 3.992499e-001 0.000000e+000 0.000000e+000
 0.000000e+000 0.000000e+000 2.486554e-001 7.513447e-001 0.000000e+000
 0.000000e+000 0.000000e+000 0.000000e+000 7.262005e-001 2.737996e-001
 0.000000e+000 0.000000e+000 0.000000e+000 0.000000e+000 0.000000e+000
<ENDHMM>
~h "f"
<BEGINHMM>
<NUMSTATES> 5
<STATE> 2
<MEAN> 25
 -3.754357e+000 1.938845e+000 4.619565e+000 4.166201e+000 2.367379e+000 5.977080e-001 -4.145198e+000 -1.848922e+000 -3.785475e+000 -4.213070e-002 -1.278350e+000 2.102675e+000 -2.269079e-001 1.758211e-001 1.081720e-001 1.438146e-001 1.163620e-001 -1.727125e-001 1.630434e-001 1.715120e-002 -2.014318e-001 -4.461478e-002 4.696712e-002 -1.184001e-002 6.118312e-002
<VARIANCE> 25
 2.880419e+001 3.802716e+001 3.655121e+001 1.680127e+001 2.381947e+001 3.522062e+001 2.409100e+001 2.948248e+001 1.693749e+001 1.611874e+001 1.433441e+001 1.384753e+001 1.128246e+000 9.667783e-001 1.445544e+000 1.068189e+000 1.577299e+000 1.822827e+000 2.121013e+000 2.066872e+000 2.102645e+000 1.403089e+000 1.003024e+000 1.238481e+000 2.067847e-001
<GCONST> 8.634203e+001
<STATE> 3
<MEAN> 25
 -1.266884e+001 9.990308e+000 6.121964e+000 4.046473e+000 -5.229517e-001 -5.630901e+000 1.786515e+000 -2.389899e+000 -6.520616e+000 1.946405e+000 2.485292e+000 2.234893e+000 -2.290963e-001 2.416758e-001 3.437952e-003 -1.967227e-001 -2.789390e-001 -2.807066e-001 1.313205e-001 -2.190916e-001 3.163768e-002 3.782059e-002 4.898491e-002 -1.271704e-001 2.319607e-001
<VARIANCE> 25
 4.265279e+001 7.142490e+001 2.452009e+001 1.878309e+001 4.364215e+001 2.258175e+001 2.386509e+001 3.332408e+001 2.046510e+001 1.958719e+001 1.699178e+001 1.470121e+001 2.957479e+000 6.352646e-001 2.144451e+000 1.121298e+000 3.210382e+000 1.513527e+000 1.846386e+000 2.074587e+000 2.028575e+000 1.482865e+000 1.845114e+000 1.336651e+000 2.255325e-001
<GCONST> 9.013378e+001
<STATE> 4
<MEAN> 25
 -5.420326e+000 -3.015188e+000 1.767976e+001 -4.495635e+000 -5.353862e+000 -7.963992e+000 1.289172e+000 -2.324319e+000 -5.574850e+000 2.582380e-001 1.523809e+000 -3.529613e-001 4.845865e-002 2.727885e-001 -1.516167e-001 1.667943e-001 -1.744442e-001 2.052870e-001 -3.137510e-001 -9.694509e-002 7.463077e-002 7.575328e-002 6.715559e-002 -1.419263e-001 -3.993212e-001
<VARIANCE> 25
 3.597756e+001 1.274317e+002 2.012494e+002 5.878753e+001 7.967109e+001 5.808425e+001 7.236218e+001 2.603758e+001 8.938039e+001 2.794181e+001 1.398554e+001 1.980263e+001 1.373770e+000 1.279689e+000 4.072099e+000 2.548187e+000 2.472397e+000 1.834176e+000 2.203256e+000 1.492112e+000 2.843327e+000 1.986661e+000 1.514064e+000 1.388534e+000 6.045846e-001
<GCONST> 1.007607e+002
<TRANSP> 5
 0.000000e+000 1.000000e+000 0.000000e+000 0.000000e+000 0.000000e+000
 0.000000e+000 8.942475e-001 1.057525e-001 0.000000e+000 0.000000e+000
 0.000000e+000 0.000000e+000 8.851520e-001 1.148480e-001 0.000000e+000
 0.000000e+000 0.000000e+000 0.000000e+000 9.259154e-001 7.408455e-002
 0.000000e+000 0.000000e+000 0.000000e+000 0.000000e+000 0.000000e+000
<ENDHMM>
~h "g"
<BEGINHMM>
<NUMSTATES> 5
<STATE> 2
<MEAN> 25
 5.846798e+000 -2.930860e+000 1.254550e+001 8.416803e+000 -4.751256e+000 -8.144050e+000 -1.865473e+000 4.758246e+000 -3.924590e+000 1.194824e+000 2.573838e+000 1.329306e+000 2.416438e-001 -1.007749e+000 1.213479e+000 -1.716146e+000 -8.456208e-001 -7.223716e-001 -7.287341e-001 6.745834e-001 -4.581419e-001 6.874081e-001 4.584264e-001 2.709298e-001 1.276102e+000
<VARIANCE> 25
 1.107478e+001 7.532192e+001 5.622552e+001 1.164788e+002 5.398629e+001 4.767524e+001 5.341968e+001 4.748339e+001 3.852697e+001 4.162989e+001 3.394808e+001 3.402095e+001 1.065257e+000 7.570350e+000 4.663477e+000 9.051491e+000 6.144734e+000 3.942970e+000 2.823697e+000 3.471702e+000 4.457690e+000 4.630288e+000 4.611613e+000 1.375464e+000 4.169862e+000
<GCONST> 1.091870e+002
<STATE> 3
<MEAN> 25
 6.319879e+000 -7.654976e+000 1.367677e+001 -6.267149e+000 -2.734764e+000 -8.904565e+000 -3.390235e+000 1.023199e+001 -2.696111e+000 4.149319e+000 7.325312e-001 -8.841413e-002 -1.212223e-001 -1.687431e-001 -5.430967e-001 -6.905765e-001 8.271168e-001 1.952571e-001 5.289200e-001 1.633253e-001 4.134166e-001 3.212480e-001 -1.068711e+000 -2.349922e-001 1.183162e-001
<VARIANCE> 25
 8.538936e+000 4.652079e+001 2.426824e+001 1.010708e+002 2.953073e+001 2.648945e+001 3.335923e+001 2.921748e+001 3.692303e+001 2.404183e+001 3.107228e+001 3.104689e+001 5.180178e-001 2.259850e+000 2.280877e+000 5.564088e+000 2.815621e+000 2.282935e+000 2.805981e+000 2.171865e+000 3.121386e+000 2.270540e+000 2.426755e+000 1.880929e+000 2.431881e+000
<GCONST> 9.767289e+001
<STATE> 4
<MEAN> 25
 3.065944e+000 -1.007241e+001 6.534769e+000 -1.028650e+001 2.621148e+000 -6.248468e+000 1.206499e+000 8.034669e+000 1.807873e+000 4.860535e+000 -1.011772e+001 -1.216343e+000 -3.755358e-001 4.114456e-001 -6.030018e-001 7.237594e-001 -1.855194e-002 5.007297e-001 1.896161e-001 -5.707947e-001 2.147188e-001 -2.406690e-001 -3.530075e-002 -9.532768e-002 -8.706470e-001
<VARIANCE> 25
 2.761168e+001 5.462409e+001 2.524624e+001 8.192546e+001 2.355663e+001 2.950088e+001 2.407062e+001 3.779875e+001 2.063888e+001 3.022231e+001 2.473098e+001 1.696428e+001 4.460422e-001 1.110065e+000 6.357719e-001 1.871949e+000 1.555143e+000 1.296370e+000 1.218826e+000 1.761536e+000 1.310927e+000 1.343746e+000 1.659384e+000 1.588184e+000 8.713573e-001
<GCONST> 8.906603e+001
<TRANSP> 5
 0.000000e+000 1.000000e+000 0.000000e+000 0.000000e+000 0.000000e+000
 0.000000e+000 8.626032e-001 1.373968e-001 0.000000e+000 0.000000e+000
 0.000000e+000 0.000000e+000 8.937532e-001 1.062468e-001 0.000000e+000
 0.000000e+000 0.000000e+000 0.000000e+000 9.239515e-001 7.604855e-002
 0.000000e+000 0.000000e+000 0.000000e+000 0.000000e+000 0.000000e+000
<ENDHMM>
~h "h"
<BEGINHMM>
<NUMSTATES> 5
<STATE> 2
<MEAN> 25
 1.715832e+000 -2.000512e+000 -1.355939e+000 2.420686e+000 4.206304e+000 2.674840e+000 4.183286e+000 3.353912e+000 1.927033e+000 -1.667457e+000 -3.886464e+000 2.180113e-002 -3.217676e-001 4.177850e-001 -1.955435e-001 4.872484e-001 7.697941e-002 6.004212e-001 -6.122045e-001 -1.106687e-001 -9.059447e-002 9.504098e-002 1.119180e-001 3.191712e-001 -1.032990e+000
<VARIANCE> 25
 3.961303e+001 4.942372e+001 3.386354e+001 2.444336e+001 1.295901e+001 2.696297e+001 3.999301e+001 2.386675e+001 2.340507e+001 2.201867e+001 1.370421e+001 1.439844e+001 3.276783e-001 6.679443e-001 1.680067e+000 1.521780e+000 9.472333e-001 1.886518e+000 2.107335e+000 1.413374e+000 1.458337e+000 1.190267e+000 1.059439e+000 1.672618e+000 2.513819e-001
<GCONST> 8.532652e+001
<STATE> 3
<MEAN> 25
 -5.612375e+000 2.765935e+000 -2.027514e+000 3.778241e+000 2.389340e+000 1.914908e+000 -3.001566e+000 -1.674253e+000 -1.476131e-001 -9.319317e-001 -4.824379e-001 1.590260e+000 -4.754744e-001 3.656641e-001 -3.897059e-003 1.358834e-002 -1.992430e-001 -1.478952e-001 -2.033721e-001 -2.242115e-001 -6.487067e-002 3.323356e-002 2.466395e-001 -4.770513e-003 -3.581468e-001
<VARIANCE> 25
 4.017896e+001 2.726789e+001 7.295239e+001 1.620669e+001 1.972066e+001 1.253389e+001 2.921193e+001 1.764215e+001 2.502731e+001 1.687845e+001 2.433213e+001 1.234949e+001 3.157780e-001 4.954726e-001 5.327366e-001 7.416585e-001 1.115735e+000 1.365864e+000 1.444398e+000 1.250622e+000 1.587211e+000 1.372595e+000 1.481603e+000 1.059962e+000 3.385950e-001
<GCONST> 8.190377e+001
<STATE> 4
<MEAN> 25
 -8.782546e+000 -3.291261e+000 -5.401498e+000 4.525617e+000 -1.114887e-001 5.530809e+000 9.352446e-001 1.973336e+000 -1.608430e+000 -1.786244e+000 3.677868e+000 -5.528122e-001 -4.724803e-001 2.260379e-001 -1.658837e-001 -4.287387e-002 -4.762065e-001 2.051041e-001 2.338900e-001 5.651325e-002 4.580376e-002 -7.652610e-002 2.625761e-001 1.026383e-002 -4.799983e-001
<VARIANCE> 25
 1.105200e+002 2.474735e+002 1.114432e+002 8.949276e+000 3.204181e+001 3.805466e+001 3.094163e+001 4.664259e+001 3.670771e+001 2.336542e+001 2.494346e+001 1.650038e+001 2.026011e+000 1.145210e+000 1.805847e+000 8.418810e-001 1.756430e+000 1.884143e+000 1.424298e+000 1.503146e+000 2.111983e+000 1.380897e+000 2.014334e+000 1.721092e+000 1.234165e+000
<GCONST> 9.596600e+001
<TRANSP> 5
 0.000000e+000 1.000000e+000 0.000000e+000 0.000000e+000 0.000000e+000
 0.000000e+000 6.755250e-001 3.244749e-001 0.000000e+000 0.000000e+000
 0.000000e+000 0.000000e+000 9.445235e-001 5.547659e-002 0.000000e+000
 0.000000e+000 0.000000e+000 0.000000e+000 8.478287e-001 1.521714e-001
 0.000000e+000 0.000000e+000 0.000000e+000 0.000000e+000 0.000000e+000
<ENDHMM>
~h "i"
<BEGINHMM>
<NUMSTATES> 5
<STATE> 2
<MEAN> 25
 -4.409446e+000 6.178789e-001 8.253549e+000 4.464460e+000 -5.845987e+000 -5.235892e+000 6.340405e-001 -2.701327e-001 -1.928504e+000 -1.704602e+000 3.922003e+000 1.694599e+000 1.933219e+000 -8.014330e-001 4.474765e+000 -1.102042e+000 -2.996772e+000 3.572595e-001 -9.710276e-001 -9.145861e-001 -2.117169e+000 -1.902220e-001 9.229083e-001 -5.376397e-001 2.716713e+000
<VARIANCE> 25
 9.719817e+001 7.494625e+001 1.410781e+002 7.906385e+001 9.979868e+001 1.004554e+002 9.977502e+001 8.395615e+001 7.772895e+001 5.225396e+001 3.716114e+001 3.323561e+001 6.755242e+000 8.959203e+000 1.708616e+001 1.005586e+001 8.605350e+000 6.318084e+000 5.700403e+000 5.894048e+000 7.565653e+000 5.394235e+000 3.432622e+000 2.915428e+000 9.189787e+000
<GCONST> 1.228244e+002
<STATE> 3
<MEAN> 25
 6.811644e-001 -9.191938e-002 1.885345e+001 1.611737e+000 -1.144633e+001 -6.632446e-001 -2.894418e+000 -4.084209e+000 -5.412944e+000 -1.575089e+000 4.617294e+000 -4.640635e-002 1.283353e+000 -7.715365e-001 5.234774e+000 -2.542637e+000 -2.310178e+000 1.329599e+000 -1.422976e+000 -4.632185e-001 -1.876611e+000 -2.472829e-001 2.084477e-001 -1.043088e+000 2.736733e+000
<VARIANCE> 25
 6.063172e+001 6.112204e+001 1.893719e+002 1.520599e+002 1.419918e+002 9.246445e+001 1.046421e+002 8.382500e+001 1.062523e+002 5.830760e+001 3.855020e+001 4.505253e+001 3.380929e+000 6.589438e+000 1.634711e+001 1.197149e+001 1.238738e+001 8.935205e+000 9.346185e+000 5.645491e+000 6.551524e+000 5.156866e+000 3.411723e+000 3.614643e+000 5.203544e+000
<GCONST> 1.239201e+002
<STATE> 4
<MEAN> 25
 2.389683e+000 -5.730805e-001 2.986186e+001 -7.351698e+000 -1.256041e+001 1.425157e+000 -3.647854e+000 -8.326715e-001 -1.265706e+001 -1.910605e+000 3.288405e+000 -2.188419e+000 -1.430146e-001 1.506776e-001 -8.423907e-001 1.898843e-001 6.485352e-001 -1.765452e-001 1.048787e-001 2.857922e-001 2.722857e-001 1.046346e-001 -3.450134e-001 1.631925e-001 -4.732092e-001
<VARIANCE> 25
 2.096484e+001 3.113988e+001 1.277361e+002 7.342036e+001 5.611189e+001 5.757112e+001 4.335461e+001 4.854989e+001 5.491459e+001 3.830611e+001 2.661102e+001 2.799911e+001 6.425898e-001 1.677116e+000 6.569559e+000 5.996830e+000 3.924804e+000 3.811095e+000 3.096834e+000 2.860789e+000 3.193610e+000 2.306214e+000 2.094910e+000 1.873765e+000 1.706628e+000
<GCONST> 1.041056e+002
<TRANSP> 5
 0.000000e+000 1.000000e+000 0.000000e+000 0.000000e+000 0.000000e+000
 0.000000e+000 3.566790e-001 6.433209e-001 0.000000e+000 0.000000e+000
 0.000000e+000 0.000000e+000 4.626667e-001 5.373333e-001 0.000000e+000
 0.000000e+000 0.000000e+000 0.000000e+000 9.141647e-001 8.583531e-002
 0.000000e+000 0.000000e+000 0.000000e+000 0.000000e+000 0.000000e+000
<ENDHMM>
~h "j"
<BEGINHMM>
<NUMSTATES> 5
<STATE> 2
<MEAN> 25
 -1.931975e+000 1.442903e+001 -1.868574e+000 1.307562e+001 3.678968e+000 -4.815633e+000 -4.667781e+000 3.144811e-001 4.558846e+000 -2.574721e+000 -1.124785e+000 9.703590e-001 6.445138e-001 7.387012e-001 2.606606e-001 2.678540e-001 8.578639e-001 1.772386e-001 1.304491e-001 -1.832551e-001 -1.878986e-001 3.893453e-001 6.735133e-002 2.635885e-001 2.938246e-001
<VARIANCE> 25
 8.716972e+001 9.031226e+001 4.543397e+001 2.433057e+001 3.490428e+001 2.717005e+001 2.556610e+001 3.830772e+001 5.469465e+001 8.654482e+000 1.193978e+001 9.985687e+000 4.625512e+000 2.093163e+000 1.638251e+000 3.201823e+000 2.876029e+000 3.381604e+000 2.384452e+000 2.469331e+000 2.558927e+000 1.410292e+000 1.304058e+000 1.410637e+000 1.967492e+000
<GCONST> 9.715353e+001
<STATE> 3
<MEAN> 25
 3.867531e+000 8.372783e+000 8.359994e+000 -2.290217e+000 1.642041e+001 -5.573041e+000 -7.558018e+000 1.310335e+000 -2.156533e+000 3.333605e+000 -1.232693e-001 4.893969e+000 -4.107688e-001 -3.588992e+000 2.247143e+000 -3.719963e+000 4.061435e-001 -1.246180e+000 1.199575e+000 7.088047e-001 -1.938068e+000 -6.443432e-002 -8.642020e-001 8.985933e-001 3.439103e+000
<VARIANCE> 25
 2.331317e+001 1.726476e+002 1.653314e+002 1.288807e+002 1.792319e+002 4.187467e+001 9.372295e+001 3.264442e+001 4.990751e+001 2.755344e+001 5.580323e+000 4.223598e+001 6.575166e+000 6.719481e+000 6.755435e+000 9.326814e+000 3.713981e+001 2.771979e+000 1.042934e+001 3.775621e+000 5.239652e+000 7.138437e+000 8.812369e-001 3.734878e+000 3.865768e+000
<GCONST> 1.162564e+002
<STATE> 4
<MEAN> 25
 3.384174e+000 -6.859836e+000 1.619877e+001 -1.014966e+001 2.069404e+000 -1.486559e+001 6.004412e+000 6.282637e+000 -2.628110e+000 3.139990e+000 -4.653868e+000 5.388451e+000 3.647279e-002 -1.869180e-001 -6.974092e-003 -1.214432e-001 -2.995217e-001 -2.162593e-001 2.177266e-001 -1.067022e-001 2.262056e-002 1.757565e-002 7.674876e-003 8.635559e-002 1.540686e-001
<VARIANCE> 25
 2.405239e+001 6.178275e+001 4.463841e+001 5.412444e+001 7.645759e+001 4.152613e+001 5.850676e+001 6.452494e+001 6.316360e+001 2.551333e+001 6.138794e+001 1.792097e+001 1.246112e+000 1.964351e+000 3.582984e+000 4.550752e+000 7.626185e+000 4.391071e+000 3.361708e+000 4.586551e+000 4.743998e+000 2.046131e+000 4.250352e+000 1.302827e+000 2.589604e+000
<GCONST> 1.065973e+002
<TRANSP> 5
 0.000000e+000 1.000000e+000 0.000000e+000 0.000000e+000 0.000000e+000
 0.000000e+000 8.969986e-001 1.030014e-001 0.000000e+000 0.000000e+000
 0.000000e+000 0.000000e+000 6.536930e-001 3.463071e-001 0.000000e+000
 0.000000e+000 0.000000e+000 0.000000e+000 9.548348e-001 4.516525e-002
 0.000000e+000 0.000000e+000 0.000000e+000 0.000000e+000 0.000000e+000
<ENDHMM>
~h "k"
<BEGINHMM>
<NUMSTATES> 5
<STATE> 2
<MEAN> 25
 -4.993184e+000 3.231498e+000 -4.566858e+000 1.932487e+000 3.924849e-001 1.073171e+000 -1.208019e+000 -1.564734e+000 9.167827e-001 6.827757e-002 -4.429781e-001 -1.026150e+000 -4.529810e-001 2.152452e-001 -3.075676e-001 3.560512e-001 6.849848e-002 -3.322601e-002 4.908225e-002 9.571765e-002 1.059295e-001 6.050596e-002 1.362760e-001 1.300498e-001 -5.552434e-001
<VARIANCE> 25
 4.630759e+001 5.499223e+001 5.448108e+001 2.676479e+001 3.074269e+001 3.006718e+001 2.079616e+001 2.197325e+001 2.227808e+001 1.997903e+001 2.061807e+001 1.643810e+001 4.201700e-001 8.834032e-001 1.285601e+000 8.670089e-001 1.333747e+000 1.279119e+000 1.364229e+000 1.502377e+000 1.408138e+000 1.292946e+000 1.180939e+000 1.324235e+000 5.482423e-001
<GCONST> 8.676665e+001
<STATE> 3
<MEAN> 25
 -6.285487e+000 2.646255e+000 -6.065505e+000 3.099663e+000 1.231217e+000 1.822944e-001 -3.496493e-001 -2.399528e-001 8.767603e-001 3.470242e-001 1.693593e-001 1.832374e-002 2.774083e-001 -1.265148e+000 -1.263335e+000 1.909492e-001 9.396047e-001 -1.373116e-001 7.587466e-002 6.494029e-001 8.687748e-001 2.732380e-001 -2.969861e-002 -7.213895e-002 1.121916e+000
<VARIANCE> 25
 5.929216e+001 4.731842e+001 4.397153e+001 2.733878e+001 3.433736e+001 2.553645e+001 2.417554e+001 3.077851e+001 2.657025e+001 2.373241e+001 2.155840e+001 1.747902e+001 2.559229e+000 5.060492e+000 4.216405e+000 2.841213e+000 3.741738e+000 2.944756e+000 5.128938e+000 3.996531e+000 2.215664e+000 2.935380e+000 1.973755e+000 2.305801e+000 2.906938e+000
<GCONST> 1.016642e+002
<STATE> 4
<MEAN> 25
 1.555747e+000 -8.536598e+000 -9.933157e+000 -1.475032e-001 7.449712e+000 -9.214032e-001 -2.440061e+000 2.220669e+000 5.112217e+000 1.632726e+000 -1.617665e+000 -1.751876e+000 2.162605e+000 -2.280090e+000 4.644363e-001 -1.481146e+000 2.348905e-001 -1.831715e-002 7.561548e-001 5.462313e-001 4.320982e-001 4.899628e-001 -3.951329e-001 -8.080629e-001 3.535689e+000
<VARIANCE> 25
 8.857870e+001 9.730556e+001 8.776624e+001 1.003460e+002 1.210294e+002 8.306472e+001 1.076916e+002 7.166563e+001 5.600385e+001 3.678114e+001 3.214827e+001 3.105571e+001 4.969719e+000 9.713005e+000 9.216880e+000 6.446978e+000 1.608058e+001 6.880827e+000 1.306436e+001 7.505699e+000 6.114361e+000 4.755855e+000 3.037479e+000 3.043463e+000 5.583478e+000
<GCONST> 1.213627e+002
<TRANSP> 5
 0.000000e+000 1.000000e+000 0.000000e+000 0.000000e+000 0.000000e+000
 0.000000e+000 8.663628e-001 1.336372e-001 0.000000e+000 0.000000e+000
 0.000000e+000 0.000000e+000 3.660046e-001 6.339955e-001 0.000000e+000
 0.000000e+000 0.000000e+000 0.000000e+000 7.712842e-001 2.287159e-001
 0.000000e+000 0.000000e+000 0.000000e+000 0.000000e+000 0.000000e+000
<ENDHMM>
~h "l"
<BEGINHMM>
<NUMSTATES> 5
<STATE> 2
<MEAN> 25
 5.342093e+000 4.091803e+000 -8.945093e-001 -2.234934e+000 -8.513485e-001 -2.159810e+000 -3.110892e+000 2.701199e+000 3.525809e+000 2.798282e+000 1.145450e+000 -2.220966e-002 1.850230e+000 -8.720216e-001 4.483775e-001 -2.239060e+000 3.335962e-002 4.668790e-001 -5.376499e-001 8.184440e-002 -1.597457e-001 7.142240e-001 -1.418459e-001 -2.362026e-001 2.408335e+000
<VARIANCE> 25
 1.196748e+002 1.733397e+002 1.394464e+002 1.478153e+002 6.954929e+001 9.025359e+001 9.027037e+001 6.945231e+001 7.074569e+001 5.956096e+001 3.380524e+001 4.229706e+001 9.656342e+000 9.001361e+000 7.591666e+000 8.878320e+000 5.285596e+000 8.387714e+000 7.681748e+000 6.655172e+000 4.324377e+000 5.182009e+000 2.866338e+000 3.366488e+000 6.156596e+000
<GCONST> 1.225157e+002
<STATE> 3
<MEAN> 25
 9.128103e+000 -4.257677e+000 5.178511e+000 -1.225563e+001 -2.300945e-001 -1.005664e+000 -6.448915e+000 1.469563e+000 2.970643e+000 6.192668e+000 -6.874593e-001 -1.272959e+000 -2.532908e-001 -1.235150e+000 9.178788e-002 -6.424007e-001 6.651778e-001 1.678402e-001 2.376110e-001 -3.404320e-001 4.875076e-001 2.258967e-001 -8.000841e-001 1.399411e-001 7.707902e-001
<VARIANCE> 25
 4.867008e+001 6.686545e+001 1.400235e+002 8.347128e+001 7.525014e+001 1.176738e+002 1.333270e+002 1.008836e+002 5.539935e+001 6.427496e+001 4.838025e+001 3.451499e+001 7.131077e-001 5.139112e+000 3.733849e+000 3.134930e+000 5.282332e+000 4.989088e+000 5.734157e+000 5.843332e+000 4.179231e+000 6.424376e+000 2.631598e+000 3.061545e+000 2.111134e+000
<GCONST> 1.142608e+002
<STATE> 4
<MEAN> 25
 9.043693e+000 -6.046080e+000 6.235020e+000 -1.444689e+001 2.478235e+000 -3.545441e-001 -5.524243e+000 -2.078798e+000 1.866021e+000 1.004382e+001 -3.810328e+000 -2.610776e-001 -4.903656e-002 -2.260371e-001 -4.022602e-001 2.585887e-001 1.655234e-001 4.131143e-001 4.813036e-001 -6.660300e-002 -1.731683e-001 -3.084105e-001 -2.958179e-001 -2.905129e-002 -1.101169e-001
<VARIANCE> 25
 2.287677e+001 4.670334e+001 5.740963e+001 9.186993e+001 6.210184e+001 8.806351e+001 9.973989e+001 1.199681e+002 7.473832e+001 6.057803e+001 4.734902e+001 4.193589e+001 4.116459e-001 2.384494e+000 1.588593e+000 3.062964e+000 2.329992e+000 2.110255e+000 3.160444e+000 3.433070e+000 2.983589e+000 3.007160e+000 2.689068e+000 1.661753e+000 9.789212e-001
<GCONST> 1.047100e+002
<TRANSP> 5
 0.000000e+000 1.000000e+000 0.000000e+000 0.000000e+000 0.000000e+000
 0.000000e+000 6.688479e-001 3.311522e-001 0.000000e+000 0.000000e+000
 0.000000e+000 0.000000e+000 4.356592e-001 5.643409e-001 0.000000e+000
 0.000000e+000 0.000000e+000 0.000000e+000 8.323987e-001 1.676013e-001
 0.000000e+000 0.000000e+000 0.000000e+000 0.000000e+000 0.000000e+000
<ENDHMM>
~h "m"
<BEGINHMM>
<NUMSTATES> 5
<STATE> 2
<MEAN> 25
 2.517546e+000 2.542783e+000 -1.445435e+000 5.261140e+000 3.226490e+000 3.749014e+000 -9.712343e-001 -5.667198e+000 -3.696939e+000 -5.728084e-001 -2.736002e-001 2.004053e+000 -2.300248e-001 5.227273e-001 -1.380551e-001 4.044181e-001 -1.408235e-001 7.601035e-002 1.092761e-001 -1.531012e-001 -1.551082e-001 -2.026481e-001 2.739406e-002 1.389741e-001 -6.021024e-001
<VARIANCE> 25
 9.736956e+001 3.310746e+001 7.349910e+001 2.541464e+001 2.690551e+001 4.259738e+001 3.062713e+001 5.164128e+001 7.774600e+001 2.504320e+001 2.299482e+001 2.110678e+001 2.841882e-001 4.432037e-001 7.718539e-001 1.057024e+000 8.533775e-001 8.963255e-001 1.095399e+000 1.462018e+000 1.706534e+000 1.168406e+000 1.021382e+000 1.161122e+000 1.738164e-001
<GCONST> 8.676552e+001
<STATE> 3
<MEAN> 25
 -7.446077e-001 6.150681e+000 -3.637900e+000 5.739500e+000 -4.630652e-001 3.605643e+000 1.388482e+000 -3.898770e+000 -1.757651e+000 -1.074094e+000 3.129201e-001 1.367317e+000 -1.632301e-001 1.682495e-001 -1.044649e-001 1.145420e-001 -4.539300e-002 -3.055514e-002 1.980778e-001 2.675187e-001 3.514964e-001 3.245354e-003 1.642555e-002 -1.471764e-001 -2.433370e-001
<VARIANCE> 25
 2.002123e+002 4.310421e+001 5.655587e+001 3.273782e+001 3.542796e+001 3.476846e+001 3.021529e+001 6.098870e+001 5.361358e+001 2.509794e+001 2.705036e+001 2.147265e+001 1.793648e+000 9.677373e-001 1.056863e+000 1.142743e+000 1.285291e+000 1.530034e+000 1.233610e+000 1.653824e+000 1.602463e+000 1.259107e+000 1.281018e+000 1.108336e+000 9.442849e-001
<GCONST> 9.386264e+001
<STATE> 4
<MEAN> 25
 7.848296e+000 4.981312e+000 -4.584446e+000 4.734625e+000 3.933642e+000 5.161545e+000 1.531724e+000 -5.953807e+000 -3.523758e+000 -1.674061e+000 1.960590e+000 7.233422e-001 1.901379e+000 -9.975539e-001 -3.257085e-001 -1.079233e+000 -8.468837e-002 4.826247e-001 -3.274424e-001 2.308039e-001 4.065627e-001 -2.140671e-001 -3.581026e-002 -1.807310e-001 2.030129e+000
<VARIANCE> 25
 1.229389e+002 1.718000e+002 8.508194e+001 1.036244e+002 5.579886e+001 7.163538e+001 4.039340e+001 7.274355e+001 7.886043e+001 3.292704e+001 3.412767e+001 1.848690e+001 7.681507e+000 1.153010e+001 7.953089e+000 9.145660e+000 5.175181e+000 5.500482e+000 4.975555e+000 8.547670e+000 1.098442e+001 2.985877e+000 2.919480e+000 1.829934e+000 4.723030e+000
<GCONST> 1.181655e+002
<TRANSP> 5
 0.000000e+000 1.000000e+000 0.000000e+000 0.000000e+000 0.000000e+000
 0.000000e+000 8.948298e-001 1.051702e-001 0.000000e+000 0.000000e+000
 0.000000e+000 0.000000e+000 7.224403e-001 2.775597e-001 0.000000e+000
 0.000000e+000 0.000000e+000 0.000000e+000 8.116534e-001 1.883466e-001
 0.000000e+000 0.000000e+000 0.000000e+000 0.000000e+000 0.000000e+000
<ENDHMM>
~h "n"
<BEGINHMM>
<NUMSTATES> 5
<STATE> 2
<MEAN> 25
 8.440943e+000 -8.354303e+000 6.319221e+000 -4.068363e+000 5.830917e-001 -6.540786e+000 2.880814e-001 4.237364e+000 -1.969985e+000 1.742539e+000 -5.322698e+000 -2.285606e-001 -1.187915e-001 1.857731e+000 5.889964e-001 1.402735e+000 -5.130144e-001 -2.375979e-001 -7.546873e-001 -1.736956e+000 -5.181223e-001 5.254975e-001 2.538432e-001 3.304686e-001 -1.469324e+000
<VARIANCE> 25
 9.233678e+000 4.882590e+001 6.264613e+001 6.508184e+001 3.066870e+001 3.579663e+001 5.420056e+001 8.879035e+001 3.130556e+001 2.458564e+001 3.249761e+001 1.480957e+001 3.025799e-001 2.112006e+000 1.243866e+000 3.381521e+000 1.404916e+000 1.522261e+000 3.129170e+000 4.115843e+000 1.791291e+000 1.638547e+000 1.379666e+000 9.705626e-001 1.220728e+000
<GCONST> 9.454638e+001
<STATE> 3
<MEAN> 25
 7.416979e+000 1.900671e+000 4.182691e+000 5.706948e+000 -7.960654e-001 -4.164195e+000 -2.985976e+000 -2.687408e+000 -1.961857e+000 1.662712e+000 -3.493559e+000 1.201159e+000 -2.588623e-001 5.992118e-001 -1.406767e-001 5.172864e-001 -1.157898e-002 3.763250e-001 2.081242e-002 -8.605509e-002 1.443769e-001 -1.195024e-001 2.504135e-001 2.534420e-002 -7.195215e-001
<VARIANCE> 25
 1.809979e+001 2.014546e+001 3.346928e+001 3.521902e+001 2.732728e+001 3.105896e+001 3.293703e+001 4.428258e+001 2.538383e+001 2.455143e+001 2.479475e+001 1.453761e+001 2.619414e-001 4.599994e-001 7.559280e-001 8.496983e-001 1.078715e+000 1.333222e+000 1.458994e+000 1.470479e+000 1.247600e+000 1.121700e+000 1.086423e+000 1.096671e+000 1.321133e-001
<GCONST> 8.232423e+001
<STATE> 4
<MEAN> 25
 1.038960e+000 4.484176e+000 3.455548e+000 4.754417e+000 -3.406794e+000 -3.468547e+000 -6.169422e-001 -8.033009e-001 -1.911711e+000 6.177747e-001 9.138615e-001 1.541909e+000 -4.771221e-001 1.304069e-001 -5.852724e-001 2.157034e-001 1.163318e-001 8.256811e-003 -1.942157e-004 9.107696e-002 1.844916e-001 -1.754040e-001 1.134551e-001 1.000152e-001 -6.443833e-001
<VARIANCE> 25
 4.121773e+001 4.038778e+001 1.389813e+002 1.317502e+002 5.028511e+001 3.551350e+001 3.397500e+001 5.547161e+001 4.847509e+001 3.979823e+001 2.317159e+001 2.034455e+001 4.850685e-001 1.268958e+000 1.370689e+000 1.899242e+000 1.744358e+000 2.179550e+000 1.885894e+000 2.538778e+000 1.628748e+000 1.552092e+000 1.508754e+000 1.424124e+000 3.602520e-001
<GCONST> 9.597369e+001
<TRANSP> 5
 0.000000e+000 1.000000e+000 0.000000e+000 0.000000e+000 0.000000e+000
 0.000000e+000 7.802754e-001 2.197246e-001 0.000000e+000 0.000000e+000
 0.000000e+000 0.000000e+000 9.096159e-001 9.038417e-002 0.000000e+000
 0.000000e+000 0.000000e+000 0.000000e+000 9.102703e-001 8.972961e-002
 0.000000e+000 0.000000e+000 0.000000e+000 0.000000e+000 0.000000e+000
<ENDHMM>
~h "o"
<BEGINHMM>
<NUMSTATES> 5
<STATE> 2
<MEAN> 25
 8.693263e+000 -5.078136e+000 1.688245e+001 -9.284990e+000 -3.319730e+000 -6.511059e+000 -7.388436e+000 4.530427e+000 -1.064998e+001 8.246803e+000 4.445413e+000 1.489591e+000 2.721300e-001 -2.964752e-001 -5.158599e-001 -2.257354e+000 1.668538e-001 8.244846e-001 -1.426955e-001 -3.586670e-001 7.506989e-001 4.869160e-001 1.121456e-002 3.532278e-001 7.601766e-001
<VARIANCE> 25
 1.180253e+001 1.907287e+001 7.243896e+001 1.690450e+002 3.768509e+001 4.542327e+001 1.396005e+001 8.701273e+001 5.268151e+001 3.749670e+001 1.681648e+001 6.188232e+000 1.212313e-001 1.660227e+000 4.740698e+000 4.103364e+000 3.107632e+000 4.457338e+000 1.963786e+000 3.159940e+000 5.228645e+000 1.112455e+000 2.742474e+000 1.197793e+000 7.525173e-001
<GCONST> 9.604195e+001
<STATE> 3
<MEAN> 25
 1.118090e+001 -8.145233e+000 8.413017e+000 -1.835118e+001 -1.565131e+000 -2.627893e-001 -3.303111e+000 2.775429e+000 -3.062455e+000 9.059591e+000 -1.802106e+000 5.859559e-001 -1.442802e-001 -1.088108e-001 -2.017345e-001 1.555420e-001 7.659498e-002 -4.709106e-001 5.254871e-001 8.995643e-001 -3.455129e-002 -6.158543e-001 -5.594786e-001 -3.768640e-001 -2.376742e-002
<VARIANCE> 25
 1.171340e+001 1.809365e+001 1.135740e+001 2.962496e+001 2.100360e+001 1.090120e+002 4.912404e+001 8.851351e+001 7.286731e+000 2.520825e+001 2.108615e+001 1.482936e+001 2.306377e-001 1.282546e+000 8.937556e-001 2.484473e+000 8.973501e-001 4.559307e+000 4.553136e+000 3.107706e+000 1.285676e+000 2.200488e+000 2.197259e+000 1.198044e+000 6.101843e-001
<GCONST> 8.934592e+001
<STATE> 4
<MEAN> 25
 1.758664e+000 -2.720741e-001 2.061771e+000 -7.371312e+000 1.164571e+000 3.036410e-001 -2.527968e+000 -3.172166e+000 -1.823368e+000 5.296042e+000 -2.746668e+000 -2.523369e+000 -7.939076e-001 5.296972e-003 -2.369007e-001 4.983035e-001 2.591619e-001 -1.869562e-001 5.115876e-002 7.559065e-002 2.241478e-001 7.303196e-002 1.435634e-002 -4.744402e-002 -7.518696e-001
<VARIANCE> 25
 6.170055e+001 1.841288e+001 7.545628e+001 1.933827e+002 2.581728e+001 3.695121e+001 2.096317e+001 4.139058e+001 3.122719e+001 6.896185e+001 2.975996e+001 9.536193e+000 4.211099e+000 1.343609e+000 4.498474e+000 1.528751e+001 2.002986e+000 1.882909e+000 1.957638e+000 2.833868e+000 3.093379e+000 6.017732e+000 1.800919e+000 1.504782e+000 5.456015e+000
<GCONST> 1.041424e+002
<TRANSP> 5
 0.000000e+000 1.000000e+000 0.000000e+000 0.000000e+000 0.000000e+000
 0.000000e+000 8.890906e-001 1.109095e-001 0.000000e+000 0.000000e+000
 0.000000e+000 0.000000e+000 9.177986e-001 8.220137e-002 0.000000e+000
 0.000000e+000 0.000000e+000 0.000000e+000 9.371909e-001 6.280910e-002
 0.000000e+000 0.000000e+000 0.000000e+000 0.000000e+000 0.000000e+000
<ENDHMM>
~h "p"
<BEGINHMM>
<NUMSTATES> 5
<STATE> 2
<MEAN> 25
 -1.939839e+000 2.209222e+000 -1.031017e+000 3.326566e+000 -1.417896e+000 3.391457e-001 -2.399020e+000 -1.949154e+000 2.251685e-002 -2.409832e-001 6.946534e-001 8.521793e-001 -4.955123e-001 1.648223e-001 -6.791251e-001 1.918186e-001 -3.263561e-002 -1.846489e-001 1.087596e-001 7.443712e-002 2.167485e-001 -3.860521e-002 -3.067967e-002 -2.280814e-002 -7.273008e-001
<VARIANCE> 25
 3.789699e+001 2.731926e+001 5.218570e+001 3.038238e+001 2.834926e+001 2.183717e+001 2.253557e+001 2.999732e+001 2.885110e+001 1.906989e+001 2.182904e+001 1.718394e+001 4.494642e-001 5.061626e-001 9.664320e-001 9.993245e-001 1.141378e+000 1.170353e+000 1.176962e+000 1.305929e+000 1.316316e+000 1.464086e+000 1.280308e+000 1.262851e+000 3.251597e-001
<GCONST> 8.465704e+001
<STATE> 3
<MEAN> 25
 -4.076502e+000 3.533480e+000 -4.142519e+000 4.509792e+000 -1.130889e+000 7.705772e-002 -6.815158e-001 -1.429884e+000 2.245181e-001 -1.236804e+000 2.745782e-001 4.928099e-001 6.057753e-001 -3.885513e-001 -1.025275e+000 -1.847828e-001 -8.946412e-002 -2.434173e-001 5.429866e-001 2.389025e-001 -1.218540e-001 4.702844e-002 7.705583e-002 -8.978479e-002 5.783686e-001
<VARIANCE> 25
 5.080258e+001 3.027167e+001 4.029269e+001 2.474910e+001 2.854308e+001 2.059986e+001 2.003267e+001 2.897683e+001 2.380325e+001 1.900124e+001 1.927453e+001 1.635112e+001 1.786816e+000 1.487781e+000 2.081508e+000 2.978878e+000 1.932398e+000 1.683853e+000 2.263881e+000 2.056407e+000 1.823834e+000 1.912408e+000 1.943215e+000 1.482954e+000 1.498941e+000
<GCONST> 9.303070e+001
<STATE> 4
<MEAN> 25
 5.782607e+000 -1.002252e+000 -8.577758e+000 2.890235e+000 -2.710363e+000 3.910659e-001 2.745869e+000 -1.032969e+000 -1.344649e+000 -6.385889e-001 1.021076e+000 -7.192795e-001 3.462632e+000 -1.521832e+000 -9.093955e-001 -2.429690e+000 -5.469715e-001 5.160268e-001 8.994734e-001 4.311254e-001 -5.611319e-001 5.101432e-001 5.403682e-002 -1.095985e+000 3.782745e+000
<VARIANCE> 25
 9.723106e+001 7.203870e+001 6.003294e+001 7.483737e+001 3.924321e+001 5.013284e+001 4.273382e+001 3.227657e+001 3.420890e+001 3.347429e+001 2.588012e+001 2.999686e+001 4.833899e+000 1.335748e+001 6.499062e+000 1.038691e+001 5.469454e+000 5.505287e+000 4.816538e+000 4.353578e+000 3.739321e+000 4.769039e+000 2.934256e+000 3.500553e+000 7.403490e+000
<GCONST> 1.137633e+002
<TRANSP> 5
 0.000000e+000 1.000000e+000 0.000000e+000 0.000000e+000 0.000000e+000
 0.000000e+000 9.061466e-001 9.385345e-002 0.000000e+000 0.000000e+000
 0.000000e+000 0.000000e+000 4.138091e-001 5.861909e-001 0.000000e+000
 0.000000e+000 0.000000e+000 0.000000e+000 6.570125e-001 3.429875e-001
 0.000000e+000 0.000000e+000 0.000000e+000 0.000000e+000 0.000000e+000
<ENDHMM>
~h "r"
<BEGINHMM>
<NUMSTATES> 5
<STATE> 2
<MEAN> 25
 1.084514e+001 -1.065099e+001 3.045402e+000 -2.993058e+000 -3.308043e+000 -1.553424e+000 -6.704697e+000 -2.600835e+000 3.342515e+000 4.420382e+000 -3.154417e+000 2.891018e+000 8.736005e-002 -1.717923e-001 -8.849986e-001 1.646065e+000 9.042235e-002 -7.619449e-003 1.513913e-002 -1.373820e-001 1.272486e+000 -7.758852e-001 -6.569945e-001 7.359795e-001 -5.048083e-001
<VARIANCE> 25
 2.135382e+001 3.362590e+001 5.959871e+001 6.782971e+001 4.189926e+001 5.722414e+001 8.497801e+001 8.236858e+001 6.485790e+001 4.428512e+001 4.631705e+001 3.660413e+001 1.175684e+000 1.773970e+000 1.603387e+000 5.531964e+000 3.086751e+000 3.425979e+000 2.922264e+000 3.028173e+000 3.173131e+000 3.424693e+000 2.202875e+000 2.567197e+000 1.151238e+000
<GCONST> 1.045781e+002
<STATE> 3
<MEAN> 25
 9.856519e+000 -8.432571e+000 -9.012918e-001 5.145643e+000 -1.722919e+000 1.039066e+000 -3.358518e+000 1.689490e-001 7.238002e+000 1.330133e-001 -3.343431e+000 4.715853e+000 -5.593059e-001 6.519161e-001 -2.297430e-001 9.413455e-001 5.326715e-001 7.242415e-001 6.671602e-001 4.671872e-001 1.850912e-001 -3.089007e-001 2.117617e-001 -4.459998e-002 -1.017409e+000
<VARIANCE> 25
 2.847092e+001 3.770874e+001 3.486654e+001 4.429682e+001 3.813009e+001 4.480494e+001 5.411973e+001 5.770374e+001 3.852906e+001 3.328370e+001 3.294195e+001 3.382152e+001 1.316307e+000 1.322164e+000 1.202094e+000 1.680724e+000 2.199521e+000 2.324038e+000 2.629818e+000 2.607538e+000 2.048140e+000 2.149583e+000 1.757075e+000 2.229335e+000 9.509965e-001
<GCONST> 9.754188e+001
<STATE> 4
<MEAN> 25
 -8.383108e-001 3.024475e-001 -7.371077e+000 7.397492e+000 2.274940e-001 -2.833187e-001 -1.405593e+000 3.643286e-001 5.680899e+000 -1.550763e+000 -1.660854e+000 1.752161e+000 -4.830614e-001 5.111200e-001 -3.810412e-001 -6.423514e-002 -7.193635e-002 -2.135269e-001 3.747306e-002 -6.365219e-002 -1.627453e-001 -3.223170e-002 1.529209e-001 -2.290427e-001 -7.072035e-001
<VARIANCE> 25
 5.241415e+001 5.107913e+001 4.827298e+001 2.466705e+001 3.095665e+001 3.037435e+001 2.489946e+001 2.644893e+001 2.685548e+001 2.308433e+001 2.061107e+001 2.409503e+001 5.597631e-001 6.040069e-001 1.052286e+000 9.196065e-001 1.230882e+000 1.453772e+000 1.401631e+000 1.480813e+000 1.549750e+000 1.568648e+000 1.218938e+000 1.505389e+000 3.652338e-001
<GCONST> 8.757851e+001
<TRANSP> 5
 0.000000e+000 1.000000e+000 0.000000e+000 0.000000e+000 0.000000e+000
 0.000000e+000 8.104392e-001 1.895608e-001 0.000000e+000 0.000000e+000
 0.000000e+000 0.000000e+000 7.386657e-001 2.613343e-001 0.000000e+000
 0.000000e+000 0.000000e+000 0.000000e+000 9.037966e-001 9.620344e-002
 0.000000e+000 0.000000e+000 0.000000e+000 0.000000e+000 0.000000e+000
<ENDHMM>
~h "s"
<BEGINHMM>
<NUMSTATES> 5
<STATE> 2
<MEAN> 25
 3.663100e+000 -3.425205e+000 6.036649e+000 -4.441373e+000 1.198304e+001 -6.472270e+000 5.696788e+000 7.122155e-002 -2.358587e-001 -4.368553e-001 -4.653565e+000 5.838392e+000 -1.989806e+000 6.234991e-001 1.245887e+000 -1.825574e+000 3.270317e+000 -2.779352e+000 1.930098e+000 -1.714040e+000 2.707868e-002 -3.496460e-001 5.349820e-001 -2.294005e-001 1.323696e+000
<VARIANCE> 25
 7.654242e+001 8.301027e+001 1.056997e+002 8.273287e+001 1.020416e+002 1.054212e+002 7.619948e+001 8.686539e+001 4.260972e+001 4.179695e+001 3.310983e+001 2.619301e+001 8.068286e+000 7.423208e+000 7.804089e+000 7.235569e+000 5.927246e+000 7.811711e+000 5.796110e+000 8.933014e+000 6.117542e+000 4.771700e+000 3.573495e+000 3.385403e+000 6.056984e+000
<GCONST> 1.196877e+002
<STATE> 3
<MEAN> 25
 -9.529448e+000 -1.022800e+000 1.013035e+001 -1.216580e+001 2.071287e+001 -1.590888e+001 1.373727e+001 -6.410568e+000 3.455872e+000 -1.841941e+000 5.633402e-001 1.992413e+000 -9.840820e-001 8.110525e-002 -1.386764e-001 -2.083281e-001 -3.323825e-002 2.128830e-002 -1.236089e-001 1.231285e-002 3.701267e-001 -1.831105e-002 5.297568e-001 -3.080815e-001 -3.910682e-001
<VARIANCE> 25
 8.090070e+001 4.293625e+001 5.088309e+001 3.944570e+001 5.582779e+001 4.491699e+001 4.178967e+001 2.602703e+001 2.533602e+001 2.127967e+001 2.306602e+001 1.862687e+001 6.689318e+000 2.844527e+000 2.989886e+000 3.072760e+000 2.378998e+000 2.299057e+000 2.471101e+000 2.289286e+000 2.475603e+000 2.038964e+000 1.917182e+000 1.586632e+000 2.414683e+000
<GCONST> 1.010849e+002
<STATE> 4
<MEAN> 25
 -9.990431e+000 1.217227e+000 4.477782e+000 -6.392164e+000 1.363440e+001 -9.747900e+000 6.125185e+000 -2.133265e+000 2.538317e+000 1.501193e-001 -7.676634e-001 1.035310e+000 3.718586e-001 1.893128e-001 -6.591614e-001 6.697272e-001 -9.033037e-001 6.146348e-001 -6.790153e-001 3.224374e-001 -2.479591e-001 1.047385e-001 -1.741083e-001 -1.240096e-002 -9.484596e-001
<VARIANCE> 25
 5.251105e+001 3.402981e+001 6.784708e+001 5.004923e+001 6.217941e+001 4.605834e+001 4.033618e+001 2.657409e+001 2.406988e+001 1.668163e+001 2.315850e+001 1.356203e+001 1.856888e+000 1.236697e+000 1.579500e+000 1.645476e+000 1.267089e+000 1.705653e+000 1.281217e+000 1.793765e+000 1.584737e+000 1.150714e+000 1.524181e+000 1.124089e+000 7.265564e-001
<GCONST> 9.245655e+001
<TRANSP> 5
 0.000000e+000 1.000000e+000 0.000000e+000 0.000000e+000 0.000000e+000
 0.000000e+000 7.635775e-001 2.364225e-001 0.000000e+000 0.000000e+000
 0.000000e+000 0.000000e+000 8.408710e-001 1.591290e-001 0.000000e+000
 0.000000e+000 0.000000e+000 0.000000e+000 9.030542e-001 9.694586e-002
 0.000000e+000 0.000000e+000 0.000000e+000 0.000000e+000 0.000000e+000
<ENDHMM>
~h "t"
<BEGINHMM>
<NUMSTATES> 5
<STATE> 2
<MEAN> 25
 -8.367625e+000 6.750124e+000 -6.685410e+000 4.404881e+000 -9.352652e-001 -1.195101e+000 -4.502168e-001 -2.825332e-001 2.007909e+000 -1.372605e+000 9.355110e-001 -8.885784e-002 -4.922081e-001 1.943484e-001 -1.299601e-001 1.748920e-001 -8.441363e-002 -2.797704e-002 8.322365e-002 -2.598897e-002 4.869319e-002 -5.459087e-002 9.169346e-002 -4.180266e-002 -5.458075e-001
<VARIANCE> 25
 5.324887e+001 2.994086e+001 3.246729e+001 2.622475e+001 2.341392e+001 2.207140e+001 2.196938e+001 2.191135e+001 2.370293e+001 1.471245e+001 1.576744e+001 1.536010e+001 2.419530e-001 4.047993e-001 7.319781e-001 6.753111e-001 7.843328e-001 9.124311e-001 1.062170e+000 1.161691e+000 1.260502e+000 9.968524e-001 1.034357e+000 1.056623e+000 1.514187e-001
<GCONST> 7.911352e+001
<STATE> 3
<MEAN> 25
 -1.166157e+001 5.857356e+000 -5.383589e+000 5.094421e+000 -4.216531e-001 3.773796e-001 1.113562e+000 1.463208e-001 2.584583e+000 -6.328408e-001 1.592865e+000 1.278768e-001 2.947469e-001 -7.018220e-001 2.955326e-001 1.740510e-001 -1.521314e-001 -2.474272e-001 3.192973e-001 4.828848e-001 -6.344336e-002 1.333354e-001 3.226775e-001 9.331604e-002 7.854051e-001
<VARIANCE> 25
 1.052484e+002 3.843373e+001 2.744424e+001 1.871898e+001 1.752890e+001 2.344354e+001 2.355136e+001 2.007154e+001 2.641690e+001 1.569791e+001 1.594008e+001 1.575559e+001 5.175473e+000 3.241596e+000 2.261326e+000 1.568621e+000 2.784619e+000 2.729331e+000 3.476613e+000 2.767680e+000 2.878989e+000 1.908113e+000 1.401194e+000 1.469069e+000 3.648250e+000
<GCONST> 9.632251e+001
<STATE> 4
<MEAN> 25
 -1.251762e+000 -2.876868e+000 1.665848e+000 3.444975e-001 -8.015164e-001 -2.910563e+000 -1.358232e+000 2.417694e+000 -1.173709e+000 -4.624750e-001 2.298012e+000 2.967549e-001 3.539211e+000 -2.130301e+000 2.232270e+000 -2.382269e+000 -5.663707e-001 -4.387258e-001 -4.386979e-001 6.583520e-001 -1.567530e+000 5.663961e-001 3.953555e-001 8.644775e-002 4.917570e+000
<VARIANCE> 25
 9.284901e+001 9.904929e+001 1.388633e+002 9.283466e+001 6.999711e+001 7.358508e+001 1.170447e+002 4.628600e+001 8.682907e+001 4.357392e+001 3.402773e+001 2.699138e+001 8.136452e+000 1.447341e+001 1.085315e+001 1.119000e+001 9.693599e+000 7.654568e+000 1.220807e+001 7.080288e+000 1.061329e+001 4.749289e+000 4.493704e+000 4.729936e+000 1.207643e+001
<GCONST> 1.245455e+002
<TRANSP> 5
 0.000000e+000 1.000000e+000 0.000000e+000 0.000000e+000 0.000000e+000
 0.000000e+000 9.151396e-001 8.486044e-002 0.000000e+000 0.000000e+000
 0.000000e+000 0.000000e+000 4.507629e-001 5.492370e-001 0.000000e+000
 0.000000e+000 0.000000e+000 0.000000e+000 7.413579e-001 2.586421e-001
 0.000000e+000 0.000000e+000 0.000000e+000 0.000000e+000 0.000000e+000
<ENDHMM>
~h "u"
<BEGINHMM>
<NUMSTATES> 5
<STATE> 2
<MEAN> 25
 1.159604e+001 4.139970e+000 -1.333754e+000 -5.342876e+000 -4.656934e+000 1.185387e+000 -1.023106e+000 -1.699808e+000 -6.465343e+000 -1.745958e+000 1.968561e+000 1.032843e+000 4.304816e-001 5.599396e-001 9.542157e-002 -2.415379e+000 -1.403271e-001 6.463302e-001 -3.625219e-001 1.165175e-001 -8.359148e-001 -1.043980e-001 3.401615e-001 1.121409e-001 5.356150e-001
<VARIANCE> 25
 7.324200e+001 7.581667e+001 9.157845e+001 1.837999e+002 5.573796e+001 4.315053e+001 5.723089e+001 6.059181e+001 8.422497e+001 5.242785e+001 3.723992e+001 3.409109e+001 1.949105e+000 3.620623e+000 2.586753e+000 6.321985e+000 3.204823e+000 3.430472e+000 3.658127e+000 4.244499e+000 3.460572e+000 3.358849e+000 3.312254e+000 2.047273e+000 1.646117e+000
<GCONST> 1.105300e+002
<STATE> 3
<MEAN> 25
 1.217174e+001 7.222632e+000 2.729869e+000 -1.794665e+001 -4.447370e+000 1.643293e+000 -6.052110e+000 2.275390e-001 -9.432860e+000 -1.245368e+000 1.013205e+000 -6.249494e-001 -2.128668e-001 2.133625e-001 -1.048442e-001 -5.055805e-001 -4.860001e-002 1.098465e-001 -3.635303e-001 -4.540406e-002 4.104846e-001 2.234228e-001 -1.464467e-001 -1.829492e-001 -2.295738e-001
<VARIANCE> 25
 3.280247e+001 4.660768e+001 6.871104e+001 1.653921e+002 4.328279e+001 5.686851e+001 6.021428e+001 6.293397e+001 6.488583e+001 5.309104e+001 4.015798e+001 3.133933e+001 3.662068e-001 1.046346e+000 1.303748e+000 3.298362e+000 1.479725e+000 2.092739e+000 2.098002e+000 2.626434e+000 2.277676e+000 3.268620e+000 1.998669e+000 1.678055e+000 6.560450e-001
<GCONST> 1.000807e+002
<STATE> 4
<MEAN> 25
 4.752547e+000 9.876492e+000 -4.539629e+000 -8.901402e+000 -2.730367e+000 2.104417e+000 -2.452708e+000 -1.554018e+000 -3.585417e+000 -1.399410e+000 1.322413e+000 -1.385482e-001 -7.036883e-001 -1.715332e-001 -2.654160e-001 8.962476e-001 1.670453e-001 -2.122872e-002 1.562774e-001 -3.007937e-001 4.936860e-001 2.405562e-001 3.172215e-003 -3.286941e-003 -7.092869e-001
<VARIANCE> 25
 8.850209e+001 4.115996e+001 6.602578e+001 1.244241e+002 4.045051e+001 4.389317e+001 4.853703e+001 4.703005e+001 5.071175e+001 5.968371e+001 2.684205e+001 2.221189e+001 9.278668e-001 9.577442e-001 1.687238e+000 3.667484e+000 1.640447e+000 2.307018e+000 1.909355e+000 2.237229e+000 2.187572e+000 2.522421e+000 1.874581e+000 1.626312e+000 1.006862e+000
<GCONST> 1.000990e+002
<TRANSP> 5
 0.000000e+000 1.000000e+000 0.000000e+000 0.000000e+000 0.000000e+000
 0.000000e+000 7.125506e-001 2.874494e-001 0.000000e+000 0.000000e+000
 0.000000e+000 0.000000e+000 7.745702e-001 2.254298e-001 0.000000e+000
 0.000000e+000 0.000000e+000 0.000000e+000 8.843967e-001 1.156034e-001
 0.000000e+000 0.000000e+000 0.000000e+000 0.000000e+000 0.000000e+000
<ENDHMM>
~h "w"
<BEGINHMM>
<NUMSTATES> 5
<STATE> 2
<MEAN> 25
 -9.225032e+000 2.524683e+000 -5.036510e+000 9.692185e+000 -3.703388e+000 -5.215177e+000 7.974212e-001 1.126748e+000 6.999006e-001 -4.861218e+000 2.756603e+000 2.058883e+000 5.262406e-001 8.801906e-001 3.004777e-001 -4.513413e-002 -2.233929e-001 -1.825103e-001 -7.913242e-002 -1.368816e-002 7.676611e-003 -1.901473e-001 -1.029781e-001 -7.818801e-002 8.430754e-002
<VARIANCE> 25
 1.158127e+002 1.166412e+002 8.596741e+001 1.515727e+002 6.860228e+001 4.535850e+001 3.082674e+001 4.621491e+001 2.495541e+001 3.356393e+001 2.901546e+001 3.302608e+001 4.053810e+000 4.009975e+000 4.023943e+000 2.808509e+000 2.861012e+000 2.410313e+000 2.028021e+000 2.063707e+000 2.281088e+000 2.729847e+000 1.707298e+000 1.368209e+000 2.158044e+000
<GCONST> 1.058557e+002
<STATE> 3
<MEAN> 25
 1.326480e+001 1.652156e+001 -4.052320e+000 -1.041595e+001 -1.175540e+001 2.175720e+000 2.369975e+000 -1.767377e+000 -9.037270e-001 -6.418078e+000 7.717177e-001 4.314313e+000 1.190387e+000 -1.387681e+000 -4.040500e-001 -2.513073e+000 -1.795527e-001 2.519438e+000 2.351420e-002 -8.654559e-001 4.107310e-001 6.033127e-001 7.152893e-001 7.420133e-001 1.827302e+000
<VARIANCE> 25
 2.457052e+001 6.516220e+001 3.417393e+001 9.273521e+001 2.548568e+001 9.412569e+001 3.074965e+001 2.426542e+001 3.383194e+001 3.217322e+001 2.827889e+001 3.104539e+001 4.504116e+000 7.315589e+000 3.200454e+000 4.001192e+000 5.318116e+000 9.765984e+000 4.113945e+000 2.416341e+000 3.287551e+000 5.959931e+000 3.174283e+000 3.797607e+000 1.553306e+000
<GCONST> 1.077509e+002
<STATE> 4
<MEAN> 25
 1.271687e+001 -6.407706e+000 1.407570e+000 -2.093669e+001 -1.588061e+000 1.588721e+001 -6.235451e+000 -5.128253e+000 3.378633e+000 8.577681e+000 2.906683e+000 -3.540814e+000 -9.539340e-001 -3.759748e+000 1.456286e+000 6.778225e-001 2.168640e+000 -1.762213e+000 -4.396677e-001 2.140406e+000 6.375111e-001 1.542882e+000 -2.011168e+000 -2.186870e+000 1.863010e+000
<VARIANCE> 25
 6.564604e+000 6.003878e+001 4.270921e+001 2.550797e+001 3.544387e+001 6.803841e+001 5.198279e+001 7.276972e+001 4.242082e+001 3.073041e+001 5.245173e+001 3.777507e+001 2.450621e-001 2.288937e+000 2.482834e+000 3.190390e+000 3.775567e+000 1.056261e+001 4.891779e+000 7.184866e+000 5.484992e+000 6.347122e+000 4.229785e+000 4.305232e+000 5.114242e-001
<GCONST> 1.042259e+002
<TRANSP> 5
 0.000000e+000 1.000000e+000 0.000000e+000 0.000000e+000 0.000000e+000
 0.000000e+000 9.014269e-001 9.857315e-002 0.000000e+000 0.000000e+000
 0.000000e+000 0.000000e+000 8.478716e-001 1.521284e-001 0.000000e+000
 0.000000e+000 0.000000e+000 0.000000e+000 8.181801e-001 1.818199e-001
 0.000000e+000 0.000000e+000 0.000000e+000 0.000000e+000 0.000000e+000
<ENDHMM>
~h "y"
<BEGINHMM>
<NUMSTATES> 5
<STATE> 2
<MEAN> 25
 1.565769e-007 -6.290797e-008 -2.937665e-007 -4.371385e-008 5.392831e-009 -1.134847e-007 1.048326e-008 1.461609e-009 6.497437e-008 2.474654e-008 2.793856e-008 3.496100e-008 6.361995e-003 4.308552e-003 2.542655e-003 -9.878381e-004 4.629357e-004 7.091404e-004 -2.578934e-003 -6.028318e-003 -4.543920e-003 -2.417521e-003 -2.678531e-003 -6.849539e-003 3.474661e-003
<VARIANCE> 25
 1.482363e+002 1.186289e+002 1.358767e+002 1.150533e+002 6.856859e+001 5.959438e+001 5.340210e+001 5.644455e+001 5.966214e+001 3.805057e+001 3.493165e+001 2.775295e+001 2.220379e+000 3.354012e+000 3.076584e+000 3.783211e+000 3.009660e+000 2.603472e+000 2.703241e+000 2.901384e+000 2.795699e+000 2.264799e+000 1.906537e+000 1.789198e+000 2.980222e+000
<GCONST> 1.090549e+002
<STATE> 3
<MEAN> 25
 1.565769e-007 -6.290797e-008 -2.937665e-007 -4.371385e-008 5.392831e-009 -1.134847e-007 1.048326e-008 1.461609e-009 6.497437e-008 2.474654e-008 2.793856e-008 3.496100e-008 6.361995e-003 4.308552e-003 2.542655e-003 -9.878381e-004 4.629357e-004 7.091404e-004 -2.578934e-003 -6.028318e-003 -4.543920e-003 -2.417521e-003 -2.678531e-003 -6.849539e-003 3.474661e-003
<VARIANCE> 25
 1.482363e+002 1.186289e+002 1.358767e+002 1.150533e+002 6.856859e+001 5.959438e+001 5.340210e+001 5.644455e+001 5.966214e+001 3.805057e+001 3.493165e+001 2.775295e+001 2.220379e+000 3.354012e+000 3.076584e+000 3.783211e+000 3.009660e+000 2.603472e+000 2.703241e+000 2.901384e+000 2.795699e+000 2.264799e+000 1.906537e+000 1.789198e+000 2.980222e+000
<GCONST> 1.090549e+002
<STATE> 4
<MEAN> 25
 1.565769e-007 -6.290797e-008 -2.937665e-007 -4.371385e-008 5.392831e-009 -1.134847e-007 1.048326e-008 1.461609e-009 6.497437e-008 2.474654e-008 2.793856e-008 3.496100e-008 6.361995e-003 4.308552e-003 2.542655e-003 -9.878381e-004 4.629357e-004 7.091404e-004 -2.578934e-003 -6.028318e-003 -4.543920e-003 -2.417521e-003 -2.678531e-003 -6.849539e-003 3.474661e-003
<VARIANCE> 25
 1.482363e+002 1.186289e+002 1.358767e+002 1.150533e+002 6.856859e+001 5.959438e+001 5.340210e+001 5.644455e+001 5.966214e+001 3.805057e+001 3.493165e+001 2.775295e+001 2.220379e+000 3.354012e+000 3.076584e+000 3.783211e+000 3.009660e+000 2.603472e+000 2.703241e+000 2.901384e+000 2.795699e+000 2.264799e+000 1.906537e+000 1.789198e+000 2.980222e+000
<GCONST> 1.090549e+002
<TRANSP> 5
 0.000000e+000 1.000000e+000 0.000000e+000 0.000000e+000 0.000000e+000
 0.000000e+000 6.000000e-001 4.000000e-001 0.000000e+000 0.000000e+000
 0.000000e+000 0.000000e+000 6.000000e-001 4.000000e-001 0.000000e+000
 0.000000e+000 0.000000e+000 0.000000e+000 7.000000e-001 3.000000e-001
 0.000000e+000 0.000000e+000 0.000000e+000 0.000000e+000 0.000000e+000
<ENDHMM>
~h "ay"
<BEGINHMM>
<NUMSTATES> 5
<STATE> 2
<MEAN> 25
 -5.228731e+000 -6.032172e+000 -1.445911e+001 1.367915e+001 5.363598e+000 -3.329371e+000 2.196648e+000 7.055943e+000 3.513440e+000 -8.729297e+000 -1.560797e+000 6.417884e+000 -1.034583e-001 3.154902e-001 -2.662410e-001 -3.627132e-001 -1.418898e-001 4.588464e-001 3.170921e-001 -3.573596e-001 8.074855e-002 -1.149074e-002 1.551431e-002 -3.512902e-001 -2.375716e-001
<VARIANCE> 25
 7.287659e+001 1.231816e+002 3.769791e+001 5.747363e+001 1.390759e+001 9.696321e+001 4.970103e+001 5.438353e+001 5.130796e+001 2.411933e+001 1.297447e+001 2.531172e+001 9.690276e-001 5.971835e+000 2.082641e+000 2.755318e+000 1.227121e+000 3.938958e+000 2.170360e+000 2.661397e+000 2.112010e+000 3.544934e+000 1.791113e+000 2.275902e+000 1.854681e+000
<GCONST> 1.016224e+002
<STATE> 3
<MEAN> 25
 -7.019907e-001 2.953854e+000 -1.022617e+001 5.168248e+000 3.542513e+000 3.794996e+000 3.306486e+000 -1.222553e+000 8.460727e-001 -5.355669e+000 -6.463084e-001 6.153409e-001 8.737850e-001 -1.233455e+000 2.400394e-001 -7.892153e-001 -1.089162e+000 1.115802e+000 2.966363e-001 -1.180628e-001 5.782830e-001 1.902667e-001 -1.014122e-001 7.027797e-002 1.346756e+000
<VARIANCE> 25
 2.118757e+002 8.640115e+001 4.921567e+001 4.654293e+001 1.735517e+001 4.938035e+001 2.350292e+001 6.316802e+001 9.718819e+001 1.929761e+001 1.410353e+001 1.387170e+001 2.313024e+000 1.108421e+001 6.337421e+000 2.595052e+000 3.096845e+000 5.111652e+000 4.230833e+000 2.450402e+000 8.491431e+000 3.059497e+000 1.674528e+000 6.298297e-001 1.660727e+000
<GCONST> 1.053303e+002
<STATE> 4
<MEAN> 25
 1.252077e+001 -9.758843e+000 -3.997635e+000 1.637813e+000 5.347862e-001 1.093139e+001 -1.145088e+000 -5.733911e-001 3.056572e+000 -7.206012e+000 6.923182e-001 1.598146e+000 2.074411e-001 -1.207517e+000 1.240943e+000 -7.862637e-001 -3.977779e-001 -1.973021e-001 -5.392392e-002 7.152931e-001 -8.009197e-002 8.750100e-002 6.884131e-002 -1.906478e-001 1.252057e+000
<VARIANCE> 25
 4.452027e+001 2.176959e+002 8.730418e+001 8.823392e+001 6.035145e+001 4.715688e+001 5.260036e+001 9.965202e+001 8.153303e+001 4.013366e+001 1.972738e+001 1.870102e+001 5.407015e+000 9.146283e+000 4.434057e+000 4.026109e+000 3.631152e+000 3.755262e+000 4.509277e+000 5.217257e+000 9.724116e+000 3.648269e+000 2.059476e+000 1.534190e+000 3.706816e+000
<GCONST> 1.131807e+002
<TRANSP> 5
 0.000000e+000 1.000000e+000 0.000000e+000 0.000000e+000 0.000000e+000
 0.000000e+000 8.172586e-001 1.827414e-001 0.000000e+000 0.000000e+000
 0.000000e+000 0.000000e+000 2.469000e-001 7.531000e-001 0.000000e+000
 0.000000e+000 0.000000e+000 0.000000e+000 9.348902e-001 6.510989e-002
 0.000000e+000 0.000000e+000 0.000000e+000 0.000000e+000 0.000000e+000
<ENDHMM>
~h "eh"
<BEGINHMM>
<NUMSTATES> 5
<STATE> 2
<MEAN> 25
 6.922189e+000 -1.050688e+001 8.632851e+000 -7.588626e+000 -9.707179e+000 -1.063323e+001 7.235045e+000 1.085511e+001 -3.599067e+000 9.429172e-001 3.947684e+000 3.037713e-001 -2.844779e-001 -5.984464e-001 2.296182e-001 -1.368929e+000 -1.152660e-002 -5.153297e-001 1.021804e+000 -4.965477e-002 -8.423306e-002 3.153061e-001 2.199570e-001 -1.295802e-001 6.462839e-001
<VARIANCE> 25
 1.318493e+001 5.068335e+001 1.403947e+002 2.951327e+001 4.734842e+001 3.436763e+001 4.821801e+001 3.364873e+001 7.073838e+001 1.790804e+001 2.853183e+001 2.339547e+001 5.843604e-001 1.425477e+000 3.288142e+000 2.552547e+000 3.074156e+000 2.781388e+000 2.985512e+000 2.594083e+000 2.178744e+000 2.726141e+000 1.850165e+000 9.962052e-001 8.553231e-001
<GCONST> 9.758955e+001
<STATE> 3
<MEAN> 25
 6.306919e+000 -1.107628e+001 6.665577e+000 -7.225301e+000 -9.214362e+000 -1.178229e+001 6.011570e+000 1.010732e+001 -1.016670e+000 5.544279e-001 3.959594e+000 6.407103e-001 7.857483e-003 -7.840900e-002 -3.601902e-001 -6.564595e-002 5.981220e-001 3.702872e-001 -3.780173e-001 5.383236e-002 6.138368e-001 6.214084e-002 -5.139942e-001 -1.255562e-001 -9.963551e-002
<VARIANCE> 25
 1.910402e+001 4.648637e+001 1.230620e+002 3.056745e+001 4.131974e+001 3.313798e+001 6.760542e+001 3.133462e+001 5.277941e+001 1.631224e+001 3.033627e+001 2.879034e+001 1.975911e-001 6.258897e-001 1.155957e+000 1.052086e+000 1.308291e+000 1.058764e+000 1.911395e+000 1.165877e+000 1.563183e+000 1.791454e+000 9.530658e-001 1.110090e+000 2.178898e-001
<GCONST> 8.817451e+001
<STATE> 4
<MEAN> 25
 1.082391e+001 -1.597056e+001 9.962575e+000 -9.532479e+000 -9.848678e+000 -4.669436e+000 2.506800e+000 1.383529e+001 -3.258024e+000 2.923796e+000 2.169847e+000 -2.067539e+000 9.331471e-002 2.195860e-001 -9.102427e-001 4.276265e-001 1.143730e+000 7.138659e-001 -7.989938e-001 -3.509014e-001 7.755913e-001 1.699127e-001 -9.178597e-001 -1.815913e-001 -4.283586e-001
<VARIANCE> 25
 1.588480e+001 2.422222e+001 5.278155e+001 2.015929e+001 4.897160e+001 4.059846e+001 2.423409e+001 2.759298e+001 3.454022e+001 2.049084e+001 2.195556e+001 1.139204e+001 3.564183e-001 8.748044e-001 1.517892e+000 1.132927e+000 1.389090e+000 1.358438e+000 1.944594e+000 2.734483e+000 1.712356e+000 1.621995e+000 1.540252e+000 1.150901e+000 7.925633e-001
<GCONST> 8.809795e+001
<TRANSP> 5
 0.000000e+000 1.000000e+000 0.000000e+000 0.000000e+000 0.000000e+000
 0.000000e+000 7.381969e-001 2.618031e-001 0.000000e+000 0.000000e+000
 0.000000e+000 0.000000e+000 8.082832e-001 1.917169e-001 0.000000e+000
 0.000000e+000 0.000000e+000 0.000000e+000 7.060486e-001 2.939514e-001
 0.000000e+000 0.000000e+000 0.000000e+000 0.000000e+000 0.000000e+000
<ENDHMM>
~h "ng"
<BEGINHMM>
<NUMSTATES> 5
<STATE> 2
<MEAN> 25
 1.137481e+001 -1.264449e+001 -3.170999e+000 -9.613351e+000 4.787871e+000 1.083942e+001 -3.056882e+000 1.206375e-001 2.884320e-001 -2.383079e+000 -4.288544e-001 -3.060614e+000 7.214500e-003 1.049572e+000 -1.755798e-001 5.941363e-001 -3.568947e-001 -3.066659e-002 6.873918e-002 -3.317944e-001 -5.136669e-001 -4.055299e-001 2.998618e-001 5.634537e-001 -8.764203e-001
<VARIANCE> 25
 7.657236e+000 5.522785e+001 2.554438e+001 4.927880e+001 3.644248e+001 3.433274e+001 3.375438e+001 2.797813e+001 3.408522e+001 3.137500e+001 1.641150e+001 2.851470e+001 1.423165e-001 9.125389e-001 6.023179e-001 1.065243e+000 1.315219e+000 1.155574e+000 1.791411e+000 1.273209e+000 1.463995e+000 1.264579e+000 7.871189e-001 9.647898e-001 4.344876e-001
<GCONST> 8.450285e+001
<STATE> 3
<MEAN> 25
 9.403640e+000 1.774779e+000 -3.927924e+000 7.755486e-001 2.221292e+000 8.466860e+000 3.220830e-001 -4.658252e+000 -4.053797e+000 -3.092077e+000 2.242299e+000 4.683158e-001 -4.397892e-001 7.106944e-001 6.771611e-002 1.216830e+000 4.070717e-001 2.321197e-002 4.374205e-001 -6.364239e-003 2.338092e-001 8.286865e-002 -1.500290e-001 -9.512119e-002 -8.451416e-001
<VARIANCE> 25
 9.187678e+000 3.929019e+001 1.673587e+001 5.918211e+001 4.014025e+001 2.820338e+001 3.236979e+001 2.832653e+001 3.385579e+001 2.670852e+001 1.480248e+001 1.411755e+001 2.990789e-001 4.376608e-001 7.126079e-001 9.483223e-001 1.053550e+000 1.148868e+000 1.699832e+000 1.799039e+000 1.429128e+000 1.100588e+000 1.069415e+000 1.088880e+000 1.599685e-001
<GCONST> 8.239196e+001
<STATE> 4
<MEAN> 25
 -4.171414e+000 8.223796e+000 -9.254316e+000 6.882531e+000 3.251531e+000 3.192598e+000 2.118637e+000 -3.031796e+000 1.925913e+000 -1.181573e+000 7.867259e-001 -8.307563e-001 -6.970980e-001 1.643199e-001 -1.848686e-001 -1.296137e-001 -2.373420e-001 -4.066814e-001 -1.016383e-001 4.271468e-002 6.390169e-002 9.131443e-003 3.929590e-002 3.307652e-002 -6.454465e-001
<VARIANCE> 25
 4.703702e+001 1.979345e+001 2.811785e+001 1.754329e+001 2.984697e+001 2.856965e+001 2.000944e+001 2.114772e+001 1.995190e+001 2.092215e+001 1.519747e+001 1.789980e+001 3.261590e-001 5.109487e-001 1.051842e+000 8.706643e-001 1.000447e+000 1.184422e+000 1.273599e+000 1.338865e+000 1.573459e+000 1.568370e+000 1.182336e+000 1.121442e+000 1.398806e-001
<GCONST> 8.146252e+001
<TRANSP> 5
 0.000000e+000 1.000000e+000 0.000000e+000 0.000000e+000 0.000000e+000
 0.000000e+000 9.090558e-001 9.094422e-002 0.000000e+000 0.000000e+000
 0.000000e+000 0.000000e+000 9.092362e-001 9.076381e-002 0.000000e+000
 0.000000e+000 0.000000e+000 0.000000e+000 9.501858e-001 4.981420e-002
 0.000000e+000 0.000000e+000 0.000000e+000 0.000000e+000 0.000000e+000
<ENDHMM>
~h "ny"
<BEGINHMM>
<NUMSTATES> 5
<STATE> 2
<MEAN> 25
 1.185306e+000 2.744994e+000 3.107266e+000 2.946843e+000 5.655571e-001 1.248692e+000 -3.254323e+000 -1.513660e+000 -3.981262e+000 -4.024841e-001 -1.582203e-002 3.570239e+000 -1.055413e-001 1.476296e-001 -1.151838e-001 -7.544837e-002 -1.715887e-001 3.162260e-002 2.711925e-002 9.830520e-002 5.474835e-002 1.730663e-001 1.745363e-001 5.326895e-002 -1.041636e-001
<VARIANCE> 25
 2.505040e+001 1.905542e+001 3.477955e+001 2.667826e+001 3.110455e+001 2.245131e+001 2.289973e+001 2.671927e+001 2.294932e+001 1.275701e+001 1.734371e+001 1.666738e+001 3.780595e-001 5.403560e-001 7.280645e-001 1.043501e+000 1.123201e+000 1.416381e+000 1.920864e+000 2.313087e+000 1.150683e+000 1.087931e+000 1.221356e+000 1.419641e+000 5.007743e-001
<GCONST> 8.343534e+001
<STATE> 3
<MEAN> 25
 -6.110658e+000 9.618876e+000 -3.711947e+000 3.151104e+000 -4.588436e+000 -2.831445e+000 -1.063738e-001 2.650982e-001 1.112884e-001 -1.119476e+000 3.082033e+000 4.384997e-001 -4.159299e-001 3.538987e-001 2.431277e-001 -2.249563e-001 -1.426282e-001 2.919001e-002 -1.605732e-002 1.597110e-002 3.382698e-001 9.336730e-002 9.147262e-002 -2.498094e-001 -9.229327e-002
<VARIANCE> 25
 5.505192e+001 2.405724e+001 4.393505e+001 2.574610e+001 2.382251e+001 1.297737e+001 1.738011e+001 2.232667e+001 1.443302e+001 1.778869e+001 1.756243e+001 1.937049e+001 7.803810e-001 8.782622e-001 1.275229e+000 1.614808e+000 1.323926e+000 6.971706e-001 9.131047e-001 1.066368e+000 1.114494e+000 7.632611e-001 1.278713e+000 1.134728e+000 1.231811e+000
<GCONST> 8.389594e+001
<STATE> 4
<MEAN> 25
 -2.692545e+000 4.170606e+000 1.829352e+000 -1.332327e+000 -6.723720e+000 2.551763e-001 2.565748e+000 2.364504e+000 3.520630e+000 -2.085312e+000 3.602019e+000 -2.303699e-002 1.504296e+000 -3.250330e-001 6.862205e-001 4.278742e-001 1.740148e-001 1.059561e-001 9.135650e-001 2.649816e-001 6.151192e-001 -6.348491e-001 -6.835683e-001 -5.582276e-001 1.454541e+000
<VARIANCE> 25
 6.602595e+001 1.229118e+002 4.765376e+001 9.573752e+001 8.258303e+001 1.760017e+001 1.653585e+001 2.926562e+001 2.387920e+001 2.892149e+001 2.667369e+001 1.988368e+001 7.020768e+000 7.787626e+000 5.191369e+000 3.769544e+000 6.739989e+000 3.139428e+000 2.168430e+000 2.664006e+000 2.357841e+000 2.323945e+000 1.983853e+000 1.362223e+000 3.306420e+000
<GCONST> 1.053212e+002
<TRANSP> 5
 0.000000e+000 1.000000e+000 0.000000e+000 0.000000e+000 0.000000e+000
 0.000000e+000 9.139863e-001 8.601375e-002 0.000000e+000 0.000000e+000
 0.000000e+000 0.000000e+000 8.182150e-001 1.817850e-001 0.000000e+000
 0.000000e+000 0.000000e+000 0.000000e+000 7.421718e-001 2.578283e-001
 0.000000e+000 0.000000e+000 0.000000e+000 0.000000e+000 0.000000e+000
<ENDHMM>
~h "sp"
<BEGINHMM>
<NUMSTATES> 5
<STATE> 2
<MEAN> 25
 1.565769e-007 -6.290797e-008 -2.937665e-007 -4.371385e-008 5.392831e-009 -1.134847e-007 1.048326e-008 1.461609e-009 6.497437e-008 2.474654e-008 2.793856e-008 3.496100e-008 6.361995e-003 4.308552e-003 2.542655e-003 -9.878381e-004 4.629357e-004 7.091404e-004 -2.578934e-003 -6.028318e-003 -4.543920e-003 -2.417521e-003 -2.678531e-003 -6.849539e-003 3.474661e-003
<VARIANCE> 25
 1.482363e+002 1.186289e+002 1.358767e+002 1.150533e+002 6.856859e+001 5.959438e+001 5.340210e+001 5.644455e+001 5.966214e+001 3.805057e+001 3.493165e+001 2.775295e+001 2.220379e+000 3.354012e+000 3.076584e+000 3.783211e+000 3.009660e+000 2.603472e+000 2.703241e+000 2.901384e+000 2.795699e+000 2.264799e+000 1.906537e+000 1.789198e+000 2.980222e+000
<GCONST> 1.090549e+002
<STATE> 3
<MEAN> 25
 1.565769e-007 -6.290797e-008 -2.937665e-007 -4.371385e-008 5.392831e-009 -1.134847e-007 1.048326e-008 1.461609e-009 6.497437e-008 2.474654e-008 2.793856e-008 3.496100e-008 6.361995e-003 4.308552e-003 2.542655e-003 -9.878381e-004 4.629357e-004 7.091404e-004 -2.578934e-003 -6.028318e-003 -4.543920e-003 -2.417521e-003 -2.678531e-003 -6.849539e-003 3.474661e-003
<VARIANCE> 25
 1.482363e+002 1.186289e+002 1.358767e+002 1.150533e+002 6.856859e+001 5.959438e+001 5.340210e+001 5.644455e+001 5.966214e+001 3.805057e+001 3.493165e+001 2.775295e+001 2.220379e+000 3.354012e+000 3.076584e+000 3.783211e+000 3.009660e+000 2.603472e+000 2.703241e+000 2.901384e+000 2.795699e+000 2.264799e+000 1.906537e+000 1.789198e+000 2.980222e+000
<GCONST> 1.090549e+002
<STATE> 4
<MEAN> 25
 1.565769e-007 -6.290797e-008 -2.937665e-007 -4.371385e-008 5.392831e-009 -1.134847e-007 1.048326e-008 1.461609e-009 6.497437e-008 2.474654e-008 2.793856e-008 3.496100e-008 6.361995e-003 4.308552e-003 2.542655e-003 -9.878381e-004 4.629357e-004 7.091404e-004 -2.578934e-003 -6.028318e-003 -4.543920e-003 -2.417521e-003 -2.678531e-003 -6.849539e-003 3.474661e-003
<VARIANCE> 25
 1.482363e+002 1.186289e+002 1.358767e+002 1.150533e+002 6.856859e+001 5.959438e+001 5.340210e+001 5.644455e+001 5.966214e+001 3.805057e+001 3.493165e+001 2.775295e+001 2.220379e+000 3.354012e+000 3.076584e+000 3.783211e+000 3.009660e+000 2.603472e+000 2.703241e+000 2.901384e+000 2.795699e+000 2.264799e+000 1.906537e+000 1.789198e+000 2.980222e+000
<GCONST> 1.090549e+002
<TRANSP> 5
 0.000000e+000 1.000000e+000 0.000000e+000 0.000000e+000 0.000000e+000
 0.000000e+000 6.000000e-001 4.000000e-001 0.000000e+000 0.000000e+000
 0.000000e+000 0.000000e+000 6.000000e-001 4.000000e-001 0.000000e+000
 0.000000e+000 0.000000e+000 0.000000e+000 7.000000e-001 3.000000e-001
 0.000000e+000 0.000000e+000 0.000000e+000 0.000000e+000 0.000000e+000
<ENDHMM>
~h "sil"
<BEGINHMM>
<NUMSTATES> 5
<STATE> 2
<MEAN> 25
 -5.366287e+000 5.460113e+000 -4.256236e+000 6.074132e+000 2.467739e-001 -9.052493e-001 1.125179e+000 -3.190637e-001 2.417565e+000 -1.131306e+000 -4.018069e-002 1.140693e+000 -3.641065e-001 2.820111e-001 -4.007076e-002 -1.380772e-002 -2.312782e-002 1.337337e-002 -1.055899e-001 -1.750275e-001 -3.914928e-002 1.346005e-002 8.655441e-002 -1.432328e-001 -4.167745e-001
<VARIANCE> 25
 1.038172e+002 5.388616e+001 5.285496e+001 4.242154e+001 5.687249e+001 2.693478e+001 3.176684e+001 2.800440e+001 3.018504e+001 2.298419e+001 2.082961e+001 2.290031e+001 5.797834e-001 8.276647e-001 8.356982e-001 1.014251e+000 1.462744e+000 1.374913e+000 1.509863e+000 1.439593e+000 1.470735e+000 1.425460e+000 1.223089e+000 1.287675e+000 8.623511e-001
<GCONST> 9.074821e+001
<STATE> 3
<MEAN> 25
 -1.618573e+001 8.070778e+000 -5.970270e+000 6.501373e+000 -9.241033e-001 -3.513801e-002 2.835728e-001 -1.596687e+000 2.629132e+000 -9.195772e-001 2.337336e+000 -5.524554e-001 -2.813666e-001 -7.996435e-002 -2.620139e-003 -3.473900e-002 1.628924e-002 8.518408e-002 2.902421e-002 -2.634174e-002 3.452711e-002 3.610844e-002 4.262064e-002 -1.410860e-001 -1.890246e-001
<VARIANCE> 25
 5.276604e+001 1.581946e+001 2.861280e+001 1.330313e+001 1.672153e+001 1.857091e+001 1.745608e+001 1.770162e+001 2.128234e+001 1.957862e+001 1.720645e+001 1.301982e+001 1.764915e-001 2.631930e-001 3.995900e-001 5.333131e-001 7.395366e-001 7.802410e-001 9.129400e-001 1.073833e+000 1.359307e+000 1.337809e+000 1.003400e+000 9.333687e-001 6.563759e-002
<GCONST> 7.415540e+001
<STATE> 4
<MEAN> 25
 -2.374649e+001 3.241160e+000 -8.806377e+000 6.238019e+000 -2.318330e-001 2.306139e+000 4.244707e+000 2.327653e+000 6.077981e+000 1.109103e+000 4.703802e+000 1.673400e+000 -3.641747e-002 -2.045291e-002 -3.880175e-003 -1.069435e-002 3.073473e-003 2.588795e-002 3.290175e-002 2.809036e-003 -9.225138e-003 -1.089734e-002 -1.032933e-002 2.878078e-002 -2.133084e-002
<VARIANCE> 25
 1.242715e+001 8.565510e+000 1.058811e+001 8.050601e+000 1.015993e+001 1.107843e+001 1.251377e+001 1.499224e+001 1.574508e+001 1.093873e+001 9.531796e+000 8.079844e+000 7.056942e-002 1.631272e-001 2.297075e-001 3.829925e-001 5.545824e-001 4.849133e-001 8.454337e-001 1.149712e+000 1.312825e+000 9.971575e-001 8.594723e-001 8.828359e-001 2.980222e-002
<GCONST> 6.275401e+001
<TRANSP> 5
 0.000000e+000 1.000000e+000 0.000000e+000 0.000000e+000 0.000000e+000
 0.000000e+000 9.124396e-001 8.756045e-002 0.000000e+000 0.000000e+000
 0.000000e+000 0.000000e+000 8.763134e-001 1.236866e-001 0.000000e+000
 0.000000e+000 0.000000e+000 0.000000e+000 9.646618e-001 3.533821e-002
 0.000000e+000 0.000000e+000 0.000000e+000 0.000000e+000 0.000000e+000
<ENDHMM>
